//Numpy array shape [3, 3, 3, 4]
//Min -0.781250000000
//Max 0.968750000000
//Number of zeros 1

#ifndef W2_H_
#define W2_H_

#ifndef __SYNTHESIS__
weight2_t w2[108];
#else
weight2_t w2[108] = {0.21875, 0.50000, 0.06250, 0.03125, 0.40625, -0.21875, 0.06250, 0.18750, 0.18750, -0.62500, -0.31250, -0.53125, 0.28125, 0.75000, -0.15625, -0.37500, 0.46875, -0.25000, -0.06250, -0.03125, 0.09375, -0.62500, -0.59375, 0.09375, -0.15625, 0.34375, -0.12500, 0.40625, 0.03125, -0.15625, -0.59375, -0.31250, 0.12500, 0.06250, -0.62500, 0.12500, 0.12500, 0.53125, 0.50000, -0.78125, -0.59375, -0.12500, 0.46875, -0.31250, -0.09375, -0.71875, -0.12500, -0.15625, -0.25000, 0.28125, 0.59375, 0.00000, 0.15625, -0.62500, 0.15625, 0.06250, -0.46875, -0.31250, 0.78125, 0.12500, -0.68750, 0.06250, -0.21875, -0.53125, -0.06250, -0.28125, 0.37500, -0.25000, -0.34375, 0.53125, -0.09375, -0.03125, -0.40625, 0.25000, -0.34375, 0.03125, -0.28125, -0.31250, 0.18750, -0.25000, -0.18750, -0.12500, -0.59375, -0.43750, -0.50000, 0.12500, -0.15625, 0.56250, -0.43750, 0.06250, -0.56250, 0.62500, -0.28125, -0.53125, -0.75000, 0.34375, 0.65625, 0.40625, -0.03125, -0.15625, 0.87500, 0.21875, -0.12500, -0.46875, 0.96875, 0.43750, -0.40625, -0.75000};
#endif

#endif
