//Numpy array shape [64]
//Min 0.000000000000
//Max 0.000000000000
//Number of zeros 64

#ifndef B22_H_
#define B22_H_

#ifndef __SYNTHESIS__
bias22_t b22[64];
#else
bias22_t b22[64] = {-1.1406809092, 1.0735377073, -0.4069508910, -1.1592264175, 0.1275864244, 1.9725842476, -0.1045700610, 0.5600948334, 0.0925536901, 1.3529200554, -1.4311587811, 1.0099539757, 0.0961036831, -0.9638948441, 0.8843107820, -1.2406458855, 1.4642770290, -0.5906664729, -0.8556494713, 0.7111253738, -0.3407200575, 1.6156320572, 1.4668962955, 0.5944641232, 0.4882785082, -0.0459884703, 0.9827069044, 0.5218612552, 1.2243686914, 0.8844817877, 1.9962917566, 0.1886569560, -0.1632016897, -0.4489571452, 0.8820018768, 0.2917248607, -0.4996654391, -0.2505193949, -0.9790862799, 1.8315370083, 2.0504646301, -0.0303986371, 1.3167713881, -0.7783786058, 0.5298441648, 0.1971490085, -0.2747721672, 0.3539446592, 1.5251708031, 0.6245850921, 1.2222983837, 0.4238477945, 0.3108857870, 1.8449602127, -0.8041954041, -1.1312329769, -0.5145859718, 0.5563260913, 0.6566984653, 1.1778987646, 0.4895428419, -0.1955052018, 0.2157516927, 1.4034386873};
#endif

#endif
