//Numpy array shape [3, 3, 16, 24]
//Min -0.336837232113
//Max 0.361754298210
//Number of zeros 1728

#ifndef W12_H_
#define W12_H_

#ifndef __SYNTHESIS__
conv_2_weight_t w12[3456];
#else
conv_2_weight_t w12[3456] = {-0.0000000000, -0.1633038372, -0.3285309970, -0.1219731271, -0.0000000000, -0.1420179904, 0.0783755407, 0.0000000000, -0.0528655909, 0.0358636118, -0.0000000000, -0.0000000000, -0.0000000000, -0.0000000000, -0.0000000000, -0.1242059097, -0.0000000000, -0.2033086270, 0.0000000000, 0.0000000000, 0.0000000000, 0.1848293096, 0.0000000000, 0.1087405384, 0.0003838885, 0.0000000000, -0.0000000000, 0.0365354829, 0.0072421255, -0.1481298804, 0.1047161967, 0.0000000000, 0.0000000000, 0.0000000000, -0.1456633359, 0.0000000000, 0.0183850694, 0.0930834636, -0.0000000000, 0.0000000000, 0.0021731872, 0.0933464691, 0.0607000701, 0.0000000000, -0.0000000000, -0.2021509707, -0.1585569233, -0.0357334204, 0.0000000000, -0.0000000000, -0.0000000000, -0.0000000000, -0.2634458244, 0.0000000000, -0.1395846307, -0.0000000000, 0.0424242020, 0.0139445690, 0.0926148370, -0.0029432599, -0.0037705624, -0.0000000000, -0.0000000000, 0.0000000000, 0.2288905680, -0.0335328467, 0.0000000000, -0.0000000000, 0.0000000000, -0.0000000000, 0.1197928265, -0.0000000000, 0.0000000000, 0.0000000000, 0.0000000000, 0.0315821469, -0.1338727176, -0.0211289618, -0.0000000000, 0.0864486992, 0.0165064260, 0.0000000000, 0.0000000000, 0.1556512862, 0.0000000000, 0.1231911778, 0.0000000000, 0.0671636462, 0.0000000000, -0.0000000000, -0.1186298132, 0.0000000000, 0.0000000000, -0.2236476094, -0.0405827314, -0.1677688956, 0.1026124433, -0.0000000000, 0.0000000000, -0.0097597223, -0.0000000000, -0.0877300352, -0.1609602422, -0.0000000000, 0.0000000000, 0.0000000000, -0.0000000000, 0.0000000000, -0.1217663065, -0.1367681026, -0.1772402227, -0.0000000000, 0.0927121490, -0.0616095066, -0.0627288893, -0.0496251918, -0.0000000000, 0.1133373976, -0.0000000000, 0.0000000000, 0.0299152564, 0.0000000000, -0.0000000000, -0.0000000000, -0.0119841956, -0.0000000000, 0.0000000000, -0.1406670809, 0.0000000000, 0.0000000000, -0.2639747858, -0.2634644508, 0.1732375324, -0.0000000000, -0.0000000000, 0.1259102523, 0.0603271089, -0.0000000000, 0.0000000000, -0.0482201129, -0.2973101139, -0.0000000000, 0.2030793130, 0.0333336107, 0.0000000000, -0.0000000000, -0.1104314178, 0.0000000000, 0.0339250825, -0.0907614604, 0.0000000000, 0.0000000000, 0.1142858490, 0.0091061518, 0.0000000000, 0.0215835683, -0.0283808708, 0.0000000000, -0.0000000000, -0.0000000000, -0.1192848682, -0.1143575087, 0.0000000000, -0.2716908455, -0.2205556333, -0.0000000000, 0.0000000000, -0.0524403043, 0.0000000000, -0.0469582751, -0.0019524372, 0.0000000000, -0.0000000000, -0.1400059164, 0.2374115139, 0.0000000000, 0.0138115874, 0.0000000000, 0.0000000000, 0.3584366739, 0.0000000000, -0.0000000000, -0.0000000000, 0.0000000000, -0.0000000000, 0.0000000000, 0.1998462528, 0.0011217775, -0.0000000000, 0.0000000000, 0.0000000000, 0.0000000000, 0.0716783851, 0.1371994317, 0.0100681148, -0.0000000000, -0.2527990043, -0.0000000000, -0.0663884133, -0.0000000000, 0.0855955854, 0.0000000000, 0.0061897109, -0.0007516454, -0.0000000000, -0.0000000000, 0.2385029048, 0.1876811087, 0.0000000000, -0.0000000000, -0.1433401853, -0.0000000000, 0.0000000000, 0.0000000000, 0.0000000000, -0.0787906796, 0.1041287482, -0.1691806912, 0.0010884764, 0.1226572692, -0.0000000000, -0.1677256376, 0.0000000000, -0.0561202653, 0.0000000000, 0.0000000000, -0.0000000000, -0.0000000000, -0.0499187969, -0.0000000000, -0.1523430794, 0.0000000000, -0.1493584216, -0.0000000000, 0.0473563746, -0.0095823398, 0.0392761268, 0.0216163266, 0.0000000000, 0.2654430568, 0.1009205133, 0.1029073074, -0.0000000000, 0.0000000000, -0.3156743646, -0.0000000000, 0.0000000000, 0.0000000000, 0.0000000000, 0.0912883729, -0.2234270126, -0.0738037974, -0.2785358131, -0.0979119167, 0.0342935026, 0.0463643782, 0.1139015704, -0.1680262983, 0.0000000000, -0.2077365518, -0.0000000000, -0.0000000000, -0.0000000000, -0.1345013827, -0.0000000000, -0.0000000000, 0.0000000000, 0.1309362203, -0.0000000000, 0.0001927835, 0.0000000000, 0.1829253733, 0.1834488213, -0.0000000000, -0.0000000000, 0.2308043987, -0.0000000000, -0.2080852538, -0.0000000000, -0.2409589142, -0.0000000000, -0.0000000000, -0.0467813797, -0.0680815578, -0.0000000000, -0.0000000000, 0.1272383779, 0.0000000000, -0.0666254610, -0.0000000000, 0.0302045047, 0.0024917782, 0.0000000000, 0.0000000000, -0.2471492589, 0.0000000000, 0.0769507512, -0.0000000000, 0.0000000000, -0.0000000000, -0.0000000000, 0.0168486424, 0.0000000000, -0.0330127068, -0.1404460669, 0.0000000000, 0.1818498075, 0.0000000000, -0.1792471111, 0.0056796451, 0.0181421861, -0.0044624680, 0.0935998932, 0.1085495651, -0.1074499115, 0.0000000000, -0.0000000000, 0.0000000000, 0.0188240483, -0.0000000000, -0.1648562104, -0.0000000000, -0.0000000000, -0.0000000000, 0.0000000000, -0.0000000000, 0.0000000000, -0.0000000000, 0.0000000000, -0.0632806271, -0.0958021581, 0.0257954542, -0.0000000000, -0.0000000000, 0.0019984294, -0.0000000000, 0.0780259520, 0.0770748407, -0.0000000000, -0.1217920557, -0.0923192576, 0.1758084744, -0.1072310582, -0.0000000000, -0.0021367380, -0.0000000000, -0.0000000000, -0.0000000000, 0.0000000000, -0.0000000000, 0.0000000000, -0.0334906839, -0.0000000000, 0.2247358859, 0.0000000000, 0.0000000000, 0.0000000000, -0.0000000000, -0.0000000000, -0.0000000000, 0.0000000000, -0.1346704811, 0.0000000000, 0.0000000000, -0.0296616331, -0.1837505102, 0.0856187195, 0.1316844523, 0.2324502915, -0.0848001391, 0.0286468491, 0.1284960955, 0.2221755981, 0.0000000000, 0.0000000000, -0.1429908276, -0.0000000000, 0.0000000000, 0.0000000000, 0.1470342427, 0.0000000000, 0.0000000000, 0.0000000000, -0.0000000000, 0.1794501990, 0.0291242469, -0.0000000000, 0.0000000000, -0.0000000000, -0.0202324428, -0.2615650594, -0.1141453907, -0.0280087348, -0.0000000000, -0.2397099137, 0.3046160042, -0.1025632024, 0.0796327516, -0.0022183200, 0.0576457158, -0.0278783645, 0.0000000000, 0.2400768995, 0.1784336865, -0.3363184035, -0.1787635088, -0.0000000000, -0.0030343959, 0.0000000000, 0.0000000000, 0.0000000000, 0.1303188056, 0.0000000000, -0.0000000000, -0.3300518394, -0.2744042575, 0.0000000000, 0.0000000000, -0.0866259411, -0.2284809798, -0.0157637484, -0.0000000000, -0.0000000000, 0.1247456595, 0.1206183806, -0.0000000000, 0.0000000000, 0.0000000000, -0.0000000000, -0.0000000000, -0.2499526739, 0.2831563950, -0.2752124071, -0.0762540847, -0.0000000000, 0.0297843590, 0.0000000000, 0.0000000000, 0.3037314713, -0.0000000000, 0.0096921781, 0.2753638327, 0.0685087293, 0.0000000000, -0.1939209700, 0.1252517998, -0.1198362634, -0.0000000000, 0.0000000000, -0.0000000000, 0.0000000000, 0.0536990017, -0.0149539998, -0.0000000000, 0.0058985041, 0.0000000000, -0.0937187299, 0.0588753857, -0.0099496283, 0.0319913775, 0.0607485659, 0.0626680627, 0.3944000006, -0.0000000000, -0.4644676745, 0.0000000000, -0.0000000000, -0.0779003277, 0.2380747050, -0.0000000000, 0.2053865343, 0.0373192802, -0.1437972933, -0.2330247909, 0.0043882690, 0.0792457089, 0.1632844359, 0.0000000000, 0.1644330621, 0.1061794981, -0.0000000000, 0.0618359298, 0.1553024650, 0.0577663518, -0.0000000000, -0.0000000000, 0.1831455380, -0.0000000000, 0.0000000000, -0.1143911928, -0.0000000000, 0.0000000000, 0.0000000000, -0.2354666442, 0.1350066513, -0.0000000000, 0.0994704962, 0.0000000000, 0.1648016423, 0.0448373370, -0.0000000000, 0.2062098086, -0.0374653973, 0.0000000000, 0.1510601193, -0.0977195427, -0.0000000000, 0.0038854207, -0.1624941081, 0.0000000000, -0.0000000000, -0.0000000000, 0.0000000000, 0.0000000000, 0.1371866912, -0.0000000000, -0.0114327921, 0.2484987825, 0.1993792206, 0.0000000000, 0.1044563130, 0.2275643200, 0.0000000000, 0.0029117658, -0.0762357861, -0.0753469914, 0.0000000000, -0.0316868462, 0.2010972351, 0.0000000000, -0.0000000000, 0.2554826736, -0.0000000000, -0.0000000000, -0.2620224357, 0.0000000000, 0.2190512419, 0.0000000000, -0.2803405225, 0.0000000000, 0.0000000000, -0.0330632590, 0.1286769509, 0.0000000000, 0.0649907663, -0.0000000000, 0.0000000000, 0.0000000000, -0.2696850002, 0.1124161407, 0.0000000000, 0.1736097932, 0.4051947296, 0.0000000000, -0.0847724453, -0.0000000000, -0.0000000000, -0.0000000000, -0.0000000000, 0.0000000000, -0.0000000000, 0.0000000000, -0.3061426282, -0.1022793055, 0.0795489028, 0.0000000000, -0.0000000000, 0.0000000000, 0.0979916155, -0.0000000000, -0.0513677336, -0.3489605188, -0.0000000000, 0.0000000000, 0.0000000000, 0.0466897748, -0.0000000000, -0.0000000000, -0.0000000000, 0.0000000000, -0.0000000000, -0.0000000000, -0.0622034073, -0.0181499999, 0.0000000000, 0.0942820236, 0.1270716339, -0.0984687135, -0.0000000000, 0.0000000000, -0.0000000000, -0.0000000000, 0.0000000000, -0.0000000000, 0.1404903233, 0.2405875325, 0.0000000000, -0.1660623997, 0.0000000000, 0.1571665108, 0.2588699460, -0.1975659281, -0.2206867784, -0.0059021022, 0.2956906259, -0.0000000000, 0.0000000000, 0.0000000000, 0.0789792612, 0.0000000000, -0.0000000000, -0.0000000000, -0.2050480247, -0.1417240798, -0.1388013065, -0.0000000000, 0.0000000000, 0.0000000000, -0.0319061056, 0.0000000000, 0.0000000000, 0.0000000000, -0.0000000000, -0.1184971184, 0.0075559947, 0.1658560783, 0.2150086910, 0.0000000000, -0.1448567957, 0.1710696369, -0.1287664324, -0.2141199857, 0.0056109265, 0.0000000000, -0.0892327279, 0.0321942568, -0.0000000000, 0.0000000000, -0.0000000000, 0.0150769092, 0.0445647836, 0.1318399012, -0.0531842522, 0.0826312304, -0.1046289206, -0.0000000000, -0.0000000000, 0.1662249714, -0.1234920770, -0.0000000000, 0.0000000000, 0.2733640075, -0.0000000000, -0.0518308990, 0.5091893077, 0.0000000000, -0.1378095150, -0.0000000000, 0.1814700216, -0.0000000000, 0.0000000000, 0.1546790153, 0.0000000000, 0.1656845510, 0.0169582888, 0.3187943399, -0.0000000000, -0.1032295972, 0.2587424219, 0.2129633576, 0.0321752690, -0.0000000000, 0.0000000000, 0.0000000000, 0.0000000000, -0.1045071930, -0.3149558306, -0.0303366557, 0.0000000000, 0.0000000000, 0.0703023374, 0.0000000000, 0.0506237186, 0.1291436851, -0.0572073087, 0.2071779668, -0.0000000000, 0.0000000000, 0.0208374448, 0.0790037885, 0.0013929012, 0.0000000000, -0.0000000000, -0.2237192839, -0.0000000000, 0.2284955084, -0.2776375711, 0.0000000000, 0.0000000000, 0.0000000000, -0.0000000000, 0.1038163528, -0.0000000000, 0.0000000000, 0.0825196281, 0.0866184905, -0.0000000000, -0.0000000000, 0.0000000000, 0.0000000000, 0.0000000000, -0.0000000000, -0.0050874548, -0.0000000000, 0.0000000000, 0.0000000000, 0.0930649862, -0.0000000000, 0.0951124504, -0.1331312358, -0.0000000000, -0.0000000000, 0.0000000000, -0.2499805391, 0.0322684683, 0.0402481221, -0.1256792247, -0.0000000000, 0.0000000000, 0.1089527681, 0.0630054399, 0.0000000000, 0.0000000000, 0.0043159574, 0.0000000000, -0.0000000000, 0.1095371693, -0.0935921818, -0.0108355945, 0.2115163505, 0.0000000000, -0.0887553841, 0.1482234150, 0.0777663887, 0.0000000000, -0.0000000000, -0.1668558270, -0.0000000000, -0.0000000000, -0.0879033506, 0.2681867182, 0.0000000000, 0.0000000000, 0.0000000000, 0.0526779853, -0.1865539700, 0.0000000000, -0.0985573828, 0.0000000000, -0.0000000000, 0.0000000000, -0.0000000000, 0.0489142053, -0.0563089326, 0.0927186236, 0.0000000000, 0.1720872074, 0.2426598221, 0.0000000000, 0.0000000000, -0.1597063243, 0.0740470663, -0.0916647837, 0.0000000000, -0.0900644213, 0.0000000000, 0.2298645377, 0.0430938117, 0.0765888914, 0.2978384197, -0.0807412490, -0.0000000000, -0.0764509514, 0.0107143279, -0.0000000000, -0.0000000000, 0.0000000000, 0.0618878976, -0.0000000000, 0.0000000000, -0.0795551166, 0.1651545465, 0.0000000000, -0.1243778020, -0.0065176808, 0.0000000000, -0.0000000000, -0.1457075924, -0.0000000000, 0.0000000000, 0.1113134846, 0.0157675184, -0.0142124910, -0.1409128010, 0.0902855098, -0.1692282110, -0.0000000000, -0.0000000000, 0.0128468247, -0.1335492879, -0.0139826965, -0.1036818996, -0.0000000000, 0.0000000000, -0.0023369761, -0.1434301585, 0.0000000000, -0.0000000000, 0.2737668455, 0.1926828325, 0.0000000000, 0.0000000000, 0.1593331695, -0.1107624322, 0.0051578349, 0.1148165762, 0.0000000000, -0.0000000000, 0.0000000000, -0.0000000000, -0.0640072748, -0.1748035103, 0.0000000000, -0.0631429106, -0.1110699475, 0.0000000000, -0.0000000000, 0.1350454986, 0.2272881866, 0.2867489159, -0.0000000000, -0.2530652583, 0.0000000000, -0.0203832705, 0.0000000000, -0.0456398763, 0.1234537363, 0.0000000000, -0.0329386778, 0.0000000000, 0.0000000000, -0.0000000000, -0.0000000000, 0.0000000000, -0.0751337186, 0.0055544525, -0.2203080505, -0.0496082194, -0.1043978855, 0.0776337609, -0.0407771952, 0.0000000000, 0.0086476188, 0.0000000000, -0.0000000000, 0.1497435272, 0.1703642309, 0.0000000000, -0.2033087462, -0.0000000000, -0.0000000000, -0.1172068343, 0.0000000000, 0.0845576376, 0.1633125693, 0.1696022600, -0.1978562921, 0.0000000000, 0.0000000000, 0.0643893555, 0.0000000000, 0.3218545616, -0.0285804272, 0.0000000000, -0.0957622901, -0.1208399385, -0.0000000000, 0.0000000000, 0.2651698887, 0.0003686517, -0.0658955574, 0.1759585887, -0.0000000000, 0.0000000000, 0.0000000000, 0.0000000000, 0.1481698453, 0.0001422310, -0.0000000000, -0.0000000000, -0.0000000000, 0.0000000000, -0.0000000000, 0.0000000000, -0.0662794709, -0.0000000000, 0.0000000000, 0.0000000000, -0.0000000000, 0.0000000000, 0.0000000000, -0.2390971631, 0.1850659549, 0.0000000000, -0.0000000000, 0.3546102047, -0.0000000000, 0.0000000000, -0.1217371821, -0.0562895350, 0.0023134970, -0.2207486182, -0.0000000000, -0.0000000000, 0.1282672584, 0.0616775118, 0.0000000000, 0.0000000000, 0.0108719375, 0.1194370613, 0.0000000000, 0.1073594615, 0.0000000000, 0.0000000000, 0.0000000000, 0.0006663863, 0.1169709414, 0.0000000000, 0.0000000000, 0.1930082738, -0.0000000000, -0.0000000000, 0.0000000000, 0.2570328414, -0.0000000000, -0.0000000000, -0.0000000000, -0.0000000000, -0.0000000000, 0.0000000000, 0.1503589302, 0.0000000000, 0.0000000000, -0.1823847592, -0.0000000000, -0.1503625065, 0.1431082189, 0.0000000000, -0.0803080425, -0.0434022062, 0.0552851371, 0.0319746695, -0.0963148922, -0.0000000000, 0.2644347250, 0.0000000000, 0.0000000000, -0.0792757720, 0.0000000000, 0.0000000000, 0.0000000000, -0.1426365823, -0.0000000000, 0.0000000000, -0.0521703400, 0.0000000000, -0.0000000000, -0.0000000000, 0.0585221797, 0.0000000000, 0.0000000000, 0.0000000000, -0.1720101088, -0.1995956004, -0.0000000000, 0.0000000000, 0.0000000000, -0.0000000000, 0.1581883281, -0.1387634724, 0.0000000000, 0.2077601403, -0.0850380063, 0.0000000000, -0.1577219069, -0.2298076451, -0.0000000000, 0.0000000000, 0.0000000000, 0.0000000000, -0.0000000000, 0.0000000000, -0.0151447775, -0.0453203581, 0.0000000000, 0.0000000000, 0.0348309316, -0.0000000000, 0.2107524425, -0.0000000000, 0.0566722602, 0.0000000000, 0.1319189370, -0.0000000000, 0.0000000000, 0.0000000000, 0.0000000000, 0.0000000000, 0.2008909583, -0.0000000000, -0.2048602849, -0.0000000000, -0.0643129721, -0.0431711711, -0.0000000000, 0.0301193073, 0.0000000000, 0.1807208508, 0.0263700671, 0.0000000000, 0.0000000000, -0.0000000000, -0.2299783081, -0.1092624366, 0.1065291315, -0.0000000000, 0.0000000000, -0.0000000000, 0.1410861760, -0.0000000000, -0.2105531842, 0.1829004288, -0.1168201864, -0.0000000000, -0.1692041159, 0.0931072831, 0.0000000000, 0.1639526188, -0.1155703366, 0.0913793072, 0.1023179293, -0.1270061135, -0.2367735207, 0.0000000000, 0.0000000000, -0.2443184108, -0.2452863157, 0.0000000000, 0.0634854212, 0.0000000000, -0.0000000000, 0.0451452322, -0.0126775466, 0.1780107617, 0.0000000000, -0.0000000000, -0.0815602392, -0.2243663818, 0.0168722700, -0.0000000000, 0.0000000000, -0.0000000000, 0.0145550221, -0.0000000000, 0.0000000000, 0.0000000000, -0.0154264150, -0.0000000000, 0.0000000000, -0.0498822853, -0.0245127548, 0.0000000000, 0.0354336575, 0.3402268887, 0.0000000000, 0.0975298733, -0.1640261114, -0.0000000000, -0.0471724384, -0.0578408055, 0.0000000000, 0.0000000000, -0.0000000000, 0.0000000000, 0.0000000000, 0.0000000000, 0.0355973653, -0.0000000000, 0.0247482453, -0.0333709083, 0.1506513953, 0.0000000000, 0.1414847225, 0.0000000000, 0.2461155206, -0.1054433808, -0.0000000000, -0.1795050949, -0.0000000000, -0.0000000000, 0.0250274055, -0.0000000000, 0.0003859436, -0.0000000000, -0.0000000000, -0.0000000000, -0.0000000000, -0.0996119082, 0.0749629885, -0.0028239607, -0.0053801676, 0.0870691389, 0.0000000000, 0.0000000000, 0.0000000000, -0.0000000000, 0.1110196486, 0.0000000000, -0.2214313745, -0.0000000000, 0.0000000000, -0.0000000000, -0.0000000000, 0.1562906802, -0.1263882667, 0.0222827550, 0.0000000000, 0.2224798054, -0.1311893016, -0.0578621291, 0.0000000000, 0.2387868017, 0.0000000000, -0.0000000000, 0.0705928430, -0.0885798410, 0.2892973125, -0.0944609195, 0.1429045200, 0.2253405899, 0.0000000000, 0.0000000000, -0.0141999638, -0.0361412577, -0.0000000000, -0.0396223627, -0.0000000000, -0.0510210767, 0.0000000000, -0.1193360761, -0.0000000000, -0.0181129053, -0.0642846227, 0.2128299624, -0.1838108152, 0.0000000000, -0.0000000000, 0.1376843899, -0.0000000000, 0.0000000000, -0.2555861473, -0.0129733663, -0.0458701737, 0.0000000000, -0.3658169210, -0.1607473940, 0.0000000000, -0.0019101657, 0.1311232895, 0.0000000000, -0.0000000000, -0.0000000000, -0.1495740563, 0.0000000000, -0.2345194966, 0.0000000000, -0.1724697798, -0.1021694988, 0.0000000000, 0.0000000000, -0.2138902098, -0.0325808935, -0.0000000000, -0.1829465926, -0.0000000000, 0.0000000000, -0.0000000000, -0.1873285323, -0.2057580054, 0.0000000000, 0.0713301972, 0.0000000000, 0.2058839351, -0.0665402412, -0.0564930364, 0.3376322687, -0.0000000000, -0.0000000000, -0.0761764124, -0.0000000000, 0.0000000000, 0.0183278974, -0.0000000000, 0.0000000000, -0.0000000000, -0.2183994055, -0.1232885495, 0.0000000000, -0.2096626014, -0.0107087027, 0.0410352163, -0.0000000000, 0.1293559223, 0.0000000000, -0.0000000000, 0.0000000000, -0.0000000000, 0.1538538784, -0.0000000000, 0.1993413419, -0.0287456643, 0.0000000000, -0.3474233747, 0.0000000000, -0.0000000000, -0.1500650346, -0.0000000000, 0.1383482516, -0.1206677034, -0.1789681762, 0.0610769540, 0.0126519697, -0.0000000000, 0.0000000000, 0.0000000000, -0.0000000000, 0.1152651832, 0.1305740625, -0.0000000000, 0.0000000000, -0.0000000000, -0.2168476284, 0.0159520768, 0.0553867333, 0.0000000000, 0.0000000000, -0.1983330250, -0.0000000000, -0.0000000000, 0.1257157028, 0.0000000000, 0.0000000000, 0.1643629968, -0.0000000000, 0.1347927451, -0.0784239918, -0.2418125868, -0.1384240985, 0.0000000000, 0.0181779973, -0.0902811810, -0.0000000000, -0.2816097736, 0.0000000000, -0.0357417576, -0.0000000000, 0.1573559791, -0.0000000000, 0.1102302447, -0.2218565643, -0.0000000000, 0.0021562262, -0.0000000000, 0.0000000000, -0.0000000000, 0.3874342442, 0.1051541790, -0.0000000000, -0.0000000000, -0.0000000000, 0.0000000000, -0.0000000000, 0.0459339432, -0.0000000000, 0.0000000000, -0.2074433863, 0.0000000000, 0.0000000000, -0.0000000000, -0.0189018119, -0.0000000000, -0.0000000000, 0.0000000000, -0.0422652476, -0.0000000000, 0.0138980793, 0.0000000000, -0.0000000000, -0.0000000000, 0.2665554285, 0.0999572054, -0.0000000000, -0.0280709993, -0.1993680149, 0.0000000000, 0.0000000000, 0.0000000000, -0.1262307763, 0.0000000000, 0.0110246558, 0.0000000000, -0.1184236035, 0.0000000000, -0.0000000000, -0.0000000000, 0.1354776174, 0.0000000000, -0.0013281733, 0.0000000000, 0.0000000000, -0.0000000000, 0.2243761718, 0.0000000000, -0.0000000000, -0.0000000000, 0.1087268367, -0.0000000000, -0.1344013810, -0.0000000000, 0.0000000000, 0.0000000000, -0.0000000000, 0.0000000000, -0.1667133272, 0.0388404131, 0.0000000000, -0.0148164937, -0.1013293788, -0.0708364472, 0.0000000000, 0.0230913833, 0.1476329416, -0.0525616594, 0.1027877554, -0.0932002813, 0.0000000000, 0.1319075525, -0.0000000000, 0.0000000000, -0.0886155143, 0.1942598522, 0.1688468754, 0.0549132414, 0.0000000000, -0.0014736296, 0.0772248656, -0.0000000000, 0.0415753908, -0.0218442325, 0.0104222763, 0.0000000000, -0.0000000000, -0.0000000000, -0.0010175047, -0.1360833198, -0.0000000000, 0.0000000000, 0.0000000000, -0.0000000000, -0.0000000000, 0.0000000000, -0.0000000000, 0.0000000000, 0.0386336483, 0.0000000000, 0.0000000000, 0.1490135044, 0.0000000000, 0.0000000000, -0.0000000000, -0.1570973694, -0.3225254416, -0.0467445813, 0.0000000000, -0.0000000000, -0.0000000000, -0.0000000000, -0.0565273687, -0.0624050833, 0.0000000000, -0.0600691512, 0.0000000000, -0.0000000000, 0.0000000000, -0.1736454964, -0.2350041270, -0.1186139360, 0.0000000000, 0.3144661486, 0.1051732376, 0.0000000000, 0.0000000000, -0.0000000000, -0.0000000000, -0.1353189200, 0.0000000000, -0.0000000000, -0.0686198175, -0.0000000000, -0.0000000000, -0.0000000000, -0.0000000000, 0.0000000000, 0.0000000000, -0.1475141943, -0.0861397460, -0.0000000000, -0.0000000000, 0.2261691988, -0.0000000000, 0.0000000000, 0.1309281141, 0.0000000000, -0.0000000000, -0.2259902656, 0.1285163909, -0.0000000000, -0.1035944745, 0.1738682538, 0.0000000000, -0.0000000000, -0.0000000000, 0.0000000000, 0.0312356800, -0.1189725697, 0.0000000000, 0.1524372101, -0.0505592078, 0.1782836318, -0.0606744438, 0.0000000000, -0.0000000000, 0.1098661125, 0.0007599993, -0.3478640616, -0.0000000000, -0.0408121534, -0.2147916555, 0.0000000000, -0.0908561051, 0.0000000000, -0.0000000000, -0.0000000000, 0.0000000000, -0.1256206036, -0.0000000000, -0.0357524753, 0.0000000000, 0.0083295079, -0.1046884805, -0.1037730277, 0.1231787652, 0.0000000000, -0.0000000000, -0.0000000000, -0.1400954872, 0.0000000000, 0.1516113281, 0.0000000000, 0.0051943078, -0.0000000000, -0.0006249733, -0.0000000000, -0.0000000000, 0.0000000000, 0.0000000000, -0.0000000000, 0.0000000000, 0.1001231745, -0.0000000000, 0.0844515637, 0.0000000000, -0.0377793573, -0.1388222426, 0.0000000000, -0.0000000000, 0.0000000000, 0.0000000000, -0.0000000000, -0.0971603915, 0.1116849780, 0.0331283808, -0.0000000000, 0.1405548453, 0.1019884199, 0.0000000000, 0.0000000000, -0.0000000000, -0.1363826543, -0.0000000000, 0.0000000000, -0.0000000000, -0.0000000000, -0.0000000000, 0.0000000000, 0.0000000000, 0.0000000000, -0.0365770645, 0.1762736291, 0.0930912495, 0.0000000000, 0.0000000000, 0.1613485962, -0.0000000000, 0.0000000000, -0.0000000000, -0.0000000000, -0.1796092540, -0.2472380996, 0.0000000000, -0.0599836372, 0.0000000000, 0.1221511662, 0.0000000000, 0.0000000000, 0.0000000000, -0.0000000000, -0.0000000000, 0.0615553111, -0.1423586309, 0.0001944097, 0.2362287939, 0.0000000000, -0.0000000000, 0.0000000000, -0.3560740054, -0.3448662162, 0.1972624809, 0.2145029306, -0.0000000000, -0.0000000000, 0.0000000000, -0.0000000000, -0.0000000000, 0.0595081523, -0.1739916801, 0.2820035517, -0.0000000000, 0.2155833840, 0.0603468195, 0.0000000000, -0.0186941847, -0.3318888545, -0.3535036147, -0.0000000000, -0.2421777695, -0.0000000000, -0.0000000000, 0.1526236236, 0.0000000000, -0.0000000000, -0.2353039533, 0.0000000000, 0.0000000000, -0.2418231070, -0.0000000000, -0.0000000000, -0.0000000000, -0.0384622179, 0.0000000000, -0.0000000000, -0.0633712411, 0.0000000000, -0.2631980777, -0.2160335779, 0.2426841259, 0.1480763406, -0.0000000000, -0.0000000000, -0.1757033169, -0.0000000000, -0.1558102220, -0.0000000000, 0.0000000000, 0.0396070108, 0.0000000000, -0.1142055020, 0.1085393950, -0.0000000000, -0.0000000000, -0.0000000000, -0.0000000000, -0.1574809551, 0.1985066533, 0.1126255915, -0.0601877272, -0.1907919943, 0.1459288448, -0.0000000000, 0.3347226381, 0.0000000000, -0.0000000000, -0.0316851474, 0.0487592705, -0.1943235397, -0.1484764516, -0.1869296879, -0.0039279023, 0.0000000000, -0.0000000000, -0.0000000000, 0.1328826994, -0.3876706660, 0.2034908384, -0.0967771038, -0.1956455857, -0.1693229824, 0.1907875687, -0.0686737001, -0.0000000000, -0.1616826504, 0.0000000000, -0.1880628467, 0.0000000000, -0.0000000000, 0.0000000000, -0.2102412879, 0.0000000000, -0.2166528255, -0.1247203425, -0.0000000000, 0.0000000000, -0.2788695693, -0.0000000000, 0.2597231269, 0.0000000000, -0.1533841193, -0.2434323132, 0.2248534858, -0.0000000000, 0.1459819674, 0.0963210762, -0.0853875801, 0.0645371974, 0.0000000000, -0.0747792050, -0.2302997261, 0.0000000000, -0.0000000000, 0.0000000000, 0.0000000000, 0.0515982732, 0.0000000000, -0.0000000000, 0.0000000000, -0.0472038575, -0.2277293205, 0.0000000000, 0.1843673438, 0.0000000000, -0.0000000000, 0.0857600346, -0.0000000000, 0.0716244951, 0.1581412107, 0.0921533704, 0.0651829690, -0.0816784203, -0.2680048347, 0.3339861035, 0.0000000000, -0.1129284129, -0.0000000000, 0.1553524733, -0.0018207715, 0.1562582552, 0.0000000000, -0.0000000000, -0.0000000000, -0.2216950655, -0.2009084374, -0.0000000000, 0.2535198629, 0.0000000000, 0.1634901762, -0.0000000000, -0.0000000000, -0.0000000000, -0.0000000000, -0.0039393501, -0.0500239059, 0.0000000000, 0.0468438119, 0.0017717865, -0.0000000000, 0.0000000000, 0.2520119846, -0.0000000000, -0.0000000000, 0.1245748773, 0.0000000000, 0.0063860831, -0.0000000000, -0.0000000000, -0.2040838450, -0.0000000000, 0.0000000000, 0.0000000000, 0.1931305230, 0.0252606720, 0.0968917236, -0.0866699666, -0.2453445196, -0.0000000000, 0.0870945826, 0.0000000000, -0.0000000000, 0.0963770151, -0.2261068076, 0.0038211367, 0.0000000000, 0.1615412682, -0.0000000000, -0.2550581694, 0.0000000000, -0.0000000000, 0.0000000000, -0.0000000000, -0.0000000000, -0.0939408839, 0.1993909478, -0.0000000000, 0.0000000000, -0.2102901936, -0.0000000000, 0.0819161832, -0.0440524593, 0.1300612390, -0.0000000000, -0.0000000000, -0.0000000000, 0.0000000000, -0.0000000000, -0.0800647959, -0.0599316582, -0.0000000000, 0.1999520063, -0.0402205214, 0.0000000000, 0.0674538836, -0.1110741869, -0.0036703467, -0.0000000000, -0.0000000000, 0.0000000000, 0.0000000000, 0.3238136172, 0.0000000000, 0.1483322531, -0.0000000000, 0.0000000000, -0.1598709524, 0.1133917794, -0.0000000000, -0.0000000000, 0.0000000000, -0.4916875362, 0.2950909734, 0.0897167251, -0.4350688756, -0.0851270929, 0.0000000000, -0.1463519633, -0.2811287344, 0.0000000000, -0.2520696223, -0.1116361767, 0.0000000000, -0.0600242540, 0.0000000000, -0.1412511766, -0.0000000000, -0.0000000000, 0.1632635146, 0.1126388088, 0.2823472917, 0.1143442541, 0.0430694595, -0.2010480165, 0.0000000000, -0.1479689926, 0.3130741119, -0.2087002844, 0.0000000000, -0.0000000000, -0.0000000000, -0.0167121589, 0.0000000000, 0.0304167736, 0.0000000000, 0.0944555774, 0.0667234287, -0.2444591969, -0.0000000000, -0.2443331927, 0.1354008913, -0.2277806550, 0.0000000000, -0.2497879714, -0.0000000000, -0.1634136289, 0.2737520337, 0.0000000000, -0.0258942880, 0.2518455684, -0.2701395750, 0.0000000000, -0.0000000000, -0.1552824229, -0.0000000000, 0.0000000000, 0.0000000000, 0.0000000000, 0.0000000000, 0.1268036813, 0.1117998511, -0.0986465588, -0.0000000000, -0.0000000000, 0.0000000000, 0.1434341222, 0.0000000000, 0.0000000000, -0.2450224906, -0.1584281325, 0.0000000000, 0.2267277688, -0.2696386278, -0.0000000000, -0.0978050902, 0.0750277936, 0.0034003025, -0.0057119331, 0.0000000000, -0.0000000000, 0.0000000000, -0.0000000000, 0.0000000000, 0.0000000000, -0.0000000000, 0.0000000000, 0.0000000000, 0.0000000000, -0.0000000000, 0.0613438375, 0.1524181515, 0.1535727829, 0.2081656456, 0.0000000000, 0.0000000000, 0.0000000000, -0.0000000000, -0.0008724676, -0.0000000000, -0.0000000000, -0.0000000000, 0.0191418417, 0.3890247941, 0.0000000000, 0.0000000000, -0.2990355194, 0.0714075565, -0.0000000000, 0.0000000000, 0.0000000000, 0.0000000000, -0.0000000000, -0.1631725430, 0.1796714216, -0.0000000000, 0.0000000000, 0.1365250200, 0.0000000000, -0.0166870970, -0.1199668124, -0.0000000000, 0.0599090792, -0.0000000000, -0.0000000000, 0.1452269852, -0.0000000000, -0.2270303071, -0.0000000000, 0.0731675029, -0.0249095708, 0.0569601692, 0.2642469406, 0.0714161396, 0.0000000000, -0.0000000000, -0.0263612643, 0.2573389411, -0.0068889577, -0.0000000000, -0.0544256419, -0.1416457295, -0.0000000000, 0.0000000000, 0.0000000000, 0.0000000000, -0.1579952389, -0.2304006666, 0.0000000000, 0.1301214099, 0.0587493554, 0.0000000000, -0.1071049795, 0.0000000000, 0.0000000000, -0.0000000000, -0.0990845114, 0.1713300198, 0.1759171784, 0.0169161055, 0.2446460277, 0.0000000000, 0.0726890042, -0.0000000000, -0.0000000000, -0.1761640012, 0.0000000000, -0.1263796985, 0.0000000000, 0.0000000000, -0.0838002041, -0.0000000000, -0.1707601547, -0.0895078629, -0.0000000000, 0.0000000000, 0.0470069125, -0.0000000000, 0.0000000000, -0.0000000000, -0.0835896283, -0.1786035150, 0.0000000000, 0.0000000000, -0.0604767278, 0.0000000000, 0.0243122913, 0.0000000000, 0.0360071063, 0.0000000000, 0.0532883815, -0.0000000000, 0.0000000000, -0.1488089561, -0.1081783026, -0.0275480058, -0.0000000000, 0.0000000000, 0.0000000000, -0.2997049093, 0.0000000000, -0.2670238912, -0.1340613216, -0.1727135777, -0.0000000000, 0.0000000000, -0.2556112111, -0.0215202346, -0.1278052479, 0.3891794980, 0.0000000000, 0.0000000000, 0.1147741526, 0.0000000000, -0.0480026081, -0.1601643413, 0.0000000000, -0.2703885436, -0.1489201337, 0.2171413749, -0.1000062525, 0.1727073491, 0.0000000000, -0.2407284081, 0.0186057258, -0.2653383315, 0.0000000000, 0.0000000000, -0.0198438298, 0.0000000000, -0.0000000000, 0.2071040720, -0.3097634017, 0.1263353527, -0.0000000000, -0.0600338317, 0.0000000000, 0.0995980278, 0.0000000000, -0.0057798312, -0.0339921750, -0.0694496185, -0.0650197864, 0.0632407516, -0.1754431576, 0.0000000000, -0.0000000000, 0.0000000000, 0.1186682060, -0.1745007783, 0.0000000000, 0.0000000000, -0.0682353899, 0.0000000000, -0.0000000000, 0.0000000000, 0.0000000000, -0.1276645809, -0.2148246467, 0.1550657749, 0.0000000000, 0.0000000000, 0.0734561607, 0.0000000000, -0.2834139168, -0.0049398174, 0.0000000000, 0.0000000000, -0.1496536732, -0.0000000000, -0.0000000000, -0.1169072539, -0.0117979664, 0.1954040676, 0.0000000000, -0.0000000000, -0.0000000000, 0.0000000000, -0.0000000000, 0.0007064732, 0.0000000000, 0.0448896736, -0.0000000000, 0.0216470119, 0.0000000000, 0.0000000000, 0.0991406515, 0.0000000000, -0.0652466938, -0.0000000000, -0.1363507509, -0.1952459216, -0.1676908433, 0.1571586728, -0.0000000000, 0.0571984947, 0.0000000000, -0.0000000000, -0.2209296823, -0.3401546478, 0.0000000000, 0.0000000000, -0.0000000000, 0.0000000000, -0.0000000000, -0.1463778615, 0.0402718261, -0.0419361703, -0.1641116440, -0.0000000000, 0.0000000000, 0.0000000000, 0.0000000000, 0.0718618929, 0.0000000000, 0.0000000000, 0.0000000000, 0.0950320065, 0.1874479204, 0.0000000000, -0.1788667142, 0.0000000000, -0.0000000000, -0.0000000000, 0.1235628426, -0.0339871272, 0.0000000000, 0.0000000000, 0.2030323297, 0.0000000000, -0.0000000000, -0.2218739539, -0.0595824979, -0.1478034854, -0.0000000000, 0.0457087457, 0.0000000000, 0.2825893164, -0.1706247926, -0.2178581655, 0.0000000000, -0.0000000000, -0.0515457988, 0.0000000000, 0.0000000000, 0.0000000000, -0.1819486469, 0.0000000000, 0.0000000000, -0.0492374152, -0.0000000000, -0.0000000000, 0.0000000000, 0.1360233128, -0.0834202394, 0.0098544471, -0.0000000000, -0.0989546850, 0.0803280026, -0.1297856718, -0.0000000000, -0.1750468314, -0.0000000000, 0.0000000000, 0.0000000000, 0.1278366297, 0.1053787172, 0.0612952374, 0.0848816186, 0.0000000000, 0.0000000000, 0.0834515169, 0.0000000000, -0.0627107918, 0.0000000000, -0.1202014461, 0.0748980716, 0.0000000000, 0.3033107221, 0.0000000000, -0.0014425677, -0.0034011123, -0.0415715389, -0.0935160667, 0.1014479399, 0.0000000000, 0.0000000000, -0.0000000000, -0.0000000000, -0.3369423747, 0.1173364297, 0.0000000000, -0.0265846681, -0.0000000000, 0.0000000000, -0.1960205287, 0.0000000000, 0.0000000000, -0.1437754780, 0.1201390922, -0.1291660219, 0.0000000000, 0.0000000000, -0.1553724259, -0.0000000000, -0.0000000000, 0.0554391108, 0.0000000000, -0.1254670471, 0.0000000000, -0.0508118421, 0.1483571827, 0.0000000000, -0.1157858297, -0.0827072486, -0.2078281492, -0.0000000000, -0.0000000000, 0.1663635820, 0.0257163588, 0.0577456653, 0.0000000000, -0.1362393796, -0.0980866477, -0.1067444533, 0.1128468290, -0.0000000000, 0.0000000000, -0.0629157349, 0.0000000000, 0.1377439350, 0.0770375878, -0.0235542990, -0.0000000000, 0.0188382063, 0.0000000000, -0.0000000000, 0.1862972677, -0.0000000000, -0.0000000000, 0.2256180346, -0.0000000000, -0.1156769618, 0.1084534600, 0.0000000000, -0.0000000000, -0.0089978529, -0.0000000000, 0.1783699244, -0.0000000000, 0.0794690847, -0.0000000000, 0.0000000000, -0.0581378005, -0.0293668769, -0.2621274590, 0.0000000000, 0.0000000000, -0.2396809608, -0.0000000000, -0.0000000000, 0.0000000000, 0.0000000000, -0.1435132474, -0.0000000000, -0.0000000000, 0.2064752132, 0.0189815983, 0.0000000000, 0.0000000000, 0.2468149662, 0.0000000000, -0.0000000000, -0.0000000000, 0.0000000000, -0.0000000000, 0.0055673062, 0.0081227347, -0.0000000000, 0.0000000000, 0.0000000000, -0.0635842755, -0.0000000000, -0.0000000000, -0.0000000000, -0.0000000000, -0.0390271544, -0.0498111844, 0.0000000000, 0.0000000000, 0.0286044013, 0.0000000000, 0.0000000000, 0.0274726637, -0.0000000000, -0.0000000000, -0.2058347017, -0.0000000000, 0.0000000000, -0.0000000000, 0.0000000000, -0.0000000000, 0.0717169121, 0.0982526764, -0.0000000000, -0.0589035340, -0.0000000000, 0.1220167354, -0.0000000000, -0.1019017473, 0.1641505659, 0.1001053751, 0.0000000000, -0.0000000000, 0.0000000000, 0.0000000000, -0.0246576760, -0.0000000000, 0.0000000000, 0.1776728630, -0.0930774659, 0.0333353579, 0.0775057226, 0.0000000000, 0.0790295601, 0.0000000000, -0.1926636845, -0.0000000000, 0.0000000000, 0.0000000000, -0.0000000000, -0.1384643167, -0.0000000000, -0.1685789675, -0.0369964391, 0.1234001890, -0.0000000000, 0.0000000000, -0.1204278916, -0.0000000000, -0.0421863608, 0.0000000000, 0.0000000000, -0.0000000000, -0.0881741568, 0.1737712920, -0.1762281209, 0.0287773926, -0.0575186163, 0.0000000000, -0.1085185334, -0.0000000000, 0.3510802984, 0.0000000000, 0.0000000000, 0.0000000000, -0.1723570079, 0.0000000000, -0.0000000000, -0.1727702320, -0.3969244361, -0.0000000000, -0.2435552925, 0.0000000000, 0.0000000000, 0.0429687873, 0.0000000000, -0.0000000000, 0.2202889025, 0.0000000000, -0.0000000000, -0.0425521694, -0.3399974406, -0.0000000000, -0.0000000000, 0.0000000000, 0.0000000000, -0.0000000000, 0.0000000000, 0.0000000000, 0.0000000000, 0.1022437215, 0.0000000000, 0.0000000000, -0.1049694270, 0.0000000000, 0.1153272837, -0.0000000000, 0.0000000000, 0.1042851508, -0.0000000000, -0.1583769470, -0.0798230991, 0.0799070671, -0.1260252595, 0.2327149063, -0.2848989964, -0.2353717983, 0.1120250374, -0.0000000000, 0.0000000000, 0.0000000000, -0.0000000000, 0.0000000000, 0.0000000000, -0.0000000000, -0.1137851998, -0.0000000000, 0.0000000000, 0.2150593996, -0.0000000000, -0.0517750941, -0.0000000000, 0.0170462877, 0.0000000000, -0.1349982321, 0.0000000000, 0.0000000000, -0.0000000000, 0.0364753567, 0.0000000000, -0.1655792445, -0.1090361476, -0.0000000000, -0.0067935437, 0.0000000000, -0.0000000000, 0.0000000000, -0.0000000000, -0.2056996077, 0.0000000000, -0.0000000000, 0.0000000000, 0.0000000000, -0.0805634931, -0.1465763003, -0.1241451800, -0.1623610258, -0.0000000000, 0.2025150508, -0.1589254439, -0.0000000000, 0.0000000000, -0.1329249591, -0.0000000000, -0.0000000000, 0.0000000000, -0.3080240786, 0.3389141262, -0.0000000000, -0.0000000000, 0.0000000000, -0.0000000000, -0.1031260937, -0.0000000000, -0.0000000000, 0.0681715384, 0.0000000000, -0.0020742898, -0.0000000000, 0.0000000000, 0.0000000000, -0.0000000000, -0.0000000000, 0.0000000000, 0.0000000000, 0.1320640445, 0.0000000000, 0.2680278420, 0.0000000000, -0.1341682673, 0.0000000000, -0.0980223492, 0.2922275662, 0.0000000000, 0.0000000000, -0.1105545834, -0.2015952766, -0.1459338665, 0.1235304698, 0.1166874915, 0.1443889886, 0.0000000000, 0.0000000000, 0.1322219074, -0.0000000000, -0.0000000000, 0.1248599961, -0.3638275266, -0.0497441553, -0.0000000000, 0.0000000000, 0.1525208503, -0.1221343279, -0.0000000000, -0.2280467153, 0.0000000000, 0.0698941275, 0.0000000000, 0.1278154403, -0.0000000000, -0.0000000000, 0.0000000000, 0.0319141075, 0.3129848540, -0.0000000000, 0.0000000000, 0.0683684498, 0.0000000000, -0.0000000000, -0.0000000000, -0.0000000000, -0.0076531782, -0.0000000000, 0.0336535871, 0.0000000000, -0.0561140925, -0.0000000000, 0.1705476046, -0.1512135267, -0.0000000000, 0.0000000000, -0.0000000000, 0.0000000000, 0.0903551131, -0.0000000000, -0.0182838161, 0.1179707050, 0.2813689113, 0.0000000000, -0.0000000000, -0.0915392935, -0.0000000000, -0.1318842471, 0.0000000000, -0.0000000000, -0.2049419880, -0.0511308089, -0.0000000000, -0.0000000000, 0.1737541556, -0.0324294865, -0.1967454106, -0.0000000000, -0.0002338127, 0.1963158995, 0.0000000000, -0.0890434980, -0.0131143006, 0.0085214935, -0.1309546530, -0.0000000000, -0.1669126451, -0.0000000000, 0.0000000000, -0.1104229018, -0.0000000000, -0.0000000000, 0.0000000000, -0.1681731790, -0.1563431025, -0.1258049756, 0.0309017338, -0.3589673340, 0.0000000000, 0.2462777346, 0.2714697421, -0.0000000000, 0.2304708064, 0.0000000000, -0.0000000000, 0.0382640995, -0.0394039303, -0.1287270188, -0.0139694475, 0.0000000000, 0.1908235848, 0.0662590265, -0.0000000000, 0.0000000000, -0.0358580723, 0.0000000000, -0.2882130444, -0.3270566761, -0.3094857931, 0.0056975079, 0.1567954272, 0.2097939998, 0.2044418305, -0.0937779844, -0.0012379778, 0.0000000000, -0.0346870683, -0.0000000000, -0.0000000000, -0.0000000000, -0.0590347461, 0.0614054427, 0.0000000000, -0.0496474840, -0.0000000000, 0.1017287523, 0.0814700350, -0.0000000000, 0.0000000000, -0.0000000000, 0.1259101629, 0.1143733934, 0.0000000000, 0.1174720526, -0.1353703886, -0.2556966245, -0.1211532578, -0.0000000000, 0.0000000000, -0.0000000000, 0.0000000000, -0.0456132255, -0.0000000000, -0.0160104297, 0.0000000000, -0.0890918672, -0.0000000000, 0.1170499176, 0.0000000000, 0.0000000000, -0.1371792406, -0.0000000000, -0.0000000000, -0.0000000000, -0.0000000000, -0.0000000000, 0.0000000000, 0.0253435187, 0.0032004667, -0.2403155863, -0.2451059073, 0.0543697886, -0.0000000000, 0.0706184059, -0.1557964981, 0.0000000000, 0.1008834466, -0.2573151290, 0.0000000000, 0.0412795879, 0.0000000000, -0.0000000000, -0.0000000000, -0.0000000000, -0.1391635388, 0.0000000000, -0.0000000000, -0.0000000000, -0.0000000000, 0.2718780637, 0.1098209172, -0.1535977125, -0.0341846719, 0.1406413466, 0.0709876642, -0.0000000000, -0.0000000000, -0.1118396670, 0.0696874782, -0.0000000000, -0.0000000000, 0.0000000000, -0.1265592128, 0.0906962156, -0.1615237892, -0.0000000000, 0.0513624586, -0.1850171238, 0.0000000000, 0.0000000000, -0.0365375131, -0.1686239690, -0.1231869385, -0.0000000000, -0.0201791991, 0.0000000000, 0.2535618842, 0.0000000000, 0.1973318458, -0.1044142395, 0.0000000000, 0.0970522538, -0.0000000000, 0.0000000000, -0.0000000000, 0.0000000000, -0.0457924306, 0.1013897583, 0.0000000000, -0.0300182328, -0.1195827946, 0.0000000000, 0.0000000000, 0.0000000000, 0.0000000000, -0.0000000000, 0.0000000000, 0.0000000000, 0.0605944283, 0.2877580225, 0.0000000000, -0.1684210151, -0.2432765961, 0.0910817608, 0.0000000000, -0.0606261455, -0.2062488049, -0.0000000000, -0.3144195676, -0.0237405449, 0.1013492122, -0.2392041534, -0.0000000000, 0.0000000000, 0.1494078934, 0.1668734848, 0.0607373640, 0.0000000000, -0.0199106708, -0.0000000000, -0.0000000000, -0.0236760899, -0.0000000000, -0.0000000000, -0.0000000000, 0.0000000000, -0.1687743366, -0.0049244175, -0.1335441917, 0.0685771629, 0.1441572607, -0.1966620237, -0.0715405867, -0.1915827543, 0.1347740144, -0.1953173876, -0.0000000000, 0.0000000000, -0.0598739274, -0.0000000000, -0.2405247986, 0.0000000000, -0.1151269600, 0.1605879217, 0.0485298000, 0.0000000000, 0.1835300624, -0.1027334705, -0.1488737911, 0.2731431425, 0.0000000000, -0.0121529195, 0.0000000000, -0.0000000000, 0.0000000000, 0.0000000000, 0.0477977581, -0.0581974685, 0.0000000000, 0.0000000000, -0.1514053047, -0.3071973026, -0.3297931552, -0.2217869759, 0.2221387029, 0.0000000000, 0.3492254019, 0.0000000000, -0.0000000000, 0.0000000000, -0.0000000000, -0.0017023749, -0.2415450960, 0.0000000000, 0.0596736632, -0.3156763315, -0.1420561373, 0.1337202042, 0.0000000000, -0.0000000000, 0.3042950034, -0.0000000000, -0.1453853548, -0.0235915445, 0.2076927722, -0.3206283748, -0.1872361451, -0.1974944174, 0.1322004050, -0.1737481356, 0.2885394990, -0.0000000000, 0.3103237450, 0.2398399264, 0.0000000000, -0.0264195371, -0.0000000000, -0.0000000000, 0.2759472728, -0.0695986599, 0.0000000000, 0.0000000000, 0.1039016321, 0.0000000000, -0.1700051725, -0.2950191498, -0.3883489966, 0.0000000000, -0.1461493075, 0.0712404698, 0.1191816032, -0.0941535980, -0.0064720432, -0.1309667677, -0.0448068194, 0.0000000000, -0.0742821842, -0.1442983449, 0.0000000000, 0.0000000000, -0.1119866967, 0.0000000000, -0.0000000000, 0.0459932089, -0.2777322829, -0.1528979689, -0.0311187338, -0.0000000000, -0.2871139646, -0.0000000000, 0.0000000000, -0.1439076513, -0.0000000000, 0.0381805748, 0.0000000000, 0.0000000000, 0.0000000000, -0.0000000000, -0.0000000000, -0.0000000000, -0.0000000000, -0.0000000000, 0.1474640220, 0.0000000000, -0.1425720155, -0.0000000000, 0.0545818210, 0.2139339447, 0.2154473513, -0.0000000000, 0.2721025646, -0.0000000000, 0.0000000000, 0.0000000000, -0.0657254457, -0.2221518457, -0.0000000000, 0.0289506055, 0.1586477607, 0.0000000000, 0.0000000000, 0.0000000000, 0.0000000000, -0.2151992470, 0.2879022062, -0.1068307161, -0.1555602551, 0.0226501636, 0.1795726269, -0.2165134251, -0.0057821525, 0.0040270495, -0.0036790541, 0.0000000000, 0.0000000000, -0.0192092843, -0.0000000000, 0.0000000000, 0.2297044843, -0.0252285507, -0.0000000000, -0.0000000000, 0.1142760441, 0.2582736611, 0.0000000000, 0.1930317432, -0.1425573677, -0.0013175781, -0.1196133122, -0.0456097722, -0.2271487862, 0.2770008743, 0.2365035564, 0.0671562105, -0.1160781085, 0.1222580373, 0.0000000000, -0.0386101566, -0.0502549559, 0.2022274733, -0.1186708882, 0.0159256496, -0.0000000000, -0.1513542384, -0.0000000000, -0.2743173242, -0.1974923611, 0.0000000000, 0.0000000000, -0.0000000000, -0.0000000000, -0.0000000000, -0.1228295788, 0.0000000000, 0.0000000000, -0.1739498973, -0.2609797716, -0.1160754487, -0.0444158316, 0.0000000000, -0.0774646252, 0.0000000000, 0.0000000000, 0.0000000000, -0.0000000000, 0.0000000000, 0.1515130848, 0.1184738651, 0.1275449544, -0.0000000000, 0.0000000000, 0.1328617334, -0.1859682053, 0.0593247563, -0.1916692108, 0.1768001914, 0.0000000000, 0.3258774579, 0.0000000000, -0.0000000000, 0.0000000000, -0.0039685834, -0.0005974093, 0.0000000000, 0.1900621057, -0.0000000000, -0.0000000000, 0.0000000000, -0.0000000000, -0.2304230332, -0.1304342002, -0.3142392635, 0.0509679057, -0.1989043802, 0.0000000000, -0.0739994496, 0.2429532409, -0.3347075880, 0.0000000000, -0.3561397791, 0.1319691688, 0.0000000000, 0.2797747552, 0.0200062506, -0.1695728898, 0.0000000000, 0.1612093747, 0.2238084823, -0.0826208293, 0.1514888704, -0.0634980723, -0.2020401508, 0.1466590613, -0.0000000000, -0.3472018242, -0.0000000000, -0.0000000000, -0.3508529067, -0.2528257668, -0.1685962528, 0.3585720956, -0.1608983278, 0.2956330180, 0.1349914670, -0.0000000000, 0.1973812133, 0.0000000000, 0.1276710927, 0.0000000000, 0.0150441015, -0.0000000000, -0.0000000000, 0.0000000000, -0.1688249856, 0.0979215503, -0.1909286976, -0.0000000000, 0.1638337672, 0.1663693935, -0.0000000000, -0.0000000000, 0.0000000000, 0.0000000000, 0.1308928132, 0.0000000000, 0.0750342980, -0.0000000000, -0.0000000000, -0.2774260640, 0.0000000000, -0.0000000000, 0.0559620634, 0.0000000000, 0.0000000000, -0.1667465866, 0.0000000000, 0.2373692095, -0.0274116844, -0.3002879918, -0.1099786535, 0.0000000000, 0.0559318103, 0.0000000000, -0.0759377405, -0.0000000000, -0.0000000000, -0.0000000000, -0.0000000000, 0.0000000000, 0.0000000000, -0.2366583794, -0.1936468929, -0.0032946516, 0.0000000000, 0.0000000000, -0.0000000000, -0.0000000000, 0.0000000000, 0.1351209879, -0.2332011014, -0.0000000000, 0.0000000000, 0.1838699281, 0.0000000000, 0.0000000000, -0.0000000000, -0.0000000000, 0.1314652711, 0.1253785789, 0.1108398661, -0.0000000000, 0.0855592713, 0.0000000000, 0.0000000000, -0.0000000000, 0.0000000000, -0.0000000000, 0.0000000000, -0.0000000000, 0.0000000000, 0.0000000000, 0.1745270938, 0.0783327147, 0.0000000000, 0.1603346616, 0.2970413566, -0.3727998137, -0.0000000000, 0.1385880113, 0.2036251128, -0.0000000000, 0.1001000926, -0.1071095094, -0.0000000000, -0.0000000000, 0.0427632593, 0.0000000000, 0.0000000000, -0.0000000000, 0.2397344410, -0.1642967165, -0.0000000000, -0.0527568907, -0.0000000000, 0.0000000000, -0.2203678191, -0.0010019850, -0.0000000000, 0.1249666065, 0.0000000000, 0.0772126243, -0.0700201467, -0.0589343943, 0.0304955617, -0.0000000000, -0.2285004407, -0.0000000000, 0.1708626449, 0.0000000000, 0.2057453990, 0.0568533950, -0.0000000000, 0.1142518744, -0.0124861868, -0.1032740921, 0.0428618938, 0.0000000000, 0.0000000000, 0.1134279072, -0.1341717243, -0.1025154814, 0.0000000000, -0.0040863152, 0.0000000000, -0.1413339823, 0.0000000000, -0.2325160354, -0.0752797276, 0.2378972471, 0.1651393771, 0.1011268124, 0.1443748921, -0.1210837439, 0.0155646680, -0.2754597664, -0.0000000000, -0.0888553336, 0.0318617187, 0.0000000000, 0.1151511818, 0.0000000000, -0.0389416255, -0.0000000000, 0.0044383365, -0.0000000000, -0.0691135377, -0.0000000000, -0.0000000000, 0.0000000000, 0.1142570749, -0.0985035151, -0.0983338282, 0.0358092450, 0.0000000000, 0.0946687013, -0.0803758800, 0.0000000000, 0.0035833712, -0.0000000000, -0.1953332424, 0.1593168676, 0.0000000000, -0.0090439068, -0.1814678609, 0.1710277796, -0.0000000000, -0.1259618253, -0.0000000000, -0.0000000000, -0.0000000000, -0.0000000000, 0.2869027257, 0.0000000000, 0.0358549766, 0.0000000000, -0.2353182882, -0.1105934158, -0.0000000000, -0.0000000000, -0.0203504749, -0.0199096873, -0.1081407890, 0.1802200675, 0.0000000000, 0.0000000000, 0.0000000000, -0.0000000000, -0.0000000000, 0.4029180408, 0.0000000000, -0.3077759743, 0.0000000000, 0.1722185910, -0.0528527126, 0.0000000000, -0.0405326560, 0.0000000000, 0.1005530208, 0.0000000000, -0.0022326605, -0.0000000000, -0.2325915545, 0.0000000000, -0.0000000000, -0.1725884974, 0.0000000000, -0.0000000000, -0.0876837596, 0.0000000000, 0.0000000000, -0.0000000000, -0.1970581412, 0.0000000000, -0.0920217857, -0.2184024751, 0.0000000000, -0.1566459984, -0.0000000000, -0.2257025242, 0.0000000000, -0.1184283197, -0.0000000000, 0.0953604653, -0.0364371240, 0.0000000000, 0.1708429754, 0.1822521687, 0.0000000000, -0.1116337180, 0.0000000000, 0.0879115984, -0.0023525287, 0.0363718010, -0.2939148843, -0.0000000000, 0.0019958697, 0.1287968904, -0.2788943052, -0.0000000000, -0.1232644245, -0.0759391040, -0.0162248313, 0.1326981187, 0.0000000000, -0.0606241748, -0.0000000000, 0.0000000000, -0.0000000000, -0.0000000000, -0.1124741286, -0.0000000000, 0.0000000000, -0.0000000000, 0.1707774550, 0.1229750589, 0.0098114293, 0.1917612851, -0.1544232070, 0.0329231694, -0.0000000000, 0.0000000000, 0.1608329117, 0.0000000000, -0.0000000000, -0.0000000000, -0.0000000000, 0.0000000000, -0.0998233110, 0.0000000000, 0.2601449192, 0.0000000000, 0.0708392337, 0.0000000000, -0.1235047579, 0.0000000000, 0.0369302630, 0.0989681110, 0.1208678707, -0.0000000000, -0.0000000000, -0.0000000000, -0.0029440916, -0.1090915948, -0.0000000000, -0.0000000000, -0.0000000000, -0.0750194937, -0.0000000000, -0.2023336887, 0.2107135057, -0.0000000000, -0.0000000000, -0.1693212092, -0.0000000000, -0.0064633922, 0.0000000000, -0.0000000000, -0.0000000000, -0.1793726832, -0.1304050684, -0.1218785793, 0.1229760498, 0.0000000000, -0.0014783038, -0.0000000000, -0.0000000000, 0.1280435771, -0.0003253155, -0.0000000000, 0.0000000000, -0.0675385520, -0.0073085786, -0.1057192236, 0.0000000000, 0.0266789366, -0.2113269418, -0.0000000000, -0.0000000000, -0.0000000000, 0.1323066205, 0.0000000000, -0.0000000000, -0.0000000000, 0.0000000000, 0.0000000000, 0.0000000000, -0.2691183984, 0.0672365576, -0.0357246995, -0.0000000000, 0.4103331864, -0.0000000000, -0.1209399551, 0.0000000000, -0.0000000000, 0.2023514360, 0.0674292371, 0.2509150803, 0.0000000000, -0.1145679578, -0.0146171236, -0.0742513239, 0.0000000000, -0.1015954390, 0.1980783343, 0.1442640871, 0.1715011299, -0.0502225570, -0.0000000000, 0.1562764943, -0.0000000000, -0.0297059100, 0.1167078987, -0.1240726411, 0.0000000000, 0.0000000000, 0.1513962001, -0.0861744210, -0.1889881492, 0.0000000000, -0.2001507878, -0.0913172215, -0.0000000000, 0.1827088892, 0.0000000000, -0.0000000000, 0.0359201469, -0.0624675192, -0.0000000000, -0.0774033442, 0.0000000000, -0.0652138814, -0.0097047817, -0.0000000000, 0.0509427488, -0.0000000000, 0.1126940995, 0.0000000000, -0.0000000000, -0.0000000000, -0.0000000000, 0.0000000000, -0.0000000000, -0.0000000000, 0.0000000000, -0.0138073917, -0.0000000000, 0.0000000000, 0.0000000000, -0.0000000000, 0.1765314937, 0.0000000000, 0.0000000000, -0.1235524043, 0.1083030030, -0.1047408134, 0.0000000000, -0.0642206892, 0.0000000000, 0.0857748091, 0.1289777607, 0.0658588782, -0.0000000000, -0.1733581722, -0.1057742536, 0.0633678362, 0.0000000000, 0.2370249778, 0.0000000000, 0.0000000000, -0.0000000000, -0.0000000000, 0.0000000000, -0.0942810178, 0.0000000000, -0.0000000000, -0.0000000000, 0.0000000000, 0.0000000000, -0.0000000000, -0.1500458866, -0.3667695820, 0.2218521684, 0.0024147555, 0.0944497660, 0.0000000000, -0.2176334560, -0.0000000000, 0.0000000000, 0.0000000000, 0.0000000000, -0.0000000000, 0.0115067875, 0.1348560601, -0.0879810229, -0.0000000000, -0.0000000000, -0.0000000000, -0.0000000000, 0.0000000000, 0.1116918400, -0.0000000000, -0.0000000000, -0.0559236109, -0.0948236287, 0.3070256710, 0.0000000000, 0.0000000000, 0.0000000000, -0.0000000000, -0.0000000000, -0.1375139058, 0.0000000000, -0.0000000000, -0.0000000000, -0.0000000000, -0.0000000000, -0.0000000000, 0.0000000000, -0.0000000000, 0.0000000000, -0.0000000000, 0.0000000000, -0.0000000000, 0.0000000000, -0.0921464488, -0.0000000000, -0.0000000000, 0.0000000000, -0.0000000000, 0.1485913694, 0.0502021201, 0.1687394083, 0.3882562518, 0.0932425931, -0.0000000000, 0.0000000000, -0.0000000000, 0.0000000000, 0.0772147104, 0.0000000000, 0.0000000000, 0.1587178558, -0.2755020261, 0.1031497717, 0.0000000000};
#endif

#endif
