//Numpy array shape [96, 42]
//Min -0.398371487856
//Max 0.361639976501
//Number of zeros 2016

#ifndef W18_H_
#define W18_H_

#ifndef __SYNTHESIS__
dense_0_weight_t w18[4032];
#else
dense_0_weight_t w18[4032] = {-0.0995966196, 0.2246637046, -0.0000000000, 0.1389526278, -0.1717302054, 0.0858194008, 0.0000000000, -0.0000000000, -0.0000000000, -0.0000000000, 0.0000000000, 0.0657490864, 0.1412070692, 0.0496130846, -0.0741047710, -0.0093975961, -0.0000000000, 0.0000000000, 0.0043734307, 0.1986760795, -0.0000000000, -0.0000000000, 0.1339996755, -0.1024089307, 0.0000000000, 0.0000000000, -0.0897755697, 0.2248744965, -0.0000000000, 0.1631141603, -0.0000000000, -0.3503901958, -0.2864471376, -0.1678929925, 0.0000000000, -0.1791580170, 0.0612220280, -0.1471632868, -0.2415294647, 0.0000000000, 0.0000000000, 0.2117045373, 0.0000000000, 0.0000000000, -0.0360426977, -0.0000000000, 0.0000000000, -0.0000000000, 0.0000000000, -0.1276694387, -0.0000000000, 0.0000000000, -0.0997862145, -0.0030304149, -0.0000000000, 0.0000000000, 0.0000000000, -0.0000000000, 0.0000000000, -0.3547159433, 0.0000000000, -0.0310701709, 0.0000000000, -0.0000000000, -0.0543383919, -0.0200449564, -0.0000000000, -0.0000000000, 0.0000000000, 0.0000000000, 0.0000000000, 0.0000000000, 0.2022090703, -0.3122790158, 0.0059850141, -0.0000000000, -0.0000000000, -0.0000000000, -0.0000000000, -0.0000000000, -0.0000000000, 0.0129175605, -0.0000000000, 0.1035372391, -0.0000000000, 0.0000000000, 0.0484812856, -0.0000000000, 0.0000000000, -0.1617308408, -0.0347464979, -0.0000000000, -0.1597422808, -0.0006227148, 0.1564327776, 0.0427028388, -0.0000000000, -0.1930108517, -0.0000000000, 0.0620236546, 0.2041009963, 0.2204920202, 0.1800504029, -0.1147990301, 0.0000000000, -0.0000000000, -0.4266769290, -0.0000000000, -0.0000000000, -0.2990616262, -0.0176199730, -0.2498999387, 0.0000000000, 0.0000000000, -0.0000000000, 0.0866323262, -0.2162638903, 0.1475346386, -0.0086083198, 0.1257985234, 0.0000000000, -0.0000000000, 0.4399921298, -0.0000000000, 0.0000931956, 0.0000000000, 0.1529226005, -0.1192463264, 0.0000000000, -0.1123203188, -0.0007176121, 0.0883647949, 0.0000000000, 0.0597385056, -0.0000000000, 0.0000000000, 0.0859350264, -0.0132475188, -0.0000000000, -0.0000000000, 0.0000000000, 0.1255738735, 0.0152057847, -0.0000000000, -0.0853783712, -0.1389020681, 0.0000000000, -0.0000000000, 0.1763026863, -0.0201563686, -0.0000000000, 0.0000000000, 0.0445755906, -0.1159401387, 0.0012818759, 0.0000000000, -0.0000000000, -0.2090613842, -0.0000000000, 0.2999135554, -0.2809402645, 0.2092738003, -0.0000000000, 0.0000000000, 0.0350330658, -0.1660675406, -0.4315613210, 0.0000000000, 0.0822143406, -0.0540378019, -0.1117793322, -0.0000000000, -0.0037211014, -0.0750209987, 0.0000000000, 0.1934240311, -0.0000000000, -0.0000000000, 0.0000000000, -0.0000000000, 0.0000000000, -0.0559912510, 0.1220909953, 0.0009102763, 0.0115729542, 0.0000000000, 0.2437179238, 0.0000000000, 0.0168808289, 0.0645116121, 0.0158692636, -0.1525400281, -0.0000000000, -0.1503841132, 0.0000000000, 0.0000000000, -0.0000000000, 0.0373395011, 0.0315513723, 0.0163383856, 0.1395652443, 0.0000000000, 0.0778548717, -0.1248172373, -0.0000000000, -0.0252312552, 0.0000000000, 0.0423023365, 0.2276436687, -0.1685136110, -0.0000000000, 0.0698797777, 0.0000000000, 0.0000000000, -0.0000000000, -0.0000000000, 0.0000000000, -0.2301614583, -0.0000000000, -0.1714222282, 0.1830388159, 0.0000000000, 0.1011205986, -0.1675053239, -0.0996343717, -0.0000000000, 0.1173705384, -0.0082708523, 0.0198738333, -0.0000000000, 0.0000000000, 0.0096087316, -0.0000000000, 0.0000000000, 0.0000000000, -0.0000000000, -0.0546715260, -0.0000000000, -0.2425030917, 0.0000000000, 0.2297728807, -0.0000000000, 0.0000000000, 0.0000000000, 0.0175407119, 0.3312146068, -0.0003653340, -0.0047037434, 0.0000000000, -0.0869570524, -0.0508594029, -0.0000000000, 0.0026550833, -0.0000000000, 0.0000000000, 0.2158091664, 0.0000000000, -0.0557627529, 0.0000000000, 0.0000000000, 0.1365933269, -0.0000000000, 0.0000000000, -0.0437364057, 0.0802329555, -0.1122257710, -0.3677349389, -0.0000000000, -0.0000000000, 0.0011933176, 0.0201484282, -0.0000000000, 0.1688225716, 0.0660758615, 0.0000000000, 0.0000000000, 0.1853031218, -0.0922453851, 0.0891084522, 0.0000000000, -0.0000000000, 0.0000000000, -0.0749639571, 0.0000000000, -0.0000000000, 0.0000000000, 0.0000000000, -0.0000000000, -0.0304984618, -0.0000000000, 0.0000000000, 0.0000000000, 0.0000000000, -0.0000000000, -0.0000000000, -0.0000000000, -0.0027207069, 0.1834308803, -0.3337592185, 0.0531483032, 0.0000000000, -0.0000000000, -0.0000000000, -0.0000000000, -0.3088690937, 0.1576130241, -0.0058730682, 0.0773299336, -0.0000000000, 0.0000000000, -0.0000000000, 0.0000000000, 0.1433938146, -0.0566618405, -0.0000000000, -0.0693592727, 0.1392727941, -0.0000000000, -0.0000000000, 0.0000000000, -0.2135659605, 0.0000000000, -0.0000000000, -0.0008154312, 0.3416877985, 0.0000000000, 0.3564590216, -0.1953611821, 0.0023566389, -0.1477833390, -0.0000000000, 0.0530860759, -0.1494182795, 0.0000000000, 0.0000000000, -0.0629250407, 0.1632853746, 0.0320732556, -0.0000000000, 0.2451928258, 0.0000000000, 0.0000000000, 0.2841572762, -0.0000000000, -0.0000000000, 0.1081647128, 0.0000000000, -0.0000000000, 0.0000000000, 0.1298461854, 0.0000000000, 0.0000000000, -0.0000000000, -0.0427455939, -0.3001181185, 0.2505446374, 0.0000000000, 0.0047273147, 0.0000000000, 0.3367415667, -0.0000000000, 0.0072530657, -0.0000000000, -0.0000000000, 0.0000000000, -0.2401709408, 0.0000000000, 0.0000000000, -0.0000000000, -0.0017036641, 0.0404996835, -0.0000000000, 0.0000000000, -0.0000000000, 0.0024227025, 0.1601709872, 0.0000000000, 0.1738603115, -0.0436681993, 0.0471980050, -0.1280645281, -0.0000000000, 0.0000000000, -0.0000000000, 0.0000000000, -0.0000000000, -0.0000000000, 0.1073523760, -0.0000000000, 0.0000000000, -0.0000000000, 0.0000000000, 0.2701514065, 0.0000000000, -0.0000000000, -0.0000000000, -0.0000000000, -0.0974669904, 0.0000000000, -0.1412278265, 0.0281307530, -0.0000000000, 0.0000000000, -0.1936688274, -0.0022812970, 0.0000000000, 0.0000000000, -0.0000000000, -0.0000000000, 0.0000000000, -0.0000000000, -0.1229414940, 0.0000000000, -0.0604714230, 0.0071054953, 0.0419249013, -0.0703713447, 0.0000000000, -0.1550092846, -0.0747985616, -0.2735303044, -0.2041409761, -0.2081119120, -0.0000000000, 0.1304533780, -0.0349321701, 0.0769373477, 0.0919083953, -0.0000000000, 0.0000000000, -0.0000000000, 0.2044088989, 0.0000000000, -0.0380612239, -0.0000000000, 0.0000000000, -0.2887609601, 0.0013248713, 0.0000000000, 0.1891453862, -0.0000000000, 0.0401372761, -0.0000000000, -0.0000000000, 0.3395005167, -0.0000000000, 0.0000000000, -0.0147965783, -0.2273632139, 0.1282425374, -0.0000000000, -0.0000000000, -0.2207054496, 0.0926510915, 0.1917214841, 0.0142331235, -0.0000000000, -0.1098105833, -0.1283120215, 0.0000000000, 0.1887323111, 0.0000000000, 0.0000000000, 0.0000000000, -0.0411920287, 0.0039649783, 0.0000000000, 0.1340577453, -0.0472862832, -0.0093446337, 0.2063044906, -0.0000000000, 0.1822789311, 0.0000000000, 0.0000000000, 0.0000000000, 0.0000000000, 0.1352401972, 0.2238087505, -0.1717168093, -0.0000000000, 0.1327706128, -0.2400443554, -0.0000000000, -0.0000000000, -0.0000000000, 0.0000000000, 0.2075384557, 0.0653328076, -0.0000000000, 0.0000000000, -0.0000000000, 0.0425860919, 0.0000000000, -0.0150456494, 0.0000000000, -0.0544168279, -0.0000000000, 0.0689002573, -0.0000000000, -0.1257582903, -0.0177604351, 0.0000000000, -0.0000000000, 0.0000000000, 0.1001399755, 0.0000000000, 0.0946316421, 0.0000000000, -0.1182141751, -0.1123184636, -0.1186786965, -0.0000000000, -0.1374487132, 0.0000000000, 0.0988499373, 0.0000000000, -0.2034999430, -0.1477543265, -0.0053300792, -0.0119855385, -0.1205127314, -0.1233707666, 0.0014730162, -0.0000000000, -0.2482689619, -0.0692186952, 0.2603958249, -0.1401211619, 0.0000000000, 0.0000000000, 0.0000000000, -0.0000000000, 0.0229414739, -0.0000000000, 0.1254862845, 0.0000000000, -0.0000000000, 0.0000000000, 0.3258939087, -0.0000000000, 0.0682087392, 0.1182552800, 0.0000000000, 0.0000000000, 0.1187815145, -0.2444619834, 0.0199500434, -0.0000000000, -0.0000000000, 0.0000000000, -0.0312883183, 0.0000000000, -0.0000000000, -0.2628242671, 0.0000000000, 0.0000000000, -0.0000000000, 0.0000000000, -0.0000000000, -0.0000000000, -0.0000000000, -0.0000000000, -0.0000000000, 0.0000000000, 0.0000000000, -0.1527421474, 0.0000000000, -0.0000000000, 0.0055374061, -0.0000000000, 0.0000000000, 0.0000000000, -0.1343587637, -0.0000000000, -0.3170451224, -0.0000000000, -0.0000000000, -0.0000000000, -0.1595208943, -0.1658993959, -0.0000000000, 0.0628174841, -0.0211462099, -0.0000000000, 0.0000000000, 0.0000000000, -0.1253603101, 0.2055345178, 0.0229127314, 0.1043903902, -0.1613602638, -0.0000000000, 0.0000000000, -0.0240011606, -0.0925450251, -0.1662751585, -0.0736217201, -0.0012522262, -0.0000000000, -0.0000000000, -0.2702489495, -0.0000000000, -0.0000000000, 0.0597766191, -0.0000000000, 0.0630030856, 0.0789761245, 0.0000000000, 0.0000000000, 0.0000000000, -0.0000000000, -0.2287584245, 0.0000000000, 0.0000000000, -0.0000000000, -0.0000000000, -0.0000000000, -0.0000000000, -0.0000000000, -0.0000000000, 0.0718825236, 0.0000000000, 0.0380229354, -0.1824782789, -0.0000000000, 0.0000000000, 0.0000000000, -0.4557692409, -0.0000000000, -0.0000000000, 0.0000000000, -0.0320988372, -0.0000000000, 0.0000000000, 0.0000000000, 0.0000000000, 0.0000000000, -0.0000000000, -0.0632437170, 0.0000000000, 0.0000000000, 0.0000000000, 0.0723996013, 0.1168572381, -0.0000000000, -0.0084262397, -0.0267030057, 0.2019646615, 0.0000000000, 0.1525568217, -0.0283030849, -0.0000000000, -0.0621260963, -0.1283480227, -0.0000000000, 0.0249628183, -0.1057518125, 0.0000000000, 0.0000000000, 0.0000000000, 0.0000000000, 0.0000000000, -0.0445597656, -0.0640796348, -0.0000000000, -0.1468485445, -0.0000000000, -0.1302058399, -0.0840968341, 0.0000000000, 0.0000000000, 0.1724275649, 0.0998254865, -0.0228579901, -0.1690486670, 0.0325327143, 0.0028559822, 0.0000000000, -0.1011022031, -0.0000000000, 0.0453517251, 0.0000000000, 0.0000000000, -0.1051039919, -0.0000000000, -0.0000000000, -0.0000000000, 0.0000000000, 0.0000000000, -0.0000000000, -0.1071890593, 0.0017712236, 0.0000000000, 0.0000000000, -0.0000000000, -0.0000000000, -0.0112022832, -0.1799588352, -0.2051083893, 0.0000000000, 0.0887450874, 0.0471061394, -0.0000000000, 0.0905159563, -0.0953826085, -0.3504913151, -0.0000000000, 0.0000000000, -0.0000000000, -0.3352469206, -0.2166477442, -0.0376536287, -0.2087911367, -0.0030842205, 0.0000000000, -0.0000000000, -0.0395847820, 0.0000000000, -0.1675025374, 0.0212358441, -0.0000000000, -0.1539173126, -0.0000000000, 0.0000000000, -0.0000000000, 0.0000000000, -0.0995562226, 0.0141127715, 0.0479305871, 0.0000000000, -0.0000000000, -0.0000000000, 0.0000000000, -0.0000000000, 0.0000000000, -0.1705783606, -0.0000000000, -0.0000000000, 0.0000000000, 0.0777650923, -0.0000000000, -0.1205574125, 0.0000000000, 0.0000000000, 0.2197325230, -0.1859319210, 0.0905234069, -0.0000000000, 0.0000000000, -0.0299985427, -0.1936681122, 0.1290390491, 0.0000000000, -0.1264399886, 0.0000000000, 0.3102177382, 0.0248954296, -0.0000000000, -0.0415794477, -0.0000000000, -0.0491405539, 0.0000000000, 0.0000000000, -0.0000000000, 0.0000000000, -0.1053647771, -0.0000000000, -0.0000000000, -0.0480380431, 0.0000000000, -0.0747234970, 0.0000000000, 0.0004032472, -0.0000000000, 0.0000000000, 0.0883070976, 0.0523497015, 0.0000000000, -0.0333374441, 0.0000000000, 0.2466499507, 0.0000000000, -0.0000000000, 0.0000000000, -0.0921300277, -0.1028536856, -0.0000000000, -0.0000000000, -0.0000000000, 0.0000000000, 0.0000000000, 0.1864225268, 0.0000000000, -0.1027866900, 0.0000000000, 0.0000000000, 0.0000000000, 0.0116562555, 0.0000000000, -0.0000000000, -0.0579410233, 0.1431752443, 0.0849653929, 0.0000000000, -0.0006394552, 0.0000000000, 0.0000000000, -0.3490393460, -0.0000000000, -0.1700155884, -0.1926371008, -0.0959443823, 0.0856604874, -0.0000000000, -0.0000000000, 0.0000000000, 0.0000000000, -0.1535554677, -0.0000000000, -0.2224770784, 0.0738130435, 0.2211115211, 0.0062838881, 0.0000000000, -0.1594652385, 0.0214377567, -0.1370789707, 0.0000000000, -0.0000000000, -0.2500233054, -0.0000000000, -0.0000000000, -0.1051987186, 0.0000000000, 0.0000000000, 0.1408529729, -0.0000000000, 0.0000000000, 0.0000000000, -0.0824585408, 0.0000000000, -0.0000000000, -0.0232350640, 0.0000000000, -0.0255585536, -0.1442500204, 0.0117455395, 0.0032693848, 0.0216868259, 0.0000000000, -0.1323480457, -0.2865956426, 0.1444713920, 0.0000000000, -0.1843139827, -0.2639951706, -0.1541529149, 0.0000000000, 0.0000000000, 0.1805751622, 0.0000000000, -0.0110803433, -0.0000000000, -0.0000000000, -0.0000000000, 0.0000000000, 0.0000000000, -0.1195758060, 0.0000000000, -0.1042945087, -0.0000000000, -0.0009903891, -0.1217388734, -0.0188774001, -0.0375089012, -0.0000000000, 0.0000000000, -0.0938206613, 0.0000000000, 0.0233575441, 0.0000000000, 0.2231379598, -0.0000000000, -0.1108437106, -0.0000000000, -0.1607154012, 0.1177614555, -0.1274133623, -0.1416345984, -0.1070428193, -0.1837221086, -0.0997446179, 0.0000000000, 0.0000000000, -0.1644921005, -0.0000000000, 0.0000000000, 0.0000000000, -0.0000000000, -0.0073682438, 0.0290842131, 0.2650445700, -0.0000000000, -0.0000000000, 0.0842899531, 0.0000000000, -0.0229647551, 0.0000000000, -0.0712383837, -0.0000000000, 0.0000000000, -0.0000000000, 0.1420925409, -0.0000000000, -0.0782848224, 0.0533658266, 0.0000000000, 0.2907550633, -0.0348319821, -0.2158060223, -0.2352416664, 0.0123775024, -0.0083530378, 0.0000000000, -0.0009755670, -0.1717764735, -0.2976469696, 0.0000000000, -0.0000000000, 0.0000000000, 0.1194064915, -0.0263570994, 0.0000000000, -0.0135157555, -0.0000000000, -0.0000000000, -0.0000000000, 0.1673572063, -0.0000000000, -0.1249419004, -0.1123171151, 0.0000000000, -0.0000000000, -0.0000000000, -0.1126715690, 0.0137281995, 0.0000000000, -0.0099584023, 0.0000000000, 0.0172299203, 0.0005866112, -0.0000000000, 0.0012332794, -0.0000000000, 0.0000000000, -0.2054141909, 0.0000000000, 0.0000000000, 0.1214789823, -0.0000000000, 0.0000000000, -0.0000000000, -0.2060608566, 0.0000000000, -0.0000000000, 0.0051663034, 0.0000000000, -0.0000000000, 0.0000000000, -0.0000000000, -0.0667299107, -0.1508832723, -0.0000000000, 0.0000000000, -0.1670307964, 0.0000000000, -0.0413941443, -0.0000000000, -0.1776279807, -0.0276606549, -0.0000000000, -0.0000000000, 0.0000000000, 0.0000000000, -0.1601620167, 0.0000000000, 0.0307122450, -0.0000000000, -0.2688398659, -0.3115214407, 0.1312193722, 0.0631811395, -0.0000000000, 0.0000000000, -0.2381036878, -0.0000000000, -0.0000000000, -0.1296779513, 0.2852075398, 0.0000000000, -0.2588614821, -0.0958976522, -0.0000000000, 0.0513243265, -0.0000000000, 0.1123649254, -0.0000000000, 0.0000000000, 0.1221925393, -0.0000000000, -0.0000000000, 0.0000000000, -0.1134010404, 0.0000000000, -0.0000000000, -0.0000000000, 0.0000000000, -0.0002767943, 0.0000000000, -0.1580191404, -0.1217867732, 0.0000000000, -0.0079477001, -0.0000000000, 0.0000000000, -0.0262684636, -0.0913344026, -0.0000000000, 0.0000000000, -0.0000000000, 0.0000000000, -0.1497013569, 0.0000000000, 0.0000000000, -0.0521175824, 0.0000000000, 0.2249855697, -0.0000000000, -0.0000000000, -0.0405361988, -0.0000000000, -0.0077809771, -0.2258743942, -0.1648317128, 0.1210672855, -0.0000000000, 0.0000000000, 0.0000000000, 0.0295504164, -0.0000000000, 0.0461155847, -0.0000000000, -0.0000000000, -0.2221597582, -0.0000000000, 0.0000000000, 0.0963044018, -0.1159145609, 0.0000000000, 0.0000000000, -0.0000000000, -0.0330610424, -0.0000000000, -0.1370071769, -0.1312986165, -0.1636089385, -0.0018879534, 0.0091473619, 0.0000000000, -0.0000000000, 0.1713630855, 0.0014592517, -0.0000000000, 0.0916255042, 0.0778633952, 0.0000000000, -0.0000000000, 0.0856197029, -0.1245549694, 0.0720621869, -0.1908356398, -0.0000000000, 0.1485629082, -0.0000000000, -0.0000000000, 0.2991701961, -0.1235254705, -0.0000000000, 0.0126872426, 0.0000000000, 0.0000000000, 0.0019198671, 0.0000000000, -0.0256231688, -0.0000000000, -0.0000000000, -0.0000000000, 0.0000000000, -0.0000000000, -0.0084078154, 0.0000000000, -0.2037280351, -0.0134192593, 0.0000000000, -0.0000000000, -0.0000000000, 0.1415422857, -0.0000000000, 0.0000000000, 0.0079385499, -0.0546279661, -0.0717798471, -0.0000000000, -0.2083157301, -0.0000000000, 0.0000000000, -0.0000000000, -0.0359008573, -0.0000000000, -0.1466193646, -0.1234735474, -0.0000000000, -0.1861520559, -0.0000000000, 0.1038308442, -0.0225972719, 0.0000000000, 0.0000000000, 0.0000000000, 0.0000000000, -0.1539186984, -0.0000000000, -0.0000000000, -0.1007181033, 0.2682621181, 0.0000000000, -0.0000000000, -0.2238355875, -0.0000000000, 0.0000000000, -0.0000000000, 0.3841212988, 0.0742364824, 0.0766355023, -0.2049794346, 0.0367461294, 0.0000000000, -0.0000000000, -0.0000000000, -0.0000000000, 0.0000000000, -0.1189462915, -0.0000000000, -0.0000000000, 0.0000000000, -0.0000000000, 0.0000000000, -0.0655089840, 0.0000000000, 0.0965489447, -0.0000000000, -0.1358322054, -0.0000000000, -0.0000000000, -0.0000000000, 0.0521946810, -0.0621472746, -0.0616599210, 0.0138684018, -0.0000000000, 0.0000000000, 0.0000000000, 0.0340533443, -0.1108367741, -0.0335027762, 0.0000000000, 0.0714419708, 0.0000000000, -0.4066466987, -0.0007849652, -0.0000000000, 0.0000000000, -0.0000000000, 0.1776615530, 0.0498301573, 0.0000000000, -0.1397258788, 0.0000000000, 0.2586157024, -0.0000000000, -0.0998504981, 0.3689594567, 0.0000000000, -0.0000000000, 0.1164889783, -0.0411959775, -0.2577602267, -0.0000000000, 0.1770575196, 0.0000000000, 0.0000000000, -0.0000000000, -0.1509491950, -0.0000000000, -0.0000000000, 0.0000000000, 0.0000000000, 0.1741934568, -0.0003419935, 0.0030348338, 0.0706398711, -0.1938012540, -0.0000000000, 0.2409411967, -0.0000000000, -0.0000000000, -0.1737271249, 0.0000000000, -0.2552233934, 0.1905381083, -0.0000000000, -0.0000000000, -0.0930032954, -0.2634632885, 0.0000000000, 0.0003503689, 0.0000000000, -0.0000000000, 0.1985921115, -0.0673719272, -0.0712344497, 0.0000000000, 0.1605244726, -0.0000000000, -0.0269729719, -0.0000000000, -0.0000000000, -0.1877115816, -0.1575280130, 0.0000000000, -0.0607430115, 0.1659624875, 0.0926739648, 0.0516939424, -0.0000000000, 0.0000000000, 0.0000000000, 0.1388656348, 0.0754271299, 0.0000000000, 0.1830074191, -0.0000000000, 0.0000000000, -0.2110487968, -0.0554957576, -0.0000000000, 0.1054835245, -0.1738485992, 0.1613653451, -0.1642471552, -0.0416690260, 0.1282220632, -0.1270626187, 0.0000000000, 0.0000000000, -0.0000000000, -0.2617814243, -0.0000000000, -0.3058110178, -0.0000000000, -0.2762252688, 0.2473179549, 0.0000000000, -0.1947288811, 0.0000000000, -0.2892554402, 0.0000000000, 0.0000000000, 0.2721917033, -0.0000000000, 0.0000000000, 0.1582285762, -0.2121316195, 0.0000000000, -0.2860702574, -0.2003791779, -0.2856185734, 0.0000000000, 0.1564449221, -0.2765776813, 0.0000000000, -0.0000000000, 0.0000000000, -0.0000000000, 0.1178646833, -0.0000000000, 0.1719335765, 0.0576926172, -0.0000000000, -0.0150625259, 0.0000000000, 0.0000000000, -0.0797084495, -0.0219709575, 0.0000000000, 0.1296573877, -0.0000000000, 0.0430521034, 0.0000000000, -0.0603820942, -0.1795502901, 0.0000000000, -0.0000000000, 0.0606168881, -0.0121947415, -0.1364377141, -0.0357034542, -0.2867732644, 0.0000000000, -0.0000000000, -0.0179765075, 0.3168562055, 0.0119640920, 0.0000000000, -0.0000000000, -0.0507923625, 0.0000000000, 0.1853880882, -0.1788304895, -0.0000000000, -0.0000000000, -0.0000000000, -0.0299119800, -0.0000000000, 0.0829123333, -0.0000000000, 0.2880095243, 0.0000000000, -0.0000000000, -0.1349771917, 0.0000000000, 0.1539601386, 0.0000000000, -0.0000000000, 0.0136441924, -0.1274243742, 0.0000000000, 0.0000000000, -0.0847039148, 0.1160873994, 0.1898665726, -0.2810428143, -0.0000000000, 0.0000000000, -0.0097305505, -0.2028356642, -0.0000000000, 0.0000000000, -0.0808469430, -0.0000000000, 0.1946811080, -0.0994350910, -0.2385051548, 0.0000000000, 0.0000000000, 0.0000000000, -0.0000000000, 0.0585295483, 0.0767771080, -0.0000000000, 0.0095701078, -0.0000000000, -0.0000000000, 0.0000000000, -0.0000000000, -0.0000000000, 0.1369617730, 0.0000000000, -0.0701559484, -0.0018173640, 0.0250040665, 0.1171906516, 0.1652138829, 0.1933276504, 0.0000000000, -0.0413691774, 0.0704392716, 0.0000000000, -0.0111223394, 0.3208548129, -0.0000000000, 0.0000000000, -0.2010564953, -0.0000000000, 0.0000000000, -0.2829417288, 0.0000000000, 0.0677417815, 0.0063326824, -0.0000000000, 0.0786833093, 0.0247486290, 0.0000000000, 0.2297925204, -0.0000000000, -0.0000000000, -0.0000000000, -0.2765648365, -0.0000000000, -0.1243935749, 0.0000000000, -0.0005609758, 0.0000000000, 0.0296435151, 0.0000000000, -0.0000000000, -0.0000000000, 0.0000000000, 0.0657579303, -0.0000000000, 0.2704823315, -0.0000000000, 0.0000000000, -0.0000000000, 0.3453059196, -0.0125627005, -0.0000000000, -0.2462972999, 0.0639268383, -0.0031247216, -0.0000000000, -0.0979868099, -0.0791165456, 0.0102480613, -0.2292486429, 0.3073938191, 0.1417387873, -0.0000000000, -0.1335142404, 0.0542916134, -0.0000000000, 0.1737296432, 0.1515829116, 0.0000000000, 0.0000000000, -0.0000000000, 0.0000000000, -0.0501844995, 0.0000000000, -0.0000000000, -0.1064113677, -0.0831956565, -0.0000000000, 0.1200216785, -0.0393343642, -0.0051566977, -0.1187219769, -0.1889408082, -0.0009772211, 0.1893227696, 0.0011860026, 0.0053341254, -0.0000000000, -0.0000000000, 0.0642745718, 0.0724815130, 0.1220840737, 0.0000000000, -0.1422263831, -0.0449353009, 0.1079752147, 0.0000000000, 0.0000000000, -0.0000000000, -0.0443377905, 0.0236479398, -0.0981433764, -0.0000000000, 0.0000000000, 0.0921782404, -0.1490205079, 0.1411527246, -0.0000000000, 0.0000000000, 0.0000000000, 0.0000000000, 0.0000000000, 0.0000000000, 0.0000000000, -0.0000000000, 0.0000000000, 0.0000000000, -0.1144996136, 0.0000000000, -0.0000000000, 0.0000000000, 0.0290949121, -0.0000000000, -0.1855802834, 0.1540238857, -0.0212976355, 0.1278293878, -0.0000000000, -0.3423245847, 0.0000000000, 0.0000000000, -0.0000000000, -0.0000000000, 0.0000000000, -0.0996134430, -0.0000000000, 0.0000000000, 0.0000000000, -0.0000000000, 0.0000000000, 0.0000000000, -0.1525898129, -0.2577582598, 0.0563821532, 0.0468288437, -0.0000000000, 0.0000000000, -0.0000000000, 0.0000000000, 0.0023836084, 0.1502243578, -0.0000000000, -0.0000000000, 0.0000000000, 0.0000000000, -0.0028202662, 0.0000000000, 0.0000000000, 0.0799636170, 0.2423249483, -0.0000000000, 0.0000000000, -0.0199445784, 0.1305427998, 0.0000000000, 0.1221176758, 0.0000000000, 0.0000000000, -0.0845720693, -0.0000000000, 0.0000000000, 0.0000000000, -0.0000000000, 0.0000000000, 0.0689857155, 0.0000000000, 0.1890614927, -0.0699181184, 0.0000000000, 0.1016183197, -0.0000000000, 0.0000000000, -0.1383227557, 0.0000000000, 0.0000000000, -0.0000000000, 0.2780900002, 0.0000000000, 0.0541112535, -0.0000000000, 0.0000000000, -0.0000000000, -0.1563936770, 0.0816251710, -0.3316366971, -0.0000000000, -0.3759930730, -0.1501633078, -0.0057597901, 0.0000000000, 0.0000000000, -0.0000000000, -0.0000000000, -0.0526123345, 0.1673835069, -0.0000000000, -0.3759872019, -0.0861728713, 0.0000000000, 0.0000000000, 0.0000000000, -0.0053753806, 0.0000000000, -0.0000000000, 0.0000000000, 0.0000000000, 0.1434065551, 0.0966371745, 0.0000000000, 0.0566481985, -0.0000000000, 0.0000000000, 0.0614709817, -0.1174924076, -0.0000000000, 0.0000000000, 0.0000000000, -0.0000000000, 0.0000000000, -0.0000000000, 0.0827113688, 0.0000000000, -0.2202664167, 0.1345606148, -0.2315938026, -0.0000000000, 0.2217390537, 0.2278856188, 0.0961136818, -0.1060888097, -0.0000000000, -0.0000000000, -0.1005056575, 0.2702233493, 0.0160787757, -0.0000000000, 0.0057244771, -0.0000000000, -0.0000000000, -0.0286838338, 0.1636348814, -0.0000000000, -0.0016395525, 0.1607365906, 0.1288675666, 0.0000000000, -0.1056786329, -0.0000000000, -0.0400275849, -0.0043690866, -0.2090738714, -0.0000000000, -0.0300084203, -0.0622467771, -0.0000000000, -0.0000000000, -0.1572038978, 0.0497611277, 0.0000000000, -0.0430645607, -0.0521542169, -0.1447554380, 0.0619363450, -0.0690841302, -0.0652430579, -0.0968857780, -0.0000000000, -0.0000000000, -0.0000000000, 0.0000000000, -0.3537860513, 0.0406515934, -0.0000000000, 0.0000000000, -0.1497758180, -0.0000000000, -0.0000000000, 0.0000000000, -0.2032001913, -0.0578046441, 0.0191715658, -0.0039688563, -0.0000000000, -0.2320850641, -0.0000000000, -0.1196228936, 0.0000000000, -0.0000000000, 0.0000000000, -0.0066337697, -0.0000000000, 0.0000000000, -0.0403197184, -0.1483055949, -0.0000000000, 0.0000000000, -0.0000000000, 0.2379538268, 0.0270056315, -0.0788473934, 0.0000000000, 0.0333981253, -0.1900814921, -0.0698469877, -0.1959039271, 0.4036375284, 0.0170073584, 0.0582412705, 0.0000000000, -0.0000000000, -0.0000000000, 0.1911483407, -0.0077509996, -0.0252005383, -0.0475709587, -0.0000000000, -0.0565243922, -0.0000000000, 0.1801575869, 0.0000000000, 0.0000000000, -0.0000000000, -0.0000000000, 0.0313766040, 0.0685867891, 0.1628016233, -0.0000000000, -0.0000000000, 0.0000000000, 0.0000000000, 0.0000000000, -0.0601281226, -0.3531650901, -0.0861508846, 0.1025977954, 0.0000000000, -0.0802995786, 0.0687441230, 0.0000000000, 0.0000000000, -0.0828805566, -0.1371529847, 0.0000000000, 0.0000000000, -0.0594367869, 0.0346655287, -0.0033400680, 0.0264674388, -0.0432888977, -0.0436922349, -0.0773166940, 0.0018246472, -0.1981300116, 0.1159008443, -0.0000000000, -0.1088966280, 0.2016432732, -0.0443952419, 0.0046553076, -0.2284396589, 0.0000000000, -0.0000000000, -0.0000000000, 0.2614776492, -0.0000000000, -0.0000000000, -0.2282585055, -0.0000000000, 0.0998933390, -0.0371775925, 0.1576959044, -0.1690333933, -0.1525845230, 0.0000000000, 0.0485841297, -0.1365047991, -0.1223642901, 0.0000000000, 0.2119481117, 0.0000000000, -0.0000000000, 0.0000000000, 0.2555979788, 0.0000000000, 0.0000000000, -0.0000000000, -0.1605371088, 0.0000000000, 0.0998994783, -0.0000000000, -0.1779201180, -0.0000000000, 0.0000000000, -0.0995933264, 0.0186844412, -0.0000000000, -0.0311298706, 0.0000000000, -0.2467874587, -0.0000000000, 0.2985889912, 0.1047372743, 0.2487800568, -0.0688235164, -0.0000000000, 0.0989373699, 0.0000000000, 0.1506327242, -0.0000000000, 0.0175180025, 0.0310474094, -0.0000000000, 0.0000000000, 0.0000000000, 0.3485968113, -0.1545739472, -0.0439523607, -0.0000000000, 0.0947644711, -0.1166402176, -0.0000000000, 0.0000000000, 0.0136344517, -0.0000000000, 0.1056491509, -0.0681323782, -0.0000000000, -0.0000000000, -0.0000000000, 0.0000000000, 0.0118680410, -0.0000000000, -0.2209550738, 0.0000000000, 0.0000000000, -0.0000000000, 0.0020716311, -0.0000000000, -0.1347403228, -0.0459785052, -0.1239964291, 0.0000000000, 0.0000000000, -0.0000000000, 0.0758751556, 0.2424636632, -0.0595203750, 0.1761317104, 0.1032027379, 0.0514269620, -0.0000000000, 0.1966498196, -0.1223613843, -0.1747476161, 0.0000000000, -0.0000000000, 0.0841964483, -0.0360005721, -0.0000000000, -0.1145819798, 0.0000000000, 0.0000000000, 0.1266203672, -0.1082331911, 0.0000000000, -0.0226080231, -0.0051896404, 0.1257510632, -0.2773716748, -0.0000000000, 0.0257164240, 0.0000000000, 0.0241780933, 0.0000000000, -0.1087366417, 0.1138204113, 0.0000000000, -0.1074144319, -0.1709434241, 0.2442237586, -0.0957671851, -0.0000000000, -0.0000000000, 0.0000000000, 0.0000000000, -0.2076703459, 0.0001263070, -0.0000000000, -0.0689788461, 0.0000000000, -0.0000000000, 0.0000000000, -0.0759464949, 0.0000000000, 0.0121664945, -0.0901307985, -0.2055491507, 0.0000000000, -0.0000000000, -0.0000336224, 0.0939518362, 0.0000000000, 0.0045577302, -0.0000000000, -0.0000000000, 0.0000000000, 0.0288419258, 0.0317312032, 0.0000000000, 0.0778338015, 0.1492033005, -0.0342240371, -0.0000000000, -0.0000000000, -0.0000000000, -0.0708771273, 0.1024708748, -0.0000000000, -0.0000000000, 0.1485562027, -0.0852332562, 0.2483066469, 0.2521887422, -0.0000000000, -0.0628972128, 0.1907297224, -0.0625331700, -0.0000000000, -0.3106769621, -0.1305326968, 0.0000000000, -0.0056761508, -0.0437972620, -0.1301740259, 0.2122210413, -0.0000000000, -0.2121621370, 0.0000000000, 0.0000000000, 0.0000000000, 0.1974935830, 0.0000000000, -0.0000000000, 0.0621429570, 0.1639109701, 0.0000000000, -0.0764552876, -0.1329676211, -0.0000000000, -0.1943474114, 0.1401627660, 0.1160630584, -0.1014772952, -0.0917051807, 0.0000000000, -0.2123936713, -0.0378093496, -0.1301532537, 0.0000000000, 0.0555805191, -0.0000000000, 0.0775846541, -0.0000000000, -0.3361703753, -0.0000000000, 0.2335841507, -0.0000000000, -0.0000000000, -0.0729533806, 0.0000000000, -0.1345282346, 0.0000000000, -0.1344426572, 0.0000000000, -0.1251302809, -0.0000000000, -0.2666807175, 0.0000000000, -0.1168128699, 0.0000000000, 0.0000000000, -0.0000000000, -0.2981535494, -0.0184483193, 0.2329099029, -0.0000000000, -0.0015763353, -0.0000000000, -0.0021201079, -0.0000000000, 0.0000000000, 0.0000000000, 0.0000000000, -0.1338101476, 0.0000000000, -0.0000000000, 0.0000000000, -0.0853558704, -0.0287988074, -0.0000000000, -0.0072244327, -0.0023206801, -0.0000000000, -0.0000000000, -0.0908571929, 0.0000000000, 0.1188055128, 0.2321090400, -0.0424697064, -0.2013650537, 0.0000000000, -0.0000000000, -0.1565816998, 0.0000000000, -0.0000000000, -0.0000000000, 0.0000000000, 0.0000000000, -0.1639182717, 0.0000000000, -0.0777490363, -0.0000000000, -0.0000000000, 0.0683610737, 0.0000000000, -0.0000000000, -0.0931121856, 0.0538441986, 0.1898704469, -0.0000000000, -0.0000000000, -0.0000000000, -0.0000000000, -0.2706929743, 0.1813240498, 0.2535999715, -0.4836695492, -0.1075706258, -0.0184799656, -0.3244809508, -0.0312554613, -0.0223334394, -0.0000000000, -0.0000000000, 0.3457649648, 0.0001850098, 0.0295382626, -0.0000000000, -0.0000000000, 0.0000000000, 0.1067149192, -0.0000000000, 0.0534037463, -0.2051276416, 0.0079225227, 0.2720775604, -0.0049999454, 0.0000000000, 0.0739314556, 0.0000000000, 0.1128963530, -0.1154251918, -0.1858570129, -0.0009507294, -0.0825949982, -0.0000000000, 0.0000000000, -0.0275287014, -0.0000000000, 0.0040203170, 0.0102683101, -0.0000000000, -0.0954335630, 0.0000000000, -0.0000000000, 0.3461652696, 0.0000000000, -0.4035061598, 0.0000000000, -0.0000000000, 0.0112132244, -0.0649582520, 0.0013311867, -0.0000000000, 0.0000000000, -0.1445724368, -0.3585002422, 0.0603275597, 0.0000000000, -0.0194716677, -0.0042382572, -0.0484960712, 0.0000000000, -0.0887204483, 0.0381162278, -0.0000000000, -0.0006272641, -0.0490019843, 0.0000000000, -0.0000000000, 0.0000000000, -0.0000000000, 0.1120248139, 0.1117972434, 0.0000000000, -0.0000000000, -0.0000000000, -0.0000000000, 0.0054790284, 0.0020441969, 0.2046569884, 0.0000000000, -0.1607871801, -0.0618456416, -0.2361416370, 0.0000000000, -0.1911331415, -0.0000000000, -0.1140951738, 0.0000000000, -0.0000000000, -0.0000000000, -0.0412733369, -0.0000000000, -0.1851553470, 0.0000000000, -0.0068992195, 0.0013673375, -0.0000000000, 0.0000000000, -0.1176482961, -0.0000000000, -0.3785794079, 0.0000000000, -0.0000000000, 0.3907997310, -0.0000000000, 0.1204505712, -0.0000000000, 0.0000000000, 0.0012464556, -0.0000000000, -0.0004201849, 0.0678379610, 0.0000000000, 0.0000000000, 0.3039905429, -0.1232390627, -0.0000000000, 0.3456409872, 0.0063350606, 0.0673690215, -0.0000000000, 0.1303684860, 0.0000000000, 0.0000000000, -0.0000000000, 0.0000000000, -0.0283952449, -0.0353142358, 0.0000000000, -0.0387555361, 0.0000000000, -0.0000000000, -0.1577372104, 0.0000000000, 0.0000000000, -0.0000000000, -0.0000000000, -0.2135058194, -0.0000000000, 0.2123300880, 0.0656113103, -0.0000000000, -0.0000000000, 0.0027431212, 0.0000000000, 0.1223482266, -0.0944280922, -0.0000000000, -0.2180170268, 0.0000000000, 0.0000000000, -0.0000000000, -0.0699213892, 0.0000000000, 0.0000000000, -0.0000000000, 0.0000000000, -0.1093696579, -0.0000000000, -0.0000000000, -0.1072986647, 0.1013398245, -0.0000000000, -0.0006761695, 0.0000000000, -0.0336724967, -0.0000000000, 0.0000000000, -0.0000000000, -0.0000000000, 0.0000000000, 0.1095685586, 0.0000000000, -0.0000000000, 0.0178279001, -0.0759510025, 0.1783544272, -0.0000000000, -0.0000000000, 0.0420983322, -0.0000000000, -0.1157243177, -0.1991226822, 0.0000000000, 0.0027401468, -0.0000000000, -0.0000000000, 0.0000000000, 0.0000000000, -0.2184734792, -0.0000000000, 0.0000000000, 0.1095766127, 0.0395782962, 0.1246389970, 0.0799413472, -0.1352434605, 0.0119812172, -0.2231691629, -0.0000000000, -0.1708082855, -0.0018721380, -0.2465227544, 0.0000000000, 0.0000000000, -0.0552209541, -0.1358101070, -0.0000000000, -0.0000000000, 0.0005803726, -0.0000000000, -0.0000000000, -0.0000000000, -0.0004716948, 0.0000000000, 0.2735114694, -0.0926881284, -0.2168265432, 0.0000000000, -0.0075480505, 0.0000000000, 0.0000000000, 0.0920579433, 0.0348102562, 0.0000000000, -0.2834569514, -0.0021262835, 0.0925171822, 0.0000000000, 0.0689578131, 0.0000000000, -0.0000000000, 0.0092933672, 0.0000000000, 0.0003066916, -0.0000000000, -0.0803936422, 0.0000000000, 0.0000000000, 0.0000000000, 0.0000000000, 0.0000000000, -0.0000000000, -0.0106458552, -0.0000000000, -0.0000000000, -0.3063352704, -0.0000000000, -0.0733028799, 0.0095654763, -0.0191460010, -0.0000000000, 0.0000000000, -0.1422374398, 0.0000000000, -0.0937773287, -0.0703996420, -0.0000000000, -0.0000000000, 0.0000000000, -0.0000000000, -0.0096198693, -0.0000000000, -0.0454106815, 0.1128591746, -0.0588835999, -0.0921127945, -0.0000000000, 0.0489982143, -0.0000000000, -0.0000000000, -0.0000000000, 0.0000000000, -0.1034786478, 0.0362469517, 0.0000000000, 0.1169672757, -0.0000000000, 0.0000000000, -0.0341729857, -0.0000000000, -0.0588807613, 0.0000000000, 0.0806202814, -0.1455664486, -0.1095339358, -0.0000000000, -0.0000000000, 0.0018270364, -0.0000000000, -0.0018336293, -0.0000000000, -0.0000000000, -0.0945320204, 0.0000000000, -0.0998888239, 0.0824717656, -0.1234417632, -0.0291210357, -0.0000000000, -0.0000000000, 0.0000000000, 0.0000000000, -0.0836015567, -0.0307892766, -0.0619039014, -0.0179184042, -0.0000000000, 0.0678187162, -0.1423718035, -0.0033188446, -0.0000000000, -0.0913255289, 0.0505120344, -0.1066041887, -0.1873066574, -0.0000000000, -0.2879355252, 0.3083049059, 0.0000000000, -0.0683475956, 0.0916093662, 0.1262219399, -0.0000000000, -0.1200060472, -0.0000000000, 0.0000000000, -0.0000000000, -0.1021607891, -0.0000000000, -0.0000000000, 0.3403109908, 0.0000000000, -0.0000000000, -0.0000000000, -0.0182694588, -0.0000000000, -0.1298855543, -0.0000000000, 0.0916621685, -0.0000000000, 0.0182044413, -0.0000000000, -0.0000000000, -0.1421829760, -0.0000000000, 0.0000000000, 0.0000000000, -0.0000000000, -0.0656592324, -0.0000000000, -0.3278914392, 0.0000000000, 0.1354854256, -0.2199072242, -0.4049752653, 0.0000000000, 0.2453551739, -0.0938911140, 0.0000000000, -0.2374624312, -0.0000000000, -0.0000000000, -0.0000000000, 0.0261204168, -0.4715830088, -0.0000000000, -0.0000000000, 0.0979540274, 0.0000000000, -0.0000000000, -0.0000000000, -0.0265853200, -0.0000000000, -0.0000000000, 0.0000000000, 0.1573301852, 0.2450783253, -0.0477451496, -0.1445583105, 0.0756945312, -0.0435308404, 0.0000000000, -0.0000000000, -0.0189853609, -0.0000000000, 0.0016370249, 0.1149283573, -0.1874645799, -0.0000000000, 0.0000000000, 0.0271620266, -0.2491706610, 0.0053588767, 0.1068075597, -0.0000000000, 0.0166056734, -0.1283954382, 0.0000000000, -0.0776549056, 0.1828647256, 0.0000000000, 0.2343347669, 0.0000000000, 0.0456597321, -0.1952791363, 0.0000000000, 0.0084147975, -0.1081519574, -0.0000000000, -0.0702690855, -0.1825472862, 0.0000000000, 0.1702714115, -0.1394337118, 0.0775842220, 0.0000000000, -0.1887864769, 0.3353408873, 0.0324533731, -0.0000000000, -0.0000000000, 0.0000000000, 0.3338835835, -0.0000000000, -0.0000000000, -0.0000000000, -0.0000000000, -0.0000000000, -0.0000000000, 0.1802206337, 0.0491252132, -0.0027876943, -0.0000000000, -0.0000000000, 0.1609495282, 0.0000000000, -0.1845326126, -0.0721241832, -0.0047880793, 0.1024957001, 0.0969589651, -0.1991915852, 0.0000000000, -0.0222312845, 0.0000000000, 0.0865668431, -0.0000000000, 0.0248242393, 0.3012660146, -0.1520294249, -0.1429247111, -0.2421220541, 0.0324257314, 0.1192206517, 0.0279568713, -0.1258183122, -0.2232386619, 0.0269269012, -0.0057108686, 0.1160624921, 0.0000000000, 0.1351926625, 0.0000000000, 0.0632867143, 0.0000000000, 0.0000000000, 0.0391248688, -0.0000000000, -0.0000000000, -0.1971583366, 0.1351304799, -0.0800843090, 0.0399461091, -0.0000000000, 0.0782084614, -0.0000000000, -0.3041154444, -0.0233286358, -0.0000000000, 0.0000000000, -0.0000000000, -0.0000000000, 0.0000000000, 0.1628491282, 0.0731785968, 0.0007191965, 0.0000000000, -0.0000000000, -0.0000000000, 0.0980952233, 0.0000000000, -0.0000000000, -0.0000000000, -0.0000000000, 0.0000000000, 0.0772701725, -0.0000000000, 0.0000000000, -0.0234046225, 0.0214987621, 0.3367600143, -0.0000000000, -0.0147702312, 0.0000000000, -0.0000000000, 0.0000000000, -0.0833428800, 0.0000000000, -0.0266335737, 0.0665407628, 0.1150350720, -0.1712929457, -0.0000000000, 0.0000000000, -0.0000000000, 0.2182127088, -0.0000000000, 0.2474215776, -0.2753856778, 0.0000000000, -0.0882716849, -0.2159746587, 0.0447100215, 0.0000000000, 0.0000000000, -0.0000000000, 0.0000000000, -0.2415010184, 0.0369068086, -0.0000000000, 0.0000000000, -0.0000000000, 0.0000000000, 0.1805596203, -0.0975825042, 0.0000000000, -0.0000000000, 0.0000000000, -0.0075267218, -0.0000000000, 0.0000000000, 0.0276237745, -0.3367254138, -0.0000000000, 0.0000000000, 0.0807894021, -0.0000000000, 0.0807566047, -0.0000000000, 0.0000000000, -0.0000000000, -0.0000000000, 0.0000000000, -0.1669531763, -0.0000000000, -0.0470329449, -0.0172257628, 0.1789186150, -0.0029346454, -0.0939226970, -0.0879514888, -0.0019484749, 0.0000000000, 0.0000000000, 0.0000000000, -0.0000000000, -0.0000000000, -0.1046418697, -0.0000000000, 0.0000000000, -0.2600984871, 0.0020573540, -0.1398234665, -0.0370665379, -0.0000000000, 0.0090305563, -0.0000000000, 0.0000000000, 0.1287941635, -0.0921414644, -0.1547539234, -0.0341822915, 0.0000000000, -0.2725469470, -0.0000000000, -0.1763323098, -0.0781140700, 0.0000000000, -0.0532675907, -0.1326296628, -0.0908217505, 0.0000000000, -0.0000000000, -0.1207466424, 0.0000000000, 0.0000000000, -0.0622015037, -0.0752325356, -0.0000000000, -0.0000000000, -0.0000000000, 0.1395650804, -0.0971862450, -0.0000000000, 0.0837133229, -0.0018230890, 0.0000000000, -0.0473046266, -0.0000000000, -0.0368785076, -0.0339151733, -0.0000000000, -0.0000000000, 0.0000000000, 0.0000000000, 0.0000000000, 0.0000000000, 0.0956754684, -0.3373553157, 0.0609629452, -0.0657143220, -0.1882174164, 0.2755388021, -0.1659451127, -0.0333505087, -0.0538409986, -0.0000000000, -0.2203955352, 0.0000000000, 0.0301592592, -0.0000000000, -0.3787495196, 0.0000000000, -0.0968447179, 0.0000000000, -0.0000000000, 0.0000000000, 0.0000000000, -0.0000000000, -0.0000000000, -0.0020411196, -0.0000000000, -0.0414688252, 0.0482494161, 0.0000000000, 0.0014870481, 0.0000000000, -0.0801991969, -0.0000000000, 0.0000000000, -0.2604551613, -0.0000000000, 0.0000000000, 0.0000000000, -0.0780419558, -0.0000000000, -0.0000000000, -0.1180978864, -0.0000000000, -0.0000000000, -0.0000000000, 0.0000000000, -0.0000000000, 0.0000000000, -0.1953330487, -0.0465599485, -0.0151289674, -0.1418916434, 0.0000000000, -0.0000000000, -0.0894593075, -0.0000000000, 0.0856643990, -0.0000000000, -0.0000000000, 0.0000000000, -0.0000000000, 0.0637121871, -0.1557031125, 0.0000000000, -0.0000000000, 0.0000000000, -0.0000000000, -0.0311971325, -0.0000000000, -0.0000000000, -0.0500916317, -0.1104167178, 0.0000000000, -0.0000000000, -0.0037450157, -0.0000000000, -0.0000000000, -0.0000000000, -0.1175199673, 0.0348808281, -0.1286348552, 0.0000000000, 0.0000000000, 0.0045533068, -0.0000000000, 0.0682127550, -0.0000000000, 0.0000000000, -0.3305672407, 0.0000000000, 0.0000000000, -0.0000000000, 0.0000000000, -0.1542635858, -0.0000000000, 0.0594065152, 0.0249255262, -0.0000000000, 0.0951354131, 0.1372635067, -0.0697443113, -0.0000000000, -0.0000000000, -0.0000000000, -0.0000000000, -0.2231918424, -0.0000000000, -0.1207418218, -0.1450958550, 0.0000000000, 0.0000000000, -0.1407352090, -0.1041029394, -0.0715916231, -0.0588193052, 0.0588526502, 0.0000000000, 0.0627394468, -0.0000000000, 0.0015904910, 0.0000000000, 0.1116188839, -0.0000000000, -0.0889649913, 0.0862468779, 0.0000000000, 0.0000000000, -0.0000000000, -0.1266780049, -0.1499483138, 0.0935324430, -0.0395476222, 0.0165770315, -0.1441646814, 0.0000000000, 0.0000000000, 0.0000000000, -0.1259708107, -0.0000000000, -0.0390694439, 0.2238696069, -0.0000000000, -0.1944840848, -0.0000000000, -0.0000000000, -0.0000000000, -0.0327468216, 0.0000000000, -0.0000000000, 0.0000000000, 0.0086969435, -0.0000000000, -0.0000000000, -0.0000000000, -0.0000000000, -0.0000000000, 0.0000000000, -0.1358528584, -0.1607201993, -0.0775346905, 0.0000000000, 0.0000000000, -0.2371697128, 0.1515582055, -0.1030864939, -0.0000000000, 0.0000000000, -0.0275822096, -0.0014210434, 0.1290308088, -0.0225171838, 0.0022303762, 0.1328574568, 0.0000000000, 0.0000000000, -0.0000000000, -0.0634121150, 0.2820901275, 0.0060517839, 0.0281250104, 0.0000000000, -0.0000000000, 0.0706504807, -0.0544376038, -0.0918356180, 0.1729699075, 0.0858400762, 0.0015926595, 0.0649312437, 0.3640601039, -0.0278370753, 0.0000000000, -0.3749378622, -0.0000000000, -0.0670197010, -0.0000000000, -0.0000000000, 0.0000000000, 0.0021590900, -0.2808901966, 0.0101918187, -0.0000000000, -0.0000000000, 0.1555550545, 0.0000000000, -0.0323877595, -0.0000000000, -0.0000000000, -0.0097889341, -0.0000000000, -0.0000000000, 0.0507392734, -0.0000000000, 0.0000000000, -0.1530127823, -0.2741595209, 0.0000000000, -0.0000000000, 0.0000000000, 0.2351592630, -0.1039878651, -0.1259775013, -0.0777429193, 0.1988166720, -0.0000000000, 0.0000000000, -0.2766844332, 0.0131704388, 0.0000000000, -0.0000000000, -0.0000000000, 0.1555094421, -0.0529693738, 0.0000000000, -0.0000000000, -0.0000000000, -0.0476209410, -0.0000000000, -0.3220866621, 0.0000000000, 0.1749260426, 0.0964922979, 0.0000000000, -0.0000000000, 0.1582553387, 0.0000000000, 0.0000000000, -0.0525844917, 0.0000000000, 0.0000000000, -0.0000000000, -0.0022538928, 0.0000000000, -0.0000000000, 0.0000000000, 0.0000000000, -0.0000000000, -0.3824409544, -0.0280035865, -0.2898544371, 0.0864654928, -0.1239468381, 0.1883578897, -0.3401834369, 0.0182093270, -0.0218797792, 0.0000000000, -0.0872173905, -0.0280461498, 0.0000000000, 0.0417152271, 0.2322737575, 0.0000000000, 0.0000000000, -0.1479075849, 0.0892100036, -0.0259846225, -0.0000000000, 0.0000000000, 0.2255809456, -0.2262916714, 0.0000000000, 0.0000000000, -0.0000000000, 0.0000000000, -0.0000000000, 0.0058817472, 0.0000000000, -0.0000000000, -0.2152509242, -0.0000000000, 0.0076574339, 0.1724140793, -0.1520548016, 0.0000000000, 0.0000000000, 0.0000000000, 0.0000000000, 0.0134796621, 0.0000000000, 0.0000000000, 0.1450728178, -0.0000000000, -0.0706357732, -0.0000000000, -0.0000000000, 0.2072243690, 0.0000000000, 0.0824396089, 0.2275352925, -0.0000000000, 0.0000000000, -0.1134450585, -0.0000000000, -0.0043182294, -0.1359465122, 0.0000000000, -0.0000000000, 0.1589902341, -0.0000000000, -0.0000000000, 0.0000000000, -0.0000000000, 0.0000000000, 0.0015717822, 0.0000000000, -0.0000000000, -0.0000000000, 0.0000000000, -0.0791311041, 0.0000000000, 0.0000000000, 0.0296366513, 0.0000000000, 0.0000000000, -0.0000000000, 0.0000000000, -0.2649113536, -0.0019129005, -0.0826155767, -0.0000000000, -0.0000000000, -0.0496789142, -0.0464530103, -0.1025462747, 0.0000000000, 0.1210188568, 0.0875711367, 0.0005137626, 0.0000000000, -0.0000000000, 0.0000000000, 0.0000000000, -0.0026124062, 0.1069235727, -0.1817109883, -0.1223860830, 0.0000000000, 0.0305529218, 0.0362546891, 0.0000000000, -0.0000000000, 0.0000000000, -0.0000000000, 0.0000000000, 0.0000000000, -0.1252114475, -0.0000000000, 0.0000000000, -0.0000000000, -0.0000000000, -0.0000000000, 0.0453751460, -0.0000000000, -0.0000000000, -0.0362430774, -0.0000000000, -0.0000000000, -0.0000000000, -0.0000000000, -0.0000000000, 0.0000000000, -0.0524176806, 0.0000000000, -0.0000000000, -0.0040121791, 0.0000000000, 0.0000000000, -0.1546326578, 0.0000000000, -0.0248449650, 0.3007500470, 0.0896786302, 0.3480523527, 0.0000000000, 0.0344343297, -0.0000000000, -0.0000000000, -0.0005814471, -0.0371350870, 0.0659666359, -0.0111792805, -0.0000000000, -0.0000000000, 0.0334089138, 0.0000000000, 0.0000000000, -0.0000000000, -0.0692485869, -0.0000000000, 0.0000000000, 0.0000000000, 0.0000000000, -0.0000000000, 0.0000000000, 0.0288762078, 0.0000000000, 0.0131310439, 0.0000000000, -0.0000000000, 0.0000000000, 0.2098629922, 0.0000000000, -0.0000000000, 0.0000000000, 0.0021643378, -0.0000000000, -0.0000000000, -0.0000000000, -0.1202971861, -0.0000000000, 0.1208184063, -0.1554199606, 0.4740481079, 0.0000000000, -0.1170003265, 0.1408161819, -0.0000000000, 0.0770292506, -0.0180318765, -0.0000000000, 0.1246551871, 0.0941109285, -0.1350709796, -0.0000000000, 0.1002479643, -0.2981272638, -0.0000000000, -0.0000000000, -0.0000000000, 0.1087739393, 0.2652222514, -0.2788687944, -0.0000000000, -0.1138661504, -0.0000000000, 0.0000000000, -0.0350964889, 0.1271548271, 0.0000000000, -0.0000000000, -0.2394853532, -0.0000000000, -0.1077275351, 0.0112286238, 0.1329476833, -0.0000000000, 0.0000000000, -0.0000000000, -0.1460212916, -0.1575702429, 0.0029025471, 0.0000000000, -0.0000000000, -0.0501141325, -0.0101361135, 0.1263430715, -0.0449786149, 0.0000000000, -0.0000000000, 0.1245845482, -0.1599512249, -0.0000000000, 0.0000000000, -0.1135957688, -0.0000000000, -0.0701122060, 0.1621478349, 0.0000000000, -0.0000000000, -0.0000000000, 0.0000000000, -0.1000159755, 0.0352546461, 0.0000000000, 0.0984248370, 0.0160020944, 0.0000000000, 0.0000000000, 0.0000000000, 0.1227062419, -0.0333313532, -0.1946791708, 0.0468043387, 0.3563286960, -0.0450142436, 0.0000000000, 0.0000000000, -0.0909999833, -0.0000000000, 0.0000000000, 0.0029019592, 0.0376495831, 0.0000000000, 0.0000000000, 0.0854864866, 0.0518445410, -0.0000000000, -0.0000000000, 0.0000000000, -0.0841687173, -0.1084657311, -0.0493926927, -0.2651731670, 0.0000000000, 0.0000000000, 0.3114884496, -0.0000000000, 0.0090832645, 0.0334184840, -0.0481874496, 0.0000000000, -0.0000000000, 0.2488196641, -0.1281010211, 0.0850619227, 0.0834332481, -0.0410358086, 0.0000000000, -0.0000000000, 0.0000000000, -0.0406416655, 0.0000000000, 0.0000000000, 0.0000000000, -0.0045631086, -0.0000000000, 0.1011298969, -0.0000000000, 0.0000000000, -0.0000000000, 0.0000000000, 0.0000000000, -0.0000000000, -0.0000000000, 0.0000000000, -0.0000000000, 0.0000000000, 0.0663145036, 0.0000000000, 0.0000000000, 0.1752924323, -0.0526206121, 0.0000000000, 0.0972538739, -0.2786597311, -0.1858597547, 0.0000000000, 0.0000000000, 0.0475418158, -0.0000000000, -0.0000000000, -0.0000000000, 0.0000000000, 0.0000000000, 0.0119942827, 0.0005678200, -0.0000000000, 0.0000000000, 0.0022895127, -0.0000000000, 0.2583461702, 0.0000000000, 0.0340233222, 0.0000000000, 0.0000000000, 0.0000000000, 0.1075494811, -0.2853726149, 0.2339573801, -0.1476001590, -0.0506973825, -0.0000000000, 0.0465140603, -0.0000000000, 0.1533681601, 0.1827922016, -0.0000000000, -0.0000000000, -0.0000000000, 0.0000000000, -0.3378793597, 0.0831561387, -0.0000000000, -0.0260982569, 0.0105060330, 0.0000000000, 0.0000000000, -0.0665564165, -0.0860306993, -0.0000000000, 0.2026442140, 0.0000000000, -0.0000000000, 0.2139371634, -0.0791067109, -0.0688822344, 0.0000000000, 0.0000000000, -0.0878979713, 0.2886735201, -0.0089498628, -0.0932970941, 0.0000000000, -0.0000000000, -0.0000000000, -0.0000000000, 0.0000000000, -0.0040084613, 0.0000000000, 0.0000000000, -0.2216925174, 0.0000000000, 0.0117679127, 0.0000000000, -0.0080356328, -0.0950548202, 0.0209994595, -0.1325787008, -0.0000000000, -0.1863553822, -0.0000000000, -0.2151351124, -0.3871478140, 0.0000000000, -0.1232125983, 0.0399887264, -0.0000000000, 0.4144353271, 0.0014739075, -0.0000000000, 0.0000000000, -0.2396549582, -0.0000000000, 0.3368672431, -0.0972980112, -0.2014531940, 0.1273736656, 0.0727675185, 0.0283891037, -0.0801507980, -0.0652864650, 0.2664833367, -0.0000000000, -0.0000000000, -0.0000000000, 0.2400672585, -0.1733704656, 0.0809775442, 0.1599986553, 0.1273280382, -0.1614581645, -0.2446355820, -0.0000000000, 0.3460999429, 0.0000000000, -0.0000000000, 0.0000000000, -0.1473005265, 0.0064145084, -0.0499137677, 0.0000000000, 0.2709363103, -0.0000000000, 0.0742683709, -0.2153025270, 0.0000000000, -0.3208920658, 0.1174969971, 0.0000000000, -0.0000000000, -0.0000000000, 0.0000000000, 0.2368948311, -0.0000000000, 0.1669732034, 0.1510265619, -0.4222344756, -0.0000000000, 0.0000000000, -0.0000000000, -0.0000000000, 0.0000000000, -0.0000000000, 0.1273202300, -0.0492797531, -0.0575594567, 0.1522976160, -0.1534033120, -0.0000000000, 0.0000000000, 0.1122586876, 0.0000000000, 0.0000000000, -0.0000000000, -0.0000000000, 0.1277096570, -0.0723276362, -0.1952069700, 0.2324446887, -0.0000000000, -0.0000000000, -0.2784352005, 0.0000000000, 0.0000000000, -0.0026779170, 0.0484325774, -0.0171396248, -0.1350225657, 0.0000000000, -0.1970961243, 0.0289778002, -0.0000000000, 0.0000000000, 0.0188888162, -0.0691369399, -0.0568287075, 0.0000000000, 0.0507278852, -0.0000000000, 0.0000000000, -0.1447525769, -0.0000000000, 0.0000000000, 0.0094220927, 0.2490873486, 0.0697096214, -0.0131111210, -0.0000000000, -0.2729103565, -0.0000000000, 0.0520881712, -0.0923991650, -0.1114781350, -0.0651849955, 0.0906599239, -0.0837181807, -0.3180500865, -0.1807275116, 0.0689458996, 0.2511926591, 0.0000000000, 0.1097619161, -0.0130900396, 0.0338130035, -0.0000000000, 0.0781962052, 0.1619970500, 0.0125265066, -0.0000000000, 0.0000000000, 0.0000000000, -0.0000000000, 0.3226970434, 0.0121585513, -0.0000000000, -0.0000000000, 0.1306303889, 0.2287169397, -0.0002524587, -0.0000000000, -0.0047974531, -0.0090676732, 0.0000000000, 0.0000000000, -0.0000000000, 0.0221539885, -0.0000000000, 0.0000000000, -0.1089244857, 0.3338243961, 0.0000000000, -0.0283613633, -0.0572982840, 0.0000000000, -0.0013912629, 0.0000000000, 0.0000000000, -0.1018052921, -0.0000000000, -0.0000000000, 0.0000000000, 0.0000000000, 0.0000000000, 0.0000000000, -0.0000000000, -0.2189226747, 0.3386691809, 0.0000000000, 0.0000000000, 0.2107571214, 0.0000000000, 0.3349107206, 0.1147733331, -0.0000000000, 0.0000000000, -0.1005259082, -0.0000000000, -0.0000000000, 0.0000000000, 0.0530122444, -0.1792979091, -0.0000000000, -0.0000000000, 0.0000000000, 0.0482721664, 0.1298715025, -0.0000000000, -0.0088202395, -0.0000000000, -0.0940068290, 0.0000000000, 0.1257530749, 0.0000000000, 0.0756204501, 0.0000000000, 0.0000000000, 0.0000000000, 0.0056219371, -0.0027385256, -0.0000000000, -0.0000000000, -0.0000000000, -0.0102807153, -0.0716433302, 0.0000000000, -0.0000000000, 0.3105887771, 0.0767032504, 0.0000000000, -0.1759101450, 0.1745540351, 0.0000000000, 0.1621496230, 0.0464694053, -0.0000000000, 0.0000000000, -0.0000000000, -0.1064260453, 0.0000000000, -0.0064172251, -0.0285220612, -0.0000000000, -0.0275933873, -0.1441745907, -0.0000000000, -0.0000000000, -0.0000000000, -0.1050383747, 0.0278992131, -0.0000000000, 0.3967600763, 0.0000000000, 0.0000000000, -0.0000000000, 0.1671392471, 0.0000000000, -0.2192002386, 0.2033206075, -0.0000000000, -0.0000000000, -0.0000000000, 0.3161210418, -0.0000000000, 0.0836106613, 0.0000000000, 0.1933345795, 0.0000000000, -0.0000000000, -0.0000000000, 0.0000000000, -0.1376291662, 0.0030975835, 0.0891273469, 0.0000000000, 0.0892299190, -0.0000000000, 0.1610286385, -0.0028526178, -0.2126825154, 0.0000000000, 0.0000000000, 0.1671160460, -0.1085135490, -0.0000000000, 0.0000000000, -0.1873236895, -0.0000000000, -0.1075818017, -0.0000000000, 0.0000000000, -0.0000000000, -0.0728217587, -0.0000000000, 0.0978238732, 0.0000000000, -0.0000000000, -0.0000000000, -0.0000000000, -0.0000000000, -0.0000000000, -0.2819491327, -0.0135507314, -0.0000000000, 0.1246302649, -0.0000000000, -0.2102824450, 0.0000000000, 0.0000000000, 0.0000000000, 0.0319995135, -0.0612130575, 0.0000000000, -0.0000000000, 0.1833895743, -0.1538090408, -0.1905609071, 0.0000000000, 0.0000000000, -0.2234504372, 0.0000000000, -0.2418987751, -0.0000000000, 0.0000000000, 0.0490647517, -0.0275662243, 0.2734371722, 0.0000000000, -0.0000000000, -0.0000000000, -0.0771352351, 0.1115106046, 0.0000000000, 0.0000000000, -0.0880661309, -0.0000000000, 0.0000000000, 0.0000000000, -0.1714117974, -0.1869680732, -0.0000000000, -0.0000000000, -0.0605514422, -0.2921718061, -0.1508114487, -0.0000000000, 0.0000000000, 0.1686857045, 0.0000000000, 0.0000000000, 0.0000000000, -0.0606243834, -0.0000000000, 0.0166454092, 0.0141809471, -0.0000000000, -0.2348078340, -0.2518965006, 0.0000000000, 0.0848479345, -0.0702681094, 0.0000000000, -0.0370986313, -0.0945967287, 0.1405003667, 0.1088310406, 0.0000000000, -0.0000000000, 0.0000000000, -0.0013551639, -0.0000000000, 0.0000000000, 0.0000000000, 0.0000000000, 0.1610685289, -0.0734936446, 0.0731277689, -0.0000000000, 0.3175648153, 0.0000000000, -0.0000000000, -0.2923203111, -0.2548502386, 0.0578094497, 0.1830491871, -0.0000000000, -0.0000000000, -0.0919230431, 0.1734674871, -0.0000000000, -0.3355217576, -0.0000000000, 0.2056583017, -0.0000000000, 0.0236258265, 0.0846953019, 0.0000000000, -0.1466906965, -0.0000000000, -0.0164111387, -0.2098968178, 0.3803874254, -0.0963827670, -0.0127240214, -0.0000000000, 0.0312568247, 0.1152250245, 0.0808155760, -0.0478108227, 0.0904969499, -0.1101578698, -0.2323236316, -0.0000000000, 0.3528474867, -0.1580053866, -0.0000000000, 0.0614198782, -0.0163776204, 0.0000000000, -0.0000000000, -0.1558758616, -0.1241946965, 0.0000000000, -0.0789208412, 0.0633511841, -0.2379888743, 0.0080021583, 0.0322547741, -0.0000000000, -0.0000000000, -0.0000000000, -0.1907258630, -0.0092388289, 0.0000000000, 0.0000000000, 0.1406308264, -0.3266362250, 0.2122171968, -0.0000000000, 0.0000000000, -0.2020966262, -0.0000000000, -0.0900268257, -0.0025061122, -0.0000000000, 0.0000000000, 0.1478879452, -0.0000000000, -0.2414469123, 0.1954313368, -0.0000000000, 0.3115597069, -0.3695983291, 0.2306093574, -0.2391059548, -0.2240309566, -0.0000000000, -0.0000000000, 0.0000000000, -0.0140530644, 0.0381442867, -0.0000000000, -0.2786085606, -0.0094774785, -0.0000000000, 0.0532001592, -0.0000000000, 0.0000000000, -0.0000000000, -0.0178479310, -0.0000000000, -0.0000000000, 0.1299583167, 0.0355697796, -0.0768420920, -0.2872713506, -0.0855531767, -0.2679895163, 0.0214791931, -0.0000000000, -0.1868064106, -0.1644953787, 0.0000000000, -0.1185706407, 0.0026988569, 0.0456898212, -0.0000000000, -0.2167114466, -0.0733470842, -0.1227500662, 0.0000000000, -0.0000000000, -0.0000000000, -0.0000000000, -0.0406925641, -0.0000000000, -0.0389647707, 0.1784598827, 0.0000000000, -0.0000000000, 0.0000000000, -0.1497532278, -0.0000000000, 0.0000000000, -0.3023425639, 0.0179529022, -0.2983631194, -0.3284112513, -0.0000000000, 0.0584983677, -0.1939428002, -0.1310660243, 0.2622189224, 0.0000000000, 0.2255394757, 0.2104756832, 0.0453850180, 0.0167142097, 0.2067542672, 0.0000000000, 0.1479987949, -0.0509962253, 0.0607662164, -0.2755233645, -0.2027117312, -0.1152584404, -0.0000000000, -0.0257734433, -0.0000000000, -0.0545020550, 0.0000000000, -0.1357737482, -0.0000000000, -0.0275282376, 0.2275038064, 0.0000000000, -0.1689642966, 0.1005397439, -0.0000000000, -0.0000000000, 0.0585893355, 0.0000000000, 0.0000000000, 0.0000000000, 0.0000000000, -0.3352248371, -0.0027824775, -0.0000000000, -0.0000000000, -0.1165118739, -0.0000000000, -0.0091495803, 0.0000000000, -0.2532158494, -0.0723550841, -0.0000000000, 0.0000000000, -0.0000000000, -0.0928180888, 0.0000000000, 0.0000000000, -0.0000000000, 0.3600531518, -0.2386499643, -0.0000000000, -0.2686619461, 0.0983496979, -0.0000000000, 0.0288199279, -0.0022341136, -0.0300679225, 0.0000000000, 0.0000000000, 0.0000000000, -0.1716544032, 0.0000000000, -0.0000000000, 0.0000000000, -0.1017383933, 0.0000000000, -0.0000000000, -0.0093586752, 0.0032266059, -0.1656729281, 0.0000000000, -0.0000000000, 0.0000000000, 0.1077822372, -0.0418752767, 0.1889863610, -0.0939099342, -0.0447895452, -0.0000000000, 0.0232016798, 0.1570050120, 0.0431306995, -0.0000000000, -0.0000000000, -0.0000000000, -0.1685673892, 0.0155650834, 0.0000000000, 0.0000000000, -0.1476858109, -0.1606332809, -0.0000000000, -0.1578485668, -0.2920378149, 0.0000000000, 0.2644523680, -0.0000000000, 0.0000000000, -0.0000000000, 0.0000000000, -0.1351686865, 0.0000000000, 0.0000000000, -0.1105489731, -0.0000000000, 0.0000000000, 0.0032691979, -0.0000000000, -0.0000000000, -0.0000000000, 0.0062124417, -0.0000000000, 0.0000000000, -0.0294152424, 0.0000000000, -0.0000000000, 0.0000000000, -0.2116581649, -0.0000000000, -0.0000000000, -0.0137764793, 0.0000000000, 0.2611649036, -0.0355124287, 0.0021508893, 0.1998340487, -0.0000000000, 0.1099856347, -0.0981990471, 0.0579667427, -0.0000000000, 0.0006541224, -0.0706801340, -0.0447625779, 0.0000000000, 0.0397785380, 0.0000000000, -0.0000000000, -0.0958639309, -0.0000000000, 0.3526942134, 0.0000000000, 0.0000000000, -0.1429142356, 0.0993966460, 0.1844396293, 0.0239458159, -0.0000000000, 0.0738196671, 0.0000000000, -0.0000000000, 0.0000000000, 0.0000000000, -0.0000000000, -0.0000000000, 0.0000000000, 0.0000000000, 0.0873006955, -0.1212909892, 0.0445816778, -0.0000000000, -0.1347974539, -0.0000000000, 0.0973790288, -0.0000000000, 0.1370097846, 0.1980466694, -0.1338316053, -0.1044454873, -0.1317448020, -0.0000000000, 0.0755056143, 0.2542068958, 0.0000000000, -0.0000000000, 0.0651351884, 0.0187154301, -0.1940490156, 0.1189033985, -0.1358772516, 0.0000000000, 0.0000000000, 0.0000000000, 0.0948559418, 0.0541104078, -0.0000000000, -0.0000000000, -0.0000000000, 0.0000000000, 0.0000000000, 0.0982660726, -0.0218054727, 0.0000000000, 0.0000000000, -0.0791022554, -0.0717095956, -0.0000000000, 0.0000000000, 0.0000000000, -0.0000000000, 0.0000000000, 0.0000000000, -0.0075057903, -0.0000000000, 0.0000000000, -0.0651473776, 0.0000000000, -0.0000000000, -0.0000000000, -0.0000000000, -0.0000000000, -0.0215185825, -0.0762995034, 0.0000000000, 0.0000000000, 0.1735581309, -0.0000000000, -0.0060195988, 0.0000000000, 0.0000000000, 0.0000000000, -0.1675897092, -0.1045226902, -0.0000000000, -0.3053085804, 0.0000000000, 0.0000000000, -0.0000000000, 0.0000000000, -0.2139125168, -0.0000000000, -0.3129606843, -0.2306171358, 0.0669993311, 0.2276304364, 0.1079373360, -0.1480772942, 0.0046775257, 0.0000000000, 0.0000000000, 0.0000000000, -0.0000000000, 0.0000000000, 0.0094165672, 0.2021714747, -0.0011237253, 0.0698873103, 0.0000000000, 0.0000000000, -0.0000000000, -0.4349206090, -0.0000000000, 0.0000000000, -0.0000000000, 0.0000000000, 0.0000000000, 0.0000000000, -0.0000000000, 0.1180656701, -0.0495600663, -0.0604426041, 0.1992675662, -0.2784429193};
#endif

#endif
