//Numpy array shape [3, 3, 3, 16]
//Min -0.447281032801
//Max 0.443180650473
//Number of zeros 216

#ifndef W2_H_
#define W2_H_

#ifndef __SYNTHESIS__
conv_0_weight_t w2[432];
#else
conv_0_weight_t w2[432] = {-1.5918776989, 2.8357861042, -0.0000000000, -0.0000000000, -1.7672995329, -0.0000000000, -0.0000000000, -3.9772171974, -0.0000000000, 0.0000000000, 0.0000000000, 0.0000000000, -1.6698801517, -2.2083673477, 2.2320778370, -0.0000000000, -2.1915137768, -6.4381823540, -0.0000000000, 3.9899237156, 0.0000000000, 4.8537821770, 4.0091876984, -0.0000000000, 0.0000000000, 0.0000000000, 0.0000000000, 0.0000000000, 0.0000000000, 0.0000000000, -0.0000000000, -0.0000000000, -0.0000000000, -0.0000000000, -0.0000000000, -0.0000000000, -4.7704715729, 0.0000000000, 0.0000000000, -0.0000000000, -0.0000000000, 0.0000000000, 0.0000000000, 4.3119688034, -0.6891947389, -2.0779638290, 4.4037055969, -0.0000000000, -0.0000000000, -0.0000000000, -0.0000000000, -0.0000000000, -3.1652414799, -0.0000000000, 3.5487399101, 2.5743741989, 0.0000000000, 1.4045184851, 0.0000000000, -3.7537703514, 0.0000000000, -0.0000000000, -2.4390861988, -0.0000000000, -1.1229246855, -0.0000000000, -0.0000000000, -0.0000000000, 0.0000000000, 3.7136433125, -0.8681686521, -4.9843320847, 0.0000000000, 3.5651748180, 4.1741533279, 6.7272348404, 0.7435802817, -3.1591348648, -0.0000000000, 2.5397222042, -0.0000000000, -0.0000000000, 1.1632388830, 2.3178482056, 0.0000000000, 0.0000000000, -0.0000000000, -3.8207831383, -0.0000000000, 0.0000000000, 1.8690286875, 0.0000000000, 0.0000000000, 0.0000000000, -3.0935716629, -2.8686318398, -0.0000000000, -3.3921399117, -1.6629395485, -0.0000000000, 0.0000000000, -1.3595443964, -0.0000000000, -4.1838760376, -1.4055806398, 0.0000000000, -1.3764573336, 3.1970365047, -0.8222640157, -0.0000000000, 4.0340433121, -0.0000000000, -0.0000000000, -0.0000000000, -0.0000000000, -0.0000000000, -2.7607271671, -2.3232576847, -0.0000000000, -0.0000000000, 0.0000000000, 3.4366889000, 0.0000000000, 0.0000000000, 1.8479288816, -1.5973376036, 4.7437987328, -0.0000000000, 2.0151374340, -4.6557612419, 1.3616814613, -2.0230259895, 2.5044708252, 3.2415540218, 1.3883086443, -3.0765204430, -0.0000000000, 0.0000000000, -2.7835822105, 2.9619872570, 0.0000000000, 2.4349145889, -1.2230681181, -0.0000000000, -0.0000000000, -3.2866744995, -2.0764405727, -0.0000000000, -2.6158685684, 2.4773802757, 2.7852768898, 2.6480979919, -0.0000000000, 0.0000000000, -4.2247195244, 2.5973324776, -0.7506741881, 1.1221797466, -0.0000000000, -0.0000000000, -1.9189972878, 3.7100925446, -2.5361261368, -0.0000000000, 0.0000000000, 0.0000000000, 2.5680830479, -0.0000000000, 0.0000000000, 0.0000000000, 2.5401594639, -2.6837112904, -0.0000000000, 1.8913069963, -0.0000000000, -0.0000000000, -2.1183605194, -2.6573293209, -2.4268479347, 2.7045662403, -4.1456394196, 2.8535728455, 0.0000000000, 4.1241278648, 2.1761636734, 0.0000000000, 0.0000000000, -5.0410017967, 0.0000000000, 1.5364216566, -0.0000000000, -0.0000000000, 1.6722531319, -0.0000000000, -1.2032660246, -1.7308830023, 0.0000000000, 3.3894653320, -0.0000000000, 4.8971247673, 0.0000000000, 0.0000000000, -1.5631231070, 5.5521664619, -0.9558191895, -0.0000000000, -0.0000000000, 2.0798232555, 3.2615091801, -4.1729021072, -0.0000000000, -0.0000000000, 1.5384604931, -2.3900678158, -0.0000000000, -0.0000000000, 0.0000000000, 0.0000000000, 0.0000000000, 5.6341166496, -1.0997630358, -0.0000000000, -0.0000000000, 1.8167505264, -2.2064630985, 2.4295001030, -0.0000000000, -0.0000000000, 2.5091915131, 0.0000000000, -0.0000000000, -0.0000000000, -1.3391977549, 0.0000000000, 2.4049727917, -3.8435463905, -1.2936010361, 0.0000000000, 2.8968110085, -0.0000000000, 2.2975137234, -3.2121689320, -2.2994332314, -2.9330198765, 3.0000867844, -0.0000000000, -0.0000000000, -3.0475344658, -0.0000000000, 0.0000000000, 0.0000000000, -3.0887830257, 0.9146641493, -0.0000000000, -0.0000000000, -0.0000000000, 1.9265602827, 4.2029414177, -0.0000000000, -2.3122634888, 1.6717450619, -0.0000000000, -2.4693837166, 2.1340694427, 0.0000000000, -2.2769777775, 0.0000000000, -2.9725561142, 1.5009483099, -2.4141967297, -0.0000000000, -0.0000000000, -0.0000000000, 5.1019401550, -0.0000000000, -0.0000000000, -2.3786273003, -3.3609595299, 2.4128890038, -0.0000000000, 1.2001675367, 0.0000000000, -2.5411980152, 2.5478150845, 0.0000000000, -0.6087840199, -1.2031592131, -0.0000000000, -2.0799334049, -0.0000000000, -0.0000000000, 4.3323159218, 2.7373702526, -2.5482451916, -1.9375159740, -0.0000000000, -1.3241475821, 0.0000000000, 0.0000000000, -4.1653447151, -0.0000000000, 3.4532642365, -3.1161894798, -0.0000000000, -2.6195986271, -0.0000000000, 1.2347030640, -0.0000000000, -3.2627091408, 0.0000000000, -1.5841596127, 4.0473017693, -0.0000000000, 0.0000000000, -3.3728306293, -3.6184303761, -0.0000000000, 2.2367835045, -4.1139369011, -0.0000000000, 1.7868863344, -0.0000000000, -0.0000000000, -1.8012676239, 2.8757665157, 0.0000000000, -0.8479563594, -0.0000000000, -1.4507557154, 0.0000000000, 0.0000000000, 0.0000000000, 1.3737838268, -1.2166886330, -0.0000000000, -0.0000000000, -1.8250650167, 5.3963999748, -0.0000000000, -0.0000000000, 0.0000000000, -4.6108951569, -0.0000000000, -0.0000000000, -0.0000000000, 0.0000000000, 2.2095923424, 0.0000000000, -2.5921182632, -2.4246630669, -0.0000000000, -0.0000000000, 1.7491736412, -0.0000000000, 2.5691034794, -2.7891063690, 2.6812083721, 2.0778927803, -3.4423210621, 4.7355885506, -1.3905296326, 0.0000000000, 2.4669334888, -6.5746788979, -0.0000000000, -2.5559861660, -0.0000000000, -0.0000000000, -2.5766880512, -2.2164711952, 3.2178580761, 2.4906530380, 3.7341060638, -2.8107519150, -1.7481138706, -2.2538526058, -0.0000000000, 0.0000000000, 0.0000000000, 0.0000000000, 0.7469626665, -0.0000000000, -3.4915089607, -0.0000000000, 2.2350809574, -0.0000000000, 0.0000000000, -0.0000000000, 1.7298952341, -0.0000000000, -3.0693597794, -0.0000000000, -0.1506123543, 0.0000000000, 0.0000000000, 0.0000000000, -0.0000000000, 2.5992600918, -2.4140551090, 0.0000000000, -0.0000000000, 6.5846915245, -0.0000000000, -0.0000000000, 0.0000000000, 0.0000000000, -1.9471372366, -3.2108907700, -0.0000000000, -3.8135943413, 0.0000000000, 2.5099561214, -0.0000000000, -0.0000000000, -0.0000000000, -1.1707631350, 3.4715955257, -0.0000000000, 1.6104800701, -2.4999282360, 0.0000000000, -2.4585578442, -0.0000000000, 3.5694298744, -0.6610276103, 0.0000000000, 2.6205689907, 0.0000000000, -1.5455574989, -0.0000000000, -0.0000000000, -0.0000000000};
#endif

#endif
