//Numpy array shape [42, 64]
//Min -0.358250051737
//Max 0.352130234241
//Number of zeros 1344

#ifndef W22_H_
#define W22_H_

#ifndef __SYNTHESIS__
dense_1_weight_t w22[2688];
#else
dense_1_weight_t w22[2688] = {0.2003457397, -0.0000000000, 0.0000000000, -0.0000000000, -0.0000000000, -0.0000000000, -0.0000000000, -0.0000000000, -0.0000000000, -0.6862952113, 0.0000000000, -0.0077757766, 0.0000000000, -0.0000000000, -0.0000000000, 0.0000000000, -0.9935708642, 0.0000000000, 0.0000000000, 0.0000000000, 0.2051979601, -0.8756451607, 0.0000000000, -0.0000000000, -0.0000000000, 1.0548866987, -0.4604386687, -0.3343708217, -1.2416210175, 0.2213720232, -0.7703348398, -0.0000000000, 0.0970833153, -0.0645833090, -0.0000000000, -0.4102359116, 0.1118536592, -0.0000000000, 0.0000000000, 0.0000000000, -0.0000000000, -0.0000000000, 0.0000000000, -0.6485146284, 0.3363674283, 0.0000000000, -0.1158277839, -0.0000000000, -0.0835396573, -0.0000000000, -0.4728889763, 0.0000000000, -0.0000000000, -0.6690881252, 0.1563645601, 0.5964821577, 0.0237237848, 0.0000000000, 1.0862613916, 0.0000000000, 0.8117285967, -0.0000000000, -0.5781362653, -0.0014513204, -0.1994455457, -0.0000000000, 0.0000000000, 0.2465682179, 0.0483546071, -0.6507463455, -0.0000000000, -0.4145584106, 0.2376610488, 0.2421687990, 0.4600034058, -0.0612662174, -0.0646875426, -0.0000000000, -1.1754156351, 0.0000000000, -0.0000000000, -0.0000000000, -0.1327412724, 0.0000000000, 0.2406717539, -0.3060356677, 0.2606210113, 0.0596504137, -0.0000000000, 0.0000000000, 0.0000000000, 0.0000000000, 0.0000000000, -0.9169250131, -0.1387002617, 1.1571810246, 0.0000000000, -0.1975340098, -0.4075007737, 0.0000000000, 0.7647622228, 1.0058612823, -0.7388556600, -0.7409271002, -0.0000000000, 0.6319651008, -0.7888563275, 0.0000000000, -0.5822941065, -0.4000921249, -0.0000000000, -0.8584299684, -0.0000000000, -0.3363876939, -0.0000000000, 0.0055655194, -0.0000000000, -0.0645190030, 0.0359607302, -0.3712954521, -0.3497754037, 0.0000000000, -0.1890722066, -0.9770448208, -0.0000000000, 0.3278600574, 0.1475151032, -0.3175712526, 0.2438858598, 0.9618954659, -0.0000000000, -0.5011212230, -0.0967394635, 0.0000000000, -0.2961570919, -0.0000000000, -0.2180953771, -0.5484700203, 0.0000000000, 0.2343122363, 0.4901157916, -0.0000000000, -0.0000000000, -0.0000000000, 0.0000000000, 0.0000000000, -0.0000000000, -0.7267072797, -0.0000000000, -0.0000000000, -0.4389845133, -0.1369096637, -0.0000000000, -0.0000000000, -0.2704900205, 0.2175851166, 0.0000000000, -0.0000000000, 0.3611165285, -0.3893710077, 0.0000000000, 0.2813637853, 0.3861964345, 0.1470496953, -0.0000000000, -1.0419241190, -0.6928038597, 0.4110829830, 0.0000000000, -0.1076527312, -0.0000000000, -0.0000000000, -0.9425451159, 0.1797180176, 0.0000000000, 0.1556147933, 0.0000000000, -0.3456352949, -0.0000000000, 0.0000000000, -0.0000000000, 0.0424578115, -0.6633295417, 0.7741971612, 0.0000000000, 0.0689320713, -0.0000000000, -0.4185159206, -0.0000000000, -0.0000000000, -0.1772970855, 0.6659141779, -0.0000000000, -0.0000000000, 0.0250606835, -0.0000000000, 0.0000000000, -0.6388702393, 0.5087616444, -0.1920134276, -0.0000000000, 0.0000000000, 0.3014873862, -0.0000000000, 0.0000000000, 0.0582970269, -0.0000000000, -0.0000000000, -0.0516096875, -0.0000000000, 0.0000000000, -0.3461798429, 0.0000000000, 0.0000000000, 0.0000000000, 0.0495453812, 0.0000000000, -0.7448673248, 0.0000000000, -0.0000000000, 0.1141253263, -0.2377139181, -0.9328210950, -0.9160948396, 0.3283101320, 0.0169513784, 0.0000000000, -0.2550663650, -0.0000000000, -0.0000000000, -0.0000000000, -0.3047997057, -0.5447418094, -0.0000000000, 0.0000000000, 0.7929862738, -0.2366543263, 0.0000000000, 0.0000000000, -0.7103703022, -0.1529422700, -0.0000000000, -0.1897430271, 0.0000000000, -0.0000000000, -0.4527465999, 0.0829920098, -0.0000000000, -0.2620919943, 0.4758957624, -0.5342913270, -0.0000000000, 0.0000000000, -0.0000000000, 0.0000000000, -0.0000000000, 0.0000000000, -0.0000000000, 0.8827987909, -0.0000000000, -0.7702831626, -0.0000000000, 1.6043075323, -0.9004124999, 0.5923280120, 0.0000000000, -0.0000000000, 0.0000000000, -0.0000000000, -0.6239424348, 0.0000000000, 0.2737585604, 0.4306938350, -0.0409664251, 0.0726353154, -0.0000000000, -0.0000000000, 0.5351333022, 0.0000000000, 0.0934435353, -0.0000000000, -0.0059631909, 0.0563016832, 0.2441364974, -0.5384655595, 0.0000000000, 0.0000000000, -0.0000000000, 0.7239359617, 0.3357595503, 0.0000000000, 0.0526971109, 0.3347939849, -0.0000000000, 0.1531956792, -0.0000000000, 0.0000000000, 0.7243773341, 0.1112167761, -0.3054478765, -0.0000000000, 0.0000000000, 0.5509428978, -0.2603061497, -0.0000000000, -1.0412346125, -0.0898727849, 0.0000000000, -0.0000000000, -0.0792006254, 0.0688693970, -0.0000000000, 0.0000000000, 0.0000000000, 0.0000000000, -0.0000000000, 0.0000000000, -1.1204750538, 0.3760315478, -0.0000000000, 0.3982948363, 0.0000000000, -0.0849354714, 0.0000000000, 0.0000000000, -0.0000000000, 0.0183127411, -0.0000000000, -0.3583818674, 0.5409882069, 0.8455706239, 0.0000000000, 0.7373765707, -0.0000000000, -0.5820910335, 0.0000000000, 0.0000000000, 0.2720487714, 0.5650365949, -0.2280772179, 0.7703419328, 0.0000000000, -0.6036502719, -0.3484437466, -0.0218722783, -0.0000000000, 0.0000000000, 0.0000000000, -0.0000000000, 0.1573563516, 0.3706026971, -0.0000000000, 0.6459017396, 0.5796174407, -0.0000000000, -0.2122463733, -0.5873700976, -0.0000000000, -0.7083948851, 0.2254981995, -0.1145735309, 0.0031045838, -0.1439052969, -0.3043274879, -0.0000000000, 0.2071821094, 0.8533239961, -0.4333602488, 0.0000000000, -0.0000000000, -0.0008650758, -0.0000000000, 0.6622254252, 0.0924571827, -0.0000000000, 0.0075747208, 0.0000000000, -0.0000000000, -0.0000309094, 0.0000000000, 0.1782505810, 0.4111582935, 0.0000000000, 0.0000000000, 0.4911236465, 0.0000000000, 0.0000000000, 0.0873586908, 0.0000000000, -0.3929468393, -0.0000000000, -0.0000000000, -0.0000000000, -0.0000000000, 0.0000000000, 0.0000000000, 0.3340539336, -0.0000000000, -0.0322553702, 0.6806038618, -0.7412078381, 0.2736985683, 0.1372039169, 0.0000000000, -0.7020886540, -0.8191050291, 0.2313943952, 0.0000000000, -0.0000000000, 0.5145214200, 0.2959523797, -0.0000000000, -0.0000000000, 0.2718746066, 0.0000000000, 0.3425228596, -0.0000000000, 0.0000000000, -0.0000000000, 0.0000000000, 0.0091056013, -0.0579836443, 0.0000000000, -0.4920057058, -0.0000000000, 0.3855556548, 0.5220497847, 0.2348089963, -0.0000000000, -0.4060196579, 0.0000000000, 0.7672393918, 0.0029492818, 0.1371813416, -0.0000000000, 0.7234776020, 0.2635519803, -0.0000000000, 0.0674636811, 0.0730251297, -0.0000000000, 0.0890605152, 0.0000000000, -0.0000000000, 0.0000000000, 0.0000000000, 0.0696684569, -0.0000000000, 0.2998906970, -0.0000000000, -0.3573957980, -0.2437963933, 0.1483598650, 1.1146821976, 0.2965669930, -0.0487460904, 0.4370699823, 0.0000000000, -0.3224123418, 0.8915393949, 0.0000000000, -0.0000000000, 0.0000000000, 0.0000000000, -0.2749902308, 0.0000000000, 0.0000000000, -0.2356467247, -0.0000000000, -0.0000000000, 0.0000000000, -0.0000000000, -1.2035136223, -0.5032023191, 0.0000000000, -0.0000000000, 0.0000000000, -0.0000000000, -0.1365973949, -0.2747254074, -0.7556656599, -0.0000000000, -0.4364463091, -0.0000000000, -0.1088407710, -0.0000000000, 0.4938746691, 0.3416554034, -0.0000000000, -0.6059697270, -0.4366669357, 0.0000000000, -0.0000000000, 0.0000000000, 0.0000000000, -0.1765511334, 0.0000000000, 0.0000000000, -0.4713571966, -0.8785098195, 0.0000000000, 0.2044204623, 0.1730454415, 0.0000000000, -0.0000000000, 0.3260248899, -0.0000000000, 0.3187616467, -0.0000000000, -0.0000000000, 0.0000000000, -0.0000000000, -0.2263168097, -0.0045666643, 0.0000000000, -0.2390625179, 0.0000000000, 0.2384976000, 0.6342369318, 0.0000000000, 0.0000000000, 0.4767893851, 0.4189605713, 0.0000000000, -0.9159005880, 0.7847254872, 0.0196914785, 0.0000000000, -0.0000000000, 0.0937979221, -0.0000000000, -0.0000000000, 0.0000000000, -0.0000000000, -0.0000000000, 0.0044901874, 0.0000000000, 0.5304457545, -0.0000000000, 0.3933421969, -0.0000000000, 0.0000000000, 0.2068795860, -0.0000000000, 0.3484161794, -0.2191208303, 0.0077906502, 0.0000000000, 0.0000000000, 0.0000000000, -0.0000000000, -0.5697394609, -0.0248095058, 0.0000000000, -0.0000000000, -0.8406256437, 0.1770169735, 0.0000000000, -0.1071467623, 0.4951511621, -0.3564786017, 0.5143839121, 0.0000000000, 0.0012295252, 0.0000000000, -0.5656283498, 0.0000000000, -0.0357287079, 0.5595431328, -0.4303127825, 0.0000000000, 0.0000000000, -0.0000000000, 0.5961593986, 0.0000000000, 0.0000000000, 0.0000000000, -0.0000000000, 0.0000000000, -0.0000000000, 0.5231050849, -0.6961424947, -0.0000000000, -0.3953401148, 0.2833424509, 0.0000000000, 0.0000000000, -0.0000000000, 0.0000000000, -0.0000000000, -0.0167612024, 0.0000000000, -0.4600325525, -0.2321062684, 0.3909178078, 0.0000000000, 0.0000000000, -0.6929199100, 0.0000000000, -0.0048054908, 1.3492856026, -0.3318608999, 0.0000000000, 0.0000000000, -0.0283599701, 0.0000000000, -0.0345143154, 0.0000000000, 0.5504557490, 0.0000000000, -0.0000000000, 0.1686909497, 0.0000000000, -0.0675457567, 0.0000000000, 0.0000000000, -0.0000000000, 0.0000000000, -0.0000000000, -0.0000000000, 0.9663208723, 0.0000000000, 0.0000000000, 0.6397960186, -0.0000000000, 0.7748628855, 0.7677239776, 0.0000000000, 0.0000000000, 0.6583610177, 1.1742769480, 0.5885108113, 0.0000000000, 0.0037020484, 0.0000000000, 0.7011629343, 0.0000000000, 0.0000000000, -0.7059128881, -0.0000000000, -0.0000000000, 0.0000000000, 0.0000000000, -0.0000000000, 0.0000000000, -0.0000000000, -0.3378101289, 0.7341156006, -0.0000000000, -0.0000000000, -0.0356988274, 0.0000000000, -0.2604649067, -0.0742904097, 0.0000000000, -0.0188614558, -0.5598983765, -0.0176121499, -0.2822332382, 0.1682248414, 0.0590802543, -0.2511046231, 0.4421737492, 0.0000000000, -0.0000000000, -0.7363590598, -0.0587945767, 0.0000000000, 0.6367017627, 0.0000000000, 0.0000000000, 0.4082200527, -0.0000000000, 0.0000000000, 0.8834087849, 0.0000000000, -0.0549896881, -0.0222421102, -0.0000000000, -0.4691959321, -0.0000000000, 0.0000000000, 0.2488864809, 0.6743649840, 0.5353155732, -0.0000000000, 0.1654297411, -0.0750906765, -0.0499479212, -0.0000000000, 0.0169180259, -0.0000000000, 0.0000000000, -0.2323772907, -0.5206374526, -0.0227561239, -0.0000000000, 0.0000000000, -0.0006315712, 0.0000000000, -0.0000000000, -1.1105695963, -0.6713429689, -0.1337102056, 0.0462593399, 0.3700210154, 0.5146156549, -0.0000000000, -0.0000000000, 0.5385173559, -0.4840595424, -0.7060497999, -0.5647181273, -0.3139697015, 0.0000000000, -0.0000000000, -0.0000000000, 0.0000000000, 0.3335388899, 0.3063216507, 0.0000000000, -0.0000000000, -0.5391522050, 0.1048832536, 0.0000000000, -0.0000000000, 0.0000000000, -0.4743140638, 0.0000000000, 0.0000000000, -0.8709759116, 0.5573892593, 0.5386196971, -0.0000000000, -0.0000000000, 0.0000000000, -0.6618278027, 0.0118244905, 0.0000000000, 0.4666647315, 0.1785986274, -0.3467306793, 0.0000000000, -0.0000000000, -0.7371665835, -0.0000000000, -0.3529984653, 0.0000000000, 0.0000000000, 0.1856744289, -0.4421410263, -0.3026925921, -0.4420330524, 0.0000000000, -0.4929248989, -0.0831740424, -0.0000000000, -0.0000000000, 0.0000000000, 0.8039124012, 0.0991985053, 0.0000000000, -0.0000000000, 0.0000000000, -0.0000000000, 0.6017961502, -0.3592107296, -0.0000000000, -0.3579737246, -0.3732493520, -0.6632177830, 0.0000000000, 1.0891947746, 0.3377533853, -0.3352306187, 0.0000000000, -0.0000000000, -0.0235581025, 0.5906053185, 0.0000000000, -0.2507083714, -1.1172331572, 0.2014665753, -0.0000000000, 0.0000000000, 0.0000000000, 0.0066102371, -0.0000000000, -1.1984584332, -1.0454329252, -0.0000000000, -0.6594361663, -0.0000000000, -0.4937638044, 0.2696846128, 0.0000000000, -0.0000000000, -0.0016044803, 0.0493882708, -0.0036815326, 0.7449998260, -0.7730719447, -0.5172122717, 0.2927758992, 0.0000000000, 0.0055944021, 0.0000000000, -0.0013355796, 0.4333433211, -0.0486642346, 0.0000000000, -0.0000000000, -0.0000000000, 0.6755884290, 0.0000000000, -0.0143617680, -0.1602159739, -0.2428145409, -0.0686442778, -0.0811778754, -0.1701118052, -0.5139585137, -0.0014503520, -0.0000000000, -0.0000000000, -0.3492549062, -0.8403331041, -1.0021920204, -0.7576134205, 0.0000000000, -0.0000000000, -0.7676278353, 0.0000000000, 0.0000000000, 0.0000000000, -0.1786070317, 1.2631947994, -0.3717241883, 0.4939227998, -0.2324099988, -0.0000000000, 0.0000000000, 0.0000000000, 0.5361742973, 0.0000000000, -0.0000000000, -0.5009409189, 0.0250117071, -0.0000000000, -0.0404947065, -0.0000000000, -0.3080387712, -0.0000000000, -0.0096089961, 0.0000000000, -0.0000000000, -0.0000000000, -0.0000000000, 0.4236718118, 0.7879291773, -0.6099814177, -0.0000000000, -0.0000000000, -0.0000000000, 0.0000000000, 0.5301110148, 0.0000000000, -0.0000000000, 0.0000000000, 0.0000000000, 0.0000000000, 0.0000000000, -0.0911678448, 0.0000000000, -0.6642525792, -0.4010602534, -0.0000000000, 1.0329511166, -1.1078072786, 0.0987483561, 0.0000000000, -0.2946104407, 0.0000000000, -0.0000000000, 1.1245700121, -0.0000000000, -0.0000000000, -0.0000000000, 0.3798378110, 0.0000000000, -0.0000000000, 1.0144511461, 0.6150077581, -0.0185237825, 0.0000000000, -0.0730652213, -0.0000000000, 0.0587988608, 0.0000000000, -0.5127162337, 0.2321499884, -0.0000000000, 0.1094602942, -0.4201211333, 0.0000000000, 0.0000000000, 0.0000000000, -0.0000000000, -0.0000000000, -0.0000000000, -0.0000000000, -0.4811595082, -0.0000000000, -0.5579665899, -0.4264789224, 0.0000000000, 0.5153962374, 0.0000000000, -0.0000000000, 0.2101023048, -0.1119234934, 0.2569434345, -0.9423283935, -0.9445943832, -0.8116860390, -0.0000000000, -0.0521958210, -0.3826153278, -0.1743827015, 0.5542408824, -0.1229281947, -0.1232986450, -0.0000000000, -0.2129443586, 0.0002414892, -0.6569992304, -1.5416010618, -0.2063670307, -0.0046984297, 0.3046452403, 0.8951761723, -0.3155994713, -0.0443458296, 0.0000000000, 0.0000000000, 0.0000000000, 0.0000000000, 0.0000000000, -0.7937290668, -0.9029459357, 0.5478631258, 0.5028438568, 0.3066556752, -0.5276626348, -0.0000000000, -0.0000000000, -0.0000000000, -0.0000000000, 0.8040385842, -0.3106659353, 0.0000000000, 0.4605302215, 0.8045139313, -0.6857547760, 0.4419629872, -0.0000000000, -0.7725253701, 0.9966718554, -0.0000000000, -0.3607230783, 0.6891053319, 0.1094982028, -0.0018209426, 0.0000000000, 0.0000000000, -0.0000000000, -0.0549309067, -0.0000000000, 0.0025658037, -0.0000000000, -0.0072446153, 0.7700884938, -0.6698918343, 0.7064610720, -0.5615500212, 0.0000000000, -0.0000000000, -0.0000000000, -0.0200906452, -0.3312408924, 0.0177802332, 0.0000000000, 0.2046776861, -0.0000000000, -0.8745621443, -0.7890532613, 0.1922945678, 0.7604858875, 0.4577214122, -0.7626608610, -0.1306879371, -0.0066784718, 0.0855485573, 0.8855598569, 0.0000000000, -0.3509178162, 1.0199426413, 0.0000000000, -0.0000000000, -0.0000000000, -0.0000000000, -0.2537747920, 0.7535219193, -0.6571720839, 0.0000000000, -0.0246422067, -0.6219668984, -0.5603236556, -0.0000000000, -0.0000000000, 0.0000000000, 0.1129541695, -0.0000000000, 0.0006243813, 0.0000000000, 0.0000000000, -0.0000000000, 0.9195409417, -0.0000000000, -0.0000000000, -0.0000000000, 0.1878653765, 0.0000000000, 0.0000000000, 0.7989856601, -0.0000000000, -0.0000000000, 1.4401422739, 0.0000000000, 0.0000000000, -0.0000000000, 0.0000000000, -0.0000000000, 0.0000000000, -0.4228682220, -0.0145870140, -0.0087351575, -0.9331188798, -0.0000000000, -0.5097560287, -0.0000000000, -0.0000000000, 0.0000000000, -0.0000000000, -0.6528195143, -0.0679725334, -0.7883430123, -0.0000000000, 0.0000000000, -0.0000000000, -0.0000000000, -0.0113213602, 0.3240323961, 0.1321269572, -0.8966403604, 0.0000000000, -0.2392152101, -0.7399291992, -1.1807518005, 0.1617399901, 0.1002850756, 0.0000000000, 0.0000000000, 0.0000000000, 0.0000000000, -0.0000000000, 0.0000000000, -0.5657259226, -0.8031195998, -0.1149160936, 1.3338761330, 0.0000000000, -0.0045349407, 0.4721570611, -0.0000000000, -0.0000000000, -0.0000000000, 0.0000000000, 0.0000000000, 0.0000000000, 0.2524607480, -0.0000000000, -0.5684409738, 0.9859672189, -0.0000000000, 0.0000000000, 0.0000000000, -0.2696800232, 0.0000000000, -0.0000000000, -0.6227715611, -0.0000000000, 0.0000000000, 0.0000000000, -0.0000000000, 0.4402098358, -0.0000000000, 0.0000000000, -0.0000000000, -0.0304869916, -0.0081440387, -0.0000000000, -0.0000000000, 0.1699370295, 0.2883168459, -0.4262682199, -0.0000000000, 0.0000000000, -0.4367029965, -0.5270344615, -0.0000000000, 0.5897706747, 1.0704370737, -0.0000000000, 0.0307584405, 0.0373451374, 0.0000000000, -0.0000000000, 0.2212593108, -1.2290074825, -0.2942164540, 0.7018989921, -0.7989374399, 0.3769565225, -0.0000000000, -0.0000000000, -0.6759853363, -0.0000000000, -0.0000000000, -0.0000000000, -0.2938908339, -0.0000000000, 1.1862567663, 0.0000000000, -0.3246418238, -0.1846938133, -0.0000000000, -0.1800988466, 0.0000000000, -0.0000000000, -0.4436526895, -0.6869847775, 0.0777121633, -0.0000000000, 0.3804990053, 1.2822780609, -0.0534823723, 0.0120235058, 0.0043952889, 1.4188873768, 0.5528978705, -0.0000000000, 0.4866004884, 0.0000000000, -0.0000000000, -0.0008831982, 0.0000000000, 1.0746837854, -0.0374232084, 0.0978909060, -0.0000000000, 0.0000000000, 0.7433012128, -0.0000000000, 0.0793877393, 0.4709321856, -0.0000000000, -0.0000000000, 0.6611780524, 1.4336146116, 0.4727326334, 0.0000000000, -0.0000000000, -0.0000000000, 0.1867657155, 0.0000000000, -0.0463402830, 0.0000000000, 0.0000000000, 0.0000000000, 0.0000000000, 0.9403528571, 0.0000000000, -0.0291543230, -0.0000000000, -0.0000000000, -0.0190332253, -0.7853326797, 0.4683356881, 0.0000000000, -0.0000000000, -0.0000000000, -0.0000000000, -0.0000000000, -0.0000000000, 0.0000000000, -0.0000000000, -0.4652566016, -0.2405631393, 0.0000000000, 0.0000000000, -0.0054540276, -0.0000000000, 0.3927380443, 0.4152924418, 0.0000000000, -0.1225834265, -0.6112346053, -0.1452256292, -0.0000000000, -1.2389770746, -0.4523687661, -0.0000000000, -0.0000000000, -0.0000000000, 0.5127189755, 0.0000000000, -0.5904768109, -0.0000000000, -0.0000000000, 0.0000000000, -0.5522537827, 0.2984107733, -0.7336450815, 0.3765710890, -0.0288431533, 1.3962415457, -0.0785577372, 0.0000000000, 0.2200989425, -0.0000000000, -0.0867254734, 0.7676255703, -0.7491045594, 0.2638100684, -0.3954561651, 0.2513075769, 0.0752705783, 0.1103585660, -0.0000000000, -0.2518146336, -0.4519818425, -0.5446391702, 0.2986553907, -0.0000000000, -0.3419600427, 0.0000000000, 0.0000000000, 0.0000000000, 0.2665900588, -0.0000000000, 0.0000000000, 0.5636689067, 0.2041179538, 0.0484270230, 0.0000000000, -0.1860036403, 0.8915632367, 0.0000000000, -0.0000000000, 0.0646201372, -0.0984513834, -0.0000000000, 0.1200228631, 0.6335352063, -0.0000000000, -0.0000000000, -0.4123731852, -0.2533553541, -0.0000000000, 0.0000000000, -0.6091509461, 0.5843045712, 0.1127583683, 0.0000000000, -0.3763467371, 0.9994378686, 0.0085510369, -0.7581934929, 0.0000000000, 0.0000000000, -0.7682928443, 0.0000000000, -0.0000000000, -0.2967041433, 0.9382140636, -0.0000000000, -0.3854481578, 0.0000000000, -0.0000000000, -0.0000000000, 0.0000000000, -0.5440599918, -0.0000000000, 0.0000000000, -0.0508177057, -0.0798048228, 0.0000000000, -0.0000000000, -0.6240158081, 0.4500047266, 0.0000000000, -0.1648224145, -0.0000000000, -0.0000000000, 0.1394496113, 0.2728734910, 0.0765263736, -0.3049727082, -0.0000000000, -0.4688004553, -0.2220967263, -0.6471749544, 0.0000000000, 0.0000000000, 0.4463641942, 0.0000000000, 0.0000000000, 0.0000000000, 0.0000000000, -0.0000000000, 0.8652480245, 0.0000000000, 0.1568244249, -0.0000000000, -0.0000000000, 0.0000000000, -0.5269692540, 0.6733132005, -0.0000000000, -0.0000000000, 0.0000000000, 0.0000000000, 0.0000000000, 0.5724542737, 0.0000000000, -0.0000000000, 0.0406297445, -0.8119189739, -0.0000000000, -0.0000000000, 0.4930108786, -0.0000000000, -0.0000000000, -0.1838295311, -0.3435424566, -0.1197072938, -0.0054760836, 0.2060300708, 0.0000000000, -0.8020403385, 0.3951956928, -0.0000000000, -0.0128775313, -0.0000000000, -0.1590027809, -0.5512155294, 0.8223319054, 0.1180121675, -0.0000000000, -0.0000000000, -0.0000000000, -0.6431981325, 0.0000000000, -1.2256693840, -0.3693190813, -0.5147781968, -0.5599272251, -0.0005418046, -0.4014052153, -0.0000000000, 0.0000000000, 0.0000000000, -0.0000000000, -0.0000000000, -0.0000000000, 0.0000000000, 0.0000000000, 0.7893819809, -0.0000000000, 0.6729927659, 0.0000000000, -0.0027036530, -0.0000000000, 0.0000000000, -0.0000000000, 0.0000000000, -0.5004912615, -0.0000000000, 0.0000000000, 0.4457799792, 0.0000000000, -0.0000000000, -0.0100333765, -0.3903195858, 0.0000000000, -1.2945883274, 0.0000000000, 1.2188814878, -0.5252739787, -0.2665543854, -0.0000000000, 0.0000000000, -1.0131187439, 0.0000000000, -0.0000000000, -0.0131803174, 0.0000000000, -0.4807483256, -0.0000000000, 0.0000000000, 0.2744901776, 0.1782920510, 0.0000000000, -0.3011467457, -1.1335742474, 0.7606321573, -0.0000000000, 0.0000000000, 0.0000000000, 0.0000000000, -0.0000000000, 0.0000000000, 0.0000000000, 0.0000000000, -0.3820343614, -0.0000000000, -0.0000000000, -0.7198675871, 0.5158950090, 0.0000000000, 0.4060694873, 0.4291223884, 0.0772543028, -0.0000000000, 0.0000000000, -0.0000000000, -0.0000000000, -0.3456753790, 0.0000000000, -0.0000000000, -0.0000000000, -0.0831016973, 0.0000000000, 0.0135201896, -0.0000000000, 0.3719830811, -0.0000000000, 0.0000000000, 0.0518508144, -0.5558949113, -0.3508874476, -0.0000000000, -0.0000000000, -0.3496368229, 0.1697883904, -0.3024059534, -0.0000000000, 0.0000000000, 0.8370581269, 0.0000000000, -0.3658509552, -0.0000000000, -0.0000000000, 0.0000000000, 0.6458755732, -0.0000000000, -0.0000000000, -0.0644766241, 0.3105349839, 0.5652725697, -0.3920442164, -0.0000000000, -0.0147579731, -0.0000000000, -0.0000000000, 0.0000000000, 0.0000000000, 0.0109746708, -0.0000000000, -0.0560534298, 0.0630831495, -0.7937186956, -0.4255912304, 0.0000000000, -0.0270476304, 0.2706397772, 0.0000000000, -0.1884144098, -0.0000000000, 0.0000000000, 0.9843326211, 0.0000000000, -0.0000000000, -0.6190817952, -0.0000000000, 0.0000000000, -0.0000000000, 0.0000000000, 0.2983781993, -0.1346749216, -0.7629180551, 0.0000000000, 0.8989032507, -0.2108473778, 0.6819387078, -0.0000000000, 0.0000000000, -0.5175641179, 1.2469322681, -0.5330538750, -0.5330660343, -0.0000000000, 0.0000000000, -0.5590597987, -0.0000000000, 0.7982574701, -0.0000000000, 0.5889960527, 0.1105024889, 0.4102644026, -0.0000000000, -0.4915355146, -0.6396652460, -0.0000000000, 0.0428607240, 0.0000000000, 0.0000000000, -0.0000000000, 0.0000000000, 0.0053044483, -0.0000000000, -0.5591145158, -0.0000000000, -0.2885177433, -0.4178011715, -0.0000000000, 0.0000000000, 0.0000000000, 0.0000000000, 0.7372562885, -0.0000000000, -0.1334891915, 0.3984884620, 0.0000000000, -0.0000000000, 0.0000000000, -0.4548172355, 0.0000000000, -0.5456786752, 0.0347628929, -0.0000000000, -0.6453281641, 0.4325378835, 0.0000000000, 0.3639890254, 0.0000000000, 0.5699205995, 0.0000000000, -0.0053016292, 0.0000000000, -0.0000000000, -0.0141404057, -0.0000000000, 0.7892736197, -0.1496843696, -0.0000000000, 0.2390438467, 0.0000000000, 0.0600691177, 0.0000000000, -0.7193467617, -0.0000000000, 0.0000000000, 0.4712821841, -0.0000000000, -0.4367958903, 0.0000000000, -0.0000000000, 0.0000000000, -0.0141919358, -0.2091226727, 0.0000000000, 0.7799446583, -0.3130507171, 0.0000000000, 0.0000000000, -0.0000000000, 0.0000000000, -0.0000000000, -0.0000000000, -0.8266607523, -0.0000000000, -0.0000000000, -0.6213884950, -0.7481738925, -0.4496134222, 0.1871831119, -0.0000000000, 0.0000000000, -0.0000384091, -0.2640708387, -0.0000000000, 0.0000000000, -0.0000000000, -0.0000000000, -0.0000000000, 0.0000000000, 0.0422757864, -0.0000000000, -0.0000000000, -0.7949311137, 0.0000000000, 0.0042926800, 0.3505375087, -0.1722795069, -0.0294304956, -0.0000000000, 0.0000000000, -0.0000000000, 0.8325763345, 0.0000000000, 0.7516705990, -0.0000000000, -0.0000000000, 0.2111237943, -0.0000000000, -0.0000000000, 0.1427592039, -0.0000000000, 0.3753488064, 0.5034722686, -0.0000000000, -0.0973514691, -0.0000000000, 0.0000000000, -0.6067632437, -0.6639926434, 0.1997429579, -0.5671156049, 0.0654112548, -1.1449151039, -0.0000000000, -0.0000000000, -0.0124077313, 0.4929238558, -0.0185041297, -0.0000000000, -0.0386815444, -0.8090794683, 0.0000000000, 0.0000000000, -0.0000000000, -0.0000000000, -0.0079866452, -0.1350942105, 0.0000000000, -0.0000000000, -0.0000000000, -0.1185732782, -0.0748583376, -0.1580957770, 1.1307115555, -0.9003947973, -0.0000000000, 0.0000000000, -0.2264045328, 0.0000000000, 0.0000000000, 0.0000000000, -0.9273391366, -0.0152417971, 0.0000000000, 0.0172375757, 0.0000000000, -0.5426943898, -1.0581142902, -0.0000000000, 0.0000000000, -0.0061712079, -0.0000000000, -0.1669006646, -0.0785355642, -0.2292697877, 0.0080786338, 0.2482222617, -0.0000000000, -0.0000000000, -0.8179669976, 1.1467428207, 0.1157917008, -0.4164080918, 0.5824730992, 0.3565752506, -0.0000000000, -0.0000000000, 0.0000000000, 0.0000000000, -0.0275068991, -0.0000000000, 0.0052365819, -0.1173072383, -0.4226468503, -0.0000000000, -1.5333824158, 0.0000000000, -0.0000000000, -0.3936477602, 0.0000000000, 0.0000000000, -0.0000000000, 0.0000000000, -0.0000000000, -1.1121619940, -1.2512375116, -0.0000000000, -0.0000000000, -0.6034314632, 0.2283285558, -0.0000000000, 0.6216480732, -0.2195641249, -0.2656859159, -0.0000000000, 0.0000000000, -0.0000000000, 0.3277954161, 0.0000000000, -0.3879573643, -0.0000000000, 0.0008894549, -0.0000000000, 0.0000000000, 0.0000000000, 0.1164832935, 0.1527284980, 0.0000000000, -1.0246655941, 0.0000000000, -0.0000000000, 0.0000000000, 1.1367584467, -0.8185221553, -0.0000000000, 0.0000000000, 0.8633008003, -0.0851578638, -0.8245906830, 0.0000000000, 0.0000000000, -0.0388647057, -0.0000000000, -0.3200145960, 0.0000000000, -0.0000000000, -0.0000000000, 0.9326509237, 0.0000000000, -0.0000000000, 0.0000000000, 0.0438229665, 0.0000000000, -0.7852516770, 0.0000000000, 0.3610090315, 0.2471553534, -0.2515111268, -0.7587454915, 0.0000000000, 0.0000000000, 0.0000000000, -0.0035024749, -1.0922906399, 0.0000000000, -0.0000000000, 0.0000000000, 0.0007831494, 0.2282545865, -0.0467313156, -0.0000000000, 0.0000000000, -0.0000000000, -0.0000000000, 0.0000000000, 0.0000000000, -0.0000000000, -0.5027095079, -0.0000000000, 0.0000000000, -1.4060791731, 0.7566429973, -0.0000000000, -0.2295621783, 0.0000000000, 0.0515412278, 0.0000000000, 0.0000000000, 0.0000000000, -0.0000000000, 0.7937303185, 0.1090090498, 0.0000000000, 0.7504358888, 0.4327180684, -0.0000000000, -0.0000000000, 0.1932360530, 0.8857735395, -0.0000000000, 0.0000000000, 1.5506193638, 0.7769039869, -0.0000000000, 0.0226640310, -0.0000000000, 0.0000000000, 0.3585481942, 0.0000000000, -0.0070414958, 0.0000000000, 0.0000000000, 0.0000000000, -0.4183662236, -0.1973089129, 0.0000000000, 0.1209741682, -1.2617555857, -0.0000000000, -0.4383989275, -0.0000000000, 0.4141324162, 0.5477139354, 0.1004936770, -0.0000000000, 0.0000000000, 0.0000000000, -0.0000000000, -0.0000000000, 0.0496427380, 0.1339409798, 0.2162841260, 0.0000000000, 0.4593769610, 0.3907647431, 0.0000000000, 0.0000000000, 0.1370191127, 0.0000000000, 0.0000000000, 0.0000000000, 0.0000000000, -0.4722733796, -0.0000000000, -0.1862516254, -0.3807660043, -0.0000000000, -0.1029895172, 0.0000000000, 0.0000000000, 1.2269198895, -0.0000000000, 0.0000000000, -0.0000000000, 0.0000000000, 0.6880086064, 0.0000000000, 0.0000000000, 0.0304447096, -0.0000000000, -0.4741690457, 0.0000000000, 0.3435389400, -0.0000000000, -0.3886502385, -0.0000000000, 0.0000000000, -0.0000000000, -0.6109493971, 0.0000000000, 0.2879751325, 0.0115526756, 0.3151816428, -0.2468254268, 0.0000000000, -0.0000000000, -0.4393972456, -0.4825952053, 0.0000000000, -0.0000000000, 0.9667250514, 0.7753639221, 0.0000000000, -0.0000000000, -0.0000000000, 0.2492245436, 0.1871371120, 0.0000000000, 0.5901473165, 0.3893958032, 0.0000000000, 0.0000000000, 0.7680639029, -0.0000000000, 0.2269966453, -0.0000000000, 0.3800253272, -0.0000000000, 0.0351442993, 1.0145591497, -0.3594219089, 0.0038361114, -0.0221397839, 0.0000000000, 0.0000000000, -0.0000000000, -0.6561303139, -0.0000000000, -0.0000000000, -1.3013696671, -0.0000000000, 0.2940491140, 0.0000000000, 0.0000000000, 0.4776029289, 0.0000000000, 0.7043718100, -0.4952995181, 0.2125250846, 0.0000000000, 0.0749209821, 0.0000000000, -0.4123387635, 0.0000000000, -0.0000000000, -0.0000000000, 0.5283074975, -0.0000000000, -0.0000000000, 0.0099027175, 0.0000000000, -0.0000000000, 0.0000000000, 0.0000000000, -0.0000000000, 0.0000000000, -0.0000000000, 0.0000000000, -0.0000000000, 0.0000000000, -0.0000540400, -0.6568713188, 0.7390902638, 0.0000000000, 0.0000000000, 0.0000000000, 0.3064740300, -0.0000000000, -0.1087319627, -0.7840774655, -0.0664012730, 1.2257667780, -0.1366246492, 0.2682003379, -0.2232825607, 0.0529901683, 0.0000000000, -0.1038690209, 0.0000000000, -0.6240630746, 0.0000000000, -0.0000000000, -0.0000000000, 0.0047284090, -0.7055767179, -0.0000000000, 0.0000000000, -0.1606159359, 0.0000000000, 0.6538821459, 0.0000000000, -0.0000000000, -0.9865548015, -0.6095712185, 0.0000000000, 0.0000000000, -0.1642654091, -0.0000000000, -0.0000000000, -0.3090488911, -0.0000000000, 0.0000000000, -0.6276472807, 0.0000000000, 0.0073448657, -0.3649543822, 0.5389513373, 0.1647811979, -0.6868719459, 0.3602620065, 0.0000000000, 0.0000000000, -0.0030736746, -0.0000000000, -0.0000000000, -0.6517434716, 0.0904707760, 0.0000000000, -0.0000000000, -0.0000000000, -0.0000000000, -0.0000000000, 0.0000000000, -0.0000000000, -0.6811919212, 0.6727562547, -0.0000000000, 0.0000000000, -0.0000000000, 0.0000000000, -0.0000000000, 0.0000000000, 0.0919727162, -0.2844368815, -0.0000000000, -0.7155713439, 0.0000000000, 0.1257102191, -0.0000000000, -0.2519948184, 0.0585025512, 0.0000000000, -0.8435389996, -0.8074799180, -0.0000000000, 0.0000000000, -0.1342356652, 0.0000000000, -0.4115330577, 0.4397535026, 0.0000000000, 0.2844224274, 0.6290986538, -0.0000000000, 0.0000000000, -0.0000000000, -0.1399487853, -0.8134480715, 0.0033269622, 0.0000000000, -0.0000000000, 0.0000000000, 0.0000000000, -0.4765199423, -0.0000000000, -0.0394517630, -0.0000000000, 1.0504784584, -0.0109259589, -0.2641273737, 0.0000000000, 0.4328421652, -0.0000000000, 0.7692412138, 0.7077152729, -0.6956114769, -0.7799088359, -0.0000000000, -0.3150240183, -0.0000000000, -0.0000000000, 0.0000000000, -0.2885915041, -0.7095276117, 0.8259282708, 0.4750008583, -0.7536585927, 0.0000000000, -0.5393595695, -0.0000000000, -0.0529344752, -0.8529203534, -0.0000000000, 0.8776239157, -0.4443732202, 0.0000000000, 0.2716545165, -0.2709714174, 0.0000000000, 0.0000000000, -0.4902137518, -0.0000000000, -0.0000000000, 0.1062741503, 0.1129957065, -0.0000000000, 0.2396695316, -0.0726569965, 0.0000000000, -0.7305505276, -0.0000000000, 0.0000000000, -0.0000000000, 0.0000000000, -0.0047190390, -0.0000000000, 0.9312886596, 0.0000000000, 0.0716679171, -0.0000000000, 0.0000000000, -0.6937882900, -0.0000000000, 0.1902461201, -0.0294616893, 0.0000000000, 0.0000000000, 0.0300814882, -0.0000000000, 0.2369495779, 0.0000000000, 0.0000000000, -0.0000000000, 0.0031679231, -0.0000000000, -0.7636466026, -0.8392474055, 0.0943522602, -0.4275228679, -0.2052401155, -0.0000000000, 0.0000000000, 0.6361225247, 0.0000000000, 0.0541971549, -0.0700452104, -0.0112071419, -0.0050256504, 0.0000000000, -0.0000000000, -0.0000000000, -0.0000000000, 0.0000000000, 0.0000000000, 0.0000000000, -0.0000000000, -0.0000000000, -0.0000000000, -0.4096204042, -0.0000000000, -0.0052058902, -0.2056261748, 1.0426889658, -0.0000000000, -0.3224726617, -0.0000000000, 0.4331285357, -0.0798280165, -0.0000000000, 0.8567841649, 0.0000000000, 0.0000000000, -1.0255272388, 0.0000000000, -0.1986435801, 0.7112036943, 0.7293560505, -0.0000000000, 0.0000000000, -0.8483700752, 1.0363790989, -0.1550938636, 0.0000000000, 0.5959549546, 0.3952004611, -0.0000000000, -0.1267866343, 0.0000000000, -0.0000000000, 0.5648797750, -0.5364052057, 0.1279033422, -0.5043654442, 1.1547498703, -0.0000000000, 0.0000000000, -0.0000000000, -0.4012735486, 0.0000000000, -0.4107126296, -0.0000000000, -0.0687919706, 0.0000000000, -0.0000000000, -0.7014123201, -0.0880545378, 0.0000000000, 0.0000000000, -0.2390603274, 0.0000000000, -0.0000000000, -0.0000000000, -0.4597213566, -0.0880844817, 0.0000000000, -0.0000000000, 0.0000000000, 0.0000000000, 0.0000000000, 0.5174410343, 0.5843858719, -0.0000000000, 0.0000000000, 0.0000000000, -0.0000000000, 0.0000000000, -0.6582823396, 0.0000000000, -0.0000000000, -0.3669964075, 0.7834414244, 0.6845279932, 0.7654169202, -0.0702923462, 0.3198152483, -0.0054508266, -0.0000000000, 0.0000000000, 0.0000000000, -0.1737007499, 0.3979083598, 0.0000000000, -0.0394743681, -0.0000000000, -0.0000000000, 0.0000000000, 0.0000000000, -0.4995542169, -0.0000000000, -0.0000000000, -0.5481200218, 0.0000000000, -0.2203696966, -0.0000000000, -0.0000000000, -0.9397938251, 0.7746470571, -0.1103661805, -0.0000000000, -0.4220596552, 0.7751938105, -0.0000000000, -0.0000000000, 0.0000000000, -0.0000000000, -0.0053331414, -0.7779267430, 0.0000000000, -0.0548401251, -0.4986913204, -0.0000000000, -0.3165061176, -0.8797993064, -0.3651642203, 0.0023574873, 0.5088238120, -0.5825165510, -0.0000000000, -0.0100254770, -0.0093913702, -0.0055438345, 0.0881946534, -0.0000000000, -0.1072980091, -0.3768999279, -0.0000000000, -0.0000000000, 0.0000000000, 0.4111967385, -0.2118278295, -0.0465995595, -0.5881167054, -1.1413807869, -0.6314769983, 0.0000000000, -0.1560522169, -0.0000000000, 0.0453523099, 0.0095122382, -0.0000000000, -0.0000000000, -0.0000000000, -0.0000000000, -0.0067398059, 0.0000000000, 0.0000000000, -0.3769032359, -0.0000000000, -0.0000000000, 0.0000000000, -0.8755854368, -0.8774107099, 0.1925025731, -0.0000000000, -0.0776497349, 0.6086840630, 0.0375178121, 0.0000000000, -0.0000000000, -0.2918271422, 0.0000000000, -0.0000000000, 0.6795694232, 0.0000000000, -0.0000000000, 0.0000000000, -0.0000000000, 0.0000000000, -0.0000000000, -0.4626978338, 0.1210095882, -0.4580132365, -0.0000000000, -1.1086745262, -0.0000000000, -1.2177745104, -0.0000000000, 0.4081618488, -0.8425833583, -0.0000000000, -0.2399570197, -0.3300794661, -0.0000000000, -0.0000000000, -0.0000000000, -0.0000000000, -0.3228151798, -0.0000000000, 0.0000000000, 0.0000000000, 0.5602687597, -0.0000000000, -0.6844502687, -0.3162295520, -0.0000000000, 0.0809252858, 0.0000000000, -1.1270903349, -0.0000000000, 0.4729787409, -0.0000000000, -0.3682403862, 0.0000000000, -1.0533916950, 0.0000000000, 0.0000000000, 0.0000000000, -0.0000000000, 0.0000000000, 0.0000000000, -0.6238036156, -0.6975119710, 1.0366247892, -0.0000000000, 0.0000000000, 0.0000000000, 0.4369646609, 0.7356024981, -0.3841081262, -0.2850549221, -0.0000000000, -0.3481006026, 0.8999465108, -0.0000000000, 0.2757237852, -0.0000000000, -0.0506312922, 0.0000000000, -0.0000000000, -0.0000000000, -0.5042029619, 0.0000000000, -0.0000000000, 0.0370478928, -0.0000000000, -0.0000000000, 0.0000000000, -0.5655483007, -0.7664996386, -1.0207680464, 0.0635613799, -0.5490837097, 0.4391102791, -0.3579922020, -0.0000000000, -0.0000000000, 0.6598655581, 0.0000000000, -0.0000000000, 0.0000000000, -0.1126738340, 0.5189660192, 0.0000000000, 0.1096834987, -0.6308463216, -0.5551690459, -0.0699702352, -0.7847544551, 0.0000000000, 0.0000000000, 0.3987904787, -1.0378286839, -0.4635274708, -0.0000000000, -0.0026364976, -0.0000000000, -0.6935390830, -0.0000000000, -0.0000000000, -0.0000000000, 0.2732519507, 0.3207535744, -0.4533475637, -0.7406509519, 0.0000000000, 0.0000000000, 0.1364946663, 0.3710153997, -0.0000000000, 0.4194131494, -0.0000000000, 0.0018657069, -0.1061074436, 0.0000000000, -0.0000000000, -0.3451443911, -0.0000000000, 0.2705413401, 0.0000000000, -0.4591841698, 0.7631510496, -0.0000000000, -0.0000000000, 0.0000000000, 0.3070597053, -0.4332173169, -0.0000000000, -1.0606577396, 0.0000000000, -0.0000000000, -0.1200197265, 0.0000000000, 0.0000000000, 0.0000000000, 0.0656482950, 0.0000000000, -0.0607175343, -0.4872868359, -0.0190378930, 1.1189920902, -0.0000000000, -0.0000000000, -0.4777541161, 0.0000000000, 0.0000000000, -0.8302164674, -0.6633911133, -0.0000000000, -0.0000000000, -0.0000000000, 0.0000000000, -0.0980404168, 0.0000000000, -0.3278811872, -0.0000000000, 0.0000000000, 0.4156788588, 0.4526048005, 0.0079853218, 0.0398605168, -0.0541395731, 0.4253218770, 0.0000000000, -0.0000000000, 0.0000000000, -0.0000000000, -0.0000000000, 0.0000000000, -0.0012929406, -0.0517131574, -0.0000000000, 0.0000000000, 0.0000000000, 0.0983188152, -0.0000000000, 0.2977527082, 0.0000000000, 0.0000000000, -1.4944730997, 0.0000000000, 0.0000000000, 0.0000000000, -0.0181785766, 0.9637524486, 0.4023570120, -0.0009186559, 0.5072444081, -0.4239614308, 0.3551026881, 0.0000000000, -0.0000000000, -0.0000000000, 0.0000000000, 0.3402294219, 0.0042830468, -0.4122262597, -0.0350001305, -0.0000000000, 0.0000000000, -0.6439089775, -0.0000000000, 0.0825668722, 0.0000000000, 0.0000000000, 0.7624636292, 0.4343797565, -0.0000000000, 0.2402220666, -0.2769778669, 0.0835490152, 0.0000000000, 0.1433312446, -0.2044991106, 0.0000000000, 0.0000000000, -0.1386200637, -0.3340988159, 0.0000000000, 0.0000000000, 0.0000000000, -0.0000000000, 0.0000000000, -0.0119110197, -0.0100254575, -0.0545303077, -0.0261008982, -0.0000000000, -0.0000000000, -0.0000000000, -0.0000000000, -0.0000000000, 0.3367165029, -1.0074853897, -0.0000000000, 0.0000000000, -0.0000000000, -0.7196987867, 0.9246760607, -0.0000000000, -0.0000000000, -0.0361926220, -0.3534788489, -0.0000000000, 1.0137701035, -0.0000000000, 0.4400322139, -0.0000000000, -0.1465149522, -0.0000000000, 0.0000000000, -0.0000000000, 0.3548081517, 0.0000000000, 0.4380596876, -0.8487915397, -0.0000000000, -0.0000000000, 0.0000000000, -1.0285081863, 0.0000000000, -0.4345599711, 0.0000000000, 0.1555366814, 0.0000000000, 0.0000000000, 0.0000000000, -0.0000000000, -0.0000000000, -0.0000000000, 0.4487052858, 0.3749218583, 0.0000000000, 0.0000000000, 0.0000000000, 0.0000000000, -0.6636705995, -0.0000000000, 0.0000000000, 0.0000000000, 0.4401345849, -0.0000000000, -0.0000000000, 0.4497460723, 0.5873772502, -0.1241890639, -0.0000000000, -0.4057320356, -0.0000000000, 0.3439002335, -0.0000000000, 0.0000000000, -0.0000000000, -0.0000000000, -0.0000000000, -0.0000000000, -0.0000000000, 0.2821443081, 0.0000000000, -0.0000000000, 0.0000000000, -0.0000000000, 0.0000000000, -0.5025239587, 0.5162050724, 0.1760891080, -0.0000000000, 0.0861385539, 0.0000000000, -0.1440539360, -0.0000000000, 0.0000000000, -0.0000000000, 0.2813399732, 0.1247979328, -0.0000000000, 0.5788409114, 0.4673500955, -0.0000000000, 0.0228639301, -0.0273879189, 0.0000000000, -0.0000000000, 0.0000000000, -0.4007010758, -0.0000000000, 0.0000000000, 0.1923655570, 0.7704232931, 0.9399719238, 0.1086573079, -0.0042799381, 0.2552329302, -0.0000000000, 0.9735600948, 1.2046740055, -0.0000000000, 0.0000000000, 0.2541347444, -0.0000000000, 0.0000000000, 0.9927985668, -0.1494139433, -0.0000000000, 0.4137097895, 0.0000000000, -0.0000000000, 0.1696128100, 0.6761715412, 0.0087031601, 0.0000000000, -1.0089328289, -0.0000000000, -0.0247131102, 0.4619237781, 0.0000000000, 0.2934291363, 0.0000000000, 0.0105333636, -0.0482744388};
#endif

#endif
