//Numpy array shape [64, 10]
//Min -0.760302722454
//Max 0.617667198181
//Number of zeros 0

#ifndef W26_H_
#define W26_H_

#ifndef __SYNTHESIS__
output_dense_weight_t w26[640];
#else
output_dense_weight_t w26[640] = {-0.0967389122, -0.2465316057, -0.0106893685, -0.1933977604, 0.2191715688, 0.4076292515, 0.2901340723, 0.2140849233, -0.4927078784, -0.4130212069, 0.0548213534, -0.0256123040, -0.2747914493, 0.1314239949, 0.2641023397, -0.1211847737, 0.0030960478, 0.6176671982, -0.3607629836, -0.4169553518, -0.1827949435, 0.1928765625, -0.0948695391, -0.2567988038, -0.3197987676, -0.6224215031, 0.0443078503, 0.2773957551, 0.2017123252, -0.4091924131, -0.7147873044, 0.3617691100, 0.3984017074, 0.2074171156, 0.2982691824, -0.3506974280, -0.2998066247, 0.1310085058, 0.0066974321, -0.2929060459, 0.4716724455, 0.0867487416, -0.3655709028, -0.1155278459, 0.2287061661, -0.2125019580, -0.1082580835, 0.2391326874, 0.0431717969, -0.6200240254, -0.2551223338, -0.0081372000, 0.3460715115, 0.3757031560, -0.3546220064, -0.2966442108, -0.4302627146, 0.3206567168, -0.6684612632, -0.2074992508, -0.0468608402, 0.3216126263, -0.0111157931, -0.2315414101, 0.2040022910, -0.3251910806, -0.4310135841, -0.3909475505, 0.3053479791, 0.2165882587, -0.1769142598, -0.0925093219, 0.4027196467, 0.2732701004, 0.0671097487, -0.0912586078, 0.0195167884, -0.3951721489, -0.5250054598, -0.2927549183, -0.3427411914, 0.4066666067, 0.1532336175, 0.3242549896, -0.3033199310, -0.0568293408, -0.2513684630, -0.5466029048, -0.0533407666, -0.3413989842, 0.4131954908, -0.2521927655, 0.0058776028, -0.2956348062, -0.0305718668, -0.2713532150, -0.3997486532, -0.1311566532, 0.3886587322, 0.5837925076, 0.5627603531, -0.3766748011, 0.1210311949, -0.1373414397, 0.1040069386, -0.2671336532, -0.4883341789, 0.4454590976, -0.2099806666, 0.2644248307, -0.1530907750, -0.0437048152, 0.0171324313, 0.1137551069, -0.2643717825, 0.2868303657, 0.2008982897, -0.3048677146, 0.1594903469, -0.5016114116, -0.2128638625, -0.2954318821, -0.4318691790, -0.3100607693, 0.0138100134, 0.1967811435, 0.2118568718, -0.4197719097, 0.2652796209, -0.2760441303, -0.2699149251, -0.0356750377, -0.2634259164, -0.1118421704, 0.4375507534, -0.0722473785, 0.4261136353, 0.0374794230, -0.7146835923, -0.3712562919, -0.4439033270, -0.3428598344, -0.0214135498, 0.1371465176, -0.0291758981, 0.4545919895, -0.2241496742, 0.4603927135, -0.2111485004, 0.4218794703, -0.1099705249, 0.2365863621, -0.0630351529, -0.4123191535, 0.0247343145, 0.0686333850, -0.2003546953, 0.3996558189, -0.1683113277, -0.1172544211, -0.1616037935, -0.3145541251, 0.4530716240, 0.3359849453, -0.0664667562, -0.3095839620, -0.1645363122, -0.3917546272, 0.4639921188, -0.1814910322, 0.3324402273, 0.2042769194, 0.2108203620, 0.1761193573, -0.3206380904, 0.4691852629, -0.3350134492, 0.2333199829, -0.3437922597, -0.2432213277, -0.1068044677, -0.3650438786, -0.1271879077, -0.2530977726, 0.4132342041, -0.3765290082, 0.2209751904, -0.2896232903, 0.1042978540, -0.0208420232, -0.1572908759, 0.3637104928, 0.2065585405, -0.3078511953, 0.0406548940, -0.0694269612, -0.3544366062, 0.2493726015, -0.3121166527, -0.1961572617, 0.1706184149, 0.4198109210, -0.0094033116, -0.2145218253, -0.2427805066, -0.4246336520, 0.5291432738, -0.1264915019, 0.4616228342, -0.0103467815, -0.2872490287, -0.1906853467, 0.3357322216, -0.0887310058, 0.4459763765, -0.4418553412, -0.3394857049, 0.4617442191, 0.1206597313, 0.0070917173, -0.1477417052, -0.1630982310, -0.2229755372, -0.3278310597, 0.3357276320, 0.1781224608, 0.3397939503, 0.1497915536, -0.3412590325, 0.3540541828, -0.4070166349, -0.0626203343, 0.5629736781, -0.0332288668, 0.0659077689, -0.0111267241, -0.4698053896, 0.0159694403, 0.3292724788, -0.1481698006, -0.2121077478, 0.1258393079, 0.2150528580, -0.3126503527, 0.4760055542, -0.2222189456, -0.3030760884, -0.3057325184, 0.0274398811, -0.1253423244, 0.3554653227, 0.5024787784, -0.2277047485, -0.2471124381, 0.0945536643, -0.5139135122, 0.3409377038, -0.1022142991, -0.1580743641, -0.3634617329, 0.4338082373, 0.1978571564, 0.3689761162, -0.2058460563, -0.2107107639, -0.2344124764, -0.3221529424, -0.7603027225, -0.0531380735, 0.1103929654, 0.1827887297, 0.3352530301, 0.1204176173, 0.2511909008, -0.2408195883, -0.4632301927, -0.2506385148, 0.4651120007, -0.2354634404, -0.5096439719, -0.3974234760, 0.3045478463, -0.4742571712, 0.4569107890, -0.0194689073, 0.0618485026, -0.4496353567, -0.0817414150, -0.2668369710, 0.5477026105, 0.1043476090, -0.1563074291, -0.0911021754, 0.5958452225, -0.2927932143, 0.3152534068, 0.3933855295, 0.2760353088, -0.1815707833, -0.2008228004, -0.3262428045, -0.2352615744, -0.4111815095, 0.2926363349, -0.2296008766, -0.5924542546, -0.3074869812, -0.0610307269, 0.5711601973, 0.2303633690, 0.3316360414, 0.3918356895, -0.2589910924, -0.1056094021, -0.3458769023, 0.2220994532, -0.4804036021, -0.5811797976, -0.1694948971, 0.5081534982, 0.4033067822, -0.0617212020, -0.1384503245, -0.2543299198, -0.4372069836, -0.5786899924, 0.2393193245, -0.2086287886, -0.1342458129, 0.6115555763, -0.3994542658, -0.1129153967, 0.0091118785, 0.0406343117, -0.0095669748, 0.4631083012, 0.4302409291, 0.2919560969, 0.2991327643, -0.0516234562, -0.2534527481, -0.1998039335, -0.3490474820, 0.3371148109, -0.4361534119, 0.2303115577, 0.2943094671, -0.6837081313, -0.2313075215, 0.2701078355, -0.2692904472, 0.4135983288, -0.2802642882, -0.0925787911, 0.2988060415, 0.3432044685, 0.0011509687, -0.7041798830, 0.1053388715, -0.2899702787, -0.4213465750, 0.5274620652, -0.0687088594, -0.2358111292, -0.5522535443, -0.1489714980, 0.3193650544, 0.3995058835, -0.0401744731, -0.2430997789, 0.3116312325, 0.3047352135, 0.4175668061, -0.1527185589, -0.0296794493, 0.1223210618, -0.1702380031, 0.1933078915, -0.4273089170, -0.3349273205, -0.5448861718, -0.1318436116, 0.2637175620, -0.0899865180, -0.0572886169, 0.2154906094, 0.1305032521, 0.4825757444, -0.5220602751, 0.1832290739, -0.2416605502, -0.1837718040, 0.2757284045, 0.0848473236, -0.1330885440, -0.1110124663, 0.4921588600, 0.0036433281, 0.3542920351, -0.5583495498, 0.0945303664, -0.1113955900, 0.2974804044, 0.3628996015, -0.3834179938, -0.2573143840, 0.1219656467, -0.1390029341, -0.2773137391, 0.2239390612, 0.0147577794, 0.4008614719, -0.5111075640, 0.3313476443, 0.2295458317, -0.2609945536, -0.1659486145, 0.3420824111, -0.1659326553, 0.3803209960, -0.2974074483, -0.4532421529, 0.4965759218, -0.4855663478, -0.4896372259, 0.1842198521, 0.0878958628, 0.2368581444, 0.2151194215, 0.1856944263, -0.3590072095, 0.0292535964, -0.1399246901, -0.2613338828, 0.0562846623, 0.3290186226, -0.6341113448, 0.1901194602, 0.3058744669, 0.1819541305, -0.2504414022, 0.3614359200, 0.1119177192, -0.2765842676, 0.5037356019, 0.1562109739, -0.3734822571, -0.3992070258, -0.4418048561, -0.0221145637, 0.4895671606, 0.0650587454, 0.1190156266, -0.1110824123, -0.0596023686, -0.0571733303, 0.5000182390, -0.4687328637, 0.2438376099, 0.1471116096, 0.2469268739, -0.2740575969, 0.3763442934, -0.1453495473, -0.0333277248, -0.3131054044, -0.1804161817, 0.4357421696, 0.0764193982, 0.3544176221, 0.1708443910, -0.3414643705, 0.3084909022, 0.4683569968, 0.1773884594, 0.2913742065, -0.4271351397, -0.1249216050, -0.6094591618, 0.1781865805, -0.2332030088, -0.2046162486, -0.4168527424, -0.2682996690, 0.0619662479, 0.3167752326, 0.2085864842, -0.2573266327, 0.5993239880, 0.1949032694, 0.1353538185, -0.1970082670, -0.5105902553, 0.3882500827, 0.3411164880, -0.0971931592, -0.1202750579, -0.2048054188, -0.0452462435, 0.3478463590, 0.4338718951, -0.4321590662, 0.0926968083, -0.4254067540, 0.3842354417, -0.0017227709, 0.1946871281, -0.5558699369, 0.2578860819, 0.1886007339, -0.0717762336, 0.1229829416, 0.1504513323, -0.2510270774, 0.3409457505, -0.2371225804, 0.1818262488, -0.4447694123, 0.2462782860, 0.5147404671, 0.3433373570, 0.0731610283, -0.3811608851, -0.2315275520, -0.4966059923, 0.2031906694, -0.1139781252, 0.4592137039, 0.2540040910, 0.0673903450, -0.3787218034, 0.1812748015, -0.2613247931, 0.5140824318, -0.0486799106, 0.4479522407, -0.2966996729, -0.3581554294, 0.2748205960, -0.2133304328, 0.0682538003, 0.4829252660, -0.4010318518, -0.1930378973, 0.1950899512, -0.2643512785, 0.3555538952, -0.0126823699, -0.2465944439, -0.4043489397, 0.3351022303, 0.3664423823, -0.1927849799, 0.1877529025, -0.4193685949, 0.4089159071, -0.0154559854, -0.1023492739, -0.4045551717, 0.1659595519, -0.1416560262, -0.2289701402, -0.1542870104, 0.5601039529, 0.2114845961, -0.1632666737, -0.0592821576, 0.1269717962, 0.2156836987, -0.3576483130, -0.4275631011, -0.3431137502, -0.0235857032, -0.1204461977, -0.1514828205, 0.5972259045, 0.1550705284, -0.5348491073, -0.3199771345, -0.0509860292, -0.2892146111, 0.2088355869, 0.0240447689, 0.3808539808, -0.3535907865, -0.2205057591, 0.1953488886, -0.1556787640, 0.2651852369, -0.3607951105, -0.5369609594, -0.0157781187, -0.3581356406, 0.1461854577, 0.3585949540, 0.3443212509, 0.2481210530, -0.0442597084, 0.2651052773, -0.3001904488, 0.1799801141, -0.3940749168, 0.0598265789, -0.1997942179, -0.1071083471, 0.2269249707, 0.3876645267, -0.2491919845, 0.1628646851, -0.5868007541, 0.4330722988, 0.2269361466, -0.3399601877, -0.0129628750, 0.2737433612, -0.2618562877, 0.0106664700, 0.0451526344, -0.2737132311, -0.6449410915, -0.1395048499, -0.2014885247, 0.3203015924, -0.3438134789, 0.1886048466, -0.1908358335, -0.0862436965, 0.2667507529, 0.1570497900, -0.2142479718, -0.0632679164, -0.1116755307, -0.0503194779, 0.4105401039, -0.0213993452, 0.3588225543, -0.2748908401, -0.2356616855, 0.3986577988, -0.3016267419};
#endif

#endif
