//Numpy array shape [32, 52]
//Min -0.767947494984
//Max 0.363182991743
//Number of zeros 1248

#ifndef W11_H_
#define W11_H_

#ifndef __SYNTHESIS__
model_default_t w11[1664];
#else
model_default_t w11[1664] = {-0.0000000000, -0.4553019702, -0.2903065085, -0.2799173594, -0.0000000000, 0.0000000000, -0.0000000000, 0.0000000000, -0.0000000000, 0.0000000000, 0.2238939553, 0.0000000000, -0.2872096598, -0.0000000000, 0.0000000000, 0.0000000000, 0.0000000000, -0.0000000000, 0.0000000000, 0.0000000000, -0.0000000000, -0.0000000000, -0.0000000000, 0.3218854964, 0.0000000000, 0.0000000000, -0.0000000000, -0.0000000000, 0.0000000000, 0.0000000000, -0.0000000000, -0.0000000000, -0.0000000000, -0.0000000000, -0.3383447528, -0.4695104957, -0.0000000000, 0.0000000000, 0.0000000000, 0.0000000000, -0.0000000000, -0.0000000000, -0.0000000000, 0.3201037347, -0.0000000000, 0.0000000000, -0.2299518436, -0.2981675267, 0.0000000000, 0.0000000000, -0.0000000000, 0.0000000000, -0.0000000000, 0.0000000000, -0.0000000000, -0.0000000000, 0.0000000000, 0.0000000000, -0.0000000000, -0.0000000000, -0.0000000000, 0.0000000000, -0.0000000000, -0.0000000000, -0.0000000000, -0.0000000000, 0.0000000000, 0.0000000000, 0.0000000000, -0.2667324841, 0.0000000000, -0.0000000000, 0.0000000000, -0.2786450982, 0.0000000000, -0.2670830786, 0.0000000000, 0.0000000000, 0.0000000000, -0.0000000000, 0.2454323173, -0.0000000000, -0.0000000000, -0.2479317188, 0.0000000000, -0.0000000000, 0.0000000000, 0.0000000000, 0.0000000000, 0.0000000000, 0.0000000000, 0.0000000000, 0.0000000000, 0.0000000000, 0.0000000000, 0.0000000000, 0.0000000000, 0.0000000000, -0.0000000000, 0.0000000000, 0.0000000000, -0.2319691181, -0.2316169590, 0.0000000000, -0.0000000000, -0.2781107724, -0.0000000000, 0.0000000000, -0.0000000000, 0.0000000000, -0.0000000000, 0.0000000000, -0.0000000000, 0.0000000000, -0.0000000000, 0.0000000000, 0.0000000000, -0.0000000000, -0.2935202718, -0.0000000000, 0.0000000000, -0.0000000000, -0.2421380430, -0.0000000000, -0.0000000000, -0.0000000000, -0.0000000000, -0.0000000000, 0.0000000000, 0.0000000000, -0.0000000000, -0.0000000000, 0.2251695991, 0.0000000000, -0.3241342902, -0.0000000000, -0.0000000000, 0.0000000000, -0.0000000000, -0.0000000000, -0.4127398729, -0.3855959773, 0.0000000000, -0.2778818607, 0.0000000000, -0.2495035678, 0.2806958556, 0.0000000000, 0.0000000000, 0.0000000000, -0.0000000000, -0.0000000000, 0.0000000000, 0.0000000000, -0.0000000000, -0.3569079936, 0.0000000000, -0.0000000000, 0.0000000000, -0.2524589598, 0.2369275093, 0.0000000000, -0.2368190736, 0.0000000000, 0.0000000000, 0.2526175976, 0.2400973141, 0.0000000000, 0.0000000000, -0.0000000000, -0.0000000000, -0.0000000000, -0.0000000000, 0.0000000000, -0.0000000000, 0.0000000000, 0.0000000000, -0.0000000000, -0.0000000000, -0.0000000000, 0.0000000000, -0.0000000000, 0.0000000000, -0.0000000000, 0.0000000000, 0.2398297787, -0.0000000000, 0.0000000000, 0.0000000000, 0.0000000000, 0.0000000000, 0.0000000000, -0.2309389710, 0.0000000000, -0.0000000000, 0.0000000000, 0.0000000000, -0.0000000000, 0.0000000000, -0.0000000000, 0.0000000000, -0.0000000000, 0.0000000000, 0.0000000000, 0.0000000000, 0.0000000000, 0.2382182926, 0.0000000000, -0.0000000000, 0.2590546608, 0.0000000000, 0.0000000000, 0.2734718919, 0.0000000000, -0.0000000000, 0.0000000000, -0.0000000000, 0.0000000000, -0.3384672701, -0.0000000000, -0.3689714968, 0.0000000000, 0.0000000000, -0.3430236280, -0.0000000000, -0.0000000000, 0.0000000000, -0.0000000000, -0.2966924310, -0.0000000000, -0.0000000000, -0.3429656923, 0.0000000000, 0.0000000000, -0.0000000000, -0.0000000000, -0.4511219859, 0.0000000000, -0.0000000000, -0.0000000000, -0.0000000000, 0.0000000000, -0.0000000000, -0.2890068889, -0.0000000000, 0.0000000000, 0.0000000000, 0.0000000000, -0.0000000000, -0.0000000000, 0.2083303183, 0.0000000000, 0.0000000000, 0.0000000000, -0.0000000000, -0.0000000000, 0.0000000000, 0.0000000000, -0.0000000000, 0.0000000000, -0.0000000000, -0.0000000000, 0.3478347659, 0.0000000000, -0.4360400438, 0.0000000000, -0.0000000000, -0.3960724771, -0.5997399688, 0.0000000000, -0.0000000000, -0.0000000000, 0.0000000000, -0.3522752821, 0.0000000000, -0.0000000000, 0.0000000000, -0.4085283875, 0.0000000000, -0.0000000000, -0.0000000000, -0.0000000000, -0.0000000000, -0.0000000000, 0.0000000000, 0.0000000000, -0.3428498507, -0.0000000000, -0.0000000000, 0.0000000000, 0.3397825658, -0.0000000000, -0.2541442513, -0.2723413408, -0.0000000000, -0.0000000000, -0.2989770174, -0.0000000000, -0.3223302066, 0.0000000000, 0.0000000000, -0.0000000000, -0.0000000000, 0.0000000000, 0.0000000000, 0.0000000000, -0.0000000000, -0.0000000000, 0.0000000000, -0.0000000000, -0.0000000000, 0.2555886209, 0.0000000000, 0.0000000000, 0.0000000000, 0.0000000000, 0.0000000000, 0.2451488823, 0.0000000000, -0.0000000000, 0.0000000000, 0.0000000000, 0.0000000000, 0.0000000000, 0.0000000000, 0.0000000000, 0.2495313138, -0.0000000000, 0.0000000000, 0.0000000000, -0.0000000000, 0.0000000000, 0.0000000000, -0.0000000000, -0.0000000000, 0.0000000000, 0.0000000000, -0.0000000000, -0.0000000000, 0.0000000000, -0.0000000000, -0.0000000000, -0.0000000000, -0.0000000000, -0.0000000000, -0.0000000000, -0.0000000000, 0.2521381080, 0.0000000000, 0.0000000000, 0.0000000000, -0.2329311520, -0.0000000000, 0.0000000000, -0.0000000000, 0.0000000000, 0.0000000000, 0.0000000000, -0.0000000000, 0.0000000000, -0.0000000000, 0.0000000000, 0.0000000000, 0.0000000000, -0.2635393143, -0.2300365865, 0.0000000000, 0.0000000000, 0.2594256401, 0.0000000000, -0.0000000000, -0.2868954539, 0.1857474297, 0.0000000000, 0.2355668098, 0.0000000000, 0.0000000000, -0.2889100909, -0.3505837023, 0.0000000000, 0.0000000000, -0.0000000000, 0.0000000000, -0.2258333266, -0.4502208233, -0.0000000000, -0.0000000000, -0.0000000000, 0.2524794638, -0.2878638804, 0.0000000000, -0.0000000000, 0.0000000000, 0.0000000000, -0.0000000000, -0.2871716022, -0.0000000000, 0.0000000000, -0.0000000000, -0.0000000000, 0.2363044769, 0.2732967436, 0.0000000000, 0.0000000000, -0.0000000000, -0.2572343946, -0.0000000000, -0.3669397831, 0.0000000000, -0.3448588550, 0.0000000000, -0.3169833422, -0.2171490192, -0.0000000000, -0.3274913728, -0.5232135057, -0.6605698466, 0.0000000000, -0.2675554454, 0.0000000000, -0.0000000000, 0.0000000000, -0.0000000000, 0.0000000000, -0.0000000000, 0.0000000000, 0.3125399053, 0.0000000000, -0.4412460923, -0.3804729879, -0.5720738173, 0.0000000000, -0.3021169305, -0.2608487308, 0.0000000000, 0.0000000000, -0.3462881148, -0.4329715967, -0.4085768163, -0.2990615666, 0.0000000000, 0.0000000000, -0.0000000000, -0.0000000000, -0.5079954863, -0.2730739117, -0.0000000000, 0.0000000000, -0.0000000000, 0.0000000000, -0.0000000000, 0.0000000000, -0.0000000000, 0.0000000000, 0.0000000000, 0.0000000000, -0.3462058306, -0.0000000000, -0.0000000000, -0.2900075614, 0.0000000000, 0.0000000000, 0.0000000000, -0.0000000000, -0.5462678075, 0.0000000000, -0.0000000000, 0.0000000000, 0.2719272971, 0.0000000000, -0.0000000000, 0.0000000000, 0.3514956236, 0.0000000000, -0.4952827394, 0.0000000000, -0.0000000000, 0.0000000000, -0.0000000000, 0.2633528709, 0.0000000000, -0.0000000000, 0.0000000000, -0.0000000000, 0.0000000000, -0.0000000000, -0.2541109324, 0.0000000000, 0.0000000000, -0.2488456517, -0.0000000000, 0.2710148692, 0.0000000000, 0.0000000000, -0.0000000000, 0.2210287899, 0.0000000000, 0.3210641742, -0.0000000000, -0.0000000000, -0.0000000000, 0.0000000000, -0.3261649907, -0.0000000000, -0.0000000000, 0.0000000000, 0.0000000000, 0.0000000000, -0.3178609312, -0.2298257053, -0.0000000000, 0.0000000000, -0.4112958312, 0.0000000000, 0.0000000000, -0.3147912621, 0.0000000000, 0.0000000000, -0.0000000000, 0.0000000000, 0.2795481980, 0.0000000000, 0.2369817942, 0.0000000000, -0.0000000000, -0.1878109574, -0.0000000000, 0.0000000000, -0.7679474950, -0.2295702845, -0.6778067946, -0.2532579005, 0.0000000000, -0.0000000000, 0.0000000000, -0.2865597010, -0.2574691474, -0.2475150526, -0.4829051197, 0.0000000000, -0.0000000000, -0.0000000000, -0.0000000000, -0.4376720488, 0.0000000000, 0.0000000000, 0.2437775880, 0.2018175572, -0.0000000000, 0.0000000000, -0.0000000000, -0.0000000000, -0.0000000000, -0.3805226088, -0.0000000000, -0.0000000000, -0.0000000000, -0.7672058344, -0.0000000000, 0.0000000000, 0.0000000000, -0.0000000000, -0.5080248117, 0.0000000000, 0.0000000000, 0.0000000000, -0.0000000000, -0.0000000000, 0.0000000000, 0.0000000000, -0.2885007262, 0.0000000000, -0.3465928733, -0.0000000000, -0.4818584323, 0.0000000000, -0.0000000000, -0.2218237817, -0.0000000000, -0.0000000000, -0.0000000000, 0.0000000000, -0.0000000000, 0.0000000000, -0.5232799053, -0.4454620183, -0.4243954718, -0.5843609571, 0.2493596375, 0.2758147418, 0.0000000000, 0.0000000000, -0.3721820116, -0.0000000000, -0.0000000000, 0.2059420943, -0.2475209981, 0.0000000000, -0.3169822991, -0.0000000000, 0.0000000000, 0.0000000000, -0.4328516722, -0.2583225369, -0.0000000000, 0.0000000000, -0.0000000000, 0.2515350282, 0.2883365750, 0.2993260324, 0.0000000000, 0.0000000000, -0.2581380606, -0.0000000000, 0.1746165156, 0.0000000000, 0.0000000000, 0.0000000000, -0.0000000000, 0.2087726444, 0.0000000000, 0.0000000000, 0.2186451107, -0.0000000000, -0.0000000000, 0.0000000000, -0.0000000000, -0.3168414831, -0.5050503612, 0.0000000000, -0.3828492165, -0.3432123661, 0.1645720750, 0.0000000000, -0.0000000000, 0.0000000000, -0.6321013570, -0.4114213884, 0.0000000000, -0.4682838619, -0.5170152187, -0.0000000000, 0.0000000000, -0.2706839740, -0.0000000000, -0.0000000000, -0.0000000000, 0.2328628749, 0.0000000000, 0.0000000000, 0.3264791965, -0.0000000000, 0.0000000000, -0.3430843055, -0.0000000000, -0.2689068019, -0.0000000000, 0.3414874375, -0.0000000000, -0.0000000000, -0.0000000000, 0.0000000000, 0.0000000000, 0.0000000000, -0.0000000000, -0.0000000000, -0.0000000000, 0.0000000000, 0.0000000000, 0.0000000000, -0.0000000000, -0.3187445104, 0.0000000000, -0.0000000000, -0.0000000000, 0.0000000000, -0.0000000000, 0.2752001286, 0.0000000000, 0.0000000000, -0.5384266973, 0.0000000000, -0.6133103371, -0.3943177462, -0.0000000000, -0.5758721828, -0.4784931540, 0.0000000000, -0.2185363322, -0.3209997714, -0.0000000000, 0.0000000000, -0.3725025058, -0.2303999960, 0.0000000000, -0.4733603597, -0.0000000000, -0.0000000000, -0.4496583343, -0.2882395387, 0.0000000000, -0.2497697175, -0.0000000000, -0.0000000000, 0.2450644225, 0.0000000000, -0.0000000000, -0.0000000000, -0.0000000000, 0.0000000000, -0.0000000000, 0.2965093553, -0.0000000000, -0.5284933448, -0.5645018816, 0.0000000000, 0.0000000000, -0.0000000000, -0.0000000000, 0.0000000000, 0.0000000000, 0.0000000000, -0.2523840666, -0.0000000000, 0.0000000000, 0.0000000000, -0.0000000000, -0.0000000000, -0.0000000000, 0.0000000000, -0.0000000000, 0.0000000000, -0.0000000000, -0.3881397545, 0.0000000000, -0.5800180435, -0.0000000000, 0.0000000000, -0.4293986559, 0.0000000000, 0.0000000000, -0.0000000000, -0.2948446572, -0.2356988341, 0.2941627502, -0.0000000000, -0.3297124803, -0.3670127988, 0.2648381889, -0.0000000000, -0.0000000000, -0.3461535573, 0.0000000000, 0.0000000000, -0.0000000000, -0.0000000000, -0.3362006545, 0.0000000000, -0.0000000000, -0.0000000000, 0.0000000000, 0.0000000000, -0.0000000000, -0.0000000000, -0.0000000000, -0.2769744992, -0.2531460822, 0.0000000000, 0.0000000000, -0.0000000000, -0.0000000000, 0.0000000000, -0.2183957696, 0.0000000000, -0.0000000000, -0.0000000000, 0.0000000000, 0.2921105027, -0.0000000000, 0.0000000000, 0.0000000000, -0.0000000000, 0.0000000000, 0.2561678290, -0.0000000000, 0.0000000000, 0.0000000000, -0.0000000000, 0.0000000000, -0.0000000000, -0.0000000000, 0.2539762557, -0.2455069423, 0.0000000000, 0.2553072572, 0.0000000000, 0.0000000000, -0.0000000000, -0.0000000000, -0.0000000000, 0.0000000000, -0.0000000000, -0.0000000000, 0.0000000000, 0.0000000000, -0.0000000000, 0.2398129851, 0.2366209328, -0.0000000000, 0.0000000000, -0.0000000000, 0.0000000000, -0.0000000000, -0.0000000000, -0.0000000000, 0.0000000000, 0.0000000000, -0.0000000000, 0.0000000000, 0.0000000000, 0.0000000000, 0.0000000000, -0.0000000000, 0.0000000000, -0.0000000000, 0.0000000000, 0.0000000000, -0.0000000000, 0.0000000000, 0.0000000000, 0.0000000000, 0.0000000000, -0.0000000000, -0.0000000000, 0.0000000000, -0.2856087387, 0.0000000000, -0.2569269538, -0.0000000000, 0.0000000000, -0.0000000000, -0.4828941524, -0.3849665523, -0.0000000000, 0.0000000000, -0.0000000000, 0.0000000000, 0.3555973768, -0.0000000000, -0.3081102073, 0.0000000000, -0.0000000000, -0.2459736317, 0.3379631937, 0.0000000000, 0.0000000000, 0.0000000000, 0.0000000000, 0.0000000000, -0.0000000000, -0.0000000000, 0.0000000000, -0.0000000000, -0.0000000000, -0.0000000000, -0.4212722182, 0.0000000000, -0.4408974946, -0.0000000000, -0.4995188415, -0.6684203148, -0.0000000000, -0.2700977623, -0.4918258190, -0.3183450997, 0.0000000000, 0.0000000000, -0.3271459937, -0.0000000000, -0.0000000000, 0.0000000000, -0.4336581528, -0.0000000000, -0.4865731597, -0.0000000000, 0.0000000000, 0.0000000000, -0.2126624137, -0.0000000000, 0.0000000000, -0.4580137134, -0.3383489847, -0.0000000000, -0.3417522013, 0.0000000000, -0.7197995782, 0.0000000000, -0.0000000000, -0.0000000000, -0.0000000000, -0.3650513589, -0.0000000000, 0.0000000000, 0.0000000000, 0.0000000000, 0.0000000000, 0.0000000000, 0.2250667512, 0.3308201134, 0.0000000000, -0.0000000000, -0.0000000000, -0.0000000000, 0.0000000000, -0.0000000000, -0.0000000000, -0.0000000000, 0.0000000000, -0.0000000000, -0.3526991010, -0.4461460412, 0.0000000000, -0.7148618698, 0.0000000000, 0.0000000000, -0.0000000000, -0.0000000000, -0.0000000000, 0.0000000000, -0.3170441091, -0.0000000000, -0.0000000000, 0.0000000000, 0.2674792111, -0.0000000000, 0.0000000000, -0.2698485553, -0.0000000000, -0.3608431518, 0.0000000000, -0.0000000000, 0.0000000000, 0.2524461746, 0.0000000000, -0.0000000000, 0.0000000000, -0.0000000000, -0.0000000000, 0.0000000000, -0.0000000000, 0.2366469949, 0.0000000000, -0.3587973714, -0.0000000000, -0.2374142110, -0.3329420388, -0.0000000000, -0.0000000000, -0.0000000000, -0.0000000000, 0.0000000000, -0.0000000000, -0.0000000000, -0.4188622534, 0.0000000000, -0.5050730705, -0.0000000000, -0.0000000000, -0.0000000000, -0.2685844600, -0.0000000000, -0.0000000000, -0.0000000000, 0.0000000000, 0.0000000000, -0.0000000000, -0.0000000000, -0.0000000000, -0.0000000000, 0.0000000000, -0.4869697094, -0.4375752509, -0.3431494236, -0.0000000000, 0.0000000000, -0.2821868658, -0.4520830810, 0.0000000000, -0.0000000000, -0.3596578240, 0.0000000000, 0.0000000000, -0.0000000000, -0.3788225353, -0.0000000000, -0.0000000000, -0.0000000000, -0.2694508731, -0.0000000000, -0.2376783341, 0.0000000000, 0.2436675280, 0.0000000000, 0.3136374652, 0.3511713147, -0.0000000000, 0.2930568159, 0.0000000000, -0.0000000000, -0.0000000000, -0.0000000000, 0.2396053672, 0.0000000000, 0.0000000000, -0.3183276951, -0.3797049522, -0.0000000000, 0.0000000000, -0.0000000000, -0.0000000000, 0.0000000000, 0.0000000000, 0.2819620967, -0.0000000000, -0.3845779002, -0.0000000000, 0.0000000000, -0.0000000000, 0.0000000000, -0.0000000000, -0.0000000000, 0.0000000000, -0.2410983890, 0.0000000000, -0.0000000000, -0.0000000000, 0.0000000000, 0.0000000000, -0.2582768798, 0.0000000000, -0.0000000000, 0.0000000000, -0.0000000000, -0.2645666301, -0.0000000000, 0.0000000000, -0.0000000000, -0.0000000000, -0.0000000000, 0.0000000000, -0.0000000000, -0.3136392832, 0.0000000000, -0.0000000000, 0.0000000000, 0.2892489135, 0.0000000000, -0.0000000000, 0.0000000000, 0.3091349006, 0.2572080493, -0.0000000000, 0.2764199376, -0.0000000000, -0.0000000000, 0.0000000000, -0.0000000000, -0.0000000000, -0.3850945830, 0.0000000000, -0.0000000000, 0.0000000000, -0.3851493001, 0.2827899456, -0.0000000000, -0.0000000000, 0.2207384855, 0.2701013684, 0.0000000000, -0.0000000000, -0.3918589652, -0.2424713820, -0.3164319396, -0.2554312646, 0.0000000000, 0.0000000000, 0.0000000000, -0.0000000000, 0.0000000000, -0.4616034031, -0.0000000000, -0.6477099061, -0.0000000000, 0.0000000000, -0.0000000000, 0.0000000000, -0.6280886531, -0.2839936912, -0.0000000000, -0.4441442192, -0.0000000000, 0.0000000000, -0.0000000000, 0.0000000000, -0.3538249731, -0.2530269325, -0.6671691537, -0.3319087327, 0.0000000000, -0.0000000000, -0.3957353532, 0.0000000000, -0.3126774728, -0.4497179091, -0.0000000000, -0.2708684504, -0.2974320352, 0.0000000000, -0.3206337392, -0.3671169877, -0.0000000000, 0.0000000000, -0.0000000000, -0.0000000000, -0.0000000000, 0.0000000000, -0.0000000000, -0.0000000000, -0.0000000000, 0.0000000000, 0.0000000000, 0.0000000000, 0.0000000000, -0.0000000000, -0.0000000000, 0.0000000000, 0.3441520035, 0.0000000000, 0.3320849240, 0.1888493299, 0.0000000000, 0.0000000000, 0.2259682119, 0.2211511880, -0.3143386543, -0.0000000000, -0.0000000000, 0.0000000000, -0.0000000000, 0.0000000000, -0.0000000000, 0.0000000000, 0.2864249051, 0.0000000000, -0.0000000000, -0.0000000000, 0.0000000000, -0.4852955043, 0.0000000000, -0.0000000000, 0.0000000000, -0.0000000000, 0.0000000000, 0.0000000000, -0.0000000000, -0.0000000000, 0.2968620360, -0.0000000000, 0.0000000000, 0.0000000000, -0.0000000000, -0.0000000000, -0.0000000000, -0.3911395669, -0.0000000000, -0.0000000000, -0.0000000000, -0.5208118558, -0.3263587952, -0.0000000000, -0.0000000000, -0.3475546241, -0.4217156172, -0.0000000000, -0.0000000000, 0.2752928734, -0.0000000000, 0.0000000000, 0.0000000000, 0.0000000000, -0.0000000000, -0.0000000000, 0.0000000000, -0.3211435378, -0.0000000000, -0.2900364101, -0.0000000000, 0.0000000000, 0.0000000000, 0.0000000000, -0.3081174493, -0.2845378518, -0.0000000000, 0.0000000000, -0.0000000000, 0.0000000000, -0.0000000000, -0.0000000000, 0.0000000000, -0.0000000000, 0.0000000000, 0.0000000000, 0.0000000000, 0.2691802382, 0.0000000000, 0.0000000000, -0.0000000000, 0.2811752260, -0.0000000000, -0.0000000000, -0.0000000000, 0.0000000000, -0.0000000000, -0.0000000000, 0.0000000000, 0.0000000000, 0.2094180286, 0.0000000000, 0.0000000000, 0.0000000000, -0.0000000000, -0.0000000000, -0.0000000000, -0.0000000000, 0.0000000000, -0.4882455170, -0.0000000000, -0.4373241365, -0.0000000000, -0.0000000000, 0.0000000000, -0.3405912220, -0.4047707617, -0.0000000000, -0.2580253780, -0.3558910489, -0.0000000000, -0.0000000000, 0.0000000000, 0.0000000000, 0.0000000000, -0.0000000000, 0.0000000000, -0.0000000000, -0.0000000000, 0.0000000000, 0.0000000000, -0.0000000000, -0.0000000000, -0.0000000000, 0.0000000000, 0.0000000000, 0.2382528037, 0.0000000000, -0.0000000000, -0.0000000000, 0.0000000000, 0.0000000000, 0.0000000000, -0.0000000000, 0.0000000000, 0.0000000000, -0.0000000000, -0.0000000000, -0.0000000000, -0.0000000000, -0.0000000000, 0.0000000000, -0.0000000000, -0.0000000000, -0.0000000000, -0.0000000000, -0.0000000000, 0.0000000000, 0.0000000000, 0.0000000000, 0.0000000000, -0.0000000000, -0.0000000000, -0.0000000000, -0.0000000000, -0.0000000000, -0.0000000000, -0.0000000000, -0.0000000000, 0.0000000000, 0.0000000000, -0.0000000000, 0.0000000000, -0.2469783574, -0.2319106311, 0.0000000000, 0.0000000000, 0.0000000000, 0.0000000000, 0.0000000000, 0.0000000000, -0.2625365257, -0.0000000000, -0.2603020370, -0.0000000000, -0.0000000000, -0.0000000000, 0.0000000000, 0.0000000000, -0.0000000000, 0.0000000000, -0.0000000000, 0.0000000000, -0.2389601022, 0.0000000000, -0.2301250100, -0.0000000000, 0.0000000000, 0.0000000000, 0.0000000000, -0.0000000000, 0.0000000000, -0.0000000000, 0.0000000000, 0.0000000000, 0.0000000000, 0.2460546941, 0.0000000000, 0.0000000000, 0.0000000000, -0.0000000000, -0.0000000000, -0.0000000000, 0.0000000000, 0.0000000000, -0.2704752982, 0.0000000000, 0.0000000000, -0.0000000000, 0.0000000000, 0.0000000000, 0.0000000000, 0.0000000000, 0.0000000000, -0.0000000000, 0.0000000000, 0.0000000000, -0.0000000000, -0.0000000000, -0.0000000000, 0.0000000000, 0.0000000000, 0.0000000000, 0.0000000000, 0.0000000000, 0.0000000000, 0.0000000000, 0.0000000000, 0.0000000000, -0.0000000000, 0.0000000000, 0.0000000000, 0.0000000000, -0.0000000000, -0.0000000000, 0.0000000000, -0.0000000000, -0.0000000000, -0.0000000000, 0.0000000000, -0.2317774147, -0.0000000000, 0.0000000000, 0.0000000000, -0.0000000000, -0.0000000000, -0.0000000000, 0.0000000000, 0.0000000000, -0.0000000000, 0.0000000000, -0.0000000000, -0.0000000000, 0.0000000000, 0.0000000000, 0.0000000000, 0.0000000000, 0.2415491045, 0.0000000000, -0.0000000000, 0.0000000000, -0.2691690326, -0.2714375556, -0.2594797313, -0.0000000000, 0.0000000000, -0.0000000000, -0.0000000000, 0.0000000000, 0.0000000000, 0.0000000000, -0.0000000000, -0.0000000000, 0.0000000000, -0.2679440379, 0.0000000000, 0.0000000000, 0.2442322969, -0.0000000000, -0.0000000000, 0.0000000000, 0.0000000000, 0.0000000000, 0.2448559552, -0.0000000000, 0.0000000000, 0.0000000000, -0.0000000000, -0.0000000000, -0.0000000000, 0.0000000000, 0.0000000000, -0.0000000000, -0.0000000000, -0.2765880823, -0.0000000000, -0.2525950074, 0.0000000000, -0.0000000000, -0.0000000000, 0.0000000000, 0.0000000000, -0.0000000000, 0.0000000000, 0.0000000000, 0.0000000000, 0.0000000000, 0.2395003140, 0.0000000000, 0.0000000000, -0.0000000000, 0.2391414344, 0.2358856350, 0.0000000000, -0.2358502299, -0.0000000000, -0.0000000000, 0.0000000000, -0.0000000000, -0.0000000000, -0.0000000000, -0.0000000000, 0.0000000000, 0.0000000000, -0.0000000000, 0.0000000000, 0.1991882026, 0.2708544433, -0.0000000000, 0.0000000000, -0.0000000000, 0.2527378798, 0.3271973729, 0.2819706798, 0.2889277339, -0.0000000000, 0.0000000000, -0.0000000000, 0.0000000000, 0.0000000000, -0.0000000000, -0.0000000000, -0.0000000000, -0.0000000000, -0.4173361957, -0.0000000000, -0.0000000000, -0.0000000000, -0.0000000000, 0.0000000000, -0.0000000000, -0.2994077504, -0.3860725760, -0.0000000000, -0.3051874042, -0.6059019566, -0.3695372939, 0.0000000000, 0.2471219599, -0.2871959805, -0.0000000000, -0.0000000000, -0.0000000000, -0.2502850890, 0.0000000000, 0.0000000000, 0.0000000000, -0.0000000000, -0.3020110130, 0.0000000000, -0.0000000000, 0.0000000000, 0.0000000000, -0.0000000000, 0.0000000000, 0.0000000000, -0.0000000000, -0.0000000000, -0.0000000000, -0.0000000000, 0.0000000000, 0.0000000000, -0.0000000000, 0.0000000000, -0.0000000000, 0.0000000000, -0.2563020587, 0.0000000000, 0.0000000000, 0.0000000000, 0.0000000000, -0.0000000000, 0.0000000000, 0.0000000000, -0.0000000000, -0.0000000000, -0.0000000000, -0.0000000000, 0.0000000000, -0.0000000000, 0.0000000000, 0.0000000000, 0.0000000000, 0.0000000000, -0.0000000000, 0.0000000000, 0.0000000000, -0.0000000000, 0.0000000000, 0.0000000000, -0.2587846220, 0.0000000000, -0.0000000000, 0.0000000000, -0.0000000000, -0.0000000000, 0.0000000000, 0.0000000000, 0.0000000000, -0.0000000000, -0.0000000000, 0.0000000000, 0.0000000000, 0.0000000000, -0.3850081265, -0.2942071855, -0.5813603401, 0.0000000000, -0.0000000000, 0.0000000000, -0.0000000000, -0.0000000000, -0.0000000000, 0.0000000000, -0.0000000000, 0.0000000000, -0.2795340419, -0.0000000000, -0.3471537828, -0.5375908017, -0.3551577926, -0.0000000000, 0.0000000000, 0.0000000000, -0.0000000000, -0.0000000000, -0.0000000000, -0.0000000000, 0.0000000000, -0.3307941854, -0.0000000000, -0.0000000000, 0.2450612932, 0.0000000000, -0.0000000000, 0.3281828761, -0.0000000000, -0.2570244372, -0.3253876865, -0.2622411549, -0.0000000000, -0.2969757318, 0.3631829917, 0.0000000000, 0.3388125896, -0.0000000000, -0.0000000000, 0.0000000000, 0.0000000000, 0.0000000000, -0.0000000000, 0.1892343163, 0.0000000000, 0.0000000000, 0.2190222293, 0.0000000000, -0.0000000000, -0.2898302078, -0.0000000000, 0.0000000000, -0.0000000000, -0.5625270605, -0.5176368356, -0.0000000000, -0.0000000000, -0.2187180519, -0.4468226731, -0.4904233515, 0.0000000000, -0.0000000000, -0.2549850643, -0.0000000000, 0.0000000000, 0.0000000000, -0.2359980047, 0.0000000000, 0.2721289694, 0.2424860448, -0.3046434522, -0.0000000000, 0.0000000000, 0.2818544209, -0.0000000000, 0.2463050932, 0.0000000000, -0.4120554626, -0.0000000000, -0.0000000000, 0.3551241457, 0.0000000000, -0.0000000000, -0.0000000000, 0.2920202613, 0.0000000000, -0.4876317382, -0.2592416108, -0.2294581085, -0.0000000000, -0.0000000000, -0.0000000000, 0.0000000000, -0.2047169954, -0.2896389365, -0.3011660874, 0.0000000000, 0.0000000000, 0.2691328824, 0.2628576458};
#endif

#endif
