//Numpy array shape [32, 52]
//Min -0.883042812347
//Max 0.465253114700
//Number of zeros 1248

#ifndef W11_H_
#define W11_H_

#ifndef __SYNTHESIS__
model_default_t w11[1664];
#else
model_default_t w11[1664] = {-0.0000000000, -0.0000000000, 0.0000000000, -0.2766286731, -0.4061468542, -0.0000000000, 0.0000000000, -0.2215158194, -0.0000000000, 0.3447381556, -0.1960098892, -0.3623618782, -0.5958194733, 0.0000000000, 0.0000000000, -0.6625587940, -0.0000000000, 0.0000000000, -0.2874670923, -0.0000000000, -0.0000000000, -0.5292704701, -0.0000000000, -0.4140878916, 0.0000000000, -0.2079177201, -0.0000000000, -0.7452260852, -0.0000000000, -0.2654274702, -0.0000000000, -0.2612338066, -0.3837302327, -0.0000000000, 0.3416635990, -0.0000000000, -0.5267266035, 0.0000000000, -0.0000000000, -0.0000000000, 0.0000000000, 0.2860071361, 0.3489097655, 0.0000000000, 0.0000000000, 0.0000000000, 0.0000000000, -0.0000000000, 0.0000000000, 0.0000000000, -0.0000000000, -0.0000000000, 0.0000000000, -0.0000000000, 0.0000000000, -0.0000000000, 0.2257211357, 0.0000000000, 0.0000000000, 0.0000000000, -0.0000000000, -0.0000000000, -0.2309738994, -0.0000000000, 0.0000000000, -0.0000000000, -0.2298245132, 0.0000000000, -0.0000000000, 0.0000000000, 0.2372831702, -0.2253956646, -0.0000000000, -0.0000000000, -0.0000000000, 0.2517529130, -0.2225472480, 0.0000000000, 0.0000000000, -0.0000000000, 0.0000000000, 0.0000000000, 0.0000000000, 0.0000000000, 0.0000000000, 0.0000000000, 0.2347591966, -0.0000000000, 0.0000000000, 0.0000000000, 0.0000000000, 0.0000000000, 0.2259882987, -0.0000000000, -0.0000000000, -0.0000000000, -0.2520537376, 0.0000000000, 0.0000000000, 0.0000000000, -0.0000000000, 0.0000000000, 0.2493759841, 0.2607636154, 0.0000000000, -0.0000000000, -0.0000000000, -0.2373760194, 0.0000000000, 0.0000000000, 0.0000000000, -0.0000000000, -0.2409752160, 0.2289078087, 0.0000000000, 0.0000000000, 0.0000000000, 0.2363744676, -0.0000000000, -0.0000000000, 0.0000000000, 0.0000000000, 0.0000000000, 0.0000000000, -0.0000000000, 0.0000000000, 0.0000000000, -0.0000000000, -0.2467331886, -0.0000000000, -0.0000000000, 0.0000000000, 0.0000000000, -0.2702348530, 0.0000000000, 0.0000000000, -0.0000000000, -0.0000000000, -0.0000000000, 0.0000000000, 0.0000000000, 0.0000000000, 0.0000000000, 0.2445086688, -0.2387764752, -0.2254820466, -0.2285562754, -0.2610035539, -0.2601906061, 0.0000000000, -0.0000000000, -0.0000000000, 0.0000000000, 0.2609759569, -0.0000000000, -0.2472604513, -0.0000000000, -0.0000000000, 0.2911168039, -0.0000000000, 0.3134604394, 0.0000000000, 0.0000000000, 0.0000000000, 0.3577178717, -0.0000000000, 0.0000000000, 0.0000000000, -0.0000000000, -0.0000000000, 0.0000000000, -0.3017563820, -0.0000000000, 0.0000000000, 0.2508284152, -0.2927698493, -0.4682420790, 0.0000000000, -0.0000000000, -0.0000000000, -0.6124504805, -0.3745663762, -0.0000000000, 0.0000000000, -0.5956636071, -0.2220679373, 0.0000000000, 0.0000000000, -0.0000000000, -0.0000000000, -0.0000000000, -0.0000000000, -0.3372248709, -0.6806916595, -0.2702670991, -0.4427601993, 0.0000000000, 0.0000000000, -0.2692511678, 0.0000000000, 0.0000000000, 0.0000000000, 0.0000000000, 0.0000000000, 0.0000000000, 0.2094717771, -0.0000000000, -0.0000000000, 0.0000000000, -0.0000000000, 0.0000000000, -0.0000000000, -0.2732422948, 0.0000000000, -0.2620742619, 0.0000000000, -0.0000000000, 0.0000000000, 0.0000000000, 0.0000000000, -0.2327566147, 0.0000000000, -0.0000000000, -0.0000000000, -0.0000000000, 0.0000000000, 0.0000000000, 0.0000000000, 0.0000000000, -0.0000000000, -0.0000000000, 0.0000000000, 0.0000000000, 0.0000000000, -0.0000000000, -0.0000000000, -0.0000000000, 0.0000000000, 0.0000000000, 0.0000000000, 0.0000000000, -0.0000000000, 0.0000000000, -0.2267076671, 0.0000000000, -0.0000000000, 0.0000000000, 0.0000000000, -0.2571839392, -0.0000000000, 0.0000000000, 0.0000000000, -0.2450866103, 0.0000000000, 0.0000000000, 0.2245381773, 0.0000000000, 0.0000000000, 0.0000000000, 0.0000000000, -0.0000000000, 0.0000000000, -0.0000000000, -0.0000000000, 0.0000000000, 0.0000000000, 0.2448305041, -0.0000000000, 0.0000000000, -0.0000000000, 0.0000000000, -0.2275490314, 0.0000000000, -0.0000000000, 0.0000000000, -0.2836062312, 0.0000000000, 0.0000000000, 0.0000000000, 0.0000000000, 0.0000000000, 0.0000000000, -0.0000000000, 0.0000000000, 0.0000000000, -0.0000000000, 0.0000000000, 0.2463777214, 0.0000000000, 0.2349962890, 0.0000000000, 0.0000000000, -0.0000000000, -0.0000000000, -0.2629517913, -0.2638026476, 0.2270904183, -0.0000000000, 0.0000000000, 0.0000000000, -0.0000000000, 0.0000000000, -0.0000000000, -0.0000000000, 0.0000000000, 0.0000000000, -0.0000000000, 0.0000000000, -0.0000000000, 0.0000000000, -0.2284382880, 0.0000000000, -0.0000000000, -0.0000000000, 0.0000000000, -0.0000000000, 0.0000000000, 0.2337473035, 0.0000000000, 0.0000000000, 0.0000000000, -0.0000000000, -0.2655724585, 0.0000000000, -0.0000000000, 0.2450458258, 0.0000000000, 0.0000000000, 0.0000000000, -0.0000000000, 0.0000000000, 0.2460284531, 0.0000000000, 0.0000000000, 0.0000000000, -0.0000000000, 0.0000000000, 0.0000000000, 0.2366094589, 0.0000000000, -0.0000000000, 0.0000000000, 0.0000000000, -0.0000000000, 0.0000000000, 0.2255567014, -0.0000000000, 0.0000000000, 0.0000000000, 0.0000000000, -0.0000000000, 0.2244308740, 0.0000000000, 0.0000000000, 0.2250634134, -0.2780313194, -0.0000000000, 0.0000000000, -0.2743892074, -0.0000000000, -0.2468122691, -0.0000000000, -0.0000000000, 0.0000000000, -0.3702621758, -0.0000000000, -0.0000000000, -0.2730985880, -0.0000000000, -0.2642810643, -0.0000000000, -0.4378049672, -0.6465826631, -0.0000000000, -0.2377438694, -0.3565683663, -0.0000000000, 0.0000000000, 0.0000000000, 0.0000000000, -0.5476608276, -0.3273698986, 0.0000000000, -0.0000000000, -0.0000000000, 0.0000000000, 0.2368236184, -0.0000000000, 0.0000000000, -0.0000000000, -0.0000000000, 0.0000000000, -0.3368370533, 0.2532117069, 0.0000000000, 0.2626108229, -0.3639405370, -0.3119380474, -0.3532878458, -0.4916373491, -0.0000000000, 0.0000000000, -0.0000000000, 0.2631363273, 0.0000000000, 0.0000000000, 0.0000000000, 0.0000000000, 0.0000000000, 0.0000000000, -0.0000000000, -0.0000000000, 0.0000000000, 0.2467283309, 0.3311210871, -0.0000000000, 0.2597320080, 0.0000000000, 0.2549175024, 0.0000000000, 0.0000000000, -0.2576665282, -0.0000000000, -0.0000000000, 0.2418190390, -0.0000000000, 0.0000000000, 0.0000000000, 0.0000000000, 0.2319914401, 0.2457876503, -0.0000000000, 0.0000000000, 0.0000000000, 0.0000000000, -0.0000000000, 0.0000000000, 0.0000000000, 0.0000000000, 0.0000000000, 0.0000000000, -0.2735686302, 0.2450235635, -0.2439096123, 0.0000000000, 0.0000000000, 0.0000000000, 0.0000000000, 0.0000000000, -0.0000000000, 0.0000000000, -0.0000000000, -0.2694467604, -0.0000000000, -0.0000000000, 0.0000000000, -0.0000000000, 0.2596054375, 0.2674702108, -0.0000000000, 0.0000000000, 0.0000000000, 0.0000000000, 0.0000000000, 0.0000000000, -0.2330108881, 0.0000000000, 0.0000000000, -0.0000000000, -0.0000000000, -0.2497982085, -0.0000000000, -0.0000000000, -0.0000000000, -0.0000000000, -0.2541181445, -0.0000000000, -0.0000000000, -0.0000000000, -0.0000000000, -0.0000000000, -0.0000000000, -0.0000000000, -0.0000000000, -0.0000000000, -0.0000000000, -0.0000000000, -0.0000000000, -0.0000000000, -0.0000000000, -0.2692929506, -0.0000000000, -0.0000000000, -0.0000000000, -0.0000000000, -0.0000000000, -0.0000000000, -0.0000000000, -0.0000000000, -0.0000000000, -0.0000000000, -0.0000000000, -0.0000000000, -0.0000000000, -0.0000000000, -0.0000000000, -0.0000000000, -0.0000000000, -0.0000000000, -0.0000000000, -0.0000000000, -0.0000000000, -0.0000000000, -0.0000000000, -0.0000000000, -0.0000000000, -0.0000000000, -0.0000000000, -0.0000000000, -0.0000000000, 0.0000000000, 0.0000000000, -0.0000000000, -0.0000000000, -0.0000000000, 0.0000000000, 0.0000000000, -0.0000000000, 0.0000000000, 0.0000000000, 0.0000000000, 0.2509270906, 0.0000000000, 0.0000000000, -0.0000000000, -0.0000000000, -0.0000000000, 0.0000000000, 0.0000000000, -0.0000000000, -0.0000000000, -0.0000000000, -0.2329157293, -0.0000000000, 0.0000000000, 0.2397632152, -0.0000000000, 0.2458549142, -0.2524556518, -0.0000000000, -0.2690046430, 0.0000000000, -0.2642208338, -0.0000000000, 0.0000000000, 0.0000000000, -0.2440968454, -0.0000000000, -0.0000000000, -0.0000000000, 0.0000000000, -0.0000000000, 0.0000000000, 0.0000000000, 0.0000000000, -0.0000000000, 0.0000000000, -0.0000000000, 0.0000000000, 0.0000000000, 0.0000000000, -0.0000000000, 0.0000000000, -0.0000000000, 0.2387420088, -0.0000000000, -0.0000000000, 0.0000000000, -0.0000000000, -0.0000000000, 0.0000000000, 0.0000000000, 0.0000000000, 0.0000000000, -0.0000000000, 0.0000000000, 0.0000000000, -0.0000000000, -0.0000000000, -0.0000000000, 0.0000000000, 0.0000000000, -0.2219097614, 0.0000000000, -0.0000000000, 0.0000000000, 0.2245754153, -0.0000000000, 0.0000000000, -0.0000000000, 0.0000000000, -0.0000000000, 0.0000000000, -0.0000000000, 0.0000000000, 0.0000000000, 0.0000000000, 0.0000000000, 0.0000000000, -0.2333529741, 0.2218257487, 0.0000000000, 0.0000000000, 0.0000000000, 0.0000000000, 0.2584491372, -0.0000000000, 0.0000000000, -0.0000000000, 0.0000000000, -0.0000000000, 0.0000000000, 0.0000000000, 0.0000000000, -0.0000000000, -0.0000000000, 0.0000000000, -0.0000000000, -0.0000000000, 0.2676643133, 0.0000000000, 0.0000000000, -0.3794238865, -0.4571185410, -0.2153310031, -0.2950186729, 0.3167552054, 0.3523687720, 0.0000000000, 0.3525037766, -0.0000000000, -0.2074696124, -0.0000000000, -0.0000000000, 0.2015976757, 0.0000000000, -0.0000000000, -0.0000000000, 0.0000000000, -0.0000000000, -0.0000000000, -0.3145954907, 0.0000000000, -0.5515028238, 0.0000000000, 0.0000000000, -0.0000000000, -0.4113466740, -0.3149814308, -0.3564843237, -0.5206382871, 0.0000000000, -0.0000000000, -0.2530120611, -0.4454411566, -0.0000000000, -0.0000000000, -0.5220217705, -0.5657679439, -0.4490105808, 0.0000000000, -0.6468651891, -0.2168375552, -0.0000000000, -0.3128430545, -0.3259304464, -0.0000000000, -0.0000000000, 0.0000000000, 0.3153026998, -0.6087029576, 0.2387041748, -0.3422564268, 0.0000000000, -0.0000000000, -0.0000000000, 0.0000000000, 0.3593639731, -0.5252443552, -0.0000000000, -0.3224390447, -0.3426258862, -0.4411908388, 0.0000000000, 0.0000000000, -0.0000000000, -0.4935767949, -0.6153438687, -0.0000000000, -0.0000000000, 0.0000000000, 0.0000000000, -0.0000000000, 0.0000000000, 0.3374637663, -0.0000000000, 0.0000000000, 0.3762506247, -0.0000000000, -0.0000000000, -0.2739052176, 0.3225953877, 0.0000000000, 0.0000000000, 0.2027605623, -0.0000000000, 0.0000000000, -0.3573692739, -0.0000000000, 0.0000000000, 0.0000000000, -0.3492918015, 0.0000000000, 0.0000000000, 0.0000000000, -0.0000000000, -0.0000000000, -0.0000000000, -0.0000000000, 0.2579311430, 0.0000000000, 0.0000000000, 0.2249965072, 0.0000000000, -0.0000000000, -0.0000000000, 0.0000000000, -0.0000000000, -0.0000000000, -0.0000000000, -0.0000000000, 0.0000000000, 0.0000000000, 0.0000000000, -0.2654322684, -0.0000000000, 0.0000000000, 0.2256219685, -0.0000000000, 0.0000000000, -0.2583578825, 0.0000000000, -0.0000000000, 0.0000000000, 0.0000000000, 0.0000000000, 0.0000000000, 0.0000000000, 0.0000000000, -0.0000000000, 0.0000000000, 0.2425667942, 0.0000000000, 0.0000000000, 0.0000000000, 0.0000000000, 0.2527737319, 0.2390462160, -0.2347811759, 0.0000000000, 0.0000000000, 0.0000000000, -0.0000000000, -0.0000000000, 0.0000000000, 0.2301592827, -0.0000000000, 0.0000000000, 0.0000000000, 0.0000000000, 0.0000000000, 0.0000000000, -0.0000000000, -0.0000000000, 0.0000000000, -0.0000000000, -0.0000000000, -0.0000000000, -0.0000000000, 0.0000000000, 0.0000000000, -0.2452495396, 0.0000000000, -0.0000000000, -0.0000000000, -0.0000000000, 0.0000000000, 0.0000000000, 0.0000000000, -0.0000000000, 0.0000000000, 0.0000000000, -0.2736178041, 0.0000000000, -0.2505604923, -0.0000000000, -0.0000000000, 0.0000000000, 0.0000000000, 0.0000000000, -0.0000000000, 0.0000000000, -0.2747927904, 0.0000000000, 0.0000000000, -0.0000000000, -0.0000000000, -0.0000000000, 0.0000000000, -0.2722136676, 0.0000000000, -0.0000000000, 0.0000000000, 0.0000000000, -0.2297495455, -0.0000000000, 0.0000000000, -0.0000000000, 0.0000000000, 0.0000000000, 0.0000000000, 0.0000000000, -0.0000000000, 0.0000000000, 0.0000000000, 0.0000000000, -0.2254981101, 0.0000000000, 0.0000000000, -0.0000000000, -0.2561987638, 0.0000000000, -0.0000000000, 0.0000000000, 0.0000000000, 0.0000000000, 0.0000000000, 0.0000000000, 0.0000000000, 0.0000000000, 0.0000000000, 0.0000000000, -0.0000000000, 0.2535678446, -0.2376956344, 0.0000000000, 0.0000000000, 0.0000000000, 0.2301586121, -0.2883254886, 0.0000000000, 0.2512896359, 0.2345053405, -0.0000000000, -0.0000000000, -0.0000000000, 0.0000000000, 0.0000000000, -0.0000000000, -0.0000000000, -0.0000000000, 0.0000000000, 0.0000000000, 0.0000000000, -0.2291878909, 0.0000000000, 0.0000000000, -0.0000000000, 0.0000000000, 0.0000000000, -0.2480731606, 0.0000000000, 0.0000000000, 0.0000000000, 0.2669057548, -0.2403952032, -0.2736199796, -0.0000000000, -0.2397205085, 0.0000000000, 0.0000000000, 0.0000000000, 0.0000000000, 0.0000000000, 0.0000000000, 0.0000000000, -0.0000000000, 0.0000000000, 0.0000000000, 0.0000000000, -0.0000000000, 0.0000000000, 0.0000000000, 0.0000000000, -0.0000000000, 0.0000000000, 0.0000000000, 0.0000000000, -0.0000000000, 0.0000000000, -0.0000000000, 0.0000000000, -0.0000000000, -0.0000000000, 0.0000000000, 0.2448832542, 0.2439504564, 0.0000000000, 0.0000000000, 0.0000000000, 0.0000000000, 0.0000000000, 0.0000000000, -0.0000000000, 0.0000000000, 0.0000000000, 0.0000000000, 0.0000000000, 0.0000000000, 0.2278228402, 0.0000000000, 0.0000000000, -0.0000000000, 0.0000000000, -0.2500734031, 0.0000000000, -0.0000000000, 0.0000000000, -0.0000000000, 0.0000000000, 0.2242682129, -0.0000000000, -0.0000000000, -0.0000000000, -0.0000000000, 0.0000000000, -0.0000000000, 0.0000000000, 0.0000000000, -0.0000000000, -0.0000000000, 0.0000000000, -0.0000000000, -0.0000000000, -0.0000000000, 0.0000000000, 0.0000000000, 0.0000000000, 0.0000000000, -0.0000000000, 0.0000000000, 0.0000000000, -0.0000000000, 0.0000000000, 0.0000000000, 0.0000000000, 0.0000000000, -0.0000000000, -0.0000000000, -0.2216181457, -0.0000000000, 0.0000000000, -0.0000000000, 0.0000000000, -0.2751187384, 0.0000000000, -0.2458399236, 0.0000000000, 0.0000000000, 0.0000000000, -0.2315601856, -0.0000000000, -0.0000000000, -0.0000000000, 0.0000000000, 0.0000000000, -0.0000000000, -0.0000000000, 0.2825309932, 0.0000000000, 0.2796585560, 0.0000000000, -0.3326723576, -0.4648959637, -0.2999562025, -0.3773839474, -0.0000000000, -0.3066032827, -0.4780218601, -0.4036162198, -0.3283592463, -0.2235925347, 0.0000000000, -0.0000000000, 0.0000000000, 0.0000000000, -0.0000000000, -0.0000000000, 0.2221155018, 0.3188618422, 0.2282954603, 0.3802120686, 0.0000000000, 0.0000000000, 0.2239923179, 0.2635087669, 0.0000000000, -0.0000000000, -0.0000000000, -0.2392745465, 0.0000000000, -0.0000000000, 0.0000000000, 0.2818789780, -0.2484126687, -0.4166641235, -0.5217745304, -0.0000000000, -0.2426891029, 0.0000000000, -0.0000000000, -0.0000000000, 0.0000000000, 0.0000000000, -0.4023634791, -0.0000000000, -0.2628128231, -0.0000000000, -0.0000000000, -0.0000000000, -0.2432129830, -0.0000000000, -0.0000000000, 0.0000000000, -0.0000000000, 0.0000000000, -0.2503948212, -0.0000000000, -0.2593929768, 0.0000000000, 0.0000000000, -0.2228081673, -0.0000000000, 0.0000000000, -0.0000000000, -0.0000000000, -0.0000000000, 0.0000000000, 0.0000000000, -0.0000000000, 0.2444823831, 0.0000000000, 0.0000000000, 0.0000000000, 0.0000000000, 0.0000000000, 0.0000000000, -0.0000000000, -0.2420192063, 0.0000000000, 0.0000000000, 0.0000000000, 0.0000000000, 0.0000000000, -0.0000000000, 0.0000000000, 0.0000000000, 0.0000000000, -0.0000000000, 0.2430297434, -0.0000000000, 0.0000000000, 0.0000000000, -0.2249162197, -0.0000000000, -0.2442066967, 0.0000000000, 0.0000000000, 0.0000000000, -0.2669734955, 0.0000000000, -0.0000000000, -0.0000000000, 0.1951313317, 0.0000000000, 0.0000000000, -0.0000000000, -0.0000000000, 0.0000000000, -0.7421381474, -0.6650923491, -0.5432779193, 0.0000000000, -0.2956663668, -0.0000000000, -0.4437040985, 0.0000000000, -0.0000000000, -0.3345049024, -0.2891198695, -0.2840918303, -0.5393644571, -0.0000000000, 0.0000000000, -0.0000000000, -0.0000000000, 0.0000000000, 0.0000000000, -0.0000000000, 0.0000000000, 0.0000000000, -0.0000000000, -0.0000000000, 0.0000000000, -0.0000000000, -0.0000000000, -0.0000000000, -0.0000000000, -0.4454482198, -0.5858734250, -0.5083289146, -0.2012318373, 0.0000000000, -0.0000000000, 0.0000000000, 0.0000000000, 0.0000000000, 0.0000000000, 0.0000000000, -0.0000000000, 0.0000000000, -0.0000000000, -0.0000000000, 0.3563475013, -0.0000000000, -0.0000000000, -0.0000000000, -0.3157829046, -0.5838224292, -0.8830428123, -0.8681679368, -0.6753422618, -0.3001545966, -0.4408875406, 0.0000000000, -0.7540533543, -0.2184153795, -0.5367096663, -0.4771167040, -0.3146988451, 0.0000000000, 0.0000000000, 0.2589343488, -0.2738815248, -0.0000000000, 0.0000000000, -0.0000000000, -0.3793271184, 0.0000000000, 0.0000000000, -0.0000000000, -0.2953428030, -0.0000000000, -0.0000000000, -0.0000000000, -0.3606907427, 0.2690924406, 0.2130070329, 0.0000000000, -0.0000000000, 0.0000000000, 0.0000000000, -0.0000000000, -0.0000000000, 0.0000000000, -0.2364231050, -0.2501436174, 0.0000000000, 0.0000000000, 0.0000000000, 0.0000000000, -0.0000000000, 0.0000000000, -0.3145097196, -0.0000000000, -0.2916477323, 0.0000000000, 0.2482783496, 0.0000000000, 0.0000000000, 0.0000000000, -0.0000000000, 0.0000000000, 0.0000000000, -0.0000000000, 0.0000000000, 0.0000000000, 0.0000000000, -0.0000000000, 0.0000000000, 0.0000000000, 0.0000000000, 0.0000000000, -0.0000000000, 0.0000000000, 0.0000000000, 0.0000000000, -0.2747530937, 0.0000000000, 0.0000000000, 0.0000000000, -0.2517079115, -0.2434974164, 0.0000000000, 0.2653033733, 0.0000000000, 0.0000000000, -0.0000000000, -0.0000000000, 0.0000000000, 0.0000000000, 0.0000000000, -0.2254670709, 0.0000000000, 0.0000000000, -0.0000000000, 0.0000000000, -0.0000000000, -0.0000000000, 0.0000000000, -0.2613912225, 0.0000000000, 0.0000000000, 0.0000000000, 0.0000000000, 0.0000000000, 0.0000000000, 0.0000000000, -0.0000000000, 0.0000000000, -0.0000000000, -0.0000000000, -0.0000000000, 0.0000000000, 0.0000000000, 0.2223208696, 0.0000000000, 0.0000000000, -0.0000000000, 0.0000000000, -0.0000000000, 0.0000000000, -0.2727158964, 0.0000000000, 0.0000000000, -0.0000000000, -0.0000000000, 0.0000000000, 0.0000000000, 0.0000000000, 0.0000000000, -0.0000000000, 0.0000000000, 0.0000000000, 0.0000000000, 0.0000000000, -0.0000000000, -0.2569845915, 0.0000000000, -0.0000000000, 0.0000000000, 0.0000000000, 0.2576509416, 0.0000000000, 0.0000000000, 0.0000000000, 0.0000000000, 0.0000000000, 0.0000000000, -0.0000000000, 0.2254291326, -0.0000000000, 0.2348414063, 0.0000000000, 0.0000000000, 0.0000000000, -0.0000000000, -0.0000000000, 0.0000000000, 0.0000000000, 0.2611426115, 0.0000000000, 0.0000000000, 0.0000000000, -0.0000000000, -0.2732254863, -0.2558877766, 0.0000000000, 0.0000000000, 0.0000000000, 0.0000000000, 0.0000000000, 0.0000000000, 0.0000000000, 0.0000000000, 0.0000000000, 0.0000000000, -0.2333518118, 0.0000000000, 0.0000000000, 0.2235260308, -0.0000000000, 0.2243565917, 0.0000000000, 0.0000000000, 0.0000000000, -0.0000000000, 0.0000000000, 0.0000000000, 0.0000000000, -0.0000000000, 0.0000000000, 0.0000000000, -0.0000000000, -0.0000000000, 0.0000000000, -0.0000000000, 0.0000000000, 0.0000000000, 0.0000000000, 0.0000000000, -0.2537132502, 0.0000000000, 0.0000000000, 0.0000000000, -0.0000000000, 0.2339610755, 0.0000000000, 0.0000000000, 0.0000000000, -0.0000000000, -0.2653546035, 0.0000000000, 0.0000000000, 0.0000000000, -0.2216521502, -0.0000000000, -0.2301425785, -0.0000000000, 0.0000000000, -0.2611168921, -0.2340539843, 0.2590524256, -0.0000000000, 0.2332958579, 0.0000000000, -0.0000000000, 0.0000000000, 0.0000000000, -0.2641098797, -0.0000000000, 0.0000000000, 0.0000000000, 0.0000000000, 0.0000000000, 0.0000000000, -0.2289607227, 0.0000000000, 0.2498269081, 0.0000000000, 0.0000000000, 0.0000000000, 0.0000000000, -0.0000000000, 0.0000000000, 0.0000000000, -0.2592107654, 0.0000000000, 0.0000000000, 0.0000000000, 0.0000000000, 0.0000000000, 0.0000000000, 0.0000000000, 0.0000000000, -0.2435876131, 0.0000000000, -0.2876600027, 0.0000000000, 0.0000000000, 0.0000000000, 0.0000000000, 0.0000000000, 0.0000000000, -0.2835502326, -0.7460384965, -0.7951319814, -0.3012981713, -0.0000000000, -0.2475980222, 0.0000000000, 0.0000000000, -0.0000000000, -0.0000000000, 0.0000000000, 0.2983102798, 0.0000000000, -0.0000000000, 0.0000000000, -0.0000000000, 0.2423098236, 0.0000000000, -0.0000000000, 0.3149262369, -0.0000000000, -0.2128641754, -0.0000000000, 0.0000000000, 0.0000000000, 0.0000000000, -0.0000000000, 0.0000000000, -0.0000000000, -0.0000000000, -0.2282364070, 0.0000000000, -0.0000000000, -0.3324173093, -0.3921978772, -0.3754627109, 0.0000000000, 0.0000000000, -0.0000000000, -0.2989198864, -0.2247459292, -0.3230518103, -0.0000000000, 0.0000000000, -0.5166299343, -0.3288263381, 0.0000000000, -0.0000000000, -0.3322171271, -0.0000000000, -0.0000000000, -0.0000000000, -0.0000000000, 0.0000000000, 0.0000000000, -0.0000000000, -0.0000000000, -0.6508706808, -0.5327522755, -0.0000000000, -0.2431208640, -0.0000000000, -0.5355092883, -0.4690026641, -0.0000000000, -0.0000000000, -0.2424319535, -0.0000000000, -0.2726044655, 0.0000000000, -0.4063537717, -0.5304032564, -0.0000000000, 0.0000000000, -0.0000000000, 0.0000000000, 0.0000000000, 0.3397371471, 0.2387571782, 0.0000000000, 0.0000000000, 0.4652531147, 0.3032184839, 0.0000000000, -0.0000000000, 0.1855644137, 0.0000000000, -0.3997848928, -0.0000000000, -0.4127797782, 0.0000000000, 0.0000000000, -0.3708197474, -0.0000000000, -0.0000000000, -0.0000000000, -0.1992233992, 0.0000000000, -0.3301686943, 0.0000000000, 0.0000000000, 0.0000000000, -0.0000000000, -0.2728374600, -0.3278420269, -0.0000000000, -0.0000000000, -0.0000000000, -0.0000000000, 0.0000000000, 0.3028930426, 0.0000000000, -0.0000000000, -0.0000000000, 0.0000000000, -0.3679637015, -0.3748884499, -0.0000000000, -0.4795227647, 0.0000000000, -0.5132525563, -0.3330527842, -0.5117715597, -0.5113036036, -0.0000000000, -0.0000000000, -0.3520602286, -0.0000000000, -0.0000000000, -0.2953216136, -0.5188803077, -0.0000000000, -0.5410445929, -0.6503612399, -0.5573214889, -0.5397752523, -0.3191746175, -0.0000000000, -0.0000000000, -0.3197869360, 0.0000000000, 0.0000000000, -0.0000000000, -0.0000000000, 0.0000000000, -0.3223944306, -0.0000000000, -0.4138698578, -0.5273466110, -0.0000000000, -0.4323983490, -0.4818490446, -0.5279474258, -0.4230648279, -0.4070509076, -0.3736846447, -0.0000000000, -0.0000000000, -0.2427590787, 0.2209366858, 0.2089306861, 0.0000000000, 0.0000000000, 0.0000000000, -0.0000000000, 0.1804654151, 0.0000000000, 0.0000000000, 0.0000000000, -0.4071935117, 0.0000000000, -0.0000000000, -0.0000000000, -0.3076758683, -0.0000000000, -0.0000000000, -0.0000000000, 0.0000000000, -0.0000000000, -0.0000000000, 0.0000000000, -0.0000000000, -0.0000000000, 0.0000000000, -0.3204873204, -0.0000000000, -0.3508142531, -0.2623418272, -0.0000000000, -0.4943040013, -0.3852494955, -0.0000000000, 0.0000000000, 0.0000000000, -0.0000000000, 0.2849747539, 0.0000000000, 0.0000000000, -0.2414134890, 0.0000000000, 0.0000000000, 0.0000000000, 0.0000000000, -0.0000000000, 0.0000000000, -0.0000000000, -0.0000000000, -0.0000000000, -0.0000000000, -0.0000000000, -0.2606042027, 0.0000000000, -0.2665807605, -0.0000000000, 0.0000000000, -0.0000000000, 0.2404460758, 0.0000000000, -0.0000000000, 0.0000000000, -0.0000000000, -0.0000000000, 0.0000000000, -0.0000000000, -0.0000000000, -0.0000000000, 0.0000000000, 0.0000000000, -0.0000000000, 0.0000000000, 0.0000000000, -0.0000000000, -0.0000000000, 0.0000000000, 0.0000000000, -0.0000000000, -0.0000000000, -0.0000000000, -0.0000000000, 0.0000000000, 0.2608257830, 0.0000000000, -0.0000000000, -0.0000000000, -0.0000000000, 0.0000000000, -0.2713056505, 0.2490601689, 0.0000000000, -0.2542266250, -0.0000000000, -0.0000000000, -0.0000000000, 0.0000000000, 0.0000000000, 0.0000000000, 0.0000000000, -0.0000000000, 0.2433726043, -0.0000000000};
#endif

#endif
