//Numpy array shape [1568, 32]
//Min -0.301116496325
//Max 0.344859838486
//Number of zeros 0

#ifndef W11_H_
#define W11_H_

#ifndef __SYNTHESIS__
dense1_weight_t w11[50176];
#else
dense1_weight_t w11[50176] = {0.1946372688, -0.0151687693, -0.0487636738, -0.0037937455, 0.0795643181, -0.0134154297, -0.0300142746, -0.0437497571, -0.0039335089, -0.0071369931, 0.0459379666, -0.0783248544, -0.0047990889, -0.0065070130, -0.0296931285, 0.0323121957, -0.0517238975, 0.0110245775, 0.1396129280, -0.0628604442, 0.0815124214, -0.0413365588, 0.0373817831, -0.0294070970, 0.0560413040, 0.1376615614, -0.0184047222, 0.0566555522, 0.0701160505, -0.0482145175, 0.0361639336, -0.0890567824, 0.0565294474, 0.0020784901, -0.0504233800, 0.0194141306, -0.0260725804, 0.0401174761, -0.1628182381, -0.0299597196, -0.0282243919, 0.0238474049, -0.0131855235, -0.1267675608, -0.0181274619, 0.0114159472, -0.0551697463, 0.0424082167, -0.0430926085, -0.0097629838, 0.0278519988, -0.0837598667, 0.1265085787, 0.0129238218, -0.0865024552, 0.0339549966, 0.0023997761, -0.0109543856, 0.0164613910, 0.0514265932, 0.0877381042, -0.0315938480, 0.0064033121, -0.0103163533, 0.1306798160, 0.0271748044, 0.0414203480, 0.0356415398, -0.0594669133, 0.0569187514, -0.0730985329, -0.0080480985, -0.0107670464, 0.0404124372, 0.0352301188, -0.1063119546, 0.0497830883, -0.0014943630, 0.0370984226, -0.0065820017, 0.0010022819, 0.0072183199, -0.0654220730, -0.0359320492, 0.1319620758, 0.0578700677, 0.0248318296, 0.0167318489, 0.0609757565, 0.0468107425, 0.0156947114, 0.1008104384, 0.0271529220, -0.0727743357, -0.0536229387, -0.1038369313, 0.0927431062, -0.0107777109, 0.0174108148, -0.0373499580, -0.0811353102, 0.0139188459, -0.0777052343, 0.0126748933, 0.0491300374, -0.0219114870, -0.0354813933, -0.1261398941, -0.0073977755, 0.0475851782, -0.0020870850, 0.0260063168, 0.0018135339, -0.0085169654, 0.0283216648, -0.0882235542, 0.1404689997, -0.0804761872, -0.0096695209, 0.0458837934, -0.0051413160, 0.0669490620, -0.0291274562, 0.0162203461, 0.0483625606, -0.0556669571, -0.0609078519, -0.0869978517, 0.0208125599, 0.0372065902, -0.0159861241, 0.0400662646, -0.0032303934, -0.0409906134, -0.0476137660, 0.0017153855, 0.0290258098, -0.0079469541, 0.0188280549, -0.0390047319, -0.0433242917, 0.0368086882, -0.0567029603, 0.0236148834, -0.0344870463, -0.0140719181, -0.0321423151, -0.0788797438, -0.0164723303, -0.0114682578, 0.0000399936, 0.0337352306, 0.0021870150, 0.0120558692, -0.0158704445, -0.0532184802, -0.0018994244, -0.0345725678, -0.0007543438, 0.0309916139, -0.1356110424, -0.0537623093, 0.0108255884, -0.0444497950, 0.0242803674, -0.0167174824, -0.1506543308, -0.0109083652, 0.0538486801, 0.0089345044, 0.0428965054, 0.0293030161, 0.0074153463, 0.0513111651, 0.0372794569, -0.0165720489, 0.0470978096, 0.0385425538, 0.1327911615, -0.0663903728, 0.0378230289, 0.0954844207, -0.0047298879, -0.0962473974, 0.0189162809, 0.0032287189, -0.0503264628, -0.0063835140, -0.0428616516, -0.0113091087, -0.0559451729, -0.0042350353, 0.0235427860, -0.0467971042, 0.0046474598, 0.0255805179, 0.0132018579, 0.0510223396, -0.0416486114, 0.0316011384, 0.0259330366, -0.0199092329, -0.0532909296, 0.0076026409, 0.0427609794, -0.0457222313, 0.0099341106, 0.0115987174, -0.0062026926, -0.0285674930, 0.1694717407, -0.0730654895, 0.0675776526, -0.1458743364, 0.0101507176, -0.0617751256, -0.0637312457, 0.0580595322, -0.0405508019, 0.0011353081, 0.0134827578, -0.0346847177, 0.0485365093, -0.0060662595, 0.0827086940, -0.0091217859, 0.0076971008, -0.0107250623, 0.0500640906, -0.0528615043, -0.0614406802, -0.0009028486, -0.0010137105, -0.0333270133, -0.0206624400, -0.1773896217, -0.0617983267, -0.0108914124, 0.0511056669, 0.0090213064, 0.0430875458, 0.0154040642, 0.1203853488, 0.0111661637, 0.0482465141, -0.0723030120, -0.0393336155, -0.0804998130, 0.0541057438, 0.0658424571, 0.0296829846, -0.0370995291, -0.0866717994, 0.0026161806, -0.0213083308, -0.0281404424, -0.0045422730, 0.0023336422, -0.0245683119, -0.0131421136, 0.0029268945, -0.0017697364, 0.0391613506, 0.0492693819, 0.0385235474, 0.0193967707, -0.0535984002, -0.0210140049, -0.0278879814, -0.0413123891, -0.0329004824, -0.0652413666, -0.0179411955, 0.0130698346, 0.0214140508, 0.0664390549, 0.0446938463, -0.0663540587, 0.0528728962, 0.1193341538, -0.0074440204, -0.0150981853, -0.0142249316, 0.0296019409, 0.0225379001, 0.0009212346, -0.0278650839, -0.0812020227, 0.1474244893, 0.0343589336, 0.0111429039, 0.0586421825, 0.0595055148, -0.0451203436, 0.1216314659, -0.0471687801, 0.0258176699, 0.0383845009, 0.0155866295, -0.0675598755, -0.0377688929, -0.0099995919, -0.0445917547, 0.0184056628, -0.0323614366, -0.0467220731, -0.0229697376, 0.0006917962, 0.0128320651, -0.0161415450, 0.0018532425, 0.0392745361, 0.0155974142, -0.0283169113, 0.0544480644, -0.0686565936, 0.0371343903, 0.0595138073, -0.0036582949, 0.0329254344, -0.0697352439, -0.0039809761, -0.0050179348, 0.0095663425, 0.0280518550, 0.0167516135, -0.0992411003, 0.0065171756, -0.0215964615, -0.0283305235, 0.0484956019, 0.0237132944, -0.0003296976, -0.0611469559, 0.0137443859, 0.0306739006, 0.0477456413, -0.0447064266, -0.0586583428, 0.1048252136, 0.0984026641, 0.0257663336, 0.0087943012, -0.0406661369, 0.0597077198, -0.0086652944, -0.0483939163, 0.1024136767, 0.0179459658, -0.0631061941, -0.0643401369, 0.0469356813, 0.0892299935, -0.0369715728, 0.0387709066, 0.0176723190, 0.0609933808, 0.0380328000, 0.0003853210, -0.0103574013, 0.0366281979, -0.0492023416, 0.0146080451, -0.0126616135, 0.0495172739, 0.0256297477, -0.0583154075, 0.0531059243, 0.0212510359, 0.0526215695, -0.0186687857, -0.0307956487, 0.1008667424, 0.0207593739, 0.0777793005, 0.0334172919, 0.0256882887, 0.0955670252, 0.0557897873, 0.0696122721, -0.0238900837, -0.0945897922, 0.0303575043, -0.0409184732, 0.0065434542, 0.0077321990, 0.0234625693, -0.0232309420, 0.0174394846, 0.0153264441, 0.0267643929, -0.0373979472, -0.0559310652, 0.0043052980, -0.0079494026, -0.0333004445, -0.0575508773, -0.0266355574, -0.0322453752, -0.0614014491, -0.0378996097, -0.0377475880, 0.0705275834, -0.0955398679, 0.0267792139, -0.0632002130, 0.0018216913, 0.0361865610, 0.0398923904, -0.0650230572, 0.0369598195, -0.0341582745, 0.0529375859, 0.0025542832, 0.0249861944, -0.0897039324, -0.0502486303, 0.0477858111, -0.0510643199, 0.0488169529, -0.0528065749, 0.0352251865, 0.0020962511, 0.0079586655, -0.0076764347, 0.0271475967, -0.0602460094, -0.0412949063, 0.0692997277, -0.0355353989, -0.0084151551, -0.0159892663, 0.0463603102, 0.0466134623, 0.0551945232, -0.0296341199, 0.0492986329, -0.0149416020, -0.0340001360, -0.1011925191, -0.0013342439, -0.0221879762, -0.0535388365, -0.1024247557, 0.0205563586, 0.0230246838, -0.0244544819, 0.0529303327, -0.0314820260, -0.0539100058, -0.0455376655, -0.0051471358, 0.1756668091, -0.0530235544, -0.0010028684, -0.0428495035, 0.0234537739, 0.0213263147, 0.0194398575, 0.1270641088, 0.0464913584, -0.0400453918, -0.0092620067, -0.0214589555, 0.0164404958, -0.0661459491, 0.0080661234, -0.0591741726, 0.0419386774, 0.0100709461, 0.0306004006, -0.0313943401, 0.0332359895, 0.0078517031, -0.0330954753, 0.0516019277, 0.0410084017, -0.0141677447, -0.0182934329, -0.0068361824, -0.1000825539, 0.0336506851, -0.0189184546, -0.0255043264, 0.0135062803, 0.0323658064, 0.0249795076, -0.0028552704, -0.0176485665, -0.0386553481, -0.0626250207, -0.0645280257, -0.0235552099, -0.0049754409, 0.0143260406, 0.0159553289, -0.0568111055, 0.0381292850, -0.0400034413, -0.0250401869, 0.0450717323, 0.0667264611, 0.1286739856, -0.0332162231, 0.0065241284, -0.0700710490, 0.0433501713, 0.0770760924, 0.0186612159, 0.0718108341, 0.0380016640, -0.0108375587, 0.0124578401, -0.0477693602, 0.0291771032, -0.0008359445, 0.1172526330, -0.0454486832, 0.0539266206, 0.0410590358, 0.0025946177, 0.0142469369, 0.0483031608, 0.0430825241, -0.0059003588, 0.0293245427, 0.0377374813, 0.0037741030, -0.0248008482, 0.0272491686, 0.0232467763, 0.0095645702, 0.0545590483, -0.0453797802, 0.0730933100, 0.0029238630, -0.0078643262, -0.0942437872, -0.0373379663, 0.0009321776, -0.0233411118, -0.0676461533, -0.0702504963, -0.0462810881, 0.0398021638, -0.0539956763, -0.0210760180, 0.0276417267, -0.0122954110, 0.0286015756, 0.0927680805, -0.0143303014, -0.0467184298, 0.0375589840, -0.0549490228, -0.0200890172, 0.0772355720, -0.0552096814, 0.0510603078, -0.0048818458, -0.0379527472, 0.0632634163, 0.0856155083, -0.0389681831, 0.0732755065, -0.1006934568, -0.0536840633, 0.0102111176, -0.0226181783, 0.0176220983, -0.0490078516, 0.0161348861, 0.0536795035, 0.0922397375, -0.0177073069, 0.0466580018, -0.0049746507, 0.0264125634, 0.0145664709, 0.0380902812, 0.0081802923, -0.0146836378, 0.0181747265, -0.0269423313, -0.0163910482, 0.0200291537, -0.0429612286, -0.0017416461, 0.0590896979, 0.0269332938, 0.0153870694, 0.0107291704, 0.0302766748, -0.0607786924, -0.0152665637, 0.0196832772, 0.1221760660, 0.1004523933, 0.0253902208, 0.0282450095, -0.0572910681, 0.0052986336, 0.0433338173, 0.1233843863, 0.0136943199, 0.0431966372, -0.0034757543, 0.0147455297, -0.1303247958, -0.0619249046, -0.0642095804, 0.0319413207, -0.0239018798, -0.0026213466, -0.0564811267, -0.0592614487, 0.0535147190, 0.0438008904, -0.0628959611, -0.0542749986, -0.1010499895, -0.0439687558, -0.0161953028, 0.0415186137, -0.0209085643, -0.0069549400, 0.0668961778, 0.0994461402, 0.0788591728, -0.1088088527, -0.0067282026, -0.0501204617, -0.0429039225, -0.0139714228, -0.0346242413, -0.0374855846, 0.0726913214, -0.0453346819, -0.0386399925, -0.0197713412, 0.0352650322, -0.0544759296, -0.0271089729, 0.0344418623, 0.0603808984, 0.0468678363, -0.0182078984, 0.0175381061, 0.0470456406, 0.0501949303, 0.0088864155, 0.0031054590, -0.0297422484, 0.0050768261, 0.0460378714, -0.0618210807, -0.0134151392, 0.0168861803, 0.0681164935, -0.0696551874, -0.0388077982, -0.0399344340, -0.1267287135, -0.0747502297, -0.0137932552, -0.0817228705, -0.0159536041, 0.0997804850, 0.0393368043, 0.0818155929, 0.0288607758, 0.0286694206, -0.0213631913, -0.0066768592, 0.0328812413, -0.0113950903, 0.0333086029, -0.0075084120, 0.0369918346, -0.0077274931, -0.0322413221, 0.0219662338, -0.0628636107, -0.1170473397, 0.0374582708, -0.0299533121, -0.0294634309, -0.0064017545, -0.0405294187, 0.0439587310, 0.0491776504, -0.0215336233, 0.0608587824, 0.0164996050, 0.1111568660, -0.0726446435, -0.0408579521, 0.0047830190, 0.0457002968, -0.0312249977, -0.0686953366, -0.1097058505, -0.0286094639, -0.0145415282, -0.0224537831, 0.0202944800, -0.0546247512, -0.0476563349, -0.0132494960, -0.0317518935, 0.0161980595, -0.0285650007, -0.0068132705, -0.0484308824, -0.0053067133, 0.0707107335, 0.0877520218, -0.0444293916, -0.0345765688, -0.0179919414, -0.0231620092, 0.0271036569, 0.0258155912, -0.0313077457, 0.0599986911, -0.0549280606, 0.1118187606, -0.0067495648, 0.0485595576, 0.0612902828, -0.0043437541, -0.0014962923, -0.0107358126, 0.0294986758, -0.0556409545, -0.0125503894, 0.0226591174, -0.0354005545, -0.0627303720, -0.0492426381, 0.0196509417, -0.0551411957, -0.0576972254, -0.0559388027, 0.0419453494, 0.0191279389, -0.0388368182, -0.0686507747, 0.0357575305, -0.0411918499, -0.0328718424, 0.0109852655, -0.0341032930, 0.0415349007, 0.1464626342, 0.1265826523, 0.0588575602, 0.0379436053, -0.0002807264, -0.0071938280, -0.0665750876, 0.0075682979, -0.0222440138, 0.0679173395, 0.0664338991, 0.0064538135, -0.0600990690, -0.0288870316, 0.0151313525, 0.0504402928, -0.0054959655, 0.0219377540, 0.0274045262, 0.0201692469, -0.0552892983, 0.0413206406, -0.0349263214, 0.0165257044, -0.0140020028, 0.0190380178, -0.1424309462, 0.0499545820, -0.0407439023, 0.0164822973, -0.0279455036, -0.0583959334, 0.0611933358, 0.0136476262, 0.1402312517, -0.0946212634, -0.0071086143, -0.0377730504, -0.0138857998, -0.0572716184, -0.0344558470, 0.0069822180, -0.0157557856, -0.0004621033, -0.0612913035, -0.0562058948, 0.0073637310, 0.0449161567, -0.0018729147, -0.0427961461, -0.0238811560, -0.0296254046, 0.0024413683, 0.0225748159, -0.0307827890, 0.0490670241, 0.0467797369, 0.1169272363, 0.1041747630, 0.0291857831, -0.0247683022, -0.0284240171, 0.0055815503, -0.0505267419, -0.0003551336, -0.0543501154, 0.0127112688, -0.0962473229, -0.0562892444, -0.0345030464, 0.0457170047, -0.0124421753, -0.0592913553, -0.0546079129, 0.0323126577, -0.0177179836, -0.0404186398, 0.1026505306, -0.0145342704, -0.0299276356, -0.0441901609, 0.0508996882, 0.1006103903, 0.0291557349, 0.0653598383, -0.0414170548, -0.0178342611, -0.0598257035, -0.0524490140, 0.1738299727, 0.0499483272, 0.0534841679, 0.0009935282, 0.0429288037, 0.0051525645, 0.0112365792, -0.1224308237, -0.0987512693, -0.0001674255, -0.0113370651, -0.0213938039, -0.0638877749, 0.0040372051, 0.0251406003, 0.0230328925, -0.0089004273, -0.0050462894, 0.0495909303, 0.0089052618, -0.1490577012, -0.0578737631, -0.0199045688, -0.0460676774, 0.0471210107, 0.0542351194, -0.0534075126, -0.0274708662, -0.0087594530, -0.0236538779, 0.0151193896, 0.0392170139, 0.0507449061, -0.0120089306, -0.0576565750, 0.0577060841, -0.0450885892, 0.0428792946, -0.0072376085, 0.0173222665, -0.0218349267, 0.0453200117, -0.0201655403, -0.0294035356, 0.0029999020, -0.0349641629, 0.0282546561, -0.0335456803, 0.0300602578, -0.0029572346, -0.0307071228, -0.0124609135, -0.0908429250, 0.0409016833, -0.0642057508, -0.0599496737, 0.0492474586, -0.0308850463, 0.0229443274, -0.0542816706, 0.0397512093, -0.0431264639, 0.0484284721, 0.0154903913, 0.0665473863, 0.0471281521, -0.0262878630, -0.0202285480, -0.0013026412, 0.0177274682, 0.0490787178, -0.0631060451, -0.0727905482, -0.0803168342, -0.0772055686, -0.1362030953, -0.0792586952, -0.0001537172, -0.0763253644, 0.0441695675, 0.0660854876, -0.0384600349, 0.0056347381, -0.0122059686, 0.1578110158, -0.0412526727, -0.0372248515, -0.0220287945, -0.0427280292, 0.0607358217, -0.0179144070, -0.1035274640, 0.0229279306, -0.0144227026, 0.0031799655, 0.0201003160, 0.0209953282, -0.0425877236, 0.0320816375, 0.0294559561, -0.0289760996, -0.0637759566, -0.0435073897, 0.0168313477, 0.0040107584, 0.0795752183, 0.0511835180, -0.0370238163, 0.0107149454, -0.0498292446, 0.0157189164, 0.0274346340, -0.1122837812, -0.0197325218, 0.0198867600, -0.0488764308, -0.0858657658, 0.0195864160, -0.0472002886, -0.0317038298, 0.0577569753, 0.0166762844, 0.0119972844, -0.0296629947, 0.0546536334, 0.0047496641, 0.0210426338, -0.0308554824, -0.0238563418, -0.0222332906, -0.0493445583, -0.0342524871, -0.0647178143, -0.0631435513, -0.0156661458, 0.0251773540, -0.1175468564, 0.0379074216, 0.0048345537, 0.0400120206, 0.0271917004, -0.0579626933, 0.0353288315, -0.0448365584, -0.0297093317, -0.0290899407, 0.0349082462, 0.0158468504, 0.0028764938, 0.0039012772, 0.0392047688, -0.0186662003, 0.0200254582, 0.0141073763, -0.0443890430, -0.0905621573, 0.0476816967, 0.0012211164, -0.0459281653, -0.0277929958, 0.0622714534, -0.0140139330, -0.0452308469, -0.0393216982, -0.0557119399, 0.0377942100, -0.0013049503, -0.0238449462, 0.0572534055, -0.0272595547, 0.0085884789, 0.0261369534, -0.0601181649, -0.0536199175, -0.0916924402, 0.0464875735, -0.0287521128, -0.0411759540, -0.0353540815, 0.0488116518, -0.0369012989, 0.0672156736, -0.0306782909, -0.0045229308, -0.0145101892, 0.0313251391, 0.0169493221, -0.0582040511, -0.0334524997, 0.0009994917, -0.0212030038, -0.0199817792, 0.0118183075, 0.0265668705, -0.0393796861, 0.0301106963, 0.0234445538, 0.0012023039, -0.0159589984, -0.0182634573, 0.0774108917, 0.0795668513, 0.0748777613, 0.0017920391, 0.0203140993, 0.0062137730, -0.0691078231, -0.0084874742, -0.0417560413, 0.0330421962, 0.1005532891, 0.0020595409, -0.0990709215, 0.1265906692, 0.0544884205, -0.0044334889, -0.0318869799, 0.1356854439, -0.0183657669, 0.0061474112, -0.0115050226, -0.0037934685, -0.0251414254, 0.0090626646, 0.0816658363, 0.0870306492, 0.0042767338, 0.0149725601, -0.0593985058, 0.0599345788, -0.0483771972, -0.0021556069, -0.0716510341, -0.0203063264, -0.0345246792, -0.0014087026, 0.0340279564, 0.0545683540, 0.0951772034, 0.0053984858, -0.0806834102, 0.0471113026, -0.0331057347, -0.0283775982, -0.0070257634, 0.0000901216, 0.0413596369, -0.0534387231, 0.0417171344, 0.1433517188, -0.0061508603, 0.0196806099, -0.0592942908, 0.0058740415, 0.0100405179, 0.0540095456, 0.2428778112, 0.0777303651, 0.0550693609, 0.0293214824, -0.0609715320, -0.0253111646, 0.0087097669, -0.0696424395, -0.0644311607, 0.0558521077, -0.0942086577, -0.0612812117, -0.1315850914, -0.0037700497, 0.0474327840, -0.0453991443, -0.0689862221, 0.1105785295, -0.0202389937, -0.0304683261, -0.0960663036, -0.0881389678, 0.0048327153, -0.0219889674, -0.0538643152, 0.0350918695, 0.0368043035, -0.0872383714, -0.0439501368, -0.0385979898, 0.0127263367, -0.0304067843, 0.0172457807, 0.0297404397, -0.0062691402, -0.0361011513, -0.0508570671, -0.0492386185, -0.0617095865, 0.0630195439, -0.0067911609, -0.0274053905, -0.0197907817, -0.0054849465, 0.0252139177, -0.0486883260, 0.0550975949, -0.0367982648, 0.0566206500, 0.0091956658, -0.1449187100, -0.0072718118, -0.0875641778, 0.0140183540, 0.0306442603, 0.0415036567, -0.0544012748, 0.0236834045, -0.0370979644, -0.0688886717, 0.0188435055, -0.0127906315, -0.0290708952, -0.0257716179, -0.0398168117, -0.0196245667, 0.0005006809, 0.0371060818, -0.0558201596, 0.0491959937, -0.0056246631, -0.0791613460, -0.1389661580, -0.0757345036, -0.0758735389, -0.1095609516, -0.0308694858, 0.0245432910, 0.0414956659, 0.0030735417, 0.0829710513, 0.0352183878, 0.0689876601, 0.0184014887, 0.1330569386, 0.0887460113, 0.0071711033, 0.0513324924, -0.0098049184, -0.0028286122, -0.0108755771, -0.0847309008, 0.0260638408, 0.0199533422, -0.0296458080, -0.0593925975, -0.1077580675, -0.0081833322, -0.0590627342, 0.0042634369, 0.0480746105, -0.0191299934, -0.0070708697, 0.0395335630, -0.0408135913, -0.0045222826, -0.0669996068, -0.0224537868, -0.0461116619, 0.0364215076, 0.0412307009, -0.0581676066, -0.0765924603, -0.0547326505, -0.0103862425, 0.0046496536, -0.1364130229, 0.0138174733, 0.0019297949, 0.0130516235, -0.0568904690, 0.0048362492, -0.0614015311, -0.0144609744, -0.0469036251, -0.0232249238, -0.0487167984, 0.0418071114, 0.0414224043, -0.0052500996, -0.0370780081, 0.0508282222, 0.0198049527, -0.0631833524, 0.0110407891, 0.0846002176, -0.0985127166, 0.0275947489, -0.0002943145, 0.0694026649, -0.0817799270, 0.0063013420, -0.0495624952, 0.0389016382, -0.0580631234, -0.0111074364, -0.0340309851, 0.0573722571, -0.0090406490, 0.0742924586, -0.0293155815, 0.0089390092, 0.0303830542, 0.0477208346, -0.0517392494, 0.0329837725, 0.0473540872, 0.0543345101, -0.0556029044, -0.0140651446, -0.1085338295, 0.0273366980, -0.0492158160, 0.0221448261, -0.0428515486, -0.0469755344, -0.0371563621, 0.0643958449, 0.0803879872, -0.1655837893, -0.0407073312, -0.0179910734, -0.1634169519, 0.0505032986, -0.0198560301, -0.0393449515, -0.0873636082, -0.0602970719, -0.0300429594, 0.0392703302, -0.0795441642, -0.0914497823, -0.0454201996, 0.0250926614, -0.0100204386, 0.0964310989, 0.0442440622, 0.0596937835, 0.0121723451, -0.0576751232, -0.0092388391, -0.0195163004, -0.0469530709, 0.0947202072, -0.0581536442, 0.0041631255, -0.0157753751, -0.0410741270, 0.0483653136, -0.0654945076, 0.1429697126, 0.1195171177, -0.0395360924, 0.1260467321, -0.0517289825, 0.0610119067, 0.0390503369, -0.0191959739, 0.1657341421, 0.0615137517, 0.1005701199, -0.0546746291, -0.1110020727, 0.1391775459, -0.0044854418, -0.0137427319, -0.0234879814, 0.0467860587, 0.0350300707, -0.0163400304, -0.0367407911, 0.0418773443, -0.0409945436, -0.0077728704, 0.0560522676, 0.0961668268, -0.0373059884, -0.0424447916, -0.0001412107, -0.0501045771, 0.0410059243, 0.0824359432, -0.0831900090, 0.0156379193, -0.0081946701, -0.0428260975, 0.0233653244, 0.0332473405, 0.0611904077, -0.0550388023, 0.0054159919, 0.1047669053, -0.0001143571, -0.0650426373, 0.0614610948, -0.0895470157, -0.0076310621, 0.0389677621, -0.0178596210, 0.0580096170, 0.0481102206, -0.0455524549, 0.0111762695, -0.0243425146, 0.0182556696, -0.0545740724, 0.0886990950, 0.1152558327, -0.0300350115, 0.0210061986, -0.0527257919, 0.0654817000, 0.0079832086, -0.0972239450, 0.0361361839, 0.0414853506, -0.1190765947, -0.0455804914, 0.0067721205, -0.0595905110, -0.0224009454, 0.0542564131, -0.0092582107, 0.0109306201, -0.0461894646, -0.0361058153, -0.0679321885, -0.0647091642, -0.0607057661, -0.0336979553, 0.0297652762, -0.0146827949, -0.0490957536, 0.0082289381, -0.0455572084, 0.0290709846, 0.0068505830, 0.0076217558, -0.1461454928, -0.0042766784, 0.0498774089, -0.0233718324, -0.0272645243, 0.0404644497, -0.0117659103, 0.1015607789, -0.0090662800, -0.0194372814, 0.0277340747, -0.0030624615, 0.0121090394, 0.0471030176, -0.1213516369, 0.0303586405, 0.0313728563, -0.0203567520, 0.0837770775, 0.0394977890, -0.1061831638, 0.0134549541, -0.0040014032, -0.0516650453, 0.0419953875, -0.0123792766, 0.0168796573, -0.1312809587, 0.0257735569, 0.0446103215, 0.0127663175, -0.0408604890, -0.0719128922, 0.0712247565, 0.0543939061, 0.0100134900, 0.0365230255, 0.0311662666, 0.0217264369, 0.0666721612, -0.0253530685, -0.0190260913, -0.0733316615, -0.1028728485, -0.0249081608, 0.0083476529, -0.0018946470, -0.0465320982, -0.0069082170, 0.0465903394, -0.0113146612, -0.0225494802, 0.1210839674, -0.0214638878, -0.0145302983, 0.0266286097, 0.0540608540, 0.0586904325, -0.0123233693, -0.0285791736, -0.0528833941, -0.0456549861, -0.0461248979, 0.0102047455, -0.0161153432, 0.0114244996, 0.0070783333, 0.0461881384, -0.0017758916, -0.0613548309, -0.0368052423, -0.0162403714, 0.0225019082, 0.0569820218, 0.0112651456, 0.0166323557, 0.0659290552, 0.0552502722, -0.0708150864, -0.0495888814, -0.1327376664, 0.0497125201, 0.0514333583, -0.0121108107, -0.1456920207, -0.0366958641, -0.0007862954, 0.0165944658, -0.0254450906, 0.0541887358, -0.0396650918, -0.0086511960, -0.0362960584, -0.0367601514, 0.0275882967, 0.0259325709, -0.0207426827, -0.0930119604, -0.0492219329, -0.0401994735, -0.0176762845, 0.0313211791, -0.0547987334, 0.0347100757, -0.0995185226, 0.0383238755, -0.0966299847, 0.0753631815, 0.0008626579, -0.0367456004, 0.0258646812, 0.0328113995, 0.0008119904, 0.0269078556, 0.0935723707, 0.0213447195, 0.0628641769, 0.0044367407, -0.0237265080, 0.0429799892, -0.0283735543, 0.0389657542, -0.0077793873, 0.0159098059, -0.0530939326, 0.0069133011, -0.0168790333, 0.0393366516, -0.0179125126, -0.0191409532, -0.0022043006, -0.0533163734, -0.0082091475, 0.0453235693, 0.0020093762, 0.1530121565, 0.0976602808, -0.0947119147, -0.1198502332, -0.0068723913, -0.0055927425, 0.0220259614, -0.0351172090, -0.0183199160, -0.0277496837, 0.0445225164, 0.0365807079, -0.0291559156, 0.0570490099, -0.0935526788, -0.0592291728, 0.0475775898, -0.0280335881, 0.0900946036, 0.0407817625, 0.0962705314, -0.0530972220, 0.0395523496, 0.0041927956, -0.0386682078, 0.0851099119, -0.1079513729, 0.0150911249, 0.0319971927, -0.0532966889, -0.0311625917, -0.0149547197, 0.0691092014, 0.0314076096, 0.0239139292, -0.0363125652, -0.1245694906, 0.0279655047, 0.0538271554, 0.0080553433, -0.0607818365, 0.0245217644, -0.0130697098, 0.1737554669, -0.0199637171, -0.1321760714, 0.1337708235, -0.0438322835, -0.0051802499, -0.0396078229, 0.1497748494, -0.0233355239, 0.0018579941, 0.0023501180, -0.0027376292, 0.0548825227, -0.0430699512, 0.1523268223, 0.0789583996, -0.0550726727, -0.0672619119, 0.0080113048, 0.0142473448, -0.0601427145, 0.0540816560, -0.0093792425, 0.1128571555, -0.0586310923, 0.0014689140, -0.0443498194, -0.0037794411, -0.0257722959, -0.0330913365, -0.0701776221, 0.1108385324, -0.0377884842, -0.0082886461, 0.1559428573, -0.0663788766, -0.0663314685, 0.0120829409, 0.0316919833, -0.0017212050, 0.0130732022, 0.0148310112, -0.0220342465, 0.0038876012, -0.0439297184, 0.0012606826, 0.1645399034, 0.0431310311, -0.0135787763, 0.0368506536, -0.0642250031, 0.0221660305, 0.0307568498, -0.1134496406, -0.0054387385, 0.0275905393, -0.0502847731, 0.0355826318, -0.0101007922, 0.0010727122, -0.0311050676, 0.0263408981, 0.0244338289, 0.0232855827, -0.0203957893, -0.0556182414, -0.0362818837, -0.1318211854, 0.0090160137, 0.0091103399, 0.0057752691, 0.0314633548, -0.0352727547, 0.0099286633, 0.0274341051, -0.0472472198, -0.0300241280, 0.0512231961, -0.0321174823, -0.0142654087, -0.0612299778, 0.0549060963, 0.0200661458, 0.0106984619, -0.0540121868, -0.0056586410, -0.0297021717, -0.0115549695, 0.0002580138, 0.0625493973, 0.0143157253, 0.0189252980, -0.1432804018, 0.0508922972, 0.0553087182, 0.0835205615, 0.1261124015, -0.0519955195, -0.0199038163, -0.1044490486, -0.0493069962, 0.0382150784, -0.0589051358, 0.0470785610, -0.0270535853, -0.0329063833, 0.0435857475, -0.0200902522, 0.0404121988, -0.0395593420, -0.0143970624, 0.1020693630, 0.0355815776, 0.0382770076, 0.0052760146, 0.0094769392, -0.0277633294, 0.0414058156, -0.0379445702, -0.0827806443, 0.0301201157, -0.0312450733, 0.0771648735, -0.0439052433, 0.0419483669, -0.0217891987, -0.0097260503, -0.0135894325, -0.0924071744, 0.0163569730, 0.0706323385, 0.0365578681, -0.0470057800, -0.0095041543, 0.0143248197, 0.0471582785, 0.0202688072, 0.0668674037, -0.0015502919, 0.0252065323, -0.0036083043, -0.0442040451, -0.0772816464, 0.0313812159, -0.0604081489, 0.0083256392, -0.0018285388, 0.0440345183, -0.0418311059, -0.1199077964, 0.1172635555, 0.0442750454, -0.0366441309, -0.0712199509, -0.0486980379, -0.0167929828, 0.0122112976, -0.0030507301, 0.0184441097, 0.0264237933, -0.0314866751, -0.0226345882, -0.1639685631, -0.0247969814, -0.0504330359, 0.0270048287, -0.0178703126, -0.1177859679, -0.0372116044, 0.0133346776, 0.0212048404, -0.0376076326, 0.0552999415, -0.0087053729, 0.0248363558, -0.1128387228, 0.0193687938, -0.0619654953, -0.0042093499, 0.0350647010, 0.0310434233, -0.0093736527, -0.0153728593, -0.0617315099, 0.0311887488, 0.0361619070, -0.1081177518, -0.0449502133, -0.0033710487, -0.0123524116, -0.0097352676, 0.0208543073, 0.1174943671, 0.0353648737, 0.0731181949, -0.0181448981, -0.0244579483, 0.0346441865, 0.0331980921, -0.0078402273, -0.0561405607, 0.0008308417, -0.0076839998, -0.0043795528, -0.0320632271, -0.0172842406, -0.0068521784, -0.0639913753, -0.0635899901, 0.0420313664, 0.0124571910, -0.0058833910, -0.0533578843, 0.1733183414, 0.0157457292, -0.1196230501, 0.0294503681, 0.1604213864, -0.0974530578, -0.0183358006, 0.0762933269, -0.0626055673, 0.0608516149, -0.0414691456, 0.1244261786, -0.0520668775, 0.0306077302, 0.0211542863, 0.0277679078, -0.0351953059, -0.0105058104, -0.0038890326, 0.0555363707, 0.2697387338, -0.0125605501, -0.0421802178, -0.0487238504, 0.0174040161, -0.0460840873, -0.1628314257, 0.0099624656, -0.0704846233, -0.0198148265, -0.0036367103, 0.0395726301, -0.0063793212, 0.0505746007, -0.0224448796, 0.0464770943, -0.0882439166, -0.0478639193, -0.0126276538, 0.0439454429, 0.0457943566, -0.0442592502, 0.0843805224, 0.1346009821, 0.0429497771, -0.1771293432, 0.0349686854, 0.0518419519, 0.0299837757, -0.0200240053, 0.1311814189, -0.0378118381, -0.0958157331, 0.0127835684, 0.0320552364, -0.0068782531, 0.0329003744, 0.0633936450, 0.0721708536, -0.0057230331, 0.0243245829, 0.0351033211, -0.0237302799, 0.0514209047, 0.0563601069, -0.0632006675, 0.0099763507, -0.0961173251, 0.0293922331, 0.0220261831, -0.0604898483, 0.0067649707, -0.0189749561, -0.0360115319, 0.1085350588, -0.0454387553, -0.0355938822, 0.0344195142, 0.0382937193, -0.0147776883, 0.0158494413, -0.0293492302, 0.0168329775, 0.0509665124, 0.0125279557, -0.0037195645, 0.0390580669, -0.0211240314, 0.0331920721, 0.1382003427, 0.0077882293, -0.0406665243, -0.0139476154, -0.0413889252, 0.0602948666, -0.0423570164, -0.0088821361, 0.1150393710, 0.0112676946, -0.1096271724, -0.0292894803, -0.0932888612, 0.0240693428, 0.0102206953, -0.0485811681, -0.0896721333, 0.0051721726, -0.0265328065, -0.0425591283, -0.1144353971, 0.0368327238, -0.0198265631, -0.0253272913, 0.0026742786, 0.0277158134, -0.0577456877, 0.0256040990, 0.0401293114, -0.0399491452, -0.0516534634, 0.0468533933, -0.0438109003, -0.0093186665, 0.0462520458, -0.0552574247, -0.0406034291, 0.0457273759, -0.0382192843, 0.0759364516, -0.0638627931, -0.0380269215, 0.0705415085, 0.0529594608, -0.0355693884, -0.0205415990, -0.0426753424, -0.0292342063, 0.0066090883, 0.0855260268, 0.0855784863, 0.0120097389, -0.1606536508, -0.1258960515, 0.0114377802, -0.0425576307, 0.0557106324, -0.0353091434, -0.0575563423, -0.0650096610, -0.0473589078, 0.0092286253, 0.0238878280, -0.0449451730, -0.0392023660, 0.1091026962, 0.0337317996, 0.0075717294, 0.0307881776, -0.0221679509, 0.0090348162, -0.0089264521, 0.0228374731, -0.0257232245, 0.0150620416, 0.0089807818, 0.0820884705, -0.0607398227, 0.0522070192, -0.0612624250, 0.0212203804, 0.0243171137, -0.0738513023, 0.0036430128, 0.0997543037, 0.1298957914, 0.0400159806, 0.0144221168, 0.0316418856, -0.0789123625, -0.0082913786, -0.0133373328, -0.0555682778, -0.0144623211, -0.0416831449, 0.0435026772, 0.0430279374, -0.0858199000, 0.0362609141, 0.0080223614, -0.0287752636, -0.0140313990, 0.0206154715, -0.1306321174, 0.0582781807, 0.0419261642, -0.0194861796, -0.0346990861, 0.0242306478, 0.0340423472, -0.0689646155, 0.0522544980, -0.1172323674, -0.0487743691, 0.0305807237, 0.0269823503, -0.0712124854, -0.0420098379, -0.0086541008, 0.0002462472, -0.0151655944, 0.0332066119, 0.0319152363, -0.0272028726, -0.0413070023, -0.0402457938, -0.0314187333, -0.0369052142, 0.0385524035, -0.1074316874, -0.0141342208, 0.0161996856, -0.0104613258, 0.0168831684, 0.0493246242, 0.0520195737, -0.0617075823, -0.0170142576, 0.0328051411, 0.0025087022, 0.0816462785, 0.0056950562, -0.0078185005, 0.0149129163, 0.0110180378, 0.0068810848, 0.1034331620, 0.0484194830, -0.0927525535, -0.1056847945, 0.0361025222, 0.0152982362, 0.0428100266, 0.1262884140, -0.0639992729, -0.0103540896, 0.0192207824, -0.0647046417, 0.0176820867, -0.0433189236, 0.1278756708, -0.0198029354, 0.0167572647, 0.0400749482, -0.0227680709, 0.0208149739, -0.0070804544, -0.0459503084, -0.0308626331, -0.0204439946, -0.0508644506, -0.0576742552, 0.0670947433, -0.0598614104, -0.0263067819, -0.0567540862, -0.1161843240, 0.0401604995, 0.0305549130, -0.0147088263, -0.1309848726, 0.1183042899, 0.0089782886, -0.0150424605, -0.0133984108, -0.0143641951, -0.0206965990, 0.0637132600, 0.0336690210, -0.0538324080, 0.0013120808, 0.0326593928, -0.0193674546, -0.0473349132, -0.0454537049, -0.0287142750, -0.0234830715, -0.0546079203, -0.0590410531, -0.0984909758, -0.0658134446, 0.0118817603, -0.0413617752, 0.0528075807, 0.0580743738, 0.0531195588, 0.0527839772, 0.0031681471, -0.0704470426, 0.0275590960, -0.0993551835, 0.0157391205, -0.0106886989, 0.0185587760, 0.0031696437, 0.0228869542, -0.0655139387, 0.1154727787, 0.0525324754, 0.0483654849, 0.0539925434, -0.0660620406, -0.0464492850, -0.0207981393, -0.0201483537, 0.0582219176, 0.0350539424, -0.0384478606, 0.0398811288, -0.0006800737, -0.0189300459, 0.0757795423, -0.0102183381, 0.0259731822, -0.0438871793, -0.0253709033, 0.0657233968, -0.0483588204, 0.0516993254, -0.0391548425, -0.0460804366, 0.0453493521, 0.0498647541, 0.0021270723, 0.0002845430, -0.0626743734, 0.0485683866, 0.0419301242, -0.0429316126, 0.0549779683, -0.0229716301, 0.0735831037, -0.0477383435, 0.0037210307, -0.0308734942, -0.0342482626, 0.1321750432, 0.0224680156, 0.0411495678, 0.0428491682, -0.0425448231, 0.0080841444, -0.0566323288, -0.0630438775, 0.0097952839, 0.0293646678, -0.0463589914, -0.0125971800, 0.0313288122, -0.0543849505, 0.0085005723, 0.0307901166, 0.0253152847, -0.0232145675, -0.0559967197, -0.0258924179, -0.1422533691, -0.0239653178, 0.0178435314, -0.0083942953, 0.0585762486, -0.0437922738, 0.0000616887, 0.0492216609, -0.0580534637, -0.0410897024, -0.0092810942, -0.0383678302, 0.0179931354, -0.0174149070, 0.0201625414, -0.0030782544, -0.0582219772, -0.0401547067, 0.0334015302, -0.0693250075, -0.0861040875, 0.0177817754, -0.0412748568, -0.0419350527, 0.0303993747, -0.0644845441, -0.1192993969, -0.0059277536, -0.1211532801, 0.0816143453, -0.0636878014, -0.0232968032, -0.2207828313, -0.0758730397, 0.0254021194, -0.0389655307, 0.0539187156, 0.0097498642, -0.0344785750, -0.0419247635, 0.0077915383, -0.0328480266, -0.0565719195, -0.0092813186, 0.0181489810, 0.1201368719, 0.0077423304, 0.0112238238, -0.0346798263, 0.0222302582, -0.0508300774, -0.0525853708, -0.0818761736, -0.0201476831, 0.0180838387, 0.0023306769, -0.0205819085, -0.0466909595, 0.0615362823, 0.0471377932, -0.0797929764, 0.0942027047, -0.0108423531, 0.0165679622, 0.0020335962, -0.0049775802, 0.0539889485, -0.0219377261, 0.0569666587, 0.0118787447, -0.0000022607, -0.0049922387, -0.0101653840, -0.0166674890, -0.0393277556, -0.0111232838, -0.0038970960, 0.0701849163, 0.0362547524, -0.0163081475, -0.0127587430, 0.0448918082, 0.0429095775, -0.0347569995, 0.0337839313, -0.0488166846, -0.0315087438, 0.0655551404, -0.0365705267, 0.0149876941, -0.0017704613, 0.0224515535, -0.0575591512, 0.0382914245, -0.0259573404, -0.0161174107, -0.0942469314, 0.0165303573, -0.0376067534, 0.0483776182, -0.0420397669, 0.0376602001, -0.0134673398, -0.0414700173, -0.0584125742, 0.0067382264, 0.0313446820, -0.0075818459, -0.0192713682, -0.1236509830, -0.0584420525, -0.0119217271, 0.0111337723, -0.0410126597, 0.0480892137, -0.0259562247, -0.1505437344, -0.0479736775, -0.0252190251, -0.0043553854, 0.0948269144, -0.0143012777, 0.0008754173, -0.0424549244, 0.0438391417, 0.1056340635, -0.0334633887, 0.0365386643, -0.0491771325, -0.0508599170, -0.0174358077, 0.0291396994, -0.0247958004, 0.1164995506, -0.0321537629, 0.0416620411, -0.0587476306, 0.0513972603, 0.0399767868, 0.0232453626, -0.0249617808, -0.0177239385, 0.0322112590, -0.0673501194, -0.0194114074, 0.0002192610, 0.0215229243, 0.0510044359, 0.0820184797, -0.0998942703, -0.1242209598, 0.0719574168, -0.0583452284, -0.0332173631, 0.0370629467, -0.0631391630, -0.1485849321, 0.0337105505, -0.0918477625, -0.0033785892, -0.1437342167, -0.0236044284, -0.0530880541, -0.0395506211, 0.0389680415, -0.0019113841, -0.0411398746, -0.0558263548, 0.0103502534, 0.0145517699, 0.0084243603, 0.0461277179, 0.0475961566, 0.0306947120, 0.0051939078, 0.0153965345, -0.0158747882, 0.0189139582, -0.0251550898, -0.0185692459, 0.0442907698, -0.0408482216, 0.0712279826, 0.0031608453, -0.0818703026, 0.0108703710, 0.0346857309, 0.0323167406, 0.0877915695, 0.0054300423, -0.0578205474, -0.0525596030, 0.0677085668, 0.0117054675, 0.0398857929, 0.0360448174, 0.0282612685, 0.0292574111, 0.0288091861, 0.0198980700, 0.0153875537, -0.0516825393, -0.0116837993, -0.0281971823, -0.0638056025, -0.0286595672, 0.0221875347, 0.0347864926, 0.0033334806, -0.0532429144, -0.0407999195, -0.0084807910, 0.0171818938, -0.0101551246, -0.1364136487, -0.0455194227, 0.0680717304, 0.0104779787, -0.0664541870, -0.0610580109, -0.0043725222, 0.0896327496, -0.0021072668, -0.0700269267, 0.1056306586, -0.0423282646, -0.0675486028, -0.0090005212, -0.0005789642, 0.0550731495, -0.0335259214, -0.0626892298, -0.0487610810, 0.0261543263, 0.0376064293, 0.0113427415, 0.0724828243, -0.0056168963, 0.0422331281, -0.0034893109, -0.0109072514, -0.0063184388, 0.0036020251, 0.0057588285, 0.1050602421, 0.0453219898, -0.0609099679, 0.0380860344, 0.1351635158, -0.0553426929, 0.0389461406, -0.0004155189, -0.0188855343, 0.0402446091, -0.0412590876, -0.0402284451, -0.0075968527, 0.0701633394, -0.0303721465, 0.0103771454, -0.0376550704, 0.0176540576, 0.0246355515, -0.0497194678, -0.0512129515, 0.0577948950, 0.0105471835, -0.0066262768, 0.0042186696, 0.0611481592, -0.0268007740, 0.0351680256, 0.0503772050, 0.0414364636, -0.0473310389, 0.0054312395, -0.0980240926, 0.0202188529, -0.1061156318, 0.0620678253, 0.0328641795, 0.0544854440, 0.0271822196, 0.0215912927, -0.0595241562, 0.0705923289, -0.1234659478, -0.0261826888, 0.0224316213, 0.0174538530, -0.0137546528, -0.0611261241, -0.0203414597, 0.0657962337, 0.0329271182, 0.0360009558, 0.0005505210, -0.0388821065, -0.0289899316, -0.0297904313, -0.0463055857, 0.0572166406, -0.0040367539, 0.0506990068, -0.0090872096, -0.0320274271, 0.0274177585, -0.0153937461, 0.0312197953, -0.1165629625, -0.0514244139, 0.0228586122, -0.0345965698, 0.0523904338, -0.0000180465, 0.0264407583, -0.0331644379, 0.0857772529, 0.0744406432, -0.0170398206, 0.0708341375, 0.0764668956, -0.0208253805, -0.0152382078, 0.0331207924, 0.0361947007, 0.0017974994, -0.0103262328, -0.0274683330, -0.0240368489, -0.0458957404, 0.0439161919, -0.0501148999, 0.0294845551, 0.0368704051, -0.0429824926, -0.0155986054, 0.0201586150, -0.0201279875, -0.0093685007, 0.0409588777, 0.0341726579, 0.0023719522, 0.0116366614, -0.0419459827, 0.0491351560, 0.0470207073, -0.0597416535, -0.0121644968, 0.0395563953, -0.1251742095, 0.0161258243, 0.0174801163, 0.1448283345, 0.0133257797, 0.0318032689, 0.0049877684, -0.0134571837, -0.0485981777, 0.0101081701, 0.0026991032, 0.0504304543, 0.0337723754, 0.0045078713, -0.0542021692, 0.0178903695, -0.0414768457, -0.0601188876, -0.0192202944, -0.0641445667, 0.0208488759, 0.0625060871, -0.2411312461, -0.0258331541, -0.0351202972, 0.1750278771, 0.0846804902, 0.0508018248, 0.0327094309, -0.0255433153, -0.0014334432, 0.0701095313, -0.1338486671, 0.0379534066, 0.0927517340, 0.0027034788, 0.0353368558, -0.0198640767, -0.0413334705, 0.0451794378, 0.0149512812, -0.0516880266, 0.0136145623, 0.0407411084, 0.0589080267, -0.0654011667, 0.0141662937, -0.0087987892, 0.0048942943, 0.0134857502, 0.0046516983, -0.0069807479, -0.0413553007, 0.0668766052, 0.1045219004, 0.0183569156, -0.0173742939, -0.0596491396, -0.0165988021, -0.0230181292, 0.0545181222, -0.0526631586, 0.0228021424, 0.0633841157, -0.0593598634, 0.0136186965, 0.1008231714, 0.1930806786, -0.0221548527, -0.0493365563, 0.0314106122, 0.1210681573, 0.0578619055, 0.0692548007, -0.0309240837, -0.0635404885, -0.0268911719, 0.0237670429, -0.2075337172, 0.0022196800, -0.0519185551, -0.0541436225, 0.0471734516, 0.0043767458, 0.0604761168, 0.0685776249, 0.0937309340, 0.2204957604, -0.1049862206, 0.1289671510, -0.0368431844, -0.0283419415, -0.1398744881, 0.0338313989, -0.0048293564, 0.0462911166, -0.0199645832, 0.0129801929, -0.0099842856, 0.0407276601, -0.0264333878, -0.0087407650, -0.0247569662, 0.0821625069, 0.0039266236, 0.0766782612, -0.0467869267, -0.0382750034, 0.0240140073, 0.0135162231, -0.0659799874, 0.0617750175, -0.0249300301, 0.0013729965, -0.0506565981, -0.0170790683, -0.0279291365, -0.0155205401, -0.0035536310, -0.0143614262, -0.0889304802, -0.0028575673, 0.1086177230, -0.0340601280, -0.0266087577, -0.0421884954, 0.0431372263, 0.0094600143, 0.0266298726, -0.0052992753, 0.0110254847, -0.0406709909, 0.0383262821, 0.0070701828, -0.0234182961, 0.0862071440, -0.0261669047, -0.1005589515, -0.0530825034, -0.0191256441, 0.0359329395, -0.0457756817, -0.0195516385, -0.0767074972, -0.0599620566, -0.0096287420, 0.0230093300, 0.0446070433, -0.0038295349, -0.0311730057, 0.1393794119, -0.0309113003, -0.0412452668, 0.0238157157, 0.1691612005, 0.0591527410, -0.0038411550, 0.0100244842, 0.0943190008, 0.0313021168, 0.0051637008, -0.0061075715, -0.1015543640, -0.1233815327, -0.0436128229, -0.0169804841, 0.0348265357, -0.0255344883, -0.0228566602, -0.0278735515, 0.0415657386, 0.0408725850, -0.0662847906, 0.0030188451, 0.0124572832, 0.0709021091, 0.0070570898, 0.0075632799, -0.0016767924, -0.0632230863, 0.0245339684, -0.0771072954, 0.0866866037, -0.0194407701, 0.0183175914, -0.0305355508, 0.0199053306, -0.0535804965, -0.0441362076, -0.0391908437, 0.0671518818, -0.0109589826, -0.0280917324, 0.0335475765, -0.0039397599, 0.0109213656, 0.0516344756, -0.0667902529, 0.0537876375, 0.0449947566, -0.0365545936, -0.0005375214, -0.0566121228, 0.0552446693, 0.0168181192, 0.0003882733, -0.0716068372, -0.0699925199, 0.0094189448, -0.0045702863, 0.0509610772, 0.0373754576, -0.0271263532, -0.0515111759, 0.0167906992, -0.1341468096, -0.0492346510, 0.0494925119, 0.0026027027, 0.0382225029, -0.0770463198, -0.0578748509, 0.0287036374, 0.0116293868, 0.0503388606, -0.0510698594, 0.0534203313, 0.0160873774, -0.0435198396, 0.0183961764, 0.0425294787, -0.0742521435, 0.0108634112, -0.0035199584, -0.0075285705, 0.0404617079, 0.0271188356, -0.0429610983, -0.0802769661, -0.0157391727, -0.0619368665, 0.0253792163, -0.0465117879, 0.0072994083, -0.0185269881, -0.0156367254, 0.0858644545, 0.0433934964, 0.0038794465, -0.0566976443, -0.1498495489, -0.0412445515, -0.0276209973, 0.0468590595, -0.0442289822, -0.0875508860, -0.0211722851, 0.0465434827, -0.0276462156, 0.0213042777, -0.0583076552, 0.0420682803, -0.0596066527, -0.0579180308, 0.0229866169, -0.0017888297, -0.0391508862, 0.0595110655, -0.0637484491, -0.0209425315, -0.1022042483, -0.0270147119, -0.0581370741, -0.0497286320, 0.0035125548, -0.0554432422, -0.0347187109, 0.0169568993, 0.0358072743, 0.0886825547, -0.0286137220, 0.0379149020, -0.0831515566, -0.0300644692, -0.0063251848, -0.0574253947, 0.0918710455, -0.0299828239, -0.0240275320, 0.0576673374, 0.0659377798, -0.0827309415, 0.0171332359, -0.0252644923, 0.0010300592, -0.0430899039, 0.0128242476, -0.0224099290, -0.0290114656, -0.0159919877, 0.0285079442, 0.0081025679, -0.0306003075, -0.0775086284, 0.0030709787, -0.0686466694, -0.0588551797, -0.0563926771, -0.0183991417, 0.0770250261, 0.0719776973, -0.0184038784, -0.0721484795, 0.0230855234, 0.0087090917, 0.0082487958, -0.0229299217, 0.0545053594, -0.0657895580, 0.0507827215, 0.0057240850, -0.0261656381, -0.0221554935, 0.0967973247, -0.0428949483, -0.0256684981, -0.0509439185, 0.2545700073, -0.0043700002, -0.1857442111, 0.0461341031, -0.0427086875, -0.0155665800, -0.0457688943, -0.0998060629, 0.0065835840, 0.0410344191, 0.0344009995, -0.0122829555, -0.0099797221, 0.0006388594, 0.0645786747, -0.0342210084, -0.0009042301, -0.1524761915, 0.0202040393, -0.1083016172, 0.0258856900, 0.1236988604, -0.0079631247, 0.1024361178, 0.0051985257, 0.0021756426, 0.0018753438, -0.0053553986, 0.0168122761, 0.0476165190, -0.0474420190, -0.0526424907, -0.0062439428, 0.0554465242, 0.0785864070, -0.0279479995, 0.0069260187, 0.0538005792, -0.0321484953, -0.0257219076, -0.0374877863, -0.0536724664, -0.0016652509, -0.0124005461, -0.0621177442, -0.0120243300, 0.0335066505, -0.0515398309, -0.0171176922, -0.0499471724, -0.0019263559, 0.1212452501, 0.0539854504, -0.0715846196, 0.0597538315, 0.0422522873, 0.0609011278, 0.0758481473, -0.0151052885, -0.0663610920, 0.0179222971, 0.0540858284, 0.0140398657, -0.0484700277, 0.0340952389, 0.0009735934, 0.0302088093, -0.0393512882, 0.0367519744, 0.0496493615, -0.0145066148, -0.0331394821, -0.0088452725, -0.0224474147, 0.0074332589, 0.0130160209, 0.0029394513, -0.0115614207, -0.1096007898, -0.0460945293, 0.0775447637, -0.0274245888, -0.0130830174, 0.0539771840, 0.0409642793, 0.0128070302, -0.0535524525, 0.0748841465, 0.0496562421, -0.0140984124, 0.0388880447, -0.0474809669, -0.0096114324, 0.0243958645, -0.0435713492, 0.0151799191, 0.1051922143, -0.0353766829, -0.0021174701, -0.0011560420, 0.0567319542, -0.0264030583, -0.0000492542, -0.0769131184, -0.0232828707, 0.0095189475, -0.0490174256, 0.0138809225, -0.0551637895, 0.0089695984, -0.0291557536, 0.0863423049, 0.0397134423, -0.0683600008, -0.0150030488, 0.0823702887, 0.0431075171, 0.0027545218, -0.0041074161, 0.0282917060, 0.0069796043, -0.1024783403, -0.0408134125, -0.0090289544, 0.0512951836, -0.0250026695, -0.0475234650, -0.0626239032, 0.0670191571, -0.0578196533, -0.1355369687, 0.0084240567, 0.0068787024, -0.0178247839, 0.0205719937, -0.0590185300, 0.0221979804, -0.0620197654, -0.0106732817, -0.0399818420, -0.0433130898, -0.0502926409, -0.0462083332, 0.0091422992, -0.0439808257, -0.0071090660, -0.0245642178, -0.0253918245, -0.0654410347, 0.0000570772, 0.0537110902, 0.0462748110, 0.0120965336, -0.0061349291, -0.0404109508, 0.0490058474, 0.1072003394, 0.0548681915, -0.0194072351, -0.0207690727, 0.0530950502, -0.0445024297, -0.0658086613, 0.0373097658, -0.0498893261, 0.0299987644, 0.0134366732, -0.0215104744, 0.0633017272, -0.0140044894, 0.0274392273, -0.0236441698, -0.0190728698, 0.0423424467, 0.0226058178, 0.0341347568, -0.0783732459, -0.0779765844, 0.0795778334, -0.0625807121, -0.0488380939, 0.0412717797, -0.0006350902, -0.0629560426, 0.0609862879, 0.0270518735, -0.0108451573, -0.0657392293, 0.1579032838, -0.0229818523, -0.0346093476, -0.0378306359, 0.1513075531, -0.0623625256, -0.1408383399, 0.0543399379, 0.0388156734, -0.0368605405, 0.0426640511, 0.0219922196, -0.0334356129, 0.0412694626, 0.0218319129, -0.0310834125, 0.0098722074, 0.0005150631, 0.0427113175, 0.0167674758, 0.0222388003, -0.1420284808, 0.1227552295, -0.0656689927, -0.0142975375, 0.0118203452, -0.0605632737, 0.0997868776, 0.0154230343, -0.0371458270, -0.0554296374, 0.0873769298, -0.1201026887, -0.0405415706, -0.0401542708, -0.0294766668, 0.1286919415, 0.0064784470, -0.0221002698, -0.0078309067, 0.0249217618, 0.0523930714, 0.0198292620, 0.0020407361, -0.1230843365, -0.0130238319, 0.0394382961, 0.0412743129, 0.0202287305, 0.0571195222, 0.1615921259, 0.1424662620, -0.0744083002, -0.0389495268, -0.0274957027, 0.1221545786, 0.0399257392, 0.0694555119, -0.0323584639, 0.0126788821, 0.0500861108, -0.0485301055, 0.0430226289, -0.1119116023, -0.0842945054, -0.0127740037, 0.0177457742, 0.0100894226, 0.2041474134, -0.0357647464, -0.1426654011, -0.0360081717, 0.0041997619, -0.0376198217, -0.0470048077, 0.1421214640, -0.0927697271, -0.0098878555, 0.0559039786, -0.0012309608, 0.0179393254, 0.0134197557, -0.0164973177, 0.0246972404, 0.0841608942, 0.0946637467, -0.0061216713, -0.0631672591, -0.0058038607, -0.0707677081, -0.0127663985, 0.0532256179, 0.0334459841, 0.0663662627, -0.0558254868, -0.1371824890, 0.2212976813, -0.0355730355, -0.0228411257, 0.0322498120, -0.0044884132, 0.0350466222, -0.0586745553, -0.0584448725, -0.0563415773, 0.0006949194, -0.0170883164, 0.0153247127, 0.0156497397, -0.0229074061, -0.0384989642, 0.0338561647, 0.0382183455, 0.0449451394, 0.0348304734, -0.1071868092, 0.0279917400, -0.0578104593, -0.0140930172, 0.1071308926, -0.0439320989, -0.0185096171, -0.0261875801, 0.0386782363, 0.0908280313, 0.0592014790, -0.0428792723, 0.0080600167, 0.0049432963, -0.0218494236, -0.0287843831, 0.0067018052, -0.0404200330, -0.0403391644, -0.0302638132, -0.0277194083, -0.0539885536, 0.0291138925, -0.0507730581, -0.0193912480, 0.0393619984, -0.0392235219, 0.0137007851, 0.0056961989, -0.0486442074, -0.0537327565, -0.1518654823, -0.0367340185, 0.0264215209, 0.0458191112, 0.0139609883, 0.0398286134, 0.0516552441, 0.0570965484, -0.0541007891, 0.0414870307, 0.1158145964, -0.0326610506, -0.0573469251, -0.0558900274, 0.0840509012, 0.0307263769, -0.0234303270, -0.0487776808, 0.0027639156, -0.0173850115, -0.2005424201, 0.0076439516, 0.0098296739, -0.0253706817, -0.0230456870, -0.1441465318, -0.1082818508, -0.0613572709, 0.0188626312, -0.0623691976, 0.0369069539, -0.0180217959, 0.0206214637, -0.0441712849, 0.0838107467, -0.0298789795, -0.0469746180, 0.1257815510, 0.0555751696, 0.0227027498, 0.0377926715, 0.0757304206, 0.0295886304, 0.0335392468, 0.0294387378, -0.0469881482, 0.1298841685, -0.0640298501, -0.0320958197, -0.0357343256, -0.0102767795, -0.0469517373, -0.0954667777, -0.0003505482, -0.0536138341, -0.0358212516, 0.0155698722, -0.0879783258, -0.0080908583, -0.0065543666, -0.0596972406, -0.0193593018, -0.0389975980, 0.0261099320, -0.0583515316, -0.0404836014, -0.0521173403, -0.0509945191, 0.0011725532, -0.0197261050, 0.0387707539, -0.0407824144, -0.0159152206, -0.0219581630, 0.0338513218, 0.1039338186, 0.0156123126, 0.0247535575, -0.0313461572, 0.0495657548, -0.0129482104, -0.0105227558, 0.1098687127, -0.0295255166, 0.0146145346, 0.0133601176, -0.0492532998, 0.0086791441, -0.0455404148, 0.0892136544, 0.0416270830, -0.0375012346, 0.0485954620, -0.0107339052, 0.0463836528, -0.0602281541, 0.0084518827, -0.0155338831, -0.0227016360, -0.0403036065, -0.0376286171, -0.1285561174, -0.0563118383, -0.0482469164, 0.0122798057, 0.0040967287, 0.0455159247, -0.0405255705, -0.0056997985, 0.0363916159, 0.1013123989, 0.0077505833, -0.0492977239, -0.0216289572, -0.0018350314, -0.0163197871, -0.1766905636, -0.0067086145, 0.0403611958, 0.0205537770, 0.0559336096, 0.1044185758, -0.0989555344, -0.0218246318, 0.0506745428, 0.0420276411, 0.0357506461, 0.0486363992, 0.0650610104, 0.0616707318, 0.1010735482, -0.0284769833, 0.0496951155, -0.0967079699, -0.0223971754, 0.0400302447, -0.0565192513, 0.0709232762, 0.0536469966, 0.0603158027, -0.0148235941, -0.0669739842, 0.1871445179, -0.0197395086, -0.0312617756, -0.0386375375, 0.1145217791, 0.0103981309, -0.0812826529, -0.0586240105, 0.0000934005, -0.0046099401, -0.0110629611, -0.0503920019, 0.1165295839, -0.0446671396, 0.0187556595, -0.0436751954, 0.0421817675, -0.0445146523, 0.0985139310, -0.0462568998, -0.0445992574, 0.0163310748, -0.0579353161, -0.0915415362, -0.0447981842, 0.0136429556, -0.0570308827, -0.0152228372, -0.0411237366, -0.0526548736, 0.0576786883, -0.1662425101, -0.0236245450, -0.0490346737, 0.0026367633, 0.0295417663, -0.0897483602, 0.0535578094, 0.0372392610, 0.0126720332, -0.0317308716, -0.0087459683, -0.0366687253, 0.1831855476, 0.0483566970, -0.0378376096, 0.0012477533, 0.0245404020, 0.0497957952, 0.0169810820, -0.0835074335, 0.1286891848, 0.1019363329, 0.0245807189, -0.0695786253, 0.0038326660, 0.0412356965, 0.0477518328, -0.0073565803, 0.0557574034, 0.0792999715, -0.0703923553, -0.0502779111, -0.0209859032, 0.1557125300, 0.0032785495, -0.0267545916, -0.0472072177, 0.0465234481, 0.0477351360, -0.0293289684, -0.0272003002, -0.0243151803, -0.0382371992, 0.0474903844, -0.0525533594, -0.0109049575, 0.0222183503, -0.0351389349, -0.0242307261, 0.0087553076, -0.0257569235, 0.0625899360, -0.0231733210, -0.0409840718, -0.0105526336, -0.0087237507, 0.1292957067, -0.0071011819, -0.0619188733, -0.0045013689, -0.0022217403, 0.0966635272, 0.0220872294, 0.0312249549, -0.0825708583, 0.0358120091, -0.0093401857, -0.0361107104, 0.0470647290, 0.0719349831, 0.0358650200, -0.0199929718, 0.0026766770, 0.0693600029, -0.0077390447, -0.0668068603, -0.0185235217, -0.0502034351, -0.0251105241, -0.0428443924, -0.0540413335, -0.0511873849, -0.0044822725, -0.0114118531, 0.0639674664, 0.0499943756, -0.0968691185, -0.0002587179, -0.0405957662, 0.0394546129, 0.0714564323, -0.0376971737, 0.0384958945, 0.0754254535, 0.0059979549, 0.0506074615, -0.0579757430, -0.0780857727, -0.0593579747, -0.0049006590, -0.0609513894, 0.0923625454, -0.0487561263, -0.0565407351, -0.0314783268, 0.0123075005, 0.0376289152, -0.0275146496, -0.0150059117, -0.0406701192, 0.0113010081, -0.0378563553, 0.0335884430, 0.0063182758, 0.0340489671, 0.0250256285, 0.0890622288, 0.0207336769, -0.0320041738, -0.0190037396, 0.0066634789, -0.0435347222, 0.0652248561, 0.0552303679, 0.1007511243, 0.0082181068, 0.0481506139, 0.0600231998, -0.0573244728, 0.0725111663, 0.0397621691, -0.0120738242, 0.0316246413, -0.1158738807, 0.0350676626, 0.0010681286, -0.0621541664, -0.0318101682, -0.0353471637, -0.0368560478, -0.0805287436, 0.0882973075, 0.0205769297, 0.0470097475, -0.0376286358, 0.0379749238, -0.0456839204, -0.0042471918, -0.0418213010, -0.0149364816, -0.0779826194, 0.0034281544, -0.0495085083, 0.0029270551, 0.1000589281, -0.0328820944, 0.0664554238, 0.0679641291, 0.0240773913, 0.0245056339, -0.0577332936, -0.0139031904, 0.0028654265, 0.0025084880, 0.0079347584, -0.0063796332, 0.0092836320, -0.0796417966, -0.0520714521, -0.0405340828, -0.0483570769, -0.0149351163, 0.0543699600, 0.0444283150, -0.0551840737, 0.0466863438, -0.0084798411, 0.0268702172, -0.0641042218, -0.0864954889, 0.0630339533, -0.0289787594, -0.0712777302, 0.0221103560, 0.0786196217, 0.0257340427, 0.0132726440, 0.0383314490, 0.0261295661, -0.0047722864, -0.0145702306, -0.0366415717, -0.0091742873, -0.0519057810, 0.0332278311, -0.0123390462, -0.0541626997, 0.0499055833, -0.0650064051, -0.0051768376, -0.0188330151, -0.0226881281, -0.0054175407, 0.0672800094, 0.2279683650, -0.0637112483, 0.0143602602, -0.0600141548, 0.0140665593, -0.0554148294, -0.0210304689, 0.0767330676, 0.0004335666, 0.0933543146, -0.0404494740, 0.0073869252, -0.0593869165, -0.0296504162, 0.1073869392, -0.0657734200, 0.0439862534, 0.0051125553, 0.1275596917, 0.0238774288, -0.1112952009, -0.0212732647, 0.0410104431, -0.0424364917, -0.0324733034, -0.0204047337, -0.0347488113, -0.0470219739, 0.0242825206, 0.0378614403, -0.0025746704, -0.0635644421, 0.0846147984, 0.0152274277, -0.0068142633, 0.0026241904, 0.0205739513, -0.0277838726, 0.0257351454, -0.0634863973, 0.0400430411, 0.0310573392, -0.0791632757, -0.1287786812, -0.1398340464, 0.0556403473, 0.1416420490, 0.0196276046, 0.0265685190, 0.0148892291, -0.0927592590, 0.0467096418, -0.1183993891, 0.0007126738, 0.0398981273, 0.0330932587, -0.0468843840, -0.0169680789, 0.0353210792, -0.0165878199, -0.0414368398, -0.0161154531, -0.0584053770, -0.0248016529, 0.0103561785, -0.0703352615, -0.0257805735, 0.0310107190, 0.0392982215, -0.0450809412, 0.0482025929, -0.0880343094, -0.0634584799, 0.1058916673, 0.0207324270, 0.0620707758, -0.0253486484, -0.0306735616, -0.1111177728, -0.0238201283, -0.0755617842, 0.0063575390, -0.0094832741, -0.0413985290, 0.0977935344, 0.2620938420, -0.0511370599, 0.0314057991, -0.0516104847, -0.0083767809, 0.0391057171, -0.0916182548, 0.0590297915, 0.0118003618, 0.0332469605, 0.0320002288, 0.0846335813, -0.0101806764, -0.0458171293, 0.0024104051, -0.0089555793, -0.0165698621, -0.0369681083, -0.0403183997, -0.0912165716, 0.0406736247, -0.0362077057, -0.0024611393, 0.0495319963, 0.0457611419, 0.1056241319, -0.0059817322, 0.1301130652, 0.0950478539, 0.0560003035, -0.0619951785, -0.0266473908, 0.1289943755, -0.0046044439, -0.0582113639, -0.0422781669, -0.0436187126, 0.0434473157, -0.0956375748, -0.0066516586, 0.0193249565, 0.0143250860, -0.0659658611, 0.0291482937, -0.0088000735, -0.0153886639, -0.0482724085, -0.0237333756, -0.0087372363, -0.0077932402, 0.0513481721, 0.0691056922, 0.0679287240, -0.0782263726, -0.0874794200, 0.0488570705, -0.0314907432, 0.1086781844, -0.0482501350, -0.0610164106, 0.0163268279, 0.0541667752, -0.0432893373, -0.0057541914, 0.1762525141, 0.0102304146, -0.0446044207, 0.0020185264, 0.0256344825, -0.0038490626, -0.0774817243, 0.0242399611, -0.0222034045, 0.0445950814, -0.0322676785, 0.0738025382, 0.0123601183, 0.0360302292, 0.0517403595, -0.0222590230, 0.0297598932, -0.0145449340, -0.0207531098, -0.0319233872, 0.0068322886, -0.0301193129, -0.0402118787, -0.0161541346, -0.0000594539, 0.0775951967, 0.0049477913, -0.0339579135, -0.0126947910, -0.0598713122, 0.0317118317, -0.0533592403, 0.0956110731, 0.0361535028, 0.0038497639, 0.0268473830, -0.1017086878, 0.0504727624, 0.0317404121, 0.0487182774, -0.0524462834, 0.0546628423, -0.0487835519, 0.1195579395, -0.1139381230, 0.0454282761, 0.0195749588, 0.0221596695, 0.0375786386, -0.0302672386, -0.0510265306, 0.0335232653, 0.0314449072, -0.0433636494, -0.0230235085, -0.1290121675, -0.0142401345, -0.0099623026, -0.0171761401, 0.1362420022, 0.0022322282, 0.0610403530, 0.0240539480, 0.0481980443, -0.1288557798, 0.0008659882, 0.0037052040, -0.0168193746, 0.1942988187, -0.0019078249, -0.0218266062, -0.0266779400, -0.0110782031, -0.0273487438, -0.0031487327, -0.1255512238, 0.1294255257, 0.0038979556, 0.0435030572, -0.0556143224, 0.0234271772, 0.0003567513, 0.0841758475, -0.1759684831, 0.1124076173, -0.0142487753, -0.1117749587, -0.0789545178, -0.0490973070, 0.0982728377, 0.0315596238, -0.0543771610, 0.1394895911, -0.0256346967, 0.0425481498, -0.0353882238, 0.0848715603, 0.0397855043, -0.0059015481, -0.0580785833, -0.0901613832, 0.0069769090, 0.0168175790, -0.0365673453, -0.0607195459, -0.0126155354, 0.0450959764, 0.1058802307, -0.0114457030, 0.0500420518, 0.0032614858, 0.0380368084, 0.0254676845, 0.0313252397, -0.0097927339, 0.0112959575, 0.0076450878, 0.0166462064, 0.0167905539, 0.0219184607, -0.0475756042, 0.0388847701, -0.0049064020, 0.0973656178, 0.0633223951, -0.0067487876, -0.0419263206, 0.0814457014, -0.0108664986, -0.0238558184, -0.0031874594, 0.0321376137, -0.0496910997, 0.0107494723, 0.0047396561, 0.0280282088, 0.0560580045, -0.0372071192, 0.0132315177, -0.0783430412, -0.0688815415, 0.0087776063, -0.0246342421, -0.0204121396, 0.0176079031, -0.0323988535, 0.0388341360, -0.0321058631, 0.0322783589, -0.0308320150, 0.0511157922, 0.0165006015, 0.0383474715, -0.0259718653, -0.0069878218, -0.0010314017, -0.0264441371, -0.0497144014, -0.0549245253, -0.0532783233, -0.0144755309, 0.0127256392, -0.0453832932, -0.0054038703, 0.1000376865, -0.0486881360, -0.0103688817, 0.0328102596, 0.0136960587, -0.0476020090, -0.0186246987, -0.1864949614, 0.0074132942, -0.0290199704, 0.0593086220, -0.0021794273, -0.0450079776, -0.0038993596, 0.1098099798, -0.0880186409, 0.1035250798, -0.1183102056, -0.0086447885, 0.0130284978, 0.0532835759, 0.0514355525, -0.0276215002, -0.0542274751, 0.0072617172, -0.0822714865, 0.0340632871, -0.0608766377, 0.0961187482, 0.0306806918, -0.0038054246, -0.0022711311, 0.0185547601, 0.0346512794, -0.1822415292, -0.0003170557, -0.0274487380, -0.0359929018, 0.0510448664, 0.0333277695, -0.0304726176, -0.0133988298, -0.0585792810, -0.0317112133, -0.0494366512, -0.0234118514, -0.0867838338, -0.0248692613, 0.0201803204, -0.0237508491, -0.0902828798, -0.0492256396, 0.0582731627, -0.0660145357, 0.0216715839, 0.1731221229, 0.0249638986, 0.0309858527, 0.0400734209, -0.0040220758, 0.1009663194, 0.0140905716, -0.0393186361, 0.0098014344, -0.0370643511, 0.0349357277, 0.0368262492, -0.0420397371, -0.0665148050, -0.0044400804, 0.0481725000, -0.1540767550, 0.0346188694, -0.0223491266, 0.0554578342, 0.0457420200, 0.0487845019, -0.0376802981, 0.0780543610, 0.1023559719, 0.1398114115, -0.1239328831, -0.1000342816, 0.0659677833, 0.0344592668, 0.0615425967, -0.0551869050, -0.0100852810, 0.0286114179, 0.1070459038, 0.0109223584, 0.0184545107, 0.0502602607, 0.0414249003, -0.0100561259, -0.0606632642, -0.0524647906, -0.0367353186, 0.0597580038, 0.0098861009, -0.0516157262, -0.0262243561, -0.0284543298, -0.0020080777, -0.0213974044, 0.0233870689, -0.0366553180, 0.0429594368, -0.0065050693, -0.0603646524, 0.0532699674, -0.0170880333, 0.0660014600, -0.0185489971, -0.0620197915, -0.0293065514, 0.0220989231, -0.0641357154, -0.0312380623, -0.0399910435, 0.0343886130, 0.0775589570, -0.0011635565, -0.0994466096, 0.0507408008, 0.0355699882, 0.0486512966, -0.0174593665, -0.0073856553, -0.0067961533, -0.0480868742, -0.0356927887, 0.0075355205, -0.0594104081, 0.0002873495, 0.0229737461, -0.0501749106, 0.0536018386, -0.0243458804, 0.0216911044, -0.0150898788, 0.0243814737, 0.0846360475, 0.0688422918, 0.0057744361, -0.0320335738, 0.0656949282, -0.0347504802, 0.0471906476, -0.0105365794, -0.0144346645, 0.0526928864, 0.0228016302, 0.0857233703, -0.0357852578, 0.0735718161, -0.0247052219, -0.0370977856, -0.0189736560, -0.0209511239, -0.1190202311, 0.0127682304, 0.0734605491, -0.0352364257, 0.0352737084, 0.0526157059, 0.0435492955, 0.0349367671, 0.0085534062, -0.0567950010, 0.0011118876, -0.0376388058, -0.0460157283, 0.0212672465, -0.0352912769, -0.1499535590, -0.0375765264, -0.0639935732, 0.0041800821, 0.0720165893, -0.0308759063, -0.0528264493, -0.0057432931, -0.0813652053, 0.0436698981, 0.0688511059, -0.0175345428, -0.0823547244, 0.0821199566, -0.0512908772, 0.0252788048, -0.0025271415, -0.0713084862, 0.0248627346, -0.0638700500, 0.0060812416, 0.0173574295, 0.0270887427, 0.0318866968, 0.0438868701, -0.0190011356, -0.0534580052, -0.0093291039, 0.0376353413, -0.0642484799, -0.0074233781, 0.0670477599, 0.1329969913, 0.1048718244, -0.0896240696, 0.0543914959, -0.1340590715, -0.0498451553, 0.1556127965, 0.0005817537, 0.0812131166, 0.0671938211, -0.0517233722, -0.0391748510, 0.0710077062, 0.1626285613, 0.0003677776, 0.0269561857, 0.0391376652, -0.0265347790, 0.0467306189, -0.0346479453, -0.0382058546, 0.0127382437, -0.0375358202, 0.0041539539, -0.0447851233, -0.0898483172, 0.0219762772, -0.0567939244, -0.0052096858, -0.0637162477, 0.0103971623, 0.0210150387, 0.0141370948, 0.0098137567, -0.1071908250, -0.0297336802, -0.0416190587, -0.0527621508, -0.0735213235, -0.0531020537, 0.1181422472, -0.0516780838, 0.0300170593, -0.0612894930, -0.0277507436, 0.0366621986, -0.0224279407, 0.0109021701, 0.0338610373, -0.0220839139, 0.0285901539, -0.0775521845, -0.0190424025, -0.0013504756, -0.0078834966, 0.0465013348, 0.1179823726, 0.0491868183, -0.0339059643, 0.0396514647, -0.0060991356, -0.0156399310, -0.0487388037, 0.0296506658, -0.0844878629, 0.0202251263, 0.0323335081, -0.0518985018, 0.0104504051, 0.0313755162, -0.0272473879, -0.0234427750, -0.0276085120, -0.0038758242, 0.0745721683, 0.0066263536, 0.1025057137, 0.0084914081, -0.0459257662, 0.0077705653, -0.0190272052, 0.0086065428, 0.0041392483, -0.1051883772, -0.0010764077, -0.0136860134, -0.0087711103, 0.0001681090, 0.0369843580, -0.0314389467, -0.0279903263, 0.0353236087, 0.0029850441, 0.0092870193, -0.0652167574, 0.0040777400, -0.0451715551, 0.0707671717, -0.0188531298, -0.0332995579, 0.0735758469, -0.0039315890, -0.0158713851, 0.0268251132, 0.0734877214, 0.0489617363, -0.0761415958, 0.0188194402, -0.0770816505, -0.0459206589, 0.0340738371, 0.0530721806, -0.0553043857, 0.0036767453, -0.0275985934, -0.0394181050, 0.0217090026, -0.0258098561, 0.0471481644, -0.0479333922, -0.0414754115, 0.0546004325, -0.0362377912, -0.0228661299, -0.0303702615, -0.0531715117, 0.0240633450, 0.0656182095, 0.0154834185, 0.0458007045, -0.0953209773, -0.1522754431, -0.0397615880, -0.0471789129, 0.0451136902, 0.0071809106, -0.0066024731, 0.0295553058, -0.0363579392, -0.0694669634, -0.0232026093, -0.0964170396, -0.0065896153, -0.0601267442, -0.0469280034, 0.0120183751, 0.0013872670, -0.0745242164, -0.0313191302, -0.0633754134, -0.0023480246, -0.0089832740, 0.1028224006, -0.0792162195, 0.0490010567, 0.0384594277, -0.0363182276, 0.0135168741, -0.0293052457, 0.0802361816, -0.0335553810, 0.0857084170, 0.0373265892, -0.0285223667, 0.1493975222, 0.0224767532, 0.0714338720, -0.0587761775, -0.0182349365, 0.0337468125, -0.0342991091, -0.0378876850, -0.1780007184, 0.0211279541, -0.0540157147, -0.0650097579, -0.0456471443, -0.1139971316, -0.0374942534, -0.0266647190, 0.0362016633, 0.0422503613, -0.0141159119, -0.0378822833, 0.0340862162, -0.0285165887, -0.0362581685, -0.0255476255, 0.0516171791, 0.0526248664, -0.0544076711, -0.0034196272, 0.0354474038, 0.0166495293, 0.0165171698, 0.0725711808, -0.0115974210, 0.0064696288, 0.0181588586, 0.0261011515, 0.0518353693, 0.0072083795, 0.0376763605, 0.0413617902, -0.0538968481, -0.0075927274, -0.0238741282, -0.0140894447, -0.0107272882, 0.0274904519, -0.0304841883, 0.0778848603, -0.0626768321, 0.0263389423, 0.0372595154, 0.0519111119, 0.0161335040, 0.1392397583, 0.0447428413, 0.0030915029, -0.0043633925, -0.0149627086, 0.0301027335, -0.0413108654, 0.0027434346, 0.0060776961, -0.0381161645, 0.0692580044, -0.0214581490, 0.0525099225, -0.0880102217, -0.0059287865, 0.0064798566, 0.0648028031, 0.0739410147, 0.0249393564, 0.0018559241, -0.0138367778, -0.0144263990, -0.0135053890, -0.0247510057, 0.0124450522, -0.0335880965, -0.0087689618, -0.0270371884, 0.0199250076, 0.0441642217, -0.0361825265, 0.1284440756, 0.0277477819, -0.0352655277, -0.0113404719, -0.0571540296, 0.0534004793, -0.0322964638, 0.0766841844, 0.0016120394, 0.0439870507, 0.0176996086, 0.0160732940, -0.0895456448, 0.0108574964, 0.1033672616, 0.0295536760, 0.0181975551, 0.0300949812, -0.0201559160, -0.0145600978, 0.0125569450, 0.0054026521, 0.0115602994, 0.0488668494, -0.0355253555, -0.0200921372, -0.0426399373, -0.0149162598, 0.0330508873, 0.0512194410, 0.0502689034, -0.0236946065, 0.1002044231, -0.0441169217, -0.0617559850, 0.0158516280, -0.0596982986, -0.0274724104, -0.0089126555, 0.0317045823, -0.0083305510, 0.0903419554, 0.0327045247, -0.0221584495, 0.0664951652, 0.0478686392, 0.0653343201, -0.0336672515, -0.0274825804, 0.0359160639, 0.0731128007, 0.0483963117, 0.0222068969, 0.0409079604, 0.0500658043, -0.0249061864, -0.0099550188, 0.0333555192, -0.0231737532, -0.0757837743, -0.0539399087, 0.0520880930, 0.0400102474, -0.0041710436, -0.0336042978, 0.0067502004, -0.0323450528, -0.0357161127, -0.0114097111, -0.0496028066, -0.0018386915, 0.0853723288, -0.0696445405, -0.1002336591, -0.1679288298, -0.0967680290, -0.0323871486, -0.0377838388, 0.0172211379, -0.0210015364, -0.1025224105, 0.0472561568, -0.0581446327, -0.0472118035, 0.1313133240, 0.0365970246, -0.0439465530, -0.0460968800, 0.0079077883, -0.0570844598, -0.0526238866, -0.1894129664, 0.0477383174, 0.0234374478, -0.0273548290, -0.0019046945, 0.0178891402, -0.0309639182, 0.0263761841, -0.0397347063, -0.0340701528, 0.0078769987, -0.0495496280, 0.0182761326, -0.0268574934, 0.0363654010, 0.0317127295, 0.0720732361, 0.0962785706, 0.0413226970, -0.0123622231, -0.0475131124, 0.0489538275, 0.0004368674, 0.0693331808, -0.0041579595, 0.0059596356, 0.0596694611, -0.0396191590, -0.0425792597, -0.0637166277, -0.0043553608, -0.0105872191, -0.1241363809, -0.0645447075, -0.0414928645, -0.0149493143, -0.0526009277, 0.0488999933, -0.0411504172, 0.0325134955, -0.0612962991, 0.0300730541, 0.0083980253, 0.0114659760, 0.0148274051, 0.0190928578, 0.0921881869, -0.0647396520, -0.1106104478, -0.0437493101, 0.0504570268, -0.0308735278, -0.0100775138, 0.0959479287, 0.0225659758, -0.0666691512, 0.0009559290, -0.0331964307, 0.0021047147, -0.0174694005, 0.0247755237, -0.0248784665, 0.0576529913, -0.0098826140, -0.1316034794, -0.0636158586, -0.0562134609, -0.0424595848, -0.0527221002, -0.0688994750, 0.0099460492, -0.0157773029, 0.0272897799, -0.0663958266, 0.0038526005, 0.0163354333, 0.0427382961, -0.0690273643, -0.0079501076, -0.0626609623, 0.0167899821, -0.0198825803, -0.0115352925, 0.0125466399, 0.0107004540, -0.0783862472, -0.0251311548, -0.0279660188, 0.0088105416, 0.0149467718, 0.1012992561, -0.0030358955, 0.0116811655, 0.0323648266, -0.0559148677, -0.0056010126, -0.0454445556, 0.0212499220, -0.0350252837, -0.0313353799, 0.0533849448, 0.0589581989, -0.0320927016, 0.0062251538, -0.0194394626, 0.0282404479, 0.0016730302, 0.0263726451, -0.0780846179, -0.0278628767, 0.0376814827, -0.0632382184, -0.0248383079, -0.0014993733, -0.0594405346, -0.0254032910, -0.0027439070, 0.0201677568, 0.0071423510, -0.0173749756, -0.0377406031, -0.0666245297, 0.0692880303, 0.0521195680, 0.0076805786, -0.0045266808, 0.0726257786, -0.0559297912, 0.0389150530, 0.0186198466, -0.0315681435, -0.0450417809, 0.0514733717, 0.0928910673, -0.0019291843, 0.0080934139, -0.0628016368, -0.0286311731, 0.0538662300, -0.0121143591, 0.0615489706, -0.0176763311, -0.0951463059, -0.0706879050, 0.0731755421, 0.0583062358, 0.0417491384, -0.1010767892, -0.0003220619, -0.0418831445, 0.0068277083, -0.0194292255, -0.0065328181, 0.0977348536, -0.0415706933, 0.0519777387, -0.0576586798, 0.0528774895, 0.0647641122, -0.0097888382, -0.0505073182, -0.0610310249, 0.0260904375, 0.0047664531, 0.0087462422, -0.0780551657, -0.0160543714, 0.0103142820, 0.0238940474, -0.0643221363, 0.0455790013, -0.0393471085, 0.1274493933, -0.0484669581, -0.0712957382, 0.0297307242, -0.0319436677, -0.0547838546, 0.0490994006, 0.0447773039, -0.0214464832, 0.0892108381, -0.0081585450, -0.0017863141, -0.0098537942, 0.1232781112, 0.0358890109, 0.0042529665, 0.0272314493, 0.0531329736, -0.0858240947, -0.0319537409, -0.0535906777, 0.0406745672, -0.0203211959, 0.0157569274, 0.0078733386, -0.0359821469, -0.0917477161, 0.0275307819, -0.0324928612, -0.0364450738, -0.0543991961, -0.0668942928, 0.0001135278, -0.0286650248, -0.0065881405, -0.0145996483, -0.1393340826, -0.0436306037, 0.0318481252, 0.0454375334, -0.0625815988, -0.0332908295, -0.0413723849, -0.0247262213, -0.0456824638, -0.0238417853, -0.0020569325, -0.0643749461, -0.0411504731, -0.0045144595, 0.0690921843, -0.0211053006, -0.0674696118, -0.0224009622, 0.0394905023, -0.0073077269, -0.0494744852, 0.0428618975, 0.1266018748, 0.0363375805, -0.0291508250, 0.0328365453, -0.0574683137, -0.0237638317, 0.0414508544, -0.0033302782, -0.0624700449, 0.0840091705, 0.0658863783, 0.0856135339, -0.0291094519, 0.0619287044, -0.0057270937, 0.0573958755, 0.0919667110, -0.0548890382, -0.0564253181, 0.0467858873, 0.0402739234, -0.0260207746, -0.0672190189, -0.0263673794, -0.0039917054, 0.0469463877, -0.1289109737, -0.0310426001, -0.0157815982, -0.0067391694, -0.0593442172, 0.0052994210, -0.1446336806, 0.0503201969, 0.0060183513, 0.0361608677, 0.0078209024, 0.0472338013, 0.0805761814, -0.0333940536, -0.0427977704, -0.0617099516, -0.0348486751, 0.0749111846, 0.0124633126, 0.1160352752, 0.0511680655, 0.0413683802, 0.0158172101, -0.0201278105, -0.0346734039, 0.0019295795, -0.0062659103, 0.0442118198, 0.0271567330, 0.0411693566, 0.0891462043, -0.0519276187, -0.0591932274, 0.0460196026, -0.0549946800, 0.0134944431, -0.0109621240, -0.0419137888, 0.0170616247, -0.0436784066, -0.0078498609, 0.0580269732, 0.0355636738, -0.0398713425, 0.0401157402, 0.0969430804, 0.1221739873, -0.0916409194, -0.0662334114, 0.0047424226, -0.0505822673, 0.0307024587, 0.0201981403, -0.0196752958, 0.0645288527, -0.0782706439, -0.0426048711, -0.0621498264, -0.0618144982, -0.0083985087, 0.0000521164, 0.0217823591, 0.0673993602, -0.0341451541, -0.0451812111, -0.0136985146, 0.0144269448, 0.0081016021, -0.0327619910, 0.0375266224, 0.0346608795, -0.0385133512, 0.0155596361, 0.0314035378, 0.0005815893, -0.0402857065, -0.0416103899, -0.0642757118, -0.0451556593, -0.0547972769, -0.0585668236, -0.0026675109, 0.0009118365, 0.1170888022, 0.0024340008, -0.0573072247, -0.0319912881, -0.0889445394, -0.0266228262, -0.0925410390, -0.0131696379, -0.0220000986, 0.0290490724, 0.0562583990, -0.0514863804, -0.0481983274, -0.0438501090, 0.0486929789, -0.0415807106, 0.0034225436, -0.0060508517, 0.0882026777, -0.1730354577, 0.0377283618, 0.0164870638, -0.0109584378, -0.0192994848, 0.0469111055, 0.0109076584, -0.0289406087, -0.0534681864, -0.0447042100, 0.0153086595, -0.0357959904, 0.0406713784, 0.0677776858, -0.0245614201, 0.0404012725, 0.0309035983, -0.0647119954, -0.0293928944, -0.0169594940, 0.0671648532, -0.0261124615, -0.0220836457, -0.0227755029, 0.0842080712, -0.0437855013, 0.0487884618, 0.0236174259, -0.0562584996, -0.0632994398, 0.0493647642, 0.1081050634, 0.0428295694, 0.0380302519, 0.0146160852, 0.0226426478, -0.0303603113, 0.0516606495, -0.0820963383, 0.0325231031, -0.0556783564, -0.0433090031, 0.0462260135, -0.0513850413, 0.0426676050, 0.0086599737, 0.0193784423, -0.0847142637, -0.0534431413, 0.0843584985, 0.0419610776, 0.0654619709, 0.0605589747, -0.0605960526, 0.0320280902, 0.0302671771, -0.0207527913, -0.0581753105, -0.0479711741, 0.0395991877, 0.0260048229, 0.0208061449, 0.0262901150, -0.1406184435, 0.0272589233, 0.0196146928, -0.0052069612, 0.0557012931, 0.0170678366, -0.0284906253, -0.0634083375, 0.0525520109, 0.0274041202, 0.0900399163, 0.0690020621, -0.1215543374, 0.0152069479, 0.1059410572, -0.0189396627, 0.1325244904, 0.0307755023, 0.0391957238, -0.0187459085, 0.1435921192, 0.1253877580, -0.0296588503, -0.0017444834, 0.0583340935, -0.0017451732, 0.0518976972, -0.1496823132, -0.0316035636, 0.0058409306, 0.0310113020, -0.0194077771, -0.0052390075, 0.0011303134, -0.0166366156, -0.0515771173, 0.0493476018, 0.0538054407, 0.0461561680, 0.0038323721, -0.0362338237, -0.0434965491, 0.0010416658, -0.0960197821, -0.0805602595, -0.0403039418, -0.0006285381, -0.0367388055, 0.0269419793, -0.0313046575, 0.0735164508, -0.0000466333, 0.0215999093, 0.1082741171, 0.0212805457, 0.0297302995, 0.0611377209, 0.0479262210, -0.0136965998, 0.0302811917, -0.0368110463, 0.0384777971, -0.0320110768, 0.0612310506, 0.0224931054, 0.0730298012, 0.0276990421, -0.0443532392, -0.0468176752, -0.0084497482, -0.0372483209, 0.0396946855, 0.0109628150, 0.0600818060, 0.0406555235, 0.0523168035, -0.0390464328, -0.0508961529, 0.0295702722, 0.0575222485, 0.1230814606, 0.0987278968, -0.0163480863, 0.0562625676, 0.1251187772, -0.0868939012, -0.0485687032, -0.0611374155, 0.0050812578, -0.0665680245, -0.0292919390, -0.0729854777, 0.0105704200, -0.0324616954, -0.0111352755, -0.0069605638, 0.0465873815, -0.0588993691, -0.0320637487, 0.0083983699, 0.0006879648, -0.0393357389, -0.0548543334, -0.0158270691, 0.0653142333, -0.0277146362, 0.0440825298, -0.0268950947, 0.0353374705, -0.0172978453, 0.0734657720, -0.0550446995, 0.0295007676, 0.0436818898, -0.0780066401, 0.0511251613, 0.0684641227, 0.0152886640, -0.0003073377, -0.0132189607, -0.0384925120, 0.0421007760, 0.0540229753, -0.1020162925, 0.0325979851, -0.0633381158, 0.0046722479, -0.0608109348, 0.0012962206, -0.0635945275, -0.0224203914, -0.0257180482, -0.0086479401, -0.0597188622, 0.0355914384, -0.0091036269, -0.0057107522, 0.1027071178, -0.0829123557, -0.0432560109, -0.0048555257, -0.0527390651, 0.0887149274, -0.0487549193, 0.1087410375, 0.0790877044, -0.0713698789, 0.0511807725, 0.0397736505, -0.0195281692, 0.0557458363, -0.0468227156, -0.0574961230, -0.0101763420, 0.0206065979, -0.1206480637, 0.0099875750, 0.0103467163, -0.0059089824, -0.0477361977, -0.0565644801, -0.0141844349, 0.0144824535, 0.0461118110, -0.0320821255, -0.0190389268, -0.0376240537, 0.0486900993, 0.0240728967, 0.1126345247, 0.0950667262, -0.0487648472, -0.0518271998, -0.0010939715, 0.0349468514, 0.0423621349, 0.0515236631, -0.0118474169, -0.0841435194, -0.0333467238, 0.0393671803, -0.0326540545, -0.0292482115, -0.0159129780, -0.0213197935, -0.0318277702, 0.0372042134, 0.0413414724, 0.0198257025, 0.0360689908, -0.0320184194, 0.0005421093, 0.0763996840, -0.0842724890, -0.0322021954, 0.0516906120, 0.0426705852, 0.0068417131, -0.0622742102, 0.1573019326, 0.0274244007, 0.0148084778, -0.1189830080, 0.0071348730, 0.1055184752, 0.0056452840, 0.0665139928, 0.0366212390, 0.0682623982, -0.0575890392, -0.0174268130, -0.0454145521, -0.0891216174, 0.0347025096, 0.0040210229, 0.0158149693, 0.0183191113, 0.0171926823, 0.0542561896, -0.0675930679, 0.0184201617, -0.0299539492, 0.0464350432, 0.0203750469, 0.1584742367, 0.0424640365, -0.0580325685, -0.0242542792, -0.0645590127, -0.0291125737, 0.0175777953, -0.1005467549, -0.0534618162, 0.0710923448, 0.0227566641, 0.0976140574, -0.0019271551, -0.0166261829, -0.0291316025, -0.0421826728, -0.1230851039, 0.0443198048, 0.0298176371, -0.0026814437, 0.0572800860, 0.0986598507, 0.0009432738, 0.0290952269, 0.0344499163, -0.0275396388, -0.0233573988, -0.0620656125, -0.0229940265, -0.0505540892, -0.0593429096, 0.0196632724, -0.0215681400, 0.0499800928, 0.0538292341, -0.0196541846, -0.0108236736, -0.0029392759, 0.0088261003, -0.0156420805, 0.0314354487, -0.0218286067, -0.0111878542, 0.0506163202, -0.0721480101, -0.0323810577, 0.0923566818, -0.0285543520, -0.0205441564, 0.0579057410, -0.0718969703, 0.0330916755, 0.0215772372, 0.0977026299, -0.0088265538, 0.0236035120, -0.0486743450, -0.1195847318, 0.0087489681, -0.0022264617, -0.0330592543, -0.0009455192, -0.0259196386, 0.0113240415, -0.0217072833, -0.0562926754, 0.0142509146, -0.0515922979, 0.0268791541, 0.0083303526, -0.0323981866, 0.0417052098, 0.0810942724, -0.0470047183, -0.0038923058, 0.0523454435, 0.0514810570, 0.0541278943, 0.0780092776, -0.0281806532, -0.0192211494, -0.0593057498, -0.0346048996, 0.0145581225, 0.0104037002, -0.0387025215, -0.0345267318, -0.0182356834, 0.0295398161, -0.0135242576, -0.0588039011, -0.0452740565, 0.0418498628, 0.0527630113, 0.0187530778, -0.0402654596, 0.1693942547, 0.0543402471, 0.0334338583, 0.0386337265, -0.0324882418, 0.0397263058, -0.0527578555, 0.0023391596, -0.1080938801, 0.0180950109, -0.0691752806, 0.0607531518, -0.0046674814, -0.0337692946, 0.0845856145, 0.0291366093, -0.1672895551, 0.0778616890, -0.1056620479, 0.0201084279, 0.0597064905, -0.0942580104, -0.0324212946, -0.0278055500, 0.0513207242, -0.1401590109, -0.0067868419, 0.0289651956, 0.0260259621, 0.0622026809, -0.0425715297, 0.0448452979, 0.0084146149, -0.0739313439, -0.0030453533, -0.0266313851, -0.0461300537, -0.0347245224, -0.0601621643, 0.1219035164, 0.0950311795, -0.0084234802, -0.0124510918, -0.0186946746, 0.0976643637, -0.0182976015, 0.1042813510, 0.0508833639, 0.0435204469, -0.0069198473, -0.0848488808, -0.0001303672, -0.0209591482, -0.0038788863, -0.0186693259, 0.0233703572, -0.0612330846, -0.0649252981, -0.0079570012, -0.0663896352, -0.0404627211, 0.0355990566, 0.0300570168, 0.0209065527, 0.0007101905, -0.0728773177, 0.0307091735, 0.0135960095, -0.0205522217, 0.0611375831, -0.0276454408, -0.0036494124, 0.0467405245, 0.0924986824, -0.0550378039, 0.0278280862, 0.0369511954, 0.0411333628, 0.1446121037, -0.0589396991, 0.0798497871, 0.0137619497, -0.0837532431, -0.0649996474, 0.1102241129, -0.0628537759, -0.0260836035, -0.0179523602, 0.0000403569, -0.0688945800, -0.0400112085, -0.1323924065, -0.0010071198, -0.0225500092, -0.0600704923, 0.0294762030, -0.0035376854, -0.0389303938, -0.0279249623, -0.0139037604, 0.0004691260, -0.0510440618, -0.0676933005, 0.0644872785, -0.0748384520, 0.1210089922, 0.0357743949, -0.0376519337, -0.0565524064, -0.0078187669, 0.0178022664, 0.0404185019, -0.0260448549, 0.0386216156, -0.1745935678, 0.0118681863, 0.0460881181, -0.0180254634, 0.0492178239, 0.0209588036, 0.0525818579, -0.0839611217, 0.0103495838, 0.0187990479, 0.0438349210, -0.0148768779, -0.0057478715, 0.0185340624, -0.0803298429, -0.0910299271, 0.0102299610, 0.0290473811, 0.0518043786, -0.0388741493, -0.0498813726, 0.1424841732, -0.0195275676, -0.0297535472, -0.0382440314, 0.0471838452, 0.1016341895, 0.0080373734, 0.0004861364, 0.0176665224, 0.0433526114, -0.0734268948, 0.0205405243, 0.0160365980, -0.0476819016, 0.0703090355, -0.0302116293, -0.0250607934, -0.0428009070, 0.0854725614, 0.0177212525, -0.1145236418, 0.0363342911, 0.0167847779, -0.0647239164, -0.0405327901, 0.0611930490, 0.0262244698, -0.0193806365, 0.0464414731, 0.0319018140, -0.0012072051, -0.0445671342, -0.0933698267, -0.0893115103, 0.0630578101, -0.0437322557, -0.0318418294, -0.0308369305, 0.0174878500, -0.0248797648, 0.0061707743, -0.1016306579, 0.0073534516, 0.0754666403, 0.0415056311, 0.1623294204, 0.0065270611, -0.0094007785, 0.0489247032, -0.0321284868, 0.0893884897, -0.0247143880, -0.0058386186, -0.0443865582, -0.0644472688, -0.0501221865, -0.0535209961, 0.0673261881, 0.0187651124, -0.0157833174, -0.0066430294, -0.0692029893, -0.0061223730, -0.0148105836, -0.1393615007, -0.0368591212, 0.0982938707, -0.0946585685, -0.0579349063, -0.0429937430, 0.0584819429, 0.0788254812, 0.0261763763, -0.0618649796, 0.0642511472, -0.0016497055, 0.0506508276, -0.0120972544, -0.0282839891, 0.0404594131, -0.0322658680, 0.0277530067, -0.1013205573, -0.0564387552, 0.0325036906, 0.0156284552, -0.0277728625, -0.0223127007, 0.0121826734, -0.0017529073, -0.0965602472, -0.0316587202, 0.0401182398, -0.0108968168, -0.0205820408, -0.0445526280, -0.1395659745, -0.0964318588, -0.0457494594, -0.1599459052, -0.0058046072, -0.0805607587, 0.0472087190, 0.0218849424, -0.0204202477, -0.0066981213, 0.0499638021, 0.0279337671, -0.0362464301, -0.0048219119, -0.1406892240, -0.0436620414, -0.0168087352, -0.0039299801, -0.0776889846, -0.0202050880, 0.0924923420, -0.0055164844, 0.0229629874, -0.0327644870, 0.0566355996, 0.1550955474, 0.0699749887, 0.0079579689, -0.0134029714, -0.0151321543, -0.0527619310, 0.0531053208, 0.0355065204, -0.0191524308, 0.0632443354, 0.0022985232, -0.0278038401, 0.0854876563, -0.0378747210, 0.1332230568, 0.0465379544, -0.0100322776, 0.0887119025, -0.0149122188, -0.0357171185, -0.0057832510, -0.0764303058, 0.0274333768, 0.0608336329, -0.0522766300, -0.0306567419, 0.0215540230, 0.0465219319, 0.0050691166, -0.0358346142, 0.0503744185, 0.0141656566, -0.0414410718, -0.0476519279, 0.0491707362, -0.0014011515, 0.0099389916, -0.0386483222, -0.0118783489, 0.1421533376, 0.0409699902, 0.0458209664, -0.0772572905, -0.0573836640, 0.1084924340, -0.0012789965, 0.0874032602, -0.0037106723, -0.0449355952, 0.0676127672, -0.0678136051, -0.0325745679, 0.0751686767, -0.0145990429, 0.0194735005, -0.0696893558, 0.0455610603, -0.0097603099, -0.0472687371, -0.0616658106, 0.0019140877, 0.0622624308, 0.0256150905, -0.0189277604, 0.0301784873, -0.0167163927, -0.0585323572, -0.0183391701, 0.0614699535, -0.0400005803, -0.0292617623, 0.1094502509, -0.0667076707, 0.0428326316, -0.0214454681, -0.0285488945, 0.0160659347, 0.0197394751, 0.1296808720, 0.0416896231, 0.1360421926, 0.0798067525, -0.1221699938, -0.0102658505, 0.0749838203, -0.1120228618, -0.0502498634, -0.0326441266, 0.0231025852, 0.0788981616, -0.0350140706, -0.1246086508, -0.0177742913, -0.0647657216, -0.0576551594, -0.0292607434, -0.0651468411, 0.0498032533, -0.0432207547, 0.0042910795, -0.0627357140, -0.0605053902, 0.0343272835, -0.0169059355, 0.0472578071, -0.0034285847, -0.0939421952, 0.0347057134, -0.0379887372, 0.0172923896, 0.0305055119, 0.0093159294, -0.0486746244, -0.0301532149, -0.2110477537, 0.0024543798, -0.0124159688, 0.0814519972, -0.0156607479, 0.0403307900, 0.0393236056, 0.0810042918, -0.0087947240, 0.1018501073, 0.0195239186, -0.0283782352, 0.0145740928, -0.0094368095, -0.0562735163, -0.0746108815, 0.0262055267, -0.0397412516, 0.0425927714, 0.0335549153, -0.0283665098, 0.1201559529, 0.0476505980, 0.0145058436, -0.1242699996, -0.0391259827, 0.0657791793, -0.0465149954, 0.0988558978, -0.0586383492, 0.0880985707, -0.0454745702, -0.1180037782, 0.0008718374, -0.0203144290, 0.0165640209, -0.0384657197, 0.0301981978, -0.0459682010, -0.0274864491, -0.0631175861, -0.0301782060, -0.0578966774, 0.0040963404, -0.0261336509, 0.0128733395, 0.0881662294, 0.0109367566, 0.0343559459, -0.0358315147, 0.0333706103, -0.0583009310, -0.0156080835, -0.0961239859, -0.0072209765, 0.0257874299, 0.0167256370, 0.0765352771, 0.0324373953, -0.0201276597, 0.0382221863, -0.0288191419, -0.2096700072, 0.0219548382, 0.0724885315, -0.0041881632, 0.0809908509, -0.0029949883, 0.0303009674, -0.0616163462, -0.0241013002, 0.0107929818, 0.0524360947, -0.0145480223, -0.0151725225, -0.0690633208, -0.0301385690, -0.0497890264, 0.0513642058, -0.0514378399, 0.0370679982, -0.0658729821, -0.0305443052, 0.0504428074, 0.0289083775, -0.0788940415, -0.0139755774, -0.0858481601, 0.0112269372, -0.0594099201, -0.0411636122, -0.0060928091, 0.1759509295, 0.0017974980, -0.0902290419, -0.0322743431, -0.0032919236, -0.0287531670, -0.1765166223, -0.0609222911, 0.0435346924, -0.0389689356, -0.0214353986, -0.0362221375, -0.0671529993, 0.0435629226, 0.0238740798, -0.0017565464, -0.0433751792, -0.0320081897, -0.0061565647, -0.1208230332, 0.0073026693, -0.0116802845, -0.0012480908, 0.0469010435, -0.0573018789, -0.0502401106, -0.0157139022, 0.0370840952, 0.0138952639, 0.0003634765, 0.0715853497, 0.0217097420, 0.0890358165, -0.0634600446, 0.0555136614, -0.0061529842, 0.0179532729, 0.0289427117, -0.0895036235, 0.1105490252, -0.0230480824, 0.0151654426, -0.0064976960, -0.0405178480, 0.0021915175, 0.0509027019, 0.0341169499, 0.0211672746, 0.0138632841, -0.0035835505, -0.0617074259, -0.0128360502, -0.0581124127, -0.0064102043, -0.0114380941, -0.0103144422, 0.0172235854, -0.1682646275, -0.0147718545, 0.0630757660, 0.0630453900, -0.0035873700, 0.0862399414, 0.0282780658, -0.0141238682, -0.0339271799, 0.0056392867, 0.0180684365, 0.0458947979, -0.0397047773, 0.2385316640, -0.1056729481, 0.0084563652, -0.0214267168, -0.0122392923, -0.1269746870, 0.0316813998, 0.1030887514, -0.0278725233, 0.0597807989, -0.0359888114, -0.0532699265, -0.0472638048, 0.0234463923, -0.0496481918, -0.0537933074, -0.0095082801, 0.0291590709, 0.0410105661, 0.0702797771, -0.0316047743, -0.0119697358, 0.0476625189, 0.1100988463, 0.0259761978, 0.0305393897, 0.0820899233, -0.0344367363, 0.0711715445, -0.0089119300, -0.0906571150, -0.0054426501, 0.0169304796, 0.0024885994, 0.0196356457, -0.0506501310, 0.0206285063, 0.0273366794, 0.0320990682, 0.0379731655, -0.0553440154, -0.0520536602, -0.0137365311, 0.0549089275, -0.0953274071, -0.1003169417, -0.0201586150, 0.0240404438, 0.0261459444, 0.0094136633, -0.0010518648, -0.0595648661, 0.0681635663, -0.0395172350, 0.0240349974, -0.1268039495, 0.0341703333, 0.0583366118, 0.0355548933, -0.0323197246, 0.1985532641, 0.0756194815, -0.0105591007, -0.0398278236, 0.0886609107, -0.1128099263, 0.0455509201, 0.0348522887, 0.0255399067, 0.0489137769, 0.0007356557, -0.0178803131, -0.0413105264, 0.0509456694, 0.0150835272, 0.0371912457, -0.0217269491, 0.0381629318, 0.0115789669, 0.0412961878, 0.0338020399, -0.0669857934, 0.0376824476, -0.0574217886, 0.0270083621, -0.0718213916, 0.0412175916, -0.0299265459, 0.1481347233, -0.0561904162, 0.0542875007, -0.0258216280, -0.0317121074, -0.0035188440, -0.1010632813, -0.0454631150, -0.0234542638, 0.1129888669, -0.0165927783, -0.0678404644, 0.0396629572, -0.0265048705, 0.0006498634, 0.0186228808, -0.0552668385, -0.0202216282, -0.0115172844, -0.0443483889, -0.0311713498, -0.0613494478, 0.0097107431, -0.0507028699, 0.0287241973, -0.0656267330, -0.0627514496, -0.0177831482, 0.0684091821, 0.0032478168, 0.0020647168, -0.0638771951, -0.0191820599, -0.0380809195, 0.0694385394, 0.0284485240, 0.0076470920, -0.0065907496, -0.0310239326, -0.0351973027, 0.0031847875, 0.0415273681, 0.0277201235, -0.0063488493, -0.0471223481, 0.0357644185, -0.0275352001, -0.0673086122, 0.0279531963, -0.0592550449, 0.0204298850, -0.0137303853, -0.0257537663, -0.0312689170, -0.0473497957, -0.0045365738, -0.0017525591, 0.0450964086, -0.0645115301, -0.0389980339, -0.0848316103, 0.0850209370, -0.0289723072, 0.1527490169, -0.0785574988, 0.0498794280, 0.0163394362, -0.0053637493, -0.2358475029, 0.0512507744, 0.0203194823, -0.0553340875, 0.1730704010, 0.0277346391, -0.0084827663, -0.0647348464, 0.0162457172, 0.0266580544, 0.0174137298, 0.1024665385, -0.0006222278, 0.0536314100, -0.0205812603, -0.0421024226, 0.0339838117, 0.0557164736, -0.0539086796, -0.0391202830, 0.0060564065, -0.0200741198, -0.0559661388, -0.0694519430, -0.1024026796, 0.0495726503, -0.0289172921, -0.0513466075, 0.1398888975, 0.0521942936, 0.0477089845, -0.0598415248, 0.0541119613, -0.0190217141, 0.0579663739, 0.0500540957, -0.0230518971, 0.0756666958, 0.0424523652, -0.0075161597, -0.0414189734, -0.0044335951, -0.0502648540, -0.0558021218, -0.0119168432, -0.0582749359, -0.0649673715, 0.0069349376, -0.0845890120, 0.0251340009, -0.0423110574, -0.0670974106, -0.0139675969, 0.0506711490, 0.0033358110, 0.0152025046, -0.0523320884, -0.0027517844, -0.0136618353, -0.1187909544, -0.0798910707, 0.0163382627, 0.0714424774, 0.0548888445, 0.0369443409, 0.0113684712, 0.0121451290, 0.0521671139, -0.0323280580, -0.1167929843, -0.0550293885, 0.0342906602, -0.0020087250, -0.0378974713, -0.0058719851, 0.0820645466, -0.0503173731, -0.0337413140, 0.0245194621, -0.0560108460, -0.1071551442, 0.0134919174, -0.0039223433, 0.0100361640, 0.0501009114, -0.0141566470, 0.0319751315, -0.1504532099, -0.0069239861, -0.0485725477, -0.0875991136, 0.0117126042, -0.0814684182, -0.0055193603, -0.0794611126, -0.0289939232, -0.0532092378, 0.0727896839, -0.0065660807, 0.0371296294, 0.0572692938, -0.0404093638, -0.0055850092, -0.0710167065, 0.0139515102, -0.0537771098, -0.0546702109, 0.0488888510, -0.0186358299, -0.0537396446, -0.0375127383, -0.0106322151, -0.0668797046, -0.0002235073, 0.0384859182, 0.0021509484, -0.0326825418, 0.0567629114, 0.0165046696, -0.0020385864, -0.0054915948, -0.0099519994, 0.0222583618, -0.0505888872, -0.0082966145, 0.0368826129, 0.0342703126, -0.0328768045, 0.0824291334, 0.0016638485, 0.0448773913, 0.0217679366, -0.0457306653, -0.1002692953, 0.0388550200, -0.0043985089, -0.0015870971, -0.0997385308, 0.0003750136, 0.0531680398, 0.0136975907, -0.0171190724, -0.0481282398, 0.0489313900, -0.0041961852, 0.0082103675, -0.0066008116, 0.0489728190, -0.0341244526, 0.0411761440, -0.0638246760, -0.0747333318, -0.0404598266, 0.0708788633, -0.0443593860, -0.0607174523, 0.0420574807, 0.0386316255, 0.0013085927, -0.0382371396, 0.0956880003, 0.0000988013, -0.0620120242, -0.0328822508, 0.1325650960, 0.0335445814, 0.0039539365, -0.0491707250, -0.0317675844, -0.0488400459, -0.0126362937, 0.0000439952, -0.0244675502, 0.0494316407, -0.0082149692, 0.0209078956, -0.0837149471, 0.0570074245, -0.0620986931, 0.0180555098, -0.0191958286, 0.0336002707, 0.0200985111, -0.0695887208, 0.0345261544, -0.0238321982, -0.0354600884, -0.0811388269, 0.1517183632, 0.0018625661, 0.0546170920, -0.0562212281, -0.0451485738, 0.0185986329, 0.0058913226, -0.0329099558, 0.0463016666, 0.0536160283, 0.0222966205, -0.0705708489, 0.0427637696, 0.0841596499, 0.0455280878, -0.0107779233, -0.0485448390, 0.0497516319, 0.0025909743, -0.0320526622, -0.1183233485, 0.0103189033, -0.0589273609, -0.0222876258, 0.0221593622, -0.0630709231, -0.0165524557, -0.0234588180, -0.0857943445, 0.0168197025, 0.0385853313, -0.0907762796, 0.0143571831, -0.0357581861, 0.0337013640, -0.0360764377, 0.0001934425, 0.0307468213, -0.0178755578, 0.0298569612, 0.0034672031, 0.1754718274, -0.0417910330, 0.0218887366, 0.0462378711, -0.0132377939, -0.0474829748, -0.0143010607, -0.0519653559, 0.0373020917, -0.0121186348, 0.0241947733, -0.0377812386, -0.0346222632, -0.0211244896, -0.0161332283, -0.0435381904, -0.0655207932, -0.0034177345, -0.1317099780, 0.0468139388, -0.0142812431, 0.0107194996, 0.1454538703, 0.0794848725, -0.0505654663, -0.1435490251, 0.0387608185, -0.0536554940, 0.0688927770, -0.0692908391, 0.0554622449, 0.1825536937, 0.0617208816, 0.0160692316, 0.0147973858, -0.0013938074, -0.0814927667, -0.0123606939, 0.0427755490, -0.0044291429, 0.0116860010, -0.0161743648, 0.0151939616, -0.0678407848, 0.0146154528, -0.0014853999, -0.0392092131, 0.0078295469, -0.0632885695, 0.0195566211, -0.1683118790, -0.0511638559, -0.0869361237, -0.0185823198, -0.0078565562, 0.1271286607, 0.0089654578, 0.0582901835, -0.0004641551, 0.0175092835, 0.0083821500, -0.0440550447, -0.0500871353, 0.1226645932, 0.0267252997, -0.0599898584, 0.0457130373, -0.0369993970, -0.0125723053, -0.0136184618, -0.0508380830, 0.0385673642, 0.0414743386, -0.0178196784, 0.0193219874, -0.1226070225, 0.0273612179, -0.0029791482, -0.0068408498, 0.0327168331, -0.0233103763, -0.0577278808, -0.0523152500, -0.0288587771, -0.0525297821, -0.0249425154, -0.0583409406, -0.0719874278, -0.0608511977, -0.0173479561, 0.0184309222, 0.0426602550, 0.0263559930, -0.0580310486, -0.0395896472, 0.0608227402, 0.1336548626, -0.0008867894, -0.0480442718, 0.0518597998, 0.0223128982, -0.0324685276, -0.0455844328, -0.0104913674, -0.0386954360, -0.0597460605, 0.0510307364, -0.0884052366, -0.0931211561, 0.0141625591, -0.0254769009, 0.0415466428, -0.0587527305, 0.0531692021, 0.0356908478, 0.0032481353, -0.0283843242, 0.1192951798, -0.0002649110, 0.0306276716, 0.0473452583, 0.0087317768, 0.0374487825, -0.0054814778, 0.1114148125, 0.1215495095, -0.0211280175, 0.0410237610, 0.0430376492, -0.0544654727, 0.0028688381, -0.0375285968, 0.0043360717, 0.0200941171, -0.0547309294, -0.0589266904, -0.0623622499, -0.0483759269, -0.0668611154, 0.0152129252, 0.0557620749, -0.0203199908, 0.0409168340, 0.0418259166, -0.0366908498, -0.0185815878, -0.0092385383, -0.0389067717, -0.0060777506, -0.0022420245, -0.0156364609, -0.0303758122, -0.0636367500, -0.0016880191, 0.0256603248, 0.1374436170, 0.0130268186, 0.0472507738, 0.0479029305, -0.0147338957, 0.0037810463, 0.0674037561, -0.0511397459, -0.0647215471, 0.0231690016, 0.0419741161, 0.0508630723, -0.0162558947, 0.0119156251, 0.0406229980, -0.0563946478, -0.0265210886, 0.1032919437, 0.0520772487, 0.0162214525, -0.0694353282, 0.0542907417, 0.0407996401, -0.0766684413, -0.0943064243, -0.0446534492, 0.0251057521, 0.0048186295, -0.0224098917, 0.0202720426, 0.1373752952, 0.0144269131, -0.0387972295, 0.0897423029, 0.0054845097, -0.0161873978, 0.0538505390, 0.0292128641, 0.0437030233, 0.0263131224, 0.0390868820, 0.0453353897, -0.0564535744, 0.0252662729, -0.0382484756, -0.0152662219, 0.0401407667, 0.0548227392, -0.2156111747, 0.0046023121, -0.0216933396, -0.0188846570, 0.0123030152, -0.0020690036, -0.0584275648, 0.0150518389, 0.0031701738, 0.0109488871, -0.0611492582, 0.0056526386, 0.1093090773, -0.0541576408, -0.0158835966, 0.0141789531, -0.0700049475, 0.0052125235, -0.0059830681, 0.0468714274, 0.0829512924, 0.0468559302, 0.0379516371, 0.0269595217, -0.0223462339, 0.1268357337, -0.0412645675, -0.0351044126, -0.0327005200, 0.0003933519, 0.0158231799, 0.0071504861, -0.0175584890, 0.0119576734, 0.0054092715, 0.0419026464, -0.0381447896, -0.0402186215, -0.0017588459, -0.0254987460, 0.0492849052, 0.0418489128, -0.0294283889, -0.0409263447, 0.1523205340, -0.0613351725, -0.0512104891, -0.0107973889, -0.0436407775, -0.0719780326, 0.0318326950, 0.0338927172, -0.0250582471, 0.0338068381, 0.0302407276, 0.0237485375, -0.0044926615, 0.0182872228, 0.0381471142, 0.0044678161, 0.0034194386, -0.0096443025, 0.0437332243, 0.0494099520, -0.0922122002, 0.0289588068, 0.0335453413, -0.0419514626, -0.0512455143, 0.0111695034, 0.0268934052, -0.0915206894, -0.1377140433, 0.0043682745, -0.0740731135, 0.0729654655, -0.0910407901, 0.0292298943, -0.1560167670, 0.0134641584, -0.0780635327, 0.0701729730, 0.0726835504, 0.0066570975, 0.1153648794, -0.0409841910, 0.0514745116, -0.0436804853, 0.0184180699, 0.0169047788, 0.0452205762, 0.0535699837, -0.0009314471, 0.0376075320, -0.0265089571, 0.0238048472, -0.1091143191, -0.0046516615, -0.0340828449, 0.0206220299, 0.0529677086, 0.0373514183, -0.0022066636, -0.1671612710, -0.0376241170, 0.0476092137, 0.0300928522, 0.0142658520, -0.0630263612, -0.0115787992, 0.0488466062, -0.0528649129, 0.0307162497, 0.0355683491, 0.0540989712, 0.0456854552, 0.1067931131, 0.0110891107, 0.0204834528, 0.0470313653, -0.0322802365, 0.0054050945, -0.0053017479, -0.0394107476, -0.0084075863, 0.0483367369, -0.0306214187, -0.0027817632, 0.0042911232, 0.0183565281, 0.0417434014, -0.0413560197, 0.0523820966, -0.0383151732, -0.0045035998, -0.0692157000, 0.0066204774, 0.0771519467, 0.0212538671, -0.0031581726, -0.0444217809, -0.0468242094, -0.0191522259, 0.0491507724, -0.0883814096, -0.0852652416, 0.0190891866, 0.0466631465, -0.0381432809, 0.0207048450, 0.0090522561, 0.0318910405, 0.0189441871, -0.0772366971, 0.0377452634, -0.0065393378, -0.0288447179, -0.0540045761, -0.0319218561, 0.0649562404, -0.0526717678, -0.1271540523, -0.0047280379, 0.0490028448, -0.0355365500, 0.0220680423, -0.0508431830, -0.0122764697, 0.0495917536, -0.0160449967, -0.1385849863, 0.0724030361, -0.0327979065, -0.0428485908, 0.0163674783, -0.0598487891, -0.0505159236, 0.0441941582, -0.1050247177, -0.0237268098, 0.0131808026, -0.0640863329, 0.0139869694, 0.0155610209, -0.0306556858, 0.0757401660, -0.0294319261, 0.0878030732, -0.0457322299, 0.0124697788, -0.0334069282, -0.0612651184, 0.0285839923, -0.0119148241, -0.0467923880, -0.0397599339, 0.0491437949, 0.0063886005, -0.0130813075, 0.0328549072, -0.0008752467, -0.0080608660, 0.0036500501, 0.0788323879, 0.0018935244, -0.0516827777, -0.0030745030, 0.0307895429, 0.0132877519, -0.0199737828, 0.0463840738, -0.0296099447, -0.0096754823, -0.1069142967, -0.0043660803, -0.0014886452, 0.0082020778, -0.0522380285, -0.0074431733, -0.1108184829, 0.0453902408, -0.0381138027, 0.0213924535, 0.0535416529, -0.0198281240, -0.1431137621, -0.0504713468, -0.0547888540, -0.0659581348, 0.0507809632, -0.0249396116, 0.0738576725, 0.1198733523, 0.0048911157, 0.0581594259, 0.0082627116, 0.0365742706, 0.0299237855, 0.1054635644, -0.0032043271, 0.0744067803, 0.0562098995, -0.0310290009, -0.0635451302, 0.0263613239, 0.0171358194, -0.0052002887, -0.0361004025, 0.0371387787, -0.0524785444, 0.0317553319, -0.0675963834, 0.0259559378, 0.0544128194, 0.0255717840, -0.0287195630, -0.0355324037, -0.0476105399, -0.0589144714, 0.0163177699, -0.0631444752, 0.0266255252, -0.0102147153, -0.0382406227, 0.0281282999, -0.0173226874, 0.1370663047, 0.1087159142, -0.0214340463, -0.0192533266, 0.0795983002, 0.0214521587, -0.0110506713, -0.0237524901, 0.0000162009, -0.0632074624, 0.0103655085, -0.0258261692, -0.0429489128, -0.0642768741, -0.0294244476, 0.0452260636, 0.0531381592, 0.0054528876, -0.0636429787, 0.0396694317, 0.0388043448, -0.0028704072, -0.0000373913, -0.0943554863, -0.0132657345, -0.0653157681, 0.0434321314, 0.0144024752, 0.0265195090, -0.0428646244, -0.0348679647, -0.1160630509, -0.0394880995, -0.1116916388, -0.0388998464, 0.0056973039, -0.0390024744, 0.0245404579, -0.0570628457, -0.0576426908, 0.0447027385, -0.0566262826, -0.0533622093, 0.0764048472, 0.0189216416, 0.0053031449, -0.0214987490, -0.0460418761, 0.0202593431, -0.0116720023, -0.0535471700, -0.0171004683, 0.0404134877, 0.0117690274, -0.1144044548, -0.0536092855, -0.0089266337, -0.0156109482, 0.0537754260, 0.0412998535, 0.0087979119, 0.0929507464, -0.0337397084, -0.1038079932, -0.0310371928, 0.0836031660, 0.0245338101, 0.0540977977, -0.0382452495, 0.0353801958, 0.0021226010, 0.0412663184, 0.0588631891, 0.0012191316, 0.0721908361, 0.1396566629, -0.0338299610, -0.0143099958, 0.0003906458, 0.0441904552, 0.0320750065, -0.0703787208, -0.0162656698, 0.0534938350, 0.0593921728, 0.0011524962, -0.1519551277, 0.0008608628, 0.0300659500, -0.0318303369, -0.0433376469, 0.0539556816, 0.0437989756, -0.0068390197, 0.1093944386, -0.0436506085, -0.0865150914, 0.0590295084, -0.0123137012, 0.0526863001, 0.0412618108, 0.0460622534, 0.0506931581, -0.0458727255, 0.0775989294, 0.0226885304, -0.0881943330, -0.0281516258, 0.0553494990, -0.0038871642, -0.0367641933, -0.0380601138, 0.0348711051, -0.0464581475, -0.0553578511, -0.0108552640, 0.0308340546, 0.0190708358, -0.0594940446, -0.0788909197, 0.0414344519, -0.0612899289, 0.0333194770, -0.0128677506, 0.0362291709, 0.0126742441, 0.0462143198, -0.0395077616, -0.0310921967, 0.0157499257, 0.0100480560, 0.0522300974, 0.0232724864, -0.0330430903, -0.0460562333, -0.0406584404, -0.0238582119, 0.0162921604, -0.0150128910, 0.0149129564, 0.0014359185, -0.0590691939, -0.0567486137, 0.0225276090, 0.0069340952, -0.0736061558, -0.0602231175, 0.0251255706, -0.0533334091, -0.0281312615, -0.0892306343, 0.0085616745, -0.0644428506, -0.0013099387, -0.0106552336, 0.0554741733, -0.0475534052, 0.0212349556, -0.0434817076, 0.0185488518, -0.1339864135, -0.0317449123, 0.0094295638, -0.0240115374, -0.0385311544, 0.0049369819, 0.0086767562, 0.0250599384, -0.0612954050, 0.0617289469, -0.0706159621, 0.0016279736, 0.0311662965, 0.0034207779, -0.0121239601, 0.0708101019, 0.0055554099, -0.0142090824, 0.0015671737, 0.0305567514, 0.0287730042, -0.0158861484, 0.0898720399, -0.0787610337, -0.0544620976, -0.0489434823, 0.0218398739, 0.0492421314, -0.0661947876, 0.0095172459, 0.0173802506, -0.0330660045, -0.0241472665, 0.0407961756, -0.1067297757, -0.0192226470, 0.0485085882, -0.0291613266, -0.0116770538, 0.0154627599, -0.0074018822, 0.0076250178, 0.0213099215, -0.0314474404, 0.0315636657, -0.0231981277, -0.0227715746, -0.0560149886, -0.0314541236, -0.0962846875, -0.0031422568, 0.0274043493, 0.0142685436, -0.0085664373, -0.0167478081, -0.0308183897, -0.0066222320, -0.0337591171, -0.0023048525, 0.0286303200, 0.0346622914, 0.0702224821, 0.0628816038, 0.0306444298, 0.0467710271, 0.0942714959, 0.0833172873, 0.0047969036, 0.0785836205, 0.0487396903, 0.1548414230, 0.0154281501, -0.0671827868, 0.0131819695, -0.0193645284, -0.0172126275, 0.0000621139, 0.0190587938, -0.0272049680, -0.0925986022, 0.0144175552, -0.1412191093, 0.0398168229, 0.0321990065, -0.0625419393, -0.0048288996, -0.0081428196, 0.0071905795, 0.0353799090, -0.0615628473, 0.0293286070, -0.0474155992, -0.0010960683, -0.1349812299, 0.0242887214, -0.0205506496, -0.0875975937, 0.0282498728, -0.1377348453, -0.0318192132, 0.0146727692, -0.0411279649, -0.0253218804, -0.0195273850, -0.0286718812, -0.0358026810, 0.0788888559, -0.0205144249, -0.0503887497, -0.0590919554, 0.0259299185, 0.0872757584, -0.0046870317, -0.0356235951, -0.0496556349, -0.0564699695, 0.0111325476, 0.0371381640, 0.0970180258, -0.1328530908, -0.0017515043, -0.0003673106, 0.0366268903, -0.0158071294, -0.0602352284, -0.1241686344, 0.0813165456, -0.1280238330, 0.0156330206, -0.0761657208, -0.0771493986, -0.0626039952, 0.0104105650, 0.0539937168, 0.0426136628, -0.0497400500, 0.0286046006, -0.0505067147, -0.0317015089, 0.0913809016, 0.0183195919, 0.0081605362, 0.0186544210, 0.0057719750, 0.0318475366, 0.0252265222, 0.0020153988, -0.0149913076, -0.0565043166, 0.0252308734, -0.1082916707, 0.0474124774, 0.0324477665, -0.0381349996, -0.0291331802, -0.0350941308, 0.0146111939, 0.0842599720, -0.0039656279, -0.0807046145, 0.0166004114, 0.0281787161, -0.0126801506, -0.0328470990, -0.0180389825, 0.0068094172, -0.0727750659, 0.0102509316, 0.0659497976, -0.0333503336, 0.0017596423, -0.0019768251, 0.0170827955, 0.0125289503, -0.0613138936, 0.0093006501, 0.0367420167, -0.0224841386, -0.0550311878, -0.0019489923, -0.0003005415, 0.0398916937, -0.0382220931, 0.0735384449, 0.0160078369, 0.0163916536, -0.0422627553, 0.0283781644, -0.0017600993, -0.0132868420, 0.0026485699, -0.0408600979, -0.0923384205, 