//Numpy array shape [32, 52]
//Min -2.052251338959
//Max 0.771238148212
//Number of zeros 0

#ifndef W14_H_
#define W14_H_

#ifndef __SYNTHESIS__
output_weight_t w14[1664];
#else
output_weight_t w14[1664] = {0.3503700793, 0.2346119136, 0.4024278522, -1.5110088587, 0.2162103653, 0.3738831282, 0.2724160850, 0.2358592004, -0.6859079003, -1.5574171543, -1.6744635105, -1.9815605879, 0.4183762074, 0.6671098471, 0.4863354862, 0.4994504154, 0.4491916895, 0.5522940159, -0.8677390218, 0.2618363500, 0.3661101758, 0.2370286733, 0.1535471082, 0.1661514044, -1.0698620081, 0.3303724825, 0.1211416647, 0.3921765685, -1.7006515265, 0.3843479753, -1.3922086954, -1.3391407728, -1.1963552237, 0.1696542054, 0.3351293504, -0.0148993311, -1.0632739067, 0.2522237003, -1.5055062771, -1.5196545124, -1.3654636145, -1.4464031458, 0.2377345115, -1.4940321445, 0.0623044856, 0.3701802790, 0.0105448468, -1.1531019211, -1.3000645638, -1.5719333887, -0.1325798035, -1.8861422539, -0.2023222744, -0.2656970322, 0.1300947070, 0.1879060119, 0.0345034711, -0.2259568274, 0.0695151091, 0.0911934227, 0.1173438132, 0.1553078741, 0.1425164491, -0.2207403034, 0.0437059663, 0.1091607288, 0.1996361315, 0.0650177151, -0.1576154083, -0.2403034121, 0.1964232922, -0.0256125461, 0.1463161409, -0.1690089554, -0.0491619185, -0.2006383836, 0.1920387000, 0.1333985031, -0.2450635731, -0.1769482046, 0.2555702627, 0.1137277186, 0.1730684340, -0.0199420210, 0.0870544761, 0.2409318388, -0.1135057434, -0.2328528017, 0.0785004720, -0.0006159588, -0.0289233383, 0.2505004108, 0.0424426310, 0.1568304598, 0.0310411975, -0.1697764397, 0.0227903873, -0.0309676919, -0.0292338561, -0.0199693330, 0.0505997092, -0.1835781336, -0.2413058281, -0.2416613102, 0.0162042826, 0.1240393296, -0.0039996067, -0.0762278810, -0.1816388071, -0.2778330445, 0.0506662354, 0.0593752898, 0.0246503036, -0.1104942188, 0.1208520830, -0.0578356609, -0.2556577325, 0.0306798704, -0.2585010827, -0.2345933914, 0.0025504201, -0.1088286638, 0.0790608749, -0.0266511831, -0.2430942655, -0.2177885473, -0.1404662877, 0.1156711057, 0.1640943587, -0.2536762357, 0.1099753678, 0.0500643775, -0.1254069209, -0.2574428022, -0.2111184597, -0.1508892626, 0.0822658539, -0.1838856488, -0.2511041164, 0.0356126092, -0.0417191125, -0.2235889584, -0.0778691247, -0.0262547098, 0.1610239744, 0.0822257996, -0.1376133114, -0.2463890761, -0.1472206563, 0.0354175158, -0.2027385831, -0.2273558825, -0.2077187598, 0.0620997213, 0.1440240890, -0.2076056898, 0.1619270891, 0.2114875764, 0.1403788775, -0.0117514590, 0.1967525929, -0.1138866320, 0.2105397731, 0.0425364897, -0.0567810498, -0.1328928322, 0.2604487836, 0.2283412963, -0.0843595415, 0.2039599270, -0.2300401628, -0.2277524769, 0.1957644671, -0.0542108901, 0.0644304827, 0.1482966095, 0.1185946390, -0.0636882260, 0.1642470509, 0.2167667150, -0.0921331495, 0.0950215831, -0.0633601770, 0.1074684784, -0.1789172292, 0.1484379619, -0.2224456668, -0.2138646394, 0.0262411218, -0.0620811433, 0.2168885022, 0.1062097773, -0.2739245296, -0.0059858058, -0.1003686264, -0.0575976595, -0.1355742663, 0.0304037873, -0.1391075999, 0.1974490881, -0.0722486079, 0.2103148699, -0.0232082233, -0.1688331962, -0.0233144630, -0.1962211132, 0.0722399056, 0.0730795339, -0.1135092676, 0.4750018418, 0.2635189891, -0.2426099926, -1.7896649837, -0.1718892306, -0.1434830874, 0.4947673678, 0.4326859713, 0.4009593427, -1.4846202135, 0.5166974068, -1.5022408962, -0.6780965328, -0.2337583154, -1.7769731283, -1.2636462450, -1.6018090248, -1.8273806572, -1.0573536158, -0.9744662642, -0.0737978965, -1.3904038668, 0.3393841684, 0.4661362767, -1.5004055500, -0.5242347717, 0.3207587302, 0.2843692005, 0.2715853453, -0.3720875978, 0.6282368302, 0.0307331309, 0.2373180985, -1.4196805954, -0.2529228926, 0.0779509842, 0.1668663770, -1.2746368647, 0.0937446803, -0.8449766636, 0.4146958292, 0.3524157405, 0.1618001461, 0.3381609917, 0.3051633239, -1.1013491154, 0.4069281220, -0.1892166585, -0.7207157016, 0.3056668341, 0.1961841136, -0.1427793354, 0.1210792586, -0.1513286382, 0.2500154972, -0.0481532402, 0.0124432510, 0.1896419674, -0.2582546771, 0.0784831345, 0.0340046026, -0.1932480931, 0.1039384156, 0.0979048535, -0.1191463321, -0.2175866365, -0.0262883268, -0.0868080109, 0.0071039842, 0.0024294565, -0.1764818877, -0.1562450975, 0.0402835086, 0.1574520320, -0.2642435730, -0.2416328043, -0.2094589025, -0.2571237981, 0.1316925883, -0.0065446510, 0.2477218658, 0.1537360251, -0.1961538494, -0.1152175069, -0.2330568433, -0.1841592938, -0.0731092691, -0.2615266442, 0.1530356407, 0.1428666115, -0.1099923253, 0.0773640200, -0.1543468684, -0.0986831561, -0.2169669271, -0.0872153118, -0.1680344194, 0.1753928512, 0.0774073377, -0.0635694265, -0.0431930982, 0.0360364728, -0.1617048979, -0.0478322096, 0.2175414562, 0.3448003829, 0.5307373405, 0.3624418974, -0.3460260332, -0.0263561793, -0.9585705400, 0.3582120240, 0.1905180812, 0.4106438160, 0.5332512259, -1.4719539881, -1.3628017902, -1.6037689447, 0.0142169977, -1.1453684568, -1.1604367495, -1.5457224846, -1.2207968235, 0.2372963727, 0.2703609765, 0.2053657174, 0.0983947068, 0.2952699363, -0.4335485101, 0.2156507522, 0.2468546331, 0.1915286630, 0.1650767326, -0.7762876153, 0.2931398451, 0.1011784673, -1.3113553524, -1.5879789591, 0.3058434427, -1.8219590187, -1.8623074293, -1.7591347694, 0.2061683983, 0.2985035777, 0.3421075046, -0.2486973852, -0.1489602625, 0.0006306040, -0.2238575667, 0.2597727776, 0.1891047060, 0.2958683372, 0.2430398613, 0.3050454259, 0.1294733286, 0.0169454981, 0.0501529500, -0.2451432198, -0.0479102731, 0.1641367525, -0.1285956204, 0.0027175914, 0.0307499561, -0.1557106525, 0.1471741796, 0.1022394672, -0.1989894509, 0.2014934272, 0.1353732347, 0.0588285401, 0.2499121279, 0.2348598391, -0.0594660342, 0.0073670703, -0.0944247991, 0.1265767068, -0.2005227357, 0.2427292764, -0.1766832471, 0.1358164847, 0.2467349023, 0.0284844656, -0.0191078000, -0.1957425773, 0.2071761638, -0.1379716992, 0.2061520070, 0.1252577156, 0.0538417511, -0.0012087221, 0.1863005608, 0.0092169652, 0.2149923444, -0.0579914637, -0.0729653388, 0.1969604343, 0.1647723466, 0.2274245024, -0.0603988171, -0.1582821310, 0.1283080131, -0.0717138126, -0.1423188448, 0.0605470650, 0.0690714195, 0.1199134439, 0.0520847291, -0.1415906549, -0.0751969218, -0.0683016703, -0.0837721676, -0.0422104858, 0.0829940662, -0.0456199348, -0.1852315068, 0.1868147850, -0.0424844176, 0.0921059325, -0.1329081208, -0.2241717577, -0.2764512897, -0.2115698159, -0.2140894979, 0.0486787520, -0.2091420740, 0.0881264135, 0.1392411143, 0.1573463231, -0.0048565818, 0.1268317252, -0.1772704720, -0.2072830349, 0.1865861565, 0.1328831315, -0.0461807325, -0.0399196334, -0.0047626570, -0.1072674990, -0.2380509079, 0.1995069385, 0.2177459300, -0.0258972738, 0.0183010194, -0.1895125210, -0.0051314346, 0.1721542925, -0.1035120338, 0.1048581824, 0.1768765748, -0.1744587421, 0.1844190806, -0.2044385821, 0.1434033811, 0.0350133926, 0.1761248410, 0.1009878218, -0.0640255287, -0.0674146488, 0.1552617401, -0.1170033216, 0.0143610835, -0.1848601997, 0.0004537404, 0.1468327641, 0.0076118708, 0.1926542521, -0.0733573139, -0.0849262029, -0.1986334771, -0.1527460515, -0.2580959499, 0.0533298552, -0.0554737151, 0.0968844295, 0.0803543031, -0.1207454652, -0.0712567866, -0.2249476314, 0.1938256621, 0.0880318582, -0.1350647062, 0.1888708770, -0.1040363610, 0.0689210594, 0.1105848551, 0.2098230422, 0.2284622788, 0.2037933469, -0.0906260312, 0.1372818351, -0.1834563762, 0.0200322568, -0.0326887071, -0.0859254003, -0.2403674275, -0.0833669752, -0.1255899072, -0.1365362555, -0.0373584181, 0.1687085032, -0.2336763144, -0.0162857473, 0.1266666651, 0.0917581916, -0.0703368038, 0.1817825735, 0.1532183588, 0.1815111935, -0.1132209599, 0.2053615451, -0.1359627694, -0.1745593846, -0.1633866578, 0.2528765500, -0.0258122887, 0.2597356737, -0.0973692015, 0.2445271462, 0.2390470803, 0.1280494332, 0.2514103055, 0.1567019820, -0.1311186999, 0.2425035536, -0.0145339519, 0.2172217071, 0.0390228555, 0.1842832714, 0.1705493480, 0.0669622421, 0.0805592835, 0.1522348225, 0.1115833521, -0.0908737481, -0.0084236832, 0.0044990554, 0.1639918685, -0.0086045088, -0.1365161687, -0.1128704771, -0.1744676530, 0.2007517070, 0.2583522797, 0.0610338449, -0.1091670841, -0.0602511764, -0.1130347997, -0.2455382496, -0.0795751140, 0.0444941930, 0.1949703544, -0.1168050990, -0.0503931344, 0.1414353251, 0.0028343687, 0.0468731597, -0.0737182349, -0.1647181660, -0.2723875046, 0.1574712396, -0.0024544913, 0.0446857512, -0.0313809179, 0.2864329219, -1.1380246878, -1.3771289587, 0.7712381482, 0.4576407671, 0.1915212125, -1.1467825174, 0.5093126297, 0.4174022973, 0.3839105666, -0.9241427183, 0.4260102808, -0.9720636010, -0.0440680124, -1.2646883726, 0.6878351569, -0.4535957873, -0.7780930400, 0.3679714501, -1.0386599302, -1.6868603230, 0.2840364277, 0.0214727763, -1.2344490290, -0.7054893374, -0.6984622478, 0.4500651956, -1.6091325283, -1.2711141109, 0.2966839075, 0.2488087267, 0.3043961823, 0.4525417387, -1.5484813452, -1.2784490585, 0.1706103086, 0.3596402705, 0.0255415887, 0.3647083044, 0.4148337245, -0.9302048683, 0.6780412793, -1.3342640400, 0.4528789520, -1.2630385160, -1.1553933620, -1.4991936684, 0.2763879299, 0.6881675720, 0.3544066250, -0.8156764507, -1.1903722286, 0.3266044259, -0.4757771194, -0.1375234276, -0.3264018893, -1.2929532528, -1.3502916098, -0.0682319403, -0.2467225641, -1.1072565317, -0.7231367826, -1.2685737610, -0.4425985813, -1.4457124472, -1.1003700495, 0.3566184342, 0.0490674004, -1.0936219692, -1.3831481934, -0.4754576981, -1.0460783243, 0.4444729090, 0.1972378343, 0.3316120803, 0.2389237583, 0.4104581177, 0.2045212239, 0.2126688957, -0.1274719387, 0.4635161459, 0.1965770572, -0.6301671267, 0.2082924098, -0.9491484761, -0.4025716484, -0.6147199273, 0.1709679663, -1.0847655535, 0.4268435836, 0.0667790398, 0.4446230829, 0.2524992228, -0.3393612504, 0.1240778714, 0.0257471800, 0.2558509409, -0.0980058685, -0.8131388426, -0.4492073953, 0.3572458029, -0.7830601335, -0.6491279602, -0.7728185654, 0.1283637881, 0.0515735075, 0.0364033878, -0.2504564822, -0.2519383729, 0.2192626297, -0.0949408934, -0.2187360376, 0.0091927070, 0.0662523806, 0.0693628863, -0.0588949993, -0.2668195963, -0.1739078611, 0.0007952401, -0.1075717807, -0.0794319808, 0.0987285152, 0.0428692997, -0.1087271571, 0.0065569100, -0.0738153756, 0.0423025377, 0.1401934326, -0.0990444273, 0.1523108482, 0.1823083609, 0.1201851740, 0.2011106610, -0.1797733903, -0.1119814217, -0.1175523251, 0.0621802583, -0.0242309663, -0.1582749337, 0.0805593207, -0.0954960734, 0.1685502529, -0.1295609772, -0.2455272973, -0.1073744148, 0.0979429632, -0.0707605854, 0.0074501084, 0.0521262512, -0.0878024325, 0.1321989298, -0.1392973065, -0.0063278810, -0.2501696944, 0.0563999712, -0.0695382357, -0.0325691700, 0.0746282339, 0.2503044605, 0.0145746758, -0.1838322133, -0.0287398361, -0.2632029355, -0.1137850061, 0.2177002430, 0.1274871081, -0.2324412465, 0.0977650806, -0.1751665175, -0.1059007719, 0.0163962375, -0.1340130121, -0.0743905604, 0.2084624618, 0.2480864823, 0.1861062646, -0.2269408852, 0.0890090242, -0.1953780651, -0.0567069650, -0.1679541320, 0.1037073433, 0.0990458205, 0.0059013478, -0.1063552424, 0.0008244084, 0.1604681909, 0.1618548185, 0.0044836826, 0.1958144903, -0.1428375393, 0.0590455979, -0.1338679641, 0.0449985936, -0.2517422736, 0.0083672684, -0.0774592981, -0.0499968566, 0.2569541037, -0.1528151482, 0.2483488321, -0.0062606377, -0.1640644521, 0.1587504148, -0.0734341219, -0.2045610398, -0.1362102628, -0.0102020400, 0.1953390986, -0.1199793071, -0.2542305291, 0.0565529801, 0.1610959172, 0.1132757068, 0.2234517932, -0.1007873639, 0.0419206247, -0.1278470904, 0.1890867800, 0.1641710252, 0.1016435772, -0.0359279923, 0.0540398955, 0.1279189885, -0.0439740196, -0.2342577577, -0.0993537679, 0.0191034023, 0.2154999673, -0.0778243914, 0.1180166900, -0.1548602134, 0.1234547719, -0.1426563561, 0.0874502137, 0.2148552239, -0.1076137200, -0.0388505869, -0.0677552894, -0.0312560089, -0.2446878999, 0.1479017884, 0.0564498790, -0.0828312039, 0.1241787300, -0.0805628300, 0.2549522519, 0.1287024915, -0.2059121579, 0.1187400147, 0.1504141539, 0.2408068478, -0.1900727451, 0.0134714004, 0.2531274557, 0.0733154118, -0.2358973920, 0.1143650189, 0.1873470843, 0.1948011369, 0.1732482910, 0.0263779964, -0.2462530136, -0.1640570164, -0.1661090553, -0.0735509992, 0.1165174246, -0.1607593596, -0.1883458346, -0.1558625847, -0.0182402190, 0.1366791725, -0.0765482783, -0.0160078313, -0.2556884587, -0.1551585943, 0.1189751178, -0.0409375206, 0.0582398362, -0.2397976667, 0.0549364053, 0.2079285234, -0.1806577146, 0.1853110045, -0.2338468432, -0.2672775984, 0.0204538926, 0.0528793149, -0.1349281669, 0.0111313704, -0.0533750206, 0.0169129930, 0.2063047588, 0.2284282446, -0.2013400793, 0.2557649612, 0.1063569114, 0.0646236092, -0.0932337344, -0.1440394223, -0.0330905579, 0.0005851591, -0.0299741458, -0.2043636739, 0.1471498609, 0.0080119697, -0.2588893175, 0.1399162412, -0.0680210143, -0.2135594487, 0.0398945399, 0.1703612208, 0.0806380361, -0.0041766241, 0.0410187989, 0.1637655646, 0.1224955171, 0.2409235686, -0.0399262682, -0.1262038201, 0.1591229737, -0.1431458294, -0.1423299015, -0.0246800166, 0.2531236410, -0.1370177418, -0.2055112720, 0.2541925907, -0.1676169485, -0.0307158381, 0.1724360585, 0.0406464934, 0.1618692577, 0.1301589310, 0.0071680052, 0.1497894526, -0.2348344028, -0.2127749920, -0.0614065416, 0.0524424575, 0.1796685457, 0.0233712234, 0.2509635389, 0.2425578684, -0.1039048284, -0.2085527927, -0.0346136279, -0.1845043302, -0.0900428295, 0.2389890850, 0.0010039717, 0.0032353373, 0.0230151098, 0.0835262015, 0.0666891262, -0.2258801907, 0.0039958712, 0.2447545230, -0.2134301811, -0.1210458875, 0.2304349840, -0.1090469435, 0.2296050787, 0.1110823154, 0.0406131968, -1.5307995081, 0.1692262143, -0.3811060488, -0.1226809323, 0.2237328887, 0.2127402127, 0.2294302434, 0.1349354833, 0.3941693306, 0.2745801806, -0.5601221323, 0.4795567691, 0.3111492097, -0.4575909078, -0.4005556107, -0.5545226932, 0.5105196238, 0.5187773108, 0.6165508628, 0.1733780652, 0.2963695526, 0.2431420088, -0.0297132656, -0.2459415197, -1.3343948126, -1.4556248188, -1.1827881336, 0.0997972637, -1.1294579506, -0.8178424835, -1.1046913862, -0.2786702812, -1.1422846317, -0.5717273951, 0.0143435718, 0.2040360719, -0.9634572864, -0.9171537757, -1.4917361736, 0.4413412809, 0.3335753083, 0.1985863447, -0.0342306346, 0.0072230776, -0.0079861749, 0.2917069495, -0.5290257335, -0.1678333730, -0.0664661750, 0.1442087293, 0.3052125871, -0.0006078355, 0.5048446059, 0.4150393605, 0.6381208301, -0.0445960872, -1.3720363379, -0.8139547110, -1.3496326208, -1.5947984457, -1.2086057663, -1.4508144855, -1.0493854284, -0.0336297788, -0.0376799293, -0.2189613432, -1.6048594713, -0.9290540218, 0.0751108304, 0.2460917383, -1.3071777821, 0.5350591540, -1.6525285244, -0.0513932146, -1.3968436718, -0.8931981325, 0.3989585042, -1.2093085051, -1.1024308205, 0.5510143638, -1.2969484329, 0.5033998489, -0.3176698387, 0.3695199490, 0.5313537121, 0.2821010351, -0.9877026677, -1.3534524441, -1.4312477112, -0.6146213412, 0.2107647806, 0.0150012672, 0.0039530429, 0.3411340117, -0.4170672894, 0.2392717302, 0.1924529225, -0.0295260269, 0.1768798679, 0.3537395895, -0.4392815232, 0.3179940581, 0.3655701280, -1.5840395689, 0.1343061030, -1.4502854347, -1.5366009474, 0.1527578831, 0.1426312327, -0.1026628688, -0.0327958018, -0.0334392004, 0.1826218218, 0.0430814438, 0.1109865829, 0.3667799234, 0.0209830273, 0.4424998164, 0.2135228962, 0.3777706921, 0.2439315021, 0.3497983813, -0.1705561727, -0.1251881570, 0.2597812414, 0.3072400689, 0.0267313290, 0.6039935350, -0.2340372354, 0.0933491290, 0.3536463082, 0.0581272058, 0.4399963319, 0.2606077492, -1.2382841110, 0.2092120051, 0.2233189791, 0.2705141306, 0.0479934290, 0.1311101466, 0.2904116511, 0.2939558625, 0.2486389428, -1.8116916418, -1.9005024433, -0.6770421267, -1.9762381315, -1.9306192398, -1.6482752562, -1.2837527990, -1.5694667101, -1.7372450829, -1.6142761707, -0.3955259621, -1.5369149446, 0.2623601258, -0.9518722892, -0.7564410567, 0.6168662310, -1.8391120434, -1.5888028145, -1.6554058790, -1.5008356571, 0.3416561782, -1.5983693600, 0.1010508761, -1.3439157009, -1.6135851145, -1.4443743229, -1.2578675747, -1.3549318314, -1.4790198803, -1.5168449879, -0.7074609399, -1.1456055641, -1.0794731379, -1.6382226944, -0.3211549222, 0.4167782366, 0.3790385127, 0.3423595726, 0.5482413769, 0.2433141768, 0.2958798707, -0.4389498532, 0.3327368796, 0.1109736040, -0.0167830233, 0.1997645199, 0.4252428114, 0.2017310262, 0.4292424619, -1.5979562998, -1.2799164057, 0.2193003297, 0.1094758958, -0.2217853814, -0.7010456920, 0.1527706683, 0.1187800243, -0.0836083665, 0.3981543481, 0.4115671813, -0.2953379750, 0.0912556201, 0.3161257505, 0.2899953723, 0.4082457721, 0.4816625714, 0.4737437963, -0.0789407939, 0.5131389499, 0.1556770205, 0.1082375497, -0.5420806408, -1.2793885469, -0.1289498210, 0.2527145147, -1.2974702120, 0.1832912415, -1.4190624952, -0.9166846871, -1.5789544582, 0.5220771432, -0.7904463410, -1.0385144949, -1.2623881102, -1.4897661209, -1.1049298048, -1.7070769072, -1.7308517694, -1.6482841969, -1.7786347866, 0.1019434109, -1.2141110897, -1.6383469105, 0.3546237051, 0.3341545165, -1.2730381489, 0.0635395274, 0.1615756899, 0.4724214077, 0.4221709073, -1.5130652189, -1.5717355013, -1.3549606800, 0.3311967254, 0.4491489828, 0.3521609902, 0.2055386752, 0.2945277691, -0.0366684012, 0.4303147495, 0.3940378428, 0.0677898899, -0.1921840012, 0.4089485109, 0.3133696616, 0.2236448675, 0.0415847637, 0.2598639131, -1.6213380098, -1.0645262003, 0.3993780911, 0.2945737243, 0.2713776529, 0.3772161901, 0.0713248327, 0.3890290856, 0.4230532348, 0.2735077441, -1.3473862410, -0.8434465528, -1.0188047886, -1.5405514240, -1.4912065268, -0.2162475437, 0.4029779732, -1.3321868181, -0.9761214256, -1.3828619719, 0.2275540233, 0.1404042244, 0.2111027241, -0.2896142602, 0.0592570938, -1.4965862036, -0.0721453130, -1.6226314306, -1.3041193485, -0.9453470111, -1.0076074600, -1.0521445274, -1.1117230654, -0.1339563280, 0.3540793955, 0.3704842329, 0.6112418175, 0.3065396249, -0.8630955815, -0.1934330463, 0.3214769661, 0.0519907810, 0.2330336273, 0.5253159404, 0.5720461011, 0.3592442572, 0.5142998099, 0.4844913781, 0.1560155600, 0.4610231817, -0.2504318953, -0.1115307808, -0.0172893554, -0.0639236271, 0.0804694891, -0.2568309605, 0.0857399702, -0.1117181182, 0.0114488900, -0.1335198134, 0.2632650435, 0.1659792364, 0.2667047083, 0.2015866935, 0.0413226485, -0.1927798390, 0.0671423972, -0.2515299618, 0.2483749092, 0.0590033531, -0.0484763682, -0.2470604479, 0.0201229751, 0.2288045883, 0.0010868013, -0.2026531994, 0.0555397868, -0.1437010616, -0.2647195160, 0.1875274479, -0.0861201286, 0.1305969656, -0.0475158393, -0.0265049934, 0.2007805705, -0.2634260654, 0.0092700422, 0.0703861713, -0.1932285428, 0.1486192346, 0.2362689674, 0.2522415221, -0.0128739476, -0.2159576714, 0.0872799456, 0.1208822131, -0.0557778478, 0.2014800310, 0.0802707672, -0.2033243477, -0.0733020753, -0.0983606130, -1.6039856672, -0.7286339998, 0.5244695544, -1.2945078611, 0.3807139099, 0.0469145887, 0.2350704819, 0.0480751768, 0.1017366126, 0.4447540641, 0.4848124981, 0.1418407857, -0.3086571395, 0.1796270162, 0.5065631866, 0.2621921599, 0.2299114764, 0.3356988728, 0.1596701592, 0.3068351448, 0.1278903186, 0.1146453694, 0.0330239497, 0.2494275719, -1.6578147411, 0.2065996379, 0.3063587844, -1.0079538822, 0.0296152234, -1.1666007042, 0.2857543826, -1.3115018606, -1.9571851492, 0.4049409032, 0.4299958348, 0.1718415320, -0.0124896551, 0.0912660956, 0.1334577948, -1.8452367783, -1.3003158569, -0.2593075335, -1.8773612976, -0.6120182276, -1.3303186893, -1.3852484226, -1.3639373779, -0.6945958734, -1.6256031990, -1.4854667187, -1.4633651972, -1.4106732607, 0.0237015486, 0.2300634384, -0.1523994207, 0.1500191689, 0.0006836653, 0.1477083564, -0.1363022774, 0.0246629715, 0.1889558733, -0.0278610736, 0.1077031195, 0.2356422246, -0.0297325999, 0.0763137341, 0.1186274886, 0.1438775659, 0.1848831475, -0.0440897495, 0.2256326079, 0.1378397048, -0.1832603812, -0.1931414455, -0.1047978103, 0.0134312809, 0.1610923111, 0.2420912683, -0.0609258562, -0.0384097993, 0.0683816075, -0.1528214365, -0.0212488472, -0.2030511200, -0.0766638219, -0.1797223836, 0.0602351427, -0.1127710938, -0.0715591460, -0.0381053537, -0.0536629856, -0.1313654333, 0.1511954367, -0.2477017343, -0.2291389406, -0.0164021850, 0.1202428341, 0.2605338395, 0.0592265725, -0.0221956670, 0.1476184428, 0.0037366748, -0.0402775109, 0.2519476712, -1.4790387154, -1.0047068596, -1.4133757353, -1.3141347170, 0.2416006029, 0.3400826454, 0.3299633563, 0.1677050591, 0.1542758495, -0.1687288284, 0.4977252781, 0.3864226043, 0.4301057458, 0.5627273321, 0.4342346191, 0.2590288520, 0.5281065106, 0.1482614428, 0.5088307261, 0.4710959196, 0.3645902276, -0.7310240269, -0.5503743291, 0.2100835145, -0.0053292746, -0.0200499706, -0.4494286180, 0.2467975616, 0.0716249347, -1.3325449228, 0.5074386597, 0.7267236710, 0.0996542573, -1.4515082836, -1.5780328512, -2.0290935040, 0.1855204552, 0.3272118568, 0.4630911052, -1.7042728662, -1.2560764551, -0.7273533344, -0.3097705543, 0.1517276615, -1.4422466755, -1.3906753063, -1.4340511560, -1.7017188072, -1.1256917715, -0.2242302448, -1.6861609221, -1.3837989569, -0.1521198153, -0.1669340581, -0.0776564851, 0.0644102246, -0.2482362241, -0.0964855403, 0.1211143807, 0.0600074157, -0.2375049591, -0.0874668807, 0.2403962612, 0.0441454574, 0.0023673265, 0.0065504443, 0.3578842580, 0.1404660046, -0.0667305291, -0.0562568642, 0.0857299566, 0.0467561223, -0.2254490405, 0.0637679100, -0.0384798534, -0.5212339163, -0.4203667343, 0.0162054542, -0.1904754937, -0.2207753509, -0.2016769797, -0.0538203269, -0.4254442453, -0.1341861635, -0.3268722594, -0.1460517496, 0.0027945477, -0.2846331000, -0.0456870534, -0.0692614540, 0.0506866686, -0.2660067677, 0.1525554508, -0.0280520506, -0.3567831516, -0.3411126733, -0.1067620590, -0.3650947213, -0.1906367391, -0.3031671047, -0.1825733632, -0.2250273973, -0.3622772098, -0.2095656246, 0.3128031790, 0.4943663478, 0.2152978778, 0.1735445410, -1.7708172798, -0.9628825784, -1.5208287239, -1.8258508444, -1.8800106049, -1.5025141239, -1.1829003096, -1.6941838264, 0.5623835921, 0.3179844320, -0.7141097784, 0.5445206761, -0.6897364855, -0.8737376332, -0.6540174484, -1.1963486671, 0.3309521973, 0.5029393435, 0.2276327610, -0.5975221992, 0.4846454859, 0.2080744654, -0.1769354939, 0.4698719084, -0.8910779953, -0.1228016019, 0.3176597655, 0.4382399321, 0.1337208003, 0.1729837507, 0.0636133030, -1.5278332233, -1.4766696692, -0.8491294980, 0.2750320733, -1.8145005703, 0.2786053717, -1.2502124310, 0.0094421683, 0.2607979476, -0.0720132366, -0.6268454194, 0.3251627386, -0.1489887536, -0.1421604753, 0.3679111302, -1.1696648598, 0.2851016223, -0.1398989856, 0.0186984241, 0.1257048994, -0.0676455870, 0.1292706877, -0.2046574503, -0.2059469074, -0.0275765248, -0.1480411440, -0.0227322783, -0.0880469605, 0.1782433987, 0.0179679170, 0.2515797317, -0.1795581579, 0.1103494540, -0.0722889081, 0.1366331577, -0.0828746408, -0.1603763252, 0.1480660886, -0.1856043637, -0.1623068750, 0.1277701110, 0.2033400834, -0.1608531177, -0.2072333843, 0.0824657455, -0.2149982750, -0.1711862087, 0.0734846890, -0.1411309391, 0.1392225921, -0.2640790343, -0.1435839534, 0.2476297766, -0.1768233180, -0.1961931735, 0.0451859981, 0.1484819949, -0.0089408858, 0.0343994424, 0.2151031047, -0.1584499627, 0.2310839593, 0.0886289403, -0.2602139115, 0.2496797144, -0.0365720242, -0.2106646448, 0.0789621025, 0.0385899954, -1.4832578897, -1.6091744900, -0.9902395010, -1.3694341183, -1.5279777050, -1.6694140434, -2.0522513390, -1.7746719122, -1.0338087082, -1.7456039190, -1.7224553823, -0.2636165619, -1.4525377750, -1.6602481604, -1.9228209257, -1.1517819166, 0.5966607332, 0.1825776994, -1.5955325365, 0.4954849780, -1.1270213127, -1.4429271221, -1.7798920870, 0.0174888466, -0.2302863747, 0.3956011832, -1.1752405167, 0.4597811699, -0.1368803680, 0.4268259704, -1.1539231539, 0.1797622293, 0.4042326510, -0.4550166130, 0.3768162429, 0.4465405941, 0.5807700157, 0.2115844786, 0.3341997266, 0.4223206341, 0.5210750103, 0.2153706998, 0.2371343374, 0.2807366550, 0.3666479886, 0.3586806953, 0.0152568258, 0.3766480386, 0.1375864893, 0.3388704658, 0.4479779899, 0.2944023013};
#endif

#endif
