//Numpy array shape [3, 3, 3, 4]
//Min -0.459848701954
//Max 0.510030329227
//Number of zeros 81

#ifndef W2_H_
#define W2_H_

#ifndef __SYNTHESIS__
model_default_t w2[108];
#else
model_default_t w2[108] = {-0.0000000000, -0.0000000000, 0.0000000000, 0.4390305877, -0.0000000000, 0.2671002150, -0.4558160305, 0.4921260178, -0.3366038203, -0.0000000000, -0.3176162541, -0.0000000000, -0.0000000000, -0.0000000000, 0.0000000000, 0.4381024539, -0.3211391866, 0.2860783339, 0.0000000000, 0.3616436422, -0.0000000000, -0.0000000000, 0.0000000000, -0.0000000000, -0.0000000000, -0.0000000000, 0.4723410010, -0.0000000000, -0.0000000000, -0.0000000000, 0.3671226501, -0.0000000000, -0.0000000000, -0.0000000000, 0.0000000000, -0.0000000000, -0.0000000000, -0.0000000000, 0.0000000000, -0.0000000000, -0.0000000000, -0.0000000000, -0.3544701338, -0.0000000000, -0.3626424968, -0.0000000000, -0.3320429921, -0.0000000000, -0.0000000000, -0.0000000000, 0.0000000000, -0.0000000000, -0.0000000000, -0.0000000000, 0.0000000000, -0.0000000000, -0.0000000000, -0.0000000000, 0.0000000000, -0.0000000000, 0.3053715825, -0.0000000000, 0.0000000000, -0.3590131998, 0.0000000000, 0.2476751953, 0.3937286437, -0.0000000000, 0.5100303292, -0.0000000000, 0.4406605661, -0.3590904176, 0.0000000000, -0.4598487020, 0.0000000000, -0.0000000000, 0.0000000000, -0.0000000000, -0.3386583924, -0.0000000000, -0.0000000000, -0.0000000000, 0.0000000000, -0.0000000000, 0.0000000000, -0.0000000000, 0.0000000000, -0.4086482823, 0.0000000000, -0.0000000000, 0.0000000000, -0.0000000000, 0.0000000000, -0.0000000000, 0.0000000000, -0.0000000000, 0.0000000000, -0.0000000000, 0.0000000000, -0.0000000000, 0.0000000000, -0.0000000000, 0.0000000000, -0.4450293779, 0.0000000000, -0.0000000000, 0.0000000000, -0.3409164846};
#endif

#endif
