//Numpy array shape [3, 3, 3, 4]
//Min -0.409129261971
//Max 0.437875956297
//Number of zeros 0

#ifndef W2_H_
#define W2_H_

#ifndef __SYNTHESIS__
conv1_weight_t w2[108];
#else
conv1_weight_t w2[108] = {0.1344579607, 0.2458639592, -0.2561549544, -0.2475003600, 0.0002308380, -0.0506889746, 0.2501503825, 0.1928941309, -0.1262067109, 0.0168667976, -0.0345622599, 0.3400503397, -0.2259645462, -0.2246985435, 0.2003905624, -0.0849040002, -0.0487890020, -0.2867458463, -0.2843339741, 0.1354249418, 0.2609827220, -0.4091292620, -0.3957539499, 0.1612317264, -0.1972548962, 0.0148357926, -0.1356265843, 0.0137719978, 0.0249066409, -0.2839103043, -0.2382921726, 0.2257400304, -0.0636386946, 0.1979441345, -0.3278003633, 0.0012307074, 0.2014315873, 0.1726794988, 0.1378999799, 0.1002564803, 0.2922880352, 0.3400993049, -0.0196446180, -0.2422606796, 0.4378759563, -0.1746547520, 0.2110943943, -0.0715546608, 0.2912383974, -0.0867576301, 0.3159708083, -0.1120587885, -0.0720525607, 0.0891602412, 0.0606731884, -0.3419795632, 0.1503224969, -0.0174691658, 0.1365627199, 0.1684519798, -0.2037347257, -0.0767570138, 0.1704191417, -0.0015934982, 0.1119088233, 0.0759432018, 0.0857782066, -0.3252610266, -0.3996925354, -0.0942577198, -0.3414213955, -0.2900156379, 0.1377617568, 0.2348298728, 0.4361145794, 0.0857514367, -0.0838404447, 0.2023099661, 0.3613828421, 0.2766782939, 0.3285945058, -0.2251594067, 0.2427164316, -0.1398382336, -0.0077353115, 0.1844674051, -0.0158316214, -0.2275091857, -0.2587048709, 0.1188419834, 0.0441074260, 0.1262262613, -0.1334294081, 0.3048713505, 0.0778397918, 0.0646705925, 0.0101443697, 0.0906504244, 0.3506538868, 0.0618212447, -0.3953885734, -0.1786468178, -0.1133776531, 0.1146759018, -0.2758680880, -0.3555984497, -0.3512253463, 0.1776780933};
#endif

#endif
