//Numpy array shape [3, 3, 4, 8]
//Min -0.566534519196
//Max 0.949469149113
//Number of zeros 216

#ifndef W5_H_
#define W5_H_

#ifndef __SYNTHESIS__
model_default_t w5[288];
#else
model_default_t w5[288] = {-0.0000000000, -0.0000000000, 0.0000000000, -0.0000000000, 0.3383708894, 0.4204026759, 0.0000000000, -0.0000000000, -0.0000000000, -0.4726321697, 0.0000000000, -0.0000000000, 0.3371679187, -0.0000000000, 0.3896375895, -0.0000000000, -0.0000000000, 0.0000000000, -0.0000000000, -0.0000000000, 0.0000000000, -0.0000000000, 0.3937463760, -0.0000000000, -0.0000000000, 0.3728249669, 0.0000000000, 0.0000000000, -0.4806290269, 0.0000000000, 0.0000000000, 0.0000000000, -0.0000000000, -0.0000000000, 0.0000000000, -0.0000000000, 0.5971781611, 0.4150283635, -0.0000000000, -0.0000000000, -0.0000000000, -0.0000000000, 0.0000000000, -0.0000000000, 0.6940917969, -0.0000000000, 0.4608970284, -0.0000000000, -0.0000000000, -0.0000000000, -0.4902223349, -0.0000000000, 0.8891133070, 0.3512305021, 0.4962621331, -0.0000000000, -0.0000000000, 0.0000000000, 0.0000000000, 0.0000000000, 0.0000000000, 0.0000000000, 0.0000000000, -0.0000000000, -0.0000000000, -0.0000000000, 0.0000000000, -0.0000000000, 0.5385826826, 0.7630690336, -0.0000000000, -0.0000000000, -0.0000000000, -0.4690469205, 0.0000000000, -0.0000000000, 0.3937729001, -0.0000000000, 0.0000000000, -0.0000000000, -0.0000000000, -0.0000000000, -0.0000000000, -0.0000000000, 0.7301154733, 0.5210532546, -0.0000000000, -0.0000000000, -0.3645897508, 0.0000000000, 0.0000000000, 0.0000000000, 0.0000000000, 0.0000000000, 0.0000000000, 0.0000000000, -0.0000000000, 0.4006124139, 0.0000000000, 0.5628644824, -0.0000000000, 0.0000000000, -0.0000000000, 0.4952743649, 0.3839650452, -0.5581668019, 0.6520093083, -0.0000000000, -0.0000000000, 0.3749532104, 0.4764611721, -0.4303221703, -0.0000000000, -0.0000000000, 0.4933664799, -0.0000000000, -0.0000000000, 0.0000000000, 0.5245479941, -0.0000000000, -0.0000000000, 0.0000000000, 0.3937787712, 0.0000000000, 0.0000000000, 0.0000000000, 0.0000000000, 0.0000000000, -0.0000000000, 0.8847126365, 0.0000000000, 0.0000000000, 0.2930512428, 0.4419756532, -0.0000000000, 0.0000000000, -0.0000000000, -0.0000000000, 0.0000000000, -0.0000000000, -0.0000000000, -0.0000000000, -0.0000000000, -0.0000000000, -0.0000000000, 0.8611003160, -0.0000000000, 0.0000000000, 0.0000000000, 0.3712187409, 0.0000000000, 0.0000000000, -0.0000000000, 0.0000000000, 0.0000000000, 0.0000000000, 0.0000000000, -0.5665345192, 0.0000000000, 0.0000000000, -0.4788996875, 0.4543045163, 0.0000000000, 0.0000000000, -0.0000000000, 0.6483751535, -0.0000000000, 0.6277420521, 0.3991113901, 0.0000000000, 0.5102459788, -0.0000000000, -0.0000000000, 0.5052109361, -0.4573432207, 0.3323345184, -0.0000000000, 0.9494691491, -0.4614145160, -0.0000000000, -0.0000000000, 0.6579436064, -0.0000000000, 0.6121187210, -0.0000000000, 0.0000000000, 0.0000000000, 0.0000000000, 0.0000000000, 0.0000000000, 0.0000000000, 0.0000000000, 0.0000000000, -0.0000000000, -0.0000000000, 0.7732362747, -0.0000000000, 0.0000000000, -0.4037637115, 0.6033467054, -0.0000000000, -0.0000000000, 0.0000000000, -0.0000000000, -0.0000000000, -0.0000000000, 0.0000000000, -0.0000000000, 0.0000000000, 0.0000000000, -0.0000000000, 0.0000000000, -0.0000000000, 0.0000000000, 0.0000000000, 0.0000000000, -0.0000000000, 0.0000000000, 0.0000000000, 0.0000000000, 0.0000000000, 0.0000000000, 0.0000000000, -0.0000000000, -0.0000000000, -0.0000000000, -0.3979870677, 0.7078920603, -0.0000000000, 0.0000000000, -0.0000000000, 0.6130957007, 0.0000000000, -0.0000000000, 0.0000000000, -0.0000000000, -0.0000000000, -0.0000000000, -0.0000000000, -0.0000000000, -0.0000000000, 0.0000000000, -0.0000000000, 0.6955578327, 0.0000000000, 0.3922227919, -0.0000000000, 0.0000000000, -0.0000000000, 0.0000000000, 0.0000000000, 0.0000000000, 0.0000000000, 0.0000000000, 0.0000000000, -0.0000000000, -0.0000000000, 0.6894227266, -0.0000000000, 0.5314415693, -0.0000000000, 0.4155871272, 0.0000000000, 0.7408552766, -0.0000000000, 0.7723119855, 0.0000000000, -0.0000000000, 0.3076352775, 0.4461508691, -0.0000000000, -0.0000000000, -0.0000000000, 0.6125789881, -0.0000000000, 0.7050735950, 0.0000000000, 0.0000000000, -0.0000000000, 0.6748272777, -0.0000000000, 0.0000000000, 0.0000000000, 0.0000000000, 0.0000000000, 0.0000000000, 0.0000000000, 0.0000000000};
#endif

#endif
