//Numpy array shape [3, 3, 4, 8]
//Min -0.673050463200
//Max 0.767459094524
//Number of zeros 216

#ifndef W5_H_
#define W5_H_

#ifndef __SYNTHESIS__
model_default_t w5[288];
#else
model_default_t w5[288] = {-0.0000000000, 0.5076726675, 0.0000000000, -0.0000000000, 0.0000000000, -0.0000000000, -0.0000000000, 0.0000000000, -0.0000000000, -0.0000000000, 0.0000000000, 0.4933220744, 0.0000000000, -0.0000000000, -0.0000000000, -0.0000000000, -0.5147459507, 0.6287707090, 0.3959335983, 0.0000000000, 0.0000000000, -0.0000000000, 0.3951941133, 0.0000000000, 0.4356191754, -0.0000000000, 0.0000000000, 0.0000000000, 0.7018947601, -0.0000000000, 0.0000000000, 0.4398957193, 0.7486373782, 0.4204235673, 0.0000000000, -0.0000000000, 0.0000000000, 0.0000000000, -0.0000000000, 0.0000000000, -0.0000000000, -0.0000000000, 0.0000000000, 0.5388996005, 0.0000000000, -0.0000000000, -0.0000000000, 0.0000000000, 0.6391348243, 0.4066105485, 0.0000000000, 0.0000000000, 0.0000000000, 0.3746457100, -0.0000000000, 0.0000000000, -0.0000000000, 0.0000000000, -0.4643459320, 0.5578590631, 0.6928132772, -0.0000000000, -0.0000000000, 0.0000000000, 0.4924169779, 0.0000000000, 0.0000000000, -0.0000000000, 0.0000000000, 0.4419772625, 0.0000000000, 0.0000000000, -0.0000000000, 0.4762836099, 0.0000000000, 0.5220493078, 0.0000000000, -0.0000000000, -0.0000000000, 0.0000000000, 0.7503237724, 0.0000000000, 0.0000000000, 0.0000000000, 0.6516049504, 0.7355350256, 0.5218988061, 0.5104669929, -0.0000000000, 0.5586632490, -0.6028441191, 0.6796297431, 0.0000000000, -0.0000000000, -0.0000000000, 0.0000000000, 0.0000000000, 0.0000000000, 0.4187266231, 0.0000000000, 0.0000000000, 0.5577337146, -0.0000000000, 0.0000000000, -0.0000000000, 0.0000000000, 0.0000000000, -0.0000000000, 0.0000000000, -0.0000000000, -0.0000000000, -0.0000000000, -0.0000000000, 0.0000000000, 0.7160567045, -0.0000000000, -0.0000000000, 0.4383755028, -0.0000000000, -0.0000000000, -0.0000000000, 0.0000000000, 0.0000000000, 0.4721466601, 0.6465587020, -0.5345959067, 0.0000000000, 0.4170651436, 0.7033638954, 0.0000000000, 0.0000000000, 0.0000000000, 0.0000000000, 0.4162041843, 0.0000000000, 0.0000000000, -0.0000000000, 0.0000000000, 0.0000000000, -0.0000000000, -0.0000000000, -0.0000000000, -0.0000000000, -0.0000000000, 0.4802702665, 0.0000000000, 0.3920512795, -0.0000000000, 0.0000000000, -0.0000000000, -0.0000000000, 0.6649506092, -0.0000000000, 0.0000000000, 0.0000000000, 0.0000000000, 0.5942982435, -0.0000000000, -0.0000000000, 0.0000000000, 0.4545170963, -0.4686163664, 0.0000000000, 0.0000000000, 0.0000000000, 0.0000000000, 0.0000000000, 0.4520837963, -0.0000000000, 0.0000000000, 0.0000000000, 0.3529567420, 0.0000000000, 0.0000000000, -0.0000000000, -0.0000000000, 0.5397796035, -0.5139544010, 0.0000000000, 0.0000000000, 0.7664024830, -0.0000000000, 0.0000000000, 0.5824292302, -0.0000000000, 0.7446470261, -0.5348761082, 0.5454244018, -0.0000000000, -0.0000000000, -0.0000000000, 0.0000000000, -0.0000000000, 0.0000000000, 0.5979376435, -0.0000000000, 0.0000000000, 0.0000000000, -0.0000000000, 0.4378823936, -0.0000000000, -0.0000000000, 0.0000000000, -0.0000000000, -0.4181030989, 0.0000000000, -0.0000000000, -0.0000000000, -0.0000000000, 0.0000000000, 0.7674590945, -0.0000000000, -0.0000000000, 0.5310828686, 0.4090543091, 0.0000000000, -0.0000000000, -0.0000000000, 0.0000000000, -0.0000000000, 0.0000000000, -0.6730504632, 0.4813348055, -0.0000000000, 0.0000000000, 0.0000000000, 0.0000000000, -0.0000000000, 0.0000000000, -0.0000000000, -0.0000000000, 0.4407823086, -0.0000000000, -0.0000000000, 0.0000000000, -0.0000000000, -0.0000000000, 0.0000000000, -0.0000000000, 0.0000000000, 0.3968101740, 0.0000000000, 0.7269080877, -0.0000000000, 0.0000000000, -0.0000000000, -0.0000000000, 0.5560705066, -0.0000000000, -0.0000000000, 0.0000000000, -0.5074291825, -0.0000000000, -0.5387043953, -0.0000000000, -0.5052000880, -0.0000000000, 0.0000000000, 0.0000000000, -0.0000000000, 0.6858455539, 0.0000000000, -0.0000000000, 0.0000000000, -0.0000000000, -0.0000000000, 0.0000000000, -0.0000000000, 0.0000000000, 0.0000000000, -0.0000000000, 0.0000000000, -0.0000000000, -0.0000000000, 0.0000000000, -0.0000000000, 0.7666477561, -0.0000000000, -0.0000000000, 0.0000000000, -0.0000000000, 0.0000000000, 0.0000000000, -0.0000000000, -0.0000000000, -0.0000000000, 0.0000000000, -0.0000000000};
#endif

#endif
