//Numpy array shape [1568, 32]
//Min -0.397822767496
//Max 0.320751249790
//Number of zeros 37632

#ifndef W9_H_
#define W9_H_

#ifndef __SYNTHESIS__
model_default_t w9[50176];
#else
model_default_t w9[50176] = {-0.0895266309, -0.0000000000, 0.0000000000, 0.0894878805, -0.0000000000, -0.0000000000, -0.0000000000, -0.0973330289, -0.0000000000, -0.0000000000, -0.0000000000, -0.0000000000, -0.0000000000, 0.0000000000, 0.0000000000, 0.0000000000, -0.0682785586, -0.0000000000, -0.0000000000, -0.0796976313, -0.0000000000, 0.0000000000, 0.0000000000, 0.0000000000, 0.0000000000, -0.0000000000, 0.0000000000, 0.0000000000, 0.0000000000, -0.0000000000, -0.0000000000, 0.0000000000, 0.0493553616, -0.0000000000, -0.0000000000, -0.1206745654, 0.0000000000, -0.0000000000, -0.0000000000, 0.0000000000, -0.0000000000, -0.0000000000, 0.0000000000, -0.0000000000, -0.1366743296, -0.0000000000, 0.0000000000, -0.0000000000, -0.0000000000, -0.0586025678, -0.0000000000, 0.0000000000, 0.0000000000, -0.0746718198, -0.0781332180, 0.0000000000, -0.0000000000, -0.0587458387, 0.0000000000, 0.1037576050, -0.1814615130, -0.0551352538, 0.0000000000, 0.0000000000, 0.0401126929, 0.0000000000, 0.0000000000, 0.1682126075, 0.0000000000, -0.0578921810, -0.0583616421, 0.0000000000, -0.0000000000, -0.0000000000, -0.0000000000, 0.0000000000, -0.0000000000, -0.0804375410, -0.0000000000, 0.0000000000, 0.0000000000, 0.0000000000, -0.0000000000, -0.0000000000, 0.0000000000, 0.0000000000, 0.0000000000, 0.0000000000, 0.0000000000, 0.0000000000, 0.0000000000, 0.0000000000, 0.0731378719, -0.0000000000, -0.0000000000, 0.0000000000, -0.0000000000, 0.0000000000, 0.0000000000, 0.0000000000, -0.0000000000, -0.0000000000, 0.0000000000, 0.0000000000, 0.0000000000, 0.0518842191, -0.0000000000, 0.0000000000, -0.0000000000, -0.1135093048, 0.0000000000, 0.0000000000, 0.0000000000, 0.0000000000, -0.0000000000, 0.0000000000, 0.0000000000, 0.0000000000, -0.0000000000, 0.0000000000, -0.0604523234, 0.0000000000, 0.0000000000, 0.0000000000, -0.0000000000, -0.0656199828, 0.1107188538, -0.0000000000, 0.0000000000, -0.0000000000, 0.0000000000, 0.0000000000, 0.0000000000, 0.0000000000, -0.0000000000, -0.0000000000, -0.0000000000, -0.0000000000, 0.0000000000, -0.0000000000, 0.0000000000, -0.0000000000, -0.0000000000, 0.0000000000, -0.0765371770, -0.0000000000, -0.0000000000, -0.0000000000, -0.0000000000, -0.0000000000, -0.0000000000, -0.0000000000, 0.0000000000, -0.0000000000, -0.0621951073, 0.0590381026, -0.1284207106, 0.0564059913, -0.0000000000, 0.0000000000, 0.0000000000, 0.0000000000, 0.0000000000, -0.2224414349, -0.0000000000, -0.0000000000, -0.0000000000, 0.0000000000, -0.0000000000, -0.0000000000, -0.0699558482, -0.0000000000, 0.0000000000, 0.0983337387, 0.0000000000, -0.0000000000, -0.0000000000, -0.0000000000, -0.0619598217, 0.0000000000, -0.0000000000, -0.0000000000, -0.0900902003, -0.0000000000, -0.0000000000, 0.0000000000, -0.0000000000, 0.0351555645, -0.1019057035, 0.0000000000, 0.0636084005, -0.0599198006, 0.0826355815, 0.0000000000, -0.0000000000, 0.0000000000, -0.0000000000, 0.0000000000, -0.0591172986, 0.0000000000, 0.0000000000, -0.0000000000, 0.0000000000, -0.0000000000, -0.0000000000, -0.0000000000, 0.0000000000, 0.0000000000, 0.0000000000, -0.0000000000, 0.0000000000, -0.1051828936, -0.0000000000, 0.0000000000, 0.0950728208, 0.0000000000, 0.0000000000, 0.0000000000, -0.0000000000, 0.0000000000, -0.1554940492, 0.0971662328, -0.0657352507, 0.0000000000, 0.0444048494, 0.0000000000, 0.0000000000, -0.1065114811, -0.0642151535, 0.0000000000, -0.0000000000, 0.0000000000, 0.0000000000, -0.0691146702, -0.0000000000, -0.0000000000, 0.0000000000, -0.0643296391, 0.0000000000, 0.0000000000, -0.0756323338, -0.0000000000, 0.0556371398, 0.0000000000, -0.0000000000, -0.1163399890, -0.0000000000, 0.0000000000, 0.0000000000, 0.0000000000, -0.0000000000, 0.0000000000, -0.1553395689, 0.0000000000, 0.0000000000, 0.0000000000, -0.0000000000, 0.0000000000, -0.0000000000, 0.0832531303, -0.0000000000, 0.0000000000, -0.0000000000, -0.0000000000, -0.0000000000, 0.0000000000, 0.0000000000, 0.0000000000, -0.0000000000, -0.0627845451, -0.0000000000, 0.0000000000, -0.0910014585, 0.0000000000, 0.0000000000, -0.0000000000, 0.0000000000, 0.0000000000, 0.0728683323, 0.0000000000, 0.0000000000, -0.0000000000, 0.0000000000, 0.0000000000, -0.0595527105, 0.0000000000, -0.0000000000, 0.0000000000, -0.0000000000, -0.0000000000, -0.0666429698, 0.0440157391, 0.0000000000, -0.0000000000, -0.0000000000, -0.0785406232, 0.0000000000, -0.0000000000, 0.0000000000, 0.0000000000, -0.0000000000, -0.0548002534, -0.0000000000, 0.0000000000, 0.0000000000, 0.0000000000, 0.0000000000, 0.0000000000, 0.0000000000, 0.0000000000, -0.0000000000, -0.0000000000, 0.0000000000, -0.0000000000, 0.0000000000, 0.0000000000, -0.1393482983, 0.0000000000, 0.0000000000, 0.0000000000, -0.0862189978, -0.0000000000, -0.0000000000, 0.0999056771, -0.0000000000, 0.0000000000, 0.0000000000, -0.1405588388, 0.0000000000, -0.0000000000, 0.0000000000, -0.0000000000, -0.1694375575, -0.0000000000, 0.0000000000, 0.0000000000, -0.0000000000, -0.0000000000, -0.0000000000, -0.1400397271, -0.0000000000, 0.0000000000, 0.0000000000, 0.0000000000, 0.0000000000, -0.0576424487, -0.0000000000, 0.0476519093, -0.0000000000, -0.0627742633, -0.0000000000, -0.0000000000, -0.0000000000, -0.0000000000, 0.0608317368, -0.1087600663, 0.0000000000, 0.0000000000, -0.0000000000, 0.0000000000, 0.0000000000, -0.0000000000, -0.0687457919, 0.0000000000, -0.0000000000, -0.0551467687, -0.0000000000, -0.0000000000, 0.0000000000, 0.0000000000, -0.0000000000, 0.0000000000, -0.0000000000, 0.0000000000, -0.0000000000, 0.0000000000, -0.0000000000, 0.0000000000, -0.0600229129, -0.1268777400, -0.0000000000, 0.0000000000, 0.0000000000, 0.0000000000, -0.0943465158, -0.0741122887, 0.0000000000, -0.1073497236, -0.0000000000, 0.0000000000, 0.0000000000, 0.0000000000, 0.0000000000, -0.0000000000, -0.0000000000, -0.0000000000, 0.0000000000, -0.0000000000, -0.0000000000, -0.0000000000, 0.0000000000, -0.0000000000, 0.0000000000, -0.0000000000, 0.0000000000, 0.0000000000, -0.0712628439, -0.0000000000, 0.0563131943, -0.0000000000, 0.0000000000, 0.0357157104, 0.0831769332, -0.0000000000, -0.0851978287, 0.0000000000, -0.3248777688, -0.0000000000, -0.0000000000, 0.0000000000, -0.0000000000, 0.0000000000, -0.0000000000, 0.0000000000, 0.0000000000, 0.0000000000, 0.0000000000, 0.0000000000, 0.0000000000, 0.1590947807, 0.0000000000, -0.0000000000, -0.0000000000, 0.0000000000, 0.0000000000, 0.0847104415, -0.0560051501, 0.0000000000, -0.0000000000, -0.0000000000, -0.0000000000, 0.0000000000, 0.0576313026, 0.0567413867, -0.0000000000, -0.0000000000, 0.1051113755, -0.0000000000, 0.0466830134, -0.0000000000, 0.0000000000, 0.0000000000, -0.0000000000, -0.0000000000, -0.0000000000, -0.0000000000, 0.0000000000, -0.0000000000, -0.0000000000, 0.0000000000, -0.0000000000, -0.0000000000, -0.0000000000, -0.0000000000, 0.0000000000, 0.0000000000, -0.0631172061, -0.0000000000, -0.0000000000, 0.0000000000, -0.0000000000, -0.0000000000, -0.0000000000, -0.0000000000, 0.0000000000, 0.0494105741, -0.0000000000, 0.0000000000, -0.0672676340, 0.0000000000, -0.0000000000, 0.0000000000, -0.0000000000, -0.0645168722, 0.0000000000, -0.0000000000, -0.0000000000, 0.0000000000, 0.0000000000, -0.0000000000, -0.0000000000, 0.0000000000, 0.0607366413, -0.0000000000, 0.0000000000, -0.0000000000, -0.0788131356, -0.0600202270, 0.0000000000, 0.0646988004, 0.0000000000, 0.0000000000, -0.1227365136, 0.0000000000, 0.0000000000, 0.0000000000, 0.0000000000, 0.0000000000, -0.0000000000, -0.0388858728, 0.1179227233, 0.0000000000, -0.1226517707, 0.0000000000, -0.0623332113, -0.0000000000, 0.0000000000, -0.0000000000, 0.0000000000, -0.1118780673, 0.0000000000, 0.0559877157, 0.0000000000, 0.0000000000, -0.0974492654, -0.0540368557, 0.0000000000, -0.0000000000, -0.0700117797, -0.0000000000, 0.0000000000, -0.0000000000, -0.0000000000, -0.0501462333, -0.0676253960, -0.0000000000, 0.0000000000, -0.0000000000, -0.0563816838, 0.0895793810, 0.0000000000, 0.0000000000, -0.0000000000, -0.0000000000, 0.0711664557, -0.0000000000, 0.0000000000, 0.0000000000, 0.0000000000, -0.0000000000, -0.0000000000, 0.0980713889, -0.0631471649, -0.0000000000, 0.0000000000, 0.0000000000, -0.0751041919, 0.0000000000, 0.0000000000, -0.0736052841, -0.0000000000, -0.0000000000, 0.0000000000, 0.0000000000, 0.0000000000, 0.0924117789, -0.0000000000, 0.0000000000, -0.0000000000, -0.0000000000, -0.0000000000, 0.0000000000, -0.0000000000, -0.0486739874, -0.1239980385, 0.0000000000, -0.0000000000, 0.0000000000, 0.0000000000, 0.0685646683, 0.0000000000, 0.0000000000, 0.0000000000, -0.2077167034, -0.0000000000, -0.0000000000, -0.0000000000, -0.0000000000, -0.1804427356, -0.0000000000, -0.0000000000, -0.0000000000, -0.0000000000, 0.0000000000, 0.0000000000, 0.0000000000, 0.0000000000, -0.1108743623, -0.0899210721, -0.0000000000, 0.0000000000, -0.0000000000, 0.0000000000, 0.0492976233, -0.0000000000, 0.0000000000, 0.1196692884, 0.0000000000, 0.0436978266, -0.0746248662, -0.0000000000, 0.0000000000, 0.0000000000, 0.0000000000, -0.0697655305, 0.0000000000, 0.0000000000, 0.0000000000, -0.0000000000, 0.0000000000, 0.0000000000, 0.0000000000, 0.0000000000, -0.0000000000, 0.0000000000, 0.0625888258, 0.0000000000, 0.0000000000, 0.0000000000, 0.0000000000, -0.0000000000, 0.0000000000, 0.0000000000, 0.0638417229, -0.0000000000, 0.0000000000, -0.0000000000, -0.0000000000, 0.1026971415, 0.0000000000, 0.0000000000, 0.0000000000, -0.0000000000, 0.0987256765, -0.0000000000, 0.0000000000, -0.0000000000, 0.0000000000, 0.0000000000, -0.0000000000, -0.0583526045, -0.0000000000, 0.0492951311, -0.0000000000, -0.0000000000, -0.0000000000, -0.0000000000, 0.0000000000, -0.0000000000, -0.0000000000, -0.0000000000, 0.0000000000, -0.0000000000, -0.0000000000, -0.0000000000, -0.0000000000, -0.0000000000, 0.0707678497, 0.0734805316, 0.0809446052, -0.1365517080, 0.0000000000, -0.0939618945, -0.0000000000, -0.0000000000, -0.1067275777, -0.0000000000, -0.0599232204, -0.0000000000, 0.0529672354, 0.0000000000, 0.0000000000, -0.0000000000, -0.0000000000, 0.0000000000, 0.0000000000, -0.0000000000, 0.0000000000, 0.0000000000, 0.0000000000, -0.0000000000, 0.0000000000, 0.0000000000, -0.1108032390, -0.0000000000, 0.0000000000, 0.0000000000, 0.0000000000, 0.0000000000, 0.1122768074, -0.0000000000, 0.1510597318, 0.0764260888, 0.0000000000, -0.0000000000, -0.0000000000, -0.0589580648, 0.1469390988, -0.0000000000, -0.0000000000, -0.0000000000, -0.1835074127, 0.0000000000, 0.0486620106, 0.0000000000, -0.0642303452, -0.0000000000, 0.0000000000, -0.0000000000, -0.0000000000, -0.0000000000, -0.0000000000, 0.0000000000, 0.1625492275, -0.0000000000, -0.0995140448, -0.0000000000, 0.0000000000, 0.0000000000, 0.0000000000, -0.0000000000, 0.0389729105, -0.0000000000, -0.0656635910, -0.0000000000, -0.0000000000, 0.1154531389, 0.0000000000, 0.0000000000, -0.0911614895, 0.0000000000, 0.0000000000, -0.0000000000, 0.0000000000, -0.0000000000, 0.0000000000, 0.0000000000, 0.0000000000, 0.0000000000, 0.0000000000, 0.0000000000, -0.0000000000, 0.0000000000, 0.0000000000, -0.0000000000, 0.0000000000, 0.0000000000, 0.0000000000, -0.0000000000, 0.0000000000, 0.0000000000, -0.0000000000, -0.0000000000, 0.0000000000, -0.1339419782, -0.0000000000, 0.0778346956, 0.0000000000, -0.0000000000, 0.0000000000, 0.0000000000, 0.0000000000, -0.0000000000, -0.0000000000, -0.0000000000, -0.1390251815, -0.0000000000, 0.0000000000, -0.0000000000, -0.0000000000, -0.1378327310, -0.0581483543, -0.0000000000, -0.0000000000, -0.0000000000, -0.0000000000, -0.0000000000, -0.0000000000, 0.0000000000, 0.0000000000, -0.0865961164, 0.0000000000, 0.0000000000, -0.0000000000, 0.0559393317, -0.0000000000, -0.0686741248, 0.0691862404, -0.0000000000, -0.0000000000, -0.1139128655, 0.0000000000, 0.0000000000, -0.0868445933, -0.0000000000, -0.0000000000, 0.0000000000, 0.0654276237, 0.0000000000, -0.0000000000, 0.0000000000, -0.0574424267, -0.1535688639, 0.0000000000, 0.0000000000, 0.0000000000, -0.0000000000, 0.0000000000, 0.0609047078, 0.0000000000, -0.0615067147, 0.0482221991, -0.1500386447, 0.0000000000, 0.0000000000, 0.0000000000, -0.0000000000, 0.0000000000, -0.0000000000, -0.0000000000, 0.0000000000, 0.0000000000, -0.0000000000, 0.0000000000, -0.0655933619, 0.0000000000, 0.0000000000, 0.0000000000, -0.0000000000, -0.1497810185, 0.0000000000, 0.0513112396, 0.0000000000, 0.0000000000, -0.1770368963, -0.0000000000, -0.0589791648, -0.0595385395, -0.0989467576, -0.0000000000, 0.0000000000, 0.0000000000, 0.0000000000, 0.0000000000, 0.0000000000, 0.0000000000, 0.0600633286, 0.0000000000, -0.0000000000, -0.0913128629, 0.0813458860, 0.1079414785, 0.1171525642, 0.0000000000, -0.0000000000, -0.0000000000, 0.0000000000, 0.0000000000, 0.0000000000, 0.0000000000, -0.0000000000, 0.0600130521, 0.0000000000, 0.0000000000, 0.0000000000, -0.0000000000, -0.0631207824, -0.0000000000, 0.0000000000, 0.0000000000, -0.0000000000, -0.0000000000, -0.0590080582, 0.0853586569, 0.0000000000, -0.0000000000, -0.0000000000, 0.0000000000, 0.0000000000, -0.0000000000, -0.0591141470, 0.0000000000, -0.0000000000, -0.0000000000, 0.0000000000, 0.0000000000, 0.0000000000, -0.0000000000, -0.0563040972, 0.0000000000, 0.0000000000, -0.0635018051, 0.0000000000, 0.0000000000, -0.0000000000, -0.0626705289, 0.0000000000, 0.0000000000, 0.0638493523, -0.0000000000, 0.0000000000, -0.0000000000, 0.0000000000, 0.0000000000, -0.0000000000, -0.0000000000, 0.0000000000, -0.0574702397, 0.1258154064, 0.0000000000, -0.0000000000, -0.0000000000, -0.0000000000, -0.0000000000, -0.0000000000, 0.1008498967, -0.0000000000, 0.0000000000, -0.1680960655, -0.0736261755, 0.0000000000, -0.1486807019, 0.0000000000, 0.0000000000, -0.0000000000, 0.1371903270, -0.0000000000, 0.0000000000, -0.0654190257, -0.0000000000, 0.0000000000, 0.1722352952, -0.0592548586, -0.0000000000, 0.0000000000, 0.0000000000, 0.0000000000, 0.0000000000, -0.0583271086, -0.0524942949, -0.0000000000, 0.0000000000, 0.0000000000, 0.0000000000, 0.0000000000, 0.0000000000, -0.0000000000, 0.2133602351, -0.0000000000, -0.0000000000, -0.0780597925, -0.0621723011, -0.0668082088, 0.0851808339, 0.0000000000, -0.0000000000, -0.0000000000, -0.1378381401, 0.0000000000, -0.0000000000, -0.0000000000, -0.0000000000, -0.0000000000, -0.0924542248, -0.0000000000, 0.0000000000, -0.0000000000, -0.0000000000, -0.0000000000, 0.0200177096, -0.0000000000, 0.0000000000, -0.0000000000, 0.0000000000, 0.0000000000, -0.0000000000, -0.0000000000, 0.0000000000, -0.0000000000, -0.0000000000, 0.0534189828, 0.0000000000, -0.0000000000, -0.0000000000, -0.0000000000, -0.0954229832, 0.0000000000, -0.0000000000, 0.0000000000, 0.0000000000, 0.0000000000, 0.0000000000, -0.0000000000, -0.0000000000, -0.1445861310, -0.0000000000, -0.0000000000, -0.0000000000, 0.0000000000, -0.0592670217, 0.0000000000, 0.0000000000, -0.0000000000, -0.0000000000, -0.1349577159, -0.0000000000, 0.0000000000, 0.0000000000, 0.0000000000, 0.0000000000, -0.0934555456, -0.0000000000, 0.0000000000, 0.0000000000, -0.0000000000, -0.0759615973, -0.0581930019, 0.0000000000, -0.0000000000, -0.0000000000, 0.0000000000, -0.0000000000, -0.0000000000, -0.0000000000, -0.0559694134, -0.0000000000, 0.0000000000, -0.0000000000, 0.0000000000, -0.0000000000, -0.0000000000, -0.0000000000, 0.0000000000, 0.0000000000, -0.0000000000, -0.0000000000, -0.1075133383, -0.0000000000, 0.0000000000, -0.0000000000, 0.0000000000, -0.0000000000, 0.0000000000, 0.0566726588, 0.0630834028, -0.0669401139, 0.1285831928, -0.0000000000, 0.0000000000, -0.1285522431, -0.0000000000, -0.0000000000, -0.0604479052, 0.0722320080, -0.0000000000, -0.0000000000, 0.0000000000, -0.0000000000, -0.0000000000, 0.0656157732, 0.0000000000, 0.0000000000, -0.0570656322, -0.0000000000, 0.0000000000, 0.0000000000, 0.0000000000, 0.0724401772, -0.0000000000, 0.0000000000, -0.0000000000, -0.0600677878, 0.0000000000, 0.0000000000, -0.0000000000, -0.0000000000, 0.0000000000, 0.0000000000, -0.0000000000, -0.0000000000, 0.0000000000, 0.0000000000, -0.0000000000, -0.0000000000, -0.0000000000, -0.1701112241, 0.0000000000, -0.0000000000, 0.0000000000, 0.0000000000, -0.1415690333, 0.0000000000, -0.0000000000, 0.0000000000, -0.0000000000, 0.0000000000, -0.0000000000, 0.1654093415, 0.0000000000, -0.0000000000, 0.0000000000, -0.0598980561, 0.0000000000, 0.0000000000, -0.0000000000, -0.1333351284, -0.0000000000, 0.0000000000, -0.0000000000, -0.0000000000, 0.0352939479, 0.0000000000, 0.0000000000, 0.0000000000, 0.0000000000, -0.0588540845, -0.0614126809, 0.0000000000, 0.0000000000, -0.0000000000, -0.0700694397, -0.0000000000, -0.1197070554, -0.0000000000, -0.0000000000, -0.0000000000, 0.0000000000, -0.0000000000, -0.0000000000, 0.0000000000, -0.0000000000, -0.0000000000, -0.1100831032, -0.0000000000, 0.0000000000, 0.0000000000, 0.0000000000, 0.0622345470, -0.0000000000, -0.0000000000, 0.0000000000, 0.0000000000, -0.1219014823, -0.0674960986, 0.0000000000, -0.1124563068, 0.0000000000, 0.0000000000, 0.0000000000, 0.0000000000, -0.0000000000, 0.0000000000, -0.0000000000, -0.0000000000, -0.0000000000, -0.0000000000, 0.0000000000, -0.0000000000, -0.0000000000, -0.0000000000, -0.0000000000, -0.0000000000, 0.0000000000, -0.0000000000, -0.0000000000, -0.0000000000, 0.0000000000, 0.0000000000, 0.0000000000, -0.0000000000, -0.0597436093, 0.1325349063, 0.1002456248, -0.0000000000, -0.0000000000, -0.0000000000, 0.0598445572, -0.1019468158, 0.0000000000, 0.0000000000, 0.0000000000, 0.1083970368, -0.0000000000, -0.0000000000, 0.0000000000, -0.0000000000, 0.0000000000, 0.0000000000, -0.0000000000, 0.0000000000, 0.0000000000, -0.0000000000, 0.0000000000, 0.0000000000, -0.0000000000, -0.0000000000, -0.0000000000, -0.0000000000, 0.0000000000, 0.0000000000, 0.0000000000, 0.0772537068, -0.0797445625, 0.1931446195, 0.1029457226, -0.0000000000, 0.0000000000, 0.0000000000, -0.0000000000, 0.0000000000, -0.0000000000, -0.0000000000, 0.0000000000, -0.1895821244, 0.0000000000, 0.0000000000, -0.0000000000, 0.0000000000, -0.0000000000, 0.0000000000, -0.0000000000, 0.0000000000, -0.0000000000, 0.0000000000, 0.0000000000, -0.0000000000, -0.0000000000, 0.0000000000, -0.0000000000, -0.0000000000, 0.0000000000, 0.0000000000, 0.0000000000, -0.1262110472, -0.0000000000, -0.0000000000, 0.0423564427, 0.0000000000, 0.0495623462, -0.0640764982, -0.0000000000, -0.0732704252, -0.0000000000, -0.0000000000, -0.0000000000, 0.0000000000, 0.0601104498, -0.0000000000, 0.0000000000, 0.0000000000, -0.0800254419, -0.0000000000, -0.0570302010, -0.0000000000, -0.0000000000, -0.0000000000, -0.0000000000, 0.0000000000, -0.0000000000, 0.0000000000, -0.0000000000, -0.0000000000, 0.0000000000, 0.0000000000, -0.0000000000, 0.1077146530, -0.0000000000, -0.0598994121, 0.0000000000, 0.0000000000, 0.0788906068, -0.0617397986, -0.0617570654, -0.0000000000, -0.0679007024, -0.0000000000, 0.0000000000, 0.0000000000, 0.0000000000, -0.0000000000, -0.0000000000, 0.0000000000, 0.0000000000, 0.0000000000, -0.0000000000, -0.0676154643, -0.0560883917, -0.0000000000, 0.0000000000, 0.0000000000, -0.0000000000, -0.0781403705, 0.0000000000, -0.0583543926, 0.0000000000, -0.0000000000, -0.0000000000, -0.0000000000, 0.0000000000, 0.0849656612, -0.0000000000, 0.0000000000, 0.1313614994, -0.0000000000, -0.0000000000, -0.1020320877, -0.0000000000, -0.0000000000, 0.0000000000, 0.1045594588, -0.0000000000, 0.0488490388, -0.0000000000, 0.0000000000, -0.1310731620, 0.0000000000, 0.0000000000, -0.0756203160, -0.0913070738, 0.0000000000, -0.0000000000, -0.0940424204, 0.0000000000, 0.0000000000, -0.0000000000, -0.0000000000, 0.0000000000, 0.0000000000, 0.0000000000, 0.0000000000, -0.1657712609, -0.0000000000, 0.0000000000, 0.0000000000, -0.0000000000, -0.0559755303, 0.0000000000, 0.0687866062, -0.0000000000, -0.0000000000, -0.0000000000, 0.0000000000, 0.0000000000, -0.0000000000, -0.0000000000, 0.0000000000, -0.1185241267, 0.0000000000, -0.0000000000, -0.0000000000, 0.0000000000, 0.0000000000, -0.0000000000, 0.0000000000, 0.0000000000, -0.0696253777, 0.0000000000, -0.0000000000, -0.0000000000, 0.0000000000, -0.0000000000, 0.0000000000, -0.0000000000, 0.0000000000, -0.0000000000, 0.0000000000, 0.0908082649, -0.0000000000, -0.0000000000, 0.0000000000, 0.0000000000, 0.0000000000, 0.0000000000, 0.0550181195, 0.0000000000, -0.0000000000, -0.0000000000, 0.0000000000, -0.1413260102, -0.1161318272, -0.0000000000, -0.0000000000, -0.0651171282, 0.0000000000, 0.0000000000, 0.0000000000, -0.0000000000, 0.0000000000, 0.0622049719, -0.0000000000, 0.0000000000, 0.0000000000, 0.0000000000, 0.0843909681, -0.0000000000, 0.0685101002, 0.0000000000, -0.0000000000, -0.0717680454, -0.0000000000, -0.0000000000, -0.0813461393, 0.0000000000, 0.0000000000, -0.0625568405, 0.0000000000, -0.0000000000, -0.0000000000, 0.0000000000, -0.0631601810, 0.0000000000, -0.0000000000, -0.0000000000, 0.0000000000, -0.0830137953, 0.0000000000, -0.0000000000, -0.1402711719, -0.0000000000, -0.0000000000, -0.0000000000, 0.0000000000, 0.0000000000, 0.0000000000, -0.0000000000, -0.0000000000, 0.0000000000, 0.1126848981, 0.0351405814, -0.0000000000, -0.1434675306, 0.0000000000, -0.0000000000, -0.0840691179, 0.0000000000, 0.0000000000, -0.0715014860, 0.1356304437, 0.0000000000, -0.0000000000, -0.0606981516, 0.0000000000, 0.0000000000, 0.0000000000, 0.0000000000, -0.0000000000, -0.0000000000, -0.0623543970, -0.0587015934, -0.1505133659, 0.0000000000, -0.1409341097, -0.0000000000, 0.0000000000, -0.0000000000, 0.0000000000, 0.0000000000, 0.0000000000, -0.0927273035, 0.1891872883, 0.0931079388, -0.0000000000, -0.1959599406, -0.0000000000, 0.0000000000, -0.1307313442, 0.0000000000, -0.0000000000, -0.0635437146, -0.1196673661, -0.0000000000, 0.0000000000, 0.0000000000, 0.0000000000, -0.0991417319, 0.0000000000, -0.0000000000, 0.0000000000, 0.0000000000, 0.0000000000, 0.0581922643, -0.0000000000, -0.0000000000, -0.0000000000, -0.0000000000, 0.0000000000, 0.0000000000, 0.0000000000, 0.0000000000, 0.0000000000, -0.0000000000, -0.0000000000, 0.1685911566, 0.0000000000, 0.1222934946, -0.0000000000, -0.0000000000, 0.0000000000, 0.0000000000, 0.0000000000, 0.0000000000, 0.0000000000, 0.0000000000, -0.0000000000, 0.0000000000, -0.0000000000, -0.0864058957, -0.1109202057, 0.0000000000, -0.0000000000, -0.0832069814, -0.0677749366, 0.0000000000, 0.0342642032, 0.0000000000, 0.0000000000, -0.0000000000, -0.0000000000, 0.0000000000, 0.0000000000, -0.0000000000, 0.0000000000, -0.0786006078, 0.0873944387, 0.0000000000, -0.0000000000, -0.0000000000, -0.0728808790, 0.0000000000, -0.0000000000, -0.0000000000, 0.0000000000, -0.0000000000, -0.0778353289, 0.0000000000, 0.0000000000, -0.0000000000, -0.0000000000, -0.0996947587, 0.0000000000, 0.0000000000, -0.0000000000, -0.0000000000, 0.0000000000, 0.0000000000, 0.0000000000, 0.0000000000, -0.0000000000, -0.0000000000, -0.0000000000, 0.0561853275, 0.0000000000, -0.0000000000, -0.1394680589, 0.0000000000, 0.1089726537, -0.0000000000, -0.0607704632, -0.0000000000, -0.0000000000, 0.0000000000, -0.0881261155, 0.0000000000, -0.0000000000, 0.0000000000, 0.1007281244, 0.0000000000, -0.0000000000, 0.0000000000, 0.0000000000, -0.0000000000, 0.0000000000, -0.0000000000, 0.0000000000, 0.0000000000, 0.0000000000, -0.0560209043, 0.0000000000, -0.0000000000, 0.0000000000, -0.1074187011, -0.0629348829, -0.0000000000, -0.0563128814, -0.0651108101, 0.0000000000, -0.1374054998, -0.0000000000, -0.0614455193, 0.0000000000, -0.0000000000, 0.0000000000, 0.0000000000, -0.0736507848, -0.0000000000, -0.0000000000, 0.0000000000, 0.0000000000, -0.0000000000, -0.0000000000, -0.0648071617, 0.0000000000, -0.0000000000, 0.0000000000, -0.0000000000, 0.0000000000, -0.0609529950, -0.0000000000, -0.0000000000, -0.0746476725, 0.0000000000, -0.0000000000, 0.0000000000, -0.0584862642, 0.0000000000, 0.0000000000, 0.0000000000, 0.0000000000, -0.0000000000, 0.0958976895, 0.0570899658, 0.0000000000, 0.0281020124, 0.0000000000, -0.0000000000, -0.0000000000, 0.0000000000, -0.0000000000, 0.0000000000, 0.0000000000, 0.0000000000, -0.0000000000, -0.0000000000, 0.0000000000, 0.0000000000, 0.0000000000, -0.0000000000, -0.0000000000, -0.1017944440, -0.0000000000, 0.0000000000, 0.0000000000, 0.0000000000, 0.0597834736, 0.0824990496, 0.0000000000, 0.0567627922, -0.0000000000, -0.0653344989, 0.0000000000, -0.0000000000, -0.0000000000, 0.0000000000, 0.0000000000, -0.2330741435, -0.0000000000, -0.0000000000, -0.1038983837, -0.0000000000, 0.0000000000, -0.0000000000, 0.0000000000, -0.0604784489, 0.0000000000, 0.0000000000, 0.0000000000, 0.0000000000, -0.0000000000, -0.0000000000, -0.0000000000, -0.0598565042, -0.0000000000, -0.0000000000, -0.0823029131, 0.0000000000, -0.0000000000, -0.0000000000, -0.0000000000, 0.0000000000, 0.0000000000, -0.0685160607, 0.0884747803, 0.0000000000, 0.1226672903, -0.0000000000, 0.0000000000, -0.1017101482, -0.0629939586, 0.0000000000, -0.1443540454, -0.0000000000, -0.0000000000, -0.0000000000, 0.1550942957, 0.0000000000, -0.0000000000, -0.0000000000, 0.0000000000, 0.0000000000, 0.0000000000, 0.0000000000, -0.0000000000, -0.0000000000, -0.0000000000, -0.0648667365, -0.1961701810, 0.0000000000, -0.0770823881, -0.0698158219, 0.0000000000, 0.0000000000, 0.0000000000, 0.0000000000, 0.0742274001, -0.0000000000, 0.1684493423, 0.0000000000, -0.0000000000, -0.1737416536, -0.0000000000, -0.0000000000, 0.0000000000, -0.0586259402, 0.0000000000, -0.0000000000, 0.0000000000, 0.0000000000, 0.0000000000, 0.0000000000, -0.0629885942, -0.1510264724, 0.0000000000, 0.0000000000, -0.0000000000, -0.0000000000, -0.0000000000, -0.0000000000, -0.0980854407, -0.0000000000, 0.0000000000, 0.0841436908, -0.0000000000, 0.0000000000, 0.0000000000, -0.0000000000, -0.1181046814, -0.0000000000, 0.0824936479, 0.1203410178, -0.0000000000, -0.0000000000, 0.0000000000, 0.0000000000, -0.0000000000, -0.0000000000, 0.0000000000, 0.0000000000, 0.0000000000, 0.0000000000, -0.0000000000, -0.0000000000, 0.0000000000, 0.0000000000, 0.0000000000, 0.0000000000, 0.0000000000, -0.0000000000, 0.0000000000, -0.0000000000, 0.0000000000, -0.0000000000, 0.0000000000, 0.0852261782, 0.0000000000, 0.0000000000, 0.0000000000, 0.0000000000, 0.0000000000, -0.0000000000, -0.0000000000, 0.0645559877, -0.0000000000, 0.0625431240, -0.0653870851, -0.0000000000, -0.0000000000, -0.0566872098, -0.0000000000, 0.0000000000, -0.0995676890, -0.0000000000, 0.0000000000, 0.0000000000, -0.0000000000, -0.0000000000, 0.0000000000, -0.0000000000, 0.0000000000, -0.0874861479, -0.0000000000, 0.0000000000, -0.1137007922, 0.0000000000, -0.0000000000, -0.0000000000, -0.0000000000, 0.0000000000, -0.0000000000, -0.0000000000, -0.1287168115, 0.0000000000, 0.1453815997, 0.0944063887, 0.0000000000, 0.0389004312, 0.0000000000, -0.0000000000, 0.0000000000, 0.0000000000, -0.0000000000, -0.0000000000, -0.1218608916, 0.0000000000, -0.0000000000, -0.0645921156, -0.0000000000, -0.0000000000, 0.0000000000, 0.0000000000, -0.0000000000, 0.0000000000, 0.0000000000, 0.0000000000, 0.0000000000, -0.0000000000, 0.0000000000, -0.0000000000, -0.0000000000, 0.0000000000, 0.0000000000, 0.0000000000, 0.0000000000, -0.1987922639, -0.0760694221, -0.0731584728, 0.0000000000, 0.0000000000, 0.0000000000, 0.0000000000, -0.0862330720, 0.0000000000, -0.0000000000, -0.0602246374, 0.0000000000, 0.0000000000, -0.0635532364, -0.0000000000, 0.0000000000, -0.0000000000, 0.1543969512, 0.0000000000, -0.0000000000, -0.0665522814, 0.0000000000, 0.0000000000, 0.0000000000, -0.0000000000, -0.0000000000, -0.0790811256, 0.0000000000, 0.0000000000, 0.0598393790, 0.0000000000, 0.0000000000, 0.0387735367, 0.1942912936, -0.0000000000, -0.0000000000, -0.0000000000, -0.0678591281, -0.0000000000, 0.1242737845, -0.0000000000, 0.0000000000, 0.0000000000, -0.1695215404, 0.0000000000, -0.0000000000, -0.0000000000, -0.0000000000, -0.0802303180, 0.0000000000, 0.0562547781, -0.0000000000, 0.0000000000, 0.0000000000, -0.0000000000, 0.0000000000, -0.0000000000, 0.1334695518, 0.0889463201, -0.0614694692, 0.0000000000, -0.0000000000, -0.0000000000, -0.0775656849, -0.0000000000, -0.1248128638, 0.1739968508, 0.0000000000, -0.0892118812, -0.0000000000, -0.0000000000, 0.0000000000, 0.0000000000, -0.0000000000, -0.0000000000, 0.0000000000, 0.0000000000, -0.0000000000, 0.0000000000, -0.0000000000, -0.1057929546, -0.1201991960, -0.0000000000, -0.0000000000, -0.0583930016, -0.0659832954, -0.0000000000, -0.0000000000, -0.0000000000, -0.1029208302, -0.0000000000, 0.0000000000, 0.0000000000, -0.0000000000, -0.0000000000, 0.0831285939, 0.0000000000, -0.0000000000, -0.0000000000, 0.0000000000, -0.0000000000, 0.0000000000, -0.0000000000, 0.0706601441, -0.0000000000, -0.0000000000, -0.0000000000, 0.0764868185, 0.0000000000, 0.0000000000, -0.0000000000, -0.0000000000, -0.0701802671, 0.0000000000, 0.0000000000, 0.0000000000, -0.0684487596, -0.0000000000, 0.0000000000, 0.0000000000, 0.0000000000, -0.0000000000, -0.1566706151, -0.0000000000, 0.0000000000, 0.0000000000, 0.0000000000, 0.0785330608, -0.1071173102, 0.0820020437, 0.0671029463, -0.0593887977, -0.1433568746, -0.0000000000, 0.0000000000, -0.1164302602, -0.0588569120, 0.0000000000, 0.0000000000, -0.0805648342, 0.0000000000, 0.0000000000, 0.0000000000, -0.0000000000, -0.0794612169, -0.0666570365, -0.0000000000, 0.0000000000, -0.0000000000, -0.0000000000, 0.0000000000, -0.0000000000, -0.0000000000, -0.0602756403, 0.1540290117, -0.0572775826, 0.0000000000, -0.0000000000, -0.0000000000, 0.0000000000, -0.0762012303, 0.0541392863, 0.0571158417, -0.0000000000, -0.0000000000, -0.0000000000, -0.0000000000, 0.0000000000, -0.0594147295, -0.0000000000, 0.0000000000, -0.1229411513, 0.0591688864, -0.0000000000, -0.0000000000, 0.0000000000, 0.0000000000, 0.0000000000, -0.0000000000, 0.0000000000, -0.0960612223, -0.0585329980, -0.0000000000, 0.0000000000, -0.0000000000, 0.0000000000, 0.1305708289, -0.0000000000, 0.0000000000, 0.0000000000, -0.0000000000, 0.0000000000, -0.1490892768, -0.1098743156, 0.0913159400, 0.0000000000, 0.1097680107, -0.0572010726, -0.0567501262, -0.0000000000, -0.0000000000, -0.0000000000, -0.0000000000, 0.0000000000, 0.0000000000, -0.0000000000, 0.0000000000, -0.0587403663, -0.0933300331, 0.0828080326, -0.0000000000, -0.0000000000, 0.0000000000, -0.0000000000, -0.0000000000, 0.0000000000, -0.0609271377, -0.0000000000, 0.0000000000, 0.0000000000, -0.0000000000, -0.0000000000, -0.0000000000, -0.0000000000, 0.0000000000, 0.0834565014, -0.0000000000, -0.0000000000, 0.1495816559, -0.0000000000, -0.0000000000, 0.0000000000, -0.0626741126, -0.0000000000, -0.0000000000, 0.0460356884, -0.0000000000, -0.0715428144, 0.0000000000, 0.0000000000, 0.0655081198, 0.0000000000, 0.0000000000, -0.0733724684, 0.0000000000, -0.0608566999, -0.0000000000, 0.0000000000, -0.0635907203, -0.1181171611, -0.0512346774, -0.0000000000, 0.0000000000, -0.0000000000, -0.0000000000, 0.0000000000, -0.1639005691, 0.1570632160, 0.0000000000, 0.0000000000, 0.0676440820, -0.0000000000, -0.0666575879, 0.0000000000, -0.0000000000, -0.0000000000, 0.0000000000, 0.0000000000, -0.0000000000, -0.0660634115, 0.0000000000, -0.0557833090, -0.0000000000, 0.0800299942, -0.0000000000, 0.0000000000, 0.0000000000, 0.0000000000, -0.0000000000, -0.1440708041, -0.0000000000, -0.0000000000, -0.1229314134, -0.0000000000, 0.0000000000, 0.0642006695, 0.0564427562, -0.1533809155, 0.0458124354, 0.0680440664, 0.0629372895, 0.0000000000, -0.0000000000, -0.0000000000, 0.0000000000, 0.0000000000, 0.0000000000, -0.0000000000, -0.0000000000, 0.0000000000, 0.0000000000, 0.0000000000, 0.0000000000, -0.0000000000, -0.0000000000, 0.0000000000, 0.0000000000, -0.0000000000, 0.0000000000, -0.0000000000, 0.0000000000, 0.0981201231, -0.0598837398, -0.0000000000, 0.0000000000, -0.0636672154, 0.0623303689, -0.0000000000, -0.0717631802, 0.0000000000, -0.1187772453, 0.0715194643, 0.0000000000, -0.0000000000, 0.0000000000, -0.0000000000, 0.0000000000, 0.0000000000, 0.0000000000, -0.0673476532, 0.0000000000, 0.0527480543, 0.0000000000, -0.0000000000, -0.0000000000, 0.0000000000, 0.0000000000, -0.0694864914, 0.0000000000, -0.0000000000, 0.0000000000, -0.0000000000, 0.0000000000, -0.1677916348, -0.0000000000, -0.0730951428, 0.1522993743, -0.0647533536, 0.0000000000, 0.0000000000, -0.0000000000, 0.0902554989, -0.1413671970, 0.1878601164, -0.0000000000, -0.0642127991, 0.0000000000, 0.0000000000, -0.0000000000, 0.0000000000, -0.0000000000, 0.0000000000, -0.0000000000, 0.0891928598, 0.0000000000, 0.0000000000, 0.0000000000, 0.0000000000, 0.0000000000, -0.1129295826, -0.0000000000, 0.0000000000, 0.0000000000, -0.0000000000, -0.0000000000, -0.1356744617, 0.0000000000, -0.0000000000, -0.0000000000, 0.0000000000, 0.0000000000, 0.0569854081, 0.0650358424, 0.0409766324, -0.1029136255, 0.2442399710, -0.0000000000, -0.0595348552, -0.1322045475, 0.0000000000, 0.0000000000, -0.0804887488, -0.0000000000, -0.0685568675, -0.0642291307, 0.0000000000, -0.0000000000, -0.0573486127, 0.0000000000, 0.0000000000, -0.0000000000, 0.0559716187, 0.0000000000, 0.0000000000, 0.0000000000, -0.0000000000, 0.0000000000, -0.2211779952, -0.0000000000, 0.0887713060, 0.0882930830, -0.0000000000, 0.0000000000, -0.0000000000, 0.0000000000, 0.0000000000, -0.0828804448, -0.0000000000, 0.0510394499, -0.0647651777, 0.0624389984, 0.0000000000, -0.0643445253, 0.0776648968, 0.0000000000, -0.0000000000, 0.0000000000, 0.0000000000, 0.0000000000, 0.0000000000, 0.0000000000, 0.0000000000, -0.0811265856, 0.0384911001, -0.0000000000, -0.0556018688, -0.0807166547, -0.0000000000, 0.0000000000, 0.0000000000, 0.0000000000, -0.0000000000, 0.0000000000, 0.0000000000, 0.0000000000, 0.0000000000, -0.0000000000, 0.0443994217, -0.1428617835, 0.0667524338, -0.0000000000, -0.0000000000, 0.0988133922, 0.0000000000, 0.0000000000, -0.0000000000, 0.0000000000, 0.0000000000, 0.0000000000, 0.0000000000, 0.0000000000, -0.0000000000, -0.0000000000, 0.0000000000, -0.0000000000, 0.0000000000, -0.0000000000, 0.0000000000, -0.0656457022, -0.0000000000, 0.0000000000, -0.1419828832, 0.0000000000, 0.1257152408, 0.0000000000, -0.0601460263, -0.0000000000, 0.0577590093, 0.0000000000, -0.1425348520, -0.1277804077, 0.0712896734, -0.0000000000, -0.0559614040, -0.0000000000, 0.0000000000, 0.0000000000, -0.0762077793, -0.0000000000, -0.0000000000, -0.0653922632, 0.0000000000, 0.0000000000, -0.0672774017, -0.0569296069, -0.0000000000, -0.0000000000, 0.1136059761, -0.0000000000, 0.0000000000, -0.0000000000, 0.0000000000, 0.0000000000, 0.0000000000, 0.0000000000, -0.0000000000, -0.1663802862, 0.0000000000, 0.0000000000, -0.0000000000, -0.0000000000, 0.0000000000, -0.0000000000, -0.0000000000, -0.0698060617, 0.0000000000, 0.0568119586, -0.0000000000, -0.0000000000, 0.0000000000, 0.0000000000, -0.0000000000, -0.0000000000, 0.0000000000, 0.0000000000, -0.0000000000, 0.0000000000, -0.0000000000, -0.0000000000, 0.1000019088, -0.0000000000, 0.0000000000, -0.0564123280, 0.0000000000, -0.0000000000, -0.1123350710, -0.0000000000, 0.1136694625, -0.1001470312, 0.0000000000, 0.0000000000, -0.0000000000, 0.0000000000, -0.1997231692, -0.1537772268, -0.0000000000, 0.0440346748, -0.0000000000, -0.0000000000, -0.0000000000, -0.0556037351, 0.0000000000, 0.0000000000, 0.0000000000, 0.0000000000, 0.0000000000, -0.0620756932, -0.0000000000, 0.0000000000, -0.0000000000, -0.0000000000, 0.1147850826, 0.0000000000, 0.0000000000, -0.0000000000, 0.0000000000, 0.0000000000, 0.0525451563, -0.0000000000, -0.1198950037, 0.0000000000, -0.0666125640, -0.0000000000, -0.0000000000, -0.0763946548, 0.0437224656, -0.0000000000, -0.0000000000, -0.0000000000, 0.0000000000, 0.0000000000, -0.0000000000, 0.0000000000, -0.0000000000, -0.0000000000, 0.0000000000, -0.0000000000, 0.0000000000, -0.0000000000, 0.0000000000, -0.0000000000, -0.0000000000, -0.0000000000, -0.0653280765, -0.0000000000, 0.0000000000, 0.0000000000, 0.0000000000, -0.0000000000, -0.1960223615, 0.0000000000, 0.0000000000, 0.1557926983, 0.0000000000, -0.0622235574, -0.0000000000, 0.0000000000, 0.1278537065, -0.0000000000, 0.1157566607, 0.0378539078, -0.0000000000, 0.0000000000, 0.0000000000, -0.0000000000, 0.1066073701, -0.0000000000, 0.0000000000, -0.0000000000, 0.1732644141, 0.0000000000, 0.0000000000, 0.0000000000, -0.0000000000, -0.0000000000, 0.0000000000, -0.0593496338, 0.0000000000, -0.0000000000, -0.0000000000, -0.0000000000, -0.1032486707, 0.0000000000, 0.0703596324, -0.0000000000, -0.0000000000, 0.0000000000, 0.0000000000, 0.0000000000, 0.0000000000, -0.0000000000, 0.1707083285, 0.0475802943, -0.0000000000, 0.0000000000, 0.0000000000, 0.0000000000, -0.0000000000, 0.0000000000, -0.0561444275, -0.0652740374, 0.0000000000, -0.0609356314, 0.0000000000, -0.0000000000, 0.0000000000, 0.0405835174, 0.1067823172, 0.0556004569, 0.0000000000, -0.0000000000, 0.0000000000, -0.0000000000, -0.1809062660, 0.0000000000, 0.0000000000, -0.0000000000, 0.0000000000, 0.0000000000, 0.0000000000, 0.0000000000, 0.0000000000, -0.1746783555, 0.0882176682, 0.0339029841, 0.0000000000, -0.0000000000, -0.0000000000, 0.0000000000, 0.0863129720, -0.0572039410, -0.0000000000, -0.0000000000, 0.0586456470, -0.0000000000, -0.0621313564, 0.0000000000, 0.0000000000, -0.0000000000, 0.0000000000, -0.0000000000, 0.0000000000, -0.0000000000, 0.0000000000, 0.0000000000, 0.0000000000, -0.0636328682, -0.0000000000, 0.0000000000, -0.0680289790, 0.0000000000, 0.0000000000, -0.0000000000, 0.0632414073, -0.0000000000, -0.0000000000, -0.0901953951, -0.0613462515, 0.0941180885, -0.0618850775, -0.0000000000, -0.0000000000, -0.0566242710, -0.0590422265, 0.0000000000, 0.0000000000, -0.0000000000, -0.0000000000, 0.0000000000, -0.0653080866, -0.0000000000, 0.1122366786, 0.0000000000, -0.0000000000, -0.0000000000, 0.0000000000, -0.0000000000, -0.0576820821, 0.0000000000, 0.1714165658, -0.0000000000, 0.0000000000, -0.0000000000, 0.0000000000, -0.0000000000, -0.1650969386, -0.1135793254, 0.1053579226, -0.0000000000, 0.0000000000, -0.0000000000, -0.0000000000, -0.0000000000, 0.1675154567, -0.0578233525, -0.0693936646, 0.0000000000, 0.0000000000, 0.0000000000, -0.0000000000, -0.0000000000, 0.0000000000, -0.0000000000, 0.0000000000, 0.0000000000, -0.0000000000, -0.0000000000, 0.0000000000, -0.0000000000, -0.0991127715, 0.0000000000, -0.0000000000, 0.0000000000, -0.0000000000, -0.0000000000, -0.0000000000, 0.0000000000, 0.0000000000, -0.0000000000, -0.1709212214, -0.0000000000, -0.0000000000, 0.0617327504, -0.0637747198, -0.0000000000, 0.0000000000, 0.0000000000, -0.0000000000, 0.0000000000, 0.0000000000, -0.0000000000, -0.0000000000, -0.0000000000, -0.0572653897, -0.0000000000, 0.2079078406, -0.0000000000, 0.0000000000, 0.0000000000, -0.0603601933, 0.0000000000, -0.1140779108, -0.0597623847, -0.0000000000, 0.0000000000, 0.0000000000, 0.0000000000, 0.0000000000, -0.0662919134, 0.0000000000, -0.0000000000, -0.0000000000, 0.0744543225, -0.0000000000, -0.0859627202, -0.0000000000, 0.0000000000, 0.0608987175, -0.0000000000, 0.0000000000, 0.0000000000, -0.1023621485, 0.0000000000, -0.0000000000, 0.0000000000, 0.0000000000, -0.0000000000, -0.0000000000, -0.0000000000, -0.0000000000, -0.0000000000, 0.0000000000, 0.0000000000, -0.0860316455, 0.0000000000, -0.1368003786, 0.0985543504, -0.0000000000, 0.0000000000, 0.0000000000, 0.0000000000, 0.0698319301, -0.0000000000, -0.1245560497, 0.0000000000, -0.0000000000, -0.0000000000, 0.0000000000, 0.0000000000, 0.0976994857, -0.0000000000, 0.0000000000, 0.0000000000, 0.0000000000, -0.0000000000, 0.0000000000, -0.0566077977, -0.0000000000, -0.0000000000, 0.0000000000, -0.0000000000, -0.0000000000, -0.0000000000, -0.0000000000, 0.0000000000, -0.1050545573, -0.0591360554, 0.0000000000, -0.0000000000, -0.0000000000, -0.0000000000, -0.0000000000, 0.0000000000, 0.0469190106, -0.1000003293, -0.0000000000, -0.0000000000, 0.0000000000, -0.0788875744, 0.0000000000, -0.0592615418, 0.1308864057, -0.0000000000, 0.0000000000, -0.0571216345, 0.0000000000, -0.0000000000, 0.0000000000, 0.0000000000, -0.0000000000, 0.0630974695, 0.1388866901, -0.0000000000, -0.0000000000, -0.0000000000, -0.0000000000, 0.0000000000, -0.1141511947, 0.0612361021, 0.0000000000, -0.0553427823, 0.0000000000, -0.0000000000, -0.0000000000, 0.0000000000, 0.0000000000, -0.1099291742, 0.0485272482, -0.0000000000, -0.0000000000, -0.0000000000, -0.0000000000, -0.0000000000, 0.1047608480, 0.0000000000, -0.0000000000, 0.0000000000, 0.0694584027, 0.0000000000, 0.0000000000, -0.0617565587, -0.0000000000, -0.1405380666, 0.0000000000, -0.0000000000, -0.0628335029, -0.0000000000, -0.0000000000, -0.0000000000, -0.1141334325, -0.0000000000, 0.1199468076, 0.0900072828, 0.0000000000, -0.0000000000, 0.0000000000, 0.0000000000, -0.1441637874, -0.1096843481, 0.0000000000, 0.1041278243, -0.0000000000, -0.0000000000, -0.0684828982, -0.0000000000, 0.0931601226, 0.0000000000, -0.0000000000, 0.0000000000, -0.1243838295, -0.0000000000, 0.0000000000, 0.0000000000, 0.0000000000, -0.0000000000, -0.0000000000, -0.0000000000, -0.0000000000, -0.0000000000, -0.0000000000, 0.0000000000, 0.0000000000, -0.0615208223, -0.0000000000, 0.0000000000, -0.0000000000, 0.0000000000, 0.0000000000, 0.0000000000, 0.0000000000, -0.1246434376, -0.0000000000, -0.0000000000, 0.0000000000, 0.0000000000, 0.0000000000, 0.0000000000, -0.0000000000, -0.0000000000, -0.0000000000, -0.0000000000, 0.0000000000, 0.0000000000, 0.0000000000, -0.0000000000, 0.0000000000, -0.0634880364, 0.0766283348, 0.0000000000, 0.0000000000, -0.0000000000, -0.0000000000, 0.0000000000, -0.1175892577, -0.0555728190, -0.0000000000, -0.0720831528, -0.0000000000, 0.0000000000, 0.0000000000, 0.0000000000, -0.0839800984, -0.0621768311, -0.0000000000, 0.0943671539, 0.0000000000, -0.0000000000, -0.0000000000, -0.0000000000, 0.0000000000, -0.0000000000, -0.0000000000, 0.0000000000, 0.0000000000, 0.0000000000, 0.0533092245, 0.0000000000, 0.0000000000, -0.0000000000, 0.0000000000, -0.0000000000, -0.0566629432, -0.0619457774, -0.0000000000, -0.0000000000, 0.0000000000, 0.0000000000, -0.0000000000, 0.1417512447, 0.0000000000, -0.0000000000, 0.0585879385, 0.0000000000, 0.0000000000, -0.0000000000, 0.1032404825, 0.0000000000, 0.0000000000, 0.1289586574, -0.0000000000, -0.0000000000, -0.1299019605, 0.0000000000, -0.0000000000, -0.0000000000, 0.0000000000, 0.0000000000, -0.0000000000, -0.0000000000, 0.0000000000, -0.0000000000, 0.2052332610, 0.0000000000, -0.0000000000, -0.0753820464, 0.0000000000, -0.0000000000, -0.1609171033, -0.0000000000, -0.0000000000, -0.1283303797, 0.0000000000, -0.0000000000, 0.0000000000, -0.0000000000, 0.0369585566, -0.0000000000, -0.0000000000, -0.0000000000, 0.0000000000, -0.0860338807, -0.0573143549, -0.0000000000, 0.1965820193, -0.0563999824, -0.0000000000, 0.0000000000, -0.1200402752, -0.0000000000, 0.0607510321, 0.0000000000, 0.0000000000, 0.0600589626, -0.0984577835, 0.0000000000, 0.0000000000, 0.0000000000, -0.0000000000, -0.0000000000, 0.0000000000, -0.0000000000, -0.0948839411, 0.2085366696, 0.0000000000, 0.0000000000, 0.0000000000, 0.0000000000, 0.0000000000, -0.0000000000, -0.0000000000, 0.0000000000, 0.0608549677, 0.0000000000, -0.0000000000, -0.0000000000, -0.0000000000, 0.0000000000, -0.0582733341, -0.0000000000, -0.1144637913, -0.0000000000, 0.0000000000, 0.0000000000, 0.0000000000, 0.1514754593, 0.0642869100, 0.0000000000, 0.0000000000, -0.0000000000, 0.0000000000, 0.0000000000, -0.0917818621, 0.0000000000, 0.0907296836, 0.2273335010, -0.0000000000, 0.0000000000, -0.0000000000, -0.0000000000, 0.0000000000, -0.1301092058, 0.1259589195, -0.0000000000, -0.0620133281, 0.0000000000, 0.0000000000, 0.0000000000, 0.0622695871, 0.0000000000, 0.0000000000, -0.0697649941, -0.0821567029, -0.0000000000, 0.0000000000, 0.0000000000, 0.0000000000, 0.0000000000, 0.0584147349, 0.0000000000, 0.0000000000, 0.0000000000, -0.0000000000, 0.0000000000, 0.0000000000, 0.0000000000, 0.0000000000, -0.0000000000, 0.0000000000, 0.0000000000, -0.0000000000, 0.0000000000, 0.0567083322, -0.0000000000, 0.1297075450, -0.0000000000, 0.0000000000, 0.0568844080, 0.0000000000, -0.0635014996, 0.0726314411, -0.0632420257, 0.0000000000, -0.0000000000, -0.0915299058, -0.0000000000, 0.0000000000, 0.0000000000, -0.0597345568, -0.1209657714, 0.1082936004, -0.0603162162, -0.0725560337, -0.0000000000, 0.0000000000, -0.0000000000, -0.1333483309, 0.0000000000, 0.1317073703, -0.0000000000, 0.0000000000, -0.0000000000, -0.0000000000, -0.0584786534, 0.0000000000, -0.2902984917, 0.0000000000, 0.1057852358, 0.0000000000, -0.1174834296, 0.0000000000, -0.0000000000, 0.0638411865, 0.0000000000, -0.0000000000, 0.0000000000, -0.1723819673, -0.0000000000, 0.0000000000, -0.0000000000, 0.0624988489, 0.0000000000, -0.1221676990, 0.0000000000, 0.0000000000, -0.0000000000, -0.0000000000, 0.0000000000, -0.0000000000, -0.0000000000, -0.0673282593, 0.2350446284, -0.0000000000, 0.0000000000, 0.0000000000, 0.0000000000, 0.0000000000, -0.0000000000, -0.0000000000, 0.0000000000, -0.0000000000, 0.1036828384, 0.0000000000, -0.0661103725, 0.0646966472, -0.0000000000, 0.0000000000, -0.0000000000, 0.0000000000, -0.0000000000, 0.0000000000, -0.0000000000, -0.0657192171, -0.0000000000, 0.0000000000, 0.0000000000, 0.0000000000, -0.0000000000, 0.0000000000, 0.0000000000, -0.0629354790, 0.0000000000, 0.1273543239, -0.0753792003, 0.0000000000, -0.0000000000, 0.0000000000, -0.0000000000, -0.0899602696, 0.0000000000, 0.1801745892, -0.0000000000, -0.0556717627, 0.0965598971, 0.0000000000, 0.0000000000, -0.1043950990, 0.0000000000, 0.0000000000, 0.0000000000, 0.0000000000, -0.0000000000, 0.0488322899, -0.0591178276, 0.0000000000, 0.0751354247, -0.2051655650, 0.0565892830, -0.0000000000, -0.0711203739, 0.0000000000, 0.0580944233, 0.0435914099, -0.0000000000, -0.0000000000, -0.0000000000, -0.0000000000, -0.0000000000, -0.0000000000, 0.0000000000, 0.0831363425, -0.0000000000, -0.0000000000, -0.1904809624, -0.0648445114, 0.0000000000, 0.0000000000, 0.0000000000, -0.0853270665, 0.0000000000, 0.0000000000, -0.0000000000, 0.0000000000, 0.0000000000, -0.0000000000, -0.0000000000, 0.0000000000, -0.0000000000, 0.1003716439, -0.0000000000, -0.0558599979, -0.0729598850, 0.0000000000, -0.0000000000, 0.0000000000, 0.0000000000, 0.1060233712, -0.1401628256, 0.0000000000, -0.0000000000, -0.0582538396, 0.0000000000, 0.0000000000, -0.0790807679, 0.1441088468, 0.0726699159, -0.0589701720, 0.0000000000, -0.0000000000, -0.0000000000, -0.0000000000, 0.0000000000, 0.0613051988, 0.0000000000, 0.0000000000, 0.0000000000, -0.0000000000, 0.0000000000, -0.0000000000, 0.0000000000, -0.0855058059, 0.0000000000, 0.0000000000, 0.0000000000, -0.0000000000, -0.0000000000, 0.0000000000, -0.0000000000, -0.0000000000, 0.0782257318, 0.0000000000, -0.0000000000, 0.0000000000, 0.0000000000, 0.0000000000, -0.0000000000, -0.0000000000, -0.1422823966, -0.0000000000, 0.1437606066, -0.0601170845, 0.0000000000, 0.0000000000, 0.0000000000, 0.0000000000, -0.0000000000, 0.0000000000, -0.0640728250, -0.0000000000, -0.0000000000, -0.0000000000, 0.0000000000, -0.0660637692, 0.0000000000, 0.0000000000, -0.0000000000, -0.0000000000, 0.0000000000, 0.0000000000, -0.0000000000, -0.0000000000, 0.2802337706, 0.0000000000, 0.0000000000, -0.0000000000, 0.0000000000, 0.0000000000, -0.1412736624, -0.0000000000, -0.0000000000, -0.0000000000, 0.1429322809, 0.0000000000, 0.0000000000, 0.0927973166, -0.0000000000, -0.0566842444, -0.0000000000, 0.0000000000, -0.0000000000, 0.0000000000, -0.0000000000, -0.0000000000, 0.0000000000, 0.0000000000, -0.0000000000, 0.0000000000, 0.0000000000, -0.0000000000, -0.0000000000, 0.0000000000, -0.0000000000, 0.0931457207, -0.0637681410, 0.0000000000, -0.0000000000, 0.0000000000, 0.0673476681, 0.0000000000, -0.0000000000, -0.0000000000, -0.0000000000, 0.0000000000, 0.0000000000, -0.0000000000, -0.0617818348, 0.0535879098, 0.0000000000, 0.0000000000, 0.0000000000, -0.1365118623, 0.0000000000, -0.0000000000, -0.0000000000, -0.0000000000, -0.0000000000, 0.0000000000, -0.0000000000, 0.0000000000, -0.0872373432, -0.0000000000, -0.0000000000, -0.0966166854, -0.0555555187, 0.0000000000, 0.2059239596, 0.0000000000, 0.0000000000, 0.0000000000, -0.0000000000, -0.1200260222, -0.0000000000, 0.0861323997, 0.1107182354, 0.0000000000, 0.0493042804, -0.0000000000, 0.0561875664, -0.0000000000, 0.0000000000, 0.0000000000, 0.0000000000, 0.0663788691, -0.0000000000, -0.0636276156, 0.0000000000, 0.0000000000, 0.0665540397, -0.1624547541, -0.0000000000, -0.0000000000, -0.0000000000, 0.0000000000, -0.0000000000, 0.0000000000, -0.0000000000, -0.0000000000, -0.0000000000, 0.0000000000, -0.0000000000, -0.0000000000, 0.0000000000, 0.0000000000, -0.0718792677, -0.0000000000, -0.0000000000, -0.0000000000, -0.0782418624, 0.0000000000, 0.0000000000, 0.0643520579, 0.0000000000, 0.0000000000, 0.0000000000, 0.0000000000, -0.0000000000, 0.0000000000, -0.0000000000, -0.0000000000, -0.0000000000, -0.0000000000, 0.0000000000, -0.0691829324, -0.0739337802, 0.0000000000, 0.0000000000, -0.0724539682, 0.0000000000, 0.1330492944, -0.0935226977, -0.0000000000, -0.0000000000, -0.0000000000, -0.0000000000, -0.0000000000, -0.0622946285, -0.0000000000, 0.0852903575, 0.0000000000, -0.1605700403, 0.0000000000, -0.0000000000, 0.0000000000, 0.0000000000, 0.0000000000, -0.0000000000, 0.0000000000, -0.0000000000, -0.0000000000, -0.0000000000, 0.0000000000, 0.1345591694, 0.0000000000, -0.0000000000, -0.0000000000, -0.0000000000, -0.0000000000, -0.0000000000, 0.0742658451, 0.0000000000, 0.0000000000, 0.1622112542, 0.0000000000, 0.0000000000, 0.0000000000, 0.0000000000, 0.0936890990, 0.0605875216, -0.0000000000, -0.2191467881, -0.0000000000, -0.1444417238, -0.0000000000, -0.0000000000, 0.0000000000, 0.0000000000, 0.0000000000, 0.0000000000, 0.0000000000, -0.0000000000, -0.0000000000, -0.0000000000, 0.0000000000, -0.0000000000, -0.0718407556, 0.0000000000, -0.0576048903, -0.0000000000, 0.0000000000, 0.0000000000, 0.0000000000, -0.0569504313, 0.0924524143, -0.0907907709, 0.0000000000, 0.0000000000, -0.0000000000, -0.0000000000, -0.1274030358, -0.1122426689, -0.0000000000, 0.0972429588, 0.0000000000, -0.0928009525, -0.0687634647, -0.0000000000, -0.0934312940, -0.0000000000, 0.0000000000, -0.0000000000, 0.0000000000, 0.0000000000, 0.0000000000, 0.0000000000, -0.0000000000, 0.1245687678, 0.0000000000, -0.0000000000, 0.0000000000, -0.0622954220, 0.0000000000, 0.0000000000, -0.1099010780, -0.0000000000, 0.0000000000, 0.1427720189, -0.0000000000, 0.0000000000, 0.0000000000, 0.0740313902, 0.0000000000, -0.0000000000, -0.1188680306, -0.0000000000, -0.0000000000, -0.0000000000, -0.0000000000, -0.0000000000, 0.0747539997, -0.0563345626, 0.0000000000, 0.0000000000, 0.0000000000, -0.0000000000, 0.0000000000, -0.0000000000, -0.0000000000, 0.0871186852, 0.0000000000, 0.0000000000, -0.0672479868, 0.0000000000, 0.0000000000, -0.0000000000, -0.1151542068, 0.0000000000, -0.0000000000, 0.1208850145, 0.0000000000, 0.0000000000, -0.0000000000, -0.0000000000, 0.0281658061, -0.0000000000, -0.0000000000, 0.1530572325, -0.0000000000, 0.0000000000, -0.0000000000, 0.0000000000, 0.1120006219, -0.0000000000, -0.0557623729, 0.0000000000, 0.0000000000, 0.0000000000, -0.0000000000, -0.0000000000, -0.0000000000, 0.0000000000, 0.1328538656, 0.0000000000, -0.0671228096, -0.0000000000, -0.0000000000, 0.0000000000, -0.1025558189, -0.0581384934, 0.1082297191, -0.0000000000, -0.0000000000, 0.0000000000, -0.0000000000, 0.0000000000, 0.1744933724, -0.0000000000, -0.0000000000, -0.1782377511, -0.0000000000, 0.0669009835, -0.0000000000, 0.0000000000, -0.0000000000, 0.0000000000, -0.0000000000, 0.0000000000, 0.0000000000, -0.0000000000, 0.0000000000, -0.0602557957, 0.0000000000, -0.0000000000, -0.0944382027, -0.0000000000, -0.0000000000, 0.0000000000, -0.0000000000, -0.0000000000, 0.0000000000, -0.0000000000, 0.0985874906, -0.0000000000, 0.0000000000, 0.0000000000, -0.0000000000, -0.0000000000, 0.0000000000, -0.0000000000, -0.1358555704, 0.1408313960, -0.0000000000, -0.1183649078, -0.0000000000, -0.0594124347, -0.0000000000, 0.0000000000, 0.0000000000, -0.0604925640, -0.1201943904, -0.0618675537, 0.0000000000, 0.0000000000, -0.0647701696, 0.0990617573, 0.0000000000, -0.0000000000, -0.0000000000, 0.0000000000, -0.0000000000, -0.0000000000, 0.0000000000, -0.0603020974, 0.0000000000, -0.0000000000, 0.0000000000, 0.0000000000, 0.0000000000, 0.0000000000, 0.0000000000, -0.0000000000, -0.1916247308, -0.0000000000, -0.0000000000, 0.0000000000, -0.0000000000, -0.0000000000, -0.1174708530, -0.0664752424, 0.0000000000, -0.0000000000, 0.0000000000, -0.0000000000, -0.0000000000, -0.0000000000, -0.0000000000, -0.0000000000, 0.0000000000, -0.0000000000, -0.0000000000, -0.0000000000, -0.0000000000, -0.0000000000, 0.0000000000, -0.0000000000, -0.0000000000, -0.0000000000, 0.0000000000, 0.0000000000, -0.0000000000, -0.0000000000, -0.0000000000, 0.0000000000, 0.0939034373, -0.0000000000, 0.0000000000, 0.0613159612, -0.0000000000, -0.0000000000, 0.0000000000, -0.0000000000, -0.0000000000, 0.0000000000, 0.0544235408, -0.0684247315, -0.0000000000, -0.0000000000, 0.0000000000, 0.0511602126, -0.1806492656, 0.0000000000, -0.0000000000, -0.0000000000, 0.0000000000, 0.0000000000, -0.0000000000, 0.0000000000, -0.0962379426, -0.0584256016, 0.0000000000, -0.0000000000, 0.0000000000, 0.0000000000, 0.0000000000, -0.0000000000, 0.0000000000, 0.0000000000, 0.0000000000, -0.0829690173, 0.0000000000, -0.0000000000, -0.0942806825, 0.0000000000, 0.0000000000, 0.0000000000, -0.1333498359, 0.0000000000, -0.0000000000, -0.0675423667, 0.0000000000, 0.0473122783, 0.0000000000, 0.0000000000, 0.0000000000, 0.0000000000, 0.0000000000, 0.0000000000, 0.0764821842, 0.0000000000, 0.0628941357, -0.1973460764, -0.0634751245, -0.0000000000, 0.0000000000, -0.0000000000, 0.0000000000, -0.0000000000, 0.0909415409, 0.1108550504, -0.0000000000, -0.0000000000, -0.0000000000, 0.0000000000, 0.0000000000, -0.0639601573, 0.0000000000, -0.0000000000, 0.0628385395, 0.0000000000, -0.0000000000, -0.0000000000, 0.0000000000, -0.0721881464, -0.0000000000, -0.0000000000, -0.0558014959, 0.0000000000, 0.0000000000, 0.0000000000, -0.0000000000, 0.0000000000, 0.0000000000, 0.0000000000, 0.0000000000, -0.0000000000, 0.0000000000, -0.0000000000, 0.0000000000, -0.0000000000, 0.0000000000, 0.0000000000, 0.0000000000, 0.0000000000, -0.0000000000, -0.0000000000, 0.0000000000, -0.0656107441, -0.0706325993, 0.0000000000, 0.0000000000, 0.0000000000, -0.0622926913, -0.0000000000, 0.0000000000, -0.0000000000, -0.0000000000, 0.0000000000, -0.0580238812, -0.0000000000, -0.0000000000, 0.0000000000, 0.0000000000, -0.0000000000, -0.0000000000, -0.0685698912, 0.0000000000, 0.0000000000, 0.0000000000, -0.0000000000, 0.1124397069, -0.0000000000, -0.0839921385, -0.0000000000, 0.0000000000, 0.0558827072, 0.0000000000, -0.0000000000, -0.1544504017, 0.0000000000, 0.0000000000, 0.0000000000, 0.0000000000, 0.0633787438, -0.0000000000, 0.0000000000, 0.0000000000, 0.0000000000, -0.0000000000, 0.0000000000, -0.0633618459, 0.0000000000, 0.0000000000, 0.0000000000, 0.0000000000, 0.0000000000, -0.0731924027, -0.0000000000, -0.0000000000, 0.0000000000, 0.0000000000, -0.0590664297, 0.0869191363, -0.0000000000, 0.0743643120, 0.0472907089, -0.0000000000, 0.0000000000, -0.0605950914, -0.0000000000, -0.1036067158, 0.0000000000, 0.0000000000, 0.0000000000, 0.0000000000, 0.0000000000, -0.0000000000, 0.0000000000, 0.0000000000, -0.1541741192, -0.0000000000, -0.0000000000, -0.0000000000, 0.0000000000, -0.0000000000, 0.0598539822, -0.1353859156, 0.0000000000, 0.0000000000, -0.1306388527, -0.0000000000, 0.0000000000, -0.0000000000, -0.0565060489, 0.1326638609, -0.0946767256, 0.0804944262, -0.1267606318, -0.0000000000, -0.0000000000, 0.0000000000, 0.0000000000, -0.1174752563, -0.0000000000, -0.0000000000, -0.0000000000, 0.0000000000, 0.0000000000, -0.0000000000, -0.0000000000, -0.0000000000, 0.0879954100, -0.0000000000, 0.0000000000, 0.0000000000, -0.0000000000, -0.0000000000, 0.0000000000, -0.0000000000, 0.0000000000, 0.0000000000, 0.0000000000, -0.0000000000, -0.0000000000, -0.0000000000, -0.0000000000, 0.0000000000, -0.0000000000, 0.0826312527, -0.0000000000, 0.0000000000, 0.0704072416, -0.0758723095, -0.0000000000, -0.1109977961, 0.0000000000, -0.0716295466, 0.0000000000, 0.0000000000, -0.0000000000, 0.0000000000, 0.0000000000, -0.0000000000, -0.0000000000, 0.0000000000, -0.0000000000, -0.0000000000, -0.0635140240, 0.0000000000, -0.0000000000, 0.0000000000, -0.0000000000, -0.0000000000, -0.0000000000, -0.0000000000, 0.0000000000, -0.0000000000, -0.0000000000, -0.0000000000, 0.0000000000, -0.0871749893, -0.0000000000, 0.0000000000, -0.0898825154, -0.0656965896, 0.0000000000, 0.0000000000, -0.0000000000, -0.0000000000, 0.0000000000, -0.0941271409, -0.0000000000, -0.0000000000, -0.0000000000, -0.0000000000, 0.0000000000, -0.0900005177, -0.0000000000, -0.0688783675, -0.0000000000, 0.0000000000, 0.0000000000, -0.0637784898, -0.0000000000, 0.0000000000, -0.0000000000, 0.0000000000, 0.0000000000, 0.0000000000, 0.0000000000, 0.1098129302, 0.1206550524, 0.0000000000, 0.0328942053, -0.0000000000, 0.0494507737, -0.0000000000, 0.0000000000, -0.1670300215, 0.0000000000, 0.0000000000, 0.0000000000, 0.0000000000, 0.0000000000, -0.0000000000, -0.0000000000, -0.0000000000, 0.0849061385, -0.0000000000, -0.0000000000, -0.0000000000, -0.0000000000, 0.0000000000, -0.0000000000, 0.0000000000, 0.0000000000, 0.0678537861, -0.0828265548, 0.0000000000, 0.0000000000, -0.0000000000, 0.0000000000, 0.0000000000, -0.0000000000, 0.0000000000, 0.1285865307, -0.0000000000, -0.0000000000, 0.0000000000, 0.0000000000, 0.0000000000, 0.0000000000, 0.0000000000, 0.0000000000, 0.0000000000, -0.0000000000, -0.0000000000, -0.0000000000, 0.0000000000, 0.0000000000, -0.0000000000, -0.0000000000, -0.0000000000, -0.0000000000, -0.0000000000, 0.0000000000, 0.0790103525, 0.0000000000, -0.0000000000, 0.0000000000, -0.0657363608, 0.0000000000, 0.0000000000, 0.0000000000, 0.0765158534, -0.0880889297, 0.0926477760, -0.0000000000, 0.0000000000, -0.1425711811, 0.0000000000, -0.0000000000, -0.0842795670, -0.0000000000, -0.0000000000, -0.0580460280, 0.0000000000, -0.0000000000, 0.0000000000, 0.0000000000, 0.0000000000, -0.0000000000, 0.1339455098, -0.0000000000, 0.0000000000, -0.0000000000, 0.0000000000, 0.0000000000, 0.0000000000, -0.0000000000, 0.0000000000, -0.0000000000, -0.0000000000, 0.0000000000, -0.0000000000, 0.0000000000, 0.0000000000, -0.0000000000, -0.1040453091, 0.1482876837, -0.0000000000, -0.1710822433, 0.0000000000, -0.0000000000, -0.1378505081, -0.0000000000, -0.0000000000, -0.0000000000, 0.0000000000, -0.0000000000, 0.0000000000, -0.0560286045, 0.0000000000, -0.0000000000, -0.0000000000, 0.0000000000, -0.0623024851, 0.0000000000, -0.0643419400, -0.0000000000, 0.0000000000, 0.0000000000, -0.0696644336, 0.0741979703, 0.0000000000, 0.0000000000, 0.0000000000, 0.0647248328, 0.0545882843, 0.0323797502, 0.0000000000, 0.0535961576, 0.0000000000, 0.0590291433, 0.0000000000, 0.0000000000, -0.1069135070, -0.0000000000, -0.0000000000, -0.0000000000, -0.0789771155, 0.0000000000, -0.0000000000, 0.0000000000, 0.0000000000, 0.0000000000, -0.0000000000, -0.0000000000, 0.0000000000, 0.0000000000, -0.0000000000, -0.0619192943, 0.1054734662, -0.0000000000, -0.1033430472, -0.0762266442, 0.0000000000, 0.0000000000, 0.0000000000, -0.0000000000, 0.0499961823, -0.0722776651, -0.0979910195, 0.0000000000, -0.0000000000, 0.0000000000, -0.0000000000, 0.0000000000, -0.1027206704, 0.0000000000, -0.0000000000, -0.0000000000, -0.1329161972, 0.0000000000, -0.0000000000, -0.0000000000, -0.0000000000, 0.0721733496, 0.0637893528, 0.0000000000, -0.0710490271, -0.0000000000, -0.0000000000, -0.0000000000, 0.0728460401, -0.0000000000, -0.0557797067, 0.0000000000, -0.0000000000, 0.0000000000, -0.0000000000, 0.0000000000, 0.1250106990, 0.1134908572, 0.1410570294, -0.1171930358, -0.0000000000, 0.0000000000, -0.0772963986, -0.0000000000, -0.0000000000, 0.0000000000, -0.0000000000, -0.0000000000, -0.0626916215, -0.0000000000, 0.0000000000, -0.0000000000, -0.0000000000, 0.0560656562, 0.1082281619, -0.0000000000, -0.0587186217, 0.0000000000, -0.0000000000, -0.0000000000, -0.0572759807, -0.0000000000, -0.0000000000, 0.0561896935, 0.0000000000, 0.0000000000, 0.0000000000, 0.0000000000, -0.0000000000, 0.0000000000, -0.0000000000, 0.0811575204, 0.0000000000, 0.1195370480, 0.0000000000, 0.0000000000, 0.0000000000, 0.0000000000, -0.0579817779, -0.0000000000, 0.0000000000, -0.0603185743, -0.0000000000, -0.0594501458, 0.0000000000, 0.0000000000, -0.0851562694, 0.0000000000, 0.0000000000, -0.0000000000, 0.0000000000, -0.0000000000, 0.0000000000, -0.0000000000, 0.0000000000, -0.1305232346, -0.0000000000, -0.0000000000, 0.0000000000, 0.0000000000, 0.0000000000, 0.2035199702, 0.0000000000, 0.0421787836, -0.0000000000, -0.1038373187, -0.0596130639, 0.0000000000, -0.1957461685, -0.0000000000, 0.0000000000, -0.0000000000, 0.0000000000, -0.0000000000, -0.0000000000, -0.0000000000, -0.0000000000, 0.0437279642, 0.0000000000, -0.0000000000, 0.0000000000, -0.0000000000, 0.0000000000, 0.0000000000, 0.0773172751, -0.0000000000, -0.0747256428, -0.1224082187, 0.0000000000, 0.0000000000, 0.0000000000, -0.0000000000, 0.0000000000, -0.0000000000, 0.0000000000, 0.0509489737, 0.0000000000, 0.0000000000, -0.0000000000, -0.0000000000, -0.1091236621, 0.0000000000, 0.0000000000, -0.0000000000, -0.0000000000, 0.0000000000, 0.0000000000, 0.0000000000, -0.0000000000, -0.0000000000, -0.0000000000, 0.0000000000, -0.0692899525, -0.0000000000, 0.0000000000, 0.0000000000, -0.0874841735, -0.0000000000, 0.1572939306, 0.0000000000, 0.0000000000, 0.0000000000, 0.0000000000, 0.0000000000, 0.0603476912, -0.0000000000, 0.0000000000, -0.0000000000, 0.0000000000, 0.0925756171, -0.0000000000, -0.0000000000, -0.0000000000, -0.0000000000, 0.0000000000, 0.0000000000, -0.1062393114, -0.0000000000, -0.0000000000, -0.0000000000, -0.0000000000, 0.0000000000, 0.0000000000, 0.0000000000, -0.0000000000, -0.0000000000, -0.0000000000, 0.0000000000, 0.0000000000, -0.0000000000, -0.0000000000, -0.0000000000, -0.0000000000, 0.0000000000, -0.0564080998, 0.0000000000, 0.0000000000, -0.0000000000, -0.0000000000, 0.0327657424, 0.0000000000, 0.1001123264, -0.0608512312, -0.0000000000, 0.0000000000, -0.0000000000, 0.0000000000, 0.0000000000, 0.0549736656, -0.0000000000, -0.0000000000, -0.0000000000, -0.0574320182, 0.0000000000, -0.0000000000, 0.0000000000, -0.0000000000, -0.0000000000, -0.0000000000, 0.0587292500, 0.0000000000, -0.0000000000, -0.1340537518, 0.0000000000, 0.0000000000, -0.0000000000, 0.0000000000, -0.0000000000, 0.0462829098, 0.0489132814, -0.0000000000, -0.0000000000, 0.0000000000, -0.1333944499, 0.0000000000, -0.0000000000, -0.0000000000, 0.0000000000, -0.0000000000, -0.0580148660, -0.0968881696, -0.0000000000, 0.0000000000, 0.0000000000, -0.0000000000, -0.0000000000, -0.0000000000, -0.0000000000, 0.0000000000, -0.0000000000, -0.0000000000, 0.0000000000, 0.0000000000, -0.0000000000, -0.0000000000, -0.0000000000, -0.0000000000, 0.0000000000, -0.0000000000, 0.0000000000, 0.0000000000, -0.0000000000, 0.0795205683, 0.0916987211, 0.0000000000, -0.0000000000, 0.0000000000, -0.0000000000, -0.1221876144, -0.0000000000, -0.0000000000, -0.0000000000, 0.0000000000, -0.0000000000, 0.0000000000, 0.0000000000, 0.0000000000, -0.0850376338, 0.0518536940, -0.0000000000, 0.0000000000, -0.0000000000, -0.0000000000, 0.0000000000, 0.0000000000, -0.0000000000, 0.0000000000, 0.0572603531, -0.0000000000, -0.0583428368, 0.0667196363, 0.0000000000, 0.0000000000, 0.0567252003, -0.0000000000, -0.0000000000, 0.0000000000, 0.0000000000, -0.0000000000, 0.0000000000, -0.0000000000, 0.0000000000, -0.0000000000, -0.0000000000, 0.0000000000, -0.0000000000, 0.0000000000, 0.0000000000, -0.0000000000, -0.0000000000, 0.0000000000, 0.0000000000, 0.0000000000, -0.0000000000, -0.0000000000, -0.0000000000, -0.1014515311, -0.0591574721, -0.0000000000, 0.0000000000, 0.0000000000, -0.0000000000, 0.0000000000, 0.0000000000, 0.0627202392, 0.0000000000, 0.0905200392, -0.0000000000, 0.0000000000, -0.0000000000, -0.0000000000, 0.0000000000, 0.0607466623, 0.0000000000, 0.0000000000, 0.0000000000, 0.0000000000, -0.0597197078, -0.0000000000, 0.0000000000, -0.0000000000, -0.0886720940, -0.0000000000, -0.0000000000, 0.0000000000, -0.0591878258, 0.0000000000, -0.0000000000, -0.0000000000, 0.0000000000, -0.0000000000, 0.0000000000, -0.0559608042, 0.0000000000, -0.0000000000, -0.0000000000, 0.0000000000, -0.0000000000, -0.1116361991, 0.0625709295, 0.0000000000, 0.0000000000, -0.0558487363, -0.0000000000, 0.0000000000, -0.0000000000, -0.0000000000, -0.0000000000, 0.0000000000, 0.0000000000, -0.0000000000, -0.0000000000, -0.0583831705, 0.0786418021, 0.0000000000, -0.0000000000, 0.0000000000, -0.0784550458, -0.0000000000, 0.0000000000, -0.1539600044, 0.0000000000, 0.0524964295, 0.0000000000, -0.0000000000, 0.0000000000, 0.0000000000, 0.0000000000, 0.0339237601, -0.0000000000, 0.1056561321, -0.1060540453, 0.0000000000, -0.0000000000, -0.0000000000, 0.0572324507, -0.0960498899, 0.0000000000, -0.0000000000, -0.0000000000, 0.0000000000, 0.0000000000, 0.0000000000, -0.0000000000, 0.0000000000, -0.0000000000, 0.0000000000, 0.0000000000, 0.0000000000, 0.0000000000, -0.0000000000, -0.0000000000, 0.0918280035, -0.0000000000, 0.0000000000, 0.0000000000, 0.0000000000, -0.0000000000, 0.0000000000, -0.0000000000, 0.0000000000, 0.0623056702, -0.0000000000, -0.0000000000, 0.0000000000, -0.0000000000, -0.0000000000, 0.0000000000, -0.0000000000, 0.0000000000, -0.0691693649, -0.0679926276, 0.0739927664, 0.0000000000, -0.0000000000, 0.0000000000, -0.0653254688, 0.0000000000, -0.0000000000, -0.0595095344, -0.0583655573, -0.0000000000, -0.0000000000, 0.0000000000, 0.0000000000, -0.0000000000, -0.0000000000, -0.0000000000, 0.0000000000, 0.0000000000, -0.0000000000, -0.0597772375, 0.0000000000, -0.0000000000, -0.1028236449, 0.0701137707, 0.0000000000, -0.0000000000, -0.0000000000, -0.0000000000, 0.0000000000, 0.0000000000, -0.0705028549, -0.0000000000, 0.0341035984, -0.0000000000, -0.0000000000, 0.0000000000, -0.0000000000, 0.0000000000, -0.0000000000, 0.0000000000, 0.0000000000, 0.0000000000, 0.0000000000, 0.0000000000, 0.0000000000, -0.0000000000, -0.0000000000, 0.1451578438, 0.0000000000, -0.0594628789, 0.0000000000, -0.0000000000, 0.0000000000, -0.0000000000, -0.0663653985, -0.0633390248, 0.0000000000, -0.1265705675, -0.0000000000, -0.0000000000, 0.0000000000, -0.0000000000, -0.0000000000, -0.0000000000, -0.1944790930, -0.0000000000, -0.0000000000, -0.0626304448, -0.0558003262, 0.0000000000, -0.0000000000, 0.0000000000, -0.0000000000, -0.0000000000, 0.0000000000, -0.0000000000, 0.0000000000, -0.0000000000, 0.0692215115, 0.0000000000, -0.0000000000, -0.0000000000, 0.0577920564, -0.0000000000, -0.0853210837, 0.0542498603, 0.1001747400, 0.0507415719, -0.0000000000, 0.0637343302, -0.0000000000, 0.0000000000, 0.0000000000, 0.0000000000, 0.0000000000, 0.0000000000, 0.0000000000, -0.0000000000, -0.0000000000, -0.0611075014, 0.0000000000, -0.0696086735, -0.0000000000, 0.0000000000, -0.0000000000, 0.0000000000, -0.0000000000, -0.0606198497, 0.0603308454, -0.0000000000, -0.0000000000, 0.0000000000, 0.0000000000, 0.0000000000, 0.0000000000, -0.0588051118, 0.0000000000, -0.0000000000, -0.0000000000, -0.0000000000, -0.0000000000, 0.0652922690, -0.0000000000, 0.0000000000, -0.0000000000, 0.0000000000, -0.0000000000, 0.0000000000, 0.0615843572, -0.0000000000, 0.0000000000, 0.0000000000, -0.0000000000, -0.0593310110, 0.0739948228, -0.0000000000, 0.0000000000, -0.0716439933, 0.0000000000, -0.0000000000, 0.0000000000, 0.0000000000, -0.0000000000, -0.0000000000, 0.0000000000, -0.0000000000, 0.0000000000, 0.0000000000, -0.0000000000, 0.0000000000, -0.0000000000, -0.0000000000, -0.0000000000, 0.1170645505, -0.0000000000, -0.0000000000, 0.0000000000, -0.0000000000, -0.0627809837, -0.0000000000, 0.0000000000, 0.0000000000, -0.0000000000, 0.0000000000, 0.0589775294, 0.0000000000, -0.1048182324, 0.0000000000, 0.0000000000, 0.0000000000, 0.0000000000, 0.0000000000, 0.0000000000, -0.0000000000, -0.0000000000, 0.0555191562, 0.0000000000, -0.0000000000, 0.0560277216, -0.0000000000, 0.0000000000, -0.0000000000, -0.0000000000, 0.0000000000, -0.0000000000, -0.0000000000, -0.0666973218, -0.0000000000, 0.0000000000, -0.0000000000, 0.0000000000, -0.0714014694, 0.0000000000, 0.0000000000, -0.0000000000, -0.0000000000, 0.0000000000, 0.0573004037, 0.0000000000, -0.0000000000, 0.0000000000, -0.0000000000, -0.0625146702, 0.0000000000, -0.1612010747, -0.0000000000, -0.0000000000, 0.0000000000, -0.0000000000, 0.0000000000, 0.0000000000, -0.0000000000, 0.1116667613, -0.1361712217, -0.0000000000, -0.0000000000, -0.0588968582, 0.0940714255, -0.0000000000, 0.0000000000, -0.1239977404, -0.0000000000, -0.0000000000, 0.0000000000, 0.0000000000, 0.0000000000, -0.0000000000, 0.0000000000, -0.0000000000, -0.0000000000, -0.0000000000, -0.0000000000, -0.0000000000, -0.0600916445, 0.0000000000, -0.0607680157, 0.0000000000, 0.0000000000, -0.1427538991, 0.0731427968, 0.0000000000, 0.0000000000, 0.0000000000, -0.0000000000, 0.0483033359, -0.0000000000, 0.0712116808, -0.0000000000, -0.0000000000, -0.0000000000, -0.0000000000, -0.0000000000, 0.0000000000, 0.0000000000, 0.0000000000, 0.0000000000, 0.0000000000, -0.0000000000, -0.0583778247, -0.0000000000, 0.0000000000, 0.0000000000, -0.0000000000, -0.0000000000, -0.0000000000, -0.0000000000, 0.0000000000, -0.0000000000, 0.0906161144, 0.0000000000, -0.0000000000, -0.0880805105, 0.0000000000, 0.0000000000, -0.0000000000, -0.0000000000, 0.0000000000, 0.0461204983, -0.0000000000, 0.0540532805, 0.0000000000, 0.0646383017, 0.0000000000, 0.0000000000, 0.0000000000, 0.0000000000, -0.0670362636, -0.0000000000, 0.0712862238, -0.0000000000, -0.0000000000, 0.0000000000, -0.0000000000, 0.0000000000, -0.0000000000, 0.0000000000, -0.0000000000, 0.0000000000, -0.0000000000, 0.0000000000, 0.0540639311, -0.0000000000, -0.0868658125, 0.0472614504, 0.0000000000, 0.0566049851, 0.0000000000, -0.0597025715, 0.0000000000, -0.0000000000, -0.0000000000, 0.0000000000, 0.0000000000, -0.0000000000, -0.0581240803, 0.0000000000, 0.0000000000, 0.0000000000, -0.0000000000, -0.0744825453, -0.1826211512, -0.0000000000, -0.0000000000, -0.0000000000, 0.0000000000, 0.0000000000, -0.0000000000, 0.0000000000, 0.0000000000, -0.0000000000, -0.0000000000, 0.0000000000, -0.1299393475, 0.0000000000, -0.0000000000, 0.0000000000, -0.0577631220, 0.0000000000, 0.0000000000, -0.0614633188, 0.0872201025, -0.0000000000, -0.0000000000, 0.0000000000, 0.0000000000, 0.1070988402, 0.0000000000, -0.0000000000, 0.0000000000, 0.0000000000, 0.0000000000, 0.0000000000, 0.0000000000, 0.0000000000, -0.0000000000, 0.0000000000, 0.0000000000, 0.0736519620, -0.0743781701, -0.0623625144, -0.0000000000, -0.0582444631, -0.0648818389, 0.0000000000, 0.0787499398, -0.0000000000, -0.0811398402, 0.0000000000, 0.0000000000, 0.0000000000, 0.0000000000, 0.0000000000, -0.0779535025, -0.0000000000, -0.0000000000, -0.0000000000, -0.0000000000, 0.0000000000, -0.0000000000, -0.0000000000, -0.0000000000, -0.0000000000, -0.0632966086, 0.0000000000, 0.0816440731, 0.0000000000, -0.0000000000, -0.0000000000, -0.0577749684, -0.0000000000, -0.0000000000, -0.0625155866, 0.0000000000, -0.0676025674, -0.0638503730, -0.0000000000, -0.1138148829, 0.0000000000, 0.0000000000, -0.0867923647, -0.0000000000, -0.0000000000, 0.0000000000, -0.0000000000, 0.1060611084, -0.0614993386, 0.0742219537, -0.0000000000, -0.0000000000, 0.0696992874, -0.0000000000, -0.0000000000, 0.0990473703, -0.0000000000, 0.0000000000, 0.0000000000, 0.0000000000, -0.0000000000, -0.0000000000, -0.0636431202, 0.0000000000, -0.1177517474, -0.1001843512, 0.0000000000, 0.0000000000, -0.0800653473, -0.0000000000, -0.0000000000, 0.1032143608, 0.0000000000, -0.0951119512, -0.1423349828, 0.0000000000, 0.0000000000, -0.0000000000, -0.0000000000, 0.0000000000, -0.0000000000, 0.0000000000, -0.0000000000, -0.0632077232, 0.0576712415, -0.0000000000, 0.0000000000, 0.0000000000, -0.0000000000, 0.0000000000, -0.0000000000, 0.0000000000, -0.0000000000, -0.0000000000, 0.0000000000, -0.0000000000, 0.1388201118, -0.0000000000, -0.0000000000, -0.0000000000, 0.0000000000, 0.0000000000, 0.0000000000, -0.1483894736, 0.0000000000, -0.0000000000, 0.0000000000, -0.0000000000, -0.0000000000, 0.0000000000, 0.0000000000, 0.0823346004, -0.0000000000, -0.0000000000, 0.0762728080, 0.0000000000, -0.0000000000, -0.0000000000, 0.0000000000, -0.1003584862, 0.0000000000, -0.0000000000, -0.0000000000, 0.0000000000, 0.0000000000, -0.0000000000, -0.0000000000, 0.0000000000, -0.0000000000, -0.0000000000, 0.0000000000, 0.0000000000, 0.0000000000, 0.0000000000, -0.0634003729, 0.1744760126, -0.0000000000, -0.0000000000, -0.0659041107, -0.0000000000, 0.0000000000, 0.0000000000, 0.0000000000, 0.0000000000, -0.0000000000, 0.0761122555, 0.0386551805, -0.0000000000, 0.1661017686, -0.0655861646, -0.0574370958, 0.0000000000, 0.0000000000, 0.0000000000, 0.0000000000, 0.0000000000, 0.0000000000, -0.0000000000, 0.0000000000, -0.0000000000, -0.1252171844, -0.1280287206, -0.0000000000, -0.0000000000, -0.0640126318, -0.0000000000, -0.0000000000, 0.0705692545, -0.0000000000, -0.0000000000, -0.0000000000, -0.0000000000, -0.0000000000, -0.0000000000, 0.0000000000, 0.0559871681, -0.0000000000, 0.1090222970, 0.0000000000, -0.0000000000, -0.0000000000, -0.0000000000, -0.0000000000, 0.0670199618, -0.0564871021, -0.0000000000, 0.0000000000, 0.1292018890, 0.0000000000, -0.0000000000, 0.0000000000, 0.0000000000, -0.1017414927, -0.0000000000, 0.0000000000, 0.0000000000, -0.0000000000, -0.0000000000, -0.0577607565, 0.0000000000, -0.0000000000, 0.0000000000, 0.0000000000, -0.0567041896, -0.0000000000, 0.0000000000, -0.0000000000, 0.0000000000, -0.0000000000, 0.0000000000, -0.0000000000, -0.0000000000, -0.0000000000, -0.0000000000, 0.0000000000, -0.1049387529, -0.0000000000, -0.0000000000, -0.0000000000, 0.0000000000, -0.0000000000, 0.0000000000, 0.0000000000, -0.0000000000, 0.0876968950, -0.0000000000, 0.0000000000, -0.0000000000, -0.0000000000, 0.0000000000, -0.0000000000, 0.0000000000, -0.0000000000, -0.0000000000, 0.0000000000, -0.0000000000, 0.0000000000, -0.0000000000, -0.0000000000, 0.0000000000, -0.0000000000, -0.0000000000, -0.0000000000, 0.0000000000, 0.1194506064, 0.0000000000, 0.0000000000, 0.0000000000, -0.0588406324, -0.0000000000, -0.0000000000, 0.0000000000, 0.0000000000, -0.0000000000, -0.0000000000, 0.0000000000, 0.0000000000, -0.0829803571, -0.0000000000, -0.0000000000, -0.0000000000, -0.0686469078, 0.0000000000, 0.1631499231, -0.0000000000, 0.0000000000, -0.0832234323, -0.0000000000, -0.0000000000, -0.0000000000, -0.0000000000, 0.0000000000, 0.0456096977, 0.0880052298, -0.0000000000, 0.0000000000, 0.1274919063, -0.0562439524, 0.0000000000, 0.1046888977, -0.0000000000, 0.0000000000, -0.0000000000, 0.0000000000, 0.0000000000, -0.0609417893, 0.0000000000, 0.0000000000, -0.0647807345, -0.0000000000, -0.0000000000, -0.0661206394, 0.0000000000, -0.0661517754, 0.0000000000, -0.0584632680, -0.0000000000, 0.0846763179, -0.0000000000, 0.0000000000, -0.0000000000, 0.0000000000, 0.0000000000, 0.0687363744, 0.0000000000, 0.1456503570, -0.0000000000, -0.0651702955, 0.0000000000, -0.0000000000, -0.0657384470, 0.1029513925, -0.0000000000, 0.0000000000, 0.0000000000, -0.2424229234, 0.0000000000, -0.0000000000, -0.0000000000, -0.0000000000, 0.0000000000, 0.0000000000, -0.0000000000, 0.0000000000, -0.0000000000, 0.0000000000, 0.0000000000, 0.0000000000, 0.0000000000, -0.1520033628, -0.0592223629, -0.0625533387, 0.0000000000, 0.0596160255, 0.0000000000, 0.0000000000, -0.0000000000, 0.0000000000, -0.0000000000, 0.0000000000, 0.0691368952, -0.0000000000, 0.0000000000, 0.0901921242, 0.0000000000, -0.0000000000, 0.0000000000, -0.1551393420, 0.0567269996, -0.0000000000, -0.0000000000, 0.0000000000, 0.0750214458, -0.0000000000, -0.0000000000, -0.0613257773, -0.0654956698, -0.0000000000, -0.0000000000, 0.0000000000, -0.0000000000, -0.0000000000, 0.0392408930, -0.0000000000, -0.0000000000, 0.0000000000, -0.0000000000, 0.0000000000, 0.0373402461, 0.1043007374, 0.1568299383, 0.0000000000, 0.0833439678, 0.0000000000, 0.0000000000, -0.0000000000, 0.0000000000, 0.0000000000, -0.0000000000, -0.0758246630, 0.0000000000, -0.0000000000, 0.0000000000, -0.0000000000, 0.0000000000, 0.0000000000, -0.0000000000, -0.0000000000, -0.0000000000, 0.0000000000, -0.0000000000, 0.0000000000, -0.0000000000, 0.0000000000, -0.0657135323, 0.0000000000, -0.0000000000, 0.0000000000, -0.0575714260, 0.0000000000, 0.1027129218, 0.1250645667, -0.0000000000, -0.0000000000, 0.0819977298, 0.0000000000, -0.0000000000, -0.0726794899, 0.0000000000, 0.0000000000, 0.0000000000, -0.0827335864, -0.0636160001, -0.0000000000, -0.0000000000, 0.0000000000, 0.0000000000, 0.0000000000, -0.0000000000, -0.0654839277, -0.0000000000, -0.0000000000, 0.0000000000, 0.0000000000, -0.0000000000, 0.0737529919, -0.0000000000, 0.0000000000, -0.0000000000, -0.0000000000, 0.0000000000, -0.0736445189, -0.0000000000, 0.0696262121, -0.0000000000, -0.0000000000, -0.1076525897, 0.0000000000, -0.0000000000, 0.0579319447, -0.0000000000, -0.0000000000, 0.0000000000, 0.0000000000, -0.0000000000, -0.0000000000, -0.0000000000, 0.0000000000, 0.0000000000, 0.0000000000, 0.0000000000, -0.0000000000, -0.0633505061, 0.0000000000, -0.0000000000, 0.0000000000, 0.0000000000, 0.0000000000, 0.1616381705, 0.0000000000, -0.0000000000, 0.0000000000, 0.0000000000, 0.0000000000, -0.0000000000, -0.0000000000, -0.1164197251, -0.0000000000, 0.1516994834, -0.0000000000, -0.0000000000, 0.0000000000, -0.0000000000, -0.0000000000, -0.0000000000, 0.0000000000, -0.0653252527, -0.0000000000, -0.0000000000, -0.0000000000, 0.0000000000, -0.1310218275, -0.0000000000, 0.0000000000, -0.0737471431, 0.0000000000, -0.0000000000, 0.0000000000, -0.0000000000, 0.0000000000, 0.0000000000, -0.0576949269, 0.0000000000, 0.0000000000, -0.0588629507, 0.0000000000, -0.0000000000, 0.0823398829, -0.0000000000, -0.0000000000, 0.0000000000, -0.0000000000, 0.0000000000, -0.0000000000, -0.0000000000, 0.0000000000, 0.0000000000, -0.2246449143, 0.0000000000, -0.0000000000, -0.0000000000, -0.0000000000, 0.0000000000, 0.0000000000, -0.0000000000, 0.0000000000, -0.0771727487, -0.0000000000, -0.0000000000, 0.0000000000, -0.0000000000, -0.0777688101, -0.0542343520, -0.0000000000, 0.0000000000, 0.0000000000, 0.0000000000, 0.0539280474, -0.0000000000, 0.1105709523, -0.0000000000, -0.0000000000, 0.0840638727, -0.0000000000, 0.0000000000, -0.0000000000, -0.0000000000, 0.0000000000, -0.0000000000, 0.0000000000, -0.0000000000, -0.0000000000, -0.0000000000, -0.0555664040, -0.0000000000, -0.0000000000, -0.0000000000, 0.0000000000, -0.0000000000, -0.0000000000, -0.0000000000, 0.0000000000, -0.0000000000, -0.0000000000, -0.0000000000, -0.0000000000, 0.0000000000, -0.0000000000, -0.0000000000, 0.0575055256, 0.0000000000, 0.0870195255, 0.0000000000, -0.0000000000, -0.1066520363, 0.0000000000, -0.0000000000, 0.0663460046, 0.0000000000, -0.0000000000, 0.0000000000, -0.1713039875, 0.0000000000, -0.0000000000, 0.0000000000, -0.0617896616, 0.0000000000, 0.0000000000, 0.0000000000, 0.0000000000, -0.0000000000, 0.0000000000, 0.0000000000, 0.0782779381, 0.0000000000, -0.0000000000, 0.0000000000, 0.0000000000, 0.0000000000, 0.0000000000, -0.0000000000, 0.0000000000, -0.0000000000, -0.0000000000, 0.1995939612, -0.0000000000, 0.0000000000, 0.0000000000, -0.0668823645, 0.1268841773, -0.0000000000, -0.0000000000, -0.0000000000, 0.0000000000, -0.0561160855, -0.0000000000, 0.0000000000, -0.0000000000, -0.0704375952, -0.1402839869, 0.0000000000, -0.0000000000, -0.0000000000, -0.0000000000, -0.0000000000, -0.0000000000, 0.0000000000, 0.0681647435, 0.0607341044, 0.0000000000, 0.0000000000, -0.0000000000, 0.0000000000, 0.0000000000, -0.0000000000, 0.0000000000, 0.1554489434, -0.0000000000, 0.0000000000, 0.0000000000, 0.0000000000, 0.0000000000, -0.0000000000, -0.0000000000, 0.0000000000, -0.0926020518, 0.0000000000, -0.0000000000, -0.0000000000, 0.0000000000, 0.0000000000, 0.0000000000, -0.0565784760, 0.0000000000, -0.0000000000, -0.0000000000, 0.0000000000, 0.0000000000, 0.0000000000, -0.1558401585, 0.0000000000, -0.0000000000, 0.0000000000, 0.0000000000, 0.0000000000, 0.0000000000, 0.0908593759, -0.0000000000, -0.0000000000, 0.0000000000, -0.0000000000, 0.0000000000, -0.0000000000, 0.0728627667, 0.0000000000, -0.0000000000, 0.0570777468, -0.1532279998, -0.0000000000, -0.0000000000, 0.0000000000, -0.0000000000, 0.0000000000, 0.0000000000, 0.0000000000, -0.0000000000, -0.0000000000, 0.0000000000, 0.0000000000, -0.0745695308, 0.0000000000, -0.0000000000, -0.0000000000, 0.0000000000, -0.0690927953, 0.0000000000, -0.0000000000, 0.0387966111, -0.0000000000, -0.0000000000, 0.0968793035, -0.0000000000, -0.0000000000, 0.0000000000, -0.0000000000, 0.0000000000, 0.0000000000, -0.0000000000, 0.0000000000, -0.0000000000, -0.0000000000, -0.0000000000, 0.0651482195, -0.0000000000, 0.0753484741, 0.1051707566, 0.0000000000, -0.0000000000, 0.0000000000, -0.0000000000, 0.0000000000, 0.0416822173, 0.0000000000, 0.1090533957, -0.0000000000, 0.0000000000, -0.0562828034, -0.0000000000, -0.0000000000, 0.0000000000, -0.1332761496, -0.0000000000, 0.0466697589, 0.0000000000, 0.0000000000, -0.0000000000, -0.0000000000, -0.0000000000, 0.0000000000, 0.0000000000, -0.0000000000, -0.1037668437, 0.0000000000, -0.0000000000, -0.0000000000, -0.0000000000, 0.0671586841, 0.0000000000, -0.0000000000, 0.0000000000, 0.0000000000, -0.0000000000, 0.0000000000, 0.0000000000, 0.0000000000, 0.0000000000, -0.0000000000, 0.0000000000, 0.0000000000, 0.0000000000, 0.0000000000, 0.0702101439, 0.0524165556, -0.0000000000, -0.1111153588, -0.0000000000, -0.0000000000, 0.0000000000, -0.0000000000, 0.0000000000, 0.0000000000, -0.0000000000, 0.0000000000, -0.0790480152, -0.0000000000, -0.0000000000, -0.0000000000, 0.0000000000, 0.0000000000, 0.0000000000, -0.0000000000, -0.0000000000, 0.0000000000, 0.0000000000, -0.0000000000, 0.0000000000, 0.0000000000, -0.0000000000, 0.0000000000, -0.0000000000, -0.0000000000, -0.0000000000, 0.0000000000, 0.0441176258, 0.0000000000, -0.0000000000, -0.0000000000, 0.0000000000, -0.0000000000, -0.0751749203, 0.0000000000, -0.0000000000, 0.0000000000, -0.0581767261, 0.0000000000, 0.0932155922, -0.0000000000, 0.0000000000, 0.0000000000, -0.0000000000, -0.1113361195, -0.0000000000, -0.0000000000, -0.0696802214, -0.0888534933, 0.0000000000, -0.0000000000, -0.1000335515, -0.0000000000, -0.0000000000, -0.0000000000, 0.0000000000, -0.0000000000, 0.0000000000, -0.0000000000, 0.0000000000, 0.0000000000, 0.0000000000, 0.0595697090, 0.0000000000, -0.1065526009, 0.0000000000, 0.0000000000, 0.0715527683, -0.0000000000, -0.0000000000, 0.0000000000, 0.0000000000, -0.0659187362, -0.0000000000, -0.0000000000, -0.0000000000, -0.0000000000, 0.0000000000, 0.0000000000, -0.0656096563, -0.0563364811, 0.0000000000, 0.0000000000, 0.0000000000, -0.0000000000, 0.1143712848, -0.0725642294, -0.0000000000, 0.0000000000, 0.0000000000, 0.0000000000, -0.0943950042, -0.0000000000, -0.0516853258, 0.1075379103, 0.0000000000, -0.1846672148, 0.0000000000, 0.0000000000, 0.0475393832, -0.0000000000, 0.0000000000, 0.0000000000, 0.0000000000, -0.0000000000, -0.0000000000, -0.0000000000, 0.0000000000, -0.1394725293, 0.0000000000, -0.0000000000, 0.0000000000, -0.0000000000, -0.0000000000, -0.0000000000, -0.1459916681, -0.0000000000, 0.0629487634, -0.0000000000, -0.0573154725, -0.0000000000, -0.0559563749, 0.0000000000, 0.0836878493, -0.0000000000, 0.0000000000, 0.0000000000, 0.0000000000, 0.0675586239, -0.0000000000, 0.0000000000, 0.0790325180, 0.0000000000, -0.0000000000, -0.0000000000, 0.0000000000, -0.0000000000, -0.0000000000, -0.0000000000, 0.0000000000, 0.0000000000, 0.0000000000, 0.0000000000, -0.0566880703, -0.0839719996, -0.0000000000, 0.0000000000, -0.0957579464, -0.0603834428, -0.0000000000, 0.0000000000, -0.0000000000, 0.0000000000, -0.0000000000, 0.0000000000, 0.0000000000, 0.1021072194, -0.0000000000, -0.0000000000, -0.0656691268, -0.0000000000, 0.0000000000, 0.0000000000, 0.0886452720, -0.0000000000, -0.0000000000, 0.0000000000, 0.0000000000, 0.0000000000, 0.0000000000, 0.0000000000, -0.0607793033, -0.0639119819, -0.1157882363, 0.0561158769, 0.0000000000, -0.0595486648, 0.0000000000, 0.0000000000, 0.0596542843, -0.0000000000, -0.0000000000, -0.0319983587, -0.0613774322, 0.0000000000, -0.0000000000, 0.0000000000, 0.0000000000, -0.0000000000, 0.1005544439, -0.0000000000, 0.0000000000, -0.0000000000, -0.0000000000, -0.0000000000, 0.0000000000, 0.0000000000, 0.0000000000, -0.0741010010, 0.0844545215, 0.0000000000, -0.0000000000, -0.0000000000, 0.0000000000, -0.0000000000, -0.0807810724, 0.0000000000, 0.0000000000, -0.0000000000, 0.0000000000, -0.0000000000, 0.0544199198, -0.0000000000, -0.0000000000, 0.0000000000, -0.0000000000, -0.0000000000, 0.0000000000, -0.0000000000, 0.0971551910, -0.0000000000, 0.1088188291, -0.0000000000, -0.0000000000, -0.0000000000, 0.0000000000, 0.0000000000, 0.0000000000, 0.0000000000, -0.0000000000, -0.0000000000, -0.0721853673, 0.0000000000, -0.0000000000, -0.0587442815, -0.0000000000, -0.0880681872, -0.0876967236, 0.0000000000, 0.0000000000, -0.0000000000, -0.0000000000, -0.0000000000, 0.0407730378, 0.0000000000, 0.0457797796, -0.0531631745, -0.0000000000, -0.0000000000, 0.0000000000, -0.0000000000, 0.0000000000, -0.0798243061, -0.0000000000, -0.0914205387, -0.0000000000, -0.0000000000, 0.0000000000, -0.0000000000, 0.0524124503, 0.0000000000, 0.0000000000, 0.0000000000, 0.0000000000, -0.0634669140, -0.0000000000, -0.0000000000, -0.0000000000, -0.0000000000, 0.0000000000, 0.0000000000, -0.0000000000, -0.0000000000, 0.0000000000, 0.0000000000, 0.0521309301, -0.0000000000, 0.0747305900, 0.0000000000, -0.0000000000, -0.0000000000, -0.0000000000, -0.0000000000, -0.0826247260, 0.1555574089, -0.0000000000, -0.0000000000, 0.0000000000, 0.0844439939, -0.0000000000, -0.0000000000, -0.0000000000, -0.0596871041, -0.0000000000, -0.0000000000, 0.1278513819, 0.0000000000, 0.0000000000, -0.0000000000, 0.0000000000, 0.0000000000, -0.0000000000, -0.0656978190, -0.0000000000, -0.0659909397, 0.0000000000, -0.0674982890, -0.0789396539, -0.0000000000, 0.0000000000, -0.0994604528, 0.0000000000, -0.0000000000, 0.0000000000, -0.0625617132, 0.0873726159, 0.0850280598, 0.1220884621, -0.0000000000, 0.0000000000, -0.0000000000, 0.0000000000, 0.0000000000, -0.0832522959, -0.0000000000, 0.0000000000, -0.0660429522, 0.0258297194, 0.0000000000, -0.0000000000, 0.0000000000, -0.0000000000, -0.0000000000, 0.0000000000, -0.0000000000, -0.0000000000, -0.0000000000, 0.0000000000, -0.0000000000, 0.0868071467, -0.0633251518, -0.0000000000, 0.0000000000, -0.0000000000, -0.0000000000, -0.0000000000, 0.0000000000, -0.1395569742, 0.0355677418, -0.0000000000, -0.0000000000, -0.0000000000, -0.0000000000, -0.0721982643, 0.0000000000, -0.0791845694, -0.0000000000, 0.0000000000, 0.0000000000, 0.0000000000, -0.0000000000, -0.0000000000, -0.0000000000, -0.0607242174, -0.0835927799, -0.0823112279, 0.0000000000, -0.0000000000, -0.0000000000, 0.0000000000, -0.0597471707, 0.0000000000, 0.0000000000, 0.1256998479, 0.0589717813, -0.0000000000, -0.0000000000, 0.0000000000, 0.0000000000, 0.1238160953, -0.0000000000, 0.1135058999, -0.0000000000, -0.0000000000, -0.0000000000, -0.0000000000, -0.0592535138, 0.0000000000, -0.0000000000, 0.0000000000, -0.0617573746, 0.0502863303, -0.0000000000, 0.0000000000, -0.0000000000, -0.0000000000, -0.0000000000, 0.0000000000, 0.0000000000, -0.0000000000, 0.0000000000, 0.0000000000, 0.0000000000, 0.0000000000, 0.0000000000, 0.0675213113, 0.0000000000, -0.0000000000, -0.0000000000, -0.0633258149, 0.0000000000, 0.0000000000, 0.0896583125, -0.0000000000, -0.1409233212, -0.0000000000, 0.0999563560, -0.0565523505, -0.0000000000, 0.0847311243, -0.0000000000, -0.0000000000, 0.0000000000, 0.1120376140, 0.0000000000, -0.0561759695, -0.0000000000, 0.0000000000, -0.0000000000, -0.0000000000, 0.0000000000, -0.0000000000, -0.0000000000, -0.0608216822, 0.0000000000, 0.0000000000, 0.0000000000, -0.0000000000, -0.0478383638, 0.0000000000, 0.0000000000, -0.0000000000, 0.0000000000, 0.0000000000, -0.0000000000, -0.0000000000, -0.0854580626, 0.0000000000, -0.0000000000, 0.0000000000, -0.0000000000, 0.0558736324, 0.0000000000, 0.0000000000, -0.0604280047, 0.0636890754, -0.0000000000, 0.0000000000, 0.0000000000, -0.0000000000, -0.0000000000, -0.0724116638, 0.0000000000, -0.0000000000, 0.0000000000, 0.0000000000, 0.0000000000, 0.0725982264, 0.0000000000, -0.1620362848, 0.0000000000, 0.0000000000, 0.0000000000, 0.0000000000, 0.0000000000, 0.0000000000, -0.0000000000, -0.0000000000, -0.0000000000, 0.0000000000, -0.0000000000, -0.0000000000, 0.0000000000, 0.0000000000, 0.0000000000, -0.0000000000, 0.0000000000, 0.0596674196, 0.0000000000, 0.0000000000, 0.0000000000, -0.0000000000, -0.0000000000, -0.0000000000, 0.0000000000, -0.0000000000, -0.0799866915, 0.0000000000, -0.0000000000, -0.0703492090, 0.0000000000, 0.0936507881, -0.1027485505, -0.0000000000, -0.0000000000, -0.0000000000, 0.0000000000, 0.0000000000, -0.0000000000, -0.0000000000, -0.0000000000, -0.0000000000, -0.0000000000, 0.0000000000, 0.0000000000, 0.0000000000, -0.0000000000, 0.0000000000, 0.0000000000, 0.0000000000, 0.0000000000, 0.0000000000, -0.0000000000, 0.0000000000, -0.0000000000, 0.0000000000, -0.0604469329, 0.0000000000, -0.0000000000, -0.0000000000, -0.0000000000, -0.0707539394, -0.0671056584, -0.0000000000, 0.0000000000, 0.0000000000, 0.0000000000, -0.0000000000, -0.0000000000, 0.0000000000, -0.0000000000, -0.0000000000, -0.0000000000, 0.0000000000, -0.0000000000, -0.0000000000, -0.0000000000, -0.0000000000, -0.0000000000, -0.0000000000, 0.0000000000, 0.0880243555, -0.0000000000, 0.0000000000, -0.0000000000, -0.0000000000, -0.0779927522, -0.0000000000, 0.0000000000, 0.0000000000, -0.0000000000, -0.0623210073, 0.0000000000, 0.0000000000, -0.0584825724, 0.0000000000, -0.0000000000, -0.0000000000, -0.0000000000, 0.0000000000, -0.0000000000, 0.0882922634, 0.0000000000, 0.1511128992, -0.0733185485, 0.0000000000, -0.0000000000, 0.0000000000, -0.0000000000, 0.0000000000, 0.0000000000, -0.0000000000, -0.0000000000, 0.0000000000, -0.0000000000, -0.0000000000, 0.0000000000, 0.0000000000, -0.0000000000, 0.0919272974, 0.0000000000, -0.0000000000, -0.0570188127, 0.0000000000, -0.0000000000, -0.0000000000, -0.0000000000, -0.0000000000, 0.0000000000, -0.0000000000, -0.0000000000, 0.0585125871, -0.0000000000, 0.0000000000, -0.0000000000, -0.0961006060, 0.0891826600, -0.0572875850, 0.0000000000, -0.0000000000, -0.0000000000, 0.0000000000, -0.0000000000, 0.0000000000, -0.0000000000, -0.0926523432, 0.0000000000, -0.0000000000, -0.0000000000, 0.0000000000, -0.0943929404, 0.0000000000, 0.0000000000, -0.0574252903, -0.0830622613, 0.0000000000, -0.0000000000, -0.1105475649, -0.0627874583, 0.0000000000, -0.0000000000, 0.0000000000, -0.0621060766, 0.0000000000, 0.0000000000, 0.1594352573, -0.0955837294, 0.1755276024, 0.1619828194, 0.0000000000, -0.0000000000, 0.0000000000, 0.0000000000, -0.1426230967, -0.0000000000, -0.0630796775, -0.0651883706, 0.0870158523, -0.0000000000, -0.0558402874, -0.0706976876, -0.0000000000, 0.0591927096, 0.0000000000, 0.0000000000, 0.0000000000, -0.0000000000, 0.0000000000, 0.0000000000, -0.0714624599, 0.0000000000, 0.0000000000, 0.0000000000, 0.0000000000, -0.0000000000, 0.0000000000, -0.0000000000, 0.0000000000, -0.0000000000, 0.0666788891, -0.0000000000, 0.0000000000, -0.0890785605, 0.0000000000, -0.0000000000, 0.0473546125, 0.0000000000, 0.0000000000, 0.0000000000, 0.0000000000, 0.0000000000, -0.0000000000, 0.0576183796, 0.0000000000, -0.0000000000, -0.0000000000, 0.0000000000, -0.0000000000, 0.0000000000, 0.0000000000, 0.0000000000, 0.0000000000, -0.0000000000, -0.0000000000, 0.0000000000, 0.0000000000, -0.0000000000, 0.0000000000, 0.0000000000, 0.0808968320, -0.0000000000, -0.1001194268, 0.0000000000, -0.0000000000, -0.1124986261, 0.0000000000, -0.0000000000, 0.0000000000, 0.0000000000, 0.0000000000, -0.0696356446, 0.0301611815, 0.0607253797, -0.0000000000, -0.0576991998, 0.0000000000, -0.0000000000, -0.0921750441, 0.0000000000, 0.0000000000, 0.0000000000, -0.0000000000, -0.0557628348, -0.0000000000, 0.0000000000, -0.1926370710, 0.0000000000, 0.0000000000, -0.0000000000, 0.0000000000, 0.0000000000, 0.0811212584, -0.0000000000, -0.0000000000, 0.0000000000, -0.0000000000, 0.0805422962, -0.0601100661, 0.0000000000, -0.0769804120, 0.0000000000, 0.0000000000, 0.0000000000, 0.0000000000, -0.0597627796, 0.0000000000, -0.0598375425, -0.0000000000, -0.0000000000, 0.1064579040, 0.0000000000, -0.0000000000, -0.0000000000, 0.0000000000, 0.0000000000, 0.0000000000, -0.0000000000, -0.0000000000, -0.1002349928, -0.0000000000, 0.0000000000, -0.0000000000, -0.0000000000, 0.0000000000, -0.0000000000, -0.0000000000, -0.0000000000, -0.0000000000, -0.0000000000, 0.0000000000, -0.0000000000, 0.0000000000, 0.0000000000, -0.0000000000, 0.0000000000, 0.0624285713, -0.0000000000, -0.0000000000, -0.0601649582, 0.0000000000, 0.0351463072, -0.0000000000, 0.0000000000, 0.0000000000, -0.0000000000, -0.0000000000, 0.0000000000, -0.0000000000, 0.0000000000, -0.0000000000, 0.1083265096, 0.0000000000, -0.0000000000, 0.0000000000, 0.0000000000, 0.0391418859, -0.0000000000, -0.0000000000, -0.0000000000, -0.0000000000, 0.0594687238, 0.0000000000, 0.0000000000, -0.0000000000, -0.0000000000, -0.0000000000, -0.0000000000, -0.0000000000, -0.0000000000, -0.0000000000, -0.0000000000, -0.0569095910, -0.1001537740, -0.0000000000, 0.0000000000, 0.0000000000, -0.0000000000, -0.0000000000, 0.0000000000, 0.0000000000, 0.0000000000, 0.0000000000, -0.0000000000, 0.0000000000, -0.0000000000, -0.0000000000, 0.0000000000, 0.0000000000, -0.0000000000, 0.0783446059, -0.0000000000, -0.0000000000, -0.0000000000, -0.0000000000, 0.0000000000, 0.0625788271, 0.0000000000, -0.0000000000, -0.0695633739, -0.1431068778, -0.0646066740, -0.0667306036, -0.0000000000, -0.0660864934, -0.1325445026, -0.0653352812, -0.0000000000, 0.0000000000, -0.0584563687, 0.0000000000, -0.0000000000, 0.0781233683, 0.0000000000, -0.0000000000, 0.0000000000, 0.0000000000, 0.0000000000, -0.0000000000, 0.0000000000, 0.0000000000, 0.0801045001, -0.0000000000, 0.0832238421, 0.0000000000, -0.0000000000, -0.0000000000, -0.0000000000, 0.0000000000, 0.0000000000, -0.0000000000, 0.0000000000, -0.0958765671, -0.0000000000, -0.0000000000, -0.0000000000, -0.0000000000, -0.0000000000, -0.0000000000, -0.0000000000, 0.0000000000, -0.0760140419, 0.0556015670, -0.0000000000, -0.1300681084, 0.0000000000, -0.1197031736, 0.0000000000, -0.0641102046, -0.0000000000, 0.0000000000, -0.0000000000, 0.0000000000, -0.1089065149, -0.0000000000, 0.1089903563, -0.0000000000, 0.0875549540, 0.0000000000, 0.0608988963, 0.0000000000, -0.0613779798, -0.0000000000, 0.0000000000, 0.0000000000, -0.0575006530, -0.0000000000, -0.0820493624, -0.0000000000, -0.0000000000, -0.0432362854, 0.0000000000, -0.0000000000, -0.0586725064, 0.0000000000, -0.0638357550, -0.0000000000, 0.0000000000, -0.0000000000, 0.0000000000, -0.0000000000, -0.0000000000, 0.0000000000, 0.0000000000, 0.0000000000, -0.0000000000, 0.0548635870, 0.0000000000, -0.0000000000, -0.0000000000, 0.0000000000, -0.0000000000, 0.0957917646, -0.0000000000, -0.0000000000, -0.0670394376, -0.0892814845, 0.0000000000, -0.0000000000, -0.0000000000, 0.0000000000, 0.0000000000, -0.1221052408, 0.0000000000, 0.0000000000, -0.0000000000, 0.0000000000, -0.0000000000, 0.0000000000, -0.0000000000, -0.0000000000, 0.0687122717, 0.0000000000, 0.0000000000, 0.0000000000, 0.0000000000, 0.0000000000, -0.0000000000, 0.0581435487, 0.0000000000, -0.0000000000, -0.0873662084, -0.0000000000, -0.0000000000, 0.1463252604, 0.0565448590, -0.0000000000, -0.0000000000, 0.0000000000, 0.0000000000, 0.0000000000, -0.0000000000, -0.0000000000, 0.0000000000, -0.1317168176, 0.0000000000, 0.0000000000, -0.0000000000, 0.0000000000, 0.0000000000, 0.1244617626, 0.0000000000, -0.1238528192, 0.0796125904, -0.0572870672, -0.0000000000, 0.0000000000, 0.0000000000, 0.1662140042, 0.0568836257, 0.0574209951, -0.0997537747, -0.0000000000, -0.0000000000, -0.0000000000, -0.0000000000, 0.0000000000, 0.0000000000, -0.0000000000, -0.0000000000, 0.0000000000, 0.0000000000, 0.0000000000, 0.0000000000, -0.0000000000, -0.0000000000, -0.0000000000, -0.0000000000, 0.0000000000, -0.0578643493, -0.0000000000, 0.0000000000, 0.0000000000, -0.0000000000, -0.0000000000, 0.0000000000, -0.0639958903, 0.0000000000, 0.0000000000, 0.0580268949, 0.1645660847, -0.0000000000, -0.0000000000, 0.0896559283, -0.0000000000, -0.0000000000, 0.0000000000, -0.0000000000, 0.1082723364, -0.0000000000, -0.0000000000, 0.0000000000, -0.1373945922, -0.0579321869, -0.0000000000, -0.0000000000, -0.0000000000, -0.1225725934, -0.0000000000, -0.0588216260, -0.0000000000, -0.0573798418, 0.0000000000, -0.0000000000, 0.0897501931, -0.0000000000, -0.0000000000, 0.0000000000, 0.0000000000, 0.0000000000, 0.0000000000, 0.0000000000, 0.0000000000, -0.0000000000, -0.0000000000, 0.0000000000, -0.0000000000, 0.0998005047, -0.0679360330, 0.0000000000, -0.0000000000, -0.0564912744, -0.0587027445, -0.0000000000, -0.0000000000, -0.0631411448, 0.0000000000, -0.0582088865, 0.0000000000, -0.1052151918, -0.0000000000, -0.0637329891, -0.0719468445, 0.0000000000, -0.0000000000, 0.0000000000, -0.0723967999, 0.0000000000, 0.0000000000, -0.0000000000, -0.0000000000, -0.0624687597, -0.0000000000, -0.0684327781, 0.0000000000, 0.0000000000, 0.1139437631, -0.0702682585, -0.0000000000, 0.0762927085, 0.0000000000, 0.0000000000, 0.0000000000, 0.0000000000, 0.0000000000, -0.0702747107, 0.0000000000, -0.0000000000, -0.0000000000, -0.0652648360, -0.0663954541, 0.0000000000, -0.1217423975, 0.0000000000, 0.0000000000, -0.0000000000, 0.0000000000, -0.0000000000, 0.0000000000, 0.0000000000, 0.1348079741, -0.1452642530, 0.0000000000, 0.0000000000, -0.0585793145, 0.0597084798, -0.1206638664, -0.0000000000, 0.0900013149, 0.1052263752, -0.0000000000, 0.0000000000, 0.0000000000, -0.0000000000, 0.0000000000, -0.0000000000, 0.0000000000, -0.0000000000, -0.1476093382, -0.0000000000, -0.0000000000, 0.0000000000, -0.0000000000, 0.0000000000, -0.0000000000, -0.0586533695, -0.0000000000, -0.0000000000, 0.0000000000, -0.0000000000, -0.0000000000, 0.0000000000, -0.0000000000, 0.0000000000, -0.0000000000, 0.0000000000, -0.0000000000, 0.0000000000, 0.1184564605, -0.0000000000, -0.0000000000, 0.0000000000, -0.0000000000, 0.0000000000, 0.0000000000, -0.0000000000, 0.1317549050, -0.0000000000, 0.0000000000, -0.0583894774, 0.0000000000, 0.0610574149, -0.0000000000, -0.0000000000, -0.0000000000, 0.0000000000, -0.2002297640, -0.0000000000, -0.0000000000, -0.0000000000, -0.0000000000, 0.0000000000, 0.0669897422, 0.0000000000, 0.1032365561, -0.0590271018, -0.0000000000, -0.0000000000, 0.0000000000, 0.0000000000, -0.0919443741, 0.0447504930, 0.0595293306, 0.0000000000, -0.0000000000, 0.0942245945, 0.0000000000, 0.0000000000, -0.0879092366, -0.0000000000, 0.0000000000, 0.0000000000, 0.1005070880, 0.0000000000, 0.0000000000, -0.0000000000, -0.0000000000, 0.0000000000, -0.2459065020, -0.0000000000, -0.0000000000, -0.0591446795, 0.0000000000, -0.0000000000, 0.0000000000, -0.0574572608, 0.0774967149, 0.0000000000, -0.0000000000, -0.0000000000, -0.0000000000, 0.0000000000, 0.0871102363, 0.0000000000, -0.0000000000, -0.1585548669, -0.0000000000, 0.0000000000, 0.0000000000, -0.0000000000, -0.0578571334, 0.0000000000, 0.0000000000, 0.0000000000, 0.0772489235, -0.0000000000, -0.0000000000, 0.0000000000, -0.0000000000, 0.0761187822, -0.1366355270, -0.0000000000, -0.0000000000, -0.0000000000, 0.0000000000, -0.0590584502, 0.0000000000, -0.0663919151, -0.1076844335, -0.0000000000, 0.0000000000, -0.0000000000, 0.0000000000, 0.0000000000, 0.1267179251, 0.0993944257, -0.0000000000, -0.0796089470, -0.0000000000, 0.1590664685, -0.0647677854, 0.0000000000, 0.0722272396, 0.0000000000, -0.0000000000, 0.0000000000, 0.0000000000, -0.0646374822, 0.0000000000, 0.0000000000, 0.0000000000, -0.0925780237, 0.0000000000, -0.0555623546, 0.0000000000, -0.0000000000, 0.0000000000, -0.0000000000, 0.0000000000, 0.0000000000, 0.0442919731, -0.0677097887, 0.0000000000, 0.0000000000, -0.0000000000, 0.0000000000, 0.0794601142,