//Numpy array shape [32, 52]
//Min -0.787801623344
//Max 0.455243736506
//Number of zeros 0

#ifndef W11_H_
#define W11_H_

#ifndef __SYNTHESIS__
model_default_t w11[1664];
#else
model_default_t w11[1664] = {0.0213674195, 0.0230720937, 0.0761449337, -0.0490492694, 0.0234170798, -0.2041152418, -0.2608590424, 0.2253887355, 0.0703043416, 0.1327122152, -0.0909993798, 0.0013785805, 0.0637949556, -0.1574670523, -0.0124600586, -0.1405670196, -0.0113004819, 0.1176047996, -0.2429287136, -0.2346574068, -0.0099047506, 0.0768370330, -0.1020131335, 0.0080503104, 0.0322804525, 0.0207785871, 0.0546265170, 0.2138637453, 0.1046382114, -0.0665421635, 0.1697986126, -0.1517249942, -0.2440934330, -0.0707197040, -0.1616640985, -0.0038491290, -0.0991069749, 0.0714941397, 0.1714716107, -0.1961620301, -0.1967574209, -0.0507110842, 0.1547849774, 0.0221462771, 0.1422813535, 0.0584595948, -0.0781284347, -0.2931550145, 0.2131655812, -0.1551782042, -0.0744129717, 0.1973473728, -0.2555445135, 0.1782741994, -0.2182718962, -0.2374123633, -0.2297406495, -0.0750846788, -0.1828102767, 0.1444191337, 0.0944327042, 0.1123173833, 0.1220777780, -0.2304558307, -0.2240240276, 0.0486618467, 0.1932497174, 0.0344305597, 0.1894834340, -0.1583521068, 0.1507680863, 0.0095323138, -0.0054141441, -0.1925213337, -0.1224689782, -0.0704460144, 0.1726259440, -0.0151594961, -0.1059302688, 0.1873141378, -0.1962889284, 0.2392579317, -0.1689466536, -0.0018758976, 0.0059688087, -0.2677389681, -0.1983937919, -0.0421861894, 0.1498851925, 0.0816628784, 0.0891629159, 0.2235065699, 0.2593185306, 0.1381787211, 0.0172446389, 0.0686556399, 0.2554768920, -0.0673955455, -0.1936362982, -0.2611362636, -0.0987264663, 0.2488588691, -0.0334774330, 0.0871371403, 0.0615760647, -0.4640661180, -0.3126569092, 0.2249461561, -0.4345380366, -0.2633739412, -0.3074536622, -0.4207363725, 0.0977343395, -0.1748377532, -0.2882031500, 0.1350092292, 0.0227081254, -0.6250806451, 0.0235624779, -0.1538344771, -0.0293574147, -0.0310510695, 0.1476321220, 0.1702237278, 0.0084356489, -0.5013055801, -0.0042851265, 0.2690663338, 0.2140559256, -0.2397673130, -0.5203060508, -0.1832477599, 0.2603581250, -0.2394399941, -0.4198378026, -0.1783793867, 0.2017342448, 0.1800658107, -0.3135195374, 0.2524608970, 0.1561818272, -0.1008342430, -0.0542830005, 0.0773271024, -0.1044956669, 0.0684324354, -0.1373718530, -0.3807666898, 0.0440257713, -0.0859094188, -0.2700407505, -0.1035173088, 0.0062216860, -0.2434565872, -0.0072716288, -0.0238195527, 0.1187376529, 0.2534569204, -0.2755404413, -0.0339790434, -0.2708137631, -0.4210978448, -0.6505094171, -0.6709372401, -0.4183949530, -0.2533089817, -0.6168220639, 0.0301812142, -0.2994279563, -0.0765644535, -0.5694146752, -0.1818055958, 0.1999490410, 0.1753229052, -0.3437207043, -0.3615296185, -0.2805993557, 0.1077583060, 0.0366895981, -0.3373928666, 0.0398530401, -0.2170877159, 0.0550725758, -0.0518377163, 0.2383555770, 0.0302892774, -0.3991235495, 0.1155803949, 0.0661078990, 0.2078287452, 0.3429986537, 0.2485812008, 0.1633366942, -0.2229283899, -0.1540971696, -0.0184798911, -0.0986296386, -0.3713712096, 0.0277755074, 0.1028280556, -0.2424845248, 0.1702829003, 0.1751536131, -0.1812768877, -0.2014880776, 0.3272807598, 0.0699881464, -0.2690998614, 0.0133649763, 0.2080893219, -0.0301898457, 0.1942796111, -0.0587438233, 0.0265719090, -0.1084278002, -0.2214161456, -0.0966173336, -0.0210632477, -0.0519311763, -0.1947065294, -0.2843756676, 0.2208425403, 0.0442074090, -0.1008401960, -0.0231777839, -0.0087583065, -0.1086491942, -0.2105606049, 0.0298569482, 0.1352058053, 0.1470161527, -0.1325320750, 0.1276187301, 0.2616535723, -0.1289138794, -0.2812130749, -0.0072274297, 0.0752565041, -0.0172644649, 0.0026008708, 0.0866099298, 0.1386847496, 0.1961958110, -0.0691552460, 0.1838123947, 0.1955308616, -0.0440914221, -0.0090185907, -0.0802874640, -0.0624786764, 0.1863163561, 0.0522961468, 0.1789861917, -0.0060843988, -0.1982732117, -0.2139103413, -0.0237688515, 0.1353366524, 0.0579731241, -0.2010522485, 0.0549418107, 0.2161433697, 0.2462801635, 0.1907106936, -0.1856626719, 0.2501316667, 0.0181434955, -0.1368428469, -0.2155707926, 0.1760749817, -0.0823776945, 0.0568780191, -0.1282886565, -0.2481903881, 0.0316577330, 0.1692060530, 0.0666202977, -0.1674169451, 0.1260843575, 0.1276178807, -0.1284237355, 0.1693851799, -0.0613680407, 0.1023466289, 0.0062915841, 0.1282875687, -0.1482946426, -0.2365359068, -0.0077021173, 0.2088658363, 0.0710941479, 0.0353622735, 0.0828338563, 0.1279147416, -0.2733541131, -0.1675491631, 0.1087101474, -0.0893842727, -0.2150748819, -0.0762751773, 0.0487836376, -0.0836941451, -0.0012455435, -0.2439839393, -0.2086485177, 0.2121375650, 0.1283555180, 0.0334781595, 0.1115034521, 0.0971793234, 0.2350658178, 0.0776732266, -0.2211600095, 0.1091373712, -0.1316996664, 0.1970353723, -0.0760143623, 0.0725054890, 0.0396317877, -0.0892409384, 0.2106627673, -0.0375037752, 0.2203036398, 0.1870629787, -0.2081078887, -0.1395266205, -0.1566838175, 0.1198985651, 0.2106778175, 0.0134627009, 0.1055509895, 0.0376851521, 0.1354153752, 0.2007997334, -0.2700180709, -0.2090202868, 0.1720328480, 0.0142074190, 0.0286105033, 0.2514366210, 0.2332087010, -0.1730317175, 0.2092602253, -0.1949201971, 0.2121089697, -0.0430040322, -0.1280654222, 0.0693573281, -0.2152738571, -0.1055438444, -0.2132948935, 0.1937307566, -0.2141376138, 0.0865425915, 0.0148759214, -0.0306849275, 0.1131463647, -0.2392510027, 0.1493732482, -0.0356741883, -0.0024183020, -0.2573758066, 0.2169636488, -0.0359258316, 0.0857197642, -0.2673375905, 0.1410699189, -0.0333197825, 0.1822302043, -0.1919065416, -0.2652151287, -0.1414526999, -0.2561866343, 0.1934956163, -0.2256898880, 0.1128348708, 0.1287715882, -0.1426983923, -0.0482320152, -0.1013676003, -0.0838840827, -0.1453626901, 0.0443447381, -0.2542564571, 0.0956753939, -0.0441908352, -0.0670006275, -0.2733803391, -0.0370860919, 0.1057666615, -0.1868389398, -0.0134009765, 0.0545043908, -0.0453172699, 0.2528751791, -0.0836615339, -0.1558803320, -0.1456421763, 0.2059552968, -0.0554186068, 0.1598582864, 0.0795674771, 0.1264140010, -0.0065610982, -0.1534515023, 0.1961296797, 0.0960490480, -0.1744992435, -0.2469559014, 0.0607809350, -0.2208316922, 0.1900546253, -0.0605511330, 0.2353345752, -0.1040828899, 0.0792431310, -0.0462222733, -0.1454245597, -0.2436667383, -0.2251744121, -0.0450018495, -0.2344801128, -0.1668085605, 0.0589518920, 0.0401440412, 0.1641862392, -0.2255995274, -0.1819921732, 0.0442561097, 0.0864179507, -0.2201196551, 0.0463265218, -0.0459746830, -0.1847094297, -0.1807260066, -0.1793217957, 0.0987758711, -0.1734397709, -0.2772243917, 0.0110324332, 0.1041712239, -0.1728973091, -0.2196272165, -0.1541693211, -0.1309254616, -0.1867634505, -0.1196348816, 0.0055797994, 0.1906807125, -0.1858552545, -0.1655182838, -0.3081211746, -0.2640617490, 0.0667107627, -0.1058799922, -0.2940703928, 0.1889078766, 0.0142394667, -0.1751853377, 0.2283819765, -0.2566519380, -0.1050206199, 0.1520801336, -0.3020678461, -0.1117683724, 0.0643196106, -0.0061269994, 0.0456654578, -0.2733251750, 0.0617246553, 0.3294287324, 0.0834389031, -0.1762900651, 0.1090365648, -0.3875726461, -0.0074253045, 0.0727412775, 0.2990851104, -0.3320612013, 0.1437436640, 0.0784647316, -0.2217998654, -0.2795659602, -0.0714916587, -0.0710916743, -0.1123358831, -0.1756748855, -0.3841588795, -0.1315586567, -0.3773427308, -0.1137891710, 0.1194661930, 0.1461358517, -0.2106095701, 0.1428991109, 0.2474315017, -0.1925942451, -0.1070958301, 0.2372950166, -0.2342172116, -0.2636232972, 0.1842382699, 0.1666318178, -0.3638329506, -0.1811435223, -0.5943343639, -0.0354306139, 0.3563841879, -0.0080260755, 0.1241816878, 0.0751427487, -0.3605085611, 0.2378253192, 0.2620065808, 0.1876831055, -0.0824870169, 0.1302247196, 0.1168437898, -0.2343691438, -0.2773537338, -0.3661604524, -0.0014774050, -0.3566093147, -0.1158080772, 0.2421553880, -0.1117328480, 0.1673091650, -0.1802150458, 0.1060011610, 0.1631067842, 0.3635128736, -0.0584773608, 0.0797436982, 0.0953660086, -0.0990168825, -0.1016900241, 0.2237104028, -0.0252826698, -0.0633027405, 0.1098434851, -0.4402795732, -0.1445790678, -0.1245835051, -0.1400051862, -0.3295867145, 0.1481958628, -0.0175729673, -0.3778604865, -0.6534818411, -0.3340445757, -0.0767601654, -0.4162447751, 0.1753815114, -0.0873185918, 0.0415250547, 0.0807637721, 0.0928178579, 0.1836623400, -0.0800238252, -0.0535651110, 0.0159653593, -0.2633113265, -0.2962385714, 0.0853325874, -0.0046241218, 0.0585368723, -0.1565818787, -0.1070882306, 0.0782582983, -0.3083563447, -0.0345211625, 0.1972335279, -0.0086819669, -0.1521584988, 0.2573066652, 0.2164358050, -0.1317628175, 0.1862953603, 0.1613529623, 0.2326371521, 0.0089022843, 0.1483250111, 0.0475636385, 0.0807837322, 0.0742685497, -0.1349591613, -0.1675106138, -0.2646738589, 0.0526840352, -0.0693531558, -0.1210977733, -0.0568087175, -0.1748818904, 0.0476988368, -0.2592463791, 0.0523263216, -0.1012227535, 0.0403921939, -0.1229763478, 0.0317086540, -0.1546644866, 0.0967918634, 0.0115973232, -0.2709464133, -0.1635708064, -0.2468144447, 0.0566013455, 0.2405230105, 0.0377731584, -0.0339158699, 0.1624225527, 0.2153152674, 0.2668616474, -0.0546612702, 0.0350626782, 0.2055698782, 0.0988029391, 0.0273439214, 0.0153923957, -0.1426533610, 0.0837247744, -0.2024386078, -0.0664738193, 0.1942549944, -0.0396599881, 0.0269802250, -0.3392133713, -0.3423254788, -0.0353704207, -0.5096074343, -0.5326089263, -0.0600727275, -0.2188563645, -0.3075009584, -0.1611763835, -0.0374980308, 0.0641029328, -0.2016422302, -0.0875991955, -0.0830368176, 0.0276871640, 0.1172362119, -0.0865145102, -0.1555312574, 0.1976988614, 0.1895655543, -0.2614300251, 0.0500535630, 0.2599884868, 0.4552437365, 0.2170381397, 0.2870331705, -0.2015460730, 0.0678959042, 0.1654203534, -0.1292714030, 0.1111363769, -0.1415218413, -0.0888888165, -0.0427423455, 0.2961351573, -0.1656929851, -0.1884665340, 0.2359701395, 0.0037853902, -0.2529235482, -0.0038679913, 0.0579014122, -0.4301163256, 0.1416677833, -0.3834822476, -0.0243618619, 0.0055097006, -0.0190671347, -0.3252749145, 0.0978281498, 0.1674795896, -0.0874155983, -0.2032784075, -0.1679907739, -0.1483566761, -0.2293495089, 0.2037188858, 0.2565020621, 0.1017144695, -0.0678915307, -0.0904012769, -0.1596925110, -0.2282507271, -0.0989480093, -0.1834180653, 0.0894804522, -0.1208683997, -0.1901600808, 0.0570358932, 0.0128674805, -0.0623697452, -0.2376052886, -0.1195793375, 0.2577768564, 0.0592496954, -0.2621212602, -0.1282946765, -0.2397588789, 0.2085963488, -0.1605193019, -0.1687297672, 0.1552680433, 0.0348536782, -0.0178431589, 0.0097998595, -0.2462028116, 0.1363807470, -0.1999747455, -0.2349991947, -0.0042101634, -0.2787059546, 0.1539106667, -0.1921772212, -0.2393035293, -0.2678412199, -0.2161093056, -0.1638420969, 0.1433916539, -0.1706255674, -0.1825022697, 0.1058684587, -0.1724902242, 0.2046354115, 0.1190215573, 0.0862310752, 0.2437938750, 0.0471506007, -0.0900694355, -0.2664781213, -0.2091729641, 0.0233124178, -0.0566315316, 0.2388947159, -0.1647105664, -0.1503757238, -0.1039457619, -0.1136584133, -0.2149594277, -0.2407056391, -0.2855867743, -0.1286629885, -0.1480262280, 0.2108269632, -0.1353089362, 0.1216301620, -0.2330854833, 0.2582077086, -0.0500418246, 0.1339128613, -0.2723836303, 0.1121338680, 0.0171585120, 0.0817946345, 0.2103835791, 0.2351566404, 0.1137842685, 0.0920204595, 0.2097872794, 0.2367545366, -0.1517594010, 0.1428360641, -0.1582076550, 0.1229432896, 0.0491782166, 0.0854433328, 0.1171358749, 0.1612038016, -0.1721394360, 0.1406066865, -0.2331439108, -0.0773998424, 0.0014511519, 0.0119268261, 0.2031674832, 0.1176773086, 0.0909244642, -0.2430305630, 0.0876419768, 0.0908103362, 0.1302294582, -0.1511769146, 0.0350115933, 0.0006519730, 0.0793288276, -0.0073513831, 0.0302373953, -0.1203447729, -0.2666794360, 0.1436359584, -0.2095009983, -0.1149166226, 0.1891411990, 0.1377528906, 0.1253373623, 0.0527061373, -0.0647267178, -0.2349860519, -0.2030345947, 0.0677132457, -0.0141567020, -0.0587328300, 0.1976931095, -0.1921991110, -0.0421552286, 0.2559648752, 0.0732194483, -0.2641433477, 0.0402915552, 0.2277050912, -0.0416652262, 0.2159924656, -0.2160982788, 0.2268867940, -0.0091453549, -0.0333459787, -0.0207754932, 0.1573964953, -0.0425476097, 0.1518869251, 0.0609765463, -0.0869194716, 0.2182605565, 0.1600150913, 0.1851825863, 0.1522934884, 0.2206983864, -0.0668494850, -0.1591809839, 0.0146949682, -0.1069236845, 0.1790956706, 0.2816350758, 0.0776585266, 0.3073707223, 0.0324639156, -0.1080958843, 0.1010459736, 0.1579174846, -0.0291991029, 0.1372478604, 0.0435930416, -0.0974139348, -0.1956838965, 0.1583851725, -0.0539562181, -0.1188673452, 0.0259667914, 0.1839403361, -0.0631027222, -0.0403410196, 0.0776333511, -0.1404415220, -0.1238263994, -0.1152700409, -0.2644470334, -0.1919255406, -0.1980846077, -0.5071511269, -0.3645244539, 0.0085020885, -0.1108025983, -0.3660508394, -0.3803926408, -0.0283840057, 0.2443770319, -0.1268572062, -0.3544737101, -0.1969779432, -0.0849808753, -0.0996940657, -0.2743273079, -0.2288710177, -0.3584147692, 0.0287326630, -0.0226421040, -0.1440071315, -0.0612129793, -0.2859486043, 0.0623410195, 0.2523627877, -0.2192040831, 0.2531807125, -0.0493971929, 0.2033338696, 0.1946818978, 0.2237425745, 0.2386693954, 0.1606067568, -0.0242517311, -0.0712853223, 0.0695841014, -0.2585382760, 0.1836610436, -0.0755936131, -0.1661703736, -0.1584118754, 0.0372698642, -0.2276264131, 0.2234725952, 0.1853892356, 0.2076501548, 0.1629301608, -0.0331856534, 0.1049220785, 0.0228807647, 0.0821736157, 0.0329769328, -0.2222985774, -0.0925276503, -0.1637583375, 0.0364738964, -0.0215475634, -0.0256736483, -0.0715206489, 0.1076084599, -0.0973326266, -0.1052659303, 0.0637031049, 0.1178562939, 0.2034427673, -0.0593350232, 0.0365620181, 0.2565262914, 0.1982899457, 0.1414081454, 0.0948664248, -0.1054078341, -0.2250778079, 0.1723933071, -0.0848771036, 0.2822368145, 0.2817673981, 0.1162265167, 0.3620991111, -0.6283370852, -0.5112670064, -0.3155026436, -0.0297302119, -0.3473406434, -0.7487305999, -0.1928334683, -0.6299012899, 0.1643850207, -0.2337954938, -0.0994080082, 0.1859908551, -0.1317480654, -0.3349446058, -0.5399103761, -0.0267740171, 0.1611520201, 0.1689522117, -0.1044380590, -0.1301748157, -0.1356789768, -0.2794477344, 0.0725480393, -0.1012419388, -0.1671536267, 0.0326986350, 0.0916923285, -0.1646339744, 0.0238885898, -0.0896201506, -0.2717132568, -0.0487946682, -0.6619684696, -0.7878016233, -0.2485548854, 0.0998094901, 0.2847055793, -0.1952939481, 0.0939687863, 0.1379567385, 0.2144537419, -0.1473687440, -0.1865083724, 0.1755345762, -0.1051933691, -0.2458026558, -0.1166633293, 0.2493340373, 0.1416982412, -0.2460547090, 0.1626176089, -0.2626633942, -0.1247996613, 0.0568380542, 0.0235241745, -0.1117561013, 0.1241784394, -0.2110086977, -0.0164417662, -0.1083535850, -0.1277714372, 0.1945246011, -0.2476386726, 0.0434710309, -0.3197320700, -0.0275970791, -0.1697937846, -0.0865585729, -0.0088522919, 0.0017929829, -0.1713509262, -0.1968161166, 0.0224640034, 0.0230825134, 0.1252436340, -0.0362071693, -0.1040713266, -0.2527432144, 0.1082812995, -0.0413972549, 0.0785794184, -0.2737221122, -0.0050514806, 0.0843368173, -0.2763140202, 0.1255301833, 0.0610479154, 0.0470626689, -0.1077052057, -0.0605161227, -0.2134632915, -0.1660544276, 0.1857121587, -0.2425916493, 0.2030569911, -0.0573663227, -0.2956391871, 0.0955506787, -0.0497810952, 0.0500237271, 0.1808715463, 0.0923601910, -0.2704584002, -0.2032479346, 0.2402235568, 0.2500107288, -0.0443845876, 0.2436596900, -0.2508688569, 0.0524134748, 0.2383928448, 0.0608066693, 0.1373060346, 0.0591375493, -0.0003948762, 0.0812791064, -0.0323179998, -0.2504137754, 0.1322118491, -0.2341091931, 0.0044946345, 0.0277635287, 0.1423762441, -0.0086062588, -0.2610073388, 0.1641583145, 0.2359497100, 0.1343278289, 0.2598322630, 0.2313395292, 0.1974914372, -0.1024978831, 0.1148399711, -0.1051402539, 0.2209268957, -0.1539182365, 0.2527473569, 0.0344151072, 0.0666869357, 0.1446914971, -0.1682934910, 0.0032345196, 0.2520592213, -0.1319487989, -0.0061938502, -0.1086358950, 0.1336934566, -0.2335184962, -0.1221490055, -0.0550966226, -0.1985382438, -0.0881875679, 0.2017713487, -0.3304564655, -0.0555256717, -0.0599806383, 0.3328393102, -0.2715966702, -0.2608119547, 0.2335449606, 0.3031664491, -0.1174027920, 0.0278272480, 0.1256441027, -0.6458194256, -0.1662676930, -0.2802228332, -0.0352475569, -0.4742238224, -0.0946497545, -0.1243791506, -0.0821063668, -0.5589326620, -0.2446667105, -0.3967194557, -0.2274908870, -0.1703506112, -0.3958822191, -0.0208099671, 0.2069873363, 0.0732215047, -0.1898096502, 0.1735046059, 0.2676277757, -0.1249590069, -0.6347978711, 0.0656459555, -0.2547130585, 0.1158858985, -0.2340501398, -0.6403847337, -0.1261393130, -0.0186157636, -0.0449940190, -0.0393978171, 0.2167027295, -0.0181247611, -0.2809913158, 0.2907234728, 0.0120662395, 0.2784928977, -0.0128684873, 0.1967842430, -0.0884543434, -0.1180689633, -0.2289099544, -0.1210375354, -0.3683601916, -0.2269433439, -0.1294460744, -0.0868745968, -0.0836410969, 0.2370807528, 0.0582565442, 0.2714037597, -0.0811961442, -0.4876395464, -0.2618063390, -0.1520498097, -0.1032353491, -0.2924876213, -0.2417449504, -0.0105010988, -0.5358642340, 0.1856261194, -0.2296452075, 0.2994472384, -0.0276403464, -0.2487329692, 0.2081756592, 0.1198019162, -0.3572356999, -0.1870312542, -0.2772694826, -0.2421002388, -0.1202246323, 0.1691745371, -0.1247094795, -0.2386355102, 0.1855089962, -0.0966439322, 0.2088399678, 0.2824355066, -0.1928020567, 0.0451718122, 0.3159921169, 0.3463537693, 0.2160981297, -0.2332633585, -0.0359714404, -0.0191571005, -0.1473628730, 0.0136780823, 0.2681745887, 0.1536406875, 0.1907104105, 0.0596381873, 0.0992144644, 0.2109505087, -0.1796003729, -0.0875684470, -0.3680197001, -0.2226631045, -0.5345884562, -0.2543817759, -0.3552361429, -0.1942282766, -0.5272414088, -0.4573504925, 0.1021616161, -0.3520861566, -0.4597831666, -0.1592119634, -0.0584750473, 0.1360808015, 0.1633858830, 0.0947896615, 0.2039043009, -0.1281092912, -0.0517183207, 0.1852523983, 0.3263199031, -0.1911208034, -0.0222007893, 0.3092469275, 0.1819151640, 0.1016433164, 0.2579924464, -0.2650583088, -0.0724284276, 0.1801794916, -0.0550565533, -0.4249473512, -0.4073418975, -0.2585880756, -0.1129503250, -0.1402204186, 0.1038090289, -0.1680936068, -0.1863163412, 0.2302576751, 0.0890441015, 0.2320814282, 0.2497073412, 0.1186821908, 0.0394511186, 0.1815197468, 0.1245858073, -0.2429806590, 0.1226887628, 0.1219622493, 0.1912540644, 0.0160552580, -0.0792839080, -0.0702956244, 0.0799151137, -0.0716501623, 0.0280402973, -0.2248875201, -0.1830964237, -0.1929908246, -0.1413645744, 0.1748744547, 0.2014195621, -0.2454440743, 0.2361084074, 0.1258302629, 0.2263974398, 0.1039069220, -0.2816142738, 0.0266655572, 0.1563319266, -0.1079015955, 0.0358365774, -0.0872515067, -0.2893778980, 0.1753433198, -0.1192380786, -0.2340141684, -0.1736329794, 0.2299630344, 0.0297623221, 0.0542292073, -0.2762148976, 0.0313650258, 0.1703489274, 0.1455702782, -0.2844919562, 0.1748178154, -0.1601866633, -0.0941171721, 0.1648157537, -0.0678104460, 0.1739436984, -0.2334973812, -0.0785947666, -0.1656451821, 0.0170932133, -0.0803293139, -0.1822283864, 0.2518782318, -0.0041765887, -0.0769889355, -0.0677835196, -0.0542681068, -0.0865551382, 0.1972572505, 0.1162584573, -0.2016174942, 0.1467478275, -0.0278679673, 0.1570614576, -0.2008502036, -0.1795982420, -0.1440256089, 0.0659805089, 0.2445428222, 0.0434370860, 0.1352301836, -0.1953335553, -0.2571554184, 0.1379019022, -0.2677251995, 0.1564841717, -0.2412580550, 0.1559825689, -0.1061938629, 0.1116686389, -0.0324315503, -0.2428647429, -0.2056821883, -0.0834639892, -0.0425058752, -0.0980970636, 0.2580575049, -0.2423910648, -0.0783194974, 0.0333612040, -0.2545041740, -0.0402499661, -0.2495657504, -0.1372991800, -0.2481065840, -0.2235139906, 0.2589473426, -0.0515353419, 0.0092302430, 0.1751981974, -0.2354094088, -0.2436420918, -0.1770923585, -0.0026360543, -0.5277968049, -0.1807250232, -0.4996242523, -0.1051838994, -0.2218161821, 0.3118413687, 0.0720550492, -0.0138674648, -0.3449455500, -0.1946879774, -0.1892087609, 0.1984460503, 0.0780129060, -0.1266785264, -0.0011894127, 0.3315203488, -0.2829895914, 0.0353362113, 0.0564526469, 0.1654313654, -0.0347513109, -0.1962276250, 0.0279420093, -0.0309037827, -0.0030029984, -0.0741554275, -0.1510133147, -0.1188680977, -0.0392539576, 0.2752270103, -0.0403794795, 0.2216578573, -0.5692628622, -0.4435591102, -0.4825790524, -0.0118512884, -0.0106241358, 0.3496957719, -0.1048445776, -0.3433882296, -0.2978848219, 0.1387981921, -0.3490484357, 0.0146616818, -0.0002769841, -0.0517480224, 0.0952190608, -0.3373642862, -0.1360647380, -0.0726688132, -0.0905118808, -0.1778184921, 0.1285142601, -0.2711760402, -0.1859468371, -0.2789617479, -0.1228057817, -0.2453258336, -0.1569352597, -0.0261360202, -0.4701130092, 0.0823834017, -0.4476980269, -0.3010648787, 0.2030892372, 0.1733932644, 0.1907972395, 0.3145749569, 0.4345189333, -0.1234110594, -0.1198319346, 0.0946635976, 0.0392457843, -0.2002437562, -0.3668630719, 0.1676911861, -0.1665466726, -0.3262856305, -0.5172989964, 0.2328803241, 0.1383002251, -0.0482427292, -0.1627904028, 0.1886209548, 0.2724483311, -0.0616945885, 0.0719188899, -0.1380765587, -0.2420378029, -0.3851833344, -0.0482014716, -0.3368742168, 0.2482707202, -0.1254751533, -0.0924533382, 0.0877617076, -0.3235397637, 0.1272813380, -0.1107858345, 0.1164113060, -0.2102752477, -0.0095169069, -0.2105401009, -0.3335609436, -0.1969066113, 0.1314091831, 0.2129787654, -0.0706456676, 0.2164327949, 0.0361463949, -0.1707081199, 0.1927950233, 0.1049688309, -0.1969762444, -0.1798391342, 0.1215224266, 0.1210748926, -0.1726798117, 0.1555208117, -0.2544779778, -0.1250447184, 0.0936928317, -0.1033365875, 0.0383545458, -0.1122810915, -0.2324822843, 0.1985941678, 0.1743340641, -0.2519836724, 0.1360585988, -0.0096261101, 0.2164798677, 0.1266427636, -0.1757868975, 0.1213353053, 0.0918296129, -0.2557507753, 0.2317601144, -0.2589457631, 0.1691914201, 0.0294031296, 0.1787998676, 0.1362670511, 0.1522134244, 0.0874074176, -0.0878943130, -0.2356344908, -0.0842877999, 0.2279567420, 0.1828469485, 0.1433546990, 0.1654408574, -0.2531541884, 0.1223407984, 0.0064454558, 0.2275377363, -0.3864620030, -0.2024845034, -0.0681986138, -0.1107467040, -0.6549582481, -0.4094661474, -0.1060800850, -0.3115611672, -0.3518650830, -0.0979000255, 0.0309127904, -0.2020436823, -0.2718422413, -0.5769174695, -0.2422467023, -0.3207736313, -0.1968202442, 0.0307105463, -0.1122776568, -0.1036444232, -0.3308905065, -0.5508474708, -0.2316800207, -0.5755631328, -0.1944640577, -0.3272785246, -0.4394416213, -0.3478507102, -0.1484712809, -0.2193420827, -0.1351265609, 0.0100872861, 0.0157439318, -0.0713808686, -0.0213181805, 0.0165962446, 0.3328761756, -0.0612621754, 0.2126325518, -0.0001692867, -0.2777697146, 0.0095254704, -0.4741494358, -0.4308429658, -0.3692566454, -0.4217105210, -0.1056620777, -0.1208283901, -0.5935947299, -0.0544293858, -0.2666106820, -0.4391437173, -0.4052088857, -0.0271790959, 0.3326519132, -0.0454691388, 0.1479474604, 0.0172001477, 0.2537861764, 0.0128495777, 0.0767751262, 0.3514536321, -0.1341441870, -0.1794474125, 0.1903166771, 0.2121530920, 0.3853518367, -0.1176691353, 0.1608843207, -0.1068483144, 0.2588064075, -0.0251470264, -0.1358464062, 0.0844243169, 0.2396692932, 0.0914252400, -0.3888830543, -0.0143798320, 0.2493268400, 0.1142932624, -0.2551112175, 0.1086139902, 0.1806297898, -0.0365040824, -0.1671069711, 0.2471102178, 0.0453481562, -0.4687578976, -0.0436660498, -0.1173707768, -0.1407997161, -0.4692774415, -0.0896152779, -0.1501187086, 0.1555183232, -0.3792161345, -0.3185036182, -0.2685880661, -0.3271790743, -0.1511892974, -0.3146088123, -0.2745543420, -0.1635045111, -0.3454710245, -0.0298090875, 0.0911548138, 0.1310985237, 0.1056528091, -0.1710337102, -0.2363623679, 0.0061533763, -0.1702301204, 0.1481509358, 0.1007322893, 0.1853213906, 0.1585033387, -0.1551549137, 0.0419404283, -0.0414396860, -0.0213114694, 0.0197800156, 0.1165916324, -0.0601916686, 0.0200639106, 0.0600122847, -0.0894298032, -0.2538185120, 0.1783455461, 0.0094832471, 0.1215611026, 0.0510087349, 0.0384665877, 0.0353652425, -0.2098489702, -0.2000771761, -0.0046171648, -0.2544343174, -0.0203313716, -0.2102151960, -0.2399945706, 0.0877206177, -0.0967504978, -0.1906635612, 0.0136261135, 0.2168720663, -0.1204910278, -0.0558300540, -0.1960378289, 0.0276906267, 0.2423461080, 0.0724050179, 0.1932295114, 0.0190400090, 0.2346079499, 0.0011515092, -0.0224104207};
#endif

#endif
