//Numpy array shape [32, 52]
//Min -0.740574181080
//Max 0.383754789829
//Number of zeros 0

#ifndef W11_H_
#define W11_H_

#ifndef __SYNTHESIS__
model_default_t w11[1664];
#else
model_default_t w11[1664] = {0.0270538889, -0.1991761774, 0.0687275156, -0.0409095027, 0.0870993733, 0.2518011928, 0.2616491914, -0.2171375006, 0.0935433954, 0.0549681038, -0.2524915040, 0.0694508478, 0.0185240209, -0.3002355397, -0.0382660180, -0.0803627446, -0.3847939372, -0.1304116845, -0.1801584810, -0.0522988364, -0.3599103391, -0.3315491080, 0.1946545541, 0.0380130820, -0.1006757095, -0.3637257516, 0.1622653157, 0.0015515945, 0.1623034328, 0.1591723710, 0.0658102557, 0.0714103132, -0.1636161953, -0.3069304228, 0.1004151851, 0.0928701982, 0.1108819172, -0.1232932582, 0.3465298116, 0.2392596006, -0.1397279650, 0.2664555013, 0.1851628423, 0.1828269213, 0.1524885148, 0.2302524745, 0.3156225085, 0.2040485293, -0.1804209948, -0.1755991280, 0.0156875011, -0.1636852473, -0.0127243092, -0.1398277283, 0.0513461046, 0.1984557211, 0.0448287204, -0.1941116750, 0.1005831435, 0.0820235834, -0.0335031971, 0.2543233037, 0.2262367755, 0.2531663179, 0.0773388967, -0.1395326704, -0.1500826627, -0.2580050528, -0.1597215086, 0.0424515828, -0.1908315867, -0.0718193054, -0.1935524642, 0.0014619490, 0.1435530484, -0.1623335779, 0.0362396315, 0.0724544078, 0.0316611566, -0.0916924253, 0.2424222380, 0.0089135142, 0.0237542801, 0.0202929880, -0.1066647694, -0.0614751689, -0.0310920104, 0.2509717047, 0.2084225565, -0.0191059578, 0.0755971819, -0.0634659454, 0.0616188198, 0.1390121877, 0.1266108602, -0.1308607757, -0.1945260018, 0.1862617582, -0.2203253061, -0.2413273007, -0.1227674633, 0.1859441698, 0.2339180410, -0.1587933153, -0.0399408154, -0.1720333695, -0.1927742511, 0.1088444069, -0.1236781403, -0.0464683995, -0.0621251091, 0.2441612184, 0.0237869136, -0.1120870337, 0.0589389615, -0.0223868079, -0.0326323770, -0.1639021933, -0.2699573040, 0.2388873249, 0.2238029838, 0.1061221659, 0.1073557064, -0.1421699524, -0.0886831880, 0.2036025971, -0.1863320023, 0.0909673870, 0.0348198526, 0.1036875397, -0.0325780287, 0.0095723653, -0.2275279313, -0.1513105929, 0.1265884638, -0.2297102213, 0.0316662304, 0.0607633516, -0.1100661606, 0.0441743024, -0.2708760798, -0.2579243481, -0.1454292238, -0.0333155207, 0.2458270937, -0.0686944127, -0.2097778767, -0.2091035992, -0.1093947515, 0.2100587636, -0.2455180287, -0.0042883502, -0.0251193438, -0.1948977113, -0.1676485986, -0.1832421273, -0.2068820149, 0.2579677403, 0.1095409244, -0.3481715918, 0.1585555375, 0.2302829623, 0.1105480045, -0.0484387986, -0.1570277959, -0.0937446803, 0.1664662957, 0.1401523799, -0.2054624408, -0.0745271295, 0.1960399151, -0.0597655103, -0.2195279151, 0.1492380947, -0.1015862823, -0.6353256106, 0.1011856571, -0.2502320707, -0.1817991287, -0.2377970815, 0.0952875167, 0.2017886639, 0.0851763636, -0.0352048203, -0.2722578347, -0.4542611539, -0.2784946561, -0.2000378668, -0.2214236856, -0.0635037050, -0.2727048695, -0.1073975340, -0.3989123702, -0.2363249213, 0.1627958864, 0.0805863515, 0.2149057388, 0.0840861350, -0.4138639867, 0.3022790849, -0.0773861259, 0.1449263096, -0.0424010567, -0.1825840622, 0.0793612599, -0.0169352572, 0.2574672103, 0.1078260019, -0.3191476464, -0.1878017932, -0.4280023575, -0.1672021300, -0.1387847811, -0.1129307300, -0.3987275660, -0.0029642563, 0.0261814240, 0.2461170256, -0.0279654693, 0.1352724731, -0.0892342702, -0.6908654571, -0.2343773097, -0.4112891257, 0.2045490295, -0.2058497369, -0.2382964492, -0.1076994091, -0.6859434247, -0.3344112039, -0.3981729150, -0.4742438197, 0.0891315192, -0.1970638484, -0.0661329702, 0.0368144326, -0.2040960789, -0.4462221265, -0.5852421522, 0.1584243178, -0.2125929296, -0.0398557335, -0.0970321819, 0.1544704884, 0.2929705977, -0.1329694390, 0.0008347247, -0.3704433143, -0.5134792328, -0.5435245633, -0.4795800745, -0.3901123703, -0.1049824730, -0.2008920163, -0.4625628889, -0.4183691442, -0.4293018281, -0.2580213845, -0.3179139197, 0.0092914412, -0.0309745204, 0.1308956295, 0.3082916439, 0.1455863118, -0.0890572891, -0.1044964567, -0.4561862350, -0.0363244079, -0.0788946077, 0.2104662806, -0.5662123561, -0.0364021063, -0.1551842391, 0.0960243195, -0.0015599680, -0.0242468286, 0.0990642384, -0.2705467045, -0.4341625869, 0.1296062022, -0.3600966930, -0.0805093646, -0.5856469870, -0.2699272633, -0.2126568854, -0.0956104472, -0.0371392816, 0.0834256187, -0.3867798150, 0.2470606863, 0.1002016217, 0.1663613319, 0.1935814917, 0.0285641775, 0.1700802594, 0.1869458258, -0.0718976259, -0.1536130607, -0.0420506336, -0.1012042686, -0.3084616065, 0.1685872972, 0.0696308762, 0.0705902725, 0.0579183362, 0.0601054467, 0.2187377214, 0.1518765092, -0.2969681025, 0.2817193568, -0.2080016434, 0.1621957719, 0.0287675150, -0.2920398414, 0.0901411101, 0.1918028593, 0.3402995765, 0.0568354465, 0.0860326886, 0.0443170778, 0.2542370558, 0.1100397781, 0.1416494250, 0.2615085840, -0.3048158586, -0.0360703431, -0.1720041484, -0.0688275546, -0.4030909240, -0.2064299732, 0.1317158043, 0.2864002585, -0.4173491299, 0.1055170223, 0.0606280565, 0.2111084312, -0.3739970326, -0.0455909669, -0.1184004471, -0.3086501658, -0.1977491528, 0.1551879346, 0.3036061227, -0.2915159166, -0.1745347828, 0.0460218266, -0.2652152777, -0.4018949270, 0.0946073607, 0.0138217006, -0.1805963516, 0.0672506168, -0.0794462934, 0.0150060272, 0.0013680557, 0.1198684648, -0.2633058727, -0.2341409773, -0.1790455133, 0.1550430059, 0.1973048151, 0.0471289419, -0.1686749309, 0.0070375502, -0.0371393152, 0.0181911085, -0.2808620036, 0.0157172717, -0.0078522200, 0.0132119842, 0.2202952951, 0.0618075766, 0.1711460352, 0.0411617011, 0.0902554616, -0.1307608038, 0.1518264562, -0.0601580963, 0.1757718772, 0.0344499238, 0.1647175997, -0.0560330339, 0.1365832537, -0.1015601903, 0.1925872117, 0.2020497918, 0.2041214406, -0.0911805853, 0.0983876660, -0.4345137477, -0.0173149295, -0.0933413059, -0.1133407950, -0.0955543816, -0.0355096795, -0.4166534841, 0.1729745269, -0.2350879014, 0.3349726796, 0.1935877949, -0.4396062195, 0.0714327171, -0.2520954907, -0.1096674949, -0.2371651232, -0.0954661146, 0.1615220159, 0.0085643670, -0.0202702563, 0.0807843208, -0.0169465151, -0.0922686383, 0.1221606582, 0.2668526769, 0.1924334615, 0.0692226067, 0.0892120972, -0.0802132338, 0.1287666410, -0.0974653512, 0.1795780212, -0.2246210128, -0.2036865503, -0.2487622201, -0.2691513002, -0.2437834889, 0.0976990536, 0.0310489498, -0.0115095116, 0.1623065025, -0.1067552716, -0.0051572714, 0.1176856756, 0.1768857837, -0.0662091672, -0.2505753040, -0.2363313138, -0.2231582552, -0.0147233987, -0.0059624282, 0.1896286905, 0.0316246301, 0.2356142700, -0.0706334710, 0.0366351455, -0.1797260046, 0.1871052086, 0.1229027733, 0.2448094785, -0.1763391048, 0.1306179464, -0.0579406321, -0.0953466147, -0.1321620047, -0.0609945394, -0.1049109995, 0.1859985441, -0.2647521794, -0.0693280324, -0.2059781998, -0.0378794372, -0.0460267551, -0.1243781894, -0.1757664829, 0.0850151405, 0.2333187014, -0.0706893876, 0.2287251204, -0.0912719965, 0.1529720575, 0.0109447967, 0.2010313570, 0.0086972481, -0.2576240301, 0.0864088535, 0.1822403669, -0.1400095373, -0.2105733603, -0.1452659369, -0.2347126156, 0.0703331679, 0.1719288975, -0.2262018770, -0.1835264266, -0.2003690749, -0.2022260427, -0.0550142415, 0.1494639367, -0.1006680503, 0.1062467694, 0.0381754562, 0.1193803325, 0.2291988581, 0.0611421280, -0.1336783767, 0.1066415682, 0.0419759899, -0.0047975411, 0.0788415596, 0.1652875841, 0.1027265936, -0.1060093194, -0.1654162556, -0.0682225153, -0.0904300436, -0.0290018208, 0.0380876325, 0.0837047100, 0.0667569265, 0.1085315645, -0.1431643665, 0.1990668178, -0.1427151561, 0.0123129142, 0.1658028215, -0.2319711596, -0.2577798367, -0.0405569114, 0.1928491294, -0.3122840226, -0.0823487192, -0.1380942464, -0.2102214396, -0.3331047595, -0.0862296149, -0.2868210077, -0.0908609256, -0.0613158494, -0.1662086099, -0.2625158727, -0.1514715701, -0.4133372605, -0.0281623323, 0.0678165182, -0.5857136250, -0.4390068948, -0.2728913128, -0.0197562613, -0.2439700216, -0.0848524570, 0.0974329039, 0.2873871922, 0.1697760373, -0.2695631981, 0.2403523475, -0.1655094326, -0.2848273218, 0.2000380754, -0.1652306318, -0.0663003325, -0.1893433779, 0.0589997768, 0.0116119655, -0.3759117723, -0.2636231482, -0.3901891708, 0.0793509185, 0.2235585749, -0.2926137149, 0.2549222708, 0.2883739471, -0.0626330599, 0.1669820547, -0.0306646731, 0.1887776256, 0.1305326223, 0.1065373719, 0.0117086191, 0.1955448836, 0.0910573602, 0.0638482720, 0.0672366321, -0.3517889977, -0.3862534165, -0.2252546400, -0.6036772132, -0.1401546597, -0.0146779474, 0.0710858107, 0.0614201240, -0.1102053002, 0.1050391123, -0.1284216642, 0.0407627523, 0.1639512032, 0.0433380604, 0.2235110849, 0.0620778576, 0.0469947942, 0.2068122476, -0.0399801806, -0.0522229858, 0.1144678295, -0.0418585055, 0.0376297608, 0.0802242905, 0.0529087074, 0.2029819787, 0.0442902707, 0.0310724080, -0.1328335106, -0.0882257521, -0.3652034402, -0.2168715000, -0.2206766903, -0.1702129096, -0.2172172070, -0.3056677878, 0.2794700563, 0.2469405234, 0.1692744642, -0.0070549580, -0.5105659366, -0.5265617967, -0.2633046508, -0.3502225280, -0.3497517705, -0.2803971171, -0.1074643359, -0.2140672058, -0.4405285716, -0.4965180159, -0.3946035802, -0.6663888097, -0.0069295960, -0.1039893478, 0.1500383317, 0.2450842559, 0.1155323312, -0.2527114153, -0.1532292366, 0.1959718019, -0.2896061540, -0.0794782937, -0.2128634751, -0.1028203219, -0.1377699524, -0.1086520404, -0.0285055786, 0.3265459836, -0.3090993762, -0.6103245616, -0.1359246969, -0.1876560599, 0.2852585614, 0.1230565980, -0.1208124980, -0.1233709008, -0.0048701493, -0.0729530677, 0.1912446022, 0.1875473708, 0.2256200910, -0.2595815063, -0.2248216718, -0.2559787631, 0.2165097892, 0.1237865463, -0.2457320839, 0.0242504887, -0.3789915442, -0.6841270328, -0.5531185865, -0.1042733043, 0.0817919523, -0.2496083081, 0.0503905267, -0.0896649882, -0.1455847919, -0.0178124215, 0.0552758835, -0.2372388989, 0.2692140639, -0.1129789501, 0.1312271655, -0.2755213380, -0.0232654717, -0.0280986410, 0.1964675188, -0.0808552131, 0.2357546538, -0.0880289152, -0.1914369613, -0.0231032185, -0.2205665708, -0.0429181829, -0.0532473586, 0.0931382328, -0.1481157243, 0.0704189464, -0.1526708305, 0.0755481496, 0.2497954518, -0.1209501550, -0.2557160258, 0.2192187458, -0.2544644773, -0.2460449636, -0.2228009999, 0.1160587221, 0.0964474231, -0.1359411329, 0.1008487493, 0.1058649719, 0.0250524580, 0.2438588440, -0.0633124709, -0.2611432374, -0.2430680543, 0.0496993586, 0.1527164280, -0.0775215477, 0.1444839388, -0.2183708698, -0.2514934242, -0.2491715848, -0.0261583496, 0.0789793134, 0.2070145309, -0.0505828708, 0.0312157627, -0.2426068485, 0.1812381446, -0.2300214171, 0.0116931051, 0.1191079691, -0.2517183125, -0.1537962556, -0.1289765388, 0.1309668720, -0.1131532863, -0.0977479890, -0.2308268845, -0.1230701506, -0.2282470167, 0.1511297077, 0.1793294251, -0.0024640688, 0.1476144493, -0.1625264883, -0.2816225886, -0.0117447488, 0.2272954583, 0.1961821020, 0.1188572943, -0.2197448611, 0.2110861242, -0.2506899536, 0.1132738665, -0.0547795258, 0.1317561716, 0.0232961997, -0.0660605654, -0.1691559702, -0.2739912868, 0.2022668123, 0.0570021756, -0.1070040539, 0.0824323669, -0.1985270977, -0.0180081669, -0.1049358472, -0.0675583854, -0.0142415613, -0.1177283674, 0.0460217372, -0.0941518098, 0.1364531070, -0.2595427036, 0.2205616236, 0.1697121114, -0.0050311801, 0.1926328540, 0.0352093130, -0.0159257259, -0.1254510581, 0.2126205564, -0.0743523464, -0.2575563490, -0.0162236635, 0.0219151638, -0.0203318149, -0.1872755289, 0.0904503837, -0.1048145816, -0.2614265978, 0.2382119894, 0.2457865030, -0.1119969115, -0.0498661138, -0.1419001371, 0.1575671732, -0.2254547477, -0.1654810607, 0.1204311773, -0.1962787956, 0.0645935908, 0.2596822083, -0.0504167378, 0.0490352586, -0.0038557954, 0.0519760400, 0.2319066674, -0.2226715982, -0.2346239239, -0.0831849054, -0.1561433971, -0.0166212339, -0.1177536771, -0.0096207820, -0.1204061136, -0.1326233894, -0.0704401359, 0.0109711420, -0.1076053753, -0.2598872781, -0.1892638654, 0.0046811257, -0.2409852445, 0.2525277436, 0.0183601100, -0.0149563244, -0.0563951619, -0.1572041661, -0.2149199247, 0.2176016271, -0.1181518584, -0.0937773883, 0.2267697901, -0.1991516501, 0.2604761720, -0.0776817352, 0.1228503138, 0.1669392586, -0.3549256325, -0.0373938680, -0.4909035563, -0.1357600242, -0.4163516760, -0.3113895059, -0.5153928399, -0.0609798469, -0.2816004157, -0.2593512833, 0.1764516234, -0.1853444427, -0.4075312316, 0.2326099128, -0.2582015097, 0.0397255942, -0.2001512349, -0.4658259153, -0.0980184898, -0.2027237117, -0.0292470809, -0.1145155355, 0.3075255156, -0.1677390486, -0.1800454706, -0.4073960781, -0.0220634732, -0.0425514802, -0.2160368413, 0.1121940389, -0.0054604779, -0.3342524767, -0.2432316989, 0.0523704328, -0.4045681357, 0.2185226381, 0.0544779710, -0.3351933658, -0.2660186887, 0.0311603006, -0.0687591210, -0.2676833272, -0.0233267788, 0.0564768761, -0.4290712774, 0.0625237003, -0.0271955151, -0.1337166727, -0.3702719212, -0.3424680531, 0.0370124914, 0.0067418935, -0.2125381082, -0.1856595129, -0.1515383124, 0.0011372803, 0.0059645073, -0.3578279912, 0.0003883672, -0.1994882524, -0.0590020530, 0.1435169429, 0.0611077845, 0.3750189245, 0.0075645940, 0.0791379437, -0.2267855704, -0.0296550076, 0.3450251520, 0.2018617243, -0.0267134104, -0.3625233471, -0.2059516311, -0.0812492967, -0.1455027312, -0.0195698086, -0.0243338998, -0.3367395997, 0.1300431788, -0.2163500637, 0.1140626147, -0.2532284558, -0.0796558857, 0.2837468684, 0.2064718902, -0.0821168795, 0.0521412417, 0.1400792301, 0.0536934026, 0.1931716055, -0.1069635823, 0.0729714110, 0.0000243081, -0.1103327423, 0.1620303690, -0.1925039440, -0.1536523998, -0.0152724292, -0.1741417944, -0.0314106420, 0.1059036180, 0.2091306597, -0.0799996257, -0.1392698139, -0.4844120145, 0.0737072751, -0.3136720657, -0.5175767541, -0.1271813363, -0.7405741811, -0.4357207417, -0.1768229753, 0.1387734860, -0.5380101800, 0.0948335901, -0.1306995004, -0.0273760203, -0.0262209736, 0.3181555569, 0.2259656042, -0.0114282249, -0.1656032801, 0.0881583467, -0.3589167297, 0.1388721913, 0.1879718155, -0.3053963184, -0.0990704224, -0.0129135279, -0.0127997426, 0.0801052749, 0.0370407626, -0.1635998785, 0.0428197980, -0.2144927233, -0.1772067696, -0.1948814541, 0.1366873235, -0.0072155707, -0.3333467841, 0.0136892991, -0.5624786615, 0.2170868516, 0.1537558138, -0.1280528307, -0.0075759515, 0.1280829757, -0.0742762163, -0.2099317461, -0.1098629832, -0.1597976834, -0.0689337328, 0.1861158162, -0.2222832590, -0.1302260160, 0.1215355024, -0.2655170858, -0.4102835059, -0.0758195743, 0.2280744910, 0.0077810013, 0.3489679992, -0.0142143797, -0.2781761289, 0.3641419411, -0.1135660708, -0.1384445131, -0.0173775256, -0.0978935212, -0.2671831250, 0.0575671829, -0.1932701916, 0.1052629203, -0.2017898113, 0.0997063965, 0.0160160698, 0.0027330450, -0.1975323111, -0.2946337461, 0.0601134710, -0.0171934646, -0.1929756105, -0.3831638396, -0.0791450739, 0.1903924644, -0.1191771254, -0.2179933190, 0.2211353630, -0.0134345070, -0.3482785523, -0.2547542751, -0.0470846146, 0.3132943213, -0.4207427204, 0.1089017317, -0.1884014010, 0.0953102261, -0.4084306359, -0.0097743124, 0.2231214941, 0.0235187765, -0.0454000607, -0.1711746305, -0.2834285498, 0.0009415774, 0.1600745171, 0.3006445169, 0.2228377014, 0.1098772660, 0.2197034657, -0.0825064555, -0.1723231226, -0.2233636975, -0.5577057600, -0.7348187566, -0.5962210894, -0.0084775817, -0.2166326493, -0.3005180955, -0.3980564475, -0.3329113126, -0.2394956350, -0.1960228533, -0.0974488482, -0.2059874982, -0.3438644707, 0.0000059841, -0.3075717986, -0.3855955303, -0.3619192243, 0.1092831045, 0.0207093842, 0.1855355948, -0.0175884180, 0.1981120110, -0.0913375765, 0.1888363957, 0.2850627303, -0.1523994356, 0.0342510156, -0.0243060514, 0.1398107857, -0.2826390862, -0.4842920601, -0.0136128440, -0.1637991369, 0.2688404620, -0.2507050037, -0.0264598485, 0.1854315698, 0.0420592278, 0.0562200285, 0.2451904565, 0.0632599443, 0.1741626710, -0.3432044387, -0.2643727660, 0.0931988209, -0.0640583783, 0.1013446674, 0.0112970928, -0.0518933274, -0.0299153887, -0.1638995409, -0.2646896839, 0.0144279925, -0.2434074581, 0.0383529812, -0.0292251445, -0.2232601047, 0.2317962646, -0.1804287136, 0.1072488800, 0.1882208735, -0.1437762976, 0.2142134011, -0.1980449408, -0.2440302670, -0.2609423101, 0.0496096611, -0.2029708475, 0.1512462199, -0.1056127399, -0.1567272097, -0.1785978377, -0.1859823167, -0.1000819728, 0.2054894269, -0.2384320199, -0.0832502767, -0.0393978730, -0.2269966751, -0.2210332751, -0.2343224436, -0.2354713827, -0.1449899524, 0.0676431656, -0.0088516828, -0.1134524122, 0.0291369855, -0.2401058823, -0.0104053225, 0.0381945260, -0.1055622473, 0.0654003471, -0.2235136628, -0.2495471984, -0.0162629932, 0.0857716501, -0.2510675788, 0.1553821713, 0.0878776684, 0.1448974162, 0.0041854582, -0.0872185007, 0.0329295322, -0.0638417080, -0.1316004097, 0.0353837311, 0.1593268067, 0.0422293134, -0.1518530101, 0.0837992206, -0.2645365894, 0.1313024610, 0.0787684694, 0.0681984499, 0.0059011541, -0.0002245432, -0.2660002112, -0.1255571097, -0.0423163325, -0.0923749954, -0.2463613302, 0.1297514737, -0.1896423697, 0.1302193403, 0.0317053571, -0.1520394236, -0.1008776128, -0.1132887378, -0.2600055039, 0.0364846773, -0.0643582344, 0.2015449107, 0.0726010203, -0.0493715592, 0.0041044843, -0.0802150220, -0.1259927005, 0.1655105948, -0.0764206052, 0.1783109009, -0.1982752085, -0.1814366281, -0.1291634738, 0.1562999189, 0.0391484015, 0.1483698934, 0.1794252992, -0.2429768294, -0.0049919966, 0.0611281842, 0.1055846810, 0.1232616305, -0.1254518926, -0.0232496168, -0.0558839478, -0.1787375659, -0.1351954639, -0.0797551572, 0.1032351330, 0.1776348203, -0.2004278153, 0.2268329859, -0.2222499549, -0.0957468972, -0.0725059435, -0.0521693155, -0.1558568627, 0.0419743732, 0.1827631444, 0.1865860969, -0.0358817950, 0.1295031756, 0.0802792013, -0.2257852405, 0.0688714907, 0.2543000281, -0.0021761046, 0.0375096463, -0.2218857408, -0.0181506239, -0.2584007680, -0.2750592530, -0.1984422058, -0.0778586417, 0.1175078824, -0.1439540088, -0.1525441855, -0.1816100329, -0.2293781191, 0.2427930832, 0.2457076907, -0.1268343329, 0.0266279671, 0.1763002574, -0.0306995418, -0.1973379552, -0.1521433741, 0.1028394401, 0.2377070338, -0.0671134219, -0.1452602148, -0.1655016094, -0.2608888745, -0.0836393461, 0.1002442837, -0.0217022840, -0.2391625196, -0.1193591356, -0.1942300498, 0.2243394107, -0.0478707775, -0.0308263060, -0.0115005709, -0.1840020865, 0.1197296903, 0.0741961524, 0.0994510055, -0.2810876667, -0.1200405806, -0.0631061196, 0.2234436125, -0.1972583979, 0.0344357453, -0.0992249921, -0.0504967533, 0.0009698523, -0.0999440625, -0.0053797509, -0.0528007783, -0.2912582159, -0.1964596808, -0.2046866119, -0.2142586708, -0.1299077868, 0.1875645071, -0.1292193681, 0.2023768425, -0.1046471298, 0.1678861380, 0.0447341502, -0.0974806771, 0.0779922158, -0.1872975975, -0.2269079387, 0.0659306943, 0.0933021680, -0.1753296703, -0.1124090701, -0.0874108672, 0.1479273736, -0.2075195163, -0.1905610859, 0.1169079170, 0.1713552028, -0.1056251600, 0.2276277095, -0.2030593455, -0.0868515968, 0.0933243781, -0.0036078824, -0.1439545155, 0.2232336998, 0.2285989970, 0.2088018954, -0.2021174133, -0.0450731181, 0.1549358964, -0.1869516224, -0.1746729165, 0.1564885825, 0.1947930902, 0.1237278059, 0.0628543496, 0.1246691570, -0.0538874343, -0.1095001623, -0.1729994416, -0.1334513724, 0.2416945398, -0.2048099637, 0.0624395423, 0.0464456528, -0.0418169424, 0.1915171742, -0.1189004332, -0.1903585941, -0.1840413064, 0.0685299411, 0.1640841663, -0.1231458187, -0.1651790440, -0.0656425655, -0.2381254435, -0.1529174298, -0.1540423930, -0.1378517598, -0.1292559057, -0.1233362183, 0.2447649688, 0.0337915756, 0.0064727408, 0.0040192762, 0.0708599091, -0.1177976578, 0.0719490498, -0.2866572738, -0.1223362014, 0.0959869102, 0.0100117521, -0.1612008065, -0.1784200370, -0.6237672567, 0.0024629836, -0.4371484518, -0.3594079912, -0.4539649785, -0.0337091722, 0.1195022166, 0.0265836138, -0.2528252006, 0.0295743681, 0.2320814282, 0.1205074117, 0.0615794025, 0.2301034778, -0.2248624414, 0.0933751166, -0.0894528702, -0.4221791923, -0.2465884537, -0.1417966932, -0.0191137437, -0.0966814458, -0.1545551419, -0.2090790719, -0.0888185352, 0.1339120418, 0.1430964023, -0.1213758960, 0.0751647800, -0.0890099928, -0.3735279441, -0.5738567710, -0.2836711705, -0.1244117171, -0.2135470361, -0.0172198787, -0.5339090824, -0.3197012544, -0.6169210076, -0.4877735376, -0.3152897358, -0.3313756287, -0.3162134886, 0.0005302554, -0.3950451314, -0.3523853123, -0.2238607705, -0.0923638344, 0.0487726256, -0.1108904555, -0.0854277611, -0.0232723746, -0.1786000431, 0.2502047718, -0.1241064593, 0.1742358059, 0.2462006211, 0.0071648112, 0.2535930872, 0.0228913035, -0.2050239742, -0.0833013654, 0.1423648596, 0.1928902268, -0.1088830084, -0.2494610846, 0.1023802087, -0.0525484905, 0.0322864987, -0.0493848659, 0.0011668847, 0.2196609825, -0.1236722991, -0.1331996769, -0.0724922419, -0.1024493948, 0.1820657104, 0.0934873670, 0.2495354563, -0.2268667221, 0.1305496395, -0.1924277246, -0.2191233188, -0.0422153920, 0.0416629054, 0.1284017414, -0.2154900879, -0.0261747967, 0.1299478859, 0.1381434351, 0.0632717982, -0.2225563228, -0.1182291582, 0.1135836914, -0.2220372111, 0.1149728596, -0.0671427622, 0.0821983665, 0.1052043587, -0.0679564029, -0.0992426500, 0.0975261107, 0.0821358711, 0.0134215830, 0.2071238458, -0.1201430857, 0.1729968339, 0.0596335679, 0.1140008345, 0.2142617106, -0.1278615296, -0.1207901165, 0.1351548284, 0.2151096314, -0.1658638418, -0.2559977770, 0.1413168758, -0.2373242825, -0.0950346962, 0.0853879005, 0.0424440093, -0.0654198229, -0.1450348347, 0.1419345140, 0.2174234986, 0.2576569021, 0.0009939556, 0.1168838590, 0.0188129600, -0.1877803355, -0.0481055975, -0.1494833529, 0.0570677742, 0.1097989008, 0.0311981328, 0.1312346458, -0.1022350863, 0.2523569763, -0.0059495633, -0.1030756235, 0.1789657772, 0.2560634613, -0.0579417832, 0.0831313655, -0.0274439994, 0.2037463486, -0.1860047728, -0.1957070380, -0.2031333447, -0.0149892196, -0.1961984932, -0.1867956072, -0.0632734075, 0.2296773642, -0.2502874434, -0.1704836190, -0.0452268645, -0.2304728925, -0.0600136928, -0.2300041318, -0.2304726541, 0.1863931566, -0.0472834855, 0.0167130921, -0.0413662009, 0.2163045555, 0.0971354023, -0.0640814528, -0.2630117834, -0.2179984748, 0.1582577974, 0.0983553082, 0.1425497830, -0.1433205307, 0.0522995517, -0.1679931879, -0.0557780750, 0.2444770485, -0.0211173613, -0.2047784030, -0.2010980397, 0.2220571041, 0.1718875021, -0.2035591602, 0.0340885073, 0.0895089358, 0.1859052181, -0.0694004074, -0.0604578219, 0.1877615154, 0.1591160744, -0.0601327717, 0.0532734543, -0.1710564643, 0.1200014055, 0.0251784883, 0.1587576270, -0.0011554720, 0.2386247218, -0.2459158301, -0.0735818967, 0.2549682856, -0.0741278678, 0.0594960898, 0.0308530964, -0.0977141932, -0.0811617225, -0.0653395057, -0.1237349436, -0.2281770855, 0.1269006431, -0.4810101390, -0.0766949877, -0.0895470902, -0.4866229594, -0.1158387512, 0.0462509580, -0.2537837029, -0.3083243072, 0.2065972835, -0.1205476746, -0.4370035827, -0.0651993603, -0.0064621046, 0.0301519521, 0.3837547898, 0.2069086283, 0.2527315319, -0.1142689064, 0.1034158096, 0.2786426842, 0.0837086439, -0.1261799484, 0.2449950427, 0.0627807602, 0.1587690562, -0.0657253414, 0.0931320488, -0.2320755273, -0.0586190931, -0.2255076468, -0.2730814815, 0.0473903827, -0.0558848605, -0.3396624625, -0.4343164265, -0.0797562748, -0.3657754362, -0.2282761931, -0.1729853898, -0.1610846967, -0.2072291374, -0.0220691338, 0.0243598185, 0.2189365774, 0.0931836292, 0.2783876956, -0.1906260252, -0.3360629976, 0.1785602719, 0.1265849322, 0.1956772953, 0.0991670266, 0.2347080857, -0.1488634944, -0.1218807995, -0.0686315969, -0.2369412482, 0.0967538133, -0.4614865482, 0.1626845449, 0.0231459253, -0.0737760887, 0.0011135607, -0.1714634001, -0.2776649594, -0.1513293684, -0.1334887892, -0.2099946588, 0.2584398985, -0.1619216502, -0.1388329715, 0.1403768808, -0.2744482756, 0.0100350259, -0.1539176852, -0.1309939772, -0.0728490129, 0.2189164311, -0.1293523461, -0.3184829652, -0.2649113834, -0.1643233597, 0.2957007289, -0.1917033046, 0.0714662895, -0.0671340227, -0.2561128139, -0.1658303440, -0.0757184923, -0.2624533176, 0.2208526731, 0.1072376072, 0.0907125697, 0.0824282095, -0.3301490843};
#endif

#endif
