//Numpy array shape [32, 52]
//Min -0.790615379810
//Max 0.390689253807
//Number of zeros 0

#ifndef W11_H_
#define W11_H_

#ifndef __SYNTHESIS__
model_default_t w11[1664];
#else
model_default_t w11[1664] = {-0.2064625919, 0.0112104909, -0.1963024735, 0.0124730431, -0.1111456156, -0.1602377295, 0.0902481824, 0.2476072162, 0.0161755830, 0.2323991656, 0.2075739205, 0.1776273251, 0.1397422403, -0.2291073352, -0.1556521803, 0.0345415473, 0.1034034416, -0.1043916196, -0.1575669050, 0.2384938747, -0.1752528846, 0.1988071799, 0.0116369678, 0.1907486618, 0.0621377751, -0.1352759898, -0.2348501831, -0.1692894250, 0.1621551961, -0.1125407666, 0.2624162436, 0.1073751897, 0.1793101430, 0.0098744053, 0.2059284300, 0.0346508250, -0.0020851137, 0.1762929708, 0.2032858282, 0.1667433828, 0.0177904088, 0.0748145431, -0.1253389567, -0.0355580449, 0.2522824705, 0.1074343175, 0.2678829432, 0.1743526608, -0.2483296096, -0.2321234792, 0.0865704343, -0.1384254545, -0.1804041117, -0.0904190764, -0.0349059254, -0.0035153378, -0.2415180355, -0.0985011980, 0.1437938809, -0.2339462191, 0.0029205068, 0.0150367990, -0.1116387993, 0.2646281123, -0.1509955376, 0.2152792215, 0.1071686000, -0.0860670432, -0.0976268053, 0.1583717912, -0.0685067773, -0.1877862960, -0.2614554167, 0.0434283093, -0.1493687779, -0.0679245666, -0.1626896560, -0.2546487153, 0.1506066620, 0.1315656155, 0.0945210531, 0.2153374404, -0.0074898493, 0.2517792284, 0.1374263018, -0.1266892701, 0.1832677722, 0.1234130859, -0.1863821298, 0.0640278608, -0.1392572373, 0.2458485216, -0.0886647552, 0.2178656310, 0.1627491713, -0.0524754971, -0.2462357283, 0.2407713532, -0.2532624304, 0.2259712517, -0.0498631895, 0.0889183432, -0.1426386535, 0.1788633317, -0.2693797052, -0.0757217929, 0.2442396432, -0.1965487450, 0.0441388562, 0.0326441452, -0.2410247177, -0.2456168383, 0.1668705046, -0.2101671249, -0.0281020384, -0.1788391620, -0.1326740086, -0.0311563276, -0.1963887513, 0.0244841222, -0.2282260507, 0.0773217678, -0.2567937374, 0.0053862170, -0.1662328839, 0.0076351501, -0.2634582818, 0.1043805853, -0.1495820135, 0.1393588036, 0.0598856620, -0.1344847232, 0.1814397275, 0.1987687647, 0.0746175870, -0.1211046204, -0.1444643438, 0.2453749031, -0.0006479030, 0.0885246098, 0.1386301965, 0.1179734617, -0.1400444657, -0.0459962860, -0.1846199781, -0.0272993650, 0.1585598141, 0.1792055815, -0.1737950593, 0.2307872921, -0.1310779154, 0.1380877942, -0.0980415568, 0.2295212150, 0.2563522160, 0.1178660616, -0.0243361648, 0.0320187733, -0.2420279980, -0.2220517397, 0.1181161553, 0.2563155293, 0.1955295503, 0.1545953751, -0.1813820302, 0.3524713814, 0.0614396371, -0.2409588397, 0.0415939167, -0.0838668048, -0.2734795511, 0.1319808960, -0.4139164090, 0.1621784419, -0.1962623894, 0.1722636223, -0.1082638577, -0.0199086107, -0.0600567609, 0.1717033833, -0.2714949250, -0.2690336108, 0.1515330523, -0.3162228167, -0.3119407296, -0.4586015642, -0.0745250955, 0.1512177140, -0.4082607925, 0.1899112463, 0.0218650624, -0.0536672920, -0.1059777886, 0.2763002813, -0.0136009222, -0.1421834826, -0.1992594451, 0.0270512570, -0.1543050557, -0.0214907899, 0.2379991114, 0.2462933958, 0.1305556744, 0.1283897460, -0.1000254899, -0.4068083763, 0.0979228839, 0.1749568433, 0.1748766601, -0.3575828969, -0.2658358812, 0.2545295656, -0.3883982003, -0.5763851404, -0.1335361749, -0.1386223882, 0.0210701097, -0.4960797429, -0.0015780546, 0.1140612140, 0.2606591582, -0.0924063399, 0.0462473035, -0.0926876664, 0.0409361534, -0.0303460937, 0.1156259179, 0.2721364498, 0.0425387137, -0.6334855556, -0.4605706632, 0.0626442283, -0.1110480875, -0.2254737318, -0.4500193000, -0.3251543045, -0.0927032381, -0.6023102403, -0.3527375758, -0.2464057803, 0.1575374603, -0.0058804937, 0.0011703090, 0.2391058505, -0.0911552086, -0.3793153465, -0.3887511492, 0.0457229130, 0.2116071433, -0.2574407756, 0.0707909912, 0.1266878694, -0.0167567804, 0.0458530225, -0.0101842899, 0.2293612510, 0.2101839036, 0.0376646593, -0.2009026259, 0.2033017278, -0.1802779734, -0.0421013646, 0.2362045050, 0.2146644145, -0.2434795201, 0.2219149619, 0.1366723031, 0.0088759251, -0.1849189550, -0.1815170348, -0.0770657510, 0.1331329942, -0.0292573385, 0.1654521227, 0.2308909595, -0.0813345388, -0.1051418930, 0.1157839596, -0.2048869878, -0.0968959779, 0.2064379156, 0.1460064948, 0.1509674937, 0.1150885895, 0.1546468735, -0.0056900396, 0.1458594501, 0.2549214661, -0.1099789888, -0.1761138141, -0.0285168327, -0.1367474198, -0.2503542304, -0.0877829790, 0.1338041574, 0.1156013384, -0.1415833980, 0.0163132306, 0.1580621004, -0.0383431576, 0.1103980020, -0.0265675448, -0.2329906821, 0.0067066313, -0.2024227083, -0.1542903334, -0.1543617249, 0.1610992253, -0.2435906827, 0.2345470041, -0.0750384256, 0.1034073830, -0.0576025881, 0.2238693088, -0.2613568306, -0.2405486256, -0.2359434962, 0.1032853574, -0.1427534670, 0.2478344440, -0.1777137071, 0.0606052913, -0.0054621752, 0.1389430016, -0.2567432523, -0.0841477662, -0.0122828167, -0.2203916013, -0.1099869758, 0.0616466440, -0.1549797654, -0.2059837431, -0.1351577491, 0.2220902294, 0.1713035852, 0.2343452275, -0.0291666090, 0.0492672250, 0.0704340935, 0.1801234782, 0.1371136308, -0.1644014567, 0.0706762075, 0.0607981011, 0.0743348897, 0.1135864705, -0.2296311706, -0.1603580415, -0.0160536002, 0.1635976285, 0.1846620739, 0.1141262352, 0.1400220245, -0.0021567692, -0.2404811978, -0.0589054376, 0.0237315539, -0.1965267956, -0.2551010847, -0.2389827073, 0.0442225635, 0.1592167318, -0.0977738127, -0.1122612059, 0.1150422916, -0.0849849284, 0.0059182639, -0.1945234984, -0.5132367015, -0.0517444983, -0.2950264812, -0.1807588637, -0.4410109222, -0.2723868191, -0.4076739848, -0.2563504875, -0.2421792746, -0.2025341988, -0.0360877924, -0.0932914019, 0.0494403914, 0.2109131515, -0.2232798785, 0.1717658490, 0.2150125206, 0.2373828441, 0.1365823597, 0.2108117342, 0.1277934611, 0.2252259552, -0.2069773972, 0.2376947254, 0.2449270487, -0.1837895811, -0.1585525125, -0.0459555984, -0.0005561591, 0.2538452744, 0.1635635495, 0.2328042686, 0.1135158539, -0.4694739580, -0.2882988751, 0.0128590539, -0.2129292488, -0.3522883654, -0.3065269291, -0.3073235750, -0.0884421393, 0.0496409610, -0.3406223953, -0.0138537167, -0.3529730141, 0.0082486672, -0.0285185184, 0.0430808216, 0.0488587543, -0.1479647458, 0.2169609666, 0.1478653401, -0.0134698842, 0.0279217139, -0.1544631273, -0.0143764224, 0.1955341399, -0.2597825825, -0.0609088466, -0.0363492481, 0.2268471271, 0.1952186078, 0.0623482987, -0.1475439668, -0.2540588677, 0.0490107276, -0.2559437156, 0.1161062345, -0.2387077212, -0.0263211783, 0.0894209072, -0.2337166667, 0.0972351506, -0.0463169590, 0.2431277037, 0.1193967909, 0.0617144965, -0.2280433476, 0.0104078557, 0.1208674982, -0.2260586917, -0.1107173264, -0.1647267938, -0.2072577924, 0.1873075813, -0.2465496659, -0.2709580660, -0.1611746848, -0.1981192231, 0.0160607044, -0.2488928288, 0.0492654666, -0.2410617024, 0.0719722286, -0.1965245903, 0.1673478484, 0.1914040595, 0.1503880322, -0.2320508212, -0.0634427741, 0.1053627282, -0.0173228849, -0.0276771095, -0.4861680865, -0.1169177741, 0.0340987667, -0.2198947966, -0.1565839201, -0.2377858460, -0.0325391665, 0.1159907430, -0.2703869343, 0.2876845002, 0.2027917802, 0.2090963572, 0.3511653244, -0.1812418848, 0.3235656619, -0.0461816788, 0.2505176961, -0.0281755384, -0.0843702555, 0.1140479296, -0.3656993806, 0.2900765836, 0.0078031579, -0.0451562405, 0.0285908952, -0.1357111037, -0.2498016953, -0.0068140957, -0.4108825624, 0.2205983400, -0.1975598484, 0.1692273617, -0.0479143709, 0.0601434559, 0.1755467355, 0.3087251484, -0.0088197971, -0.3914195299, -0.3344092667, 0.1730162203, -0.2622933090, -0.1422344595, -0.2647683620, -0.1820282042, -0.3805826008, -0.1218498796, -0.2509679496, -0.2196611613, -0.5695276260, -0.4846824110, -0.2743646801, 0.0169025082, 0.0267366748, 0.1359902024, 0.1717327833, 0.2847265005, 0.1935769171, 0.2933208346, -0.0758930147, -0.0232147053, 0.0119982101, -0.1500919312, 0.0255158097, 0.0896041915, 0.1166569740, 0.1518133730, -0.1365365386, -0.0788027197, 0.0266114008, 0.0030932566, 0.0844433159, 0.1191633865, -0.1975961328, 0.0013806396, 0.0683979243, -0.3066915274, 0.0065729762, -0.2504124343, -0.1995968819, -0.3654135168, -0.3337145150, -0.0713790283, -0.0533957072, -0.0288027469, 0.0356434956, 0.2621406615, -0.0820925310, 0.1484258473, 0.0181045309, -0.2714091539, -0.2224321216, -0.3076084852, 0.0022412403, -0.3162952363, -0.4226178527, 0.0267204177, -0.1318184882, -0.3761810064, -0.1540471464, -0.3386574984, -0.2045485824, -0.3309891224, 0.0809568316, 0.3209718764, -0.2664060593, 0.1894799322, 0.2394623756, 0.0088594286, 0.3216648102, -0.0101823611, 0.0144254183, 0.0043286704, 0.2598358095, 0.0035871419, -0.0559606403, -0.1933579892, -0.1571790576, -0.1764313132, 0.0867643580, -0.3185220659, -0.1817760617, 0.0267908964, 0.2029861659, -0.2370043695, -0.4236187637, 0.1716281176, -0.0425014198, -0.2312509418, -0.4480017424, 0.0536957122, 0.0331388637, -0.2469900250, -0.2636325955, 0.0869726166, -0.1891364604, -0.1778785437, 0.0100129088, -0.3818193376, -0.0194796175, -0.4246906042, -0.2160057873, 0.3230591416, 0.2058053315, 0.0776146501, 0.0267975479, 0.2379832119, 0.1593332142, 0.0516968742, -0.1063425764, 0.1831592619, -0.0832558721, 0.2335638255, 0.1000280008, 0.0382742397, 0.0908367559, -0.3250377178, 0.1922848374, -0.2381335497, -0.3049699962, -0.4912423193, 0.0649059862, -0.4237949550, -0.3307418227, -0.7906153798, -0.0945729986, 0.1717044562, 0.2768669724, -0.1254116446, 0.1578019112, -0.1119078994, 0.0399114564, -0.1635821909, -0.2152932733, 0.1338191479, -0.1955535263, -0.0779264048, 0.2634845972, 0.2601439059, -0.3635337353, 0.0884216800, -0.1930568218, 0.2804216146, -0.0816873387, -0.3111439049, -0.1080200002, 0.2140997648, -0.2992894948, -0.4242375791, -0.2966083288, 0.2752945125, 0.1234113947, -0.0671029910, -0.1290541589, -0.0990462527, 0.2779856026, 0.2533922195, -0.0457195342, 0.1565154940, 0.1988541633, 0.0538293645, -0.2478223443, -0.2394417226, 0.2323140353, -0.2922366261, -0.2797235847, 0.2061673254, 0.1755979955, -0.0203497577, -0.0544827916, 0.1219477057, 0.1914167702, 0.0712330565, -0.3209682405, -0.3866533041, -0.4730593860, -0.4166618884, -0.5829051733, -0.2576660216, -0.2903428972, -0.0868693814, 0.1374240667, -0.1263368428, -0.3962559998, -0.5700959563, -0.5275416374, -0.0468603298, -0.0810985863, -0.0822290555, -0.1851262599, 0.2258812636, -0.1518816501, -0.3566133976, -0.0589715764, 0.0727874041, 0.1089685336, 0.0560461096, 0.2327672988, -0.2643083930, -0.1336505711, 0.0676826760, -0.2341464460, -0.4046901762, -0.6620774865, 0.0281364564, -0.0932574570, -0.2010502368, 0.2162577361, 0.2081685811, -0.0761495233, -0.0130712111, -0.2303922027, 0.1633076817, -0.0513826311, 0.1146792993, -0.1870858371, -0.0289478023, 0.1621091664, 0.1540005207, -0.2224595994, -0.2097131461, 0.1009372473, -0.2836763561, 0.1567863524, -0.0982006639, -0.0220825560, -0.1901974678, 0.0004298644, 0.1253779978, -0.1269843578, -0.0465689413, 0.1810427159, -0.0790492743, -0.1093739495, -0.2813041508, 0.1587809622, -0.3075679839, 0.2598179877, -0.0818885863, -0.1621000469, -0.1136698723, 0.1444126219, -0.1785686314, 0.1288703680, 0.1707129329, -0.0839059278, -0.1913041919, 0.0669126138, 0.1691242903, 0.0087737096, -0.2473910749, -0.1945766211, -0.0545833334, -0.1521044523, 0.1394139826, 0.0629837140, 0.0564458519, 0.0030663209, -0.0062115486, -0.0642695650, 0.1014599428, -0.2374076694, 0.0048144292, 0.2019156963, 0.0534073822, -0.1550476849, -0.1058576852, -0.1335503459, -0.2951859534, -0.1238202900, 0.2034189999, 0.1438430250, -0.1999610215, 0.0661617443, 0.0490502268, 0.0594842359, 0.1392787844, 0.0047100703, 0.0356785618, 0.0535667315, -0.0407507606, 0.1156008467, 0.1738722175, -0.0757037327, 0.0665781125, 0.0414302014, -0.0578976870, -0.0363588631, 0.0646895468, 0.0439964198, 0.1793780476, -0.0196455587, -0.0485606343, -0.1111926138, 0.0306673963, -0.1323719174, 0.1707118750, -0.1759192944, 0.1194632128, 0.0118171275, -0.1155301183, -0.2743945420, 0.2162709832, -0.2677428424, 0.1825612932, -0.1585004777, 0.0490307286, -0.2129934281, -0.2373738736, 0.1325606406, -0.1360746473, 0.1375903636, 0.0116288047, 0.1612599194, -0.0617298037, -0.2099685073, 0.0172553957, -0.0985195264, 0.2014693171, -0.1504152566, -0.0661934987, -0.0523430966, 0.0554920062, -0.1769609153, 0.2419911325, 0.2535894215, -0.2111368328, -0.0445349514, -0.0233753715, -0.2549310327, -0.2227697372, -0.2416729033, -0.0180417672, -0.0473805256, 0.1798361540, -0.1526321471, 0.0108044967, 0.0444957204, 0.1051863804, 0.0707266629, -0.1020766273, -0.0851037577, 0.2507383525, 0.2014479935, -0.0663522109, -0.0158713851, -0.1481595933, -0.0209051166, -0.0198562890, 0.0154402545, 0.1189531088, -0.0546612926, 0.0416066274, -0.1047140658, 0.1491458565, -0.2521843910, 0.0310741197, 0.0604925230, -0.1606276482, -0.0617973357, 0.1154258326, 0.0616883114, 0.0174158718, 0.2041641325, 0.0590813272, 0.0278928131, 0.1104384735, -0.1039823219, 0.1083518118, 0.1096396372, -0.0869533792, -0.0418096483, 0.2102410495, 0.0388810895, 0.0108652357, 0.1470564008, 0.2398230135, 0.1967565119, 0.0551358759, 0.1654196680, -0.0451760776, -0.1979667097, -0.0975467116, 0.0832777023, -0.0948331878, 0.2174636871, 0.0205976535, 0.1171907187, 0.1186261699, 0.1608826518, -0.1651598513, 0.2557297349, 0.1172684878, 0.0578823239, -0.0000710454, 0.2492661774, 0.0587169528, -0.1743399054, -0.0336810462, -0.2674203217, 0.1045922115, 0.2039616704, 0.1509054154, 0.0790970549, -0.1531130672, 0.0566911474, -0.1865666211, -0.0501375422, -0.0147672445, -0.0373120829, -0.1106018424, 0.0646505058, 0.1983240992, 0.0845226422, 0.1021142080, 0.0637278184, -0.1085403860, -0.0085439160, 0.1542678922, -0.2273463309, -0.2389137894, -0.1891983896, 0.1424801648, 0.0986804292, 0.0726672933, -0.0932246596, -0.2509595156, -0.0251671504, -0.0569830798, -0.0836178586, -0.2719108760, 0.0421087965, -0.0060108122, -0.1939247400, -0.2500482798, 0.2871805131, 0.2348231673, -0.3009382486, -0.0175900441, 0.2512528300, 0.1375890970, -0.3568345606, -0.4496691823, -0.0142922644, 0.2663533092, -0.2131692618, 0.1148451269, -0.1607230008, 0.0823718980, -0.1837022901, -0.0481271297, 0.1398045570, 0.3154445291, -0.4172185063, -0.0943859071, 0.1683629602, 0.2760589421, -0.0312994160, -0.5660143495, -0.0555477999, -0.2529325783, -0.4274581671, -0.0973253846, 0.0650165230, 0.1408032477, -0.3395454288, -0.2242957354, 0.1682746857, 0.1495190859, 0.1797648817, 0.0960921943, -0.1398219913, -0.2545484006, -0.2039315552, 0.1688614041, 0.1026146933, -0.0097826058, -0.2347808033, 0.0514509492, 0.1898493022, 0.0969133303, -0.0409848094, -0.1756328493, -0.2967540920, 0.1232500896, 0.2921597064, 0.2039294243, -0.1042985991, -0.2172022462, 0.1054091379, -0.0275810491, -0.0667948127, -0.1904594451, 0.2236829996, -0.1384758353, -0.3955101669, 0.1781050861, 0.1694094688, -0.1687165201, 0.2117915154, -0.3084460497, -0.1188956723, -0.1423106790, 0.0133214686, 0.0606528968, 0.0487519950, -0.0274644997, -0.1042821631, -0.1490649879, 0.2541266680, -0.3072614968, -0.0007238756, -0.4715943635, 0.0888374522, -0.5534719825, -0.1421028227, 0.0709742010, -0.3564245999, 0.0855857357, -0.0176801272, 0.1339457631, -0.2093017399, -0.0789355934, 0.1494860053, 0.0081934938, -0.2544682324, 0.2593365610, -0.0936993361, -0.0337305702, -0.3163138330, 0.0259708576, 0.0954349190, -0.0129703907, 0.2178994864, -0.2051745653, 0.1831707209, 0.1954445839, 0.1042784378, -0.1227855384, 0.2084078044, -0.0915661603, 0.0979990438, -0.2610633969, -0.1353440434, 0.0789277405, 0.1867927611, 0.2037274241, -0.1464041024, 0.1804727018, -0.0117441695, -0.1672680378, 0.0492885932, 0.2091515362, -0.0854983851, -0.1371032149, 0.1484621167, 0.0686330050, 0.1239499152, -0.1401354373, 0.0643971637, -0.1249999627, -0.1872140765, -0.0015077119, -0.0839018375, 0.1769434214, -0.1262811720, 0.0803939030, -0.0640770197, 0.1093198732, 0.2257117182, 0.1089816317, 0.0168517027, -0.2236134559, 0.0754595175, 0.2260324210, 0.2059326172, -0.0947540402, -0.2317467034, 0.0370178744, -0.1230125427, 0.2384424061, -0.1697772443, -0.3167226613, -0.2924076319, -0.5586245656, -0.2075957209, 0.1365865022, -0.1387888044, 0.0577956662, -0.1423252970, 0.2243603766, -0.3030981421, 0.0494771227, -0.0216696318, -0.2453879863, -0.3916456401, -0.2707881629, -0.2450853288, 0.3512414098, -0.0375599153, 0.2848249674, 0.0232089758, 0.2722148597, 0.0965055972, 0.0991527215, -0.1780548394, -0.2077887803, -0.2567544580, -0.2636715770, 0.1637904793, 0.0959069356, 0.1131510660, 0.2361153215, 0.0645378679, -0.2047199458, -0.0656618029, -0.3897379041, -0.1602429450, -0.0168218650, 0.2229394019, -0.0807033330, -0.2097381204, 0.1097518057, -0.2169723660, -0.2135753483, -0.1422446817, -0.3182858527, -0.0935119167, -0.0300832931, -0.1716887951, 0.1084474027, -0.2981821597, -0.3710857332, 0.2470253706, 0.0593431927, -0.1628849506, -0.1971448213, 0.0511052832, 0.0288393106, 0.1830881536, -0.2736124992, -0.1380794048, -0.0941535830, 0.1099851802, -0.0286438651, 0.0992017835, 0.1345140934, -0.1710056663, -0.1030001938, 0.0364651419, 0.2399871051, -0.1923348159, -0.0522844829, 0.2065301985, -0.0552908592, -0.2539460957, -0.2432547808, -0.2341582775, 0.2287909985, -0.0479851142, -0.1324789822, 0.1385164559, -0.2653090358, -0.1891653389, -0.2449956089, 0.2467537224, -0.1230436340, -0.2281657606, 0.0687748566, 0.2219874263, -0.0170833487, -0.1355780810, -0.0392666496, 0.2546319366, 0.0331603847, -0.2083575130, 0.0677342340, -0.0465622321, -0.1303769797, -0.1725273281, -0.0640184507, 0.2392737418, 0.2221721709, -0.0501704216, -0.2036807984, 0.2081561834, -0.3399420679, -0.4389722347, 0.1228981912, -0.1507378221, 0.1780434996, 0.1617996544, 0.1199356616, -0.0056456383, -0.1728968024, 0.0154626286, 0.2508366406, 0.3033368886, 0.2036090940, -0.0657731742, 0.2651989162, -0.2199531198, 0.2149314433, -0.1477779448, 0.1604989916, -0.2499694228, -0.2920679450, -0.1780721843, 0.1921953857, 0.1352082044, -0.4848225415, -0.2286416590, -0.1055190116, -0.1963296831, 0.0967644751, -0.1856573671, -0.1003421620, -0.3950540423, -0.4357783198, -0.0678007826, 0.0689110309, -0.4395726919, 0.1179809645, -0.0632659569, -0.0853841230, -0.4736947119, 0.0584694445, 0.2234409302, -0.2188163996, 0.0444260240, -0.0780320093, -0.2384828180, -0.3750986159, -0.2164840549, -0.3110639453, -0.0981289744, -0.1378884763, -0.2711067200, -0.2733409405, 0.0697377175, -0.2530426681, -0.2256118506, -0.1060858145, 0.1233808696, 0.1456300914, 0.0507880598, 0.2226062268, -0.0508249179, -0.2257083505, 0.0132075362, 0.2196048796, -0.0093398998, -0.0793268755, -0.1251794398, -0.0674465597, 0.2047335953, -0.0636462718, -0.0845904872, -0.1826683581, 0.2255371660, -0.1210710853, -0.0305887256, -0.0648743957, -0.1836670339, -0.1533493847, 0.1248303577, 0.1512927860, -0.1159576252, -0.1462457776, -0.1556974649, 0.1406421512, 0.1269658208, 0.0628039837, -0.2842552364, -0.2710686028, 0.1445927024, 0.2102889568, -0.0687517375, 0.1516646296, -0.1057329699, -0.2346164733, -0.2653653324, -0.0852791891, -0.2761730254, -0.2059543133, -0.2254971415, 0.0390502401, 0.0524730049, 0.1661960185, -0.2102081329, 0.2164739966, -0.1521069109, -0.0866678804, 0.3196056187, -0.2202435583, 0.0326773077, -0.5197302699, -0.0349569693, 0.1743752956, 0.1532651782, -0.0661220476, 0.2298205793, -0.6152079105, -0.4764273167, -0.3421233594, -0.4803944826, -0.0233466607, 0.1604669541, -0.2533465326, -0.0350875519, -0.4193093479, -0.3479206860, -0.5001389980, -0.1075047925, -0.1594325453, -0.3386856318, 0.2436269820, 0.1261725128, -0.1797168106, -0.0250883568, 0.1686114371, 0.3332002163, -0.0232501402, 0.0355744548, -0.1645468026, 0.1550412923, 0.2419452518, 0.1178820878, 0.1021875441, 0.3132672012, -0.0319937877, -0.1613259912, -0.2225965708, -0.1719567031, 0.2587489486, -0.2201073170, -0.2671797872, 0.1470560431, -0.3171996772, -0.2247004360, 0.1566645056, -0.0372697487, -0.2870075703, -0.1779990643, -0.0723576471, -0.3778052926, 0.2219161838, -0.1168451011, 0.0192268360, -0.1221640185, 0.1766465157, 0.1178358421, -0.1340974420, -0.3621604443, 0.2372687161, 0.1857221276, 0.0977501273, 0.0497200564, 0.0491531678, 0.0213867985, -0.0827023163, -0.1958333552, -0.1825773716, 0.0435366556, -0.3262989819, 0.2951705456, -0.2658337355, 0.0850428417, 0.1520735025, -0.0249950327, -0.5772231817, 0.1947350800, -0.1767894328, 0.1715910584, -0.1750143766, 0.0649578720, 0.2304200083, -0.4784432650, -0.4923312068, 0.2037066370, -0.2734968066, -0.5110200047, 0.2133143693, -0.4366497695, -0.1830046177, -0.1137758121, -0.1003953442, 0.2006476223, -0.3620945215, 0.1482868493, 0.0640984997, -0.0395707190, 0.0841448382, -0.0343939103, -0.0339491479, 0.1909929663, 0.2488635927, -0.1370617449, 0.1046935469, -0.2212474644, -0.3483313918, 0.0382485688, 0.1695941240, -0.0711270124, -0.0300324988, -0.0003083123, -0.3750855625, 0.1029890776, -0.3967431486, -0.5453410745, 0.0650172979, -0.1340340823, 0.0670646951, 0.1507926285, -0.3843932450, -0.0581107624, 0.1560063362, -0.2694822252, -0.4456175566, 0.1122655496, 0.1209976599, -0.0355735011, -0.4068110883, -0.2870410085, 0.0334560387, -0.0161097292, 0.1411663145, 0.0227635391, 0.0102229491, -0.0868863910, 0.0228106193, -0.5685985088, -0.3025313020, 0.0904294923, -0.1600781679, 0.1245044395, -0.0262778960, 0.1783612221, -0.1927791089, 0.1854582131, 0.1661235541, -0.0033276039, -0.0352960303, 0.2296284437, -0.0914069340, 0.0507210009, -0.3890061080, -0.2376385331, -0.3657307923, -0.0839053541, -0.0268482976, -0.0620446727, 0.1865494847, 0.1812854707, -0.1028950214, 0.0182597749, 0.0440708585, 0.1359264553, -0.2926987112, 0.2347368002, 0.0039167176, 0.1305436045, -0.4099901021, -0.0609451681, 0.1855721474, -0.3760360479, 0.2527642250, 0.0479055382, 0.1526947021, -0.1175938994, 0.1131947041, 0.1960965395, 0.3335596025, 0.2086695135, -0.3288946450, -0.0013647017, -0.2300260812, 0.0279036798, 0.1684963852, -0.3955503106, -0.3100968301, -0.3421076536, 0.0419792719, 0.1439431012, 0.0348518081, 0.1278273761, -0.1363710463, 0.1269868761, 0.1231448129, -0.1310315728, -0.3920933902, -0.1234531105, 0.2024845630, -0.5370102525, 0.2530570924, 0.1778122485, 0.0842670277, 0.2065245956, 0.0921862870, 0.3906892538, 0.2284567505, 0.2037931085, -0.3217818439, -0.2838056982, -0.4157033563, -0.6259292960, -0.1327760965, -0.1736883372, 0.0544877425, -0.0297486838, -0.2440620065, -0.2229241878, 0.1740908325, 0.1544334292, -0.0938995034, -0.1711672992, 0.0853535533, -0.4275982082, -0.3174520135, 0.1929083914, 0.1756271273, 0.0202649832, 0.0369606204, -0.1468946189, 0.1178204343, -0.3315195739, 0.0364173837, 0.3293499649, 0.1774551272, -0.3950276673, 0.2010296583, 0.1682646275, 0.3256465793, 0.1056383699, -0.4892883897, -0.1550097615, -0.1544808447, -0.0241426714, 0.1936681420, -0.1702070236, -0.2269088626, 0.0857897177, 0.2234818339, -0.1805324852, 0.1423317045, 0.1114321724, -0.1135854498, -0.0875904858, 0.0887307450, -0.2726936638, 0.2182371020, -0.2420978099, -0.2626083195, 0.0009533276, -0.1617976427, 0.1106507704, -0.1661449075, 0.0509091355, -0.0786540210, 0.1799144149, -0.3896762431, 0.1985218227, -0.6062819362, -0.0731000975, -0.0162602030, -0.0180483181, -0.0853307247, 0.1367069632, -0.2521046400, 0.0810124278, -0.2070509940, -0.1634958535, 0.0398062915, 0.0666037053, -0.3093631268, -0.1310087293, 0.0388496257, -0.3024923801, -0.1688299179, 0.1531911045, -0.0355858728, -0.2971443534, -0.3522240520, 0.0915105194, -0.3018129766, -0.2800722718, -0.2780148387, 0.0969733223, 0.0290313717, -0.2454643548, -0.0617970377, 0.0760644227, 0.0840379149, -0.0222597104, -0.2386386842, -0.2274041027, -0.2662638426, 0.1371158063, -0.3956103921, -0.0723240972, -0.1430002749, -0.0708084106, -0.2488240004, -0.2335002422, -0.3178275824, 0.0929061696, 0.0642015263, -0.3343309462, -0.0762268677, -0.3878208101, 0.1558726281, 0.3037756085, 0.1460436285, -0.0938778147, -0.0503331833, -0.5430457592, -0.7632257342, -0.3055507541, -0.1206904501, -0.5170364976, -0.3490669131, -0.2689883113, -0.3020422459, -0.1597497165, -0.2158149332, 0.1011118516, -0.0179170202, 0.1843555719, -0.1703668684, 0.2535287738, 0.2528715134, 0.1940212250, 0.1401312053, 0.0132732214, 0.0433187559, -0.3358795345, -0.0884493664, 0.2834860981, 0.0243271943, 0.0143908532, 0.3535234034, 0.3615832031, -0.1245172173, -0.0180498958, -0.0816738829, -0.0276897848, -0.2438003719, 0.0130699258, 0.2256599963, 0.2237172425, -0.1654492468, 0.1790134311, 0.2709627748, -0.1974524707};
#endif

#endif
