//Numpy array shape [32, 52]
//Min -0.642543137074
//Max 0.392521768808
//Number of zeros 0

#ifndef W11_H_
#define W11_H_

#ifndef __SYNTHESIS__
model_default_t w11[1664];
#else
model_default_t w11[1664] = {-0.1544765830, 0.0224715024, 0.2130029351, 0.1356639266, -0.4028895497, -0.4492469728, -0.3312051892, -0.1802752763, -0.1833172888, 0.1044334769, -0.0216444414, -0.3645533621, 0.1443257034, 0.0938898176, -0.0883965939, -0.5209017992, 0.2749242187, 0.3153512478, 0.0466062985, -0.0200597700, -0.2654296756, 0.2143718153, 0.0018225318, -0.2908894420, -0.1656204313, 0.2337568700, 0.2103372365, 0.0175259337, -0.2633526027, 0.0492995717, -0.2781442702, 0.0684751198, -0.0251224227, 0.0889423564, 0.1082813367, -0.0303793959, 0.1114622578, -0.2097173035, 0.2532672584, 0.2879092693, -0.0202638581, -0.0592136644, -0.1487032771, 0.1777691990, 0.1337684691, 0.0354250409, 0.1946244538, 0.1059627309, -0.2489007413, 0.2439040691, 0.0930075124, -0.2225787789, 0.1639478952, -0.1384094954, 0.0297322311, -0.0095096370, 0.1717609018, 0.0380615778, -0.0173458159, -0.1731010824, 0.2512373924, -0.0675712526, 0.1520193815, -0.1074399278, 0.1563356817, -0.1049019545, 0.1702778339, 0.0352358781, -0.0553119332, 0.0938977227, 0.2037401497, 0.0129340393, 0.2053690255, -0.2169484794, 0.2444482893, 0.0432478264, 0.2543989122, -0.0751629248, 0.0045040492, -0.2708796263, 0.1339044273, -0.1010043919, -0.0535573028, 0.0070660133, -0.2406050116, -0.2372211218, 0.0871554539, -0.0776559561, 0.0618288852, 0.0536279678, 0.0422220640, 0.0802744478, 0.2324108183, 0.1549333036, 0.1619900018, -0.2417608202, -0.2456535995, -0.2309038043, 0.1556890756, 0.2566368580, -0.0055288807, 0.2586890757, 0.0944424421, 0.2049546093, 0.1509392262, 0.1992361546, 0.1739491075, -0.2175739259, 0.2570634186, -0.0259790681, -0.1486175358, -0.1177962348, -0.0275338460, -0.0772185102, -0.1493923366, 0.0687519014, 0.2257510275, -0.2685381770, 0.1448941082, 0.2030817866, -0.0324670784, 0.2127918452, 0.2097796053, -0.1123758852, -0.2651425600, 0.1718965620, 0.1900945008, 0.0988143906, -0.2218071520, 0.1254087538, 0.1181605309, 0.1573356390, 0.1616364121, -0.2277254909, -0.1594277769, 0.0403928310, -0.0994755551, 0.1838807464, -0.0658100173, -0.1378816962, 0.1266512275, 0.0638235360, 0.0336305536, 0.0766818225, -0.0099084806, -0.0979860947, -0.2031210512, -0.2437480092, 0.1925853491, -0.1350846440, 0.2149601877, 0.2387475669, 0.0935608894, -0.1746342033, -0.1256097704, -0.1169972643, -0.2059103400, 0.0473328792, -0.2306493819, 0.1004199684, -0.0266936962, -0.2736684382, -0.2303002179, -0.5499252677, -0.0424088798, -0.2149178386, 0.1813880652, 0.2656787634, -0.4494246840, -0.4596498311, -0.4082339406, 0.0360222384, -0.0861868113, -0.1490890086, -0.4648930430, 0.0890293494, -0.4219622314, -0.2264498621, -0.1833321154, 0.0540384389, 0.0756176487, -0.2596018910, -0.0508125983, 0.0410859846, 0.1141087189, -0.2425480187, 0.0176106691, 0.1583772600, 0.2809442282, -0.1399136335, -0.0422749445, -0.0310936812, 0.0656091869, -0.4779520631, -0.1826878488, 0.2459451258, 0.2779602110, 0.2188739181, 0.0225570854, 0.1355232298, -0.1619164348, 0.0812040046, -0.0994528085, 0.0105640544, 0.1351299882, 0.0121285096, 0.1906299442, 0.1658383608, 0.0944744498, 0.1389195770, -0.1354435533, 0.0416207314, -0.2860565186, -0.2188073248, -0.1968270242, 0.0038569078, -0.2914749980, -0.0899694189, -0.0069600614, -0.4318029284, 0.0989445150, -0.1723628491, -0.3424250782, 0.1483383775, -0.1551809460, 0.0436907336, -0.3295869231, -0.1907527298, 0.1872611344, -0.4435380995, -0.0430324525, -0.0961259753, 0.0963451788, 0.1861990541, 0.1454538405, 0.0589105189, -0.3223197460, -0.2776583433, -0.2434850037, 0.0851527378, -0.2866086364, -0.2154530585, -0.4138666093, 0.0969471335, -0.3243182600, 0.1122782826, -0.5918312073, 0.0097484803, 0.2623780072, -0.0830884501, 0.1757001430, -0.1531317979, 0.3102441132, 0.2337083966, -0.3205560744, 0.1239694729, 0.2328172326, -0.1461651623, 0.0437375978, 0.2365959734, 0.0451426059, -0.0218442511, 0.0507372506, -0.1802016348, 0.2526747882, 0.0625508949, 0.1170082167, -0.0661413819, 0.1738618314, -0.3470908403, -0.2551456094, -0.2396714687, -0.3284442723, -0.2862108350, -0.3667744100, -0.3284166455, -0.5526165962, -0.4581503868, 0.0901134983, -0.4632667899, 0.0536028184, 0.0591061041, 0.0278080758, 0.1122580096, -0.0914891884, 0.0600104034, -0.1105907112, 0.1103567407, 0.2861561775, 0.1957558990, 0.2647423744, -0.0172725450, -0.3232990801, -0.0150862401, 0.0021310011, -0.0226061046, -0.3094215095, -0.3542943299, -0.3814239502, 0.0260733832, 0.1731109470, 0.0412361100, -0.0394966900, -0.0574556217, 0.0715390220, 0.2721750140, 0.2918439209, -0.1492680162, -0.1394215077, 0.0429161265, -0.1056118906, 0.0031429608, 0.2567488849, 0.1129779071, 0.0899764225, 0.1908950061, -0.0682259127, -0.0120555712, -0.2701512575, -0.2392521650, -0.0106191207, -0.1748743057, 0.0046272441, 0.0994268060, 0.1023486331, -0.2137651891, -0.2599497139, -0.2257129252, -0.2500801384, -0.1261217296, -0.2273932993, 0.0631557927, 0.0178825371, 0.0877127051, 0.0373941213, 0.0491049737, -0.1847752780, 0.1876934916, 0.0215380993, 0.1955946684, -0.2418130487, 0.2436763197, -0.0301692579, -0.1039487123, -0.1680620909, 0.1701261997, 0.2330065668, -0.0213511121, 0.1779158711, -0.1245450675, -0.2121662498, -0.1732078791, 0.0749582648, -0.1254938543, -0.1265665889, 0.1291699857, 0.2037802786, -0.1743366420, 0.1632862389, -0.1337999701, -0.1173380166, 0.1282185614, -0.2552720010, -0.0241116323, 0.0660959408, -0.3445868790, -0.2265132070, -0.3770979643, -0.0602398105, -0.4967614412, -0.6420176029, -0.0459324121, 0.0473578088, -0.0980992094, -0.2812331617, -0.1598117948, 0.0874057338, -0.2915897965, -0.1622471362, -0.1726306677, 0.1463247389, -0.1070610657, 0.0655342862, -0.1898723394, 0.2323889881, -0.1675726771, -0.2416309565, -0.0197953470, -0.0597334616, 0.0230494142, -0.3807526827, 0.2014871836, -0.0013899831, 0.1904030740, 0.1149334311, 0.0841849670, 0.1740768105, 0.2675557137, 0.1940354854, 0.2534006238, 0.2542326748, 0.2357003093, -0.3307026923, 0.0071437499, -0.3213448524, 0.2027370632, 0.0843182877, -0.1305737942, 0.0425136946, -0.1057671532, 0.1044444293, -0.0677168965, -0.2091175616, 0.1932106465, 0.1724974215, 0.3039266467, 0.0108828712, 0.0974525064, 0.2429033816, 0.0706057996, -0.0624607466, -0.2524215877, 0.1276428252, 0.0717787668, 0.2575455606, -0.1018634290, 0.1139968485, -0.1848924309, 0.0729945600, -0.1811284274, 0.0097790770, -0.1904928386, -0.2311528921, 0.1484284848, 0.0752476826, -0.1051135734, -0.1190124527, 0.0184461642, 0.1120380983, -0.2224086225, -0.2690322995, 0.2258953005, -0.0977156982, 0.2118477225, 0.2421223521, -0.2308784723, -0.1587117165, 0.0536215268, 0.2297900915, 0.2049647272, -0.0752420053, -0.1432169676, 0.0055690389, 0.0639607534, 0.1308158338, 0.2418426573, -0.2623781264, 0.1021978110, 0.1848013550, 0.1439734846, 0.1274424642, 0.1882385015, 0.1460735798, 0.1249084249, -0.1882178485, -0.1551672369, 0.1128778681, -0.0935236663, 0.0080945594, -0.1143365651, -0.1538968384, 0.2123333067, -0.3521515429, -0.3934282064, -0.0569566339, -0.3495770395, -0.0871693939, -0.3363368809, -0.0406677537, -0.0571267866, 0.3080382645, -0.0418258198, -0.1228666157, 0.1297262758, 0.0996076688, 0.1135827750, 0.2248126566, -0.0424384885, 0.0262695439, 0.2263541371, -0.0869454667, 0.0578976162, 0.1832155287, -0.1797379255, 0.0583948456, 0.0245640539, 0.1166980043, -0.1944888234, 0.2417539209, -0.1180862635, 0.0699784234, -0.0431334302, -0.4200243652, -0.1005789936, -0.4218437374, -0.2244360149, -0.2479301840, -0.2631601691, 0.0136120347, -0.1558112800, -0.2994863987, 0.0631174073, 0.2206154913, -0.2567555606, 0.0174786858, 0.0953435451, 0.2961462438, -0.2717442513, -0.0286745969, 0.0193766635, -0.0280379560, 0.0321910754, -0.1698558182, 0.1338197142, -0.1827886403, -0.1551635265, 0.2100478411, 0.0715044960, 0.0227130968, -0.0054669785, 0.1176614091, -0.1900508255, 0.2543294728, 0.0081291366, -0.1000468731, -0.1298273504, 0.1105416343, 0.2371006459, -0.1683022082, 0.0916662440, 0.2435096949, -0.2491272837, 0.0439392850, 0.0645295531, -0.0911569074, -0.2532710731, 0.2093092501, -0.0101534007, -0.2369067371, -0.1301666349, 0.0096214991, -0.2328838557, -0.1463378221, 0.1292267293, 0.1807507724, 0.1382210702, 0.0498361997, -0.1911961734, -0.0342392772, 0.0146912299, 0.0391822979, 0.0097998399, -0.1197084785, -0.0586729608, 0.1709470898, 0.1424000710, -0.2145858854, 0.1835530996, 0.1195802391, 0.1211031750, -0.0232784133, 0.0264060255, -0.0221463293, -0.1457732916, -0.0598597378, 0.1169640869, -0.0087824902, -0.1014936641, 0.0068319310, 0.0777879953, 0.0395963565, -0.3205010295, 0.1938100606, -0.0893801227, 0.1344332546, 0.0103006279, 0.1626392901, 0.1059831902, -0.0233254898, 0.2074510157, -0.1390198171, -0.2010877579, -0.2880190909, -0.2682255805, -0.0576743297, -0.0042794086, 0.1833162457, -0.2030170709, 0.1074369550, -0.0016669305, 0.1073609665, -0.2372236699, 0.2082813829, 0.0940704718, 0.1126875803, 0.1001984701, -0.0411163643, -0.1364226490, 0.1191644594, 0.1046516597, 0.0600965396, -0.0546503514, -0.2037044764, -0.1465153694, -0.0607210957, 0.1777444929, -0.2162272185, 0.1545891017, 0.0955986604, 0.1747821122, 0.0509251505, -0.0666376576, -0.3027231395, -0.0568761975, 0.0086556980, -0.2521202564, -0.2086463422, 0.1619224548, -0.1042032391, 0.1091760844, 0.1845053285, -0.2670241892, -0.1824273914, -0.0492821708, -0.0947854891, 0.0838952512, -0.2030201405, 0.1022531316, 0.0420624800, -0.1717227548, -0.1337693483, 0.0689550415, -0.2371869832, -0.0298695061, 0.0622339584, 0.1732019931, -0.0435869843, 0.0985727385, -0.0789975002, -0.0344452709, -0.0239503477, -0.0265488494, -0.0131913777, 0.1628744453, -0.2169483602, 0.0840942636, -0.0832826346, -0.2311483026, -0.0813950002, -0.2202907652, 0.2444525063, 0.1308196783, -0.2622335553, 0.1056046560, -0.2296782285, -0.1522282213, -0.1952375919, -0.2194621563, -0.1055701450, 0.0413398109, -0.2545033097, -0.2384288162, 0.1017175764, -0.0692366734, -0.1542126238, -0.2069466561, -0.4226572812, -0.2012414783, -0.2659670115, 0.0708012208, -0.1572163701, -0.0804564282, 0.2546537519, 0.3532744348, 0.2313034236, 0.2179554552, 0.1216530055, 0.1848730147, 0.0801819339, -0.2403582931, 0.1811147034, -0.2005777806, -0.0117575275, -0.0766495615, 0.1619576961, -0.2289156765, -0.4330815971, -0.3252216578, -0.0319112055, -0.3461792767, -0.1458152384, -0.0895823836, 0.1530251205, -0.0987089649, -0.4363046587, 0.1974988878, -0.0399137139, 0.0113459248, -0.1975567639, -0.4667608738, -0.0892995968, -0.3958134353, 0.2603198290, 0.2495369315, 0.0511052534, -0.0130391326, 0.2844888568, 0.3002330661, -0.0047249855, -0.2468027025, 0.1349255592, -0.3141414821, 0.3281124234, -0.1957610846, -0.0589936338, 0.1466500014, -0.1812588573, 0.0461031608, 0.2649604976, 0.3103840947, 0.3403657675, -0.1844296604, 0.0892399624, -0.3383516967, -0.3245729208, -0.4106709659, -0.3985160887, -0.4298651218, -0.3663232028, -0.3450350165, -0.2110248357, -0.0852816328, 0.1259367615, 0.0028800855, -0.0630707592, 0.0003621740, -0.1555988640, 0.0349900983, 0.0120007209, 0.0741321370, -0.0874531791, -0.0972928256, 0.2044337094, -0.0184173901, 0.1555976272, 0.2052976191, 0.0350223780, 0.2394701838, 0.1283265799, 0.2344254255, 0.0533939376, -0.0620497204, 0.3418482542, 0.1277929544, -0.2862073183, -0.1983633786, 0.1570349187, 0.0849827752, -0.1120848879, -0.1506161541, -0.1540927887, -0.3750315011, -0.3261134624, -0.2625121176, -0.3177853525, 0.1970345825, -0.3434277475, -0.2947347164, -0.1746835709, -0.1674527675, 0.1216153875, -0.3049161434, 0.1662503928, -0.0363332741, 0.1151439250, -0.0051614898, 0.2490133047, 0.2984272540, -0.1087230816, 0.1650259346, 0.0374021567, 0.1638873070, -0.1511979252, 0.1992225498, 0.1870546341, 0.1123531908, 0.0462112352, 0.1190729737, 0.1649273038, 0.0953017920, 0.1715895981, 0.2451473027, -0.0574621893, 0.3925217688, -0.0158927999, 0.1623882651, -0.0143725350, -0.4279178381, 0.3289037943, -0.2774607539, -0.4025621116, -0.3534442484, 0.0985204577, -0.2566403747, 0.0200754721, 0.1329602152, -0.1932411492, -0.0160348210, 0.1920816302, -0.4587791562, -0.1715081632, 0.1536003649, 0.0651521236, -0.1337085068, -0.2744784653, 0.1754643470, -0.1015633717, 0.2258704156, 0.2325627655, -0.1690574437, -0.0381428823, -0.2524611652, 0.3265926540, 0.1605448276, 0.3332813978, 0.1684735864, -0.2886803746, 0.1318974793, 0.1428417563, -0.2128416300, -0.2405177951, 0.0844880715, -0.3982177973, -0.0478359684, -0.0499148443, 0.2811263204, 0.2322092503, -0.0705580562, 0.1020411029, -0.3518871665, -0.2800559402, 0.0396878719, 0.2022668421, -0.1491675526, 0.2034254372, -0.2382477522, -0.1858396977, -0.2317351848, -0.2742652595, -0.3490536511, 0.0030556426, -0.1932380944, 0.0072864527, 0.0922226831, -0.0097181890, -0.0147224404, 0.0845971480, 0.0982836187, -0.1610461771, -0.1548122317, -0.0059946999, -0.2515537143, -0.0188741479, 0.0219559763, 0.3639330268, 0.2496449798, 0.1706527025, -0.0261524506, 0.1860299557, 0.0550163873, 0.0841768384, 0.2458245903, -0.0065564187, 0.1145069897, -0.0987349004, 0.2393842787, 0.2353963107, -0.0327957980, -0.1366122067, 0.0530729555, -0.0377689973, 0.2220736146, -0.0243197978, -0.1340266317, -0.2560275197, -0.2124756724, -0.2474959940, 0.1967758387, 0.0613415278, 0.0726908073, -0.2707660496, -0.1208662316, -0.2447751313, -0.2204536498, 0.1713910997, -0.0828845426, 0.1386246979, -0.0385712907, 0.0172078721, 0.1152057052, 0.1649426222, 0.0986693501, -0.2006202191, -0.2735573053, 0.0573651753, 0.0463526957, 0.1276977807, 0.0718819350, -0.0698289946, -0.0548451766, 0.0803517029, -0.2440583706, -0.0619951226, -0.1364938021, 0.1225980520, -0.1537268907, -0.2302158177, -0.1866354197, -0.0991186574, 0.0119001837, 0.0941673368, -0.1319322735, -0.2055745721, -0.1361678094, -0.1265694201, 0.1010637805, 0.2171285897, -0.0593998209, -0.2387675941, 0.0106686857, -0.2519010305, 0.2209476680, 0.0131060686, 0.0348495692, -0.0136822090, 0.0714595839, 0.1448871642, 0.1490224302, 0.0969374180, -0.0211410783, 0.1011950374, 0.1007134914, 0.0282679964, -0.0357869528, 0.0638343543, 0.1568869203, 0.2560797036, 0.0739605129, 0.2059727013, 0.0439992025, 0.1804305911, -0.0559686981, 0.0213358868, 0.1781802475, 0.0878162012, -0.1486697495, 0.0375246778, 0.1477262080, -0.0661528707, -0.0159626100, -0.0387272537, 0.0005166609, 0.1109420583, -0.0571415052, 0.1206418127, 0.0071646599, -0.0906131789, 0.0394727550, -0.1244042739, -0.1010745987, 0.0902290270, 0.2220740318, -0.0515251793, -0.2249539196, -0.0189648904, -0.0028263323, 0.1573746204, 0.0540404245, 0.1414386928, 0.2012278885, -0.2324748784, 0.1595681608, 0.1212348938, -0.0731516480, -0.0919260383, 0.2492743582, 0.1552127749, -0.1140629202, -0.2438509613, -0.2513702810, 0.1307512969, 0.1100006700, -0.1592034101, 0.1411963403, -0.0877590105, -0.1931195408, -0.2203781009, 0.2472352684, 0.1227661744, -0.2073889375, 0.2564254105, 0.0742883161, -0.0192134622, -0.1963570714, -0.1398983002, -0.1436417997, 0.1503894478, 0.2201872170, -0.0172632951, -0.1649449766, 0.0101515315, -0.0540139526, -0.1276205778, -0.1860216856, 0.0750330761, 0.1278254986, -0.0182173867, 0.1477233618, 0.1992472112, 0.1984414160, -0.1509517878, -0.1795463562, -0.2075487822, -0.2506034076, -0.2552317381, -0.1632610708, 0.0505076349, -0.0120855570, -0.1310112178, -0.2200929374, -0.4272172749, 0.0331759900, 0.0359659828, -0.1225632131, 0.0379732624, 0.2471674830, 0.0064853854, 0.1187104881, -0.1272212714, 0.1198264211, 0.1580764651, -0.0588041991, -0.3083141148, -0.1219444871, -0.1535433233, -0.1495141536, 0.0079669841, 0.0894979388, -0.0284137335, 0.2224551588, -0.1166488901, -0.2962717712, -0.2656923234, -0.1174001023, 0.0137928780, -0.2099583894, 0.0687567219, -0.2658179104, 0.1310932487, -0.3925281167, -0.2074102759, -0.4012160599, -0.2083241642, 0.3033820689, -0.0988037884, 0.2399923801, 0.0568309911, -0.0389611684, 0.2154941708, -0.0058178622, -0.1711987853, -0.3026028275, -0.2110646218, 0.0317157991, -0.4000409842, -0.0640273541, -0.2304676473, -0.1568967551, -0.0845779926, -0.4936307371, 0.0816735178, 0.0452370271, 0.0062969779, -0.0159107912, -0.2496932894, 0.1667890400, 0.2284388244, -0.2506206334, -0.0731099471, 0.2012588382, -0.1924104989, 0.0240165219, -0.1700719148, -0.1991087645, -0.0529714972, 0.0341788679, -0.1678466201, -0.1384692490, 0.2104096562, -0.0144514963, -0.0914295763, -0.1601623297, -0.1410784274, 0.1396483779, 0.2113533020, -0.0767231137, 0.1741434783, -0.0953695178, -0.2263091952, -0.1353187859, -0.1330747306, -0.2565807402, 0.2576136589, 0.1691872925, -0.1529487967, -0.1881307364, -0.0957724974, 0.2160819173, -0.0721368119, -0.1098104045, -0.1739104688, 0.2343568504, -0.0090392120, 0.1149078235, -0.0605444983, -0.2081517875, -0.0991742164, 0.0338492803, 0.1136668175, -0.0624547005, -0.0130184535, 0.2535631359, -0.0379715525, 0.1076508686, -0.2502424121, -0.0446432866, -0.0338367298, 0.1823348254, 0.2531434596, -0.0915005803, -0.0457705408, -0.1742404252, 0.0270647313, -0.2430974543, 0.1713636220, -0.0787181035, -0.0491170399, -0.0516307130, -0.0050110696, 0.0079808822, -0.1129792109, -0.1470984370, 0.1679184139, 0.0353620201, -0.1538823545, 0.1214096621, -0.2573298514, -0.2062255293, 0.1434256285, -0.1374396831, -0.0670769289, 0.1140450165, 0.2116108686, -0.1423831880, -0.0337485895, 0.0838611349, 0.2578081787, 0.0239190981, 0.0220491961, -0.0411768183, -0.0237032790, 0.2197243571, -0.2464973330, -0.1382870525, -0.2601979375, -0.0635525435, -0.0524251871, -0.2022439986, -0.1360069662, 0.0862356797, 0.0220312085, -0.1527242213, -0.0530255660, 0.2349713743, -0.1477697939, -0.1776496768, -0.0919796750, -0.1057081297, -0.1485688388, -0.3348088264, 0.1046339869, 0.2570163012, 0.0203606691, -0.2844946980, -0.1164470538, -0.2515875399, 0.0199786816, -0.2296867520, 0.2259156406, 0.1151074544, 0.2263683826, 0.1755935252, 0.1137508303, 0.1913081259, 0.1414245516, 0.1849750280, 0.2762214243, 0.0748107731, 0.2825843692, -0.1085844189, -0.1651886106, 0.1222677082, 0.1566414237, 0.0265322421, -0.3600267172, -0.2196676880, 0.1126761213, -0.1736799330, -0.2652256489, 0.0423471071, -0.2538273931, -0.2905685604, 0.1821378917, 0.3470492065, 0.2585695386, -0.4557465911, -0.2600702643, 0.1193486899, -0.1240904927, -0.5356601477, -0.0633950308, 0.0101477494, -0.0390474647, -0.4580106735, -0.2504106462, -0.1135691479, -0.4966237545, -0.3195421994, -0.2139313817, -0.2306917608, 0.0475867093, 0.1175031513, 0.0602117665, 0.1717795432, -0.1334819794, -0.2910187840, 0.1047496498, 0.0166502912, 0.1142743304, 0.2163272649, -0.1784953475, 0.1155247688, 0.2006148100, -0.2177131921, 0.0672664344, 0.0089450888, -0.2689706087, 0.1548905522, -0.1699683964, 0.0830699801, -0.2175391465, -0.1315555423, -0.0945223421, 0.2458234280, 0.0932124928, 0.1658781469, -0.2272667438, 0.1260192990, 0.2457777709, -0.1966249794, -0.1143780425, 0.2595613301, 0.1897015721, 0.1708736569, -0.2595492303, 0.2338545620, 0.1256029457, 0.2184355557, 0.1201782748, 0.0940920711, -0.2404247373, -0.1609134525, 0.2025444657, -0.2314642370, -0.1364213973, 0.2147440612, -0.2065148950, 0.0907199830, -0.0920146033, 0.1759858578, 0.2055968791, 0.1177700609, -0.1959814429, 0.2540532053, -0.0599155948, -0.3957060874, -0.0942979008, 0.2398416400, -0.2536703646, -0.2546794713, -0.6066486835, 0.1027047634, -0.4225604832, -0.4364641905, -0.0253993813, -0.1405900121, -0.2732568979, -0.1809434593, -0.4189443588, -0.4625665843, 0.1343139559, -0.0346704014, 0.0291955769, 0.2299377769, 0.2922012210, -0.0462941416, 0.1693966091, 0.0652716532, 0.1366980821, 0.0802096054, -0.2709276378, 0.0787807927, 0.1163250431, 0.0466168225, -0.2702948749, 0.1618244648, -0.2774612606, -0.2348878235, -0.2212243229, 0.2272125334, -0.2725822330, -0.3016953468, -0.0644042119, -0.0074011683, 0.0847558603, -0.1513375044, -0.3077176809, -0.0879868045, -0.1333999783, 0.0090577481, -0.0949279591, 0.0228373911, 0.0365183800, -0.0288798381, 0.0433119759, 0.1015004292, -0.1849372834, 0.2555418015, -0.2502933741, 0.1187452748, -0.2284319252, 0.1501359493, 0.1320435256, 0.0629705042, -0.2574630678, 0.2510971129, -0.1390039027, 0.0161489639, 0.0830016360, 0.2013996243, -0.1551258564, -0.1452119797, 0.0029908463, -0.1719408035, -0.0086375317, -0.1464268714, -0.1969680786, 0.0689963549, -0.0097010564, 0.0462211333, -0.0412394516, 0.1265996546, -0.2201477140, -0.0233414602, 0.0896682069, 0.2057906389, -0.0972553343, -0.1549250335, -0.1774722785, -0.0773627460, -0.0711217895, -0.1562187076, -0.0816264600, -0.1615273952, -0.1862022728, -0.1531912684, -0.2262362391, 0.0777646303, -0.0021998596, -0.2560151815, -0.0183062125, -0.1120080948, -0.0762470290, 0.2378092706, 0.0630154759, -0.0210394133, 0.0038041011, -0.1633770913, -0.1705088913, -0.0611390844, -0.2056875527, -0.4861377180, -0.2001478225, -0.0095812762, -0.2527584434, 0.0432366580, -0.3345845342, -0.1608815193, -0.3572625816, -0.5093891621, -0.4170179963, 0.1879872531, 0.0782019123, -0.2464099824, -0.4655431509, -0.3125238717, 0.0863414854, -0.1738105714, 0.0901763886, -0.1336831450, -0.1917741299, -0.4908953607, -0.2683599591, -0.1749870479, -0.2017384171, -0.0757979900, -0.4201270342, 0.1126364619, -0.1918283552, -0.2518049181, 0.0968178287, 0.1049479768, 0.1340158284, -0.2026816010, -0.0437120534, -0.0719594359, 0.0604176186, -0.2259495258, -0.1574006826, -0.0980744958, -0.3581178486, 0.0273090769, -0.0752247944, -0.3035807014, 0.1997206956, -0.0949700922, -0.1882535219, -0.1010718271, -0.1458891183, -0.2477779239, -0.1742288619, -0.1836939305, 0.0604652017, -0.0158683527, -0.1197019741, -0.1476107836, 0.0461823680, -0.1407502890, -0.1520957947, 0.1019101515, 0.0757680386, -0.0093716821, -0.0693577230, 0.1390782595, -0.1723139137, 0.0180111788, 0.0305601321, 0.0044484069, -0.0934531018, 0.0936613679, 0.1498527676, 0.0632450581, 0.2385374308, -0.2652088404, -0.2679790258, 0.1614161432, -0.0240480434, 0.1244563609, -0.1639726460, -0.0110640228, 0.1681799442, 0.0468176417, -0.1138275713, -0.0585574023, 0.2533447444, 0.2518761158, 0.0726452246, -0.2042941004, 0.1141410992, 0.0225640684, -0.0827177092, -0.0620985255, -0.2184722126, -0.1201776937, -0.1564443260, -0.0577424131, 0.2222896814, 0.1237817779, -0.1401022971, 0.1509755701, -0.1957392842, 0.0967820510, 0.0043407804, 0.1924088895, 0.0142280916, 0.0911209658, 0.3463385105, -0.0603144988, -0.0945232958, 0.0763654932, -0.0575826354, 0.0647451505, 0.0666304678, 0.0563956462, -0.1069310755, -0.1582594365, -0.2614919841, 0.2840434313, -0.0627614483, -0.1597626954, -0.2135584503, 0.0887316689, -0.0103493715, 0.0029023939, -0.3832665384, 0.1887177825, -0.0791236758, 0.2092356682, 0.1213896796, 0.2010197788, -0.1173689961, 0.0925728306, -0.0227075052, -0.5379767418, 0.1184530407, 0.0383830294, -0.2461102307, 0.1696048975, -0.3027916551, -0.2578597665, 0.0827962905, 0.1799353212, -0.1073856503, -0.0109347068, -0.1755056679, -0.0925376862, 0.1842452437, -0.0177414194, 0.1168386564, -0.2202225626, -0.2044068426, 0.1582399309, -0.0318981633, -0.0496729463, -0.1596917808, -0.0514359437, 0.2192623168, 0.1426599622, 0.1145423129, -0.0794845298, -0.0505421124, -0.1778518260, 0.0731141940, 0.2039781958, 0.0329240412, 0.1640686840, 0.0284568481, 0.1471953690, -0.2181761116, 0.1769832969, -0.0172858611, 0.0772447735, 0.2532744110, 0.2504651248, 0.2245558947, -0.1775977165, 0.1821460128, 0.2006630599, -0.0081588542, 0.1266188473, -0.1242290735, 0.1917667091, -0.0433739834, -0.1689462066, 0.1795681566, 0.0332420617, -0.1581652910, -0.1411020756, 0.0168731194, 0.1328913271, -0.1689159125, -0.1440227777, 0.1576455235, 0.2087136805, 0.0520593300, -0.1449263096, 0.1384929121, -0.0128752571, 0.1198617890, -0.0350083187, -0.0701595545, 0.0809337497, -0.3572310209, 0.0235212315, -0.2286995947, -0.1569259018, 0.2313032597, 0.1271751076, -0.0743577257, 0.0081715146, 0.1074564978, 0.2643314302, 0.3226600289, 0.1469121128, 0.2709580064, 0.2732734382, 0.0639215261, 0.3178281486, 0.0261521954, 0.0980175510, 0.0780561566, -0.0272589047, -0.2846855819, 0.1310453564, 0.2462789267, -0.1543872952, 0.0250390116, -0.0229778979, 0.0870795473, -0.1653193235, -0.6425431371, 0.1957776546, 0.1065716445, -0.4881156087, 0.1313422024, 0.1145319417, 0.2347901464, -0.1429511160, -0.2667593062, 0.0706462562, -0.0222569481, -0.4511754811, -0.2214104831, -0.5147594213, -0.1477671713, 0.1463117898, -0.0556190647, -0.2310455143, -0.2452168763, 0.0174891464, -0.2099039257, 0.0721403658, -0.0902170017, -0.1120371968};
#endif

#endif
