//Numpy array shape [3, 3, 3, 4]
//Min -0.484081536531
//Max 0.506407558918
//Number of zeros 0

#ifndef W2_H_
#define W2_H_

#ifndef __SYNTHESIS__
model_default_t w2[108];
#else
model_default_t w2[108] = {-0.2519850731, 0.2251814157, -0.1597972214, -0.2833868265, 0.3970875740, -0.0440409109, -0.2334161699, -0.4840815365, 0.3314402997, -0.1026895940, -0.1236892790, -0.0830668136, 0.0398153551, -0.0118705165, -0.0034468116, -0.1116846874, 0.1394058913, -0.1908004284, -0.1728245616, -0.4835637212, 0.2634362578, -0.3669191301, 0.2911584377, -0.3518464565, -0.1200999916, 0.3224872947, 0.1879691333, -0.2710339129, 0.0765759051, -0.1167964712, 0.3901391923, -0.1599292308, 0.0642529428, -0.1124404222, 0.3296535909, 0.1589998752, 0.1691600680, 0.2151828557, 0.0310871582, 0.0642231405, 0.3620419204, 0.2024796009, -0.2727488279, -0.1636072844, 0.3253054619, 0.0970004648, -0.1711186618, 0.2216381580, -0.2008710057, 0.3877251446, 0.3050532341, -0.2788045406, 0.1370335519, -0.0074641341, 0.2705382407, 0.2815396190, 0.0216254778, -0.0516044199, -0.1647624224, -0.1825079024, 0.0083425008, 0.0585831851, 0.4078274369, 0.0113129923, 0.0271858200, 0.3259230554, 0.2754469812, 0.1138651147, -0.1645445228, 0.1086415797, 0.3820266724, -0.1613793969, -0.1586939842, -0.0595142245, -0.1273684651, 0.2361635566, -0.0119969677, -0.1032773629, -0.1365808249, 0.3064586222, -0.0788363516, -0.2452125251, -0.3113800883, -0.0556204282, -0.1693182290, 0.3655376732, -0.1239465177, 0.5064075589, -0.0208377894, -0.0983749107, -0.2113006413, 0.3258361816, 0.2683077157, 0.2991272807, -0.4360743165, 0.1606195420, -0.1702733189, 0.3797179461, 0.1277414411, 0.3244255185, -0.2101282328, -0.0750161782, -0.1430504471, 0.1045319438, 0.2008897364, 0.2927330136, 0.1657286435, 0.0363511592};
#endif

#endif
