//Numpy array shape [3, 3, 4, 8]
//Min -0.533998250961
//Max 0.650290906429
//Number of zeros 0

#ifndef W5_H_
#define W5_H_

#ifndef __SYNTHESIS__
model_default_t w5[288];
#else
model_default_t w5[288] = {0.0849352628, 0.1671397537, 0.2787366211, 0.1627445370, -0.3256223500, 0.0967958570, -0.2102274299, -0.0659732372, 0.4039911926, -0.0263412539, 0.4200791717, 0.1108848304, 0.3875378668, 0.0010085196, 0.1256028861, -0.0532719269, 0.3439320326, 0.3305380940, 0.5252522230, 0.0895638242, -0.1083541363, 0.1414803267, 0.3003325164, 0.3799650967, -0.1494422555, 0.1374693662, 0.1481588036, 0.0926559344, -0.3581597805, -0.1424265057, 0.1375060081, -0.0453903899, -0.1301084012, 0.2505533695, 0.2212248892, -0.1794429123, -0.1811813414, -0.0814377442, -0.0007823471, -0.0421933942, -0.1022965834, 0.2092220783, 0.4287267625, 0.0160006639, 0.4536742270, -0.1511376351, 0.4744884968, 0.3221603632, 0.3039146066, -0.1181235537, 0.2691294253, 0.0162083078, 0.1429494321, -0.0435584858, 0.3616845012, 0.4022099376, -0.0545145608, -0.0701364279, 0.1729871631, 0.0734598488, -0.2042084187, -0.0581827648, -0.1034728438, -0.1314530224, 0.1194593012, 0.0222841408, 0.0393995345, -0.0131224236, -0.1947733611, -0.2501864433, 0.0006570450, 0.0766412020, -0.0970751792, -0.1085169315, 0.1159958690, 0.2873717844, 0.6502909064, -0.2353990078, 0.3819128275, 0.3531265855, 0.0942782164, -0.3535252810, 0.0158056244, -0.0660622790, 0.0905760601, 0.2487060726, -0.1567994952, 0.2824541926, 0.0845510513, 0.0830364749, 0.0666948557, 0.2026466131, 0.0196692869, -0.1391377747, -0.1438577920, 0.1351273358, -0.2860899866, -0.1267036945, -0.3296277523, -0.1365194470, 0.1858213693, 0.0351711996, -0.1974590719, -0.1769089997, 0.0527261719, 0.3688648641, 0.4100559652, 0.1966139674, -0.0251534823, -0.2313833386, -0.1271763295, 0.1531024724, 0.2743701041, 0.3151216507, 0.1462507546, 0.3145101368, -0.3288705945, -0.1801757365, 0.0225805882, -0.1128746942, -0.0753568709, 0.0534129106, -0.3053527474, -0.0601726100, -0.0013327431, 0.2044583559, -0.2953777313, -0.3094388247, 0.0830534548, 0.1029988974, -0.1803409457, -0.0193984974, -0.2440145463, 0.1465943009, 0.0968284681, -0.0625396371, 0.5040305853, 0.4836156368, 0.6416149139, 0.4475176036, -0.1109324396, -0.4953836203, 0.3655135632, 0.3635295331, -0.1574954540, 0.6262249947, 0.2444504201, 0.3278334141, -0.5339982510, -0.1483578831, -0.0519060344, -0.0142035205, 0.1214591190, 0.1117222384, -0.0585951172, 0.0576925911, -0.1242914647, 0.2241160274, -0.2514349818, -0.1404341608, -0.0217796564, 0.0764529854, 0.1044556946, -0.2176265419, 0.2713840604, -0.2195847034, 0.1259977967, -0.1366870701, -0.2138215303, 0.3864098191, 0.3908029795, 0.4201403558, 0.2336004078, -0.0233338717, -0.1383168697, 0.2137490511, -0.1297680885, 0.4284541309, 0.1410210133, -0.1086202115, -0.0224855095, -0.3315669894, 0.1016263664, 0.3081446588, 0.2047214806, 0.2650274038, 0.2229480296, -0.2599754632, -0.0273164883, -0.0879173428, 0.2546983659, -0.2011303902, -0.1537091583, -0.3838547170, -0.1017195582, -0.0308992919, 0.1940278411, 0.2082800567, -0.0435308106, 0.0244857892, 0.0888227001, -0.3452632725, -0.1261305213, 0.1006909907, -0.1175285652, 0.1338131726, -0.1948893219, -0.0537826829, -0.2936268151, -0.0049110772, -0.2323617339, -0.1561271995, 0.1540769190, -0.1373126805, -0.1029332727, -0.0920034200, -0.2330544293, 0.0188164040, -0.0973848253, 0.2332174629, 0.2362737656, -0.1998375058, 0.0653912798, 0.1139356717, 0.1195180565, -0.3339377344, -0.0939886943, 0.1074011549, 0.2517224550, 0.1945044547, 0.0851289034, 0.2691600323, 0.0631633922, 0.1727174073, -0.1246936992, 0.2827901840, 0.0204095785, 0.0153780151, 0.2132133991, 0.3902250528, -0.0153006436, 0.2575802207, -0.4054657519, 0.1292247325, -0.0062299566, 0.2802776992, 0.0900329798, 0.0917067900, -0.0387448072, -0.3828813732, -0.0684158653, -0.2658170164, 0.2015214115, -0.0342502221, 0.2308988273, 0.1537687182, 0.1687365025, -0.0232921485, -0.0841072053, -0.0282388050, 0.2004162520, 0.1313997954, 0.1038201004, 0.2530210316, 0.2418616712, 0.2850903869, 0.0643773526, 0.2590326369, -0.1112604290, -0.1681506485, 0.1355659962, -0.1170001999, 0.2831699252, 0.0941912532, -0.1816044152, 0.0154699581, 0.2106688172, 0.0820246637, 0.2140364796, 0.0280414168, 0.1262390316, -0.0367081501, 0.0533493869, 0.1653918475, 0.1221827418, 0.0155777037, 0.0904318020, 0.2101214677};
#endif

#endif
