//Numpy array shape [1568, 32]
//Min -0.304917037487
//Max 0.346598386765
//Number of zeros 0

#ifndef W9_H_
#define W9_H_

#ifndef __SYNTHESIS__
model_default_t w9[50176];
#else
model_default_t w9[50176] = {0.1470363140, 0.0383318774, 0.0540607683, 0.0611725450, -0.0587502420, -0.0108421212, -0.0341833532, 0.0766524374, 0.0462939180, 0.0202910565, 0.0242316145, -0.0816149712, 0.0518086329, -0.0619435720, -0.0344686694, 0.0260077920, -0.0819743574, -0.0557989143, 0.0582480542, -0.0130898599, -0.0646527782, -0.0328300782, 0.0389846899, -0.0162603632, -0.0187628530, 0.0447067060, 0.0404200330, -0.0213038586, -0.0530972891, -0.0262540150, 0.0320687182, 0.0828721970, 0.0094054909, -0.0316577852, -0.0025659599, 0.0213282444, 0.0495608002, 0.0233726427, 0.0132951997, 0.0060179830, -0.0290690120, -0.0396197625, 0.0366558135, 0.0892932937, -0.0117274243, 0.0211263560, -0.0039621131, 0.0253318176, -0.0231544711, 0.0167326946, -0.0555133559, -0.0686962083, -0.0174506865, 0.0117774121, 0.0336175971, -0.0185125172, 0.0120642353, -0.0407625213, -0.0249941312, -0.0069414335, -0.0119618941, 0.0413269661, -0.0594195947, -0.0116412686, 0.1316566318, 0.0190328620, -0.0232958756, 0.0381666310, 0.0675675422, 0.1201393679, -0.0277753584, 0.0392531343, -0.0070930496, -0.0087717772, 0.0684515834, 0.0430989079, 0.0011751278, 0.0325144492, 0.0295013543, -0.0574837066, -0.0286804419, -0.0598367341, -0.0119234743, 0.0198157392, 0.0341602340, 0.0581751354, -0.0178905744, -0.0344393216, -0.0329871923, -0.0309002642, 0.0172366761, 0.0312560908, -0.0335930772, 0.0441795439, -0.0969469026, 0.0456581451, -0.0599586219, -0.0015273779, -0.0232233927, -0.1171818748, -0.0217406712, -0.1140652075, 0.0080515128, -0.0214013793, -0.0185829792, -0.0128554245, 0.0621516220, 0.0770918503, 0.0359122939, 0.0004668284, -0.0557342283, -0.0192301217, -0.0594094843, 0.0933573544, -0.0524745174, 0.0008731980, -0.0874293521, -0.0152928540, 0.0036271559, 0.0047936705, 0.0335203968, 0.0103371032, 0.0657118708, -0.0296583455, 0.0125367781, -0.0121470019, -0.0218368564, -0.0170539115, -0.0090122372, -0.0059197810, -0.0529570878, 0.0561406016, 0.0239586458, 0.0335465595, -0.0747622922, 0.0207769163, -0.0035543379, -0.0624857955, 0.0829017684, 0.0564597733, 0.0448590033, 0.0460650958, -0.0504508428, -0.0534082726, -0.0631867573, -0.0445689149, -0.0509599671, 0.1199344397, -0.0743920207, -0.0473931469, -0.0189163312, -0.0228861105, -0.0484596305, 0.0252954252, -0.0406294093, 0.0058537917, 0.0333697498, -0.0565799177, -0.0472534299, -0.0311631579, -0.1160978451, -0.0535131842, 0.0235182047, -0.0190885738, 0.0363144055, -0.0090940632, -0.0047104675, 0.0349195264, -0.0634721518, -0.0292106438, 0.0234740637, -0.0683646798, 0.1354042739, -0.0360577703, -0.0076214857, -0.0536103360, -0.0572825372, -0.0240996052, 0.0006406613, 0.0718652681, -0.0509601571, 0.0042179334, -0.0296583958, -0.0326895043, -0.0340951383, 0.0314594842, -0.0106174899, -0.0341601111, 0.0234833285, -0.0614399984, 0.0419228077, 0.0106081674, -0.0128662335, 0.0178071056, -0.0092485836, 0.0581471659, -0.0456337444, -0.0260777362, -0.0390904583, 0.0534002669, -0.0212657321, -0.0572456941, 0.1343360096, -0.0261470173, 0.0099293245, 0.0438600965, 0.0187818091, -0.0165151637, 0.0274497103, -0.1225657016, -0.0185937453, 0.0635766834, 0.0225569867, 0.0223964732, -0.0256520770, -0.0141611509, -0.0258321613, -0.0172806755, -0.0416048132, 0.0168319177, -0.0595213883, 0.0126419365, 0.0011671345, 0.0268376954, 0.0352223627, -0.0029615900, 0.0139638642, 0.0031345158, -0.0356528386, -0.0778637007, 0.0164409336, 0.0318902321, 0.0087259235, -0.0114374068, 0.0435276404, 0.0060695629, 0.1138639078, -0.0012493820, -0.0007001847, 0.0398232453, 0.0038189632, -0.1042225659, 0.0160015915, 0.1027841046, -0.0414721556, 0.0478081815, -0.0339454003, 0.0139183672, 0.0550062843, -0.0499227196, 0.0169791281, -0.0302546900, 0.0331378765, 0.0369189493, -0.0591417588, 0.0148549434, 0.0461093038, -0.0658916458, 0.0493334718, -0.0425074399, 0.0268372484, -0.0013816626, 0.0101759918, -0.1092128903, -0.0401176065, -0.0363485329, -0.0501499437, -0.0119874226, 0.0367710181, 0.0086848568, 0.0255276039, 0.0456368364, -0.0089974171, 0.0590888672, -0.0361136384, 0.1003047600, 0.0845830739, -0.0048747822, -0.0280085560, -0.0253486112, -0.0229476616, -0.0578725487, -0.0355588943, 0.0538496152, -0.0658437237, -0.0039622188, 0.0100653088, 0.0439678468, 0.1047993600, -0.0157755371, -0.0663135871, -0.0012077509, 0.0434426814, 0.0278444085, -0.0110058021, -0.0130828610, -0.0395829342, 0.0312808268, 0.0430348068, 0.0714141279, 0.0396253541, -0.0435534157, 0.0319426432, 0.0130445594, 0.0158892386, -0.0460239202, 0.0051658838, -0.0370838158, -0.0246469323, 0.0130400145, 0.0436025262, 0.0356078818, 0.0126625905, -0.0022462085, 0.0625305623, -0.0080505619, -0.0412725843, 0.0207493920, -0.0432526357, -0.0416268110, -0.0018131655, -0.0367196947, -0.0542003848, 0.0415045731, 0.0556446649, -0.0472227335, 0.0678107888, -0.0528385490, -0.0160561055, 0.0385505147, 0.1420078129, 0.0719144717, -0.0101846792, -0.0573675148, -0.0300891846, -0.0734014735, -0.0438353233, -0.0449228399, -0.0241914336, 0.0489508882, 0.0432518423, 0.0078395791, -0.0502186120, -0.0652176142, 0.0108016357, 0.0227258746, 0.0309251249, 0.0588611774, -0.0531917922, 0.0328697823, -0.0580678955, 0.0211802311, -0.0542524308, 0.0293426570, -0.0203273073, -0.0613691583, -0.0374581963, -0.1396143138, -0.0088425884, 0.0517067462, -0.0633573160, 0.0002745010, 0.0557972789, 0.1131033897, -0.0568790920, 0.0106648412, 0.0131489336, -0.0247610696, 0.0025177291, 0.1122866496, 0.0898694098, -0.1080916673, -0.0426954366, 0.0160291623, 0.0321040526, 0.0038489283, -0.0304287262, -0.0243675038, -0.0523570441, -0.0088879522, -0.0165960435, 0.0267865118, 0.0034323551, -0.0658353046, -0.0564477630, -0.0509731732, -0.0030160330, 0.0614966154, 0.0081441049, -0.0214118715, -0.0332061350, 0.1381184608, -0.0537133180, -0.0755598545, 0.1218467653, 0.1033726931, 0.0640366599, 0.0529561676, -0.0288319495, -0.0046011838, -0.0621127561, -0.0695986524, 0.0109909512, 0.0174349621, 0.0319830664, 0.0185383856, -0.0035618448, 0.0025334039, -0.0377420485, -0.0557597391, -0.0170191545, -0.0117597692, -0.0422895998, -0.0279918704, -0.1084327549, -0.0186082944, 0.0071303183, 0.0320133306, -0.0293437578, 0.0269838311, -0.0555088520, 0.0122102676, -0.0750090182, 0.0847712457, 0.0329748392, -0.0100119701, 0.0112494975, -0.0629011914, 0.0448970534, -0.0503099486, 0.0233777333, -0.0000410913, 0.0081110075, -0.0552693382, -0.0320385993, -0.0220733099, -0.0328933336, 0.0466899499, 0.0084393611, 0.0080197398, 0.0276690610, -0.0011167191, -0.0094412677, -0.0311346781, -0.0490865596, -0.0122916726, -0.0062500411, -0.0551461913, 0.0044140290, -0.0233080760, 0.0068585458, -0.0044449298, -0.0530617014, -0.0012886797, 0.0175105128, 0.0263293348, 0.0341734625, -0.0047509247, 0.0637495369, 0.0824664459, 0.0042888331, -0.0186558794, 0.0021278274, 0.0164484456, 0.0297898035, -0.0368251950, 0.0071942415, 0.0345397890, 0.0395992137, -0.0598844737, 0.0438118763, -0.0369464941, 0.0600707568, -0.0454579666, -0.0026565206, -0.0537469573, 0.0435777158, -0.0649735332, -0.0435945913, -0.0597124025, -0.0388430804, 0.0096030803, -0.0334215388, 0.0664851665, 0.0280139726, 0.0319317468, 0.0568920635, -0.0326681025, -0.0351653211, 0.0216385070, 0.0119899726, 0.1148907468, 0.0230170060, -0.0569203906, -0.0316037685, 0.0035304874, 0.1171408445, -0.0941115320, 0.0102802524, 0.0682151020, -0.0836917683, -0.0178920440, 0.0321630836, -0.0211328603, 0.0068890555, -0.0694446787, -0.0433038622, -0.0076087550, 0.0628662035, 0.0273076557, -0.0767080709, -0.0316667296, -0.0644987896, 0.0385224745, -0.0162819587, -0.0518394522, -0.0880877972, 0.0323827974, 0.0122528262, -0.0122773843, 0.0370951742, -0.0630485341, -0.0685172528, -0.0601361953, 0.0011138715, 0.0035115809, -0.0362435989, 0.0437901914, -0.0371717438, 0.0719694421, -0.0065233223, 0.0673200712, 0.0723836571, 0.0527675189, -0.0049027801, 0.0411984585, -0.0084962472, -0.0412081853, -0.0752419382, -0.0271980856, 0.0051304749, -0.0354441628, -0.0516803116, 0.0193440970, 0.0255848356, 0.0444072448, -0.0466487445, -0.0554147363, 0.0527214929, 0.0394701287, -0.0600336045, 0.0570555292, 0.0233465750, -0.0646447018, 0.1057566553, -0.0053317933, 0.0631979406, -0.0525017418, 0.0022529620, -0.0600235388, -0.0173977669, 0.0030496565, 0.0287297275, -0.0343463011, 0.0381488577, 0.0503357723, 0.0304546710, 0.0246337354, -0.0007865602, 0.0008810423, 0.1113464311, 0.0446360260, -0.0418317877, -0.0332083888, -0.0542599000, -0.0067946147, 0.0112510668, 0.0406945385, -0.0467588045, -0.0347599201, 0.0430764928, -0.0411656313, 0.0625719875, -0.0324493609, 0.0557409488, -0.0019659286, 0.1421528310, 0.0153198056, 0.0412919968, 0.0204415247, 0.0542298667, -0.0476949066, -0.0219851229, -0.0122260032, 0.0273073670, -0.0111633893, 0.0214244835, 0.0563217513, 0.0197222494, 0.0129754907, -0.0041976785, -0.0034042590, -0.0037187482, -0.0122958943, -0.0498450734, -0.0714971423, -0.0678357258, 0.0627205372, -0.0342964493, -0.0450400487, -0.0226838551, -0.0926135927, -0.0464439839, -0.1177645698, -0.0347443335, 0.0107136471, 0.0240450539, 0.0291713104, 0.1462689787, 0.0568848476, -0.0339197926, -0.0362417176, -0.0180736296, 0.0180154629, -0.0306109134, 0.0252136812, 0.0711027980, -0.0472591929, -0.0726919845, -0.0189870372, -0.0430337414, -0.0116586862, -0.0484974794, 0.0269108377, -0.0548352003, -0.0512368977, 0.0266792383, 0.0289490074, 0.0122095030, -0.0927363038, -0.0036546399, -0.0223075096, -0.0391366631, -0.0211416073, -0.0202543158, -0.0168362595, 0.0036127327, 0.0580031052, -0.0223256890, 0.0221712813, 0.0063564070, 0.0516734794, 0.0159316398, 0.0159189329, -0.0049173385, 0.0257282518, 0.0224746075, 0.0008945693, 0.0084061297, -0.0159884784, -0.0483178571, -0.0466658995, -0.0654961243, -0.0224284101, 0.0603502616, -0.0383932330, -0.0788477287, -0.0374170728, -0.0262385029, 0.0095585585, 0.0069832536, -0.1288981885, -0.0208513066, 0.0368948616, -0.0142574571, -0.0703755617, -0.1166272610, 0.0137055935, 0.0235653110, -0.0267328117, 0.0479341708, 0.0166153237, 0.0187108461, -0.0378984958, 0.0205847956, -0.0523162484, 0.0374308601, -0.0380007252, 0.0552773811, 0.0538398921, -0.0361403413, -0.0735216886, -0.0160003863, 0.0380827822, -0.0133549636, 0.0322566889, -0.0075177047, -0.0080664232, -0.0115352394, 0.0284071472, 0.0132307522, -0.0453055128, -0.0459461808, -0.1103513762, 0.0109099094, -0.0119316587, -0.0405137055, -0.0185940694, -0.0810830742, -0.0229530577, -0.0285438392, 0.0658519045, -0.0120592304, -0.0859632939, -0.0349633843, 0.0871642902, 0.0456790626, 0.0202352963, -0.0586752221, -0.0378703065, -0.0013920454, -0.0775080696, -0.0405787379, -0.0661802068, -0.0594454408, -0.0167420041, 0.0239745304, 0.0408673659, -0.0163720679, -0.0655046552, 0.0274507068, 0.0135137513, 0.0233709998, 0.0438056216, -0.0405100808, -0.0319518633, -0.1013384834, -0.0425667576, 0.0054124179, 0.0313521847, -0.0560272262, -0.0191259570, 0.0863364562, -0.0323519297, -0.0332079902, -0.0164662544, -0.0289246757, 0.0622097142, -0.0071489690, -0.0700726658, -0.0139053594, -0.0545439720, 0.0615085587, -0.0078378590, 0.0096685719, -0.0484739244, -0.0551617146, 0.0230120197, -0.0724031031, -0.0105611878, -0.0198251475, 0.0347491913, 0.0396440774, -0.0138399741, -0.0437239073, 0.0420675762, -0.1100531071, -0.0673200861, -0.0903324112, -0.0132569596, -0.0265413783, -0.1038238928, 0.0547563806, -0.0455486365, 0.0175091922, 0.0234706942, -0.0438644625, 0.0171733182, 0.0793776736, -0.0292633995, 0.0298335105, 0.0322469138, 0.0290545356, -0.0474661142, 0.1337906420, 0.0709075406, -0.0116684875, 0.0456397347, 0.0193689577, 0.0408249870, -0.0331696644, 0.0236581657, -0.0327297486, -0.0435654297, 0.0632955655, 0.0031100605, 0.0101458048, 0.0407338589, -0.0394731574, 0.0090492656, 0.0430243947, 0.0291982535, 0.0182490591, -0.0443662256, -0.0083842287, 0.0125174895, 0.0073010447, 0.0222575534, 0.0466835089, -0.0266680662, 0.0062783654, 0.0286041740, 0.0069459700, 0.0183123201, -0.0135111613, -0.0257285573, 0.0351514071, 0.0029452580, -0.0102980975, 0.0009363218, -0.0115957698, 0.0515248589, -0.0195530187, -0.0498097278, 0.0321374461, -0.0574826971, 0.1230119467, -0.0063530426, 0.0043310220, 0.0504083186, -0.1179791316, -0.0032842853, 0.1056448370, -0.0263524577, 0.0246929601, -0.0634471402, -0.0225979723, -0.0115181208, -0.0707739145, -0.0268866699, -0.0298756212, -0.0271378867, 0.1383343637, 0.0567469783, 0.0634904876, -0.0506614074, -0.0302778799, 0.0418482386, 0.0597908162, -0.0695078373, -0.0764062181, -0.0172796380, 0.0082829511, -0.0193787366, 0.0041251294, -0.0424793586, 0.0175941996, -0.0607378855, 0.0328417644, -0.0586352721, -0.0448087044, 0.0404202566, -0.0039863097, 0.0223010313, 0.0424814038, -0.0624183938, -0.0215587579, -0.0217449069, 0.0223808307, -0.0540825389, 0.0632665455, 0.0466867201, 0.0400627069, -0.0321465358, 0.1183398366, 0.0877173245, -0.0425078422, 0.0036789062, -0.0312814973, -0.0397428684, 0.0045998325, 0.0781996325, -0.0133405002, -0.0722647160, -0.1560619026, -0.0303357504, -0.0539934374, 0.0023117170, 0.0124220792, -0.0255661197, -0.0726263747, 0.0504097752, 0.0018572692, -0.0203131214, 0.0466886908, -0.0901976302, -0.0880662650, 0.0186639074, 0.0384041108, -0.0726547986, 0.0027991878, 0.0877993181, 0.0643559992, 0.0179596730, -0.0543541834, 0.0226823837, 0.0302733108, 0.0836915448, 0.0202455223, -0.0039210445, -0.0142291766, 0.0367336348, 0.0500305519, 0.0043427190, -0.0464169271, -0.0614205636, 0.0216990542, -0.0183316469, -0.0108645512, 0.0229499619, -0.0523673594, -0.0626765266, 0.0531443954, -0.0073520942, 0.0189448930, -0.0623623282, -0.0663704276, -0.1098005623, 0.0389929824, 0.0204724241, 0.0171319861, -0.0137628242, -0.1069640592, 0.0093839122, 0.0632329658, 0.0093701417, -0.0014333618, -0.0533668101, -0.0140858209, -0.0062493035, -0.0058168368, -0.0115100276, -0.0241802149, 0.0252025034, -0.0333819613, 0.0266957134, -0.0618692301, -0.0134069445, 0.0020100041, -0.0059947511, 0.0289223660, 0.0370903388, -0.0377357416, 0.0038200431, 0.1095433608, 0.0507168993, 0.0188171249, -0.0123088285, -0.0304148309, -0.0881548002, -0.0373085402, -0.0229376145, 0.0041863923, 0.0179564357, -0.0481202081, 0.0691804439, 0.0884386972, 0.0280678179, -0.0586375669, 0.0272570699, -0.0270386282, 0.0285435785, -0.0194044877, -0.0167924631, 0.0007926241, -0.0398668833, 0.0058164489, 0.0443421155, -0.0487191752, -0.0650233105, -0.0097315256, -0.0194661915, 0.0137860840, -0.0666643232, 0.0290812086, -0.0311434828, -0.0159249529, 0.0145183206, -0.0258936659, -0.0089773340, 0.0489774682, -0.1216467023, -0.0353163444, -0.0043818038, -0.0533219501, 0.0368377417, -0.0283072907, -0.0164109264, 0.1022352278, 0.0331547745, -0.0163291004, 0.0094977142, 0.0257516056, 0.0572584495, 0.0331283584, 0.0278341528, 0.0240218677, 0.0488286130, 0.0016715274, 0.0154051660, 0.0031062728, -0.0466434397, -0.0230043475, -0.0287734848, 0.0283765290, 0.0319113061, -0.0127332583, -0.0749252662, 0.0268450454, 0.0624821819, 0.0327098034, -0.0331539959, -0.0642269477, -0.0459394641, 0.0498290397, -0.0645581782, -0.0110796709, 0.0276049748, 0.0713516995, -0.0740204081, -0.0535974540, 0.0116612697, 0.0298868492, -0.0787708908, 0.0768516213, -0.0028623661, 0.0776830837, 0.0285643823, -0.0616242997, -0.0279860497, 0.0175787508, 0.0314419679, 0.0857933685, -0.0099510010, -0.0052154819, 0.0462350771, -0.0040949010, -0.0550267845, 0.0516649671, 0.0172702335, -0.0581124052, -0.0512104742, -0.0471481085, 0.0114057884, -0.0129816681, 0.0368425585, 0.0232692193, -0.0464509651, -0.0176623464, -0.0169649851, -0.0059826015, 0.0928538814, -0.0340272412, 0.0442177430, 0.0548924468, -0.0645446777, 0.0540645868, 0.0503133237, -0.0206092410, -0.0481543578, 0.0243301801, 0.0435644239, 0.0802054554, -0.0403775945, -0.0336971954, 0.0533314757, -0.0348152928, 0.0189686473, -0.0057200184, 0.0527138039, 0.0025460788, 0.0390301161, 0.1344785392, 0.0143580288, -0.0246813931, -0.0290497690, -0.0789647549, 0.0452189483, 0.0766174272, -0.0376303606, -0.0546757616, -0.0008372908, 0.0267643500, 0.0126076760, 0.0182520188, 0.0136162024, -0.0447751358, 0.0028151351, 0.1046074033, -0.0154468007, 0.0573855266, -0.0004385225, 0.0111322999, -0.0373720117, -0.0474854149, -0.0447803661, 0.0029272197, -0.0652561933, 0.0296150837, -0.0550816208, 0.0158337913, -0.0140041132, -0.0318100043, -0.0294354782, -0.0706791803, -0.0030514933, 0.0324743688, -0.0516054966, 0.0153471520, 0.0165822525, 0.0009525537, -0.0344915465, 0.0287797395, -0.0315598063, -0.0569315441, -0.0668573454, 0.0966540948, 0.0691284910, -0.0407669768, -0.0021143155, 0.0626140758, 0.0284083411, 0.0130695207, 0.0357087739, -0.0200830605, -0.0357240140, 0.0145829292, 0.0284341164, 0.0489887372, -0.1351688355, -0.0288604386, -0.0257649105, -0.0082936902, 0.0239426196, 0.0438903309, 0.0305364672, -0.0244246982, 0.0378543697, -0.0668242276, -0.0579211041, 0.0269061998, -0.1051158309, -0.0379016213, 0.0161628090, -0.0503680781, 0.0244492628, -0.0292569920, 0.0378378890, 0.0247570574, 0.0759888515, -0.0290264282, 0.0121072279, 0.1070646420, 0.0212902762, 0.0948855951, 0.0127238454, -0.0254906174, -0.0338758044, -0.0246117394, 0.0251163729, -0.1144582406, -0.0293563530, 0.0150005082, -0.0646843091, 0.0337242968, -0.0151772397, -0.0005180470, -0.0529519878, 0.1060819179, -0.0096926549, 0.0103960168, -0.0456928946, -0.0023069563, -0.1419867724, -0.0240297299, -0.0580651648, -0.0362093747, -0.0058690403, -0.0345671065, 0.0520951860, 0.0968676805, 0.0383458026, 0.0313369520, -0.0499774292, -0.0163863599, 0.0455596186, -0.0137167936, -0.0207278579, 0.0083130999, 0.0214862004, 0.0410332754, 0.0607716627, 0.0090947198, -0.0263995547, 0.0632696301, -0.0156855434, -0.0411380008, -0.0625217482, -0.0494831242, -0.0398107246, 0.0770475715, 0.0070307604, 0.0444174036, -0.0391894132, -0.0550352782, -0.1135476679, 0.0215476919, -0.0191482045, 0.0071335440, 0.0104338760, -0.0038770665, -0.0353531390, 0.0428600051, -0.0140721397, 0.0125265382, 0.0155658536, 0.0841415003, 0.0177715737, 0.0000907181, 0.0333203636, -0.0354110524, -0.0088812942, 0.0376192816, -0.0253414735, -0.0200701579, -0.0072145937, 0.0220864899, 0.0279030465, 0.0462593697, 0.0436136872, 0.0171486158, -0.0503855012, 0.0752586648, -0.0426761843, 0.0489460267, 0.0085417833, -0.0660769418, -0.0538595431, -0.0198108871, -0.0610032193, -0.0262485854, 0.0760248005, -0.0520229898, 0.0508172549, 0.0288236141, 0.1086302251, 0.0143533684, -0.0211646389, 0.0806481764, 0.0912765861, -0.0085438788, 0.0035451245, -0.0266024657, -0.0417464375, 0.0732030049, -0.0096600233, 0.0312141050, -0.1058851704, 0.0190472361, 0.0113860779, -0.0134288436, 0.0324299112, 0.0448178686, -0.0783648565, -0.0325284302, 0.0069032046, -0.0353492089, -0.0532753021, -0.0804272890, -0.0843810961, -0.0219571497, 0.0214949660, -0.0650922805, 0.0033517038, 0.0264395121, -0.0814114138, 0.0588332713, 0.0038757613, -0.0607201532, -0.0666038617, 0.0776871592, 0.0042987494, -0.0182987005, -0.0072861798, 0.0175990053, 0.0065709413, 0.1011449695, -0.0620720461, 0.0742413178, 0.0354128145, 0.0523018949, -0.0496150330, -0.0116381934, -0.0339247435, 0.0161168147, -0.0113298222, -0.1090945229, -0.0319058485, -0.0594364703, -0.0138685089, -0.0382837467, 0.0003984265, 0.0100249806, 0.0169489570, 0.0236162078, 0.0214298163, 0.0170791317, 0.0506488942, -0.0571065433, -0.0156891961, -0.0623743013, 0.0139520923, 0.1121973842, 0.0323146433, -0.0305466447, 0.0092795752, 0.0045822323, -0.0561236031, -0.0065294546, -0.0451375730, -0.0272759926, 0.0323351920, 0.1050615311, -0.0562224351, -0.0244723801, -0.0100390259, -0.0367069282, 0.0156490542, 0.0342992507, -0.0200974476, 0.0469809845, -0.0177173987, -0.0295861289, -0.0128877824, 0.0209671687, -0.0430601090, -0.0369034223, 0.0414640494, 0.0392117761, -0.0246615019, -0.0431306623, -0.0132368663, -0.0424713418, 0.0624647103, 0.0988555029, 0.1016244218, 0.0190483276, 0.0216656327, 0.0125404429, -0.0622239932, 0.0551699921, -0.0442350395, -0.0623064563, 0.0379349142, 0.0251800846, 0.0539094396, -0.0603551902, -0.0448810123, 0.0388575606, -0.0501405410, -0.1087663323, 0.0135727488, 0.0423486792, -0.0576300249, -0.0567773134, 0.0328230187, 0.0449368171, 0.0212947056, -0.0669642910, -0.0246890429, -0.0540397167, -0.0673961639, 0.0125245070, 0.0923662409, 0.0296527166, -0.0319147632, 0.1060585827, 0.0588115677, -0.0185013730, -0.0325254500, 0.0460862927, -0.0556770153, 0.0475243442, 0.0585989282, 0.0211152751, -0.1214423925, -0.1011049598, -0.0003227110, -0.0514157787, 0.0101348879, -0.0572998337, -0.0342626497, -0.0453974791, -0.0497126579, -0.0493215844, -0.0307423454, -0.0105776573, -0.0315848812, 0.0417590886, 0.0246183351, 0.0341761969, -0.0647438839, -0.0274992958, 0.0219947640, 0.1287193745, 0.1054262668, 0.0051373718, -0.0891932249, 0.0906250402, 0.0202011466, 0.0261373110, -0.0688654333, 0.0379593149, 0.0169431437, 0.0100814216, 0.0585690141, -0.1528260857, -0.1072084010, 0.0203647371, 0.0354160964, -0.0604443513, -0.0231596660, 0.0242777169, -0.0726413280, 0.0572560020, -0.0266152378, -0.0372040309, -0.0430222228, -0.0108008031, -0.0852105767, -0.0378832743, -0.0197126009, 0.0004719594, -0.0102258753, -0.0200547632, 0.0465066023, 0.0854369178, 0.0655916110, -0.0095342547, -0.0939018801, 0.0914007351, 0.0568834729, 0.0267057754, 0.0376251079, -0.0091535281, 0.0435360372, 0.0194523800, 0.0410189144, -0.0174846873, -0.0331138968, -0.0410187393, 0.0094003296, -0.0103619341, 0.0380601920, 0.0046042474, -0.0258220211, 0.1146528050, 0.0159683153, -0.0181858968, -0.0152629260, -0.0207330864, -0.1046619266, -0.0644051284, -0.0443767831, 0.0194029063, 0.0329784676, -0.0765340552, -0.0259276815, 0.0556968674, 0.0292074829, 0.0136944205, -0.0530355647, 0.0182026252, -0.0174592976, 0.0394177586, -0.0349804722, -0.0670235157, -0.0120860739, 0.0252723563, 0.0467362180, -0.0347855836, -0.0621294193, -0.0118483799, -0.0051728287, 0.0162225980, 0.0455082692, -0.0034409985, 0.0035308877, 0.0508510321, 0.0215828121, -0.0342697129, -0.0234065410, -0.0649499670, -0.0360976346, 0.0925697684, -0.0566175431, -0.0275899116, -0.0852026343, -0.0369290411, 0.1120241359, 0.0805519000, 0.1223313510, 0.0105908643, 0.0300941337, 0.0249784905, 0.1158585101, -0.0507020876, -0.0329105519, 0.0055364654, -0.0160560720, 0.0381792821, -0.0626145750, 0.0696394816, 0.0103185028, 0.0050478117, -0.0533798151, -0.0100872414, 0.0393955410, 0.0335941203, -0.0743596256, -0.0031178305, -0.0631893054, 0.0141582275, 0.0165271554, -0.0975124240, 0.0161453262, -0.0455223881, -0.0414847657, 0.0180548728, 0.0202740487, -0.0467317328, -0.0568618253, 0.0760672390, -0.0134335700, 0.0172630809, 0.0177963246, 0.0563656203, -0.0153941596, -0.0074726711, -0.0115340613, 0.0036041741, 0.0260746013, -0.0167274848, -0.0126518253, -0.1004104242, 0.0571816191, 0.0541287810, 0.0351240672, 0.0549120829, 0.0176703185, -0.0009346213, -0.0300692860, -0.0588540137, 0.0509514511, -0.0537857823, -0.0089716353, -0.0415879264, 0.0505912453, 0.0403758660, 0.0251101963, -0.0561485924, 0.0475188233, -0.0523382612, -0.0149437990, 0.0119210631, -0.0051356750, -0.0492796153, -0.0469908826, 0.0632251948, 0.0187398531, -0.0244019646, 0.0241419710, -0.0397959836, -0.0194713902, -0.0434373356, 0.0699481890, -0.0428454280, -0.0300637130, 0.0536566675, -0.0558489785, -0.0068778130, -0.0080180643, 0.0386808254, 0.0278534144, 0.0794095173, 0.0228240844, -0.0621221103, -0.0438907258, -0.0069691935, -0.0803179666, 0.0901160315, -0.0623905547, 0.0210458748, 0.0645386651, -0.0410377011, -0.0409102775, 0.0088344282, -0.0673694611, 0.0442825146, -0.0161730684, 0.1057804301, 0.0005758354, -0.0269725583, -0.0216135252, -0.0406920314, 0.0473346040, -0.0046540261, 0.0328619108, -0.0377720706, -0.0299935024, 0.0260216892, -0.0582447909, 0.0049467720, -0.0584342405, 0.0652742907, -0.0296694338, -0.0527070500, -0.0384832844, -0.0410265215, -0.0703033432, -0.0034303993, 0.0147267208, 0.0179314520, -0.0664036870, -0.0639832392, -0.0150795877, -0.0790264159, -0.0395185165, 0.0373315029, 0.0432047322, -0.0326720923, 0.0105072139, 0.0807499364, -0.0210285038, -0.0184428114, -0.0211424641, 0.0101734316, -0.0624899678, 0.0974588171, 0.0599131510, -0.0751019120, -0.0416923426, -0.2137673795, -0.0049907598, -0.0546089113, -0.0293110441, 0.0534220785, -0.0563441068, 0.0258297715, -0.0660258681, 0.0385087654, -0.0021841049, 0.0156875793, -0.0670054927, 0.0293820333, -0.0261265300, 0.0287507847, 0.0341610126, -0.0524259657, 0.0603520386, 0.0886190385, 0.0400198810, 0.0223563556, -0.0546122566, 0.0499901548, 0.0660353974, 0.0800370499, -0.0679863170, 0.0446206704, 0.0079495599, 0.0453772023, 0.0965531766, -0.1528449804, 0.0049579679, -0.0011317013, -0.0183588415, -0.0061333147, -0.0628236681, -0.0593397468, -0.0781899616, 0.0551067293, -0.0283180699, 0.0356193259, -0.0253160782, -0.1124656051, -0.0129271057, -0.0269676801, 0.0211400874, -0.0375478715, 0.0333066210, -0.0128317894, 0.0125060184, 0.0952157751, 0.0056599821, -0.0579828732, -0.0950136930, 0.0265566371, 0.0140893590, 0.0032814427, -0.0137485750, -0.0532392412, 0.0323869623, -0.0355261154, 0.0869409293, -0.1270546466, -0.0139015494, 0.0158762801, 0.0182686076, 0.0072019049, -0.0583494902, -0.0432526916, -0.0611356236, 0.0468880497, -0.0386259370, -0.0598241687, -0.0082626753, -0.0526995547, -0.0017225868, -0.0234143138, -0.0475530811, -0.0122333160, -0.0346968807, -0.0872521922, 0.0756205097, 0.0562185310, 0.0528300181, -0.0241621230, -0.0706170052, 0.0337756351, 0.0111691523, 0.0143793542, -0.0307830516, 0.0449277200, -0.0365904458, 0.0015881672, 0.0411051027, -0.0893848389, 0.0570908412, 0.0212371312, -0.0256566498, -0.0193397757, -0.0622062944, 0.0371072553, 0.0129803382, 0.0608286299, -0.0113485828, -0.0108094644, -0.0044003809, -0.0064681126, 0.0464333519, 0.0340609588, 0.0282008648, 0.0032630363, -0.0583717376, -0.0098210601, 0.0652476251, 0.0840882882, 0.1042016074, 0.0441494994, 0.0201289207, 0.0543220043, 0.1027643904, -0.0451712497, -0.0689697117, -0.0477271825, -0.0289563239, -0.0100197829, 0.0641664416, -0.0754528046, -0.0208808146, -0.0626422316, 0.0151117435, -0.0714374632, 0.0399101004, 0.0670150220, 0.0226378348, 0.0011467811, -0.0235678181, 0.0026723833, -0.0609330051, -0.0619760267, -0.0033708657, 0.0287813228, -0.0576356091, 0.0207333881, 0.1034588665, 0.0040960349, 0.0212497357, 0.0223641619, -0.0427001379, -0.0130352965, -0.0191315487, 0.0232658610, 0.0631277040, 0.0631988645, -0.0018654391, 0.0078081368, 0.0068757380, -0.0791095644, 0.0394716375, 0.0068417620, -0.0213016458, -0.0407589972, -0.0060590105, 0.0161340460, -0.0214605033, 0.0372796915, -0.0516924039, -0.1325435936, -0.0521230549, 0.0067329528, 0.0426505916, -0.0618464649, -0.0946129784, 0.0454917364, 0.0422591455, 0.0238977671, 0.0850803033, 0.0719009563, 0.0107567441, 0.0560383722, -0.0869605839, -0.0008777621, -0.0655376390, 0.0613711439, 0.0382677764, -0.0576912537, -0.0325083695, 0.0286879726, -0.0597650148, -0.0141021553, 0.0210260972, -0.0245369896, -0.1157592759, 0.0591019802, -0.0579686537, 0.0453043878, 0.0399813689, -0.0334598720, -0.0042839162, 0.1005778685, 0.0239723213, -0.0680322647, 0.0214523487, 0.0323635563, -0.0706981272, 0.0519118086, -0.0520203859, -0.0602169596, 0.0208238959, 0.0205991883, 0.0450939052, -0.0475123115, -0.0478625819, 0.0022971220, 0.0206044689, 0.0549225248, 0.0149174957, 0.0022346955, -0.0172510073, 0.0407415666, -0.0207658429, 0.0273258165, 0.0475119911, -0.0233752839, -0.0980124325, 0.0228147227, -0.0079796985, -0.0608673468, 0.0407467820, -0.0441107415, 0.0093830386, -0.0465561897, 0.0140002258, -0.0349378698, -0.0719974563, 0.1027785987, -0.1454688758, 0.0113583356, -0.0119289178, 0.0221176799, -0.0254440457, -0.0182074010, 0.0541091897, 0.0959531367, -0.0452445373, -0.0329227522, 0.0551751219, -0.0151587911, -0.0233300533, 0.0349157080, 0.0388448872, -0.0407741405, -0.0154307978, 0.0230419394, 0.0974641368, -0.0375561751, -0.1301697642, -0.0732876584, 0.0162753910, 0.0030863453, 0.0324702300, -0.0327758826, -0.0393237770, -0.0389416516, -0.0392408185, -0.0028139059, 0.0199638177, 0.0065884618, -0.1031349897, 0.0232320614, -0.0276498124, -0.0277408902, -0.0559094958, 0.0125574451, 0.1266768575, 0.0845037773, 0.1362665594, 0.0505304299, 0.0069456585, 0.0483724587, -0.0482040867, -0.0099535836, -0.0552884527, -0.0502182916, -0.0005871363, -0.0286879409, 0.0148204425, -0.1550242603, -0.0232960451, -0.0289276186, -0.0045231008, 0.0096959779, 0.0537288524, 0.0167625882, -0.0645227209, -0.0155505091, 0.0119985798, -0.0290990490, -0.0194938350, -0.1060041487, -0.0508091934, 0.0326791890, -0.0109415054, -0.0139703872, -0.0220785774, -0.0540646389, 0.0330166370, 0.0808603242, 0.0783259347, -0.0542503782, 0.0155219808, 0.0173116606, 0.0008066637, 0.0276909340, -0.0447020642, -0.0516414717, 0.0188068710, -0.0125323217, 0.0077212290, -0.0570369400, 0.0595296808, -0.0232792981, 0.0086258166, 0.0253194049, -0.0308490507, -0.0033670971, 0.0037047998, 0.0122375851, -0.0120025231, -0.0172833987, 0.0237692073, -0.0128156133, -0.0054481109, 0.0904549584, -0.0210287757, 0.0603241250, -0.0340041555, -0.0942482725, 0.0131884320, -0.0341507792, 0.0741823465, -0.0037282156, 0.0125768250, 0.0290840510, -0.0117635429, 0.0511586741, 0.0240249205, -0.0330890231, -0.0369575471, -0.0410557427, 0.0703697503, -0.0001134986, -0.0111429011, -0.0434053876, 0.0054724608, -0.0498661362, -0.0071649170, 0.0271093305, 0.0017253209, 0.0223443881, 0.0281799845, 0.0107373884, -0.0277731437, -0.0186259970, 0.0498339757, -0.0188394319, -0.0411983617, -0.0393552445, 0.0292173848, -0.0747333765, 0.0672012493, 0.1001932248, 0.0564111210, -0.0364544205, -0.0769576952, 0.0118831154, 0.0200128928, -0.0591273829, -0.0192773361, 0.0191230252, -0.0188704487, 0.0713175535, 0.0318706520, -0.1038814336, -0.0007134632, -0.0488402173, -0.0010856538, 0.0047730869, -0.0259757973, -0.0664622486, -0.0043469779, 0.0342133343, -0.0223440956, -0.0674884841, -0.0440970585, -0.0246818960, -0.0200750660, -0.0199080762, -0.0314585790, -0.0352819338, 0.0148122646, 0.0197912678, 0.0850737765, 0.0442253463, -0.0421243608, 0.0412470959, -0.0403489843, -0.0520897023, -0.0459441766, 0.0286907572, 0.0133484863, 0.0458166264, -0.0159606338, -0.0327303894, 0.0725847110, 0.0731622353, 0.0436858498, -0.0724529922, -0.0156015996, 0.0035120388, -0.0473065637, -0.0234791897, 0.0132713290, -0.0847080871, 0.0348568223, 0.0271329135, -0.0076488242, 0.0477975793, 0.0628836006, 0.0544006191, 0.0293552168, 0.0280125178, 0.0683393702, -0.0405878350, 0.0758295804, -0.0899490044, -0.0036410682, -0.0186981764, -0.0005344266, -0.0181706082, 0.1088383496, -0.0430281200, -0.0356180295, -0.0431831479, 0.0515315495, 0.0024329680, -0.0238688104, 0.1382045001, -0.0731173307, 0.1248236597, 0.0467070527, -0.0308853108, 0.0116664581, -0.0043391306, -0.0280627273, -0.0118426224, -0.0471955203, -0.0590329506, -0.0451622978, -0.1050695926, 0.0934606642, 0.1339742988, 0.0148259588, -0.0263499469, 0.0596204475, -0.0133252703, 0.0625374541, -0.0838932917, 0.0151410829, 0.0392641388, 0.0298458636, -0.0309946686, 0.0245307498, -0.0749943405, -0.0281946231, -0.0409783870, -0.0004804313, 0.0842675641, 0.0614204966, 0.0939137936, -0.0267253909, 0.0837090537, -0.0294644237, -0.0422796458, -0.0093083689, -0.0409603901, -0.0172250774, -0.0979053155, -0.0301653463, -0.0406927764, 0.0383312628, 0.0178998951, 0.0440830700, 0.0095993094, -0.0660857037, -0.0380848423, 0.0766759813, 0.0794061944, -0.0680768117, 0.0696285218, 0.0602464750, -0.0186240152, -0.0160767771, -0.0176297408, 0.0503439978, 0.0596904755, -0.0543233976, 0.0171288699, -0.0000511575, 0.1118496284, 0.0020495902, 0.0238120444, -0.0670307949, -0.0460851528, -0.0618519969, -0.0014315477, 0.0188958775, -0.0428582430, -0.0265977662, 0.0713273957, 0.0367740430, 0.0404779054, -0.0541893765, 0.0008507804, 0.0234984700, 0.0562716648, -0.0158530697, -0.0275143031, -0.0025102773, -0.0587097555, 0.1169114113, 0.0341670923, 0.0553852953, -0.0357108191, -0.0963259637, -0.0158440005, -0.0586511828, 0.0552515537, -0.0496968739, 0.0119618336, 0.0415995233, 0.0587137975, 0.0249928348, -0.0713304877, 0.0541732721, -0.0248589087, -0.0100526474, 0.0137088681, -0.0454879925, -0.0333365351, 0.0203281771, -0.0307528023, 0.0329276398, 0.0416595191, 0.0197035819, -0.0459899567, 0.0082179457, 0.0041613667, 0.0307610352, -0.0397664830, -0.0166437533, -0.0700084716, 0.0366162658, 0.1005875468, 0.0819245875, -0.0383480862, -0.0045125773, 0.1002413034, -0.0761348158, 0.0181431994, 0.0389167629, 0.0012271613, -0.0533047169, 0.0034453617, 0.0154573033, -0.0464757234, 0.0111532053, -0.0007087944, 0.0228962675, -0.0465831086, 0.0464351587, 0.0305056535, -0.0260906983, 0.0588646121, -0.0098063452, -0.0316893868, -0.0067368085, -0.0790977851, -0.0415360965, -0.0069723832, -0.0305434931, 0.0543234162, -0.0031406868, -0.0336556546, 0.0130489152, -0.0040180585, 0.0300272685, -0.0499356464, -0.0291718934, 0.0032290751, -0.0366380066, -0.0481768958, -0.0549578369, 0.0002151880, 0.0497316122, -0.0240507592, 0.0508171618, 0.0194532145, -0.0128721036, -0.0676657632, -0.0434800386, -0.0193982329, -0.0549182035, -0.0534048192, -0.0226687752, 0.0379248746, -0.0137509303, -0.0633524209, 0.0444063433, -0.0352789015, 0.0402471535, -0.0586108454, 0.0144218486, -0.0205851905, -0.0108865714, -0.0097969715, -0.0262154490, 0.0203375295, 0.1170574874, -0.0433441065, 0.0322308764, 0.0113798762, -0.0375309736, -0.0813174695, 0.0402650759, 0.0300271884, -0.0506461821, -0.0002056212, 0.0583954714, -0.0033840812, 0.0086847879, -0.1172271669, 0.0228767302, -0.0043270034, 0.0255803857, -0.0352721810, -0.0385893658, 0.0186830480, -0.0321315490, -0.0422121361, -0.0311339404, 0.0240202677, 0.0197566766, 0.0331836194, 0.0472562760, 0.0523334220, 0.0008569268, 0.0955924839, -0.0350273773, 0.0703715235, -0.0491269641, -0.0246528592, 0.0150345750, 0.0762882531, -0.0732825547, 0.0724133328, 0.0545187481, 0.0622641481, -0.0558629744, 0.0920646563, 0.1110678911, 0.0898918584, -0.0784295350, -0.1268599629, -0.0452363715, -0.0154872555, -0.0665067956, 0.0341011286, 0.0507901423, -0.0296894480, -0.0061702258, -0.0157715827, -0.0339980088, -0.0051646037, 0.0145684499, 0.0285495427, 0.0230242051, -0.0052028485, -0.0141188763, -0.0113272881, 0.0579473376, 0.0097517483, 0.0110437879, -0.0500140935, -0.0094007207, -0.0190807506, 0.0605585501, 0.0321561247, 0.0108441599, 0.0676652491, 0.0414784029, -0.1061912775, 0.0064576087, 0.0034554130, 0.0203048289, -0.0262086540, -0.0271520559, -0.0199448429, -0.0404397845, -0.0190679599, 0.0138791986, 0.0113857631, -0.0552929901, -0.0506533422, 0.0137145165, -0.1816100180, 0.0267614815, 0.0902896449, -0.0344276428, 0.0132886181, 0.0965009704, 0.0925742909, -0.0240338258, -0.0340293869, -0.0862835869, -0.0416856259, 0.0009396694, 0.0543658175, -0.0436741188, 0.0992324054, 0.0151228970, 0.0289927386, 0.0003167928, -0.0483944044, 0.0281785093, 0.1173560992, -0.0439659581, -0.0149454251, 0.0068733133, 0.0545605756, 0.0226908904, -0.0603774413, -0.0004865513, -0.1004238874, 0.0001886040, -0.0111176074, -0.0087097622, -0.1427710950, 0.0389293917, 0.0717176273, -0.0425423272, 0.0404769368, -0.0371018909, 0.0532771498, -0.0302802287, 0.0039580045, 0.0028939347, 0.0226299446, -0.0042546764, -0.0503910296, 0.0817558840, 0.0336375013, -0.0442616493, -0.0270088464, -0.0380780995, -0.0048577753, -0.1184298769, -0.0625333562, -0.1180806980, -0.0877250284, -0.0505319797, -0.0049391584, 0.0124340551, 0.0500560924, 0.0369720273, -0.0442929678, -0.0597017519, 0.0308279414, -0.0252810828, 0.0178961996, 0.0137016671, -0.0595896468, 0.0027035743, -0.0050231791, 0.0850887373, -0.0050989524, 0.0415331498, 0.0668825954, 0.1065518558, -0.0337709077, -0.0090225944, 0.0139673008, 0.0070006670, -0.0457705185, -0.0578530505, -0.0376765355, -0.0117231831, 0.0356386155, 0.0015722124, -0.0192087386, 0.0342941023, 0.0158970822, 0.0048928661, 0.0387328900, 0.0055754771, 0.0357807800, -0.0676108450, -0.0664241910, -0.0048190216, -0.0594807006, -0.0561370887, -0.0261077769, 0.0573482178, 0.0745175406, 0.0298567060, -0.0550068952, -0.0192120541, -0.0406760611, -0.0432674102, 0.0683809146, 0.0410505086, -0.0141548887, -0.0909807384, 0.0263654590, -0.1008843184, 0.0067245448, -0.0196161494, -0.0533635095, -0.0470733754, 0.0017723383, 0.0723091811, -0.0122352298, 0.0797905847, -0.0327876396, 0.0070452793, -0.0169697497, -0.0181411989, -0.0024781886, 0.0176595245, 0.0095928125, 0.0500837266, 0.0280502383, 0.0539051592, 0.0041646692, 0.0492437892, -0.0606473424, -0.0597150736, -0.0149386376, 0.0101954024, -0.0286377426, 0.0091931475, 0.0521337874, 0.1400817186, 0.0145662967, -0.0931629390, 0.0575321950, -0.1002890319, -0.0820526406, -0.0475647524, 0.0030939304, -0.0359786861, 0.0225912537, 0.0449259020, 0.0152954105, 0.0889263004, -0.1090228260, -0.0159479994, -0.0647992790, 0.0326212384, -0.0296742804, -0.0281059891, 0.0389281735, -0.0337343328, -0.0349280313, 0.0220404100, 0.0386285745, 0.1336666048, 0.0180081911, -0.0111860717, 0.0152060892, -0.0381135866, -0.0967778191, -0.0516690649, -0.0051706452, 0.0647307783, 0.0066869757, -0.0055483161, 0.1139986068, -0.0170229822, -0.0877273157, -0.0805987194, 0.0590958446, 0.0372144394, 0.0520266034, 0.0259182416, 0.0167136882, 0.1083958596, -0.0240051094, 0.0160694662, -0.0193254370, -0.0371087715, 0.0177917071, -0.0110861538, -0.0511302911, 0.0018654568, -0.0080386717, 0.0507534966, -0.0077489023, 0.1421141028, -0.0310093667, -0.0521958657, -0.0658867285, -0.0073580001, 0.0150884558, 0.0231753215, 0.0120024430, 0.0796983466, 0.0023907099, -0.0700682402, 0.0781615153, -0.0134236710, 0.0522358231, -0.0598835200, 0.0216173884, 0.0501376912, -0.0206688438, -0.1234794334, 0.0322760791, -0.0948919952, 0.0029286465, -0.0173742939, -0.0343683846, 0.0346199051, 0.0183460526, -0.0392277017, 0.0063708755, 0.0010408341, -0.0281317104, -0.0025685737, -0.1111696959, -0.0421203673, -0.0377018265, 0.0021224134, 0.0365133099, -0.0395096280, 0.0068511222, -0.0320725441, 0.0636053681, 0.1042998433, -0.0339361131, -0.0455205254, 0.0869132057, 0.0628681928, -0.0383960865, -0.0075348318, -0.0241789538, -0.0005297122, -0.1322217882, 0.0601672418, 0.0270704944, 0.0319501534, 0.0110458350, -0.0299620889, 0.0257061310, 0.0327993520, -0.0683426708, -0.0359610319, 0.0754013285, 0.0030845206, 0.0096500162, 0.0484297350, -0.1166226044, -0.0326759405, -0.0192423128, 0.0465024710, 0.0247349273, 0.0706850141, -0.0167573988, -0.0516370237, 0.0790416673, -0.0225217696, -0.0102917962, -0.0351251699, 0.1314656287, 0.0942632928, 0.0197248366, 0.0249205250, -0.0226580501, -0.0239143148, -0.0492089204, -0.0506462604, 0.0385891646, 0.0145774195, -0.0723367184, 0.0110369138, 0.0203250162, -0.0524572432, -0.0069706105, -0.0598531179, -0.0736245289, 0.0040436573, 0.0400293209, 0.0111866593, -0.0631058291, -0.0235839151, -0.0117121376, -0.0597538315, -0.0268704817, -0.0039938479, 0.0460348390, 0.0307286344, -0.0421163253, 0.0309976507, 0.0207369123, -0.0429147668, -0.0100593194, 0.0241351742, 0.0226083510, -0.0577165298, 0.0189776402, 0.0045931968, -0.1227441579, 0.0361003391, -0.0765123591, 0.0738940686, -0.0345136076, -0.0041703507, 0.0507501215, -0.0102884257, 0.0305878799, 0.0390340574, 0.0523445345, -0.0416864231, 0.0443916135, -0.0575427972, -0.0236654226, -0.0329676345, 0.0091930237, -0.0193054732, -0.0083837751, 0.0121616544, -0.0358271152, -0.0163130350, 0.0694951117, 0.0815707222, -0.0182668269, -0.0658359379, 0.0481503941, 0.0150160687, 0.0141291879, -0.0705405623, 0.0342829823, -0.0038676520, -0.0051406338, -0.0064922418, -0.0520559549, 0.0597490780, -0.0229542479, -0.0661747977, -0.0256902184, -0.0589681379, -0.0598711781, -0.0215561129, -0.0465413556, 0.0035353540, 0.0234009996, -0.0150526008, 0.0012192227, 0.0623404495, -0.0895394459, 0.0320233926, -0.0360230394, -0.0077153081, 0.0308231935, 0.0497684516, 0.0624169707, 0.0419128835, 0.0032658346, -0.0688561127, 0.0699732080, -0.0769543722, -0.0191682968, -0.0523596816, 0.0244658105, 0.0037587420, -0.0512349755, -0.0119135277, -0.0461151190, 0.0910249949, -0.0979519859, 0.0241358355, -0.0285661183, -0.0491200499, 0.0263222046, -0.0235378742, -0.0011171106, -0.0030441370, 0.0342069305, -0.0260568634, -0.0040796855, 0.0219723061, -0.0247941334, -0.0211755298, -0.0535524338, 0.0000282594, -0.0763169006, -0.0366088711, 0.0012490901, 0.0238764454, -0.0441061445, -0.0468718819, 0.0126591492, 0.0378203019, -0.0247288756, -0.0707666352, -0.0499179438, -0.0392551757, 0.0057391645, 0.0087415474, 0.0380416289, -0.0016406579, -0.0198274739, -0.0331121795, 0.0535189658, -0.0664462522, -0.0040148175, -0.0203280151, -0.0340120159, -0.0414721034, -0.0551183261, -0.0200545266, 0.0145161962, 0.0649932250, 0.0439095385, 0.0049975966, -0.0226346962, 0.0044070813, 0.0087075252, -0.0206760690, -0.0058901263, 0.0480344780, -0.0148021085, -0.0826695785, 0.0440775231, 0.0178958941, -0.0216970574, -0.0693279877, -0.0247179978, -0.0179539099, 0.0408248901, 0.0206069723, -0.0285964198, 0.0861046240, 0.0483042002, 0.0180463828, -0.0630564466, -0.0234551858, 0.0242533274, -0.0777208731, 0.0081339339, -0.0036457742, -0.0356888808, 0.0147070996, 0.0917012393, 0.1158917248, -0.0370596200, 0.0480501987, -0.0652639270, -0.1336547136, -0.0358016938, -0.1338905394, -0.0235002022, 0.1019162238, -0.0550025515, 0.0329332016, 0.0026951896, -0.0317044258, 0.0229071770, -0.0109930858, -0.0338737220, 0.0031173567, 0.0817381591, 0.0562452786, 0.0165037569, -0.0498128086, -0.1033532992, -0.0319056138, -0.0389805436, 0.0426495485, -0.0506791510, -0.0656159669, -0.0341541208, -0.0281037819, -0.0117680095, -0.0019211535, -0.0073573040, 0.0567922518, 0.0144764669, 0.0438759886, 0.0419556350, -0.0130265271, -0.0236285124, -0.0147017092, 0.1524609625, 0.0063907071, 0.0194885079, 0.0248452928, 0.0040997374, 0.0309447721, -0.0154032949, 0.0360490717, 0.0521970391, 0.0301671661, -0.1148684919, 0.0852541178, -0.1272570789, 0.1336959302, 0.0298858024, 0.0256701484, 0.0515203997, -0.0037616927, -0.0432270691, 0.0032262392, -0.0295455977, 0.0033758851, -0.0210290030, -0.0623714812, -0.0819246396, 0.0236289445, 0.0084427539, -0.0001742750, -0.0609163642, 0.0819101706, -0.0841326192, 0.1275701672, 0.0638475791, 0.0059160534, -0.0034473464, -0.0042468887, -0.0344542712, 0.0274217073, -0.0157096535, -0.0336617380, 0.0289611146, -0.0337072425, 0.0036358985, 0.0119333528, -0.1812373847, 0.0706319213, -0.0738000795, -0.0096062347, 0.0298843794, -0.0184545405, 0.0048994534, 0.0037481508, -0.0531874001, 0.0105434917, -0.0543766432, -0.0731073841, -0.1487963200, 0.0150370784, -0.0462180078, -0.0166227072, -0.0564962253, 0.0778454170, 0.0129990671, -0.0233216994, 0.0710395575, 0.0359408334, 0.0129620340, 0.0561716184, -0.0138440104, -0.0852237493, 0.0319512784, -0.0167383254, -0.0385336168, 0.0430376902, -0.0913209543, 0.0356507152, -0.2203221768, 0.0389697999, -0.0333012864, -0.0652819052, -0.0311494693, 0.0332530551, -0.0473222807, 0.0282282121, 0.0454722382, 0.0081763994, 0.0395655818, 0.0137950554, -0.0715314373, 0.0535511747, -0.0483661406, -0.0493011549, -0.0471940488, 0.0014302678, -0.0750429258, 0.0304377247, 0.0825521126, 0.1121520624, -0.0400895365, -0.0324574709, 0.1108730659, -0.0019960706, -0.0613048486, 0.0301553067, 0.0012409835, -0.0165966153, 0.0431006104, -0.0071032438, -0.0227644835, 0.0576461554, -0.0333697759, 0.0325012431, -0.0061995266, -0.0578675196, 0.0152909560, 0.0300255641, -0.0750643462, 0.0184455216, 0.0503895245, -0.0527461953, -0.0168344062, 0.1144486591, 0.0653626174, 0.0304144211, -0.0035878359, 0.0272206385, 0.0037262207, -0.0433085226, 0.0996193811, 0.0389309339, -0.0578004196, -0.0872397274, 0.0011189136, -0.0799598619, 0.0069516781, 0.0584152453, -0.0170953814, -0.0107634133, -0.0196457859, 0.0557749681, -0.1247291565, 0.0733750537, 0.0588157140, 0.0232428536, 0.0014794228, 0.0219012704, -0.0363625549, 0.0037772420, -0.0577941686, 0.0450652167, -0.0638560876, 0.0058919583, -0.0425986722, 0.0112365605, 0.0626789033, -0.0597398095, 0.0235457830, 0.0240339860, -0.0815972537, -0.0181596503, -0.0406046435, 0.0226241369, -0.0019362516, -0.0081348093, 0.0379964747, 0.0562569574, -0.0053058141, 0.0165986605, 0.0136042554, 0.0256343782, 0.0052075679, -0.0120061953, 0.0080826078, -0.0077092126, 0.0683395639, 0.0238640793, -0.0467152484, -0.0168855563, -0.0457291789, -0.0210748576, -0.0129232304, 0.0103760790, -0.0601131171, -0.0305067189, 0.0522617027, 0.1181225553, -0.0374658369, 0.0524721928, 0.0639409721, 0.0103763603, 0.0112584066, -0.0106894178, 0.0605326369, 0.0141255856, -0.0126229888, 0.0340510719, 0.0806591362, -0.0432446264, -0.0762456432, -0.0640959218, -0.0281964336, -0.0673565790, 0.0036817694, -0.0272267796, -0.0864055678, 0.1437764615, -0.0143870581, -0.0413182005, 0.0125775691, -0.0199980084, -0.0183326416, 0.0082017677, 0.0211535841, 0.0074316254, 0.0081984438, -0.0367116071, 0.0487884469, 0.1441551298, 0.0347697549, 0.0439864509, 0.0316915512, 0.0825509578, 0.0881554335, -0.0524972603, -0.1332303882, 0.1191985980, -0.0001982335, -0.0646648556, 0.0542743579, 0.0572179519, -0.0163586717, 0.0346887447, -0.0287097041, -0.0329303183, 0.2293054610, -0.1290796697, 0.1506865323, -0.0289304592, -0.0531457476, 0.0000853436, -0.0304343142, 0.0491137169, 0.0451019891, 0.0532097965, -0.0634838715, -0.0004468723, -0.0470566526, -0.0450885855, -0.0180759616, 0.0110539198, 0.0008939529, -0.0310060494, 0.0248290878, 0.0054192571, -0.0335428603, 0.0113457898, 0.0926544517, 0.0958715454, 0.0503249541, -0.0458689183, 0.0201566927, -0.0258040261, -0.0505217947, 0.0110376738, 0.0368416682, -0.0046652737, 0.0251974799, -0.0277925506, -0.1001970842, -0.0201315470, -0.0731667802, 0.0382831618, -0.0645681024, 0.0364302583, 0.0361561403, -0.0132575445, -0.0163501129, -0.0300808121, 0.0338159874, -0.0201701391, 0.0041416953, -0.0633915737, 0.1154638678, -0.0016059631, -0.0412025601, 0.0688051060, -0.0247142054, -0.0357140601, 0.0765957460, 0.0345757417, -0.0198512562, -0.0651612952, -0.0235837512, -0.0591052137, 0.0618626401, 0.0414150991, -0.0330936313, -0.0449810699, 0.0426066183, 0.0821108073, -0.1313241422, -0.0165583156, -0.0424809381, 0.0234301649, 0.0080892257, -0.0165702198, -0.0442590974, -0.0436006635, -0.0214739144, -0.0283977725, 0.0311169811, -0.0544746034, -0.0603869632, -0.0191950724, -0.0456413478, 0.0407394357, -0.0325149037, -0.0224093758, 0.0842108876, 0.0788010955, 0.0312583074, 0.0323304832, 0.0482761785, 0.0241245106, -0.0850467011, -0.0616349988, 0.0381402411, -0.0577264577, -0.0594943389, 0.0401205868, -0.0759043619, 0.0037143514, -0.1217615381, 0.0384209938, -0.0084323771, 0.0166357365, -0.0446349420, -0.0489451177, 0.0078194924, 0.0233480409, 0.0071761124, -0.0519898571, -0.0094307121, -0.0292354841, 0.0316239558, 0.0354447216, 0.0084553333, 0.0173177421, 0.0113809863, 0.0612794347, -0.0844081864, 0.0514102243, 0.0221644007, 0.0732658133, -0.0061989059, -0.0839983523, 0.0242552627, 0.0713435262, -0.0038883542, 0.0045020417, -0.0241373461, -0.0235055108, 0.0713774636, -0.0723739341, -0.0462609008, 0.1309417933, 0.0394329391, -0.0188043769, 0.0507715046, 0.0033489366, -0.0459199548, 0.0090269307, -0.1289849579, -0.0664586723, -0.0150587959, -0.0487673171, 0.0682156011, 0.0368227400, 0.0515298210, -0.0050165057, 0.0570788793, 0.0207714476, -0.0345303677, -0.0337622985, 0.0277734380, 0.0301103909, -0.0493468456, -0.0059692366, 0.0390573926, -0.0745609477, 0.0484217145, 0.0445804037, -0.0322740301, -0.0272304695, -0.0043865936, -0.0587392934, -0.1190241352, 0.1622411758, 0.0741426647, -0.0161903817, 0.0216916595, -0.0182617642, -0.0270562600, -0.0566176102, -0.0507256091, -0.0625495091, 0.0347330831, 0.0371933877, -0.0259697642, 0.0454705581, -0.0287047606, 0.0342081971, 0.0079963664, 0.0922269225, -0.0328295268, -0.0815608874, 0.0271753520, 0.0951530114, 0.0292368624, 0.0079873158, 0.0343727730, 0.0696006939, -0.0439363532, -0.0717942417, 0.0380989313, 0.0358584635, 0.0140200350, -0.0727529600, -0.0869828835, 0.0906226635, 0.0495294221, -0.0001275950, -0.0470360741, -0.0095071951, 0.0196930487, -0.0004756315, -0.0079852659, 0.0049661445, -0.0267716609, 0.0315751992, -0.0569516607, 0.0025584006, -0.0324094854, -0.0670768544, -0.0382250547, 0.0511522256, 0.0213474110, 0.0880666301, 0.1039999872, 0.1030622348, -0.0120346313, -0.0002153929, 0.0542769171, 0.0655417591, -0.0113498727, -0.0091062533, -0.0414773151, -0.0005296983, -0.0182551239, -0.0808289573, -0.0396485738, 0.1171160862, 0.0778147280, -0.0441370942, 0.0275428239, -0.0207329318, 0.0022780858, 0.0382363610, 0.0283481050, 0.0497653671, 0.0293785222, -0.0565545820, -0.0863617882, 0.0857300088, 0.0314190090, 0.0570948608, -0.0547887683, 0.1492176652, 0.0280334353, 0.0027481315, -0.0460743979, 0.0201148931, -0.0525299981, -0.0593271032, -0.0699815974, 0.0649922118, -0.0296007823, -0.0536050573, -0.0555083863, -0.0108717531, 0.0222724210, -0.0136881871, 0.0199515354, 0.0636190251, -0.0274190158, -0.0338192880, 0.0360671654, -0.0306346286, -0.0059750425, -0.0611951053, -0.0020866522, 0.0331319422, 0.0049687685, -0.0024947375, 0.1121013835, -0.1412042081, 0.0447251350, 0.0153839476, 0.0521249808, -0.0550800189, -0.0260967724, 0.0668796673, 0.0622081682, 0.0487400740, -0.0180261489, 0.0335212871, -0.0297818724, -0.0173056573, -0.1333923340, 0.0595988370, -0.0111447582, -0.0031170736, 0.1405965835, 0.0380438194, -0.0528592914, -0.0803193152, 0.0369747430, 0.0254893731, 0.0240144636, -0.0168532934, 0.0408359170, -0.0520176440, 0.0726757571, -0.0036156799, -0.0048944303, -0.0477617234, 0.0179655757, 0.0087095927, 0.0797042474, -0.0278437715, -0.0337504745, -0.0282555614, -0.0117356293, -0.0414796546, 0.0650903657, 0.0285384078, 0.0070449375, 0.0304898415, 0.0653039068, 0.0114260307, 0.0512846969, -0.0128027750, 0.0297445208, 0.0207162872, 0.1501329839, 0.0355906710, 0.0045369477, -0.0497714095, -0.0582049526, 0.0290824883, 0.0291334763, -0.0646306872, 0.0523890890, -0.0180188790, -0.0430249721, 0.0363548510, 0.0450744443, 0.0006436572, 0.0805573985, -0.0832944959, -0.0388481654, 0.0183393992, -0.0145110069, -0.1345641762, -0.0109145269, 0.0789472163, 0.1261671185, -0.0414078645, -0.0100669637, 0.0402074270, 0.0129193915, 0.0244933385, 0.0031453348, -0.0232457481, -0.0045300419, 0.0024211968, 0.0693318769, 0.0604252256, -0.1868986040, -0.0075853439, 0.0722078383, -0.0617761612, -0.0417111106, 0.0136625208, 0.0140338689, -0.0326484405, 0.0520709753, 0.0219499860, -0.0323510244, 0.0248134248, 0.0393353365, 0.1456629932, 0.0021060680, 0.0144391963, -0.0161670465, 0.1121979952, -0.0784367025, -0.0942706689, 0.0129620293, 0.0672621652, -0.0343699344, 0.0225537270, -0.0065853437, 0.0627905726, -0.0087488415, 0.0189383011, -0.0509200543, -0.0210735463, -0.0553257987, -0.0282704737, -0.1024401113, 0.1382955164, 0.0653108805, -0.0601703860, -0.0168828629, 0.0180744417, -0.0884838700, -0.0616544560, -0.1202936023, -0.0062210700, -0.0467245206, 0.0229889546, 0.0139201684, 0.0477229916, -0.0666197538, -0.0269797221, -0.0185635835, 0.0694086030, -0.0864736363, -0.0649933070, -0.0988317579, 0.0714447573, 0.0267177671, 0.0103214635, -0.0179824345, 0.1107430682, 0.0258841459, -0.0168646872, -0.0342886634, 0.0316806249, -0.0311344806, -0.0644473061, 0.0332567729, 0.0669000149, -0.0559657477, -0.0340721458, -0.0176710021, 0.0074711381, -0.0447073989, 0.0144611374, -0.1229321733, 0.0242869537, -0.0227268711, -0.0508333519, 0.0246153641, 0.0033199755, -0.0200859420, -0.0652885064, -0.0412975214, 0.1388270110, -0.0676941797, -0.0147329103, 0.0230875444, -0.0378545187, 0.0504729636, -0.0590001605, 0.0266553946, 0.0658307970, -0.0411411859, -0.0267002620, -0.0169333033, 0.0368396118, -0.1379191875, -0.0147258472, 0.0267044306, 0.0357970782, 0.0141273811, 0.0330677256, 0.0227810089, -0.0606142469, 0.0135951350, 0.0365032777, -0.0535113774, -0.0257861763, 0.0081606042, -0.0335985124, 0.1090472341, 0.0079777716, -0.0140807098, 0.0082442071, -0.0139014320, 0.1401007175, -0.0862143561, -0.0219570622, 0.0180161130, 0.0546975695, 0.0076981643, -0.0518296622, -0.0690925196, 0.0835129246, -0.0905290544, -0.0786482915, 0.0435000584, -0.0782407746, -0.1477378011, -0.1040289029, -0.0516044647, 0.1831363291, 0.0940062851, 0.0098693632, -0.0384045504, 0.0232386366, 0.0738719478, 0.0217193514, -0.0264448319, 0.0046444056, -0.0452317409, 0.0308870859, 0.0531470738, 0.0633334965, 0.0541430190, 0.0423129424, 0.0037729337, -0.0046944902, 0.0417257622, 0.0449118316, -0.0466895625, 0.0127495518, -0.0501098186, 0.0211363751, 0.0333153345, -0.0010701907, 0.0560316592, 0.0222298522, -0.0223917626, -0.0045955367, 0.0970746130, -0.0018150152, -0.0260203201, -0.0149615100, -0.0278711002, 0.0428348184, 0.0316563919, 0.0291603208, -0.0200067889, -0.0540493280, 0.0437356271, 0.0469200984, -0.0159637071, -0.0640384853, -0.0640140101, -0.0575994663, 0.0465969630, -0.0259262975, 0.0112079540, 0.0129264528, 0.0736773536, -0.0805835649, 0.0144464960, 0.1407861114, 0.0201161932, 0.0388663039, -0.0106602944, 0.0671643838, 0.0489521809, -0.0378978215, -0.0358078107, -0.0363278911, 0.0390360989, 0.0229336470, 0.0135293612, -0.0019270992, -0.0671150535, 0.0491855741, -0.0392421409, 0.0013224661, -0.0353906341, -0.0159433782, 0.0574040040, -0.0444281586, 0.0368330665, -0.0716067851, 0.0018349934, 0.0169225205, -0.0080941776, -0.0385629982, -0.0229584463, 0.0204270333, -0.0226002075, -0.0422562882, 0.0717826635, 0.1812670231, -0.0085270852, -0.0535823070, -0.0835952386, -0.0518192388, 0.0134531306, -0.0040070629, 0.0508387312, 0.0504644476, -0.0081917550, 0.0253412910, 0.0623247512, 0.1066243649, 0.0223318934, 0.0216649473, 0.0105750505, 0.0066406731, -0.0149637321, -0.0769225955, 0.0061547845, 0.0269681700, 0.0568985604, 0.0448413938, -0.0220079273, 0.0496421829, 0.0302836522, -0.0426465161, -0.0285281129, 0.1468285322, -0.0214342028, 0.0247282349, -0.0040053152, 0.1090308428, 0.0493487380, -0.0164446719, -0.1055054441, 0.1011885852, -0.0674182251, 0.0229741521, -0.0235578921, 0.0310889985, -0.0054594348, -0.0147023294, -0.0203577671, 0.0594109520, 0.0221836735, -0.0240266360, 0.0372314081, -0.0041364874, -0.0517543480, 0.0237568952, 0.0449973792, -0.0455860049, 0.0134416604, -0.0009456139, -0.0078957230, -0.0599275418, -0.0152233029, 0.0406083576, 0.0208611898, -0.0127336858, 0.0024593754, 0.1366803944, 0.0846100077, -0.0719274133, 0.0392480120, -0.0706365854, 0.0841091052, 0.0678271651, 0.0083853733, 0.0153535018, -0.0354844816, 0.0332465917, -0.1076641977, 0.0114640044, -0.0437177233, 0.0113987830, 0.0556785949, 0.0398512930, 0.0597509034, 0.0420021936, 0.0364493988, 0.0464336202, 0.0397800170, 0.0340904109, -0.0549826100, 0.0526904576, -0.1575504094, -0.0597242936, 0.0255181026, -0.0385440402, -0.0245906040, -0.1130236089, -0.0298770573, 0.0124867996, -0.0012462187, -0.1065109223, -0.0578951873, 0.0262932163, 0.0906217694, 0.0333114341, 0.0423087813, -0.0444385670, 0.0027139874, 0.0063422117, -0.0573776849, -0.0241892729, -0.0723958090, 0.0543505773, 0.0547617599, 0.0164245721, -0.0416156836, -0.0365434214, 0.0080857510, -0.0026552009, 0.0112194177, -0.0022140075, -0.0021727621, 0.0144537631, -0.1407599002, 0.0355508402, -0.0414877497, 0.0246993881, -0.0491802394, 0.0364997350, -0.0219347496, 0.0762573108, 0.0646571666, 0.0141963800, -0.0586151443, 0.0465512760, 0.0264470652, 0.0821297541, 0.0421560407, 0.0027053149, 0.0033521533, 0.0003981258, -0.0553105734, -0.0492544472, -0.0823061764, 0.0465787165, -0.0324130394, 0.0391447954, 0.0208260920, -0.0374099612, 0.0307121035, 0.0112423990, 0.0395705849, 0.0131349061, -0.0689288899, -0.0432694033, -0.0973253474, -0.0109483441, 0.0432998575, -0.0026105978, -0.0256933272, -0.0402197875, 0.0509654954, 0.0419712141, 0.0746193230, -0.0374360010, -0.0219963826, 0.0017884341, 0.0448731594, 0.0487083271, -0.0112365345, -0.0446434654, -0.0454202183, 0.0465783179, -0.0460884869, -0.0849280581, -0.0258688144, 0.1219598278, -0.0736745447, 0.0623637959, -0.0590020195, 0.0329346284, -0.0474897884, -0.0266260896, 0.0118099749, 0.0246234611, 0.0034508535, -0.0080619920, -0.0858126208, -0.0229119211, 0.0497252047, 0.0379644409, 0.0150497919, 0.0106819971, -0.0224592257, 0.0354518816, 0.0045328420, -0.0143071022, 0.0471516699, -0.0055918284, 0.0190027039, -0.0282473769, -0.0777421743, -0.0213238522, -0.0039327824, -0.0445158891, 0.1085208952, 0.0473797806, 0.1244871765, 0.0899482891, 0.0162110534, -0.0010410754, -0.0463000163, 0.0107117500, 0.0212708991, -0.0586063974, 0.0585597828, 0.0300611444, 0.0335326642, 0.0501736775, 0.0275654159, -0.0213496424, 0.0554416850, 0.0226505119, -0.0528269894, -0.0275029875, -0.0362887345, -0.0840527564, 0.0546990111, 0.0267770533, 0.0438562594, -0.0544312298, -0.0152512323, 0.0641951635, -0.0053233909, 0.0227158163, 0.0212564953, -0.0623265281, -0.0904219672, -0.0352331102, 0.0781943053, 0.0385368094, -0.0278695934, 0.0040832246, -0.0570992157, -0.0055056736, -0.0221989658, -0.0644841194, 0.1121905744, -0.0121816052, 0.0313170701, 0.0236377250, -0.0533891469, 0.0342806317, -0.0230791122, 0.0033897504, 0.0104206316, 0.0385019518, 0.0658558160, -0.0378468893, 0.0149676660, 0.0414819829, -0.0377110988, -0.0525483340, 0.0230310876, 0.0830506012, -0.0675242245, -0.0458858088, -0.0271588620, 0.0565486960, -0.0580103211, -0.0052997703, 0.0721254945, 0.1323958933, -0.0000451191, -0.0396617390, -0.0422075130, -0.0644263327, -0.0448525958, -0.0437743142, 0.0859601721, -0.0198327117, -0.0486538410, -0.0203615930, -0.0099552860, -0.0502955355, -0.0587555915, 0.0522614792, 0.0484506041, 0.1970867515, 0.0972496122, 0.0056144078, -0.0476685874, 0.0836308971, -0.0267243721, 0.0102544641, -0.0033667774, -0.0085820872, -0.0370451249, 0.0129131600, -0.0420044549, 0.0073065194, -0.0595537238, 0.0376366265, -0.0638767928, 0.0413319804, 0.0267057922, 0.0069797668, 0.0203151517, 0.0389811359, -0.0063149971, -0.0501296706, 0.0671607703, 0.0318787396, -0.0456365980, -0.0413762666, -0.0460693464, -0.0065135444, 0.0382006206, -0.0593165718, 0.0234002247, 0.0405969992, 0.0792552829, 0.0295783896, 0.0117186476, -0.0705635324, 0.0198449995, 0.0341173559, -0.0041060769, 0.0897886455, 0.0524661988, -0.0072138170, 0.0257620607, 0.0517837703, 0.0011147078, -0.0280783921, -0.0060822181, 0.0793229938, -0.0617373474, 0.0580668561, 0.0206801221, -0.0755813271, 0.0108869905, -0.0030230642, -0.0030068073, 0.0107034482, 0.0024866899, 0.0076917917, -0.0654528290, 0.0235446151, -0.0271220580, -0.0682893246, -0.0054826164, -0.0881171674, 0.0906042978, 0.0357826948, 0.0612459444, 0.0102023622, 0.0149545381, -0.0115057956, 0.0969177410, -0.0005965763, 0.1576066315, 0.0171621032, -0.0160066094, -0.0580102690, 0.0356347263, -0.0401505567, -0.0117037380, 0.0630903468, -0.0034289618, 0.0057596597, 0.0547096208, 0.0127068749, -0.0355774574, -0.0586544462, 0.0266169999, 0.0484127402, 0.0217586644, -0.0090964222, -0.0292400829, -0.0755039304, 0.0696618930, -0.0182960108, 0.0528662317, 0.0215218309, 0.0298361368, 0.0246576909, -0.0279735401, -0.0364941545, 0.0333859883, 0.0405257009, 0.0701649040, 0.1140100881, -0.0494969413, 0.0280779935, -0.0237652045, -0.0555999540, 0.0874532312, -0.0065047797, -0.0315583758, 0.0685015172, 0.0190841928, 0.0507061630, -0.0424796455, 0.0005752051, -0.0703867227, -0.0443979912, 0.0604605637, -0.0234948695, 0.0027106763, 0.0232976358, -0.0808175728, 0.0205877535, 0.0389312059, 0.0237719752, -0.0629116222, 0.0495760106, 0.0119281616, 0.0608033836, 0.0498252921, -0.1035604402, 0.0427859500, -0.0626512989, -0.0127640767, 0.0453450046, -0.0699762926, -0.0279061999, 0.0523670875, 0.0519145206, 0.0647767186, 0.0657927990, -0.0684602335, 0.1611812413, -0.0079496475, 0.0146554951, 0.0412196107, -0.0154096168, -0.0314924754, -0.0418601707, 0.0573097914, -0.0538036227, -0.0049169296, -0.0355741978, -0.0045420313, -0.0636950508, -0.1577309370, -0.0418275520, -0.0456658155, -0.0647453666, 0.0295624956, 0.0372792706, 0.0365363844, 0.0105169453, 0.0496366546, 0.0116969459, -0.0003890274, 0.0234783422, -0.1338685155, -0.0575999431, -0.0492478609, 0.0484578051, -0.0313847587, 0.0601473041, -0.0170182120, 0.0085063009, -0.1064487398, -0.0372267067, 0.0141248582, 0.0295408648, 0.0251215082, 0.0215563085, 0.0608212240, 0.0446864665, 0.0186942890, -0.0064966846, -0.0267426800, 0.0472847261, -0.0052441745, 0.0023592727, -0.0271250606, -0.1624265164, 0.0143357143, 0.0273059178, 0.0230829008, -0.0021161505, 0.0480796359, -0.0815920159, -0.0863980129, 0.0848913863, 0.0240608975, 0.0320169404, 0.0298517253, 0.0418070890, -0.0369863734, -0.0430846289, 0.0054096789, 0.0545364134, -0.0080043590, 0.0429703146, 0.0529994592, 0.0397231840, -0.0095429337, 0.0245525036, 0.1025841162, 0.0236333124, -0.0650101602, 0.0296851005, -0.0575950891, -0.0048162304, -0.0257899724, -0.0310092345, -0.0581090972, -0.0774839297, -0.0685480833, 0.0984110385, -0.0386842452, 0.0630728751, -0.0439694151, -0.0551538430, 0.0295218918, -0.0180135798, 0.0012395402, -0.0343328714, 0.0680721924, 0.0489285700, -0.0838026181, 0.0423582904, 0.0253892951, 0.1363430768, 0.0780400485, 0.0371075459, -0.0081812497, 0.0029772581, -0.0528540723, -0.0496254936, 0.0953136161, 0.0393401794, 0.0223228149, -0.0400784202, -0.0657882690, 0.0593198128, -0.0327274576, -0.0592330582, -0.0628406182, 0.0298497304, 0.0614200979, 0.0061744135, 0.0245872810, 0.0780741125, -0.0544575378, -0.0487146862, 0.0319524966, -0.0122287385, -0.0668550208, 0.0457018763, -0.0688650459, -0.0134741617, -0.0092187058, -0.0073175016, -0.0243566204, 0.0469404049, 0.0907026455, 0.0467665978, -0.0603046007, 0.0284085274, 0.0316532627, 0.0500036776, 0.0179152600, -0.0503946282, -0.0297420230, -0.0500441976, -0.0886400864, -0.0273497198, 0.0116785336, -0.0015602820, -0.0144941118, -0.0563179553, 0.0993900150, 0.0419114009, -0.0241525285, 0.0044854977, 0.0394439511, -0.0523376726, 0.0980986804, 0.0623172522, -0.0388869457, 0.0363227464, -0.0363963172, 0.0535940044, 0.0813192427, -0.0510473587, -0.0527877770, 0.0019220521, -0.0822362900, -0.0001364941, 0.0418044440, -0.0259734374, -0.0109375250, 0.0410333760, 0.0327001996, -0.0052660955, 0.0129003273, -0.0047032055, 0.0068426207, -0.0596133918, -0.0363207161, 0.0369951837, 0.0369091742, 0.0011829787, 0.1080679819, -0.0453516431, -0.0170368198, 0.0725033656, 0.0516263954, 0.0070920652, 0.0611753687, 0.0880068913, 0.0507600382, -0.0523514450, 0.0310680773, 0.0162506569, -0.0026504386, 0.0070576170, 0.0506486818, 0.0000205387, -0.0703301728, 0.0426157080, 0.0231512859, 0.0374041647, -0.0344443545, -0.0230586026, 0.0561627075, -0.0242626891, 0.0464674495, 0.0107384613, -0.0310914312, 0.0007023756, 0.0616276748, -0.0289271455, 0.0220691822, -0.0856740624, -0.0226354431, 0.0224933885, 0.0737607479, -0.0937563479, -0.0052819294, -0.0307959709, 0.0296587460, 0.0949695334, -0.0051654098, 0.0116957780, 0.0158396792, 0.0277453214, 0.0186670627, 0.0751402453, -0.0728506073, -0.0110077187, -0.0846000612, -0.0220907107, -0.0514091961, 0.0260877851, -0.0095956773, 0.0030358159, -0.0595667996, 0.0517252274, -0.0203654245, -0.0155634200, -0.0560346656, -0.0513443239, 0.0089870170, -0.0292988159, 0.0308240317, -0.0017438744, 0.0536761805, 0.0406802222, -0.0771462619, -0.0338965654, -0.0533574894, 0.0124620711, -0.0019481927, 0.1097712144, -0.1097228006, -0.0150072277, 0.0301523972, -0.0415225960, 0.0149639333, 0.0477033406, 0.0164242238, 0.0829278752, -0.0979885533, 0.0527616367, -0.0250981841, -0.0617760792, 0.0019927509, -0.0577993877, 0.0240917914, -0.0200253595, 0.0227174666, 0.0461867526, -0.0237573981, 0.0260176677, -0.0078944853, -0.0136377718, 0.0463206992, -0.1117929742, 0.0013381229, 0.0803418010, -0.0229888633, -0.0139404358, -0.0592803694, 0.0441521369, -0.0573139712, 0.0665515065, -0.0701565817, -0.0511749238, -0.0466151759, -0.0016829206, 0.0679527670, -0.0013601794, -0.0332353599, 0.0437044054, -0.0591403134, -0.0134402672, 0.0232600626, -0.0122905429, -0.0270701665, -0.0358540900, 0.0054339664, 0.0538759567, 0.0230877362, 0.0077615771, -0.0307118110, -0.0465667397, -0.0261853989, -0.0083660260, 0.0426195823, -0.0974588990, -0.0444726795, -0.0426541939, -0.0225869771, 0.1020118594, 0.0399582461, -0.0457923487, -0.0605724640, 0.1347390413, 0.0320307016, -0.0465643778, 0.0354710184, 0.0363426246, -0.0705714822, 0.0596359745, -0.0165939052, -0.0136018535, -0.0637400970, -0.0462735705, -0.0300163832, 0.0065055094, 0.0382331833, 0.0179517269, -0.0466305390, 0.0143973175, -0.0143887438, -0.0694110543, -0.0806963444, 0.0349717438, 0.1031006724, -0.0316483192, -0.0103418287, -0.0266314242, -0.0345605277, 0.0518091731, -0.0385576561, 0.1068235338, -0.0313753448, -0.0298069436, 0.0039058439, 0.0730167329, 0.0476109795, 0.0110230558, -0.0267353039, -0.0601341464, 0.0263466910, -0.0246422831, 0.0002647717, 0.0053399364, 0.0489516035, -0.0271715242, -0.0567798726, -0.0736105889, 0.0350848176, 0.0120804422, 0.0227441061, 0.0374569558, 0.0333814584, -0.0225746538, -0.0493506938, -0.0063926326, 0.0180280637, -0.0445128195, 0.0416978821, -0.0860570818, 0.0121554574, -0.0097963279, 0.0186472274, 0.0087385718, -0.0065221456, -0.0520175435, -0.0028535570, -0.0324161574, 0.0332991965, 0.0460486189, -0.0270682331, -0.0605577528, -0.1085769311, -0.0553307571, -0.0038435529, -0.0638594180, -0.0279551093, 0.0260578133, 0.0117922230, -0.0551022068, 0.0466236882, -0.0218844619, 0.0346107222, 0.0229396690, 0.0137728117, -0.0005659827, -0.0755333006, -0.0013036855, 0.0068552340, -0.0549478568, 0.0094084889, 0.0487780608, 0.0131227253, 0.0316389203, -0.0325002074, -0.0132976333, 0.0162784178, 0.0562072843, 0.0308006238, 0.1156975403, 0.0253051203, -0.0247695316, -0.0522987247, 0.0041732993, -0.0313274711, 0.0630755946, -0.0579601303, 0.0022035984, -0.0545311905, 0.0152431177, 0.0402495489, -0.0095546599, -0.0439143144, 0.0129249152, 0.0648611113, -0.0641696006, 0.0129335821, -0.0349256173, -0.0110696182, 0.0399270616, -0.0343353078, 0.0142864631, -0.0571719483, -0.0485772416, 0.1007766575, 0.0020465108, -0.0145293707, -0.0498701222, 0.0196151193, -0.0576596372, 0.0962144285, 0.1067906469, 0.0509493239, 0.0225982964, -0.0121314423, -0.0278273895, -0.0631391704, 0.0126834484, -0.0507914349, 0.0287022516, -0.0188660994, 0.0040126452, -0.0490736552, 0.0255712885, -0.0234307982, 0.0259637870, -0.0224012658, -0.0107309287, -0.0377205499, 0.0147420084, -0.0597770475, 0.0472344980, -0.0741836801, -0.0155087570, -0.0128820697, 0.0247987881, -0.0047854558, -0.0071714018, 0.0006429181, -0.0500590764, -0.0002182574, 0.0435243472, 0.1038619056, 0.0352241658, -0.0445610322, -0.0015018771, -0.0025558779, -0.0050341627, 0.0247563738, 0.0048488081, -0.0711650029, -0.0257603880, -0.0908453166, -0.0670746416, 0.0184452813, 0.0383441038, -0.0012626392, 0.0200513918, 0.0332546383, -0.0273892637, -0.0593740083, -0.0340359285, 0.0243053772, 0.0143648107, 0.0641103610, 0.0161451660, -0.0241596438, -0.0017615337, 0.0762961209, -0.0381604470, -0.0418325737, -0.1016014814, -0.0656959489, 0.0099853808, 0.0478898995, 0.0968107879, -0.0617894270, -0.0610208474, -0.0525762029, -0.0001084752, 0.0348320082, 0.0478606336, -0.0758406967, 0.0429621004, -0.0510082319, -0.0377301238, -0.0646909401, 0.0404164083, -0.0388572961, 0.0061115157, -0.0703990608, -0.0442013592, 0.0083986409, -0.0650347322, 0.0169307403, 0.0567045920, -0.0588835403, -0.0677356273, -0.0592686236, -0.1002715677, 0.0023841774, -0.0198138617, 0.0028572981, 0.0488715954, -0.0186869577, -0.0280746017, 0.0118786776, -0.0116555085, 0.0289925672, 0.0232238807, -0.0673399642, -0.0671899915, 0.0279779974, -0.0040761521, -0.0328252055, 0.0029400724, -0.0224702042, -0.0691852346, -0.0213801078, -0.0482495166, -0.0621129721, 0.0495552085, 0.0184555668, 0.0141731557, -0.0180947054, 0.0096352212, -0.0249880981, 0.0283903927, 0.0009145687, 0.0328735672, 0.0372325554, 0.0449491963, -0.0049552610, 0.0581456386, 0.0404221863, -0.0196919348, 0.0210782215, -0.0675105155, 0.0220629200, 0.0820903182, 0.0338969603, -0.0517763607, -0.0546288751, 0.0314228535, -0.1181424335, 0.0737451985, -0.0558976829, -0.0335533731, 0.0097814016, 0.0516701005, -0.0598476566, -0.0317816101, 0.0062967981, 0.0366730317, 0.0601149797, -0.0519376844, 0.0030217988, 0.0461090170, -0.0141411172, -0.0235826410, 0.0198114254, 0.0496717356, -0.0476686545, -0.0900010243, -0.0181171205, 0.0806859881, -0.0446043946, -0.0184868071, -0.0665048659, 0.0314641744, -0.0016701730, 0.0785671473, -0.0296882298, -0.0082743429, -0.0390323997, 0.0027428789, -0.0337490886, 0.0274757463, 0.0203930177, 0.0164039899, -0.0320705250, -0.0595483221, -0.0154411746, 0.0363409035, -0.0281005427, -0.0349107571, 0.0758635178, -0.0598619878, -0.0558645390, -0.0048619159, -0.0602123663, -0.0662388727, 0.1317561120, 0.0277883690, 0.0477253273, 0.0570037030, 0.0243153293, 0.0490000024, 0.0363720581, -0.0111213047, 0.0136795761, 0.0364643484, -0.0132462466, 0.0346366763, 0.0131265922, -0.0569296032, -0.0073005552, -0.0487750284, -0.0479801297, 0.0307616424, 0.0024800617, -0.0769236758, -0.0413218550, 0.0202776622, 0.0467371978, 0.0135937203, 0.0550551303, 0.0549114011, 0.0988272950, -0.0009586496, 0.0417089425, -0.0541594364, -0.0216071419, 0.0145027228, -0.0685722604, -0.0340739377, 0.0044465461, 0.0046528475, 0.0619707592, -0.0978623033, 0.0662986264, -0.0016702513, 0.0157425720, 0.0136265680, 0.0905467421, 0.0722701699, -0.0293421205, 0.0085211797, -0.0689749643, 0.0335760824, -0.0100135300, -0.0207328741, 0.0226528179, 0.0566719547, -0.0702795684, 0.0421769619, -0.0150407720, -0.0337842293, -0.0446797237, 0.0040675313, -0.0659409687, 0.0327305757, 0.0229258165, 0.0117705725, -0.0162170045, 0.0130329989, -0.0655319542, 0.0272084810, -0.0462086871, 0.0078653097, 0.1056131497, -0.0247757155, 0.0550317131, -0.0451103300, 0.0248123780, -0.0236507896, 0.0232665390, 0.0229079835, -0.0269555431, 0.0272792019, 0.0435247235, -0.0147863189, 0.0371382087, -0.0195734445, -0.0282175895, -0.0665439591, -0.0738708004, -0.0676502287, -0.0236885566, 0.0332251266, 0.0187750813, 0.0247978102, -0.0444368236, 0.0178960208, 0.0139698228, -0.0001485521, 0.0346155874, 0.0735146999, -0.0609384403, 0.0012551376, -0.0623982251, -0.0638071373, 0.0489276983, -0.0253460389, -0.0084508099, 0.0633195862, 0.0197851062, 0.0489872098, 0.0675707459, 0.0700318143, 0.0379964821, 0.0135129774, -0.0451042913, -0.0675898716, 0.0253838841, 0.0277051348, 0.0266479868, 0.0744447708, -0.0272780135, 0.0393658876, -0.0106296493, 0.0358356312, -0.0188712683, -0.0781040862, -0.0059830844, -0.0007068696, 0.0147325583, -0.0024099536, -0.0774269328, 0.0684568137, 0.0220901761, 0.0341368951, -0.0085408259, 0.0301113371, 0.1055570692, -0.0576704293, -0.0331078805, -0.0791260079, -0.0509471931, 0.0423729345, 0.0829329565, 0.0425811559, 0.0179218613, -0.0762341470, 0.0126017090, 0.0363477841, -0.0160301141, -0.0078289676, -0.0203467645, 0.1157297418, -0.0328903161, -0.0532595851, -0.0225421712, -0.0441108905, 0.0155542316, -0.0077964705, -0.0450611450, -0.0251887999, 0.0482164957, -0.0149324248, -0.0885455906, 0.0744222626, -0.0317381844, -0.0379862525, 0.0109205786, -0.0665160269, 0.0774721429, 0.0048647327, 0.0947153717, -0.0053666416, 0.0131776920, -0.0535652637, 0.0237126052, 0.0971553326, -0.0439030081, 0.0317077711, -0.0415475219, -0.0005112287, 0.0420240089, 0.0261647999, -0.0187303387, 0.0476701744, -0.1183582097, 0.0529601164, 0.0238793362, -0.0439502336, -0.0645883307, -0.0589106455, 0.0995490626, 0.0037464146, 0.0133678066, 0.0316822454, -0.0514149927, 0.1281027049, 0.0282856449, -0.0031572429, -0.0682250559, 0.0179880224, -0.0543200783, 0.0712748542, 0.1242884994, 0.0655709431, -0.0222239308, -0.0200200845, -0.0422198586, 0.1182272434, -0.0288209468, -0.0133066373, 0.0237884168, -0.0647683442, -0.0704090223, 0.0413155742, 0.0072300145, 0.0304906517, 0.0196796153, -0.0095065562, -0.0209126957, -0.0048026573, 0.0293113235, -0.0220337790, 0.1120759547, 0.0197895337, 0.0123514431, -0.0435423888, 0.0314364843, 0.0936829522, 0.1248599142, 0.0314266458, -0.0484810434, -0.0370258093, -0.0247515254, 0.0778412074, 0.1421741694, 0.0533306338, -0.0164028443, 0.0139138633, -0.0350144692, 0.0822264552, -0.0832263529, -0.0308645312, 0.0130957328, 0.0081014298, -0.0112187220, 0.0360295661, 0.0540145524, 0.0597950034, -0.0240526330, 0.0220847558, 0.0227685310, -0.0676534921, -0.0124108512, -0.0062256567, 0.1554463357, -0.0375254750, 0.0501728542, 0.0407288000, -0.0604692623, 0.0397126414, 0.0288362484, -0.0515676476, -0.0413571447, -0.1388143897, -0.0081429183, 0.0600206032, 0.0411010757, -0.0826464072, 0.0192301292, -0.0493601486, 0.0442748964, -0.0942325890, 0.0039707408, -0.0189344678, -0.0163335707, -0.0650381520, -0.0849741623, 0.0001882323, -0.0081540449, -0.0123121981, -0.1048984155, -0.0262101386, 0.0177123435, 0.0096425172, -0.0305754729, -0.0546031147, 0.1429122686, 0.0097450996, -0.0081187617, -0.0165556669, 0.0283870604, 0.0373944603, 0.0063830670, -0.0039584683, 0.0422260277, -0.0022747226, 0.0418262221, -0.0574589521, -0.0014638942, 0.0244739410, -0.0393990278, 0.0374451727, 0.0242294203, 0.0783110633, -0.0201234631, 0.0312997662, 0.0141353300, 0.0475630835, 0.0404183716, 0.0077297688, -0.0107969381, -0.0158558451, -0.0239077806, 0.0116855884, -0.0303591434, 0.0274922699, -0.0147598851, -0.0142252101, -0.0198584814, -0.0604871623, 0.0254043080, -0.0290798582, -0.0057211411, 0.0441088974, -0.0218722243, -0.0192085225, 0.0460302979, 0.0433909521, 0.0124136154, -0.0791656002, -0.0021489505, 0.0585310049, 0.0452108495, 0.0224042553, 0.0884418860, -0.0158458725, 0.0287846625, -0.0320796892, -0.0146744959, -0.0410877988, -0.0093632052, 0.0626925528, 0.0422299020, -0.0262928158, -0.0415738374, 0.0307905450, -0.0272999015, -0.0105591370, -0.0570886694, 0.0255311634, 0.0135646993, -0.0043253251, -0.0037077153, 0.0033532386, -0.0740193203, -0.0795931071, -0.0196661912, 0.0121602044, -0.0590688884, 0.0452622063, 0.0269648489, -0.0746932179, -0.0143265286, 0.0513285473, -0.0023720330, 0.0226979777, 0.0606004708, 0.0178671107, -0.0608243980, -0.0687727109, -0.0868738443, -0.0056637749, -0.0161702372, -0.0084367404, 0.0546981022, 0.0674804077, -0.1184105724, -0.0205131695, 0.0248499066, -0.0186921395, 0.0358619280, 0.0326951183, 0.0240755342, -0.0003789795, 0.0127057023, -0.0212465841, 0.0308695156, 0.0728627965, -0.0846763551, -0.0258168988, 0.0533304363, 0.1230852455, -0.0388922654, -0.1052432433, 0.0184143763, -0.0249964725, 0.0171126835, -0.0090278741, 0.0211099796, 0.0885265768, -0.0337257497, 0.0351663865, 0.0028508289, -0.0385422185, 0.0478941202, 0.0595751926, 0.0570049621, 0.0672575831, -0.0393530875, 0.0192574095, -0.0470196605, -0.0470882654, 0.0594610944, 0.0182477012, 0.0049053109, 0.0350809954, -0.0176099204, -0.0160126537, -0.0183817782, 0.0781430975, 0.0568162426, -0.0333509184, -0.0155741740, -0.0586573668, -0.1225134581, -0.0475987867, 0.0214800704, 0.0525462590, -0.0555175580, -0.0558591448, 0.0470703244, -0.0492409021, -0.0418565720, 0.0247239433, -0.0086586727, -0.0401546396, -0.1227488518, 0.0014584877, -0.0705622137, -0.0385023654, 0.0026458497, 0.0209654011, -0.0665719658, -0.0364493430, 0.0603783317, -0.0660993606, -0.0712020248, -0.0534128137, 0.0029819941, 0.0311873946, 0.0133618554, -0.0340362340, -0.0181372501, -0.0628123581, -0.0670911148, 0.0749443397, 0.0332714692, 0.0295606628, 0.0083548129, 0.1076659486, 0.0357981622, -0.0205286741, -0.0728878826, -0.0388204902, 0.0404371992, -0.0429431871, 0.0273166019, 0.0121808508, -0.0059751156, 0.0073196585, -0.0414887592, 0.0229817387, 0.0443518236, 0.0482524000, -0.0617282726, -0.0516744442, 0.0287393350, 0.0456855595, -0.0466762036, -0.0529655553, -0.0453215837, -0.0215998106, -0.0008121550, 0.0543364286, 0.0014635918, 0.0261960886, 0.0375329778, -0.0541710444, -0.0426378287, -0.0148855625, -0.0314138457, 0.1400057971, 0.0434048288, -0.0085519962, 0.0139066502, -0.0010348468, 0.0263056960, 0.0519872494, 0.0593240745, 0.0596771501, -0.0163810030, -0.0450129509, -0.0233272593, 0.1013429239, 0.0046539828, 0.0472267121, -0.0451044478, -0.0078663537, -0.0358326621, 0.0601860024, 0.0162647516, 0.0411110856, -0.0110875480, 0.0027619863, -0.0399714187, 0.0244826004, 0.0156871043, -0.0045343325, 0.0495911911, 0.0202895794, -0.0503750332, 0.0555898845, 0.0781439617, 0.0171556808, 0.0299516637, -0.0168790873, -0.0013746554, -0.0524930768, 0.0130206142, -0.0618972071, 0.0053495378, 0.0049151988, -0.0024267046, 0.1306628287, -0.0356712863, 0.0380554534, -0.0590347797, -0.0440986939, -0.0077793179, -0.0649314076, -0.0099102529, 0.0104572317, 0.1068179831, -0.0205413140, -0.0635341331, -0.0122424364, 0.0236192849, -0.1222928837, 0.0707504228, 0.0417540856, -0.0188039131, 0.0984099954, 0.0034466290, -0.0513583645, -0.0339732245, -0.0178469177, -0.0602679998, -0.0446316861, 0.0352651104, 0.1167694256, -0.0194776319, -0.0270000715, 0.0359914042, -0.0476103276, 0.0545602329, 0.0861488506, -0.0185160916, 0.0676126629, -0.0570061766, 0.0267987214, -0.0530047119, -0.0176407304, -0.0000495375, 0.0139564369, -0.0206826162, 0.0484071113, -0.0459028520, -0.0110348882, -0.0247250795, 0.0289923847, -0.0176407602, 0.0433602110, -0.0569075756, -0.0518990383, 0.0349319018, 0.0091768876, 0.0109322025, -0.0192032680, 0.0385915674, 0.0327582993, 0.0011363345, 0.0051184185, -0.0391612388, -0.0501092859, -0.0295133498, -0.0247122087, -0.0401144326, -0.0080750780, 0.0008814638, -0.0444973446, -0.1260820031, 0.0098755220, -0.0099521438, -0.0332323164, 0.0072996225, -0.0056232256, 0.0263731088, -0.0144829527, 0.0038201357, -0.0005749373, -0.0027503180, 0.0128628537, 0.0574398562, 0.0255093072, 0.0347409435, 0.0308280215, -0.0061875540, -0.0043305773, 0.0643925294, -0.0414361767, -0.0317724533, -0.0617861226, -0.0573949181, -0.0318459719, -0.0196706410, -0.0198974572, -0.0535928272, -0.0607999675, 0.0174701177, 0.0921490863, 0.0157540701, 0.0452694446, -0.0191558134, -0.0650222450, 0.0538171120, -0.0556884520, 0.0330729298, 0.0351671427, -0.0573745817, -0.0569065064, -0.0265358631, 0.0343832523, 0.0641287491, 0.0075729950, -0.0243192799, 0.0590902232, 0.0264143739, 0.0112264203, 0.0586619228, -0.1778953969, 0.0087014064, -0.0761730820, -0.0596695133, 0.0047212183, 0.1030041799, 0.0130488612, 0.0083238678, 0.0305908490, -0.0253194477, -0.0121801058, 0.0340050161, 0.0429411568, 0.1227777675, 0.0944699943, -0.1001705229, -0.0622634031, -0.0582293123, 0.0319435336, -0.0166286305, -0.0662091747, -0.0742937252, -0.0268193316, -0.0432642512, -0.0331606530, 0.0254409593, 0.0417147502, -0.0279978029, 0.0249824654, 0.0306760687, 0.0704653040, 0.0857614949, 0.0923368111, 0.0062465961, 0.0207852796, -0.0380325392, -0.0535471216, -0.0111344624, -0.0896946117, 0.0505450517, -0.0062814946, -0.0733344853, -0.0277908854, -0.1639366150, 0.0021556504, -0.0491595156, -0.0283731278, -0.0079572052, -0.0096091852, 0.0312240776, 0.0267425627, -0.0094901035, -0.0304510873, -0.0053120172, 0.0488618240, -0.0314887464, 0.0499437153, -0.0145457853, 0.0055524469, -0.0071389335, -0.0349795483, 0.0494993776, 0.0901009589, 0.0779210329, 0.1054748893, 0.0084305340, 0.0741754994, 0.0039346027, -0.0112395883, -0.0970762447, -0.0787406936, 0.1543174535, -0.0077572973, -0.0117295645, -0.0106154466, 0.0716542527, -0.0216159355, -0.0139049925, 0.0687618777, 0.0488244630, -0.0521788225, -0.0600759424, -0.0614122786, 0.0064465250, 0.0155874649, -0.0398133546, -0.0245809890, 0.0317716487, 0.0173244830, -0.0833855048, 0.0507500991, 0.0339328274, -0.0263798498, 0.0452945717, -0.0047704661, 0.0846005604, 0.0332602076, 0.0977892429, 0.0488326475, -0.0492009073, -0.0391931720, 0.0327538699, -0.0944669992, 0.0811194852, -0.0026388355, 0.0230778474, 0.0057815798, -0.0007866364, -0.0501337238, -0.0488327742, 0.0997877866, 0.0814231634, -0.0010756329, 0.0489281602, -0.0147631969, 0.0139896851, 0.0164781474, 0.0189865902, -0.0084558055, -0.0182075165, -0.0516773723, -0.0698431209, 0.0212507043, -0.0093501527, 0.0492931791, -0.0016119615, -0.0957838371, 0.1200032830, -0.0088243764, 0.0130706644, -0.0399549976, -0.0232471060, -0.0269062258, 0.0367391594, 0.0921671987, 0.0164573360, -0.0595750064, 0.0113063687, 0.0293054730, 0.0512038581, -0.0095744878, -0.0084691234, -0.0188840404, 0.0090106651, -0.0683209226, 0.0191137865, -0.0609693862, 0.0330793560, 0.0322028585, 0.0025712892, 0.0090837283, -0.0188482087, 0.0365069620, -0.0555772446, 0.0350070260, 0.0565702654, 0.0416765250, -0.0543469600, 0.0810071155, -0.0079829469, -0.0644126683, 0.0555701815, -0.0661020726, -0.0196485426, -0.0222224835, 0.0195181444, 0.0676651224, -0.0693418160, -0.0762629807, -0.0386854857, 0.0393608697, 0.0315763988, 0.0926613212, 0.0184160452, 0.0247088913, -0.0018163708, -0.0354009047, -0.0447656363, 0.0351520963, 0.0195753835, -0.0392222963, 0.0006382225, 0.0354506858, -0.0662725642, 0.0050504655, -0.0466818660, -0.0169745684, 0.1103194132, -0.0228197705, -0.0425406545, 0.0943611562, 0.0129000684, 0.0084539168, 0.0392522030, 0.0497268960, -0.0526203886, 0.0321357548, -0.0370075293, 0.0429769121, 0.0108110970, -0.0449735597, -0.0556868836, 0.0261187945, 0.0356880277, 0.0607709400, -0.0361000262, 0.0075718733, -0.0704664737, 0.0432623252, 0.0302292611, 0.0137225017, -0.0539814085, -0.0295457505, 0.0449198335, 0.0200398732, 0.0155695248, -0.0077130161, -0.0804459080, -0.0586531162, -0.0194418412, -0.0605531633, -0.0042164573, 0.1849676818, 0.0258952621, 0.0626004264, 0.0394622460, -0.1169479713, 0.0544429868, -0.0339605995, 0.0491184853, 0.0034866356, -0.0063335826, -0.0747861639, -0.0634474456, -0.0446166582, -0.0282918289, 0.0031371182, -0.0691252500, -0.0214643870, -0.0269894246, -0.0446189642, 0.0174797699, 0.0201843735, 0.0400900468, 0.0411401391, -0.0528017543, -0.0553221665, -0.0031077303, -0.0456053801, 0.0002237582, -0.0128371632, -0.0987660810, -0.0082214028, -0.0142321829, 0.0449836031, 0.0929199904, -0.1037491634, 0.0755325109, -0.0301660653, 0.0402997956, -0.0585318096, 0.0102705238, -0.0055264756, -0.0039759031, -0.0114782397, -0.0613752753, 0.0270786528, -0.0223145913, 0.0560431890, 0.1359123290, -0.0185812917, -0.0045775599, 0.0422998518, -0.0027304180, -0.0653429106, 0.0377306491, -0.0705987886, -0.0820367932, 0.0387500450, 0.0185873676, -0.0168380644, 0.0452107489, 0.0249987394, -0.0199524257, 0.0202324446, -0.0652216449, 0.1375579834, -0.0601925217, 0.0585482009, 0.0614912584, -0.0144114420, 0.0013176755, 0.0385815948, -0.0159189198, 0.0066954866, 0.0986390337, -0.0642007664, -0.0414537862, 0.0405775607, 0.0320516713, 0.0465342887, -0.0265206434, -0.0311947055, 0.0580831505, -0.0407630950, -0.0089633167, 0.0545412898, -0.0565868206, 0.0221708529, 0.0737992972, 0.0273082405, 0.0117085502, -0.0068514608, -0.0111255990, -0.0003126349, 0.1409374177, -0.0338253640, 0.0412046611, 0.0474575795, 0.0671245679, -0.0201087687, 0.0536134727, -0.0338950716, -0.0005835483, -0.0806623399, -0.1489122957, 0.0298607424, 0.0290614478, -0.0415136665, -0.0815096200, 0.0216566697, -0.0098523414, -0.0348555967, 0.1088318452, -0.0164430961, 0.0788248181, 0.0463859960, 0.0127199739, -0.0182775687, -0.0182199795, -0.0021723290, -0.0040312293, -0.0578368753, -0.0211350005, 0.0272786431, -0.0420231186, -0.1045312360, 0.0691010952, 0.0188794397, -0.0394230671, 0.1790140271, 0.0009037536, -0.0494088642, 0.0272431336, 0.0340969153, 0.0252433009, -0.0611382462, -0.0958929062, 0.0156628545, 0.0789434984, 0.0315014161, -0.0478814542, -0.0088676177, -0.0427144505, 0.0753613561, 0.1833545566, -0.0051782802, 0.1857269108, 0.0390780456, -0.0153067410, 0.0166556854, -0.0651540905, 0.0059045590, 0.0014468279, 0.0451259352, 0.0006515309, 0.0007523860, 0.0231695101, -0.1178075299, 0.0575733297, 0.0320034027, -0.0038324792, 0.0817250013, 0.1105684340, -0.0990687087, 0.0206406284, 0.0373599455, -0.0077387681, -0.0066165621, -0.0553981028, 0.0776992291, -0.0289530866, 0.0426999107, -0.0497419462, -0.0277078729, -0.0098963166, 0.0880193338, 0.0460119434, -0.0686437935, -0.0775027648, 0.0066908882, -0.0677680448, -0.0296289995, 0.0434209034, -0.0534193367, 0.0312839448, -0.0167812705, 0.0375734642, -0.0610058568, 0.0142550608, -0.0009337115, 0.0454603024, -0.0259627271, 0.0432218350, 0.1553432792, 0.0571620241, 0.0272052456, 0.0983326361, -0.0343676805, -0.0198324006, -0.0311215408, 0.0108932322, 0.0862263218, -0.0513325073, 0.0027744565, -0.0620990992, -0.0511288866, -0.0285451338, 0.0653775558, 0.0650544018, 0.0332625099, 0.0055696461, -0.0499816947, 0.0089451410, -0.0714949518, -0.0040604598, 0.0221881177, 0.0337583274, 0.0249539986, 0.0182243343, -0.0386131704, 0.0081436373, -0.0627290085, -0.0513914265, 0.0317023434, 0.0515409410, 0.0835873038, 0.0799082890, -0.0708821192, 0.0127005959, -0.0025208655, -0.0456919670, 0.0082488311, 0.0130872037, 0.0598899350, -0.0224158168, -0.0266720932, -0.0547254793, -0.0136977257, 0.0453122482, -0.0257770810, 0.0061941482, -0.0330475643, -0.0028824236, 0.0455320068, -0.0091706160, 0.0532112084, 0.0189693980, -0.0101373652, -0.0276043918, 0.0542547666, -0.0603867285, -0.0333417170, -0.0275781639, 0.0373870842, -0.0156559218, 0.0089240801, -0.0139725599, 0.2134299278, -0.0041125957, 0.0005817845, 0.0412560813, 0.0121437684, 0.0517575927, -0.0543731116, 0.0045505990, -0.0166526195, -0.0272194333, -0.0513700061, 0.0396845452, -0.0226513743, 0.0818072036, -0.0731192529, 0.1261366457, -0.0139964037, -0.0132603403, -0.0074070571, 0.0024844774, -0.0658754036, -0.0619313307, -0.0211665425, 0.0107911965, 0.0055662142, -0.0336994007, -0.0321658552, 0.0189599413, -0.0806531832, -0.1055449098, -0.0227878578, 0.0239851382, 0.0299445260, -0.0418472365, -0.1623656452, 0.0764448345, -0.0613004304, 0.0413170755, 0.0127896350, 0.1035005227, 0.0680475160, -0.0478079319, 0.0348173790, -0.0262723286, 0.0203721151, 0.0451257341, -0.0553697236, 0.1554208249, 0.0416507721, -0.0628374144, -0.0403587185, -0.0069545312, 0.0411634780, -0.0393338948, -0.0215888675, -0.0353710614, 0.0358583927, -0.0018295059, -0.0444192588, 0.0304559097, -0.0198989939, -0.0057969177, 0.0004005155, 0.0476522334, 0.0100551909, -0.0581246242, 0.0090869851, -0.0322764330, -0.0030072141, 0.0265188981, -0.0077889059, -0.0343078040, 0.0449588224, -0.0130991116, -0.0631778091, 0.0342487209, -0.0216372721, 0.0686038807, -0.0071747196, 0.1238257065, -0.0057100849, -0.0548641682, 0.0350118838, 0.0250420440, 0.0531044044, 0.0111782625, -0.0662441775, -0.1078049466, -0.0342563763, -0.0408155397, -0.0000652707, 0.0279553160, -0.0103900414, 0.1475904286, 0.0190543737, -0.0092008291, 0.0471158996, 0.0201970097, 0.0218495186, -0.1529647261, 0.0182167068, -0.0339637659, -0.0266768411, -0.0891103446, 0.0361532755, 0.0669327006, -0.0609756075, -0.0174261965, 0.0349018611, 0.0467942543, 0.0556846336, -0.0006299221, 0.0209132843, -0.0061692116, -0.0018510971, -0.0288776811, -0.0114059830, -0.0290785283, -0.0053686723, -0.0083977627, -0.0291988701, 0.0326987542, -0.0232561082, -0.0090760291, 0.0509910472, 0.1046115234, 0.0375183187, 0.0211694948, 0.1481991559, -0.0424144641, -0.0703353137, -0.1013861224, -0.0090554301, -0.0655919686, 0.0172138382, -0.0543376170, 0.0765395686, 0.0515513010, 0.0019641630, -0.0144260507, -0.0249272417, -0.0412436947, 0.1050020680, 0.1749604195, 0.0965957567, -0.0385001600, -0.0151167922, -0.0387643650, 0.0317795798, -0.0583935231, 0.0327181555, 0.0190842561, -0.0411137268, -0.0316561610, -0.0591765977, -0.0540040582, -0.0065981862, 0.0221952200, 0.0157639291, -0.0399082005, 0.0438111760, 0.0755779743, -0.0143252397, -0.0666417554, 0.0314775705, 0.0510502011, -0.0547441505, -0.0261806697, 0.1016963422, 0.0128304856, 0.0259204730, 0.0400846489, 0.0402813032, -0.0509464480, -0.0070575411, 0.0403692685, 0.0050479253, -0.1192309260, -0.0530927181, -0.0350097455, -0.0254940297, -0.0351171717, -0.0181097519, -0.0016794719, -0.0463975631, -0.0223272201, -0.0581369027, -0.0316912979, -0.0010264269, -0.0409517400, -0.0350675359, 0.0316734314, 0.0671264902, -0.0231181309, 0.0263701528, 0.0099851964, 0.0189120751, -0.0451161675, -0.0223423168, 0.0455846936, 0.1400583237, -0.0727116093, 0.0041052881, -0.0419671386, -0.0399755538, -0.0064845160, -0.0316066854, 0.0034865036, -0.0243202988, -0.0895723403, -0.0468697026, -0.0177211706, -0.0049564280, 0.0039125048, -0.0685547963, -0.0573855080, -0.0327217244, -0.0279000867, -0.0585457310, -0.0397927538, 0.0771906748, -0.0937041044, 0.0538223572, -0.0642109588, 0.1122734696, 0.0192350205, -0.0164147932, -0.0397155210, 0.0600619093, 0.0240637343, 0.0309615526, -0.0705524012, 0.0730867684, -0.0712306276, 0.0067446744, -0.0722439289, -0.0149689205, -0.0513995364, 0.0665714964, -0.0101878904, -0.0229363292, -0.0071946741, -0.0639698580, -0.0009347599, -0.0519756861, 0.0145094506, 0.0261042751, -0.0533593409, 0.0313933231, 0.0229775440, -0.0212348513, 0.0267900098, 0.0409763977, 0.0320003182, 0.0232298635, -0.0018286917, 0.0213160049, 0.0811995268, -0.0697190836, -0.0464276001, -0.0378953144, -0.0639711395, 0.0425299443, -0.0043390412, 0.0796568990, -0.0419112481, 0.0086626224, -0.0370973013, 0.0319839902, 0.0597560517, -0.0042646970, 0.0512441956, -0.0613459088, -0.0632637665, -0.0488264784, -0.0322853588, 0.0201230198, 0.0009180918, -0.0415461697, -0.0971167013, -0.0197942294, 0.0093390830, -0.0526015125, 0.0181443729, -0.0299536586, -0.0668955073, 0.0424701013, 0.0061616967, 0.0441899151, -0.0036140163, -0.0878005698, 0.0052700350, -0.0608765036, -0.0283554569, 0.0165367164, 0.0582081303, 0.0915348530, 0.0075277919, 0.0324049108, -0.0624973625, 0.0456380360, 0.0038881470, -0.1657804847, 0.1189622581, 0.0402141735, 0.0312346462, 0.0218058452, -0.0537952371, -0.0357529894, -0.0196672138, 0.0241052154, -0.0880181044, 0.0671066940, 0.0027032380, 0.0515921377, -0.0042790151, 0.0124168890, -0.0452725217, -0.0673896298, 0.0413689874, 0.0855970532, -0.0449486785, -0.0628545284, 0.0063357074, 0.0335195214, 0.0014498377, -0.0585539229, 0.0569105595, 0.0111163389, 0.0136994440, 0.0550730824, 0.0284804944, 0.0077688382, 0.0358276442, 0.0277981926, -0.0603735708, -0.0394117869, -0.0585228354, 0.0476213172, 0.0167499185, -0.0336445197, -0.0273858402, -0.0486801974, -0.0259053074, -0.0052194321, 0.0246965624, 0.0192673560, 0.0785691515, -0.0329655334, -0.0697727725, -0.0384937599, -0.0351020098, 0.0565574132, -0.0336640738, 0.0519756265, 0.0083947601, 0.0313017145, 0.0483954102, -0.0300775599, -0.0527637191, 0.0368230119, 0.0420182869, 0.0013444908, -0.0747273415, -0.0217212420, 0.0052724155, 0.0696050972, -0.0476399995, -0.0303873345, 0.0118031772, 0.0224531833, -0.0260321237, -0.0112473024, -0.0674679279, -0.0245065074, 0.0918062702, -0.0423358679, -0.0009326498, -0.0230030604, 0.0975565836, 0.0215768497, -0.0108285230, 0.0533350594, -0.0468312949, 0.0951482356, 0.0370808728, -0.0863757804, 0.0030613570, -0.0271238685, 0.0275057629, 0.0188378952, -0.0032617282, 0.0186833292, 0.0554654188, -0.0626100078, -0.0304718558, 0.0065552634, -0.0222379826, -0.0010539491, 0.0561463088, -0.0325181037, -0.0736359134, 0.0298150014, 0.0296530910, 0.0338471495, 0.0385208242, -0.0378032252, 0.0995527282, -0.0170336813, -0.0656796396, 0.0087503809, 0.0581660606, -0.0435709395, -0.0392139889, 0.0448705889, 0.0500177070, 0.1203066483, 0.1203586236, 0.0005437594, -0.0626194030, 0.0072520040, -0.0599060804, -0.0250795763, -0.0071707726, 0.1125501543, -0.0120904669, -0.0359649882, -0.0157532450, 0.0105789434, -0.0526858233, 0.0407367796, -0.0204125904, -0.0428834558, -0.0793938115, 0.0024164449, -0.0300182439, -0.0372700728, -0.0046786494, -0.0398532674, 0.0372626372, -0.0534439124, -0.0253785569, 0.0489212498, 0.0470579602, 0.0532761402, -0.0306693483, 0.0479027964, 0.0370790139, 0.0058074929, -0.0080661820, 0.0134091722, 0.0012946548, 0.0442881100, 0.0211492386, 0.0181899313, -0.0238456856, 0.0568262562, -0.0389188081, -0.0705026239, -0.0199967753, -0.0435272045, -0.0463324748, -0.0407620296, 0.0135928448, 0.0580203570, -0.1120579913, 0.0053452244, 0.0087793302, -0.0694032535, -0.0487578027, 0.0220495984, -0.0397161730, 0.0492353328, -0.0323171131, 0.0113681275, 0.0086702378, 0.0395308398, 0.0237659905, 0.0000919605, 0.0209313631, -0.0014243845, 0.0330001898, -0.0123231672, -0.0241006762, -0.0851231739, -0.0297287423, 0.0250643697, -0.0205863789, 0.0722445995, 0.0127063356, -0.0782219917, -0.0098232692, -0.0423427224, -0.0524036177, 0.0945885777, -0.0183633938, -0.0535263158, -0.0534453504, -0.0351971164, -0.0125688063, -0.0023996402, 0.0176490750, -0.0795899183, -0.0080513749, -0.0215946622, 0.0325272530, -0.0579939671, 0.0510933623, -0.0052343919, -0.0606136397, 0.0327778384, 0.0091890870, -0.0167369340, -0.0021742829, -0.0160559211, 0.0517486706, 0.0655857176, 0.0337170921, -0.0228637476, -0.0149305202, 0.0946864784, 0.0145364180, 0.0387407169, 0.0193205662, 0.0165489223, -0.0284981094, 0.0137987472, 0.0995209739, -0.0547712557, 0.0203293543, 0.0493371747, 0.0328683406, 0.0254281014, -0.0146904970, 0.0068309521, -0.0179539062, -0.0543015040, -0.0426523164, 0.0454637595, -0.0361588411, -0.0207742471, 0.0153340455, -0.0119013377, 0.0108527429, -0.0522681847, -0.0041977922, -0.0187513251, 0.0575052947, 0.0219153557, 0.0111004412, -0.0519077666, 0.0044520600, 0.1095844358, -0.0094429450, 0.0185579620, 0.0328534469, 0.0417046659, 0.0201364495, -0.0173118152, 0.0351671614, -0.0193401668, -0.0199801959, 0.0339109153, -0.0267533343, 0.0131302923, -0.0524146073, -0.0510479622, 0.0021513479, 0.0093713012, -0.0089295199, 0.0123621905, 0.0125485482, -0.0284881182, 0.0751640350, 0.0462673753, 0.0217167232, 0.0276260190, -0.0492220297, -0.0919392258, -0.0264872927, 0.0176473074, -0.0050574243, 0.0204596184, -0.0461632051, 0.0394474752, 0.0421189778, 0.0463625751, -0.0043212059, -0.0069373902, -0.0125508495, -0.0269894805, -0.0149458321, 0.0139487172, 0.0386790000, 0.0264385380, 0.0173619948, -0.0034548379, 0.0391557105, 0.0184698086, 0.0695489496, -0.0307238530, 0.0427691638, 0.0262801852, 0.0097361607, -0.0075788707, 0.0054283943, -0.0210815333, 0.0103367828, -0.0804272890, 0.0340672992, 0.0071372804, 0.0282452162, 0.0740565956, -0.0429853573, -0.0532275923, -0.0894834250, 0.1660424620, -0.0541030057, -0.0202220678, -0.0193391219, 0.0215750523, -0.1014920101, 0.0053532384, -0.0590740591, -0.0501750112, 0.0784728527, -0.0322686583, -0.0653041154, -0.0000384974, -0.0411254466, -0.0502022393, -0.0056399708, 0.0077066822, 0.0443034694, -0.0450265110, -0.0823134780, -0.0486946180, 0.1051400527, 0.0419596545, -0.0501606427, -0.0370312035, -0.0046899077, -0.0549500212, 0.0898178145, 0.1373347491, -0.0129032433, -0.0134476870, 0.0053828177, 0.0096316775, 0.0996279567, -0.0665247291, -0.0089126742, -0.0568795651, -0.1042524502, 0.0000078352, 0.0618829764, 0.0099705700, 0.0196163785, 0.0429446287, -0.0233001783, 0.0396596938, -0.0222192742, -0.0482581072, 0.0423757546, -0.0204467326, 0.0434708558, 0.0115245879, -0.0683448762, 0.0175225176, 0.0320964605, 0.0344744027, -0.0484666042, -0.0324398465, 0.0757603049, 0.0891239196, 0.0516184419, 0.0222165976, -0.0514857471, 0.0339334682, -0.0296962727, 0.0473266132, 0.0237261318, -0.0317806862, 0.0037974718, -0.0285143610, -0.1341631263, -0.0572954379, 0.0070039253, -0.0540239811, -0.0494270548, 0.0313871279, 0.0525896475, 0.0291541796, 0.0165180638, 0.0404058062, -0.0231408346, 0.0239796601, 0.0383328758, -0.0308172703, -0.0660819635, -0.0892519578, 0.0535084680, -0.0215012375, -0.0282142330, 0.0685957968, 0.0277100354, -0.0278797355, 0.0386392362, -0.0580378920, -0.0436782986, 0.0381645262, 0.0300626550, 0.0710685998, -0.0113344546, -0.0289785322, -0.0233858880, 0.0384754166, -0.0081036054, -0.0204849131, 0.0034550943, 0.0465038717, 0.0043280441, -0.0449223109, 0.0186003894, -0.0273181889, -0.0805963278, -0.0678863674, 0.0256788749, -0.0420381725, -0.0299535934, -0.0615474954, 0.0094891470, -0.0451475903, 0.0433184281, 0.0009119809, 0.0055655553, 0.0340212509, 0.0331889093, -0.0086975535, 0.0308699068, -0.0370369852, 0.0041691661, 0.0420134626, -0.0428700820, 0.0302385855, 0.0104635423, 0.0084063476, 0.0358811654, 0.0131527372, 0.0141329467, 0.0310272593, 0.0140766120, -0.0570466146, -0.0959756076, -0.0640401468, -0.0026559418, 0.0196002237, 0.0332312398, 0.0397643782, 0.0017471960, -0.0179360453, -0.0620432794, 0.0260466635, 0.0225178432, 0.0529640354, 0.0018824858, -0.0667153597, 0.0339707807, 0.0237846263, -0.0443336777, -0.0407920443, 0.0500238314, 0.0003815112, 0.0227801818, 0.0368261188, 0.0406408906, 0.0341338627, -0.0434901528, 0.0313100778, -0.0473462306, -0.0017411130, 0.0465304330, -0.0378661081, 0.0218236670, -0.0706180185, -0.0394704007, -0.0440409370, -0.0065339734, -0.0688415170, -0.0145987459, -0.0465664081, -0.0102061592, -0.0568851195, -0.0630763471, 0.0551938303, -0.0808212385, 0.0439613722, 0.1017512679, -0.0127897961, -0.0659555867, 0.0579073429, 0.0373572521, -0.0110569894, -0.0442458838, 0.0188221689, -0.0522319004, -0.0187418312, 0.0350164250, 0.0814397633, -0.0604044423, 0.0016406886, -0.0271595456, 0.0202777628, -0.0356869809, -0.0723625571, 0.1038182005, 0.0269160587, 0.0106432298, 0.0415059999, -0.0236781668, -0.0691793635, 0.0426167138, 0.0312139820, 0.0727653876, 0.0293394700, -0.0323574170, 0.0386307128, -0.0405944847, -0.0018337454, 0.0923322514, 0.0186067186, 0.0466945544, 0.0667035282, 0.0147327073, -0.0342853032, -0.0319984704, 0.0464564934, -0.0116322860, 0.0502416007, 0.0253004432, -0.0090433946, -0.0187279414, -0.0177065302, -0.0482719317, -0.0429536849, 0.1043400615, -0.0000715708, -0.0245833881, -0.0072751963, -0.0810417533, -0.0426599346, -0.0063470858, -0.0054200143, 0.0080236075, 0.0306275003, -0.0146240946, -0.0464353412, -0.0627864003, 0.0406610444, -0.1569642425, 0.0100445934, 0.0913440138, 0.0251041539, -0.0363241211, 0.0024117169, -0.0196709149, -0.0257664770, 0.0288820583, 0.1109822243, 0.0393899046, -0.0414441675, 0.0856577307, 0.1142902598, 0.0025484555, -0.0035354719, 0.0010584128, -0.0283815600, 0.0626551136, -0.0518639199, -0.0427191667, -0.1113695800, 0.0809554160, 0.0364659801, -0.0533481203, -0.0218795184, -0.0692380294, 0.0137066785, -0.0583484918, -0.0112993363, 0.0217535309, -0.0535128824, -0.1911099106, 0.1172819361, 0.0581418946, 0.0604923330, -0.0300270878, -0.0705216900, -0.0273330305, 0.0581340082, 0.1605195701, -0.0220296476, 0.0359070115, 0.0154065341, 0.0854774863, 0.0328233577, 0.0917423442, -0.0498025902, 0.0388085134, -0.0055620372, 0.1118831262, -0.0054593328, -0.0265213195, -0.0410555899, -0.1220117658, -0.0314291306, 0.0265711807, -0.0558841899, -0.0329837501, -0.0543228686, 0.0037517233, -0.0471734516, 0.0382222198, 0.0284392200, -0.0737559125, 0.0863133445, 0.0483433828, -0.0313300304, -0.0625173524, 0.0664370283, 0.0608796924, 0.0256300941, 0.0919903070, -0.0189305339, 0.0251518898, 0.0155588882, -0.0113942428, 0.0336635672, -0.0374426879, 0.0199754201, -0.0700602084, -0.0008076857, -0.0444065481, 0.0217173435, -0.0110406559, -0.1327553988, -0.1318352669, -0.0143283848, 0.0167162232, -0.0198905896, 0.0142229516, -0.0194897559, 0.0206767432, -0.0304941945, -0.0202962123, -0.0611244850, -0.0252507254, 0.0404619835, 0.0215287879, -0.0281540789, -0.0389447287, 0.0313944109, -0.0673489198, -0.0088408217, 0.1256316453, 0.0348004997, -0.0390855335, -0.0536660515, 0.0010013705, 0.0277985502, -0.0555987693, 0.0102503756, 0.0342312790, -0.0428957418, -0.0423300490, -0.0592918620, -0.0560326055, -0.0026862440, -0.0148084182, 0.0313468352, -0.0671306401, 0.0140939439, 0.0408958569, 0.0291264039, 0.0218453985, 0.0371130668, 0.0175025649, -0.0671644360, -0.0260918960, -0.0796811208, -0.0425328538, -0.0639106110, 0.0285350233, -0.1384319067, 0.0232417602, -0.0458442494, 0.0330101103, -0.0520474985, 0.0544632301, 0.0073244083, 0.0682819858, -0.0022742592, 0.0194714814, -0.0316272601, -0.0555750318, -0.0434582159, 0.0481062345, -0.0003199347, -0.0416868739, -0.0122419698, 0.0475639328, -0.0314759165, 0.0319327042, -0.0278911889, -0.0538960844, -0.0060337200, 0.1025303900, 0.0440309569, -0.0582341850, 0.0260025077, -0.0551605672, -0.0768431202, 0.0770179257, -0.0102517381, -0.0077479221, -0.0219004415, 0.0301551186, 0.0528457761, -0.0318480358, -0.0334290490, -0.0012561372, -0.0431155004, 0.0203421451, 0.0593872145, 0.0495408513, -0.0145831052, -0.0446809828, 0.0361729227, -0.0529546775, -0.0693949834, -0.0471722409, 0.0548163094, -0.0058284360, 0.0443897359, -0.0510037281, -0.0210799146, 0.0012837900, 0.0320516601, 0.1061809212, 0.0389368720, -0.0456237160,