//Numpy array shape [64]
//Min -1.616664648056
//Max 2.100732326508
//Number of zeros 0

#ifndef B21_H_
#define B21_H_

#ifndef __SYNTHESIS__
bn_dense_1_bias_t b21[64];
#else
bn_dense_1_bias_t b21[64] = {0.5118600130, -0.8494086862, -0.4969776273, -1.0876331329, 0.3435191810, 0.9693801403, 0.1225972474, -1.2221210003, -0.1913279593, -0.3350572586, -0.3736064434, 0.4968727231, 0.3616402149, -0.1774853170, 0.8564742804, -0.3686064780, -1.2811931372, -1.6166646481, 0.7362089157, 0.3224800527, -0.7067509294, 0.6923798323, -1.0571491718, 0.0701427981, 0.5144802332, -0.6299731731, -0.5243424773, -0.1361490637, -0.6170502901, -0.2199627459, 0.4184045792, -0.0135853589, 0.0767542794, -0.5115534067, -0.6182447076, 0.6064225435, -1.2804532051, 0.0693213791, -0.1330957860, -0.8697152734, -1.3886065483, 0.0708296299, -0.2164097577, 0.4492940605, 0.2434405535, -1.4031194448, -0.9455159903, 2.1007323265, -0.1066055223, -0.0741991103, -0.7159787416, -0.7853374481, -0.1082698554, -0.7680409551, -0.4596766829, 0.3603568077, 0.3999755681, 0.9252846837, 0.2636403739, -0.3794742227, 0.6794502139, -0.0014657825, 0.9902184606, -0.1396410167};
#endif

#endif
