//Numpy array shape [32, 52]
//Min -0.732935130596
//Max 0.449942916632
//Number of zeros 0

#ifndef W11_H_
#define W11_H_

#ifndef __SYNTHESIS__
output_weight_t w11[1664];
#else
output_weight_t w11[1664] = {-0.0328261591, 0.1728835851, 0.3005469143, 0.1882308424, 0.2480723113, -0.1704032719, 0.1718866825, 0.2629587054, -0.0176872052, 0.0379566699, -0.0823208690, 0.1298444122, 0.2838677764, -0.1875933409, 0.0699910298, -0.0218782183, -0.2916797698, -0.1251284480, 0.1002700329, 0.0639029443, 0.0323578343, 0.0293290205, -0.1931234598, -0.2460744381, -0.3675147295, -0.1684305519, 0.0123011246, 0.1712635756, 0.0121705141, 0.1402815580, -0.0885472000, 0.2310041338, -0.2282822132, 0.2397081703, -0.0201083273, -0.4043046236, 0.3126049936, -0.4363138378, -0.1252541393, -0.1935845613, -0.2381609827, -0.0476193242, 0.1957968026, 0.1094782501, -0.0598442256, -0.1939930469, -0.0007795431, -0.0774753094, -0.2232179493, -0.3951705396, -0.2863856852, 0.1866505146, -0.4015200138, 0.1963478923, 0.0458455905, -0.1991576403, 0.0151979253, 0.2477675378, 0.1312666088, -0.0445430949, -0.0798291266, 0.0715021342, -0.1150223836, -0.5051466227, 0.0521105379, 0.1407053173, 0.2168825865, 0.1485200673, 0.1717955470, -0.0658405721, 0.0136938328, 0.0738522708, 0.3330228329, 0.3111748695, 0.0574466623, 0.1213338524, 0.1905189306, 0.1027458385, -0.1464046389, -0.1416699290, -0.2995270491, 0.2987073958, 0.1666500717, 0.1350527257, 0.1627062112, 0.1110315099, 0.0171059724, -0.4412628710, -0.3793691099, 0.1787474453, -0.0818380266, -0.4920972288, 0.2889706790, -0.1630689353, -0.3204591870, 0.0376077890, -0.4138005972, 0.0228436422, -0.5780966878, -0.1125441045, -0.2445129305, -0.2787458003, -0.3690875769, 0.1444745511, -0.0981222466, 0.0652471855, 0.2038853914, 0.2393023223, 0.2539353967, -0.1239167824, -0.2237891853, 0.1666653901, 0.2399813235, 0.1796758771, 0.1338228285, -0.1157177985, 0.2354271710, -0.2759824991, -0.0454973206, -0.0243815854, -0.2683145702, -0.1753445417, -0.1570593715, -0.1490863562, -0.1455476582, 0.1281679124, -0.2247150987, 0.0603053272, -0.0045582126, 0.0994622409, -0.0012841981, -0.0556105673, -0.2479670346, -0.1240838096, 0.1762682050, -0.0985278636, 0.0359030478, 0.1805893183, 0.2425747514, -0.0645426363, 0.1618499011, -0.0735842586, 0.0595937781, -0.0740035176, -0.1931978613, 0.0891935602, 0.0271249004, -0.2311035693, -0.1867841929, 0.2103815675, 0.0500430651, 0.2295509577, 0.2102293968, -0.1583739370, -0.1825687289, 0.0629122853, -0.0420899801, 0.1320865303, -0.0705662519, -0.1230851710, 0.1321095228, -0.0036873701, 0.0639804229, 0.0140113272, 0.1766859591, -0.0683912933, -0.1249315217, 0.1472585946, 0.1268691272, -0.1431483477, -0.2398029417, -0.0728935450, 0.0043819994, -0.2338333577, -0.1890338212, 0.2052092552, 0.1634346396, 0.1793734282, -0.1031452194, -0.2442504019, -0.0044705602, 0.1208931208, 0.0337678716, -0.2018950880, -0.1676961035, -0.2060165107, -0.0325145163, -0.2509647012, -0.1239643469, -0.0543621369, 0.0750126764, -0.0194146801, 0.2026616484, 0.1360494047, -0.2532136440, -0.0840631574, -0.1268835515, -0.1049913168, 0.1408428401, -0.0948702917, 0.2394834012, -0.0369726419, 0.2193821073, -0.0687538013, 0.1544066668, -0.2406294197, 0.1033898667, -0.1269487590, -0.0445086993, 0.1997769028, -0.2410911918, -0.2709688842, 0.2219463140, 0.1940326095, 0.1316782236, 0.1342628449, -0.1554084420, 0.2003586888, 0.0247076266, 0.1713471860, 0.1297895461, -0.0449255072, 0.1110693067, -0.0314502493, -0.0248654429, 0.0472159982, -0.0387293398, -0.2018034309, -0.1879476309, -0.1135700792, -0.0451197959, 0.1197631583, -0.0184967145, -0.1273234040, -0.1402370334, -0.1525559723, -0.0239307694, 0.1436617523, 0.1193307713, -0.1292427331, 0.0312096942, -0.2082817852, -0.1717969775, 0.1829508096, 0.1314055473, -0.0369241238, 0.2463797778, 0.1993894428, 0.2453869581, 0.0138301309, -0.0507968701, 0.1094198897, 0.0490882620, -0.0639299229, 0.1710382700, -0.0823480710, 0.0897435173, 0.0692642629, -0.0138291894, -0.1220945418, -0.2271118164, -0.0073863929, 0.1764481366, 0.1184783280, -0.1036585867, -0.0622025877, -0.1920486689, -0.1240606532, 0.1594421417, -0.2104267776, -0.1611948013, -0.2651717067, -0.1760462970, -0.2532712519, -0.2716764212, 0.1024463102, -0.2002025694, 0.2351623029, 0.0953526795, -0.1514146179, -0.2098843306, -0.0418697074, 0.1014441177, -0.0485672504, -0.1396073699, -0.0486179292, 0.0191855431, -0.1843363047, 0.1921724677, -0.2531670034, -0.2447353899, -0.1981896162, 0.0852814987, -0.0713492706, -0.0583270676, 0.2348890603, 0.1575572640, -0.2175288945, -0.0812861919, 0.0095647518, -0.1805601269, 0.0320971869, -0.0975638181, -0.1058866456, 0.2151529938, 0.2257777900, 0.0142674036, -0.0902276561, 0.0072763120, -0.1611013114, -0.2571483850, -0.2214873284, -0.0649855882, 0.1873883605, 0.1558443457, -0.2335508019, -0.2411958426, -0.1883757859, -0.2340181321, -0.2384284586, -0.1237108111, 0.0307481810, -0.0481762700, -0.1687818170, -0.2261494696, 0.2415087223, 0.0211619809, -0.6336210370, 0.2234891355, 0.2976896763, 0.2184748203, 0.0262885336, -0.2507607341, 0.2049156129, -0.0334685594, -0.4421189427, -0.1512203664, 0.1506674737, -0.0704223961, 0.1109938249, -0.1813788712, 0.1760111004, 0.3028415740, -0.2802336514, 0.2421464920, 0.2047058791, -0.0255213547, 0.3490888476, 0.2530071735, 0.2174741179, -0.1946687698, 0.2183042467, 0.1251171529, 0.0152251665, -0.3239667714, -0.3365787566, 0.0239809118, 0.1587538868, -0.2449264079, -0.2205190212, 0.1901243776, 0.0378236957, -0.0345913656, -0.0788785666, -0.0251614135, -0.5112523437, -0.2598068118, -0.1356023848, -0.0281890016, -0.2696335316, -0.1826617122, -0.0502443276, -0.2301431149, -0.2917313278, -0.1162165031, -0.2386546731, 0.2185740322, 0.2328823656, 0.1264460385, 0.1776898354, 0.2506222427, 0.2696317732, 0.0703215897, 0.2583112121, 0.0817233548, 0.1983714998, 0.2113473564, 0.2532250583, -0.0521933027, -0.1360393763, 0.1028437614, 0.0435819738, 0.2285020202, -0.1544169486, -0.3940367699, -0.1829932183, 0.0461197272, -0.0444792248, -0.1932981908, 0.3019356728, -0.1683753133, -0.2435944825, 0.0644951463, -0.6528173685, -0.0875054970, -0.2373265326, 0.0069100191, -0.1139901429, -0.3229580224, -0.0210135151, 0.0437267981, -0.0818706825, 0.1305602938, 0.1855196357, 0.1251508147, -0.1872809678, 0.3667027056, -0.3287977576, -0.2398756593, 0.3040668666, 0.1443322599, 0.3492864072, 0.0596867353, 0.3774780929, -0.1033387706, 0.1542000473, 0.1736253351, 0.1497055888, -0.2352006584, -0.0480464809, -0.0325535685, 0.0027910518, -0.5090084076, -0.3486783803, -0.2192846686, -0.1656425744, 0.1851910353, -0.0695943758, 0.1734657735, -0.1371089667, 0.2896971703, 0.0201323070, 0.0278298240, 0.1497891843, -0.0855754092, -0.3709004223, -0.0040398231, 0.0060488391, -0.2695562243, -0.6722757816, -0.7329351306, 0.0740851462, -0.4017413259, -0.0738190487, -0.4889131784, 0.3422335982, 0.0784133449, -0.2776624262, -0.1033920497, -0.0073559368, 0.0293286443, -0.3231951892, -0.1517779827, -0.2493587881, 0.2389837801, 0.0907448307, 0.0126808211, 0.1894187331, -0.1824236065, 0.1043292135, -0.1225664243, 0.1242322549, 0.0548899733, 0.1804402471, 0.1306027174, 0.2511306107, 0.1703518927, 0.0918268189, 0.0309065543, 0.1764993817, 0.0203249864, -0.0295306426, 0.0276268497, 0.0655654296, -0.2368103117, -0.1479961276, -0.1736802161, 0.1692294627, -0.1157888472, -0.1898151338, 0.1472137421, -0.1278524250, 0.1285161227, 0.0126068266, 0.1479019076, 0.1237447113, 0.0632669777, 0.0921748877, -0.2478838563, 0.1906559765, 0.0730301514, -0.2593558729, 0.1799614429, -0.2016372234, -0.0676820576, 0.0019675293, 0.2523458898, 0.2497994453, 0.1417103112, 0.0015358095, -0.1949706972, 0.0920115188, 0.0327718668, 0.2430153489, 0.0352538154, -0.0549313463, 0.1226154119, 0.0904178843, 0.0476916283, 0.1767508239, -0.4969846904, -0.3852514923, -0.3427149057, -0.1738882214, -0.1374829262, -0.0006065362, 0.0729913786, -0.1188935041, 0.1584665328, -0.0114842020, 0.3223911226, 0.0712997615, -0.0041710404, -0.1940146834, -0.0994346142, 0.2291011661, 0.2795822024, 0.1585864872, 0.0992835611, 0.1930282414, -0.0326248743, -0.1428054720, -0.1184853688, 0.0548559576, -0.3258648813, 0.1737999469, -0.0117785241, -0.2504470050, -0.3747043610, -0.2690871060, -0.1343388110, -0.3435029685, -0.5240426064, 0.0920307562, -0.1054718792, -0.0955744833, -0.0003101306, 0.2936938107, 0.4499429166, -0.4284047484, -0.1379084885, 0.0750652179, 0.1822295189, 0.1717884690, -0.0651813224, 0.1123671830, -0.3079146743, -0.0692464560, -0.1526238769, -0.3202247918, -0.0183450226, -0.3505943120, 0.0572615862, 0.0356143638, 0.2419873774, -0.1451908797, 0.0675900355, -0.0746109337, 0.0916104615, 0.0234811157, -0.0642183349, -0.1454048306, 0.1268914789, 0.1041944996, 0.0290985890, -0.2199991494, -0.2295236737, -0.1776446253, -0.2167088389, -0.1904805303, -0.0136750508, 0.0980542228, 0.1635468602, 0.1161490083, -0.0381352715, 0.1420214027, 0.0601866059, -0.2645520270, -0.0560340099, -0.1365047693, -0.1454327852, -0.0412339158, 0.2137836218, 0.1562915891, 0.1346231699, -0.0284915604, -0.0020125851, -0.1398964524, -0.2415185571, 0.1525160521, -0.0763163045, -0.1849356741, -0.1005559340, 0.1725365222, 0.0181544218, -0.2046198547, -0.1756177694, -0.0915245339, -0.1875655055, -0.2026942223, -0.0210010614, 0.2302508056, -0.2522909939, 0.2348434031, -0.1085093394, -0.2150712013, 0.0487398840, 0.0065956889, 0.2581012249, 0.0205152538, -0.0596327335, -0.0810571760, 0.1537599117, 0.1479953378, -0.2381615490, 0.0626495928, 0.0531914346, -0.0124483025, 0.1546682417, 0.1480282396, 0.0544839948, 0.2006829381, 0.0379792824, 0.2041906416, -0.0205926765, 0.1714064926, -0.3584775925, -0.1602599621, -0.0126575679, 0.1669753790, -0.1273040324, 0.1643166393, 0.1944550276, -0.0201522969, -0.1186657771, 0.1814496815, -0.0222825687, -0.1952816695, -0.0486020856, 0.0063054687, -0.2304456532, 0.1581100971, 0.2328565419, 0.0043818969, -0.3275971413, 0.0059298961, -0.3210299909, 0.1216430143, 0.1683887541, 0.1492465734, 0.2609865367, -0.1045733541, 0.0717973635, 0.0962325633, -0.0020732575, 0.0729798302, -0.2299558222, 0.1956517696, 0.1791072488, -0.2656814456, 0.0815356299, -0.1988237947, -0.1473602802, 0.0811771750, -0.2736812830, 0.0677592680, -0.0703982040, -0.2546896636, 0.2238039821, -0.1158373654, 0.0424722694, -0.0943024904, -0.1883837134, 0.1694415957, 0.0664408728, 0.0990926102, 0.1712174118, -0.1536373645, -0.0166313089, 0.0046508033, 0.0156477392, 0.1810591966, -0.0756422877, 0.2094006985, -0.1755885631, 0.1971794814, -0.0440393835, -0.1523540318, 0.0165986344, 0.0253062937, -0.2801841497, -0.0320773870, -0.1755258590, 0.1643775254, -0.2741442621, -0.1713737398, -0.1420778036, 0.0263583325, 0.2018129081, 0.1412109882, -0.1565020084, -0.1170007661, 0.1360742599, 0.2483723164, 0.0075465487, -0.2192566693, -0.1722249538, 0.1773584783, 0.0970809832, -0.1353898048, 0.0110930046, 0.0188705362, -0.4033354223, -0.4065708518, -0.2816439569, -0.3606993556, -0.5218288302, -0.6065742373, -0.3616082966, -0.5062900782, -0.0377259888, -0.2205849886, -0.0881134123, -0.0312818252, 0.1571668088, -0.1772190481, -0.1865690351, -0.2768231630, -0.0256906729, -0.2502561808, -0.3469170630, 0.2433464080, 0.1523439735, -0.2520908713, -0.3305183947, 0.1091524735, 0.3269343972, -0.1752650440, 0.2007043660, 0.1159310788, 0.1982862949, -0.5097861886, -0.1208611727, -0.1281865090, 0.2272875905, -0.3908117712, 0.1851003617, 0.0317841880, -0.0323406868, 0.2360462695, -0.1626464427, 0.1859106272, 0.0870223641, 0.1290831119, 0.1291552186, 0.0985791832, -0.1673875302, 0.2020279020, 0.2300650179, 0.0692640692, 0.1252988428, -0.0334976204, -0.2715762556, -0.1641944945, 0.2730632126, 0.1320203841, 0.1940691918, -0.1454919577, 0.1509703845, 0.1822235435, 0.2715627849, 0.0442963131, 0.0588948689, 0.0725252032, -0.1542596668, 0.0442852378, -0.2818914056, -0.2645584941, -0.1709552407, -0.4593131542, -0.1920669526, -0.4964509606, -0.0170905888, -0.4014492333, -0.2100677490, -0.0728457049, -0.2425711453, -0.7087112069, -0.4406002760, -0.4952968359, -0.5879409909, -0.4931910932, 0.0790547058, -0.3085438907, 0.0238420218, -0.2888100147, -0.0545468070, 0.1426904351, -0.0788846985, 0.2596538663, 0.0667638481, 0.0878563449, 0.0878036618, -0.0353584811, 0.2172634602, 0.0007818828, 0.0835867003, 0.3117247522, 0.2606247067, 0.0297404714, 0.0488710254, 0.1362478435, -0.1547665000, 0.1191819534, 0.2519016862, -0.0730422139, -0.1490585059, -0.0478415042, 0.0275802091, 0.1137839705, 0.0503909178, -0.1433980316, -0.0686801001, -0.0520164035, -0.0554648563, -0.1040312648, -0.1039211676, -0.0659606233, -0.0114276111, 0.2130867243, 0.1069911048, -0.0612281673, 0.0658814162, 0.1930711567, -0.0104759205, -0.1424197555, 0.0199847948, -0.0975448117, 0.0169095565, 0.0850519612, -0.1419859827, 0.0553464741, -0.0975148305, 0.0882069319, 0.0833649635, 0.1093966514, -0.2077976167, -0.1220008433, 0.2256221473, -0.1072938517, 0.0110280914, -0.0307961963, 0.2390665561, 0.1510759294, 0.2059422582, -0.0044121891, 0.0820575282, -0.0660964251, -0.0337723829, 0.1485865414, -0.1372238100, -0.1940058172, 0.1813119799, -0.1262218654, -0.0826395899, -0.2391673028, -0.0777839124, -0.2544373572, 0.2088916004, -0.0732957423, -0.2114617974, 0.1907789260, 0.0205956716, 0.0603727549, 0.1970898807, -0.1799103022, -0.1187594905, 0.2063749433, 0.1802481711, 0.0452200957, -0.1131892279, -0.0318183899, 0.0418403223, -0.1613354385, -0.1646127552, 0.1480965763, -0.1866601855, -0.0035157665, 0.0254757311, 0.0495592132, 0.0967480540, 0.1296254396, 0.1342887729, 0.1053948775, -0.0058860057, -0.1757145822, -0.2598405778, -0.2977744341, -0.1940149814, 0.0134541215, -0.2044703960, -0.0322575979, 0.2061155736, -0.0564037636, -0.2713782191, -0.1751297116, -0.0128558902, 0.1953509450, -0.2362874746, 0.2180342376, 0.0458776876, 0.1621246338, 0.0533347465, -0.2629648745, -0.1674248725, 0.0272210855, -0.1234334186, 0.1679751873, -0.0064058909, 0.1162127852, 0.1831142157, 0.0917359740, -0.1146983355, -0.2135083377, 0.0701764077, 0.1183167472, -0.2412908822, 0.0669198111, 0.0391073190, 0.1898492873, -0.2028433830, 0.1204113737, -0.2320062965, 0.1466849148, 0.2008570284, -0.1424971968, 0.0701532364, -0.0166907981, -0.2416659147, 0.1462052464, 0.0800227895, -0.1612116992, 0.2189681679, -0.2266615033, -0.1308244467, 0.2179071158, -0.1186204478, 0.2447531670, 0.0513670817, 0.0113744913, -0.1008261442, 0.0852056965, -0.1651665568, -0.0054509756, -0.1186701804, 0.1092262566, 0.2291230410, -0.2103826553, -0.1490926445, -0.1829926819, -0.2117865384, 0.1345212311, 0.0195555612, 0.0033852949, -0.1441313922, -0.2254276574, -0.2048172653, -0.2164752036, -0.0205200631, -0.1168050095, -0.3005710840, -0.0174400900, -0.2538795471, -0.4809055626, -0.3397160769, -0.4513459206, 0.1033368707, 0.0211096369, 0.1283451915, -0.0164268743, -0.2106142938, -0.6280866861, -0.6904770136, -0.4723507762, 0.0086984718, -0.2282891870, -0.3284860551, -0.2229943871, 0.0232081730, -0.0548716374, 0.0352700055, 0.1867615730, -0.1044093594, 0.2078179717, 0.1326091290, -0.2172064930, -0.2453244030, 0.0397302061, -0.0351958834, 0.1653454751, 0.1667456776, 0.0875677615, 0.2892743349, 0.0667382851, -0.0513404347, -0.1326457858, -0.2295417786, -0.0914198235, -0.1565099508, -0.1380624473, -0.2586670518, 0.1643382013, 0.1574514508, -0.1001042947, -0.1478203237, 0.2528086305, -0.0601696447, -0.2423606813, -0.0294597540, -0.2880013287, -0.1750659794, 0.1836762577, 0.0271323901, 0.2436618805, -0.2354736924, -0.1245123073, 0.0117697036, -0.1059886515, -0.2097133547, 0.0603010245, -0.1897998601, 0.1140750051, -0.0739960000, 0.0919794068, -0.2189455330, -0.1323002279, -0.0748941004, 0.1203801930, 0.2318616509, 0.2002994269, 0.0001604882, -0.0991699696, -0.2621147633, -0.0048853057, 0.0511068068, 0.2422764748, 0.1482779086, -0.1566915959, 0.1748822480, -0.0029943741, 0.2079453915, 0.1675965488, -0.1318622530, -0.2301105410, -0.1159120500, -0.1340059340, 0.2421303988, 0.0312698148, 0.1850372255, -0.2319880277, -0.2677365243, -0.2572927773, -0.0191944484, 0.0528370515, -0.2529528141, 0.0277452357, -0.1330351681, -0.2093275040, -0.0729143023, 0.0625899732, 0.2384843081, -0.2564198971, 0.0284863915, 0.0461932942, -0.2668478787, 0.1871101707, -0.2396195829, -0.2575989664, -0.2313136905, 0.2010479867, 0.0784822553, -0.2471834719, 0.1480600089, 0.0077307597, -0.1840845048, -0.0144136520, -0.2069089115, -0.2306995839, -0.0491392128, 0.0296750553, -0.2370175272, 0.1387856901, 0.0514266081, 0.1995680034, 0.0879954398, 0.1909421682, -0.2462127507, -0.0412416011, 0.0315601192, 0.2165938616, 0.2123065889, -0.2466169298, 0.2347531617, -0.2548713684, 0.0846725181, 0.0724220425, -0.0237270296, -0.0021660202, -0.1591174752, 0.0186669100, 0.1795449853, 0.2515515983, 0.2162817419, 0.0309226774, -0.1806697994, 0.0165622532, 0.0358708277, -0.1962125897, -0.0478270501, 0.0830749124, 0.2456713468, -0.1997184753, -0.0460957810, -0.1594434232, -0.3168385923, 0.0488374457, -0.2987613678, -0.1554010957, 0.0949148014, 0.1535056829, -0.2563244104, 0.0426710248, 0.3378562033, -0.0096008740, -0.2579761744, 0.2907517850, 0.0243971273, -0.4427202642, -0.5109550357, -0.4313504100, -0.0455494933, -0.3761351407, -0.2273731381, 0.1093277782, -0.3503030539, -0.0098728482, -0.4880443811, -0.1919585615, 0.2184686214, -0.1650211364, -0.2028925866, 0.1233373359, 0.0490402021, 0.4100845754, -0.0687382594, 0.2678988874, -0.1144115701, -0.0591497086, -0.1408079565, 0.0910119265, 0.1682948768, -0.0934532657, -0.2800609469, 0.0418432355, 0.1741827428, -0.0419467837, 0.0345518179, -0.2549309134, 0.0229998454, 0.2583010197, 0.1598650813, -0.1366875619, -0.1382375211, -0.0613504723, -0.2590216398, 0.1317212880, 0.0186642520, 0.0011139333, 0.2479792237, -0.1299181730, -0.2463240474, 0.0124074090, 0.1031177193, 0.0543385781, -0.2331716865, 0.1778194457, 0.0653910935, -0.1110693440, -0.2229674757, -0.0478614569, -0.1680359393, -0.4417068064, -0.4169371128, 0.0711920559, 0.3482689559, 0.1664711535, -0.1496744752, -0.0562358573, 0.3278270960, 0.1211943105, 0.1653023511, -0.3835512698, 0.0822885856, -0.2858286500, -0.0373000838, 0.0028355510, 0.2036034465, 0.0897335634, -0.2179110050, -0.0317735150, 0.2228318006, 0.0237768348, 0.2276463211, 0.2576824129, 0.3267005980, -0.0518387109, -0.3111941218, 0.0707074031, -0.3459417522, -0.1934255064, 0.1421621293, -0.1425174475, 0.1666598320, -0.0073826551, 0.0709330067, -0.2977584004, -0.0261982940, -0.2943633795, 0.0033731386, 0.1686944962, 0.1409764439, -0.1562887877, -0.1520054787, 0.2193219364, -0.1324553937, -0.0657425597, 0.2356077582, 0.0803847685, -0.2463340163, -0.2668293417, -0.2607992291, 0.0629451275, 0.1856440157, -0.0107013332, -0.0208994187, -0.1846287549, 0.1297060549, -0.1346462369, 0.0136827044, -0.2166813612, -0.2298074514, 0.1732814908, 0.2055823505, -0.0909350291, 0.2100566775, -0.0173926391, 0.2187477499, -0.1914710104, -0.0893567130, 0.2052334547, 0.1085135415, 0.0322200097, 0.0756282508, 0.1061325669, -0.0625543967, -0.1690025628, -0.0054399204, -0.0996991917, -0.1321472228, -0.0836259276, -0.2120136321, -0.0422504991, 0.1335508227, 0.0826799348, -0.0948978662, 0.1014185622, 0.0287536811, 0.1210298836, -0.1159352735, 0.0265081748, -0.2374616563, 0.0418376587, -0.2737213671, 0.0122979051, 0.1357638240, -0.2471262962, -0.2025631070, -0.0873938799, -0.1592419595, 0.2028884739, 0.1981965154, -0.1730342805, 0.0140815563, 0.2453157902, -0.1609264612, -0.0463020988, -0.0439104177, -0.2035909742, -0.0661047474, 0.1458702683, -0.1042944342, -0.0330774710, 0.1250952333, 0.2421897948, 0.0526816025, -0.0630048066, -0.1322898865, -0.0525660850, 0.0927129984, 0.2100989670, -0.0814939439, 0.1644115150, -0.1720935851, 0.0791485533, 0.2456578314, 0.1194767058, -0.1041492298, 0.2350177914, -0.1849497706, 0.1129230484, -0.2063316107, -0.0739288703, -0.0068862201, -0.0317378640, -0.1479866356, -0.2249931097, -0.2117220461, 0.1688617617, -0.1309465915, -0.1476001292, -0.0879787430, -0.0861563906, 0.1521008611, 0.0683258325, -0.1420266330, -0.0633883104, -0.0580975562, 0.2017217577, -0.0747398362, 0.2321685851, -0.1332778484, -0.2677802145, -0.0702423826, -0.1876141727, -0.1154533923, -0.2300132960, -0.0234512556, 0.2086221278, -0.2415784150, 0.1263707280, 0.0707240701, 0.2028853297, -0.0777679607, -0.1138158515, -0.1543526053, -0.2602705657, 0.2443671525, 0.0938050970, -0.1713405252, 0.2340660393, -0.2546706200, 0.0357358307, -0.2167856097, 0.0358348936, -0.1717114449, -0.2088134289, -0.1807043403, 0.0629502311, 0.1147139519, 0.0766648576, -0.1554150879, 0.0408520252, -0.1888512969, -0.2444737852, 0.2415793538, 0.0582646020, 0.1029901728, 0.0977560580, -0.0299171917, -0.0032802143, 0.1082939059, 0.0104069002, -0.0441823043, -0.2563686669, -0.0852625296, -0.2779285312, -0.1901523620, -0.1268339157, 0.0326407291, -0.0087511996, 0.0337296948, -0.2142338604, -0.1292040944, -0.0366813429, -0.0314752609, 0.0136073930, -0.1487978697, -0.2529278398, -0.0951765105, -0.1022421494, -0.1026226431, -0.0183250029, 0.0487902723, -0.1796016246, 0.0934008062, 0.0015243286, 0.0104323765, 0.1844146252, -0.0189573485, -0.0623994879, -0.1548577100, -0.2774130404, -0.2161510736, -0.1094559506, 0.2477870584, 0.0698749498, -0.0446515530, 0.1493581384, -0.1338696629, -0.2260024846, 0.0724003613, 0.0213093441, 0.1331524700, -0.2739593685, 0.1433812231, -0.0106321992, -0.1106524393, 0.1946609467, 0.0791493729, 0.0208798628, 0.0835289955, 0.1376414299, -0.1514018476, -0.2296136022, 0.1948473006, -0.1773966849, -0.0079352092, 0.2589381039, 0.1769425124, -0.0839638337, -0.0346499309, -0.0629375651, -0.2692306936, 0.0150446529, -0.1057847440, -0.2631153166, -0.2321197838, 0.2416452318, 0.1100291312, -0.0414339975, -0.0755943954, -0.1697711647, 0.1872539967, -0.1110751703, 0.0980983302, -0.0233171880, -0.1762536466, 0.1604689360, -0.0704575107, -0.0635200217, -0.1890739799, -0.2416362017, 0.0369267240, 0.0158915669, 0.1831633002, -0.0988050625, -0.0605523139, -0.1230831668, 0.2194535434, -0.0798789412, 0.2233636379, -0.2022931725, -0.0249241702, 0.0541627109, -0.1653140038, 0.1403789967, 0.0439962707, 0.1453430653, 0.2551122904, -0.1480329037, -0.0562062822, 0.0782433376, -0.0890047550, 0.1946302354, 0.0699321553, 0.2027859539, -0.1428014338, 0.0296004955, -0.1968359202, 0.2093677223, 0.0395944268, 0.0724941865, -0.0551329851, -0.1941334158, 0.1555253118, -0.1857922226, 0.1400817633, -0.0029201140, 0.1880193353, -0.0376567096, -0.1048918292, -0.0214019343, -0.0084987674, -0.1328071058, -0.0082895793, -0.0141192758, 0.2111604065, -0.1488969773, 0.1799052954, 0.0387134254, -0.2391067296, 0.0049017202, -0.1543229818, 0.1663617641, -0.2306151837, -0.1941063404, -0.0593938343, 0.1016482189, 0.1415164918, -0.1074349061, 0.2040449530, 0.2406501770, -0.2375594527, 0.0331154354, 0.1867864132, -0.1067456454, -0.1264285445, -0.1969160736, 0.1914099753, -0.0033965488, -0.0349841081, 0.1402545869, -0.0327068008, 0.2447857410, 0.1902835369, -0.2651135921, -0.2264270931, 0.0964099988, -0.0469482169, -0.1948299557, -0.1203325912, 0.2002227753, 0.2286684513, 0.1826795936, 0.0186053570, -0.0739351511, -0.0564543381, -0.2372041345, -0.2549489439, -0.4190093577, -0.4736656547, 0.1014020592, -0.2150210142, 0.1841375232, 0.1513851434, 0.0750375316, -0.3680634797, -0.0415639915, -0.0780260265, -0.3498556912, -0.3549069464, -0.1980631351, -0.1076648310, -0.2060876191, -0.3173320293, -0.0585921183, 0.2587265372, 0.0110874390, -0.0340260416, -0.0545113012, -0.0994604826, -0.1361071765, -0.3230134547, -0.0338791497, 0.0507372618, -0.1491290480, -0.6714127064, -0.5709521174, -0.2155516744, -0.0795423985, -0.0994639173, 0.1164370030, 0.2152292877, -0.2908141315, -0.3236784935, -0.1776911616, 0.2318674773, -0.0701794252, -0.1061076671, 0.1356631815, 0.0997434929, -0.2574061453, 0.0391014777, -0.0979967862, 0.0153505737, -0.3662187755, -0.3497988284, -0.1651193649, -0.1329721510, 0.2300618142, 0.3554179966, 0.1549294144, -0.1988378018, 0.0264590271, -0.4316623807, -0.2884717882, 0.1138889343, -0.2562970221, -0.4524801373, 0.0381928533, -0.0896546170, -0.3247430027, 0.0237725265, -0.3280804157, -0.0944976285, 0.0563313849, 0.1674412042, 0.1492212415, -0.1462342888, -0.0769974068, 0.3067129850, -0.4510427117, 0.0490420684, -0.3773379922, -0.2312871516, 0.0344307423, 0.2500045598, 0.0089926962, -0.2014968097, 0.0661056265, 0.0721774846, -0.3387856483, -0.2891450524, -0.2968598604, 0.2100840956, 0.1243549883, 0.1993709207, -0.2439985871, -0.0155640682, -0.0839855596, -0.4258877039, -0.1503874660, -0.2620714009, -0.0730517954};
#endif

#endif
