//Numpy array shape [3, 3, 3, 4]
//Min -0.521098673344
//Max 0.444458603859
//Number of zeros 0

#ifndef W2_H_
#define W2_H_

#ifndef __SYNTHESIS__
conv1_weight_t w2[108];
#else
conv1_weight_t w2[108] = {-0.207259, 0.089557, 0.080554, -0.255334, -0.169794, 0.240372, -0.181418, 0.008499, 0.150535, 0.316966, -0.337696, -0.103248, -0.119240, 0.396820, -0.212263, -0.192722, -0.032884, 0.156153, 0.220143, -0.071796, -0.034768, 0.248736, 0.019221, 0.021574, -0.353525, 0.414806, -0.442304, 0.100544, -0.316248, -0.166064, -0.277788, -0.030108, -0.245222, 0.000221, -0.201785, 0.251542, 0.302173, 0.128120, 0.000636, -0.280425, 0.216961, -0.300848, 0.250324, 0.127694, -0.128679, -0.328931, -0.205893, -0.090095, 0.076031, 0.302469, 0.025572, -0.344040, 0.151889, 0.269434, 0.292711, -0.270687, 0.169647, -0.160492, 0.126998, -0.171709, 0.258550, -0.096340, -0.276463, 0.171090, 0.373136, 0.324722, 0.085315, -0.018345, -0.152226, 0.239443, 0.280138, -0.233544, -0.206698, 0.107891, 0.295762, -0.113758, 0.042627, -0.319624, 0.314361, -0.062273, 0.135092, -0.521099, 0.444459, 0.173899, -0.156449, 0.069779, 0.307979, 0.385195, -0.193434, -0.336609, 0.390010, 0.400535, 0.160185, -0.442691, 0.004628, 0.158892, -0.101674, 0.246663, -0.040415, 0.367664, 0.348524, -0.189024, 0.184098, -0.074678, -0.056258, 0.107099, 0.383341, -0.039298};
#endif

#endif
