//Numpy array shape [3, 3, 4, 8]
//Min -0.644689381123
//Max 0.900649368763
//Number of zeros 0

#ifndef W5_H_
#define W5_H_

#ifndef __SYNTHESIS__
conv2_weight_t w5[288];
#else
conv2_weight_t w5[288] = {0.0477745831, -0.3933821619, -0.2633244097, 0.2086131126, 0.1377264112, 0.0780359730, 0.1131511033, -0.0867491364, 0.4301682413, 0.3857322037, -0.2209189832, -0.0367443487, -0.2540757656, 0.0761905164, -0.1258983761, 0.1892668754, 0.1776472330, -0.0122974636, 0.0500388891, 0.2676461935, -0.0038098625, 0.0908296332, -0.2793134451, -0.2995328903, -0.0003509207, -0.1628411114, -0.0302142706, 0.1070927978, 0.1823372990, -0.1013250500, 0.1737767756, -0.0556270033, -0.0458078086, -0.2568717301, 0.1620820314, 0.3310962319, 0.0478191227, 0.0945651457, 0.0617607720, 0.2752276659, 0.2941697240, 0.6053581834, 0.0130786430, -0.2626369596, 0.0255403295, -0.2727396190, 0.3927246332, 0.4827782810, -0.2261931002, -0.3777573109, 0.0574760884, -0.1134839430, -0.0567907654, -0.0855355635, -0.0715698078, 0.1384833455, -0.2102775574, -0.1317236573, 0.2313380986, 0.3962649405, 0.1258069575, 0.1289361715, 0.1191685349, -0.1274628788, -0.2040887475, -0.1641937047, 0.4450722933, 0.4027254581, 0.2513144314, 0.3898206651, 0.0842678845, -0.0083452463, -0.1154370382, 0.4358780086, 0.1074990258, -0.1509911120, 0.0434881933, -0.2564535141, 0.3965968490, 0.0323831178, -0.1866050363, -0.3082871437, 0.2117825598, 0.2124160677, -0.1650676131, 0.2262271345, -0.0891737342, -0.0459375754, 0.1012839451, 0.1055226028, 0.4094019234, 0.5604611635, 0.1194724888, 0.2327094227, 0.3317161798, 0.1575515717, -0.2383042425, -0.2134626061, -0.0904421285, 0.2436102927, 0.2844923139, 0.0560695343, 0.1615567207, -0.0175464917, 0.0268023964, 0.2683641315, -0.2929580212, 0.1048955768, -0.3401720226, 0.1542365700, -0.3274991214, -0.1973840147, -0.2815487087, -0.1286544204, -0.1505495906, -0.0965621844, 0.2705784440, 0.1499461979, -0.0029966941, -0.4489191771, 0.2284188718, -0.0492610633, 0.0727532879, 0.0032470808, 0.1291320175, -0.1565563530, 0.0074760094, 0.1317453235, 0.0957870483, -0.1703289151, 0.2596121430, 0.0101970974, -0.0717463568, 0.0078878244, 0.4807654023, -0.2779264450, 0.2099928558, 0.3612623215, -0.3704993129, 0.1306772977, -0.3291593790, -0.1102018133, 0.1047483087, 0.4089456797, 0.0878092796, -0.1864943504, 0.2380944639, -0.0176379960, -0.1178761348, -0.1778905243, 0.1574176401, -0.6446893811, 0.2578273714, -0.1410831660, 0.4624000490, 0.4119477272, 0.2798387706, 0.2626640499, 0.2784695625, 0.3989216983, 0.2147540599, -0.0240828171, 0.2280996293, 0.3017968833, 0.0766315088, 0.0911296457, 0.2344366610, -0.1839881390, 0.4371059835, 0.1030168533, -0.1309532076, 0.0360257775, -0.0897115469, 0.2351223677, -0.0695627779, 0.5578202009, -0.0412977152, -0.3033172488, 0.2995122671, -0.0514056087, 0.0345384739, -0.3268361092, 0.0395520404, -0.4742596149, -0.0738731399, -0.1173614338, 0.0065444694, 0.2883317173, 0.3752997220, -0.0279660635, 0.4570636153, 0.1298017651, -0.2095980644, -0.1026083454, -0.1310928762, 0.1862670630, 0.6403171420, 0.2115373760, 0.3686838746, 0.6818431020, 0.3052853048, -0.2185578644, 0.0502874926, -0.0152683454, -0.1459625959, 0.1192513406, 0.0137641728, -0.0614485964, -0.4994976223, 0.0041281786, -0.1095026061, 0.0070176325, 0.3499107957, 0.2978780866, -0.0302896202, 0.4792031944, 0.1484037042, 0.1090696678, 0.1176991835, 0.2468634695, 0.1818782240, 0.1827408373, -0.0856860504, 0.6402297020, -0.1701316088, -0.1398382187, -0.0191513058, 0.2478618175, 0.3988942206, 0.4072411358, 0.4876840413, 0.4992206097, 0.1702851206, -0.0287776999, -0.1572748721, -0.1962303519, -0.2526698112, -0.4376626313, -0.2159499377, -0.5594512820, -0.3224042058, -0.1064249799, 0.1906965226, 0.1351232827, 0.2189372778, -0.0256088190, 0.0242383145, 0.3821986020, 0.0524949096, 0.0992705300, -0.1332915425, 0.2287922651, 0.2354621589, 0.3877566457, 0.0339656100, 0.6664372683, -0.0095246248, 0.0918789804, 0.0499979481, -0.0576429702, 0.3957794905, -0.0326413065, 0.1276166290, 0.3857876956, 0.5241187811, 0.3865174651, 0.1037617028, -0.0142210117, -0.4194739759, 0.1156859323, -0.1362764686, 0.0746442229, -0.0432028733, 0.0989205763, -0.1662615538, -0.2057735324, 0.3785388470, 0.0162987262, 0.2341077030, 0.2809810638, 0.0962893441, 0.1745455414, -0.3200116754, 0.1453207135, 0.4787778258, 0.5482675433, 0.0437271446, 0.9006493688};
#endif

#endif
