//Numpy array shape [3, 3, 4, 8]
//Min -0.458050221205
//Max 0.593236744404
//Number of zeros 0

#ifndef W5_H_
#define W5_H_

#ifndef __SYNTHESIS__
model_default_t w5[288];
#else
model_default_t w5[288] = {0.0197853148, 0.1665883660, -0.0688887909, -0.3049013615, 0.1866512150, 0.1155809313, 0.3977112472, 0.1165518165, 0.0770462975, -0.1524283588, -0.1515910923, 0.2373753488, -0.2535221875, -0.1335611641, -0.0343115516, -0.1614047289, 0.2821462154, -0.2312542349, 0.3525726795, -0.3874399662, 0.1527755260, 0.4293836355, 0.1646685898, -0.0440045111, -0.0472904705, 0.1556647867, 0.0880743638, 0.3198069334, -0.0242551025, -0.0378306210, -0.2448105365, -0.2040860951, -0.2013527900, -0.1865828484, 0.0585142523, -0.1772077829, 0.2600545287, 0.1682737619, 0.1200176179, -0.2677457333, -0.0537112765, -0.2540449798, -0.1639278531, 0.2187480330, 0.1287317127, 0.0207712222, 0.1086499915, 0.2641935647, 0.1211955845, -0.1568658203, 0.3289479017, -0.3442588151, 0.3407460749, 0.2792978883, -0.0270197354, 0.5376842618, -0.1121569127, 0.0464857593, 0.2432507724, 0.2371224314, 0.4293226898, -0.3465107679, -0.2843837142, -0.0696230456, -0.1758137196, 0.2624063790, 0.2937743664, -0.2750027180, -0.0673796609, -0.1150350347, 0.2404201478, 0.1696353108, -0.0591205880, -0.3040609360, -0.1449919790, -0.0308820046, 0.3050653040, 0.1629087180, 0.0220335219, -0.0399531499, 0.1142402664, 0.2722704411, 0.2708614767, 0.2731294036, 0.2534280717, 0.3846773207, 0.1536073089, 0.5864916444, -0.1051235273, 0.1108018309, 0.2478546202, 0.4671906829, 0.2695052028, 0.1347911060, -0.3662547767, 0.0065453858, -0.0674109459, 0.2006878406, 0.0040193596, -0.0915426612, -0.1373588294, -0.2826642990, 0.0047713127, -0.3475446105, -0.0384051502, 0.0329360738, -0.0583095923, 0.0528496616, -0.4021062553, 0.1649018377, -0.1472740918, 0.0971150696, -0.1523370147, 0.2276605815, 0.3505219519, -0.2337090075, -0.1580492854, -0.3069442809, -0.3756758869, -0.2891709805, 0.4314255118, 0.5398766994, -0.0227690451, 0.0726199448, -0.1698658019, 0.0576897003, 0.2515698373, 0.0057381857, -0.2930425107, 0.1456145197, 0.1218158528, 0.1166023389, -0.1312278956, -0.1685871035, 0.3268601000, -0.4580502212, 0.1745196879, 0.0081972172, -0.1571625918, 0.2344174832, 0.0973404050, 0.0312823802, -0.3562766910, -0.0572519042, 0.3363499939, -0.1345585883, 0.3738415241, -0.1181558371, 0.4670167267, 0.2286404520, -0.0813496783, -0.0122222146, 0.2027035505, 0.5863828063, 0.3676653802, 0.3366134763, -0.0591852292, -0.0022337257, -0.2824760675, 0.0710565597, -0.1473332196, 0.2015055120, 0.1993900090, 0.0603846423, 0.1330173612, -0.3076096177, 0.2210430950, -0.2212210447, 0.1552962214, -0.2691764235, -0.2115453035, 0.0032092088, -0.2324777395, 0.1606680602, -0.0518387221, 0.0001256062, 0.2613517940, -0.1327531785, -0.0970984027, -0.2745710909, 0.2033031583, 0.3183958828, 0.1383075118, 0.5665257573, 0.3668153286, 0.5932367444, 0.1287010759, 0.4777862430, -0.1675405353, 0.0203332920, 0.0815691575, 0.3157529533, -0.2700147331, 0.1330253780, 0.1049969196, 0.0085357865, 0.2532421350, -0.2344384789, 0.0010015868, -0.1752511859, 0.0509854630, -0.0882539675, -0.3087726831, 0.0843446851, -0.2155331671, -0.0205511302, 0.0961099043, 0.3403835893, 0.0328837037, -0.1397120804, 0.2390593588, 0.1685462594, -0.3294757009, -0.2497934550, -0.3202107549, -0.0439522825, 0.3567486703, 0.2332811058, 0.1949219704, -0.3270016611, 0.1919302046, 0.0807513446, 0.1869143546, 0.5348936319, -0.2254048735, -0.0124419648, 0.1948054880, 0.2489397824, 0.1694825739, -0.2679151595, 0.0511715785, -0.2725439966, 0.2320219576, -0.1106239259, -0.1130973250, -0.2067343444, 0.1576082408, 0.2806403637, 0.0477685705, -0.0095300227, 0.0790019035, 0.3158728480, 0.3466258645, -0.1001334190, 0.1078343913, 0.0248189028, -0.2707660198, 0.2586939633, 0.4421155453, 0.1987525672, 0.4364362061, -0.3564230502, 0.3982132375, 0.1425259411, 0.4702119529, 0.5835601687, -0.2146707773, 0.0719025210, 0.1755194664, 0.1751259267, -0.2181136161, 0.0399098471, -0.0984579548, -0.1640149206, 0.2250818908, 0.2443265468, 0.0065211924, -0.1290906817, -0.2361843288, -0.1724224985, -0.2460300922, 0.2198857516, 0.3651667237, 0.0061102351, -0.2722457647, -0.0012021663, -0.2393130660, 0.2266886234, 0.1361210495, 0.3409296870, 0.2497357577, 0.4249211848, 0.2151031792, -0.0493070781, 0.4338449538, 0.1662102491, 0.1574835926, 0.5556648374};
#endif

#endif
