//Numpy array shape [1568, 32]
//Min -0.364556908607
//Max 0.403135240078
//Number of zeros 0

#ifndef W9_H_
#define W9_H_

#ifndef __SYNTHESIS__
dense1_weight_t w9[50176];
#else
dense1_weight_t w9[50176] = {0.0269647744, 0.1241894439, 0.0524611063, 0.0553073995, 0.0176864676, -0.0393493511, -0.1067194864, 0.0889968425, 0.1269669980, -0.0527126379, 0.0691728443, -0.0555260889, 0.0056113754, -0.0796865523, -0.0577636026, -0.0453590378, -0.0433219559, 0.0118678035, 0.0376463719, -0.0281920359, -0.0211232100, 0.0306520294, -0.0036159796, -0.0453232192, -0.0496282466, 0.0256753694, 0.0277220942, -0.0391159542, 0.0143992826, 0.0079684416, 0.0414037555, -0.0125797056, 0.0481432676, -0.0086519904, -0.0566633902, 0.0368390083, 0.0084559591, 0.0138961123, 0.0068327021, 0.0506206267, 0.0706437454, -0.0665614307, -0.0445549041, -0.0754905418, -0.0286783334, -0.0782703757, 0.0264467131, 0.0753768310, 0.0212621875, -0.0115306722, 0.0541509911, -0.0329693593, -0.0398229212, -0.0015377519, 0.1213456988, 0.0047135353, -0.0240393132, -0.0103513980, 0.0088978847, -0.0472676866, -0.0236664526, -0.0060138525, 0.0098240245, -0.0260577705, 0.0573044270, -0.0149459792, -0.0318817906, -0.0163594075, 0.0005640837, -0.0643260926, 0.0840910003, 0.0494062193, -0.0110158734, -0.0120459776, 0.0264868215, -0.0251629055, -0.0577173121, -0.0523785613, 0.0278196540, 0.0813221931, 0.0254420768, -0.0588941127, 0.0279303454, 0.0106508955, -0.0660747066, -0.0458032377, -0.0238278974, -0.0240179934, -0.0506083593, -0.0460632369, -0.0640641898, -0.0600655228, 0.0425457805, 0.0010348856, -0.0168702435, 0.0369748250, 0.1082584709, 0.0236638784, -0.0518823639, -0.0167885199, -0.0500491336, -0.0227506384, 0.0076507139, -0.0049186861, -0.0011271096, 0.0224288516, 0.0400254428, 0.0379418768, -0.0286739580, -0.0227333475, 0.0233279672, 0.0925525576, 0.0102736913, -0.0291858558, -0.0541153960, -0.0552029423, 0.0530750379, -0.0654847771, 0.0021409164, -0.0314439833, -0.0360124744, -0.0684124902, 0.0364325307, -0.0086650178, 0.0481425524, -0.0370425470, 0.0421643965, -0.0619982146, 0.1346374750, -0.0520803221, 0.0131047564, -0.0676705837, 0.0359223969, -0.0463218279, 0.0674565881, 0.0237930287, 0.0220652763, -0.0548390560, 0.0277506094, -0.0270958040, -0.0002625288, -0.0230036899, -0.1193469688, 0.0369911715, -0.0382042527, 0.0174743515, -0.0259578042, 0.0414000452, 0.0152224945, 0.0202969052, 0.1007707566, -0.0073551820, 0.0479877405, -0.0153334439, -0.0597256348, -0.0201623626, 0.0534682944, -0.0509464704, 0.0658620968, 0.0396899506, 0.1473536342, -0.0252275188, -0.0526973531, -0.0548395216, 0.0484335497, 0.0255389698, 0.0673974827, -0.0154104289, -0.0094555067, 0.0352997407, 0.0289788730, -0.0009808728, -0.0599871874, 0.0416058265, -0.1541311294, -0.0696172118, -0.0205191318, -0.0235426072, 0.0437732786, 0.0077629909, 0.0097464724, 0.0175413806, 0.0430238098, 0.1043353975, 0.0530796200, -0.0243189167, -0.0298544466, 0.0156557839, -0.0129514374, -0.0226696525, -0.0949333906, 0.0968284979, -0.0080832336, -0.0065744463, -0.0754908547, 0.0401158519, -0.0682630911, -0.0509985648, 0.0585148744, 0.0196242463, 0.0330419466, -0.0278287455, 0.0551716052, -0.0566074587, -0.0531942621, -0.0363900624, -0.0471894071, 0.0837644562, -0.0450482257, -0.0170590319, 0.0389366783, 0.0975832790, 0.0288527645, 0.0050491998, 0.0931015909, 0.0056643570, -0.0110220322, -0.0195960607, -0.0261757076, -0.0133418292, -0.0324682966, -0.0350540020, -0.0261916574, 0.0681946352, 0.1120869815, 0.0648025423, 0.0264240876, 0.0130858161, -0.0266020801, 0.0200063027, -0.1191076636, -0.0419336669, 0.0465065725, -0.0655037239, 0.0085742734, 0.0461647883, -0.0046367105, -0.0622725636, -0.1564434916, -0.0036049839, 0.0590376221, 0.0203254633, 0.0536364615, -0.0861745477, 0.0156121925, 0.0182491038, 0.0526660420, 0.1592951268, -0.0500544384, 0.0352433361, -0.0428047962, 0.0055720229, -0.0381787568, -0.0637978092, -0.0141393077, -0.0307272486, -0.0036182199, 0.1133264005, -0.0669846162, -0.0117440531, 0.0315005668, -0.0566936135, -0.1194099635, 0.0926733389, 0.1619856954, 0.0005405578, 0.0613399558, 0.0409330614, -0.0684632212, 0.0013641135, 0.0030303099, 0.0226954259, -0.0441245697, -0.0508247949, 0.0328698345, -0.0838656500, 0.0065538464, -0.0232186913, -0.0130416648, 0.0591710806, 0.0313768201, -0.0429539084, -0.0253873318, -0.0535160899, -0.0056157224, -0.0434318036, -0.0187265798, -0.0389457941, 0.0350062251, 0.1001399755, -0.0368822068, 0.0215290319, 0.0088237794, -0.0437848568, 0.0240164436, -0.0001262223, 0.0484528691, -0.0431000963, -0.0478249714, -0.0563453212, -0.0538612902, 0.0174222235, -0.0538030155, 0.1289808601, 0.0368946195, 0.0024734465, -0.0011183866, -0.0059434646, 0.0205182340, -0.0479686148, 0.1689938754, 0.0725980699, -0.0100927539, 0.0512828268, -0.0519482009, -0.0390013233, -0.0582351275, -0.0172003452, -0.1143634692, -0.0676220283, 0.0724453628, -0.0318862945, -0.0204313081, -0.0223537982, -0.0157180727, 0.0008846010, 0.0412800759, -0.0471949875, -0.0100599341, -0.0230993666, 0.0164573602, 0.0016158342, 0.0161724724, 0.0428209454, -0.0291550253, 0.0401689112, -0.0300053339, 0.0341362543, 0.0095607704, 0.0362267941, -0.0550593361, -0.0309575927, -0.0341015793, 0.0107942987, -0.0179255530, -0.0214843787, -0.0022109521, 0.0284932833, -0.0209474750, 0.0538147762, -0.0066719446, 0.0173771791, 0.0071684881, 0.0598697886, 0.0283982269, -0.0333686657, -0.0694375336, -0.0419454686, -0.0342689119, 0.0521918200, -0.0264260601, -0.0662695616, 0.0153143266, -0.0625169650, -0.0523791276, -0.0399390981, -0.0776651129, 0.0366445594, -0.0131921563, -0.0310870931, -0.0553017408, 0.0516052730, -0.0494527444, -0.0463651828, -0.0358598307, -0.1060271487, 0.0401558727, -0.0154942945, 0.0120059280, -0.0784658641, 0.0339864120, 0.0327899419, -0.0451232456, -0.0533190109, 0.0144044347, 0.0182614811, 0.0118748825, 0.0052333036, -0.0097025223, -0.0107840886, 0.0006781830, 0.0840865374, 0.0441974215, -0.0040560211, 0.0452026688, -0.0386086591, 0.0182152595, -0.0052641458, -0.1180251017, -0.0420928076, -0.0479589999, -0.0482236296, -0.0170343481, 0.0541883521, 0.0273695681, 0.0113980845, -0.0857639685, 0.0529592186, -0.0080312937, 0.0192491747, 0.0329557993, 0.0202694982, 0.0088703083, -0.0081544137, -0.0432003550, 0.0531258881, 0.0316646099, 0.1004542559, 0.0422086157, 0.0044670259, 0.0531276576, -0.0445265695, 0.0189628955, -0.0042779166, 0.0919891223, 0.0026057102, 0.0671036541, -0.0362339355, -0.0092023481, -0.0029674976, -0.0067734206, 0.0235812757, -0.0319756716, -0.0505167134, 0.0309290960, 0.0425793529, -0.0474181361, -0.0536217354, 0.0258551762, 0.0467321351, -0.0442580469, -0.0621526875, -0.0304863825, -0.0320332497, -0.0426592790, -0.0169407036, -0.0560084991, 0.0461857133, -0.0678668991, -0.0039488729, -0.0522538088, -0.0236410275, -0.0224167164, 0.0202586874, -0.0281381570, 0.0413189977, 0.0526861660, -0.0066275750, 0.0414429568, -0.0512959249, -0.0564442426, -0.0301539693, 0.0336712860, -0.0172776598, -0.0126564335, -0.0402810313, 0.0171218980, -0.0166390166, -0.0329442881, -0.0395082943, -0.0566233657, -0.0397742093, 0.0154264430, 0.0011565523, 0.0482030921, -0.0278182905, 0.0192519929, 0.0516650565, 0.0110681821, 0.0396021530, 0.0178106576, 0.0765627772, -0.0510411747, -0.0473766290, -0.0288019031, -0.0454317667, -0.0794847757, 0.0008298111, 0.1152226403, -0.0746218190, 0.0441486686, 0.0389286764, -0.0398256667, -0.0478507206, -0.0563482158, -0.0398163646, 0.0531149432, -0.0151323657, 0.0480372310, 0.0164114777, -0.0504842773, -0.0572408438, 0.0920785144, 0.1610132307, -0.0618392006, 0.0416105203, -0.0609401576, -0.0069668912, 0.0122993765, 0.0087679438, -0.0170877371, -0.0446006395, 0.0159868579, -0.0366170667, 0.0014317848, -0.0406434126, -0.0289359037, -0.0625657812, -0.1543323398, 0.1080172434, 0.0166502763, 0.0248749498, 0.0441664010, -0.0250924267, 0.0118081477, -0.0316869803, 0.0968607739, 0.0321581773, -0.0392742902, -0.0525846593, 0.0428403020, -0.0492769033, 0.0067764907, 0.0032429595, 0.0955938399, 0.0358356461, 0.0469576567, -0.0600862578, -0.0335699581, -0.0101645635, -0.0540302694, 0.0188065767, 0.1126840785, 0.0700649321, 0.1194650307, 0.0260445308, -0.0169073008, -0.0050531062, -0.0211153086, -0.0337062776, -0.0761367455, -0.0531915873, 0.0293791145, -0.0203930028, -0.0205796827, -0.0512040555, -0.0207959730, -0.0214382727, -0.0081391055, 0.1405700594, -0.0594213381, 0.0086273821, 0.0071427487, -0.0934444144, 0.0011425726, 0.0546586029, 0.1551800668, 0.0388410538, -0.0016396344, 0.0515911914, -0.0381293073, 0.0333721638, -0.0111408308, -0.0209199823, 0.0119113950, 0.0406940132, 0.0047991327, 0.0412879959, -0.0224856120, 0.0377262570, -0.0546613447, -0.0069241826, -0.0166858844, 0.0007410467, 0.0568049550, 0.0548846088, 0.0664733574, -0.0499015041, -0.0696368665, -0.0554986298, 0.0223419126, 0.0056266626, -0.0075058327, -0.0172600579, -0.0282467473, 0.0546900444, -0.0016325953, 0.0245496985, -0.0900428668, 0.0251630805, -0.0161117446, -0.0036194101, 0.0270217191, -0.0492951199, 0.0262801759, -0.0042057484, 0.0052775554, -0.1200696826, -0.0078744534, 0.0422467627, 0.0279474091, 0.0005778121, -0.0308282115, -0.0429645032, 0.0059702378, 0.0433005244, 0.0009074922, 0.0131345438, 0.0178147331, -0.0575761013, 0.0472727120, -0.0791160241, -0.0202572718, 0.0349807516, -0.0296352468, -0.0275416803, -0.0037591925, 0.0660140142, -0.0375061631, 0.0322382785, -0.0621309839, -0.0376263149, 0.0112162624, -0.0056515103, -0.0588788912, -0.0462190956, -0.0499963649, -0.0165689588, 0.0595323220, -0.0152677093, -0.0446645543, 0.0041811247, -0.0466327332, -0.0090881046, -0.0285577290, 0.0243654680, -0.0149131026, 0.1157112867, 0.1073148847, -0.0314108990, 0.0917128548, -0.0452594310, 0.0687291399, -0.0282940101, -0.0120434323, 0.0104228221, 0.0159101821, 0.0180883147, -0.0150194848, 0.0668999404, -0.0620218739, 0.0033341828, -0.1202449724, 0.0103576668, -0.0347423777, 0.0157139637, -0.0465842858, -0.0501396656, 0.0253581945, -0.0183990095, -0.0592171066, 0.0843892917, 0.0389130786, 0.0776181221, -0.0212142374, 0.0056969253, -0.0245745648, 0.0311152209, 0.0158246327, 0.0550637320, 0.0561906174, -0.0378816277, -0.0018130132, 0.0319223925, 0.0100220228, -0.0260416269, -0.0664246157, 0.0200370476, -0.0235594343, 0.0107537713, -0.0423525460, 0.0862247944, -0.0611526519, 0.0007528224, -0.0234900042, 0.1277899891, 0.0320177004, -0.0559806228, 0.0118283462, 0.0139786536, 0.0043376721, 0.0398500226, -0.0796073228, -0.0184299964, 0.0946864933, -0.0422885977, 0.0043795407, 0.0143163316, -0.0631026626, -0.0461977683, -0.0749200732, 0.1355832815, -0.0273872837, -0.0483950078, 0.0530579202, -0.0443848036, -0.0638235137, -0.0620845705, -0.0519329980, 0.0809408873, -0.0061340178, 0.0300289206, -0.0710534602, -0.0400865339, -0.0341979116, 0.0241078585, -0.0769843608, 0.0852881074, -0.0101171117, 0.0211747903, -0.0414748378, -0.0321274996, 0.0200331956, -0.0200085994, -0.0442634672, 0.0325218812, -0.0242137108, 0.1024480015, -0.0553710610, 0.0378838852, 0.0215695612, 0.0144778034, -0.0241874661, -0.0343735479, 0.0851525441, -0.0529572293, -0.0099755647, 0.0023786167, -0.0283499546, 0.0234795716, -0.0529066212, -0.0990842357, 0.0515595339, 0.0155000081, -0.0413506292, -0.0683002993, 0.0123575414, -0.0263860915, 0.0292609204, 0.0996184573, 0.0490468517, -0.0455642566, 0.0273125377, -0.0196728446, -0.0072463225, -0.0437541492, -0.1596999615, 0.0095988028, 0.0426894426, -0.0350580253, -0.0152447699, -0.0296043251, -0.0718311369, -0.0642249808, -0.0293836631, 0.0907741636, -0.0049121883, -0.0509780087, 0.0814970210, 0.0224456545, -0.0104208449, -0.0621377043, -0.0079210103, 0.0085344147, 0.0093382401, 0.0527843311, -0.0327651612, 0.0139088910, -0.0038803536, 0.0153358933, 0.0321924053, 0.0835855827, 0.0560766198, -0.0279383939, 0.0339724682, 0.0386353023, 0.0193594061, -0.0536200553, 0.1123109758, -0.0005038977, 0.0965979248, 0.0389042050, 0.0276098289, -0.0097743580, -0.0060208044, -0.0292615034, -0.0207257029, -0.0981799439, 0.0408653766, 0.0232550632, 0.0741766393, -0.0384070612, 0.0870616809, -0.0075059626, -0.0434459895, 0.1390727162, 0.0044974666, 0.0009923882, 0.0174061619, -0.0681974143, -0.0241587162, 0.0288806651, 0.0748056918, 0.0188312270, -0.0042079617, -0.0338198841, -0.0503379889, -0.0351742581, -0.0174486842, -0.0052768192, -0.0249803141, -0.0655057058, 0.1112340763, -0.0317082442, 0.0404012650, 0.0211803075, -0.0483232178, 0.0464083143, -0.0339373611, -0.0501237474, 0.0318676643, 0.0202813186, -0.0144373588, 0.0130282929, -0.0231385734, 0.0015506037, -0.0843813643, 0.0857820809, -0.0566295907, -0.0192985944, -0.0023796069, 0.0152393328, 0.0430749804, 0.0331533551, -0.0156839322, -0.0776173547, 0.0420761332, 0.0001779087, -0.0252470300, 0.0222365391, 0.0512320288, -0.0497469530, -0.0102167409, -0.0700443387, -0.0015345803, 0.0582079925, -0.0480470955, 0.0400772318, -0.0608677194, 0.0163406469, -0.0301466994, -0.0104259932, 0.0431796834, 0.0252051242, 0.0556490608, -0.0034221343, -0.0177351069, -0.0555635840, 0.0192764048, 0.0138839101, 0.0252476316, -0.0023401668, -0.0194028281, 0.0144781508, -0.0042201555, 0.0068119867, -0.0076621240, -0.0345941186, -0.0599738546, -0.0484781265, -0.0584661737, -0.0003561748, -0.0219281930, -0.0591879040, 0.0314308181, -0.0520831421, -0.0217332412, 0.0568837151, -0.0631461740, -0.0350260809, 0.0536525510, 0.0325522497, 0.0533350147, 0.0724746436, 0.0674610883, -0.0614732169, 0.1061414704, -0.0586430468, -0.0082535716, 0.0287793297, -0.0316491760, -0.0370946005, -0.0221068785, -0.0434940979, 0.0106785018, -0.0452853329, -0.0165855195, 0.0438546427, -0.0732489824, -0.0107627790, 0.0001013384, -0.0487239957, 0.0233324878, 0.0201113857, 0.0535314530, 0.0469148681, -0.0975408107, 0.0545183346, 0.0700300857, 0.0856221393, 0.0354167223, -0.0484110154, -0.0324516557, 0.0081153857, 0.1028672010, 0.0631986856, -0.0044708690, -0.0737717152, 0.0322570242, -0.0482864827, -0.0290326625, 0.0297145862, -0.1188633218, -0.0469576158, -0.0631891191, 0.0001778343, 0.0474718399, -0.0287754461, 0.0055024573, -0.0379851796, -0.0609608516, 0.0354867466, 0.0484205671, -0.0544200167, -0.0320007168, -0.0666477457, -0.0074728141, -0.0307144262, 0.0517331660, 0.0549455099, 0.0653559044, 0.0053942511, -0.0345791578, -0.0203883070, 0.0191303324, 0.0171161816, -0.1135736033, -0.0052271034, 0.0061441930, 0.0163486116, 0.0622963794, -0.0359318964, -0.0581130460, -0.0132213449, -0.0306999013, 0.0804415569, 0.0043241074, 0.0054765297, -0.0457331799, -0.0514740199, 0.0498820618, -0.0610897839, -0.0282960515, 0.0424565151, -0.0370577276, -0.0617562830, 0.0204838626, -0.0377358533, 0.0125732124, -0.0149260061, -0.0587274320, -0.0120344805, -0.0833565593, 0.0385671891, -0.0205702409, -0.0053381878, 0.0000503446, -0.0608383827, 0.0465435162, 0.0286543127, 0.0287081990, -0.0228078868, 0.0323357470, 0.0285706930, -0.0366024338, -0.0757346004, 0.0605490766, -0.0319585279, 0.0436982363, 0.0136151668, -0.0447984412, -0.0901990309, 0.0550897643, -0.0581633076, 0.0251300484, 0.1051914915, -0.0468370095, 0.0194820873, 0.0220360048, 0.0251825582, -0.0664276108, 0.0361343250, -0.0590222552, -0.0795284808, -0.0509916544, -0.0202258974, 0.0139052533, -0.0589184538, 0.0346829481, -0.0480575152, 0.0168670677, 0.0006533348, -0.0062501128, 0.0096245017, 0.0791955888, -0.0262641255, -0.0544394627, -0.0143259522, -0.0456463881, -0.0068003815, -0.0318430588, -0.0547042862, -0.0159991179, 0.0470472276, -0.0492448322, -0.0206523258, 0.0546428487, 0.0371226072, -0.0498205423, -0.0100074746, -0.0802179500, 0.0262357853, -0.0115592629, -0.0529773012, 0.0828363299, 0.0604049265, 0.0959562585, 0.0028252979, 0.0420643725, -0.0146869477, -0.0201967563, 0.0241119117, -0.0658100396, -0.0651065558, 0.0083051361, -0.0442247167, -0.0073706848, 0.0227862261, 0.0477590002, 0.0307390634, 0.0561793596, 0.0905812979, 0.0353962593, -0.0309449807, 0.0401530825, -0.1792852730, 0.0561134741, 0.0044312007, 0.1322596818, 0.0795000419, -0.0091209030, 0.0400353782, 0.0316831060, -0.0069502061, -0.0127399489, -0.0253624432, 0.0394831076, -0.0636206046, 0.0186410099, -0.0394106880, 0.0042914441, -0.0574916899, 0.0546165854, 0.0174165200, -0.0624872334, -0.0010221786, -0.0226536486, -0.0056914836, 0.0637275800, 0.0017323210, -0.0249109212, -0.0210357308, 0.0540086925, 0.0908027515, 0.0185086783, 0.0057343133, 0.0157532468, 0.0531256087, -0.0113518052, 0.0119274752, -0.0064619654, 0.0413370915, -0.0610928759, -0.0461209379, 0.0186235011, -0.0745885894, -0.0284079760, -0.0209826604, 0.0402777269, -0.0578290485, 0.0491722971, 0.0676833689, -0.0461571924, -0.0334430337, -0.0349599160, 0.0508400947, 0.0222935546, -0.0087390924, 0.0627224296, 0.0040928186, -0.0648331419, 0.0175786465, -0.0257951617, -0.0491605476, 0.0336816572, -0.0229621399, 0.0247693062, -0.0736467242, 0.0374122486, 0.0478095561, 0.0107085593, 0.0400533527, -0.1097374409, -0.0698179603, 0.0219761766, 0.0114518031, 0.0294985604, 0.0088342875, -0.0156502277, 0.0506059788, -0.0104037635, 0.0337660499, 0.0551719554, 0.1098500788, -0.0603880920, -0.0454961956, -0.0608393736, -0.0013762582, -0.0145877013, 0.0030621453, 0.0720510036, -0.0576716065, 0.0568034425, 0.0252832118, 0.0116271945, -0.0290342402, -0.0786685422, 0.0439976640, 0.0350269154, -0.0587264895, 0.0033795030, -0.0031431806, -0.0544018745, -0.0602408834, 0.0843266174, 0.0552643500, -0.0542551540, -0.0361170471, 0.0344291143, 0.0276358947, -0.0485320203, -0.0453756787, -0.1313745379, 0.0634290278, 0.0795893222, 0.0295514408, 0.0043548490, 0.0408620276, 0.0166436005, 0.0450763963, -0.0115338676, 0.0129878595, 0.0787373260, 0.0079611288, -0.0256891567, 0.0572229512, 0.0732322559, -0.0511675477, -0.0552975275, 0.0223746691, -0.0134283584, 0.0135167390, 0.0156176165, 0.0014377444, 0.0348445885, -0.0106339054, -0.0120587023, -0.0083429869, -0.0627119243, -0.0253158696, 0.0071056541, 0.0412536785, -0.0160505138, 0.0286683906, -0.0635593310, 0.0863218978, 0.0952508748, 0.0552894212, -0.0094851004, -0.0173871070, 0.0303981770, -0.0480698757, -0.0435100049, -0.0009961597, -0.0332199223, 0.0128051378, 0.0054105273, 0.0550743751, -0.0457905643, 0.0477050208, -0.0617414415, 0.0951411501, -0.0614052005, -0.0525067486, -0.0412565619, 0.0319381170, 0.0480583124, 0.0540484115, 0.0547394939, -0.0013574967, -0.0228603650, 0.0380600616, -0.0435090922, -0.0271540098, -0.0103488863, -0.0457613170, -0.1351507604, -0.0181831159, -0.0070661148, 0.1654196233, 0.0366635956, 0.0159131922, -0.0482710078, 0.0252425801, 0.0072734589, -0.0398538597, 0.0454634875, -0.0117396954, 0.0688732117, 0.0576293468, 0.0180221088, -0.0662958845, -0.0138624972, -0.0780838728, -0.0541904010, 0.0306708198, -0.0273296479, -0.0673461556, -0.0261184424, -0.0481284000, 0.0325628035, 0.0219311193, 0.0224648342, 0.0391205214, -0.0637787133, -0.0316585749, -0.0218705237, 0.0025010961, -0.0173120946, 0.0010991886, -0.0345544517, 0.0319186226, -0.0606357120, 0.0069909208, -0.0313794166, 0.0105694290, -0.0511431582, -0.0088414187, -0.1050696522, -0.0388406962, 0.1423483640, 0.0010259560, -0.0027077056, -0.0748382807, -0.0511821732, 0.0642421842, -0.0007883538, -0.0564720482, -0.0178053882, 0.0799855664, 0.0061799707, 0.0305095017, -0.0339949131, 0.1024495810, 0.0360692926, 0.0193008892, 0.0279666726, -0.0585762337, -0.0165230744, 0.0217467993, 0.0515928492, -0.0153879309, 0.0623160116, -0.0493853055, -0.0015538497, -0.0477983654, -0.0206561983, 0.0062873904, -0.0972314924, -0.0242421571, 0.0597352833, 0.0282127932, 0.0362874158, -0.0210142042, 0.0011611016, -0.0445037968, -0.0010313689, 0.1097899526, -0.0065880078, -0.0418899208, 0.0248744246, -0.1480678767, 0.0020693396, -0.0535605364, 0.1136862710, 0.0120547535, -0.0374388099, 0.0507980399, -0.0183455292, -0.0290374383, -0.0468069613, -0.0062206732, 0.0106792524, 0.0583645664, 0.0944143310, 0.0316525958, -0.0368673317, 0.0524749607, -0.0494615473, -0.0522323065, -0.0625555441, -0.0211727824, 0.0045778928, -0.0578396395, 0.0184560809, 0.0277685821, 0.0160641354, -0.0561682098, -0.0239280257, 0.0277127530, -0.0192669705, -0.0348084159, -0.0214951187, -0.0078873029, -0.0635856092, 0.0157793723, 0.1029287130, 0.0125361979, -0.0419878587, 0.0313168913, -0.0301768836, -0.0224449262, 0.0204012431, -0.0160094015, -0.0252341069, -0.0941593871, 0.0987241641, 0.0255359802, -0.0277709644, 0.0403695852, -0.0350843705, 0.0512917042, 0.0011018622, 0.0774734989, 0.0574519187, 0.0019262470, 0.0005631020, 0.0226495042, 0.0635118335, -0.0567100011, -0.0643429756, 0.0066464455, -0.0588131249, 0.0295146685, 0.0398914889, -0.0291627403, 0.0341707207, 0.0220273007, -0.0192266274, -0.0950965211, 0.0183025450, -0.0344908275, 0.0472401753, -0.0678039640, 0.0233068094, -0.0489489622, 0.0366697125, 0.0895814449, 0.0046049180, 0.0369527154, -0.0463856310, -0.0525779650, 0.0324933939, 0.0434001200, 0.0406182632, -0.0597204417, 0.0031095888, -0.0021117097, 0.0822774917, 0.0491557717, 0.0601466596, -0.0459046140, -0.0645507127, -0.0450729355, 0.0380028076, -0.0360732488, -0.0635152683, 0.0799623802, 0.0437628701, -0.0037640342, 0.0967904478, 0.0718749166, -0.0398423709, 0.0588009991, -0.0376005173, -0.0759673491, -0.0067134472, -0.0276046842, -0.0093470244, -0.0170150399, 0.0249815565, 0.0704352185, -0.0102823591, 0.0331694260, -0.0323560014, -0.0355746858, 0.0041701715, 0.0972295627, 0.0067219473, -0.0336381122, 0.0118199615, -0.0292674452, 0.0678935945, -0.0437058099, -0.0074854554, -0.0713134333, 0.0463688783, -0.0371995270, -0.0350535326, 0.0009526965, -0.0058479551, -0.0144950654, 0.0338589959, -0.0307017416, -0.0388959944, 0.0186860655, -0.0602507107, -0.0169075616, -0.0069490839, 0.0228301026, -0.0315997936, 0.0041076057, 0.0595665574, -0.0110665411, -0.0141125107, -0.0355333388, -0.0069007529, 0.0245066918, 0.0364539288, 0.1077155545, -0.0238102358, -0.0019364639, 0.0219855681, 0.0473137759, -0.0106992694, -0.0554302409, 0.0164092332, 0.0683276877, -0.0569200255, -0.0658142716, -0.0133133288, -0.0119164418, -0.0466507971, -0.0209791511, 0.1066729054, 0.0194421094, 0.0468960293, -0.0447705351, -0.0277042575, -0.0540367886, 0.0323324576, -0.0576408952, -0.0371407419, 0.0105377026, 0.0031497267, 0.0782975033, -0.0268225204, 0.0474217311, -0.0464609824, 0.0300774053, 0.0624315664, -0.0831683576, -0.0742441416, -0.0494223125, 0.0686116591, 0.0081519932, -0.0271960143, -0.0745312795, -0.0179831833, -0.0249559190, -0.0109980451, 0.0004409049, 0.0292945057, -0.0360839739, -0.0274272859, 0.0283029638, 0.1756814569, 0.1105757505, 0.0316228792, -0.0254421867, -0.0519884154, -0.0253709406, -0.0432142504, 0.0071032862, -0.0891816393, 0.0235688016, 0.0737851709, -0.0558042563, -0.0282541029, -0.0309732221, -0.0562208593, -0.0560111403, -0.0658430308, -0.0374091156, 0.0470427275, 0.0451833010, 0.0644739494, 0.0074231834, -0.0600983649, 0.0420868322, -0.1146935672, 0.1113803536, 0.0437710769, -0.0526402667, -0.0658491030, 0.1266480237, -0.0223875977, -0.0523363911, 0.0223755483, 0.0600305237, 0.0081118820, -0.0238697119, 0.0503266305, 0.0108838836, -0.0254362598, -0.0092411237, -0.0048749633, 0.0705213472, 0.0847574845, -0.0233263765, -0.0120201306, -0.0578917898, 0.0132233147, 0.0057663093, -0.1606835276, -0.0777363926, 0.0164248981, -0.0221990738, -0.0298403483, -0.0550282598, -0.0393537208, -0.0609024204, 0.0061558015, 0.0866186395, -0.0443783849, -0.0030726795, 0.0040384717, -0.0881111696, 0.0496501513, 0.0516969524, 0.0810120106, -0.0105751948, -0.0393877849, 0.0167926960, -0.0746288970, -0.0416253358, 0.0509841926, -0.0263002776, 0.0827442855, 0.0368128195, 0.0551178865, 0.0361292623, 0.0004570369, -0.0273873080, 0.0345978774, 0.0011941261, -0.0508791059, 0.0382113978, -0.0033032778, 0.0490239821, -0.0789358839, -0.0450063758, 0.0368064232, -0.0553941950, -0.0254853517, 0.1352920234, 0.0593345650, -0.0298493318, -0.0383360162, 0.0963420793, -0.0223955698, -0.0611860976, 0.1287458241, -0.0206708312, 0.0359026790, 0.0359098203, -0.0306692831, -0.0463417247, 0.0489500500, -0.0054208413, -0.0165470857, 0.0213068593, 0.1316882521, 0.0620014109, 0.0198886581, -0.0638838857, -0.0081611890, 0.0203433782, -0.0738844424, 0.0452810936, -0.0296546668, -0.0510750860, 0.0475297645, 0.0305564944, 0.0744456500, 0.0518987104, -0.0124810589, 0.0702238083, 0.0549745262, -0.0579336695, -0.0106951436, -0.0443494916, 0.0489798635, -0.0363451801, -0.0123293614, -0.0414189771, -0.0517489947, -0.0633818284, 0.0236993507, -0.0754065588, 0.0535006709, 0.0520809181, 0.0699109957, -0.0330298096, -0.0530677326, 0.0762535334, -0.0476058424, -0.0546589270, -0.0331861228, -0.0072737201, -0.0016241701, 0.0392633975, 0.0606573708, -0.0327258706, 0.0964757800, 0.0552103855, -0.0310695674, 0.0420064218, -0.0708149001, 0.0721422657, 0.0319832899, -0.0406325236, -0.0337177850, -0.0228559952, 0.0336012319, -0.0048502516, 0.1073861644, 0.0176402517, 0.0342102423, 0.0531475060, 0.0469165780, -0.0460025854, 0.0064426623, -0.0500918999, -0.0545346662, 0.0285763685, -0.0007979925, 0.0781495646, -0.0111168362, -0.0179915521, -0.0367189907, -0.0097309267, -0.1041837856, -0.0347041152, 0.1017271057, -0.0597028807, 0.0236951429, -0.0131629230, -0.0083154123, 0.0494956672, -0.0924261585, -0.0036224714, -0.0288152397, -0.0639669672, -0.0627133697, -0.0983813182, 0.0369465090, -0.0414384343, 0.1110807285, 0.0540286042, -0.0383051075, -0.0055854423, -0.0354446098, -0.0259276684, -0.0356689095, -0.0090574827, 0.0238357857, 0.0678316504, 0.0033763307, 0.0562301576, 0.0533659831, 0.0245439932, -0.0418063365, -0.0059347856, 0.0162641089, 0.0478012897, -0.0745581537, 0.0268530454, 0.0143038854, -0.0390184373, -0.0379894152, 0.0154970698, 0.0032922544, 0.0663502812, -0.0404709838, -0.0429407731, -0.0686264634, -0.0627476797, 0.0385654904, -0.0202442780, -0.0061534066, 0.0514817126, -0.0645454079, -0.0215604007, -0.0042214273, -0.0361547731, 0.0252229050, -0.0553396940, -0.0735888109, -0.0156060131, -0.0009313585, 0.0515503287, 0.0029400357, 0.0213275142, -0.0297436882, 0.0031432756, 0.0191085245, -0.0053682537, -0.0526589192, -0.0063851038, 0.0371159986, -0.0527550764, 0.0134638706, -0.0507495143, -0.0338499025, -0.0440692566, -0.0200720523, -0.0077949972, 0.0444192551, -0.0281598531, -0.0168474112, 0.0268272795, -0.0066020861, 0.0907809213, -0.0249619093, 0.0199823789, 0.0006965123, -0.0003189250, 0.0411088280, -0.0167270992, -0.1081982106, 0.0654717758, 0.1282369196, 0.0391503274, -0.0433494858, 0.0488114767, -0.0183231402, -0.0762942284, -0.1503796130, -0.0803902671, -0.0056589292, -0.0581968017, 0.0259527992, -0.0086465497, 0.0372698978, 0.0279231165, -0.0873049721, 0.1715281755, -0.0367341675, 0.0442352407, -0.0352569595, 0.0230295155, -0.0396880992, -0.0209375210, -0.0067015588, 0.0627804101, -0.0309425108, 0.0472834222, 0.0435992628, 0.0315579027, 0.0154221542, 0.0347970165, 0.0311884917, -0.1005819216, 0.1189749166, 0.0272535440, -0.0708611459, -0.0542568490, -0.0301101021, 0.0380095616, -0.0586410947, -0.1013180912, 0.0192678273, -0.0683998689, -0.0053667906, -0.0403719619, 0.0417839251, -0.0130359847, -0.0147081818, 0.1009275615, -0.0070543806, 0.0688064843, 0.0142305205, -0.0705010667, -0.0502988882, -0.0417715833, 0.0937310010, 0.0664133728, -0.0449848883, -0.0322390869, 0.0026896547, 0.0504786558, -0.0314298384, -0.0077745174, 0.0853545889, -0.0652848408, 0.0565757416, 0.0719898418, -0.0446297713, -0.0603290573, -0.0151667735, -0.0542917699, 0.0022301385, 0.0302279573, 0.0299259704, 0.0440376587, -0.0403064564, -0.0598391332, 0.0009136747, -0.0186939351, -0.0338959023, -0.0036391749, 0.0184187163, -0.0005087205, 0.0405457914, -0.0356873944, 0.0359809585, -0.0051573813, 0.0516418777, -0.0357132591, -0.0340672210, -0.0032719257, -0.0325966738, -0.0641047880, -0.0144541226, 0.0339184441, -0.0634294003, -0.0167921521, 0.1212188676, 0.0465066098, 0.0097748321, -0.0391046517, -0.0252725333, -0.0447926186, -0.0795231014, -0.0240336265, -0.0417594165, -0.0091228858, 0.0273741391, 0.0415970050, 0.0231321137, -0.0495531186, 0.0210301876, 0.1203426421, -0.0240477007, -0.0433215089, 0.0171298999, 0.0272603929, -0.0252506956, 0.0085098781, -0.0686536431, 0.0100534316, 0.0050110514, -0.0167193711, -0.0168719050, -0.0195787493, -0.0473848507, -0.0336308852, 0.0715002045, -0.0591479540, -0.0337672532, -0.0012032782, -0.0698478073, 0.0098302420, 0.0287974812, 0.0297618788, 0.0891166776, -0.0362673551, 0.0411733054, 0.0201054402, 0.1155291870, -0.0175253227, 0.0144955525, -0.0490146987, -0.0182832312, 0.1083150133, -0.0324732251, -0.0553440638, -0.0088357981, 0.0931182876, -0.0545376763, -0.0413940065, 0.0766896233, 0.0964234024, 0.0242490768, -0.0159523152, -0.0494959466, 0.0394158028, -0.0314614363, 0.0059436001, -0.0200722069, -0.0335519314, 0.0284341760, 0.0988130346, -0.0144061055, 0.0267806426, 0.0398519002, -0.0426795445, -0.0526296012, -0.0458089486, 0.0455651805, -0.0254872162, 0.0477485992, -0.0321904980, -0.0728573278, -0.0548026599, -0.0295890346, 0.0504287072, 0.0264085028, -0.0434138887, -0.0084053008, 0.0213774703, 0.0058945273, -0.0543216690, 0.0559750758, -0.0296701305, 0.0197571069, -0.0087567931, 0.0246862955, -0.0276253391, -0.0534312539, -0.0211385153, 0.0156801082, -0.0163186118, -0.0135913054, 0.0500975884, -0.0592635944, 0.0318221599, 0.0063894144, 0.0187216569, -0.0264491029, 0.0325900428, 0.0034761624, -0.0128599247, 0.0715353787, -0.0239365026, 0.0225088615, 0.0576931424, -0.0376836248, 0.1263238937, 0.0539188832, -0.0046264958, 0.0543969125, -0.0747404918, -0.0115282992, 0.0270795934, 0.0665630773, -0.0451440848, -0.0531420335, -0.0475160815, -0.0588036850, -0.0033436555, 0.0430059060, -0.0235673003, 0.0170539189, -0.0846983492, 0.0155721586, 0.0078175673, -0.0582212619, -0.0640624911, -0.0303241219, 0.0056758123, 0.0496754125, -0.0253950860, -0.0053142514, 0.0201734044, 0.0258368980, 0.0543325357, -0.0321236216, -0.0026498768, -0.0539145879, 0.0335149989, -0.0456258804, -0.0322729759, 0.0323910937, -0.1029281616, -0.0258194190, 0.0480693914, -0.0134170270, 0.0981317684, 0.0133570656, -0.0449330956, 0.0123961000, -0.0149531616, -0.0172994230, -0.0378516838, 0.0361505747, 0.1124656200, 0.1337927431, -0.0022376645, 0.0051975707, -0.0076598525, -0.0405396596, -0.0115284584, -0.0280152280, -0.1023307443, -0.1287518144, -0.0687046722, 0.0868577361, -0.0188747775, 0.0118713938, 0.0078356396, -0.0795129240, 0.1040149182, 0.0074327192, 0.0426848307, 0.0352569111, 0.0280238800, -0.0277281292, 0.0307773240, -0.1312373579, 0.0640444383, -0.0315213762, -0.0422026291, 0.0286591668, 0.0294870976, 0.0347938128, -0.0143961990, 0.1697532833, -0.0606252886, 0.1681839526, 0.0258409120, -0.0419640429, 0.0576584972, -0.0316846184, 0.0332020782, -0.0110747963, -0.1068373546, -0.1031471416, -0.0034098628, 0.0746191442, 0.0403077155, -0.0428844988, -0.0265432391, -0.0698342621, 0.0829115808, -0.0687775686, 0.0518855825, -0.0722442493, -0.1009618193, 0.0261696391, 0.0130485864, 0.0358679593, 0.0323673002, 0.0535783209, 0.0486709811, 0.0284719095, -0.0200259779, -0.0642018989, 0.0265185200, 0.0878401175, 0.0124582266, 0.0619077496, 0.0165314246, -0.0488815010, 0.0075152498, 0.0236768164, 0.0264535565, -0.0414177515, 0.0094698174, -0.0420125760, 0.0570161231, -0.0495269597, 0.0576873496, 0.0202250239, 0.0106825121, -0.0167953093, 0.0835210234, 0.0367510207, -0.0231223274, -0.0011567689, 0.0124192266, 0.0056373468, -0.0246333983, 0.1020407379, -0.0085011553, 0.0135753043, 0.0325707197, -0.0579155311, 0.0026702357, -0.0256296508, 0.0076273791, 0.0668112636, -0.0182445701, 0.1154993027, 0.0241499934, -0.0428174026, -0.0081743272, -0.0661672801, -0.0088504972, -0.0143121621, 0.0664243549, 0.0179482810, -0.0382432267, -0.0235555451, 0.0037648124, 0.0285801422, -0.0215158686, 0.0498563237, 0.0902213678, 0.0111779496, -0.0414274223, -0.0002623531, -0.0146258799, 0.0203501508, -0.0307366978, -0.0016451362, 0.0183057711, 0.0311747100, -0.0381703936, -0.0351601988, -0.0571739115, -0.0419976301, -0.0110684335, 0.0836503059, 0.0037520158, 0.0303463638, 0.0305949189, -0.0170272402, 0.0158090107, 0.0403376706, 0.0537866652, 0.0049968963, -0.0351103619, 0.0583421849, -0.0580047220, 0.0179746151, 0.0057363142, 0.0259451773, 0.0472939573, 0.0110503873, 0.0573114939, -0.0302535072, 0.0163645856, -0.0564164445, 0.0475584231, -0.0381812155, 0.0338366590, -0.0348835252, 0.0638818070, -0.0227002911, 0.0526631735, -0.0673711747, -0.0055158464, -0.0524538122, 0.0443874933, 0.0224823821, -0.0153660458, 0.0381388254, 0.0185903814, -0.0464719944, 0.0133737549, 0.0337957554, -0.0551620275, -0.0374959148, 0.0411498509, 0.0005097863, 0.0341604166, 0.0853713751, -0.0394564532, -0.0525328033, 0.0086416341, 0.0435712710, -0.0381967016, 0.0019906105, -0.0262543894, -0.0085778516, 0.0183306076, -0.0025303457, 0.0189659186, 0.0194658116, -0.0696084723, 0.0260721762, 0.0413376801, -0.0671106875, -0.0419405364, -0.0193711370, 0.0009285510, 0.0107114082, 0.0098371124, -0.0265254453, -0.0134021686, 0.0516588576, 0.0129737323, 0.0078187231, 0.0431825519, -0.0090715904, -0.0298120715, 0.0516823679, -0.0566068962, 0.0758085996, -0.0625693873, -0.0407526940, -0.0523964465, -0.0401023999, 0.1011209637, -0.0489249974, 0.0423892513, 0.0046629296, -0.0971553326, 0.0151376808, 0.0107237538, 0.0424839817, 0.0226965398, -0.0276567452, -0.0146966036, 0.0270476509, -0.0073240041, 0.0162847135, 0.0413891412, -0.0301838797, -0.1143695489, -0.0389355347, -0.0131988935, -0.0230212789, -0.0268738568, 0.0396722108, 0.0425191708, 0.0216714852, -0.0237394813, 0.0638730898, 0.0156478658, 0.0686370879, -0.0449284986, -0.0530490801, -0.0733764917, -0.0763612390, -0.0519650243, -0.0398359112, -0.0579674542, 0.0619100481, -0.0031496934, -0.0455342159, -0.0282129571, 0.0132383583, 0.0547127686, -0.0371348821, -0.0080779865, 0.0102804210, -0.0335328169, 0.0009358296, -0.0155075379, 0.0460108928, 0.0177633613, -0.0486332625, -0.1024440527, 0.0284248181, 0.0131492438, 0.0012283021, -0.0412373394, 0.0752939805, 0.0360814631, 0.0085428869, 0.0103306202, 0.1469625086, 0.0099248989, -0.0178228263, -0.0028937017, -0.1504249424, 0.0786712319, 0.0137298955, -0.0305609778, 0.0179995112, 0.0259113852, 0.0641349405, -0.0190467443, -0.1365804672, 0.0613580570, -0.0459220186, 0.0005445246, 0.0093023395, 0.0453606434, -0.0437643155, 0.0059119398, 0.0580895618, -0.0355448276, 0.0450777337, 0.0198896565, -0.0421411283, 0.0014864765, -0.0438478589, 0.0444824286, 0.0583120920, 0.0677190274, -0.0489215776, -0.0202918667, 0.1233739033, -0.0119038764, 0.0372474715, -0.0091010993, -0.1523332745, 0.0312271658, -0.0291453581, -0.0392626785, -0.0150864637, -0.0995945111, 0.0116543807, 0.0424245261, 0.0652604774, -0.0202881247, -0.0139272809, 0.0506669618, -0.0633662269, -0.0352778025, 0.0221598726, 0.0478432141, 0.1086085290, -0.0414296575, 0.0422747657, 0.0053872704, 0.0155584225, 0.0380919129, 0.0538362674, -0.0459882803, -0.0065107471, 0.0063315351, -0.0265417323, -0.0324934795, 0.0158144291, 0.0048927693, -0.0156165482, 0.0110168271, 0.0369051509, 0.1161681712, -0.0294111688, -0.0254894029, 0.0351955034, 0.0044813552, 0.0023078592, 0.0104041351, 0.0704673380, 0.0409146026, 0.0346332192, -0.0492952839, -0.0595084280, -0.0393776074, -0.0574364290, 0.0171235763, 0.0352312624, -0.0591733344, 0.0772003904, 0.0080001131, -0.0628279597, -0.0457029678, -0.0555740818, -0.0438479520, 0.0085828928, 0.0314332657, 0.0450829491, 0.0222457163, -0.0642184317, -0.0517902970, 0.0781353787, -0.0070582852, 0.0425925329, 0.0715973228, 0.0213087779, 0.0309986398, 0.0021796289, -0.0360898785, 0.0126673644, 0.0294585079, 0.0119488807, 0.0300776474, -0.0277651027, 0.0427742638, -0.0252236463, -0.0483175926, -0.0495515764, 0.0339591689, 0.0680014417, -0.0232348107, -0.0261099599, 0.0552503392, 0.0419520065, -0.0404946283, -0.0167525467, 0.0419130959, -0.0065269349, -0.0377871245, 0.1351283789, 0.0181070101, 0.0921461731, 0.0627584308, -0.0652312338, 0.0063608252, -0.0534871630, 0.0650517642, -0.0613111667, 0.0384305455, -0.0270955376, 0.0786730871, 0.0205893330, -0.0382836983, 0.0497371294, 0.0399166197, 0.0218491312, 0.0292571150, -0.0151101490, -0.0315022767, -0.0369251035, -0.0259872675, 0.0044424101, 0.0092439307, 0.0206300691, -0.0254138391, -0.0369385481, -0.0437717885, 0.0028683345, 0.0378585085, 0.0465270504, -0.0058379439, 0.0202990696, 0.0121972458, 0.0381092243, -0.0277022328, -0.0299863219, 0.0555050410, -0.0396656357, 0.0691514015, 0.0562302619, -0.0790842474, -0.0438723564, -0.0296477377, 0.0462857224, 0.0056796423, -0.0245045964, 0.0301641673, 0.0490429811, -0.0613581948, -0.0105805704, -0.0327705480, -0.0080972128, -0.0054811686, 0.0083953170, 0.0426148437, -0.0106307920, -0.0099213617, 0.0548615232, -0.0031830100, -0.0476376787, -0.0492058583, -0.0069028731, -0.0532569997, 0.0652364343, -0.0049233222, 0.0882156566, 0.0052918461, 0.0421483032, 0.0215983577, -0.0433362015, 0.0491109155, -0.0509441309, 0.0127023505, -0.0400561579, 0.0436355770, 0.0138874343, 0.0212371480, -0.0251140520, -0.0467335880, -0.0279736947, 0.0180550255, -0.0517713130, 0.0582773909, -0.0375202484, 0.0141524710, -0.0316180438, -0.0399111137, 0.0518322624, 0.0418549888, -0.0674506351, 0.0047791190, -0.0529841334, 0.0402427465, 0.1001916677, -0.0424330123, 0.1017388180, 0.0364807434, 0.1242287830, 0.0411348455, -0.0976041630, 0.0191745460, -0.0503735505, -0.0838222504, -0.0581814609, -0.0327407271, 0.0211834591, -0.0713183656, -0.0300522000, 0.0517242812, -0.0832977444, -0.0414159633, 0.0487919822, 0.0589562841, 0.0479615405, -0.0006308378, 0.0543436110, -0.0545441061, 0.0869369134, 0.0281655602, 0.0267414115, -0.0365293287, -0.0418960452, -0.0215052105, -0.0199053250, -0.0499810204, 0.0871517286, 0.0063619055, -0.0172599666, -0.0083469423, -0.0238752048, 0.0468738526, -0.0209634844, -0.0052440902, -0.0915024728, -0.0811534375, 0.0392754003, -0.0661893636, 0.0271802265, -0.0616292879, 0.0142404400, -0.0602413751, -0.0087683117, 0.0716436505, 0.0072038448, 0.0186693482, -0.0265905987, -0.0484974347, 0.0279853903, 0.0193832591, 0.0815696865, 0.0154376291, 0.0416342691, 0.1003631204, -0.0359662659, 0.0031645559, 0.0177513007, 0.0090333652, 0.0908648297, 0.0643890947, -0.0466277488, 0.0361491479, 0.1816376448, -0.0349250846, 0.0469037481, -0.0476744734, -0.1589483619, -0.0975855142, -0.0317344815, -0.0153531926, -0.0735008568, -0.0833421722, 0.0211929120, -0.0253369845, 0.1077968627, -0.0385860614, 0.0318664201, -0.0319143645, 0.0253691524, -0.0444328599, -0.0153783932, -0.0147083877, 0.0255779754, 0.0069112494, 0.0073638479, -0.0697066635, 0.0272775907, 0.0250058603, 0.0256214738, 0.0155306915, 0.0031521523, 0.0492711477, -0.0073627732, 0.0053477250, 0.0239540953, 0.0310258586, -0.0004383775, 0.0233528949, 0.0414643921, 0.1638893783, -0.0310655907, -0.0558342338, 0.0321177542, 0.1070404500, 0.0065708696, -0.0599385798, -0.0461357906, 0.0588521138, -0.0525449477, -0.0548394769, 0.0450633429, -0.0370759554, -0.0250654146, 0.0023963861, 0.0074274652, 0.0393312387, -0.0007325541, 0.0280826073, 0.0389928855, -0.0464615598, 0.0011239543, 0.0247595478, -0.0388217233, 0.0009857415, -0.0211087167, -0.0461005867, -0.0699351355, -0.0558261424, 0.0436346643, -0.0129749589, 0.0923460200, 0.1116300747, -0.0047472017, 0.0294142328, 0.0241480432, -0.0176580362, -0.0289569180, -0.0448347777, -0.0005844024, 0.0199163053, -0.0611765981, 0.0045861918, -0.0522703268, -0.0363810100, -0.0143982284, -0.0303010251, -0.0107624158, 0.0111626713, 0.0398157910, 0.0327111334, -0.0562060997, -0.0538559742, 0.0218888614, -0.0240551550, -0.0449991152, -0.0732518956, 0.0725460276, -0.0262212735, 0.0229874346, -0.0232690722, -0.0285498556, -0.0603336729, -0.0861526728, 0.0458439365, 0.0238471813, 0.0302118938, -0.0174242426, 0.0401654541, -0.0055073965, -0.0473229513, 0.0740749538, -0.0169952754, -0.0478709526, 0.0016743951, -0.0272216182, -0.0466743521, 0.0337077491, 0.0070408545, -0.0064359102, 0.0397768728, -0.0336149707, 0.0890867263, -0.0656788796, 0.0391379967, -0.0176566150, -0.0521209016, 0.0315545052, 0.0405571833, 0.0638961866, -0.0434055217, 0.0349282213, -0.0099002225, 0.0348383784, 0.0234543122, 0.1066244692, -0.0430561453, -0.0508060195, -0.0051453770, 0.0418882817, 0.0226277113, -0.0445116423, 0.0087588346, 0.0306911003, 0.0119780116, -0.0630755350, -0.0585426167, 0.0186102595, 0.0149024157, -0.0579793863, -0.0181086175, 0.0362612419, -0.0350021496, 0.0024247735, -0.0160289407, -0.0507936627, 0.0192364752, -0.0418044329, -0.0599416569, 0.0102680875, -0.0119186463, 0.0658344105, -0.0030419782, -0.0095900306, -0.0220664218, -0.0016693642, -0.0125156716, -0.0134195108, 0.0349037759, 0.0558751859, 0.0036801142, 0.0183047764, -0.0267087407, 0.0512043051, 0.0055469121, -0.0043232157, -0.0125132389, -0.0319103338, -0.0121397786, -0.0233262200, -0.0175650530, 0.0124930711, 0.0066493936, 0.0208077654, -0.0871967748, 0.0582084320, 0.0542222485, 0.0221178345, 0.0230253749, -0.0572069585, 0.0090335254, -0.0149981761, -0.0246364307, 0.0022950955, -0.0076510659, 0.0374755301, 0.0408696868, -0.0180963296, -0.0051671942, -0.0319322981, -0.0636721626, -0.0303239711, 0.0443632938, -0.0190558285, -0.1170881093, 0.0012766875, -0.0011559029, 0.0780554637, -0.1017216220, 0.0489572324, -0.0031714030, 0.0518618375, 0.0435154326, 0.0413701423, 0.0521469451, 0.0082004229, 0.0636052489, -0.0187577941, 0.0218206923, -0.0193761345, 0.0355600379, 0.0398863591, 0.0156268794, 0.0076224008, 0.0605321527, -0.0027558778, 0.0405119918, 0.0376846232, 0.0009963068, -0.0554460287, 0.0325512439, -0.0704612210, 0.0598097891, 0.0139450422, -0.0141270626, 0.0316235684, -0.1171294898, 0.0037853043, 0.0365467519, 0.0106042912, 0.1392312795, -0.0077057257, 0.0406176187, -0.0136220763, 0.0147463558, 0.0533602722, -0.0372930765, -0.0043742708, 0.0075575258, 0.0604068562, 0.1418954432, -0.0353121348, 0.0608613752, -0.0180205368, -0.0257227886, 0.0809424371, -0.0383434780, -0.0559956171, 0.0023698721, 0.1214355454, 0.0528863743, 0.0769404024, -0.0608614534, 0.0724212676, -0.0195899941, -0.0664865300, -0.0429974422, -0.0461304039, -0.1833846867, 0.0405409373, 0.0420135893, 0.0671875328, -0.0153255649, 0.0081011392, -0.0525585487, -0.0059360215, 0.0118314773, -0.0476666577, 0.0089029158, -0.0503962599, 0.0511440039, 0.0828472748, 0.0379011557, 0.0041061155, -0.0399083830, -0.0260275733, 0.0068646721, -0.0668645427, -0.0456850789, 0.0390342847, -0.0150244348, -0.0275617000, -0.0085977018, 0.0749414638, -0.0061394870, 0.0540601946, 0.0751399100, -0.0276773423, -0.0181754474, -0.0519369505, 0.0479401797, -0.0416586995, -0.0477034263, 0.0135182487, -0.0195383914, 0.0467800759, 0.0189519431, -0.0279936828, 0.0102929240, 0.0548175089, -0.0487363189, 0.0075530517, -0.0141533762, 0.0522279330, 0.0548672527, -0.0668940768, -0.0111665372, 0.0376298726, -0.0380788073, -0.0183608141, 0.0476461872, -0.0350419953, -0.0304725058, -0.0246729180, -0.0423156731, 0.0789413378, 0.0432256721, 0.0720176250, 0.0546662398, -0.0070807817, -0.0235782135, 0.0348727554, 0.0029618142, -0.0133869452, -0.0057535782, -0.0276476610, 0.1104306430, 0.0501972735, -0.0516996533, -0.0413495451, 0.0157351792, -0.0277627986, -0.0543372519, -0.0740835741, 0.0319002196, 0.0102721723, 0.0003768500, 0.0243266635, 0.0322915427, -0.0392689109, -0.0482800677, 0.0475739241, 0.0197536666, 0.1067809910, -0.0191449672, 0.0192039572, -0.0216646735, 0.0393073857, -0.0484401435, -0.1107737869, 0.0639482364, -0.0101980912, -0.0477600284, 0.0505325645, -0.0381665789, 0.0521368496, 0.0258816369, 0.1161182746, 0.0587501079, 0.0498909131, -0.0294262618, -0.0288192648, 0.0029464406, 0.0050842483, -0.0518016517, 0.0394175239, 0.0043842476, 0.0173283890, 0.0233136769, -0.0120879309, -0.0662439167, -0.0129795922, 0.0501409769, -0.1082505584, 0.0506509021, 0.0338140093, 0.0010359961, 0.0312876813, -0.0062396377, -0.0194344055, 0.0343911536, 0.0443437435, -0.0791099444, -0.0099829901, -0.0380972661, -0.0543429479, -0.0603110008, 0.0487767309, 0.0006909854, 0.0284405015, -0.0213800706, -0.0334044173, 0.0054037161, -0.0258048233, -0.0086152451, 0.0507993735, 0.0458535291, 0.0234738942, 0.0826654881, 0.0969532803, 0.0227781571, 0.0532916896, -0.0516139679, 0.0049957032, 0.0301292967, -0.0283337981, -0.0574271195, 0.0620813780, -0.0167962406, -0.0471601710, 0.0329926349, 0.0331075974, -0.0008925057, -0.0067353831, 0.1015950888, 0.0097312843, -0.0072626676, -0.0583305173, -0.0536850095, 0.0388387404, 0.0394763537, -0.0176202692, -0.0303359702, -0.0542039648, 0.0387550443, -0.0547606461, 0.0225802958, -0.0177372489, -0.0384768471, 0.0942386612, -0.0139692361, 0.1630581170, -0.0310849044, 0.0244855229, 0.0204040594, -0.0330564082, -0.0026826449, -0.1033793092, -0.0701829493, 0.0055962508, 0.0338591747, 0.0747451484, 0.0176853091, -0.0112591581, -0.0094498433, 0.0107649798, -0.0563201718, -0.0280421767, 0.0328263380, -0.0138109811, -0.1246717051, -0.0065674419, 0.0527670532, -0.0625815913, -0.0755049512, -0.0185662992, 0.0059970953, -0.0451425426, -0.0051869834, -0.0626193210, -0.0134587027, 0.0461468883, 0.0910449624, 0.0205708798, 0.1392960250, -0.0637407750, -0.0567948334, -0.0203887578, -0.0360697731, 0.0308134574, 0.1299161017, -0.0687902123, 0.0008110679, 0.0688287169, 0.0274371356, 0.0868283510, -0.0672544315, 0.0605252944, 0.1046624333, 0.0556168593, 0.0031798356, 0.0031200240, -0.1664825678, 0.0158278141, 0.0461147316, 0.0323722847, -0.0004549053, 0.0051832939, 0.0063049383, 0.0423153453, -0.0484744906, 0.0013977401, 0.0134923235, -0.0449934714, 0.0154259661, -0.0136397760, 0.1903172880, -0.0128016490, 0.0000740811, 0.0120299375, -0.0737274811, -0.0359621346, 0.0375949927, -0.1709977090, -0.0105306990, 0.0930097774, -0.0354620554, 0.0367186069, -0.0076345229, 0.0171680674, 0.1338698566, 0.0070606107, 0.0349554680, -0.0012350169, -0.0664209202, 0.0368189774, -0.0061571375, 0.1042242274, -0.1444819719, 0.0103241540, 0.0043989830, 0.0271252096, -0.0541861877, -0.0341115557, 0.0193681680, -0.0756645054, -0.0618475452, 0.0514155328, 0.0078485226, -0.0443037748, 0.0349086933, 0.0113387359, -0.0101569910, -0.0040138843, 0.0109357676, 0.0037430266, -0.0104515003, -0.0573251285, -0.0048702783, 0.0397331864, 0.0612320267, 0.0657266080, 0.0960214958, -0.0561655909, -0.0471361652, -0.0073852283, 0.0188366119, -0.0332626551, -0.0442700163, 0.0545673668, 0.0719063729, 0.0107544065, 0.0098778987, -0.0691915303, 0.0072190217, 0.0460599028, -0.0205281600, 0.0127677759, -0.0102778208, 0.0372665226, 0.1085733548, 0.0233473200, -0.0364715680, 0.0322535560, 0.0350281447, -0.0566465966, 0.0314217024, -0.0346645974, -0.0630128756, -0.0300522447, -0.0620309524, 0.0421038009, -0.0005972311, 0.0437864885, 0.0598000772, 0.0277047399, -0.0180099532, 0.0325840153, -0.0128458710, -0.0453718491, -0.0623358861, -0.0125892619, 0.0160138030, 0.0058366340, -0.0319977775, -0.0304030553, -0.0531042404, -0.0251206998, 0.0490814634, -0.0611104928, -0.0183860343, -0.0018324943, -0.0840617418, 0.0427523814, 0.0252150781, 0.0459196493, -0.0687210038, 0.0334726125, 0.0009193403, 0.0040660920, -0.0629689842, -0.0248739030, -0.0347542167, 0.0119092437, -0.0413388312, -0.1031784117, 0.0133496830, 0.0445188358, -0.0002896645, -0.0012105816, 0.0113667641, -0.0426068455, 0.0540924966, 0.0748591498, 0.0495198891, 0.0539225861, 0.0579028167, 0.0488407463, -0.0569103286, 0.0099649187, 0.0200722404, 0.0852950364, -0.0102385106, -0.0137749417, -0.0230646525, 0.0199596565, -0.0527722798, -0.0153879235, -0.0627981797, -0.0383581258, 0.0081929201, 0.0327138081, -0.0653467476, 0.0677012429, 0.0283751301, -0.0827038139, -0.0353072956, -0.0448430143, 0.0682657361, 0.0518987030, -0.0700373799, 0.0300175268, 0.0521601476, 0.0107239708, 0.0146505320, 0.0482887588, -0.0145394560, -0.0254860595, 0.0449449457, 0.0262072030, -0.0000973406, 0.0181041230, 0.0391733460, 0.0252022799, 0.0317433029, -0.0002449265, 0.0719130933, 0.0129943499, -0.0255402680, -0.0429650396, -0.0417619124, -0.0955859721, -0.0913321599, 0.0479350463, 0.0219139550, 0.0629317015, -0.0519212931, -0.0439800434, -0.0161156431, -0.1028458551, 0.0632589459, 0.0072976789, 0.0051167947, -0.0263378341, 0.0048900922, 0.0358754471, -0.0454437882, 0.0977098048, -0.0393205993, 0.0612411089, -0.0632590801, -0.0413248204, -0.0534989946, -0.0186790340, 0.0466031693, -0.0054993969, 0.0803743228, 0.0941607729, -0.0074592577, -0.0347506851, -0.0385329090, -0.0015774409, 0.0312420260, -0.0872703791, 0.0334757008, -0.0183627289, 0.0329330154, -0.0330260769, -0.0434776284, -0.0093037533, -0.0358317196, -0.0144446678, -0.0488753058, -0.0483845472, 0.0102449106, 0.0538658649, -0.0846452862, 0.0384669453, 0.0443188958, 0.0808513537, -0.1232666746, -0.0547297709, -0.0579809546, 0.0115407780, 0.0388041623, 0.0198474228, 0.0006630793, 0.1074808165, 0.0383848064, -0.0031012965, 0.1093009487, -0.0484494567, -0.0196520034, 0.0443094186, -0.0301631745, -0.0434684381, 0.0191510487, -0.1640746891, -0.0417879447, -0.0543810688, -0.0132096373, 0.0439172834, 0.0099711427, 0.0124227693, 0.0154753812, 0.0452462770, -0.0058839270, 0.0093629714, -0.0499563552, -0.0422539227, 0.0536512882, 0.2409297824, -0.0865842849, -0.0105977338, 0.0577570163, 0.0340944938, -0.0540894493, -0.0401788503, -0.0135467509, -0.0075203753, -0.0676707849, -0.0022558537, 0.1984540224, -0.0675488189, 0.0168414693, -0.0567068234, -0.0371104591, -0.1450312287, 0.0118067442, -0.0509869494, -0.0210077893, -0.0064116069, -0.0607257001, 0.0632996708, 0.0154378274, 0.0259515345, 0.0755128935, -0.0354721695, -0.0203110408, -0.0280696750, -0.0860967040, -0.0102657937, 0.0022450723, 0.0283345003, -0.1346696168, -0.0103046149, -0.0416875258, -0.0556987524, 0.0095119188, -0.0118183196, -0.0346374623, 0.0005697366, -0.0484808758, -0.0507492535, 0.0472181290, -0.0356664285, 0.0309081115, -0.0343904011, -0.0344618969, -0.0174989756, 0.0270532724, 0.0352835916, -0.0089757144, -0.0655612424, 0.0164132658, 0.0706704110, -0.0322794542, 0.0399312600, 0.0543429814, -0.0022491412, -0.0728878528, -0.0364461094, -0.0145055987, 0.0432964265, 0.0368307941, -0.0119660078, -0.0459828936, 0.0176954959, 0.0471471176, 0.0213831663, -0.0303943884, 0.0106855296, 0.0208176486, 0.0462098606, -0.0355677605, 0.0348921157, 0.0386787578, -0.0323667862, 0.0022328875, -0.0364032313, -0.0142684169, -0.0791773722, 0.0016438126, 0.0172540750, -0.0369794555, -0.0375949405, -0.0115046073, 0.0210191589, 0.0010840297, 0.0686673447, 0.1226551980, -0.0154805006, -0.0409523249, 0.0486822985, 0.0394277386, 0.0270615686, 0.0477900952, -0.0230160505, 0.0360926688, 0.0169146769, 0.0079836557, -0.0449166782, 0.0493340567, 0.0102244513, -0.0336063281, 0.0280536544, -0.0599276684, 0.0885341913, -0.0259370785, 0.0430882089, -0.0450862087, -0.0322790146, 0.0366745852, 0.0655355677, -0.0262608621, 0.0914109349, 0.0186876748, 0.0736833885, 0.0341369100, 0.0068647517, -0.0598902665, -0.0494350716, 0.0660659447, -0.0034300669, 0.0134714302, 0.0089716166, -0.0141918613, -0.0304126218, 0.0439708866, 0.1109705269, -0.0234529674, 0.0070541101, -0.0506968200, -0.0018264164, 0.0522959158, -0.0303646047, -0.0249739774, 0.0818310678, 0.0731573105, 0.1447208971, -0.0223230105, 0.0518622585, 0.0166103374, -0.0534362346, -0.0548616908, -0.0509573594, -0.1297407746, 0.0886034518, -0.0503673963, 0.0120231304, -0.0457694568, -0.0524170846, 0.0344678052, 0.0053156293, 0.0564757437, -0.0489038713, -0.0667047352, 0.0009661744, -0.0243638176, -0.0328073129, 0.0155662913, 0.0865993425, 0.0344748497, -0.0009410848, -0.0361006595, 0.0318301357, -0.0171695277, 0.0503462814, 0.0408729874, 0.0869179294, 0.0924227238, 0.0712487623, 0.0660865009, -0.0199190117, -0.0319744870, -0.0348974764, -0.0678155944, 0.0263892319, 0.0382376909, 0.0304609686, 0.0240652394, 0.0977727696, -0.0024860958, -0.0591170341, -0.0236744955, -0.0751654282, -0.0014460199, -0.0584706292, -0.0555894040, -0.0459380709, -0.0108888121, 0.0359671302, -0.0363557860, -0.0393685363, -0.0059461612, -0.0339292996, -0.0163776316, 0.0155228190, -0.0336068347, 0.0139467157, 0.0335092358, 0.1150607541, -0.0029083355, 0.0462677330, -0.1340841353, -0.0021845878, -0.0480020940, 0.0409087650, -0.0004745115, -0.0839981213, -0.0681288540, 0.0482029021, -0.0270006806, 0.0343804769, -0.0360890292, -0.0831144601, -0.0465057380, -0.1066160500, -0.0146598602, -0.0526300147, 0.0443406440, -0.0186730232, -0.0367822349, 0.0528024659, 0.0106406799, 0.0599299520, -0.0220989566, -0.0464089997, -0.0568601936, -0.0475873873, 0.0295833256, 0.0129240490, -0.0274376683, 0.1044437811, 0.1288196594, 0.0631510988, 0.1109973416, -0.0677457377, 0.0184600689, -0.0124597624, 0.0261633173, 0.0984366685, -0.0214964207, 0.0350593962, -0.0592466518, 0.0070295450, 0.0270060096, 0.0471650623, -0.0766327158, -0.0812313929, 0.0282177776, -0.0071549467, -0.0252535399, -0.0628704652, -0.0831588730, -0.0596669726, 0.0353976488, 0.0693905801, -0.0318040513, 0.0545724146, -0.0032884362, -0.0400144123, 0.0366023630, -0.0600996166, -0.0137416432, 0.0208988115, -0.0605948679, 0.0073848916, 0.1364196539, -0.0197476577, -0.0547108501, 0.0381429754, 0.0199861061, 0.0317016914, 0.0724414662, 0.0153355366, -0.0011682388, 0.0510732532, 0.0062744925, 0.0002148275, -0.0267367307, -0.0433677770, 0.0552875251, 0.0187445804, 0.0288025774, -0.0560733601, -0.0790714398, -0.0283199120, 0.0609148033, 0.0701989904, -0.0459220931, -0.0205703247, -0.0357772969, 0.0158849694, -0.0624578558, 0.0403636731, -0.0420079939, 0.0423984565, -0.0944901034, 0.0867250562, 0.0301842447, 0.0095268534, 0.0051099770, -0.0139287654, 0.0199672133, -0.0470337272, -0.0157085769, 0.0574612767, 0.0183694735, 0.0349256024, 0.0232084133, 0.0477463715, 0.0318685807, -0.0464666076, 0.0501921363, -0.0450205915, 0.0129041467, -0.0091355089, 0.0547503829, -0.0381027386, -0.0035358286, 0.0390801989, 0.0496107861, 0.0197955482, 0.0449586846, -0.0145649398, -0.0471460633, 0.0073659411, 0.0223031230, -0.0198274329, 0.0467664786, 0.1516860574, 0.0329733305, 0.0152723454, -0.0065369457, -0.0595815219, -0.0453844145, -0.1412943453, -0.0465278998, 0.0115324510, -0.0534796827, -0.0036996021, -0.0282717571, -0.0519645438, 0.0012799385, -0.0304881502, 0.0071154865, -0.0438127518, 0.0357307866, -0.0255040824, -0.0330907851, 0.0079111373, 0.0206036754, 0.0063613574, -0.0364050120, -0.0510032289, 0.0403931886, 0.0432234891, -0.0466583483, 0.0198309515, -0.0534129664, -0.0284169316, -0.0157549158, 0.0222807806, 0.0824409872, 0.0137752732, -0.0634037182, 0.0460549444, -0.0784841329, -0.0684734285, -0.0632998347, -0.0189271364, -0.0452641286, 0.0254581030, -0.0679045394, 0.0579222851, -0.0442817807, -0.0747808591, 0.1061647236, -0.0272483379, -0.0604845621, 0.0004532495, -0.0372717828, 0.0159065966, 0.0309333447, 0.0311933812, 0.0086569972, 0.0261926129, -0.0554796495, -0.0053832307, 0.0289088525, -0.0357855521, 0.0470217280, 0.0295830164, -0.0141735850, 0.1218882576, 0.0766625032, -0.0288018547, 0.0396733694, -0.0219601188, 0.0135912765, -0.1090022251, 0.0150221298, 0.0624703504, 0.0258900970, 0.1022503600, 0.0374656543, 0.0031455769, 0.0527531803, -0.0092211617, 0.0874044895, -0.0087868785, -0.0708409846, -0.0636191219, 0.0575462393, -0.0434758477, -0.0322457552, -0.0269307978, 0.0191225037, 0.0217150822, 0.0062054214, 0.0364768617, 0.0147561692, -0.0132983811, -0.0590026006, 0.0350991376, 0.0379703082, 0.0614249557, 0.0903986692, 0.0349105895, 0.0365270190, 0.0121518169, 0.0272277128, -0.0755356923, 0.0167699326, 0.0044344803, 0.0208020620, 0.0174007490, -0.0640270188, -0.0383656248, -0.0308640581, -0.0241458341, 0.0480925553, -0.0541523919, 0.0212346595, 0.0439962037, -0.0004655015, 0.0301474296, -0.0388158225, 0.0702134296, -0.0793906003, -0.0413519926, -0.0617011748, -0.0443329662, -0.0126809627, -0.0466531441, 0.0061375587, -0.0563362725, -0.0002045712, 0.1270801723, 0.1613085717, 0.0046051759, -0.0434667617, -0.0444046743, -0.0200062785, -0.0228200518, -0.0420915298, 0.0328479894, -0.0043215058, 0.0315869115, 0.0263730865, -0.0539241694, -0.0136131188, 0.0122870216, 0.0350470878, -0.0064204535, -0.0504453965, 0.0519557036, 0.0409329571, -0.0114567792, 0.0427425019, -0.0146951908, -0.0810746178, 0.0185237247, -0.0141132846, 0.0022886263, -0.0721030310, 0.0560418703, 0.0088978270, 0.0396740027, -0.0307675451, 0.0183112975, 0.0112782698, 0.0215165466, 0.0392072499, -0.0260576811, 0.0399931036, -0.0450913385, 0.0723041221, 0.0281054024, 0.0034301467, 0.0429775342, 0.0394416153, 0.0067070602, 0.0199257061, -0.0119399875, 0.0095854038, -0.0007318700, 0.0340649411, -0.0534075536, 0.0269298255, -0.0565046594, -0.0441894345, 0.0344344489, 0.1008497030, 0.0311335791, -0.0174411274, -0.0764276460, 0.0114987949, -0.0036627129, -0.0249059014, 0.0399940908, 0.0098068845, 0.0190766063, 0.1486125737, -0.0524189807, -0.0097489534, -0.0638245046, -0.0155726904, 0.0125436094, 0.0709479600, 0.0400703065, 0.0376810804, 0.0471367463, 0.0257833730, -0.0310849436, 0.0059411521, 0.0971938744, 0.0010260934, -0.0280620959, -0.0117772352, 0.0097008673, 0.0738716200, -0.0147474138, -0.0043771327, 0.0053313980, 0.0064960294, 0.0228004996, -0.0266063716, -0.0505740084, 0.0258768778, 0.0229245164, 0.0517389588, 0.0305053443, -0.0903922468, -0.0051628356, 0.0340168215, -0.0588077307, 0.0287618693, -0.0011701975, 0.0068521393, -0.0535818040, -0.0156171424, 0.0575024858, -0.0622867979, 0.0350512452, 0.0382050946, -0.0590383038, 0.0064251814, -0.0140304640, -0.0152768157, -0.0600844622, -0.0113935266, -0.0287059173, -0.0424078628, -0.0430386700, -0.0295367092, 0.0116004217, -0.0160036888, -0.0356054008, 0.0381798930, -0.0505364612, -0.0485087298, 0.0164287183, 0.0330526531, -0.0779672191, 0.0390644185, 0.0973930731, 0.0323948301, -0.0435328893, -0.0522301234, 0.0076418761, -0.0637969673, 0.0108523518, -0.0061880508, 0.0210041404, -0.0681062788, -0.0064280601, 0.0450398587, 0.0249076560, -0.0372528881, -0.0790462717, -0.0446364991, -0.0612619892, -0.0364594571, -0.0528664067, -0.0302858800, 0.0481099300, -0.0373494066, 0.0473150574, 0.0086265998, 0.0489518680, -0.0641324669, 0.0403400548, -0.0682196766, 0.0441212170, -0.0274961255, -0.0362193547, -0.0051659453, 0.0124841053, 0.0722896010, 0.0343999229, -0.0579530820, 0.0161883533, 0.0133825857, 0.0235884190, -0.0683228225, 0.0127144381, -0.0265626013, 0.0225667171, 0.0464159958, -0.0468917303, 0.0325881764, 0.0564710014, -0.0019250629, 0.0132735139, 0.0044312328, -0.0627753884, -0.0535191074, 0.0313804634, 0.0468973406, 0.0370780453, 0.0312758461, 0.0069105211, -0.0551315695, -0.0630091876, -0.0740823597, -0.0106942682, 0.0181277301, 0.0317307524, -0.0351000987, 0.0645278916, 0.0569073893, -0.0586803518, -0.0400208794, -0.0119537981, 0.0195957124, -0.0675097257, -0.0118294703, 0.0579741448, 0.0275985952, 0.0276760999, -0.0354574136, 0.0340545066, 0.0287457053, 0.0446312055, -0.0438631848, -0.0417102799, -0.0461929739, -0.0150355473, 0.0139669236, 0.0208281446, -0.0071236584, 0.0601800233, -0.0241958890, -0.0205457136, -0.0368775241, -0.0282115843, 0.0188613925, -0.0243514031, -0.0604406670, 0.1143973395, -0.0166438278, 0.0120451599, 0.0807117149, 0.0454030894, -0.0128481248, 0.0230530519, 0.0215900280, -0.0402746722, -0.0079955272, 0.0594293624, -0.0593040064, 0.0176675636, -0.0199442655, -0.0097751608, 0.0147455120, 0.0272474289, 0.0225146450, 0.0051242835, 0.0217268486, -0.0121291736, -0.0127068721, -0.0426150002, -0.0100385854, -0.0141942222, -0.0444419570, -0.0082193296, 0.0386456065, 0.0322382674, -0.0219803117, 0.0367230773, 0.0425843894, -0.1317310631, -0.0530246757, -0.0052816286, 0.0903429240, -0.0469912589, -0.0232806019, 0.0290720947, -0.0150232473, -0.0322211795, -0.0433061421, -0.0384573005, -0.0414261371, 0.0178494267, 0.0228440557, -0.0540742911, -0.0008706638, 0.1309629977, 0.0603728108, -0.0460680425, -0.0093683433, -0.0796851069, 0.0518385433, 0.0098115392, 0.0456942208, 0.0147288404, -0.1131893098, -0.0164381284, -0.0371199250, 0.0401405841, -0.0006116147, -0.0438333899, -0.0477428250, 0.0060818754, -0.0824216753, 0.0796319619, 0.0941062421, -0.0475970469, -0.0198837668, -0.0249916092, 0.0543484539, 0.1441189796, -0.0852761045, 0.0275441669, -0.0166762881, 0.0176843368, 0.0394881070, 0.0595399924, -0.0462347083, 0.0283075050, 0.0380259678, -0.0232109595, -0.0540398136, 0.0280927941, -0.0736365989, -0.0332734175, 0.0296765249, -0.0232142359, 0.0633978769, 0.0058786524, -0.0169184729, 0.0136551112, 0.0332564227, -0.0179409496, 0.0285480805, -0.0070408997, 0.0435015559, 0.0365152359, -0.0053429478, -0.0062207021, 0.0378502794, 0.0254880767, 0.0350163728, 0.0019837068, 0.0152543550, 0.0857226327, 0.0409954228, 0.0247649569, -0.0512770414, -0.0377485044, 0.0386787951, 0.0297105089, 0.0517457612, -0.0118199410, 0.0134545220, -0.0310190581, 0.0545698702, 0.0491635054, -0.0528923310, 0.0228660777, -0.0138316322, -0.0571786053, -0.0529799238, -0.0070436602, -0.0583354086, 0.0035736226, 0.0577106290, 0.0607264265, -0.0245456230, 0.0605398081, 0.0189638603, 0.0238415916, -0.0277065150, -0.0254719239, 0.0046642404, -0.0158853829, -0.0122356834, 0.0428574122, -0.0538923480, 0.0408925451, 0.0179432426, -0.0655176640, 0.0037021325, -0.0427468307, 0.0349622779, 0.0391763225, -0.0350966007, -0.0166704096, -0.0050944816, 0.0160038266, -0.0015935744, -0.0287230965, 0.0679831505, 0.0176236294, -0.0675283670, -0.0080356561, 0.0147652477, 0.0119180614, -0.0098519428, -0.0393048450, -0.0314805806, -0.0117917638, 0.0404538140, 0.0362739861, -0.0092248861, 0.0341769010, 0.0461935848, 0.0046009137, 0.0170076061, 0.1448175013, 0.0316655152, 0.0774185285, -0.0458387509, -0.0602598190, 0.0176523197, -0.0790561810, -0.0706472993, 0.0092592938, -0.0725580603, -0.0411422178, 0.0362850018, -0.0083584301, 0.0025146136, 0.0206559002, 0.0465195179, -0.0232457370, -0.0284243003, 0.0248743035, 0.0114042321, 0.0010166053, -0.0056449375, -0.0421917886, -0.0379782841, -0.0372856520, 0.0097433534, 0.0378355682, -0.0312395040, -0.0619501844, 0.0309240092, 0.0249178540, -0.0012496827, 0.0229717940, 0.0314459354, 0.0965123549, 0.0179339498, -0.0440804623, -0.0269996114, 0.0465247706, -0.0003251299, -0.0273010246, 0.0057370975, -0.0209628195, -0.0351614058, 0.0126950946, -0.0384514183, 0.0919668451, 0.0598191693, -0.0283307433, 0.0429564975, -0.0318323933, 0.0073553878, -0.0531667247, -0.0254914276, 0.0622255057, 0.0602973029, 0.0698293298, 0.0184982438, -0.0259148441, 0.0113038216, -0.0619551353, -0.0387178212, -0.0262663793, 0.0232554339, 0.1014829203, -0.0692083612, 0.1197305620, 0.0323128849, 0.0338317975, 0.0232061855, -0.0372860618, -0.0329989381, 0.0376200862, -0.0121246250, 0.0269095991, 0.0535013117, -0.0325855948, 0.0311230328, -0.0777872577, 0.0518893227, -0.0299100988, 0.0108209997, -0.0027126980, -0.0719355121, 0.0542211197, -0.0450630076, 0.0792502016, -0.0297702253, 0.0278693773, 0.0542768911, -0.0136534357, -0.0348883010, 0.0267680343, -0.0385646112, -0.0734710693, 0.0756826401, 0.0145909106, 0.0215463750, -0.0107350340, -0.0521366969, -0.0029772350, 0.0065255333, -0.0004293316, 0.0317029357, 0.0459182560, -0.0024444121, 0.0132643227, -0.0084476657, 0.0428589508, -0.0181085970, 0.0481292941, 0.1055069193, -0.0665845051, 0.0063496744, 0.0216559879, -0.0526986085, -0.0618980601, -0.0023745552, -0.0673840716, 0.0872267932, 0.0148519669, -0.0147857955, -0.0454881452, -0.0460082591, 0.0176099408, -0.0510004722, -0.0160794500, -0.0893763006, -0.0180710256, -0.0131525006, 0.0767068416, -0.0246815253, -0.0752048865, 0.0279849973, 0.1259136051, 0.0309464242, -0.0270125289, -0.0267935395, -0.0316931121, 0.0806860700, 0.0047899117, -0.0028741055, -0.0608421192, 0.0428186208, 0.0109095685, -0.0259460509, -0.0700267032, 0.0087197386, -0.0083456337, 0.0339956209, 0.0840103626, -0.0134097636, 0.0018013201, 0.0019019573, -0.0404218771, 0.0290287025, -0.0037965900, 0.0077570532, 0.0297496039, -0.0285434145, 0.0183370356, -0.0629489347, 0.0028914369, -0.0210008509, -0.0470018685, -0.0325831659, 0.0194833558, -0.0504239798, 0.0396059304, -0.0585603565, -0.0583104081, -0.0423221104, 0.0227633454, 0.0454094633, -0.0035262913, -0.0442715473, -0.0100074913, -0.0111161694, 0.0208950378, 0.0361275151, 0.0115769543, 0.0027290173, 0.1532803327, 0.1174626574, 0.0596615933, -0.1037520692, -0.0056684632, 0.0049811415, 0.0391518474, -0.0651662201, -0.0350279063, 0.0261368006, 0.0434712023, -0.0044783615, -0.0634026453, -0.0144803021, -0.0421520136, -0.0378553644, 0.0025841093, -0.0109971547, -0.0051540881, -0.0536106676, -0.0438735858, 0.0272957888, 0.0539713912, -0.0185578708, 0.0617885776, 0.0044422243, -0.0077136806, 0.0419055372, 0.0006217929, 0.0284802690, -0.0357798561, -0.0165152773, 0.1311093718, 0.0558511317, 0.0622200519, -0.0046485355, -0.0000967935, 0.0173195992, 0.0156090381, -0.0166057535, 0.0419654921, -0.0046694796, 0.0772075206, -0.0405149832, 0.0755335540, -0.0240757521, -0.0649097487, 0.0533815622, 0.0174928363, 0.0933176130, 0.0184326731, -0.0667733550, -0.0055340510, 0.0137079768, -0.0211290102, 0.0278456770, -0.0412177593, 0.0345874391, -0.0450765751, -0.0442229323, 0.0249899477, -0.0264857542, 0.0274082553, 0.0440767631, -0.0524706170, -0.0269896220, -0.0159511808, 0.0691260919, -0.0354139395, -0.0100992182, -0.0425373651, -0.0355102271, -0.0260465201, 0.0060737701, -0.0018044394, 0.0128739495, 0.0818412006, -0.0349333324, -0.0631948113, -0.0394649953, 0.0275324937, -0.0446238630, -0.0139558045, -0.0517012626, 0.0332271196, 0.0859997198, -0.0381796211, 0.0172196552, -0.0073417593, 0.1026468724, -0.0355625451, -0.0642459840, 0.0302028563, 0.0384401046, -0.0430137180, 0.0469853729, -0.0271514747, -0.0487091392, -0.0368509814, 0.0255083330, -0.0171119887, -0.0090231635, 0.0135565167, -0.0116431890, 0.0483775288, -0.0867568105, -0.0241604391, -0.0715656355, 0.0649615750, -0.0168149713, -0.0394942760, 0.0303203519, 0.0356004648, 0.0616116524, 0.0551586449, -0.0405824743, 0.0227336790, -0.0633929819, -0.0287679881, 0.0047738883, 0.0472547412, 0.0321714617, 0.0386294164, -0.0416120552, -0.0020743518, -0.0197332986, 0.0300008412, 0.0292796995, -0.0345073082, 0.0345461667, 0.0174791552, 0.0008839259, 0.0174356773, 0.0389787070, -0.0605670996, -0.0400811210, -0.0028540094, -0.0782284811, 0.0332752727, 0.0117464028, -0.0464812927, -0.0027542724, -0.0484786779, 0.0307764336, -0.0315174498, 0.1214357987, 0.0235881470, -0.0325639248, -0.0281745289, -0.0462616459, -0.0208674986, -0.0223506503, 0.0045929751, 0.0053481138, 0.0017355309, 0.0477833673, -0.0314596519, -0.0400579944, 0.0085445531, 0.0554822832, 0.0103037097, -0.0687469617, 0.0546106584, 0.0527298488, -0.0017418162, 0.0413405858, -0.0741726086, 0.0042925915, 0.0612663664, 0.0447531268, -0.0245321821, -0.0521731749, 0.0631974041, 0.0069284909, 0.0229724683, -0.0044547012, -0.0359939411, -0.0272879954, 0.0398002304, 0.0345203020, -0.0381699130, -0.0216650385, -0.0236043520, 0.0112474319, 0.0300053395, 0.0227187369, -0.0391716361, -0.0684823915, 0.0219732802, -0.0505131185, -0.0035272541, 0.0172576644, -0.1075115055, -0.0217357241, 0.0086829178, -0.0772180334, 0.0558375232, 0.0148165561, 0.0463978760, -0.0009238617, -0.0281489287, -0.1231567934, 0.0143886311, 0.0367602743, 0.0668646842, 0.0060883244, -0.0893323198, 0.0136712966, 0.0288898591, 0.1744939089, 0.0148271136, -0.0183501914, -0.0379996374, -0.0273404084, -0.0534308180, -0.0419131443, 0.0144503284, -0.0708795637, -0.0399530493, 0.0082880966, -0.0148739750, 0.0048536072, -0.0529113933, 0.0197488982, -0.0222928375, -0.1232934296, -0.0279200841, -0.0178617612, 0.0403209180, 0.0111589245, -0.0300411209, 0.0456050374, 0.0557182170, 0.0918985605, -0.0459749512, 0.0509494580, 0.0323150791, -0.0342856608, -0.0501702204, 0.0214798898, -0.0756536350, -0.0908693969, -0.0083377073, -0.0065387757, 0.0425230041, -0.0440338254, -0.0343572274, 0.0185312442, -0.0719859302, 0.0188986063, 0.0539629050, -0.0516744331, -0.0190842636, 0.0316110887, -0.0238898881, -0.0273574255, 0.1175682470, 0.0630623922, 0.0704062209, -0.0460252725, -0.0729171634, -0.0351463743, 0.0150322160, -0.0723544955, -0.0828135461, -0.0203557126, -0.0070501911, -0.0379827470, 0.0762040988, -0.0182733946, -0.0884362757, -0.0707401484, -0.0063948506, -0.0373022705, 0.0239673406, 0.0114893401, -0.0602576435, 0.0633942783, -0.0599922612, 0.0017632495, -0.0460141934, 0.0396311283, -0.0187106021, -0.0223308727, 0.0403087363, 0.0368409604, -0.0145774223, 0.0081126280, 0.1570210904, -0.0012716451, -0.0007226303, 0.0699072182, -0.0088978792, 0.0483990051, -0.0214290153, -0.0417614281, 0.1450024247, -0.0056812861, 0.0243143979, -0.0442544371, 0.1084959283, -0.0234218128, -0.0609181114, -0.0347432904, -0.0569982082, 0.1081808433, 0.0432943217, 0.0016990303, 0.0102365920, 0.0425896384, -0.0269992799, -0.0009167673, 0.0494350381, 0.0285187233, 0.0370650850, 0.0331930779, 0.0167620052, -0.0480444431, 0.0194380991, -0.0132295825, -0.0072923610, -0.0674840808, -0.0049776700, 0.1228134707, -0.0554926358, 0.0094567882, -0.0354108587, -0.0026748849, -0.0213062186, -0.0806805342, 0.0338548794, 0.0438049957, 0.0417827331, 0.0111893332, -0.0665875822, 0.0179114603, 0.0530453362, -0.0258141719, 0.0288663637, 0.0153730530, -0.0409874581, 0.0448879488, -0.0020524578, 0.0110307466, 0.0386988372, 0.0109219924, 0.0448478088, 0.0228586718, 0.0188057236, 0.0156497341, 0.0474715158, -0.0650927052, -0.0588547736, 0.0628562272, -0.0359947719, -0.0284292735, 0.0243921708, -0.0400075912, -0.0070433891, 0.0342468619, 0.0192478634, -0.0525690764, 0.0518903993, 0.0345243886, -0.0240826756, -0.0632186979, -0.0452433638, -0.0142891929, 0.0514028966, 0.1099006683, -0.0670333579, -0.0218405034, -0.0577182807, -0.0544422753, 0.0523797087, -0.0327153876, 0.0321781039, 0.0137521336, 0.0169376563, 0.0554217137, -0.0532853454, 0.0166516118, 0.0375994965, -0.0268050376, 0.0180898886, 0.0101600820, 0.0254549384, 0.0279160086, -0.0262233242, 0.0311412867, -0.0578984953, 0.0216855966, -0.0572726540, -0.0434407890, 0.0377096981, -0.0697093606, -0.0377303809, -0.0198728070, -0.0602198839, 0.0129579883, 0.0624101721, 0.0348106474, -0.0003152734, 0.0096695228, 0.0458760597, 0.0196496472, -0.0533965752, 0.0445611775, 0.0316378139, 0.0731239393, -0.0259402972, 0.0017217220, -0.0266116336, -0.0561383627, -0.0072797881, -0.0615864806, 0.0508117564, -0.0424917676, -0.0104674362, -0.0438150577, -0.0187654197, -0.0166078527, 0.0234060977, -0.0572384521, -0.0287300739, -0.0180867519, 0.0094868653, -0.0613481812, 0.0189418402, 0.0214156769, 0.0418539271, -0.0414008796, 0.0038478258, 0.0240909792, -0.0607831553, -0.0209148861, 0.0027576373, -0.0167310257, -0.0442680418, -0.0270019788, -0.0043502385, 0.0750118271, 0.0076536774, 0.0320112593, 0.0142087266, -0.0354640074, -0.0161008947, -0.0634331182, -0.0202382803, -0.0255799051, 0.0399255157, -0.0691681877, -0.0363318436, -0.0036617182, 0.0002470615, 0.0357335024, 0.0674194992, -0.0151677374, -0.0119181359, -0.0631173924, 0.0968794227, -0.0189230051, -0.0458723046, -0.0008669433, 0.0317696370, 0.1006777361, 0.0160550009, -0.0202229153, -0.0513210334, -0.0178449452, 0.0042656232, 0.0087884720, 0.0025835065, 0.0171191879, -0.0521848612, -0.0231680609, 0.0135132587, 0.0256538782, -0.0518869609, 0.0558629446, 0.0478058457, -0.1146454737, 0.1212421134, -0.0599860176, -0.0766006857, -0.0339146219, -0.0202306882, -0.0233815610, -0.0763031617, 0.0817930773, -0.0620578453, -0.0515423864, 0.0640648827, -0.0268410835, 0.0034421573, -0.0746500567, 0.0437166207, -0.0754514486, 0.0376686156, -0.0483229831, 0.0008215002, 0.0148680490, -0.0388988666, 0.0082600731, -0.0728270486, 0.0587142333, -0.0166433491, -0.0582887679, -0.0680894628, 0.0314262249, -0.0299707837, 0.0081458874, 0.1332897097, -0.0348065458, 0.0817129016, -0.0481811874, -0.0493339896, -0.0461293533, -0.0553007126, -0.0167603958, -0.0642490759, 0.0506511852, -0.0423130877, 0.0270511471, 0.0085548386, 0.0279706065, -0.0517940670, 0.0296948589, -0.0952797681, -0.0267610513, 0.0437226482, 0.0285770521, -0.0139679387, 0.0535911843, -0.0642679110, -0.0532391407, -0.0123023158, 0.0791309401, -0.0187504794, -0.0260474496, 0.0446501486, -0.0048074559, -0.0315326601, 0.0079084225, 0.1900041997, 0.0363268740, 0.0323457196, 0.0915947631, -0.0589768887, 0.0434762463, 0.0372880585, -0.0720624328, 0.0891892463, 0.0263406187, 0.0091131115, -0.0194180366, 0.1216395646, -0.0324687548, -0.0295054950, 0.0355215035, -0.0229937397, 0.0688257515, 0.0530033894, -0.0669080019, -0.0442355983, -0.0371257663, 0.0471658483, -0.0640700534, -0.0004326122, 0.0259853937, -0.0079987748, 0.0467267632, -0.0099562518, 0.0280866232, -0.0439158417, -0.0189557839, -0.0381248966, -0.1053727791, -0.0264464952, 0.0076296581, 0.0012409493, 0.0021527437, -0.0074752923, -0.0535797961, 0.0711406320, -0.0295409579, 0.0177606158, -0.0115992781, 0.0154185193, 0.0346061103, 0.0180938262, -0.0611517429, -0.0301834084, 0.0357377492, -0.0165500827, 0.0154085113, -0.0550827384, 0.0371546149, 0.0047912044, 0.0545924976, 0.0555341803, 0.0086012790, -0.0188632291, -0.0434593856, 0.0439361557, -0.0372223184, 0.0053633712, -0.0286934264, -0.1013568640, 0.0003556428, 0.0050580674, 0.0076217228, -0.0757852942, 0.0258477889, -0.0678822026, 0.0179134756, 0.1046756133, -0.0080191512, -0.0173014104, -0.0370836221, 0.0968001708, 0.0036797044, -0.0518097915, -0.0216901973, 0.0949428454, 0.0542837605, -0.0168319605, -0.0098518878, 0.0108157154, -0.0706648976, 0.0182312168, 0.0179756116, -0.0148817273, -0.0549923256, 0.0072908876, 0.0416857712, -0.0095087402, 0.0217640474, 0.0328636020, 0.0092108529, -0.0404860228, -0.0322877914, -0.0828662664, -0.0653331503, -0.0248095766, 0.0433763191, 0.0081401495, -0.0482291877, 0.0295808949, 0.1138827875, -0.0525215678, -0.0302272141, 0.0394815244, 0.0161969922, -0.0458044931, -0.0044186669, 0.0049561388, 0.0592395030, -0.0333084762, 0.0278683770, -0.0588928647, -0.0077425139, -0.0080015240, 0.0502591617, 0.0206943080, 0.0087001398, -0.0144664133, -0.0407896414, 0.0364467092, -0.0153946942, 0.0225627571, -0.0171016194, 0.0018165924, -0.0724288747, 0.0122118257, -0.0058655790, 0.0266196728, -0.0259764288, -0.0598640852, -0.0327499621, 0.0128622595, -0.0286073815, -0.0580778532, -0.0090205846, 0.1116203293, -0.0446828417, -0.0458118655, -0.0658151358, -0.0536525995, 0.0144169452, -0.0467542000, 0.0120553123, -0.0633308515, 0.0203757491, -0.0189106856, 0.0281594880, 0.0007708631, 0.0226363055, 0.0159656182, -0.0480991527, -0.0604579225, 0.0290758237, -0.0441106930, -0.0058509139, -0.0817624778, 0.0152966455, -0.0042598490, -0.1037936211, 0.0067767836, 0.0013026036, 0.0035756284, 0.0097053917, -0.0490951575, 0.0069879568, -0.0361101888, -0.0437449664, 0.1167001501, 0.0304488949, -0.0153402966, 0.0086208563, -0.0123126702, 0.1002734601, 0.0353030562, 0.0388582796, 0.0296498835, 0.0946667269, -0.0055338186, -0.0525141768, -0.0929393619, 0.0367153808, 0.0110544739, -0.0490734801, 0.0300304908, -0.0497875065, -0.0353387743, 0.0346312895, 0.0482423864, -0.1064716950, 0.0473209992, -0.0159471203, -0.0732867792, 0.0400207974, -0.0415572748, -0.0449612662, -0.0986981913, 0.0040682233, 0.0086198375, -0.0169808064, -0.0027525648, -0.0497306846, -0.0420923792, -0.0166941229, 0.0887924433, 0.0077478965, -0.0304144882, 0.0003048061, -0.0562168323, 0.0272749569, 0.0214810837, 0.0097885253, -0.0251697265, 0.1272598207, -0.0186363645, 0.0211052410, -0.0456163958, 0.0382194482, 0.0497183241, -0.0246103592, 0.0135122538, 0.1316991001, 0.1366355866, -0.0069880350, -0.0196000542, 0.0009711981, -0.0545463674, 0.0147731602, -0.0639612228, -0.0375330560, 0.0786610767, -0.0215407349, 0.0618303232, 0.0178950466, -0.0344505906, -0.0543388426, -0.0852125362, 0.0589761324, -0.0666936487, -0.0265294649, -0.0536658391, 0.1020288914, 0.0452697240, -0.0240143985, -0.0027167287, 0.0853197575, -0.0253536366, -0.0519897901, 0.0306622181, -0.0336987190, -0.0591710508, -0.0402984656, 0.0269671474, -0.0346685760, 0.0413376205, -0.0239658486, -0.0597469583, -0.0180299319, 0.0230947901, -0.0108960550, 0.0379584879, 0.0638864562, -0.0477671027, -0.0621030070, 0.0723018944, -0.0595250987, 0.0260862205, -0.0007752915, -0.0096501596, 0.0136168627, 0.0304415599, 0.0455167592, -0.0288809184, 0.0877139419, 0.0013907104, 0.0351442210, -0.0113698598, 0.0787435845, 0.0214551818, -0.0001202024, -0.0472073480, -0.0187979098, -0.0133452816, 0.0188846383, -0.0084248912, 0.0294030886, -0.0133660017, 0.0820056126, 0.0074284808, -0.0586570166, -0.0123946806, -0.0526378900, 0.0467967838, 0.0040167873, 0.0038457189, -0.0097489879, 0.0288781114, 0.0095023299, -0.0754844621, -0.0619363748, -0.0568276420, -0.0140072498, -0.0587967597, -0.0388180986, -0.0566997379, -0.0387421958, 0.0368554071, -0.0282497350, 0.0992391929, 0.0300107710, 0.0378293544, -0.0022329777, 0.0410565734, -0.0058606514, -0.0459909514, -0.0200195462, -0.0296037514, 0.0035018264, 0.0084758811, -0.0167128313, -0.0315724500, -0.0115425587, -0.0476316065, -0.0060458328, 0.1099818647, -0.0011259951, 0.0011597262, -0.0680336654, 0.0707523525, -0.0523810200, -0.0130507546, 0.0129066082, -0.0058633215, 0.1351690143, -0.0704028606, -0.0548888072, -0.0126513904, -0.0435818024, 0.0010557455, 0.0516080558, 0.0036635301, -0.0165157840, -0.0101477178, 0.0455923192, 0.0272111371, -0.0278929826, -0.0611131862, -0.0191211049, -0.0523338802, -0.0759674981, 0.1372832060, -0.0669334754, 0.0185567997, 0.0200496223, -0.0579634681, -0.0052063712, 0.0405727811, 0.0014388523, 0.0586908460, 0.0424608923, -0.0115650240, -0.0493610539, -0.0328791924, -0.0002550982, -0.0773909688, 0.0759663433, 0.0193049442, -0.0395117588, 0.0264559072, 0.0036322037, 0.0101846782, 0.0342827700, 0.0696010515, 0.0252909698, 0.0077282372, 0.0035499688, 0.0393575281, 0.0199418962, 0.0282260776, 0.0344254561, 0.0186663829, -0.0144259473, 0.0248889923, 0.0930882171, -0.0061154501, -0.0194247961, -0.0609204657, -0.0583587661, 0.0461921208, 0.0003826917, -0.0372251719, 0.0285667852, 0.1201810390, -0.0192574412, -0.0437419824, -0.0582640991, -0.0960846692, 0.0310437884, -0.0643480569, -0.0561415739, 0.0079485979, 0.0673455149, 0.0357455015, 0.0388323218, -0.0287040193, 0.0365881585, 0.0488602296, -0.0630258396, -0.0549420230, -0.0093243495, -0.0271629132, 0.0283712167, -0.0859145448, -0.0242293216, 0.0873807445, -0.0418732353, -0.0173944831, 0.0168808363, -0.0267647952, 0.0090841185, -0.0194709636, -0.0206601806, -0.0534913912, 0.0054924749, 0.1014926508, 0.0114239855, 0.0115102120, -0.0175935384, -0.0044397539, 0.1906589568, -0.0233415067, 0.0371672362, -0.0346348844, -0.0530850887, -0.0117996186, 0.0099793309, -0.0574721098, 0.0531541482, 0.0368377715, -0.0065238476, -0.0011381968, -0.0784358382, 0.0440093614, 0.0456225947, 0.0375911333, -0.0816355720, 0.0568206795, 0.0001359158, -0.0765324011, 0.0352611914, 0.0199122559, 0.0178501606, -0.2073596269, -0.1790808737, 0.1597033292, -0.0217648428, 0.0245784558, -0.0443740375, 0.0655226037, 0.0150591703, -0.0590363182, 0.0472764336, -0.0036568863, -0.0063731330, -0.0125343148, 0.0193745457, 0.0108053582, -0.0428559631, 0.1432568580, 0.0656449720, 0.0152848959, -0.0127943419, -0.0088083446, -0.0795309395, -0.0528772697, 0.0009330750, -0.0506778732, -0.0102744363, 0.1228423119, 0.1172440276, -0.0690831393, -0.0504049361, -0.0708474070, 0.0308652371, -0.0637666211, -0.0742587224, 0.0378959887, 0.0136704333, 0.1218199581, -0.0274605174, 0.0605436787, -0.0189262629, -0.0670887828, 0.1218268797, -0.0317852311, 0.0501021892, -0.0071256785, 0.0886909813, 0.0416995697, 0.0303734876, 0.0004647157, -0.0005753196, 0.0384322293, 0.0423599295, 0.0323281288, -0.0205541048, 0.0376600288, 0.0424931124, -0.0433587469, -0.0771053731, 0.0730292350, -0.0074787945, 0.0174347423, 0.0179096237, -0.0220353901, -0.0515287556, 0.0029001678, -0.0507165045, -0.0360357836, 0.0057207532, 0.1062407866, 0.0560445338, -0.0257219113, 0.0472055525, 0.0118268300, 0.0855921805, 0.0425181873, 0.0336056016, -0.0290628858, 0.0478486642, -0.0145188812, -0.0009849712, 0.0563380308, 0.0464000963, 0.0508135445, -0.0492995270, -0.0203889050, 0.0275844671, -0.0158081185, 0.0022733246, -0.0043653189, -0.0022221317, 0.0583180636, 0.0401754826, 0.0204056073, -0.0505609922, 0.0029900603, 0.0443839245, 0.1200134233, -0.0171406455, 0.0813974887, -0.0580259599, 0.1045878157, -0.0346761234, 0.0395795181, -0.0243677720, -0.0922422707, 0.0382322483, 0.0009285156, 0.0344921909, 0.0366514847, 0.0595138930, -0.0258525182, -0.0537504852, 0.0039345147, 0.0613646917, 0.0025011334, -0.0230954178, -0.0007370792, 0.0322600864, -0.0195603315, -0.0213929042, -0.0611838326, -0.0640445426, -0.0343332924, 0.0120814806, -0.0496300906, -0.0360291079, -0.0525749773, 0.0405852310, 0.0030581607, 0.0532903187, 0.0158263650, 0.0161176808, 0.0371421985, 0.0173250455, -0.0086207604, -0.0263426639, 0.0226311162, 0.0723371878, -0.0553438477, 0.0215224680, 0.0283149686, -0.0579139739, -0.0190103110, 0.0076019103, -0.0163584948, 0.0648785383, 0.0158455502, 0.0291951410, -0.0116603021, -0.0734445155, 0.0209498480, 0.0442513824, -0.0725294724, 0.0006378177, 0.1005163565, 0.0034015211, -0.0347140208, -0.0396810845, -0.0464820229, -0.0616467930, 0.1107176840, 0.0104047852, 0.1702830046, 0.0117258923, -0.0044847266, 0.0234617423, -0.0231605116, -0.0662698820, -0.0576413125, 0.1040293723, -0.0415880755, 0.0112295514, -0.0070720906, -0.0797717422, 0.0465833284, -0.0126340399, 0.0758024827, 0.0840377957, -0.0107200909, 0.0232167132, -0.0312454458, 0.0116484407, 0.0446955040, -0.0464149714, -0.0209473539, -0.0788218006, -0.0145785809, 0.0476798080, -0.0290691238, -0.0251531359, -0.0509982891, 0.0027109957, -0.0872502029, 0.0340951048, 0.0030083468, 0.0148168551, 0.1377604157, -0.0011502549, -0.0700609088, 0.0342836827, 0.0068379450, 0.1117730886, -0.0622295178, -0.0342438109, -0.0565023422, 0.0093524363, -0.0582219698, 0.0425030403, 0.0025852241, -0.0267019421, 0.0163460467, -0.0163443163, 0.0313241445, -0.0674868673, 0.0018006829, 0.0478865318, 0.0370035842, -0.0512781478, 0.1211186424, -0.0692868009, -0.0249926448, -0.0163455680, -0.0612178110, 0.0458171740, -0.0245101042, -0.0457078815, 0.0423112251, -0.0438429564, 0.0545842275, -0.0248050485, 0.0140810683, 0.0246592462, 0.0920100808, 0.1297891885, 0.0042091184, 0.0205102284, 0.0325670876, -0.0514017679, -0.0435559377, 0.0295169670, 0.0731802955, 0.1122417077, 0.0381924622, -0.0172784105, -0.0515820906, -0.0146747325, -0.0600830615, 0.0416006856, -0.0769128501, -0.1128115207, 0.0396176949, 0.1291357577, -0.0179300811, -0.0034329370, -0.0520543903, -0.0227341019, -0.1530839205, 0.0762628838, 0.0817971081, 0.0320887603, 0.0761917531, -0.0573746525, 0.0790531188, -0.0074920463, 0.0124183642, -0.0083354507, -0.0526538491, 0.0147024468, 0.0101799211, 0.0664344206, 0.0067046490, 0.0429024696, 0.0779801905, 0.0478478298, -0.0352265723, 0.0154888071, -0.0187600311, 0.0382096581, -0.0342641026, -0.0083193816, 0.0458077975, -0.1018674225, 0.0675389990, 0.0114568910, 0.0108337579, 0.0267681256, -0.0613152571, -0.0571271218, -0.0813503414, -0.0106217805, -0.0133430697, 0.0110248215, 0.1473007500, -0.0003591316, 0.0631390736, -0.0585352667, -0.0430513807, 0.0772354975, 0.0360881165, 0.0457685962, -0.0209366400, 0.0532881655, 0.0595827885, -0.0144024119, -0.0445119217, 0.0675659999, 0.0603936948, 0.0512804873, -0.0676144138, -0.0010535868, 0.0300452895, -0.0371307023, 0.0676164627, -0.0680443272, 0.0021674288, -0.0269035809, -0.0113059832, -0.0493490770, -0.0088838767, -0.0522758067, 0.0419456176, -0.1190745011, 0.0399901904, -0.0425552838, 0.0591156632, -0.0042991838, -0.0963225812, -0.0541271344, 0.0844039321, -0.0140382200, -0.0278157499, 0.0232577808, -0.0665449426, -0.0382497385, 0.0140256947, 0.0203326382, 0.0155325606, -0.0593089908, -0.0271044150, -0.0152377915, 0.0204737056, -0.0103478869, 0.0242481995, 0.0534636527, 0.0113566462, -0.0103041697, -0.0535589829, -0.0531766526, 0.0347652100, 0.0203313157, -0.0514088534, -0.0000078029, 0.0874851570, 0.0808175653, 0.0454368554, -0.0032631550, 0.0428414829, -0.0364694074, -0.0105932755, -0.0533465371, 0.0289170798, -0.0174678490, -0.0064535271, 0.0022260402, -0.0164694078, 0.0064524985, 0.0037914324, -0.0016959074, -0.0575686619, 0.0748442933, -0.0120770084, -0.0640991181, -0.0327091664, -0.0172001980, 0.0054642945, -0.0578584522, -0.0469779186, -0.0660994500, -0.0677767321, 0.0791562870, -0.0029724815, 0.0262748264, -0.0431333929, -0.0560307465, 0.0837592557, 0.0679896921, -0.0175892841, -0.0542555004, 0.0894126520, 0.0395801887, 0.0112462668, 0.0329646170, 0.0431464724, 0.0675841048, -0.0598603077, -0.0550771132, -0.0548063144, 0.0821944326, -0.0589943230, -0.0532814637, -0.1390751004, 0.0308943652, -0.0608602315, -0.0363425165, -0.0605872497, -0.0018810125, 0.0467928350, 0.0233430918, -0.1034405604, -0.0297456197, 0.0120605780, -0.0271432810, 0.0020754596, -0.0207552779, 0.0393082872, -0.0187778305, 0.0550639518, 0.0860821381, 0.1285250783, -0.0363796651, -0.0029556237, -0.0469168350, 0.0498374850, -0.0636969432, 0.0276678931, 0.0448878594, 0.0398671776, -0.0508192182, -0.0075214747, 0.0163452718, -0.0374025591, 0.0439390466, 0.0866144300, 0.0662624314, -0.0524420440, -0.0352413617, -0.0198296271, -0.0176002458, 0.0503642894, -0.0211224817, 0.0445043966, -0.0293349549, -0.0031005589, 0.0384214297, 0.0511042997, -0.0514613315, -0.0201464333, 0.0109496368, -0.0299433954, 0.0303174332, 0.0371974818, 0.0026807480, 0.1410276890, -0.0563572384, -0.0731834695, 0.0201398451, -0.0160681326, -0.0103732878, 0.0416488945, -0.0694894791, -0.0001532775, 0.0275110472, 0.0348088630, 0.0548088104, -0.0853338912, 0.0717773810, -0.0084070843, -0.0037433133, -0.0578306988, -0.0749532878, 0.0230497960, 0.0347125903, 0.0414326638, -0.0448089205, 0.0044872286, -0.0195846297, 0.0018733687, 0.0491911285, 0.0152142309, -0.0617689379, 0.0269457512, -0.0951534659, -0.0442389958, 0.0032156501, 0.0349402018, 0.0356421955, 0.0480447449, -0.0074258945, 0.0253581628, 0.1383074224, -0.0167979952, 0.0031851646, -0.0069515011, 0.0319945291, 0.0359337479, -0.0614230894, -0.0720888823, 0.1676400900, -0.0377215594, -0.0228199363, -0.0620444044, -0.0479082055, 0.0579924472, -0.0162045397, -0.0389975496, -0.1018334702, 0.0347302370, -0.0727909803, 0.0114309285, 0.0395373255, -0.0034166796, -0.0105109122, 0.0088970838, 0.0728553832, -0.1088445559, -0.0428893454, 0.1520872712, -0.0395229422, -0.0062600332, 0.0186273027, -0.0322937965, 0.0292738490, -0.0428410731, 0.0604439788, -0.0532395132, 0.0079269810, -0.0372015201, -0.0272428561, 0.0671073124, 0.0786037073, 0.0379555300, -0.0538909175, 0.0424469151, -0.0139279915, 0.0376746543, 0.0404691435, 0.1872599423, -0.0195501894, -0.0079381820, -0.1157547086, -0.0274843555, 0.0044917907, -0.0347363763, 0.0081666159, -0.0416248851, 0.0844641402, -0.0746972337, -0.0604059286, 0.0605995394, 0.0266824160, -0.0062396326, 0.0273280703, -0.0425391532, 0.0660160929, -0.0186321884, -0.0613675788, -0.0229366235, -0.0071998434, -0.0417814031, -0.0213026628, -0.1000161693, 0.0669961795, 0.0341242068, 0.0240722690, -0.0240644794, 0.0338671207, 0.0563233905, -0.0007369001, 0.2315148562, -0.0137164481, 0.0455294400, 0.0679248646, 0.0164442044, -0.0074969218, -0.0408950634, -0.0061085862, -0.0442340933, 0.0029295313, 0.0949178934, -0.0114226863, 0.0490273051, -0.0001059973, -0.0442064032, -0.0421617478, 0.0284339599, 0.0015788593, -0.0104944296, -0.0690966323, -0.0529885553, -0.0125387441, -0.0441183969, -0.0477930233, -0.0366120376, 0.0029331872, -0.0036889075, -0.0546860881, 0.0119710891, -0.0040251580, -0.0197003018, 0.0266414955, -0.0534182787, -0.0503216721, 0.0130072236, -0.0405087657, 0.0204529390, -0.0670814514, 0.0436352119, -0.0185842272, 0.0210805051, 0.0412052013, 0.0577104315, -0.0648636520, 0.0520543568, -0.0147756860, -0.0759206340, 0.0449422300, -0.0405588709, 0.0592935309, -0.0631161481, -0.0437644012, 0.0165411588, 0.0457610190, -0.0029917273, -0.0176113397, -0.0347588211, -0.0409552567, 0.0480600595, -0.0081216721, -0.0299853347, 0.0357688814, -0.0152560463, -0.0612888746, -0.0963466540, 0.0399943814, -0.0093488973, 0.1124786213, 0.0522678606, -0.0509238802, 0.0320394635, -0.0322902575, 0.0305963587, 0.0076915529, 0.0215723533, -0.0392721146, 0.0662403107, -0.0217722971, -0.0170222502, -0.0214294791, 0.1059247181, 0.0848588794, -0.0335243046, 0.0071638757, 0.0431973375, 0.0346345529, -0.0378381386, 0.0113137141, -0.0637660176, -0.0450867750, -0.0250250679, 0.0273750313, -0.0363346413, -0.0168718230, 0.0443299226, -0.0442023464, -0.0812446922, 0.0191813372, -0.0086807590, 0.0666617304, 0.0236933008, 0.0454882793, 0.0411500297, 0.0256518982, -0.0794602036, 0.0589335375, 0.0656759292, -0.0445152558, -0.0041345293, 0.0560323149, 0.0188776739, -0.0285151601, -0.0509846956, 0.0873144642, -0.0433074199, -0.0326192789, -0.0586867742, 0.0001824395, -0.0489180945, 0.0550271235, 0.0371198878, -0.0324601457, 0.0215651281, -0.0155550595, 0.0132285114, 0.0068252464, 0.0016153710, -0.0123531288, 0.0351285152, 0.0753688291, -0.0197980087, 0.0247660782, -0.0452398881, -0.0319138803, 0.0396050029, 0.0109791839, -0.0111223571, 0.0211223811, 0.0771764964, -0.0267800335, 0.0872254297, -0.0249062572, -0.0532835424, 0.0118407588, 0.0924216509, -0.0343273580, -0.0472391695, 0.0187026970, -0.0492187925, -0.0679308176, 0.0137090310, -0.0007196938, -0.0406364724, 0.0048812176, 0.0106174368, -0.0570498481, -0.0372706205, -0.0030880715, 0.0258947518, 0.0135760214, -0.0653342158, 0.0104044313, -0.0487658456, 0.0358313918, -0.0134356050, 0.0266576745, -0.0422445238, -0.0577186719, -0.0218930338, 0.0553734861, 0.0693108588, -0.0212249458, 0.0908208713, 0.0000101132, -0.0313491486, -0.0662469342, -0.0660328493, 0.1136137098, -0.0274493098, 0.0016993171, 0.0140126906, -0.0439079590, -0.0661838502, -0.0334257223, -0.0338933840, 0.0879037902, -0.0615846738, 0.0425695144, -0.0160217788, 0.0094831455, 0.0100805797, 0.0401237495, 0.0430290848, -0.0219697170, 0.0121779246, -0.0608539619, -0.0794354901, 0.0148779331, 0.0044970177, -0.0172731560, -0.0063188807, 0.0578651614, -0.0000761303, -0.0206971541, 0.0539055839, -0.0613393784, 0.0370553397, 0.0273837317, 0.0187239125, -0.0648988783, 0.0449125804, 0.0298045706, -0.0312646553, -0.0149455592, -0.0432021022, 0.0149904583, -0.0471285991, -0.0436718315, -0.0289683621, 0.0443026535, 0.0249090027, 0.0460585393, -0.0577561259, -0.0459697321, 0.1506270766, -0.0327740721, -0.0337440595, -0.0110231992, -0.0572268106, -0.0108836070, -0.0334432870, -0.0012160818, 0.0845439583, 0.0933282077, 0.0791130885, -0.0098918267, 0.0237774141, 0.0367555432, 0.0078001064, -0.0556060188, -0.0213568565, -0.0377284512, 0.0223964453, 0.0338677354, -0.0556206219, -0.0414304323, -0.0335448273, -0.0072532110, 0.0250457898, 0.0833824575, 0.0028191023, -0.0214140248, -0.0035714265, 0.0514374040, 0.0377054028, 0.0057157730, 0.1222561002, -0.0485623889, 0.0588114634, 0.0974344164, 0.0546663366, -0.0597656667, 0.0317775421, -0.0498309471, 0.0070972042, -0.0813317969, 0.0165683646, -0.0627207011, 0.1291124076, -0.0188440531, -0.0617058128, -0.0606874265, -0.0008507841, 0.0176682267, -0.0228558499, 0.0104176318, 0.0473346747, 0.0615418293, 0.0278198961, -0.0541242771, 0.0122164702, -0.0336274765, -0.0492384173, -0.0617706738, -0.0058801174, -0.0379306786, 0.0259020552, 0.0357739367, 0.0606728606, 0.0190828275, 0.0890818760, -0.0086593265, -0.0006089546, -0.0115790172, 0.0020978139, -0.0259409230, -0.0201866440, 0.0068861893, -0.0463977754, 0.0171009023, -0.0234787986, 0.0455567576, -0.0160413496, -0.0273965634, 0.0102606239, -0.0037525049, 0.0201817323, 0.0208986700, -0.0406064391, -0.0654746145, 0.0077015324, -0.0384385698, 0.0809931681, -0.0085869785, 0.0413130373, -0.0572529882, -0.0690083355, 0.0187013950, -0.0425221212, 0.0291539263, 0.0392734036, -0.0013090742, 0.0404181518, 0.1444902569, -0.0324973464, -0.0068026371, -0.0059048585, -0.0157551020, -0.0360355228, -0.0158081017, 0.0744450465, -0.0617796443, 0.0038257013, 0.0547515526, -0.0147796758, 0.0152399689, 0.0364255719, 0.0305251777, -0.0035100435, -0.0454701185, -0.0488399975, 0.0055738050, 0.0095042419, 0.0346032418, -0.0287160426, -0.0062411581, -0.0367950164, -0.0520984009, 0.0439750701, 0.0149507979, -0.0320120417, 0.0330234617, -0.0014258396, 0.0725696608, 0.0013925846, 0.0829094797, -0.0459356755, 0.0179665275, -0.0455885530, 0.0215434451, -0.0430496335, 0.1366114616, -0.0278797131, -0.0282936133, 0.0022535683, 0.0274051875, -0.0302363262, -0.0200140160, -0.0610884130, 0.0504429042, -0.0540125147, -0.0269675460, 0.0015987123, 0.0099726645, -0.0157465506, 0.0506823435, 0.1140902713, 0.0445198007, -0.0127646532, -0.0109336097, -0.0423241407, 0.0226309877, 0.0520115495, -0.0048029940, 0.1234193519, 0.0143408822, 0.0320044532, 0.0876147971, -0.0224097054, 0.0245493595, -0.0362639017, 0.0183114577, -0.0181615502, -0.0360063389, 0.0703257695, -0.0393804535, 0.0432806052, -0.0044600815, 0.0177499186, 0.0088440608, -0.0124827446, -0.0466146953, -0.0163059831, -0.0767863989, -0.0103917075, -0.0085864337, 0.0153708896, -0.0485041998, -0.0485304445, -0.0519826375, 0.0277482010, 0.0521242134, -0.0067452686, 0.0239634607, 0.0337103941, 0.0463879406, -0.0278813336, 0.0095265219, 0.0411090814, 0.0452338085, -0.0627407506, -0.0154237896, 0.0231692791, 0.0426686220, 0.0479459763, 0.1182762235, 0.0310454145, -0.0736464635, 0.0402555279, -0.0599305369, -0.0110685332, 0.0329521634, -0.0370284915, -0.0552988499, 0.0246504135, -0.0259857066, 0.0117651364, -0.1207878590, 0.0216823034, -0.0467376187, -0.0062425048, 0.0110125160, -0.0239514541, -0.0610386394, 0.0366787761, -0.0564568117, -0.0357034132, -0.0319218300, 0.0271328706, 0.0004893321, 0.0391357727, 0.0227132943, 0.0163406823, 0.0483543910, 0.0365852937, -0.0023179154, -0.0077643273, 0.0741555095, -0.0079985382, -0.0389586203, -0.0974189118, 0.0311326310, 0.0166084394, 0.0096416157, -0.0597787686, -0.0648520738, -0.0294273589, 0.0186605416, 0.0166638531, -0.0143927177, 0.0565626100, -0.0025349020, -0.0942820162, 0.0637220889, -0.0503038354, -0.0324889012, -0.0384794027, 0.0067492877, -0.0529499203, 0.0060198070, 0.0280988701, 0.0077740899, 0.0508849211, -0.0060927817, 0.0121099167, 0.0390143991, 0.0028168443, -0.0329637304, 0.0657434165, 0.1656900644, 0.0047656852, 0.0099340789, -0.0346701145, -0.0579064153, 0.0117603298, -0.0073614973, 0.0004999701, -0.0833792835, -0.0200168360, -0.0429332592, -0.0225721747, -0.0163767636, -0.0507688113, -0.0262654573, 0.0098580318, 0.0342603587, -0.0353030637, 0.0402198657, -0.0266942699, -0.0681004748, 0.0451777168, -0.0373103432, 0.0006866500, 0.0172564741, 0.0320181958, -0.0029147605, -0.0668465421, 0.0181571059, -0.0210922752, -0.0661398694, -0.0185622852, -0.1187925637, -0.0347780734, -0.0624216981, 0.1151759550, 0.0074903257, -0.0577975400, 0.0551807992, 0.0237620454, 0.1055683419, 0.0476328023, -0.0346734338, -0.0001117021, 0.0454173908, 0.0496072471, -0.0604354963, 0.0855929330, -0.0505380183, 0.0383551009, -0.0604112297, 0.0241670590, 0.0112326667, 0.0030731605, 0.0443758853, -0.0113593321, 0.0326008461, 0.0407065488, 0.0193762202, -0.0436519086, -0.0120749529, -0.0473735332, -0.0139468545, 0.0685484707, -0.0091259545, 0.0417613648, -0.0113243582, -0.0221861564, 0.0488558598, -0.0745955110, 0.0446734466, 0.0368072949, -0.0551752299, -0.0477140881, -0.0230151974, 0.0167227630, 0.0144329490, 0.0330523551, 0.0550360903, 0.0073047243, -0.0313671827, -0.0231493227, -0.0243221931, -0.0426715128, -0.0659958720, -0.0110502401, -0.0522022024, 0.0925869942, 0.0644679591, 0.0719188228, 0.0518905558, -0.0013241224, 0.0332704671, 0.0282416083, 0.0031215716, 0.0024905705, 0.0309813935, 0.0773784369, -0.0284950584, 0.0099718664, 0.0449987240, -0.0572398268, -0.0332564116, 0.0675524548, -0.0534097068, 0.0108262617, 0.0029023360, -0.0396303087, 0.0300959460, -0.0333494730, 0.0381393954, -0.0336676016, 0.0321700908, -0.0250755567, -0.0382494926, 0.0295525342, 0.0232319757, 0.0000353277, -0.0468276255, -0.0730165020, -0.0454378761, -0.0008838782, 0.0739809647, 0.0518649220, 0.0082847960, -0.0518590435, -0.0664445832, -0.0979428738, 0.0896667093, 0.0244785398, -0.0089124748, -0.0469354056, 0.0414270647, -0.0103962924, 0.0389600359, -0.0488081761, 0.0071117226, -0.0403576940, -0.0786811411, -0.0246975478, 0.0240243189, 0.0134404711, 0.0074233883, 0.0312437396, 0.0414042659, 0.0329771563, 0.0560391136, 0.0070700394, 0.0032267724, -0.0483373329, -0.0385791771, 0.0449850336, 0.0845182762, -0.0121891545, 0.0853012577, 0.0130207334, -0.0359932594, -0.0243759993, 0.0357262753, 0.0387410149, -0.0312428009, -0.0181730613, -0.0653846860, 0.0726908371, 0.0346870385, -0.0374018848, -0.0675056130, 0.0146963634, -0.0082468055, 0.0349945799, -0.0414085463, 0.0192197524, 0.0492421016, 0.0451589078, 0.0415031016, -0.0289384685, -0.0011610038, -0.0474698320, 0.0237814337, 0.0270647984, -0.0249664374, -0.0523857325, 0.0337393731, 0.0557837449, -0.0320564099, -0.0170012079, -0.0184816793, -0.0654529706, -0.0377477482, -0.0672953948, -0.0640392303, -0.0626031831, 0.0820727050, 0.0769933239, -0.0159941129, -0.1112136990, -0.0530980080, 0.0206645615, 0.0165694151, 0.0122291539, -0.0561633110, -0.0304852631, 0.0410206579, 0.0212462004, 0.0551534370, 0.0272113159, -0.0549049787, -0.0694199204, 0.1527537107, 0.0454701111, -0.0040379055, -0.0288667250, -0.0722338930, -0.0165457912, -0.0343693420, -0.0943186358, -0.0394874029, 0.1106822640, 0.0254543368, -0.0540609322, 0.0136031173, -0.0368658006, 0.0115421191, -0.0018316379, -0.0270188861, -0.0371722318, -0.0305680167, 0.0541321114, 0.0514863133, 0.0645093247, -0.0613287836, 0.0701700523, 0.0377940983, 0.0366035812, 0.0134449946, -0.0474683344, 0.0154184755, 0.0100388564, 0.0094001256, -0.0840829909, 0.1287280321, -0.0069809631, -0.0514662229, -0.0483075269, -0.0101705687, 0.0599923618, 0.0334121957, -0.1178652346, 0.0779190585, -0.0353333429, 0.0146404216, -0.0748209059, -0.0521803573, 0.0454442501, 0.0430565923, 0.0127048818, 0.0664199591, -0.0475025699, 0.0158103593, -0.0159514379, 0.0426010564, -0.0171811786, -0.0790770277, 0.0413655601, 0.0447907895, -0.0322011486, -0.0352240391, -0.0275887344, -0.1151401401, 0.0095967017, 0.0509115122, 0.0777603388, 0.0410050787, -0.0400118828, -0.0404933393, -0.0115007330, 0.0200323407, -0.0094522052, -0.0175642502, 0.0528118573, -0.0456843860, 0.0590530559, -0.0201985016, 0.0468958355, 0.0043632374, -0.0316743329, -0.0519527905, -0.0919954255, -0.0482969657, -0.0053742644, -0.0032435860, 0.0685116872, -0.0577577688, 0.0109464489, -0.0340932161, 0.0244911630, 0.1185287237, 0.0130398571, 0.0173969809, 0.0335293412, 0.0285231657, 0.0063991090, 0.0084296158, 0.0387732238, -0.0427706242, 0.0192839336, 0.0174616762, -0.0303797591, 0.0074544866, -0.0475202724, -0.0025201130, 0.0493004359, -0.0351418406, 0.0579474308, 0.0130266547, -0.0223627370, -0.0379972644, -0.0683902577, 0.0242519975, -0.0719874576, 0.0603464060, 0.0793258622, -0.0100592682, 0.0341350026, 0.0420007296, -0.0492072627, -0.0554846376, -0.1031321138, -0.0690718591, 0.0411220454, 0.0398874469, -0.0437590405, 0.0362804756, 0.0274716560, -0.0625346228, 0.0538200811, -0.0615786426, 0.0354383513, 0.0156901162, 0.0015325433, -0.0550933257, -0.0533004440, 0.0558578223, 0.1449538469, 0.0839287564, 0.0838003084, 0.0664780363, 0.0535510071, -0.0008510282, -0.0189827904, -0.0592280589, -0.0345622748, 0.0037007432, 0.0308064949, -0.0302401707, 0.0524551757, 0.0198065471, 0.0317042470, 0.0084282039, 0.0873551816, -0.0315448679, -0.0451209508, 0.0120026525, -0.0552370399, -0.0034250789, -0.0379611999, -0.0056820158, -0.0361369476, 0.0115083968, 0.0029575652, 0.0250097029, -0.0035908888, -0.0057263239, 0.0111255059, 0.0418908894, 0.0259958953, 0.0160098579, 0.0378947668, -0.0028821363, -0.0236121397, -0.0086940080, 0.0163283721, 0.0184850506, -0.0583619103, 0.1440076977, 0.1276878715, 0.0140614342, 0.0265389998, -0.0404653810, -0.0519193523, -0.0050400817, -0.0640722886, -0.0603107214, -0.0055053807, -0.0540227853, 0.0187160764, 0.0391101427, -0.0296587590, 0.0397615246, -0.0856449008, -0.0461888611, -0.0078158192, 0.0307508782, 0.0294145960, -0.0083792154, -0.0117706852, 0.0210769512, -0.0431893505, 0.0630397499, 0.0740701929, 0.0862809941, -0.0081530483, -0.0406986624, 0.0127686383, -0.0263408870, -0.0549818203, -0.0647008196, -0.0142292948, -0.0196844172, 0.0529520810, 0.0580443032, -0.0331593677, -0.0126472116, 0.0301593840, 0.0713250786, 0.0179131571, -0.0170290936, 0.0418137684, 0.0094280755, 0.0473637655, -0.0605506897, -0.0517725796, -0.0694365129, 0.0545215420, 0.0244035795, -0.0186103769, -0.0203624107, 0.0300241541, 0.0089879846, 