//Numpy array shape [1568, 32]
//Min -0.303470879793
//Max 0.357356399298
//Number of zeros 0

#ifndef W9_H_
#define W9_H_

#ifndef __SYNTHESIS__
model_default_t w9[50176];
#else
model_default_t w9[50176] = {0.0142238168, 0.0349477641, 0.0326477624, 0.0558769219, -0.0353126638, 0.0462006442, -0.0563959368, -0.0203480702, -0.0218223464, 0.0371182039, 0.0123450942, 0.1017280295, -0.0252731293, -0.0325267464, 0.0382151790, 0.0058686198, -0.0153387357, -0.0056236582, -0.0121405795, 0.0738276318, 0.0080672726, -0.0035200685, 0.0401964523, -0.0273973346, 0.0036577967, -0.0330450162, -0.0333868787, 0.0950705111, 0.0205350313, -0.0657859966, 0.0184077080, 0.0031691864, -0.0678095594, -0.0007610169, -0.0497305728, 0.1014374346, -0.0897567794, -0.0430185832, -0.0465175733, 0.0205693506, 0.0036035168, 0.0821936652, 0.1140090302, 0.0959169194, 0.0532169975, -0.0618508793, -0.0300502088, -0.0607377216, -0.0268093012, 0.0510956496, -0.0025326072, -0.0566590205, -0.0418657959, 0.0458023548, -0.0117732231, 0.0224538613, 0.0458575524, 0.0048283609, 0.0883210003, 0.0981303751, 0.0032337690, -0.0312658995, 0.0295750350, -0.0028714503, -0.0242838170, 0.0531937890, -0.0648038462, 0.0753827617, 0.0031806387, -0.0292928014, 0.0062956028, 0.0605158992, -0.0235714465, 0.0762253255, 0.1099666804, 0.0608553439, -0.0000562404, 0.0175877698, 0.0095496140, -0.0356736816, 0.0549877733, 0.0057689659, -0.0108730430, 0.0377418548, -0.0443300717, -0.0045206784, 0.0142682679, 0.0704179332, -0.0126607465, 0.0044555641, 0.0186735075, 0.0750202462, -0.0336639956, -0.0667762160, -0.0125185661, -0.0656471997, 0.0139142582, -0.0515485816, -0.0121225463, 0.0982661098, 0.0535196848, -0.0269496255, 0.0359722637, -0.0220498405, -0.0100018885, 0.0508429743, 0.0761933103, -0.0969631150, -0.0294195730, 0.0158091616, -0.0215690061, 0.0297060572, 0.0220382977, -0.0304303579, -0.0115879495, -0.0274177790, 0.0061298944, 0.1226851270, -0.0652462989, 0.0538197719, 0.0117419623, 0.0812749863, 0.0535840020, 0.0476273373, 0.0615588464, 0.0361680724, -0.0710135922, 0.0151828984, -0.0523694232, 0.0270798542, -0.0313319936, 0.1143721640, -0.0553942695, -0.0667270198, -0.0433066078, 0.0371926576, -0.0429920852, 0.0320045352, 0.0633983836, 0.0718414560, -0.0281976499, 0.0040445887, 0.0157626569, 0.0435989089, -0.0510317087, -0.0010044724, -0.0830905885, 0.0491851345, -0.0677560940, 0.0371793285, -0.0145340897, -0.0251092594, 0.0042170244, 0.0417886637, -0.0712329894, -0.0342184082, -0.0885310993, -0.0145193683, 0.0283505898, -0.0366762653, -0.0247580428, -0.0222849213, -0.0340359136, -0.0189678147, 0.0970726162, -0.0631459504, -0.0087255575, 0.0119443918, 0.0192749761, 0.0057468354, -0.0157327410, 0.0125255333, 0.0525295250, 0.0270859450, 0.0160281230, 0.0360532030, -0.0312401969, -0.0334922113, 0.1391297430, 0.0669657737, -0.0524362698, -0.0108228344, 0.0035610558, 0.0664605573, 0.0192091130, -0.0774006918, -0.1404037923, 0.0810998529, -0.0134557365, 0.0066943807, 0.0065141870, -0.0644255877, -0.0112701003, -0.0427155904, -0.0574433766, -0.0626499802, 0.0130283013, -0.0143669732, 0.0487580262, -0.0479438566, 0.0233105384, 0.0360343978, 0.0529633649, 0.0364199430, 0.0530928038, 0.0264554732, -0.0111421123, -0.0274900980, 0.0031647496, 0.0047273822, 0.0166696291, -0.0925512984, 0.0369002670, -0.0512889214, 0.0049394779, 0.0958099291, 0.0151216444, -0.0440274850, 0.0780946836, -0.0334002413, -0.0128451204, 0.0002123025, -0.0231050048, -0.0310182385, -0.0132331885, -0.0133794695, -0.0293392390, 0.0692041889, -0.0615982935, -0.0364183560, -0.0236995332, 0.0443581603, 0.0335330069, -0.0250296611, 0.0971255600, 0.1146413237, -0.0225544106, 0.0009390602, 0.0331850648, -0.0290941447, -0.0448791310, -0.0502727591, -0.0167140588, 0.0799169391, 0.0128989955, 0.0124511700, 0.0100577846, 0.0211537890, -0.0637223050, 0.0255338605, -0.0100737773, -0.0530239567, 0.0719891042, -0.1426067203, 0.0854232237, 0.0307419486, -0.0134854950, 0.0175624583, 0.0109644886, 0.0853403285, -0.0245120786, 0.0187008455, -0.0591748543, 0.1631766260, 0.0176482089, 0.0545088500, 0.0244065486, -0.0219752584, 0.0419655666, 0.0253085084, -0.0309741832, -0.0212087855, 0.0043496634, -0.0196918063, -0.0191523377, 0.0405280627, -0.0335496888, 0.0059439447, 0.0456787385, 0.0792597085, -0.0264194105, 0.0828304067, 0.0132642305, 0.0132285440, -0.0198223405, 0.0030807895, 0.0457742326, -0.0592020750, -0.0601236410, 0.0199643727, 0.0345698409, 0.0948940441, -0.0218962673, -0.0442642644, 0.0310388487, -0.0168345291, -0.0570100620, 0.1478137821, 0.0578448400, 0.0385691784, -0.0048798779, -0.0583766326, -0.0314709917, -0.0548333712, -0.0006724293, -0.0253422670, -0.0871484801, -0.0626209378, 0.0540828928, -0.0012127954, -0.0506167710, 0.0477226377, -0.0132620325, 0.0345872603, 0.0875264406, 0.0285638217, 0.0331342258, -0.0044862148, 0.0526990108, 0.0204164498, 0.0124411751, -0.0633585975, -0.0583801642, 0.0924808308, -0.0060086418, -0.0485190488, -0.0277736299, 0.0191633850, 0.0344853066, 0.0124263130, 0.1261707991, 0.0164592192, 0.0885282233, 0.0001041428, 0.0093857776, -0.0054942686, 0.0303115770, -0.0180510469, 0.0135976346, -0.0458584838, 0.0518776029, 0.0050387345, 0.0035555772, 0.0294821896, -0.0185124781, -0.0364565328, 0.0562937893, -0.0197660867, -0.0217677839, 0.0539378040, 0.0444964580, 0.0255616456, -0.0637954324, 0.0056561390, -0.0032353657, 0.0892064571, -0.0331546739, 0.0125534087, -0.0011444910, -0.0375265181, 0.0206996016, 0.0037079712, 0.1358428150, -0.0047563473, -0.0169207361, 0.0216118060, -0.0354665183, -0.0130446414, -0.0272400808, -0.0351681598, 0.0006064294, 0.0168736931, 0.0214632489, 0.0060653151, -0.0375397354, 0.0155888228, -0.0431136042, -0.0176815391, 0.0074774427, 0.0841769129, 0.0706153139, 0.0181714222, 0.0054189092, 0.0033809214, -0.0596527122, -0.0247690361, 0.0237693097, 0.0631838590, 0.0760250092, 0.0315521769, 0.0132532082, -0.0132462224, 0.0196357351, -0.0350452885, 0.0112303710, 0.0626918897, 0.0367172472, -0.0144065926, -0.0058338139, 0.0583535060, -0.0100002596, -0.0482912213, 0.0241758525, 0.0176892038, -0.0390189737, -0.0202616081, -0.0106224306, 0.0930981189, 0.0118227424, -0.0107249161, -0.0326912850, -0.0134461354, -0.0277963411, 0.0175168552, 0.0226270109, -0.0227493253, -0.0100411950, -0.0486083180, -0.0188417900, -0.0480472594, -0.0292630848, 0.0316725336, -0.0296889730, 0.0782968998, -0.0364002213, -0.0175715201, 0.0011151973, -0.0225230996, 0.0647619590, 0.0346860550, 0.0312605612, 0.0290494077, -0.0384062454, -0.0153030343, 0.0010534170, 0.0301697478, -0.0617700256, -0.0774239227, 0.0020425136, 0.0246314202, -0.0544299483, 0.0919167995, 0.0002587779, -0.0462543517, 0.0883765295, 0.0190355964, 0.0973209590, -0.0484266654, -0.0489584953, 0.0069936248, -0.0642805323, -0.0897267312, 0.0058486196, -0.0091286972, 0.0132373534, -0.1015217826, 0.0049526165, 0.1364228576, 0.0448192619, 0.1409843564, 0.0785750747, 0.0646746382, 0.0446514264, -0.0535156392, -0.0019117668, 0.0253179707, 0.0111095468, -0.0391240939, 0.0070004188, 0.0238124635, 0.0195004605, 0.0598159954, 0.0384962447, -0.0921746865, 0.0158285350, 0.0426086783, -0.0479427949, -0.0597899184, -0.0246460512, -0.0395110585, 0.0341461487, -0.0383954570, -0.0010718988, -0.0004146911, -0.0163285248, -0.0621320717, 0.0224400721, 0.0772701949, -0.0352064185, 0.0441827253, 0.0006964484, 0.0181635655, 0.0277194027, -0.0749941096, 0.0054697152, 0.0497766957, -0.0162783787, 0.0246818401, -0.0135091823, 0.0485248603, -0.0328432657, 0.0005149635, 0.0508155897, -0.0299458895, -0.0338364691, 0.0716244653, -0.0090541206, -0.0618990287, 0.0887650624, -0.0113488836, 0.0722041428, -0.0684501454, -0.0065809060, 0.0554425046, 0.0407984592, 0.0398013704, -0.0157733280, -0.0371964015, 0.0398674086, 0.0236532614, -0.0096333995, 0.0635151789, 0.0325654410, -0.0618948862, -0.0248472970, 0.0279326811, -0.0491226912, 0.0314873718, -0.0567501634, 0.0349773504, -0.0220450182, -0.0289751496, 0.0294443574, 0.0693207085, -0.0011197611, 0.0007646468, 0.0142978597, 0.0535623133, -0.0207946207, 0.0323284194, -0.0467714109, 0.0898097456, 0.0207436327, 0.0097149005, 0.0044548935, -0.0457656533, 0.0027667733, 0.1438844800, 0.0581010394, 0.0036247964, 0.0354794450, 0.0634999871, 0.0288535617, -0.0036700591, 0.0950046927, 0.0099757630, -0.0734743178, -0.0316822566, -0.0304193422, -0.0501593165, -0.0550628379, 0.0538018383, 0.0145427827, -0.0468139835, 0.0297231432, -0.0065217665, -0.0318514928, -0.0208656397, 0.0434905551, 0.0055994238, 0.0680514649, 0.1004252508, -0.0536301397, 0.0971554145, 0.0960866138, -0.0759283751, -0.0361011028, -0.0540747717, 0.0049089924, 0.0225142501, 0.1200253069, -0.0564868748, -0.0559287928, 0.0421792418, -0.0271314681, 0.0140212346, 0.0263283029, -0.0268331040, 0.0766939148, -0.0851454139, -0.0255206488, -0.0090008136, -0.0382145122, 0.0268268622, 0.0021299494, -0.0947901905, 0.0316030346, -0.0247114729, 0.0255539417, 0.0230305456, 0.0427401364, -0.0366095044, 0.0020739061, 0.0195007380, -0.0188210793, 0.0143459197, 0.0816139430, -0.0423340052, -0.0668380186, 0.0081458474, -0.0594577268, 0.0446569137, 0.1150168851, 0.0425184704, 0.0254499018, -0.0540222190, 0.0419080406, 0.0453232192, 0.0860994011, -0.0153376469, -0.0023299889, -0.0182268191, 0.0126103451, -0.0350080840, -0.0154508045, 0.0304667745, -0.0219303071, 0.0614676699, 0.0288049281, -0.0076203253, 0.0397501811, 0.0406737030, -0.0582545213, -0.0143095618, -0.0296442732, 0.0567403808, 0.0070117679, 0.0530821569, 0.0143595319, 0.0121416599, 0.0493390523, 0.0269009434, 0.0176036991, 0.0611152537, 0.0212751031, 0.0113691017, -0.0060558999, -0.0230370294, -0.0665160045, 0.0528165363, 0.1719793230, 0.1729161888, -0.0338616744, -0.0205639824, -0.0335559025, 0.0332977138, 0.0364792906, 0.0138164498, -0.0192812923, -0.0362014286, 0.0462903120, 0.0713438615, 0.0229489263, -0.0059725707, 0.0476443060, 0.0583395921, -0.1119305491, -0.0598023087, 0.0451533608, 0.0010228301, 0.0524865463, -0.0698940605, 0.0255084131, 0.0118173193, -0.0225537680, 0.0432840250, 0.0554814637, 0.0145137589, -0.0536302254, -0.0359114707, -0.0216979086, 0.0276607201, 0.1098974273, 0.0796802863, -0.0444716550, 0.0154313380, 0.0668809637, 0.0330974795, 0.0462126918, 0.0171432607, 0.0286931638, -0.0000143581, 0.0349466801, 0.0888515338, -0.0411982127, 0.0066810995, -0.0693695024, -0.0130241644, -0.0030936678, -0.0703885332, 0.0175603926, -0.0274263322, 0.1071596444, -0.0769016668, -0.0127872843, -0.0679733530, -0.0128496867, 0.0276375152, 0.0396321788, -0.0123501150, -0.0439621732, 0.0330031104, 0.0036112228, 0.1021633223, 0.0375878960, -0.0181557853, 0.0005255424, 0.0307901669, -0.0667242482, -0.0567505322, -0.0525981449, 0.0143662877, -0.0413658135, -0.0064275740, 0.0411807746, 0.0167458560, -0.0197406299, 0.0604132712, 0.0067801811, -0.0496139228, 0.0116890799, -0.0827547014, -0.0436812155, 0.0254693925, 0.0077415402, -0.0991574004, 0.0038487881, -0.0057377638, 0.0001976800, 0.0186500289, -0.0142880436, -0.0634394884, -0.0149317682, 0.0432485528, -0.0378240347, 0.0446616411, 0.0283469893, 0.1012878865, 0.0103133284, -0.0437224545, 0.0636317357, 0.0501613170, 0.0316364989, -0.0124101974, 0.0128346030, -0.0434748828, -0.0187239591, -0.0118334023, 0.0166599788, -0.0730823800, -0.0560613796, 0.0182874016, 0.0036271277, -0.1309766173, -0.0519015975, 0.0131274760, 0.0903973281, -0.1374088228, -0.0044774981, -0.0319916792, -0.0686041787, 0.0912534520, 0.0287259351, -0.0532306246, 0.0518823043, 0.0140042827, 0.0159682315, 0.0408853404, 0.1131187528, 0.0493277535, 0.0468661524, -0.0370692089, 0.0198895130, 0.0271150358, -0.0115003185, 0.0184188820, -0.0155710224, 0.0045271995, -0.0441646427, 0.0513243377, 0.0303652957, -0.0489508696, 0.0321547464, 0.0756814331, 0.0371239111, -0.0066607776, 0.0229270067, 0.0292477366, 0.1360310167, -0.0335969441, -0.0447247177, 0.0549559481, 0.0331920534, 0.0142645789, 0.0328750275, -0.0509178378, 0.0050209775, -0.0056012562, 0.0612831712, -0.0340955928, 0.0614269488, -0.0338737704, 0.0801253691, -0.0965165123, -0.0002834234, 0.0130581670, 0.0123843094, 0.0503475852, 0.0985627770, 0.0114183864, -0.0370138846, 0.0113265449, -0.0373324566, -0.0506493673, -0.0125384424, -0.0396575741, -0.0224795602, 0.0225191675, 0.0285481513, 0.0883495286, 0.0633399636, -0.0831454024, 0.0161491595, 0.0248686019, 0.0182043593, -0.0205263812, 0.0884012207, -0.0530619510, 0.0403966270, 0.0138146039, 0.0571556203, 0.1155789569, 0.1585871726, 0.0388407521, 0.0885030776, -0.0761289448, 0.0400877483, -0.0275745504, -0.0103456080, 0.0311989300, 0.0470288210, -0.0096114026, -0.0326283984, -0.0041247895, -0.0001576959, 0.0017403088, -0.0601053126, -0.0219082441, 0.0609536842, -0.0506831370, 0.0054840250, 0.0386796482, 0.0707651228, -0.1187166423, 0.0086078253, -0.0138455974, -0.0615485571, 0.0136816716, 0.0370430090, -0.0622488558, 0.0026842956, -0.0645148754, -0.0449048392, -0.0155494865, 0.0565652624, -0.0519077517, -0.0231618714, 0.0809567049, -0.0644819811, 0.0069533130, 0.0479715765, 0.0495716743, -0.0652415007, 0.0679863393, 0.0057770712, 0.0263903551, -0.0183265470, 0.0773357525, 0.0197072979, -0.0252287984, -0.0552325808, 0.0636021644, 0.0241670590, 0.0993147939, 0.0308842473, -0.0559352972, 0.0369942561, -0.0308780018, 0.0223311242, 0.0595035926, 0.0294250529, 0.0402804427, 0.0222283006, 0.0326667838, 0.0092560817, 0.0161654558, 0.1009278297, 0.0504101180, -0.0927233994, 0.0286810920, -0.0453058369, -0.0114388699, -0.0455133542, -0.0381147936, 0.0014428138, -0.0727274343, -0.0084808366, 0.0153030278, -0.0533901043, -0.0653148293, -0.0329933390, -0.0722990185, 0.0627742410, -0.0560338832, -0.0128643056, -0.0033081803, -0.0568071231, -0.0956245363, -0.0492017865, -0.0008315582, -0.0199381690, 0.0489463806, 0.0121213738, 0.0435433015, -0.0450710654, 0.0049669798, 0.0471427813, -0.0139671918, -0.0088810716, 0.0914543718, -0.0257204100, 0.0974171534, -0.0154357376, -0.0526575372, 0.0119352154, 0.0072012655, 0.0676565096, 0.0288463794, -0.0208161101, -0.0192776565, -0.0318810120, 0.0413391441, 0.0256650988, 0.0282915682, -0.0219235457, -0.0626389831, -0.0210685916, -0.0484551564, 0.0953971297, -0.0673878565, 0.0310257673, 0.0106839668, -0.0061846217, -0.0620531589, 0.0886456296, -0.0588607639, -0.0150015689, 0.0889589489, -0.0184656028, 0.0969645008, 0.0299391951, 0.0556700602, -0.0050319317, -0.0354854986, -0.0199495871, -0.0319217443, -0.0261469893, -0.0502870381, 0.0707097575, 0.0171093494, 0.0088423435, 0.0113808587, 0.0212067030, 0.0122547019, 0.0184572469, 0.0422020219, 0.0470891781, -0.0880215839, -0.0379430987, -0.0300537478, -0.0426871702, -0.0735897124, 0.0565279052, -0.0294328909, -0.0573039278, -0.0158150680, 0.0359847695, 0.0041651339, 0.0059361621, 0.0466889516, 0.0159035753, -0.0352059677, 0.0250542685, 0.0331250206, 0.0628929362, -0.0112967845, 0.0062477398, 0.0201491378, -0.0330846794, 0.0172796659, -0.0220857225, -0.0222052969, 0.0121208131, 0.0910360143, -0.0521053895, -0.1087207720, 0.0349940658, 0.0868606344, 0.0656971782, -0.0523511432, -0.0429552421, -0.0301058814, 0.0313048176, -0.0214183405, -0.0356377661, 0.0075034816, -0.0343249068, 0.0113042975, 0.0609218851, 0.0168028809, -0.0322918370, 0.0254674479, -0.0398761369, 0.0175675433, 0.1005383357, -0.0326839983, 0.0058627627, -0.0223413501, -0.0717535019, -0.0181651302, 0.0446154959, 0.0479993932, -0.0522520803, 0.0388655253, 0.0101390453, 0.0067927851, -0.0458144322, -0.0712687522, -0.0224048961, 0.0335515738, 0.0063444655, 0.0102651678, -0.0248766579, -0.0369418226, 0.0826389492, -0.0729157627, -0.0643343851, -0.0423373207, 0.0295712445, 0.0728899240, 0.0163849201, -0.0428482704, -0.0247274898, -0.0599624664, 0.0283768214, 0.0175964814, -0.0464652814, -0.0208560396, 0.0822613761, -0.1034748554, 0.0197449904, -0.0095267994, 0.0303113032, -0.0328490660, 0.0216625109, 0.1035367921, -0.0111963190, -0.0030220223, -0.0446752720, -0.0417170823, -0.0551603474, 0.0084577790, 0.0470861383, -0.0166241117, 0.0214792751, -0.0284694768, 0.1192655340, -0.0456838012, -0.0194948800, -0.0181345884, 0.0352280848, 0.0518398955, -0.0209735371, 0.0263265744, 0.0269111879, -0.0310100280, 0.0707435384, 0.0607417636, 0.1024640128, 0.0359194130, 0.0480469763, -0.0256530382, -0.0092696706, 0.0446785055, -0.0621675178, 0.0058775134, 0.0257402770, 0.0798712596, -0.0119297747, 0.0085597681, -0.0530433916, -0.0088718683, 0.0501817279, 0.0422497280, 0.0304333866, 0.0114891957, 0.0882356986, -0.0796181187, 0.0250514671, -0.0765967667, 0.0285454430, -0.0048239548, 0.0440848060, 0.0664421991, 0.0632954612, -0.0078849401, -0.0617822893, -0.0205572657, -0.0067259264, 0.0263702124, 0.0533586331, 0.0138269113, 0.0781147107, 0.0271659605, 0.0203047097, 0.0490141660, 0.0183879621, 0.0330474824, 0.0353491902, 0.0462614857, -0.0042103142, 0.0497797653, -0.0225916691, 0.0020341941, 0.0127289789, -0.0112938415, 0.0316110477, 0.0147970328, 0.0688967630, 0.0922430009, 0.0492848419, -0.0439318195, -0.0435456224, -0.0145073561, -0.0652066171, -0.0136323245, -0.0456502959, -0.0454816669, 0.0056966799, 0.0745009780, 0.0309739374, 0.0310102161, 0.1509680152, 0.0596171543, -0.0418409184, -0.0172703061, -0.0265299827, -0.0635296479, 0.0190636870, -0.0304548368, 0.0413886048, 0.0126037747, -0.0608762577, 0.0444205366, -0.0610933453, -0.0089716464, -0.0279289633, -0.0352574363, 0.0875413194, -0.0463827588, 0.0437286794, -0.1212263405, 0.0201445725, -0.0870496556, -0.0451911353, 0.0247038435, -0.0320826992, -0.0376259647, 0.0661800355, 0.0045446968, 0.0106089748, -0.0260546543, 0.0408756770, 0.0785832778, 0.1307140440, 0.0888043717, -0.0007095328, 0.0926670581, 0.0051663797, 0.0130452616, -0.0611040182, -0.0233186074, 0.0229275748, 0.0416439734, -0.0357119851, 0.0009061488, -0.0200012475, 0.0578231364, -0.0489940830, 0.0828456357, -0.0113182990, -0.0354854725, -0.0016366333, 0.0146120675, -0.0101984143, 0.0212398581, -0.0472265407, -0.0455245040, -0.0657978654, -0.0384179540, 0.0594144762, 0.0340911150, -0.0404767245, -0.0205725580, 0.0288176704, 0.0724083185, 0.1483678818, 0.0941448286, 0.0130183995, -0.0331061929, 0.0111798830, -0.0514434762, -0.0288806260, -0.0509177782, 0.0621715263, -0.0742313042, -0.0029247662, 0.0163963791, 0.0303052887, 0.0318578817, -0.0525937900, 0.0123406081, -0.0064596040, -0.0681053996, 0.0138574382, -0.0203017406, -0.0162451714, -0.0780806765, -0.0489207618, -0.0370110609, 0.0240312666, 0.0508230701, 0.0107262610, 0.0609079674, -0.0506160371, -0.0361979306, 0.0253510326, -0.0108537367, 0.1139862165, 0.0185060594, 0.0502767824, -0.0095262984, -0.0209746975, 0.0123881511, -0.0324183404, -0.0600115210, -0.0998325869, 0.0178902745, 0.0068320609, 0.0068423809, 0.0043225908, -0.0188073181, 0.0387200490, 0.0899321288, 0.0603532046, -0.0824983940, -0.0418022200, 0.0109655540, 0.0850742906, 0.0333096087, -0.0457979776, -0.0296326187, -0.0587809943, 0.0266784616, -0.0288788434, 0.0098198801, -0.0620672666, -0.0504798330, 0.0271621644, -0.0076116058, 0.1234193891, -0.0201922897, 0.0725089610, -0.0453689732, -0.0079588387, -0.0041359705, -0.0165307689, -0.0121700075, 0.0083646812, 0.0527360588, -0.0188153200, 0.0714804679, 0.0244702194, -0.1035997346, -0.0418768264, 0.0268902723, 0.0482946225, -0.0301751979, -0.0383193009, 0.0537334085, 0.0762266815, -0.0195595361, 0.0349399708, 0.0061309044, -0.0583433174, -0.0081297439, 0.0185036957, -0.0225985572, -0.0468020104, -0.1071698889, -0.0457331054, -0.0024378612, -0.0445311107, 0.0701725110, 0.0486768559, 0.0235937983, -0.0485260710, -0.0486996882, 0.0140511524, 0.0176546089, 0.0392630734, 0.0474054292, -0.0443232767, 0.0204870794, -0.0529121496, 0.0140712252, -0.0433876254, 0.0054053743, 0.0454653725, -0.0472656973, 0.1296075583, -0.0028442948, 0.0708195120, -0.0581963696, -0.0185338315, 0.0052943588, 0.0130401701, -0.0123728272, -0.0514696874, -0.0107571054, 0.0456899516, -0.0111999344, -0.0176412724, 0.1621394455, 0.0890388191, 0.0140786543, 0.0584292971, 0.0244693160, 0.0407354049, -0.0038382881, -0.0145443790, 0.0148224570, 0.0099668764, -0.0775269270, 0.0404667594, 0.0282338075, -0.0325945392, -0.0751246437, -0.0010827444, 0.0212559272, 0.0247373804, -0.0270592738, 0.1107484251, -0.0730633363, 0.0790162832, -0.0636708811, 0.0079299575, 0.0135897677, -0.0198113937, -0.0243371949, -0.0336343274, -0.0300922971, 0.0030415133, -0.1100362390, 0.0460181423, 0.0534644090, 0.0226047598, 0.0086267190, -0.0129541438, 0.0769553185, -0.0490750447, 0.0332055427, -0.0170888100, -0.0066022524, -0.0425638668, 0.0007361256, -0.0351769850, -0.0905085728, -0.0136970691, 0.0069034174, -0.0365889482, 0.0267907698, 0.1094196886, 0.0554006845, 0.0089051453, 0.0616441742, 0.0754636750, 0.0070827696, 0.0369027890, -0.0556923896, 0.0397392176, 0.0205656737, 0.0165053401, 0.0464843400, -0.0202976465, 0.0740139484, 0.0342229828, 0.1487969011, 0.0306794848, 0.1082659140, 0.0169933904, -0.0028669373, -0.0198501982, 0.0107039902, 0.0155711249, -0.0256738327, 0.0518805198, -0.0497671254, -0.0077015474, -0.0322255231, 0.0511706509, 0.0175147057, 0.0195182823, -0.1505830139, -0.0269177109, -0.0253366269, 0.0385294221, -0.0950825885, 0.0285368152, -0.2021881342, 0.0135522531, -0.0465774164, -0.0297960546, 0.0885347351, 0.0001280387, -0.0591029935, -0.0563763306, -0.0168285854, 0.0001724926, 0.0161612798, 0.1447712928, 0.0122367069, 0.0503101461, 0.0487594679, -0.0047728210, -0.0393295512, 0.0167231318, 0.0163990743, -0.0698527694, 0.0176920183, 0.0134243332, 0.0451071747, -0.0214296672, 0.0528603010, 0.0097684674, 0.0427911766, -0.0938090757, -0.1049309075, -0.0474840291, -0.0719070137, 0.0318399705, -0.0244435463, -0.0095348386, -0.0058257878, 0.0523434058, 0.0830991864, 0.0289390460, 0.0096541112, 0.0516469665, -0.0334632732, -0.0520882793, 0.0731633827, 0.0872291774, 0.1461176425, 0.0374854356, -0.0332131535, 0.0400371812, -0.0068196785, 0.0272639915, 0.0085257255, 0.0309375320, -0.0962324664, -0.0117382994, 0.0454509482, 0.0197473802, 0.0172873680, -0.0303282458, -0.0467491597, 0.0102310702, -0.0678530484, -0.0699971840, -0.0508984290, -0.0757604465, -0.0322979614, -0.0193321295, 0.0189669020, -0.0651506037, 0.1067330986, 0.0140105886, 0.0149818929, 0.0278586112, -0.0015594998, -0.0644900426, 0.0690156221, 0.0639091879, 0.0331360176, -0.0227607135, 0.0034766740, -0.0475469641, 0.0223537460, -0.0267385524, 0.0445365869, -0.0144141698, -0.0260444675, -0.0377016813, 0.1400695890, -0.0340691209, -0.0604311265, -0.0532212593, 0.0297399461, 0.0149719678, -0.0875992402, -0.0068822242, 0.0098383054, -0.0304794926, 0.0129947150, 0.0464234762, 0.0462367684, -0.0196760371, 0.0025262949, -0.0266193952, 0.0395340919, -0.0172008313, -0.0469240099, -0.0036825014, 0.0625373945, 0.0447028242, 0.0478155166, -0.0091584558, -0.0060815131, -0.0425255708, 0.0268774461, -0.0078244023, 0.0105902394, -0.0650434047, 0.0372442007, -0.0776815563, 0.0685250089, -0.0169278681, -0.1013403237, 0.0424501412, 0.0188961253, 0.0381477140, 0.0204044953, 0.0052235634, 0.0028137299, 0.0126457382, -0.0316302925, -0.0276137758, -0.0112691354, -0.0439813063, 0.0301603507, 0.0011094258, 0.0280956551, -0.0241176989, -0.0590058602, -0.0260566436, 0.0505122878, 0.0254577845, 0.1260267645, -0.0245528035, 0.0452021807, -0.0365707204, -0.0569504797, -0.0044127717, -0.0268420335, 0.0679086298, 0.0791410059, 0.0115060154, 0.0619429573, 0.0235149991, -0.0957017541, 0.0047892146, -0.0472957268, 0.0683785602, 0.0820298865, 0.1550670862, 0.0056099920, 0.0758918300, -0.0059760613, -0.0462121032, 0.0213302374, 0.0176008493, 0.1500770599, -0.0303718615, 0.0424596518, 0.0331689529, -0.0653388947, 0.0116699971, 0.0722591430, 0.0831363052, 0.0970012248, 0.0546305664, -0.0330101885, -0.0438098274, -0.0434431694, -0.0272978619, -0.0248750001, 0.0330889151, -0.0063804262, -0.0585701019, -0.0123315705, 0.0574587844, -0.0524914190, -0.0412033759, -0.0366587415, 0.0924315527, -0.0130969174, 0.0874906257, -0.0792307332, 0.0554586537, 0.0373476930, 0.0192907639, 0.0574720614, 0.0515771061, 0.0787662268, 0.0215355624, -0.0399048068, -0.0009482125, -0.0775114000, -0.0006204665, 0.0115836691, 0.0438954867, 0.0540170521, -0.0236994997, -0.0034257176, -0.0123614026, 0.0011570107, 0.0309366472, 0.0078313053, -0.0282788649, -0.0326668955, -0.0141128944, -0.0454101264, 0.0448591150, 0.0234724879, -0.0004563020, -0.0056024948, 0.0269041099, 0.0685261339, 0.0092365909, 0.1699995100, 0.0421003960, -0.0294062924, 0.0497622006, -0.0460085757, 0.0303213671, 0.0657626167, 0.0528341644, -0.0633666441, -0.0326393843, 0.0282788239, 0.0082945973, 0.1188800335, 0.0114916712, 0.0608394742, 0.0783030912, 0.0530974306, -0.0601343177, 0.0204964150, 0.0103390915, 0.0047054477, 0.1176160872, -0.1384691298, 0.0466158465, -0.0506509133, 0.0156622268, -0.0061992779, -0.0193117000, -0.0028654102, 0.0840910524, 0.1064017341, 0.0688719377, -0.1223352775, 0.0358691067, -0.1168690845, -0.0251617897, -0.0050570378, -0.0219439603, 0.0388829038, 0.0315473638, 0.0071605803, 0.0055081062, -0.0273383800, 0.0309347883, 0.1374633908, 0.1113306209, 0.0723954290, 0.0634236634, 0.0801149458, -0.0502501316, 0.0573535971, -0.0142038465, 0.0312476195, 0.0034623742, 0.0306887105, -0.0629422888, -0.0688663423, -0.0337502100, -0.0056271888, 0.0213139448, -0.0489013493, -0.0422107503, -0.0791735202, -0.0464087762, -0.0357527845, -0.0102045955, -0.0836662278, -0.0372695699, -0.0623974241, 0.0064557139, 0.0773253590, -0.0070299744, -0.0046164892, 0.0141485892, 0.0543374605, 0.0503174290, 0.1333043128, 0.0678883865, 0.0601244681, 0.0555718690, 0.0602587573, 0.0206117276, -0.0119084874, -0.0178417973, 0.0388070829, 0.1306108832, -0.1310109496, 0.0582282804, 0.0441751890, 0.0130911684, 0.0692949891, 0.0039045149, 0.0283861849, 0.0597548187, -0.0001175055, 0.0195448976, -0.0424802601, 0.0038800386, -0.0605140626, 0.0114386352, 0.0346399993, -0.0294165965, 0.0573401228, -0.0226022378, 0.0502712019, -0.0329060107, -0.0504134260, 0.0266221631, -0.0064913612, 0.0512229763, 0.0415279008, -0.0482359752, -0.0428060219, 0.0171521381, -0.0486415960, 0.0102712987, 0.0504383855, -0.0232650340, 0.0479344279, -0.0539237708, 0.0825032145, 0.0379456840, -0.0656165928, 0.0244834367, -0.0299771652, 0.1082609072, 0.0003411389, -0.0060507306, -0.1150711924, 0.0111082001, 0.0453428626, -0.0610979460, 0.0384787917, -0.0393804796, 0.1147292033, -0.0661371946, -0.0215441529, 0.0364641547, -0.0168162696, 0.0194630064, -0.0301571917, 0.0556962788, 0.0611707792, -0.0203061085, -0.0281123370, -0.0194346290, 0.0157068074, -0.0158329513, -0.0043065473, 0.0410063528, 0.0284081232, -0.0607241765, 0.0902850181, -0.0013497751, 0.0145958541, 0.0304430537, 0.0193109419, 0.0138081983, 0.0548363477, 0.0449316464, -0.0449721292, -0.0026966252, 0.0338948518, -0.0535849817, -0.0151546923, 0.0490193740, 0.0849388838, 0.0513435379, -0.0118498495, -0.0081552193, -0.0894119292, 0.0449670702, 0.0847526789, 0.0793082714, 0.1104337722, -0.0512630641, 0.0795647576, -0.0671512783, -0.0593546443, -0.0192315299, 0.0112724239, 0.0686573386, -0.0107624941, -0.0166876335, -0.0558892302, 0.0336465836, 0.0564095713, 0.0316973776, -0.0987170562, 0.1115947887, 0.0589406416, 0.0445241593, 0.0084305760, -0.0020730861, 0.0054889219, -0.0053916746, 0.0060969950, -0.0020102123, 0.0739654079, -0.0030519734, 0.0095480355, -0.0526345000, -0.0224372782, 0.0121614030, 0.1119589210, 0.1438084692, 0.0744748786, -0.0574453026, -0.0107563110, -0.0106765637, -0.0092867222, -0.0425062217, -0.0252732486, 0.0818944424, -0.0085206488, -0.0038985729, -0.0520971417, 0.0403734855, 0.0067156106, -0.0271366984, -0.0665755644, 0.0113126663, 0.0252832007, 0.0005606949, 0.0656211302, -0.0069880811, 0.0683892444, 0.0443761982, -0.0103818066, 0.0565044545, 0.0821013749, 0.1020099968, -0.0111848740, -0.0038997345, 0.0189170763, 0.0342867449, -0.0223440360, -0.0211788584, 0.0351984948, -0.0259374212, 0.0380985923, -0.0099780019, -0.0534912683, 0.0247126296, 0.0134145906, -0.0289125219, 0.0009404371, -0.0286726560, -0.0412164442, -0.0090974765, 0.0150654949, -0.0037032785, 0.0440472104, 0.0405360758, -0.0265507717, 0.0537159704, 0.1004509628, -0.0033803654, 0.0173810106, -0.0567188412, -0.0584061816, -0.0208328608, 0.0343922302, 0.0889343470, -0.0538766943, -0.0090106064, 0.0601209998, -0.0237942729, 0.0815258175, 0.1529490799, 0.0098282080, 0.0323093012, -0.0493950620, 0.0437368415, -0.0009707463, -0.0337170698, 0.0014373101, 0.0925383344, -0.1097667590, -0.0708997920, -0.1020470187, 0.0503910221, 0.0264583528, -0.0391702466, -0.0216932520, 0.0001061540, -0.0663947463, 0.0101017747, 0.0416701660, 0.1108060181, -0.0287360810, 0.0278858747, -0.0338189192, 0.0326611437, 0.0019970865, 0.0328237787, 0.0415398590, -0.0438888818, -0.0737838447, -0.0441974699, 0.0275975037, 0.0285497773, 0.0454744473, 0.0981388167, 0.0238775630, -0.0423115902, -0.0445366502, -0.0544910617, 0.0198842473, 0.0887377337, -0.0123395259, 0.0142234862, 0.0400381722, 0.0449431017, 0.0795233771, -0.0251520500, 0.0422723256, -0.0130115151, -0.0345969833, 0.0199489836, -0.0774399638, 0.0101034343, -0.0406163670, 0.0416917354, 0.0219904669, -0.0281642117, 0.0608952902, -0.0284365006, -0.0552876480, 0.0256866328, -0.0166417584, 0.0281492081, -0.0022621644, 0.0674947128, 0.0268340670, 0.0714309216, 0.0025851561, 0.0050254101, 0.0000304646, -0.0462037958, 0.0340014435, 0.1363332719, -0.0688807741, -0.0329682529, -0.1096384972, -0.0204057954, 0.1188757494, -0.0548824780, -0.0406924300, -0.0397272371, 0.0198391117, -0.0412318856, -0.0914595872, -0.0076766270, 0.0009235804, -0.0512044318, -0.0596222766, 0.0010020464, 0.0724620223, -0.0899873450, -0.0516448580, -0.0578912832, -0.0097058164, -0.0263810828, 0.0165059138, -0.0515052341, 0.0185137931, 0.0248726141, 0.0041627442, 0.0444351174, -0.0304439906, 0.0240815431, 0.0187344961, 0.1097321436, 0.0635758936, 0.0285881236, 0.0801369473, 0.0274552833, 0.0224828329, -0.0587087460, -0.0390869416, 0.1149657741, 0.0045247264, 0.0788304135, -0.0548900403, 0.0710092187, 0.0724611953, -0.0707859769, -0.0214875620, -0.0568008423, 0.0747750103, -0.0470771044, -0.0133054797, -0.0404107869, -0.0369742438, -0.0102073988, -0.0364950970, 0.0061427969, 0.0927000567, -0.0834146068, 0.0341912173, -0.0364413485, 0.0091860462, 0.0077130594, -0.0053543132, 0.0737831220, 0.0020891433, -0.0101151271, 0.0141608091, -0.0134721445, 0.0546642207, 0.0340434834, -0.0305875819, 0.0003394415, 0.0531802103, 0.0058881505, -0.0663074031, 0.0290613826, 0.0722690523, 0.0361183882, 0.0626759678, 0.0117022293, 0.0414232388, 0.0262737498, -0.0012555730, 0.0065958258, -0.0745387822, 0.0493208058, 0.0596406944, 0.0331739374, 0.0170972589, 0.0321007967, 0.0209973026, -0.0577842109, 0.0196900722, -0.0407824330, 0.0055620796, 0.1297334135, 0.0338068083, -0.0069471425, -0.0148477657, -0.0546909310, 0.0193567481, -0.0084270639, -0.1179641038, 0.0906493813, 0.0354409106, 0.1091394871, 0.0300535187, -0.0272249971, -0.0437248312, -0.0444137119, -0.0346117504, 0.0003599129, 0.0106361769, -0.0306912251, 0.0480527692, 0.0208019577, -0.0664298981, 0.0146949803, 0.0738752708, 0.0561087728, 0.0432934240, -0.0573165528, 0.0135253854, 0.0286744144, -0.0508315600, 0.0485626720, -0.0189448074, 0.0448463298, -0.0321228132, -0.0623483993, 0.0138559304, 0.0586586483, 0.1269795746, 0.0502285957, -0.1142902374, 0.0973695219, -0.0494742617, 0.0924142376, -0.0505935214, 0.0150548834, -0.0778791085, 0.0146017503, 0.0417065956, 0.0529835671, 0.0370477699, 0.0102892583, 0.0288651735, -0.0041827145, -0.0894452706, -0.0417243950, 0.0300289746, 0.0526098013, 0.0406305194, -0.0336439312, 0.0799103007, 0.0205866061, -0.0549058467, -0.0512617230, 0.0135637261, -0.0120649450, 0.0135534070, -0.0466044210, 0.0201927330, 0.0550045297, -0.0780289546, 0.0325772464, -0.0395287015, 0.1084736437, 0.0467357226, 0.0592555068, 0.1168977469, 0.0774610043, -0.0243670326, 0.0129984394, -0.0063323434, 0.0045404551, -0.0469346792, -0.0556583442, -0.0491379723, 0.0536752716, 0.0215515289, 0.0360041000, 0.0183834583, 0.1420655251, 0.0570439696, -0.0643332154, -0.0284213014, 0.0269659739, -0.0334010199, 0.0526578501, 0.0332375281, 0.1350764483, -0.0899598747, 0.0262917634, -0.1220503375, -0.0100437142, 0.1459236145, 0.0158624761, 0.0242708139, -0.0396684818, 0.0081761703, 0.0219264068, -0.0835756958, 0.0540591925, 0.0144724110, -0.0122564146, -0.0136972191, -0.0602096543, -0.0132245971, -0.0058421013, -0.0082106814, 0.0278928541, 0.0048707644, -0.0519148149, 0.0669169873, 0.0085269511, 0.0331780352, -0.0514834747, -0.0475572795, 0.0040881811, 0.0438151285, 0.0036468245, 0.0294286497, 0.0531072505, 0.0213641617, -0.0024665215, 0.0520041622, -0.0569955371, 0.1318006217, -0.0604868457, 0.0671644509, 0.0000526394, -0.0171983317, -0.0265647750, -0.0488674268, -0.0142187690, -0.0454132743, 0.0442933030, -0.0209237207, -0.0359149985, 0.0028810301, -0.0406907871, 0.0553013943, -0.0152952215, -0.0759539306, -0.0286317933, 0.0707362071, 0.0553928465, 0.0723790675, 0.0330182835, -0.0338320769, -0.0152890747, 0.0179423988, 0.0025098012, 0.0049871467, 0.1942409724, -0.0328600332, -0.0034723664, -0.1681987494, 0.0256824698, 0.0424266718, 0.0045411685, -0.0105265966, 0.0582743399, -0.0417684540, -0.0127154067, -0.0335534960, 0.0382957235, 0.0319013521, -0.0654018968, -0.0331939384, 0.0454680808, 0.0262319036, -0.0447741002, 0.0315075293, 0.0288526658, -0.0518209748, -0.0324047655, -0.0077630966, 0.0433134623, 0.0354041234, -0.0089820344, -0.0108217159, 0.0245439485, 0.0158748049, 0.0419751965, 0.0101981498, 0.0312208738, 0.0397505648, -0.0748005435, 0.0412024781, 0.0493868776, 0.0358575843, 0.0186289623, -0.0222587064, 0.0013442332, -0.0479382575, -0.0148687949, -0.1184054464, -0.0047344295, 0.0492749177, -0.0165644959, -0.0377503075, -0.0661831498, -0.0262895338, -0.0140574835, 0.0495715924, 0.0264771525, -0.0952105075, 0.0439988188, 0.0572979599, 0.0465387516, 0.0488009229, -0.0378635637, 0.0561609417, 0.0362859517, -0.0595418662, -0.0098420912, 0.0168585982, 0.1009325609, 0.1030970737, -0.0490274802, 0.0986519679, 0.0090548685, -0.0387869813, 0.0318718515, -0.0146120377, -0.0365897492, 0.0564498864, 0.0558628067, -0.0998289064, 0.0585762747, -0.0346088000, -0.0220037103, 0.0111383097, 0.0212282185, 0.0679184869, 0.0207147542, -0.0420386679, 0.0407875068, -0.1056024879, -0.0382654592, 0.1201855689, -0.0156943463, 0.0789519846, -0.0424442515, 0.0862490460, 0.0173231084, 0.0369109064, -0.0193226822, 0.0343585536, 0.0577275120, 0.0167170949, -0.0335524045, 0.0533052757, -0.0387527980, 0.0232551936, -0.0262201242, -0.0342999473, -0.0317533836, 0.0302554742, 0.0607566237, -0.0924596414, -0.0437483452, 0.0465616584, -0.0074468930, 0.0238774121, 0.0239597727, -0.0448936298, -0.0562456772, -0.0604845136, 0.0197671540, 0.0527056158, 0.0383137688, 0.1056081131, 0.0967740044, 0.0221784376, 0.0413551740, 0.0235308595, 0.0230932981, 0.0259460732, -0.0362477638, -0.0116715208, 0.0869014263, -0.0378974713, 0.0099455044, 0.0516873747, 0.0383651145, 0.0881735906, -0.0608602092, -0.0130093163, 0.1034757569, 0.0200432744, 0.1241746247, -0.0902570710, 0.0075521590, -0.0947428793, 0.0383878723, 0.0381356068, 0.0511663519, 0.0162260197, 0.0184622407, 0.0107854260, 0.0392725952, -0.1251117885, -0.0043228292, 0.0293909721, -0.0284675825, -0.0341763534, -0.0127042690, 0.0896579474, -0.0041671162, -0.0222330019, -0.0136080701, -0.0592197701, -0.0306440499, -0.0071953842, -0.0293998644, 0.0126965865, -0.0030531243, -0.0299893934, 0.0417982526, -0.0150309810, -0.0217637010, -0.0360927545, 0.0606180653, 0.0599532574, 0.0013838434, 0.0598904714, -0.0067887651, -0.0509483293, 0.0302528441, 0.0335549153, 0.0045178835, 0.0553521663, 0.0237253793, 0.0433298238, 0.0205301102, 0.1124521494, -0.0503726229, -0.0358814299, 0.0616581924, -0.0358194783, -0.0280942135, 0.0319787711, 0.0361022353, 0.0124581866, 0.0983795971, -0.0280759875, 0.0440915339, -0.1024349779, 0.0403552614, 0.1170542017, 0.0051121227, -0.0141918855, 0.0714778006, -0.0419664420, 0.0162756089, -0.1024062037, 0.0316856578, -0.0250628311, 0.0483202823, -0.0105574615, 0.0451224484, 0.0064316825, 0.0080853347, -0.0403352641, 0.0112209208, 0.0059859711, -0.0161215682, -0.0600775965, 0.0189517383, -0.0002814298, 0.0039531686, 0.0711980239, 0.0573929548, -0.0184367429, -0.0395641290, 0.0050013065, 0.0684407800, 0.0911197215, -0.0424793139, -0.0376621895, -0.0338796712, -0.0343536176, -0.0489707850, 0.0819255337, -0.0490323119, -0.1714310795, -0.0334572569, -0.0643003061, -0.0093184896, 0.0666391328, 0.0374932252, -0.0530668944, 0.0125012295, 0.1051928028, -0.0391637608, 0.0259336643, -0.0523904450, 0.0614622049, 0.0139052942, 0.0231865160, 0.0806675181, -0.0193054657, 0.0961896181, -0.0851464719, 0.0368434414, 0.0112902885, -0.0155057125, -0.0323186144, 0.1055544317, 0.0411519483, 0.0350762457, -0.1207334697, 0.0331863761, 0.0502514690, -0.0093084117, -0.0211148653, 0.0544713698, 0.0153529374, 0.1133536324, -0.0917977244, 0.0716843754, 0.0682600364, -0.0567387976, -0.0480486341, 0.0007169926, -0.0133001022, 0.0015256001, -0.0399983265, 0.0485756733, -0.0293336138, 0.0555693284, -0.0488808677, 0.0271073747, 0.0103577357, -0.0413989089, -0.0061778761, -0.0525487736, -0.0329158232, -0.0471288078, 0.0331461765, 0.1665398031, 0.1128062382, -0.0141294142, 0.0295237545, 0.0391219147, -0.0210504178, -0.0417473949, -0.0673795417, -0.0166187827, -0.0435554460, 0.0285115782, -0.2010919005, 0.0108385170, 0.0332980007, 0.0470347442, 0.0241609700, -0.0694315881, -0.0093699889, 0.0159079880, -0.0217352621, 0.0458274484, -0.0431994312, -0.0433195196, -0.0029286207, 0.0353467837, -0.0154229244, -0.1225166768, 0.0439201444, -0.0326396599, -0.0195457917, 0.0020105890, 0.0479106121, 0.0673272833, 0.1047456563, 0.0118713249, 0.1606263071, 0.0523305908, 0.0136836767, 0.0491534285, 0.0185047258, -0.0523284003, -0.0080654966, 0.0013968652, -0.0339069553, 0.0322270468, -0.0574107505, 0.0006342129, -0.0305056199, 0.0511870012, 0.0951931179, 0.0379119068, -0.0021701080, 0.0237124730, 0.0054257875, -0.0423723646, -0.0143323159, -0.0564474948, -0.0020524941, -0.0528595373, 0.0216303319, -0.0463323817, -0.0235088579, 0.0292463247, -0.0075186053, -0.0297390055, 0.0677240938, -0.0040364582, 0.0848274529, 0.0436242707, -0.0414402410, 0.0163668636, -0.0584446639, -0.0464777462, -0.0067027886, 0.0189196188, -0.0681069270, -0.0381777920, 0.0411337465, -0.0158464592, -0.0420610905, -0.0555805527, -0.0120324474, -0.0236014165, 0.0388834402, 0.0262931101, 0.0265011694, -0.0347674973, 0.0795340240, 0.0241857506, 0.0471364856, 0.0155167961, 0.0039373687, 0.0478908978, 0.0223478004, 0.0193862859, -0.0387892276, 0.0020809532, -0.0585885420, 0.0424484760, 0.0635823309, -0.0038290413, 0.0503967442, 0.0495877825, -0.0179177374, 0.0958003029, 0.0364812240, 0.0456531942, -0.0563154407, -0.0203487501, 0.0375276208, -0.0503213182, 0.0048116399, -0.0112999259, 0.1032195389, 0.0818606764, -0.0439303853, 0.0009737661, 0.0106865782, 0.0198345091, 0.1058962420, -0.0170975570, -0.0229036883, 0.0254760478, 0.0877885520, -0.0429597683, 0.0555671304, -0.0668616369, -0.0495770723, -0.0249036960, -0.0310330559, 0.0195967518, 0.0039563342, 0.0031243768, -0.0450829640, -0.0507133044, -0.0768180266, 0.0461442433, 0.0342642479, 0.0151696932, 0.0995019078, -0.0485829934, 0.0198949762, 0.0515694208, -0.0395775661, 0.0277245250, -0.0563072041, -0.0858112425, 0.0029292048, -0.0298941992, 0.0454005301, 0.0099310959, 0.0574204884, -0.0016658359, 0.0516754091, -0.0827187151, -0.0560695902, 0.0031843241, -0.0564075410, 0.0583911017, 0.0388291143, 0.0588244274, -0.0611867607, -0.0107018463, -0.0285595711, 0.0023183716, 0.0538443811, 0.0581876151, -0.0180453416, 0.0165984705, -0.0653902218, 0.0154302455, -0.0103006558, 0.0919277295, 0.0540385284, 0.0031974905, 0.0362708978, -0.0303552598, -0.0508467667, 0.1209190041, -0.0469720364, -0.0034142258, -0.0231459662, 0.0445132963, -0.1075424850, 0.1512346119, -0.0325235352, -0.0472041070, 0.0682384074, -0.0708806440, -0.0649274662, -0.0346749872, 0.0355786607, -0.0328862630, 0.1332746595, -0.0537321828, 0.1705316305, -0.0339063630, 0.0676526427, 0.0479581207, 0.0232684463, 0.0456454195, -0.0351573974, -0.0579186827, -0.0139080426, -0.0026686145, -0.0760454908, 0.0383782238, 0.0310342964, -0.0579746179, 0.0267295036, -0.0280601773, 0.0112839341, 0.0230100527, -0.0436493829, -0.0526577346, -0.0188094042, -0.0116355764, 0.1373317689, -0.0104384087, -0.0274751857, 0.0434600748, -0.0077629071, 0.0538936071, -0.0006148100, 0.0571085364, -0.0268455911, 0.0446070209, -0.0619214252, 0.0301947333, 0.1426408291, 0.0572983772, 0.0797118098, 0.0286436249, -0.0060296450, -0.0627474189, -0.0958012193, 0.0585047752, -0.0691462532, -0.0616827309, 0.0043258960, 0.0428729169, -0.0390154682, -0.0320853367, 0.0575545095, 0.0096370541, -0.1006521434, -0.0476636924, -0.0748909265, 0.0563549995, 0.0558397844, -0.1192342341, 0.0879464746, 0.0553295240, 0.0144242421, -0.0083496086, 0.0032606684, 0.0049441308, 0.0923325792, -0.0127742067, 0.0931361541, -0.0125736035, 0.0263666268, -0.0136491209, -0.0352411717, 0.0179139171, -0.0056051142, 0.0300470386, -0.1365409344, 0.0050516394, -0.0807792991, -0.0142289819, -0.0287320428, -0.0325152799, 0.0239995532, -0.0410287119, 0.0394070856, 0.0046031522, -0.0703726560, -0.0291065145, 0.0666045398, 0.0648805797, -0.0041428893, -0.0942962989, 0.0372033790, -0.0768882036, 0.0157812089, 0.0345657654, 0.0169314258, 0.0179762989, 0.1029845625, 0.0341235325, 0.1378721744, -0.0476941131, 0.0609040484, -0.0391301736, -0.1018929556, -0.0361066796, 0.0210099258, 0.0461536534, -0.0634480566, -0.0099082775, 0.0166075621, 0.0231663454, 0.0173706524, 0.0400695726, 0.0492855608, 0.0114641758, 0.0304123424, 0.0234369673, -0.0582971349, -0.0555367433, 0.0917761549, 0.0171469375, 0.0718485117, -0.0740681365, 0.0521828718, -0.0027236454, 0.0076455129, 0.0125775849, -0.0487178564, 0.0241054688, -0.0087838564, 0.0025908654, -0.0047740205, -0.0209162179, -0.0196577553, -0.0587778464, -0.0608661845, 0.0268155690, 0.0737751722, 0.0853397399, -0.0608203113, 0.0499679260, 0.0533804968, 0.0055306191, -0.0246670805, 0.0467553884, -0.0260459017, -0.0236773957, -0.0564820208, 0.0312781371, -0.0853136703, 0.0455811135, -0.0120659024, 0.0948136300, 0.0360714942, -0.0551952198, 0.0205252562, -0.0346126072, 0.0498223230, -0.0233166981, 0.0514470115, -0.0198915619, -0.0389189720, -0.0053980681, 0.0900361016, 0.0182105545, 0.0418240763, 0.0486417823, -0.0145176919, 0.0324941613, 0.1114394516, 0.0492462367, 0.0301189143, 0.0565706380, 0.0205217749, 0.0009535395, 0.0088298181, -0.0436167717, 0.0702758208, 0.0209130533, -0.0385176130, -0.0426012501, -0.0653645918, -0.0188037567, 0.0744047910, 0.0523426831, -0.0054385229, -0.0037989062, 0.0094208382, -0.0655791238, -0.0341852643, -0.0139344651, -0.0533846356, -0.0024633035, 0.0912785828, 0.0165904816, 0.0542630441, 0.0188901480, -0.0674384609, -0.0138954613, -0.0136390552, -0.0204029642, 0.0549548380, -0.0462010615, 0.1094528511, -0.0581411645, 0.0365785621, 0.0239126980, 0.0360229649, 0.0351267792, -0.0074166744, -0.0558136031, -0.0466956943, 0.0455398299, -0.0031468819, -0.0387636460, 0.0332630724, 0.1493704915, 0.0771599784, -0.0585918166, 0.0221289657, -0.0535092913, -0.0501177870, -0.0500264391, 0.0223772787, -0.0149779590, -0.1071244925, -0.0180854145, -0.0195869301, -0.0256666616, 0.1002484709, -0.0398155600, 0.0010465625, -0.0730616823, 0.0551214069, 0.0025727621, -0.0900764167, 0.0262408406, 0.0045233862, -0.0098992642, 0.0351382308, -0.0145829609, -0.0499881767, 0.0511707477, -0.0286496077, 0.0569558442, -0.0594111905, -0.0258844513, 0.1010025814, 0.1272041351, -0.0846951678, 0.0588680096, 0.0630342737, 0.0021027126, -0.0555447713, -0.0176815409, -0.0244701281, -0.0546293110, 0.0062190699, 0.0151625685, 0.0197430383, -0.0284934919, 0.0411874428, -0.0011063738, -0.0417310819, -0.0232600830, -0.0112622734, -0.0936700478, -0.0088041071, 0.1234446019, -0.0673814639, 0.0424468145, 0.0255887918, 0.0353775471, -0.0215406921, 0.0453274585, -0.0006361136, -0.0023333700, 0.0614207424, 0.0142090842, -0.0003839895, 0.0999871641, 0.0962086841, 0.0023069365, -0.0134420199, -0.0067837383, -0.0194241032, -0.0499157570, 0.0499860160, 0.0808505043, -0.0149743054, 0.0318070576, -0.0301353224, -0.0171687454, 0.1352473497, 0.0074024047, 0.0159813426, -0.0098666074, 0.0383546352, 0.0038651899, -0.1081839502, 0.1214955002, -0.0607060567, 0.0527055562, -0.0154979415, -0.0561045408, 0.0032427066, 0.0901435465, -0.0282581411, -0.0382271297, -0.0778130218, -0.0118832113, -0.0118544605, 0.0657633319, 0.0120206876, -0.0086617917, 0.1092709526, -0.0088595282, -0.0346101746, -0.0243451484, -0.0170321949, -0.0432879068, 0.1071967110, 0.0196656846, 0.0493994989, 0.0494488440, 0.0347770378, -0.0081721032, -0.0646398664, -0.0663261414, 0.0096084615, 0.0391212068, -0.1518023163, -0.0120070642, -0.1346399486, 0.0122708855, 0.0499844030, 0.0156840775, -0.0253459029, -0.0041400110, -0.0524846204, -0.0311963335, -0.0951502919, 0.0562589392, 0.0226817392, 0.0399702452, 0.0690978467, -0.0105609428, 0.1228673756, 0.0155592570, -0.0039292243, 0.0399722978, 0.0086177327, 0.0036142133, 0.1392406970, -0.0162936859, 0.0705643818, -0.0376100615, -0.0307384748, 0.0431476310, -0.0920514688, -0.0244107228, 0.0456816182, 0.0654068962, -0.0424238145, -0.0157240462, -0.0656781569, -0.0482941791, -0.0321996659, 0.0365892984, -0.0196160693, 0.0300282296, -0.0438608825, -0.0367368944, -0.0301066376, -0.0286252350, -0.0688680559, 0.0540957265, 0.1231296584, -0.0768006444, 0.0603723936, -0.0562529564, 0.0155729633, -0.0508286543, 0.0457930453, -0.0379112735, 0.0446244292, -0.0189104006, 0.0850220397, 0.0232612994, -0.0608148612, -0.0081592845, -0.0869275033, 0.0117337750, 0.0298928935, 0.0623990819, -0.0650110543, 0.0496690907, -0.0097313905, -0.0326554812, -0.0358522274, -0.0536563843, 0.0067533152, -0.0243229624, -0.0165622253, -0.0595565662, -0.0768610537, -0.0152397417, 0.0826932564, 0.1275719702, 0.0062329392, -0.0296594668, -0.0043644072, -0.0310663991, 0.0502571352, 0.0175875928, 0.0306472369, 0.0398751684, 0.0412181653, -0.0504279137, 0.0787764490, 0.0544208810, 0.0373317227, 0.0245229192, -0.0999100581, 0.0504406765, 0.0387952626, 0.0111151719, -0.0534707978, 0.0419520363, -0.0132897366, -0.0100098373, -0.0449207537, -0.0556787588, 0.0304579381, -0.0276988950, 0.0028110354, 0.0230722558, 0.0238624699, -0.0137913749, 0.0012227030, 0.0328115746, -0.0146597726, 0.0150002185, 0.1262632906, -0.0507444330, 0.0153243048, -0.0606063120, -0.0416555032, -0.0695580468, -0.0454961509, -0.0285290200, 0.0374326780, -0.0549400784, 0.0061600031, 0.0418376476, 0.0000994439, 0.0049051126, 0.0351040922, -0.0304170065, 0.0563640222, -0.0238256212, 0.0608269386, 0.0545274355, 0.0279136803, 0.0372419357, 0.0475478247, -0.0647480711, -0.0211401861, 0.0518563539, 0.0365043283, -0.0127088306, 0.0419410393, 0.0416283533, -0.0014135248, 0.0490669087, 0.0501602851, -0.0012499559, 0.0005246384, -0.0382635780, 0.0314075984, 0.0781710446, 0.0098418798, -0.0415438935, -0.0757388398, 0.0115432879, -0.0674749613, 0.0012930221, -0.0214384682, 0.0728036165, -0.0404009633, 0.0026421186, -0.0115521550, 0.0760602579, 0.0568769164, 0.0064018220, 0.0229658838, 0.0533542596, 0.0494457446, -0.0480768047, -0.0324583463, 0.0117719630, -0.0106481696, -0.0454410426, 0.1041460782, 0.0750120878, -0.0732044876, 0.0572092682, 0.1536564082, 0.0179253872, 0.0333801582, 0.0236498900, -0.0428982228, -0.0345061161, 0.0092176870, -0.0374801233, 0.0694553703, 0.0184922852, 0.0126557145, 0.0126303406, -0.0934455991, 0.0274086203, -0.0605336390, -0.0372405276, 0.0048788837, 0.1145298854, 0.0327669457, -0.0445028432, 0.0584526211, -0.0551512949, -0.0265247114, -0.0251134951, -0.0245283600, 0.0371126980, -0.0014848659, -0.0361440815, -0.0040582470, 0.0444917642, 0.0369007513, 0.0453626625, 0.0607932471, 0.0328434370, 0.0307679791, -0.0162997656, 0.0294223912, 0.0198712870, 0.0387682691, 0.0606302507, 0.0310649965, 0.0046394491, -0.0211423971, 0.0318077020, 0.0022211168, -0.0631289259, -0.0524277799, 0.0092157256, -0.0386982225, 0.0890294388, -0.0579179823, 0.0551268198, 0.0569894053, -0.0447634459, -0.0594170801, 0.0663313419, 0.0339171104, 0.0031623321, -0.0933367684, 0.0605890527, 0.0062896814, 0.0068540606, 0.0888846740, 0.0810111463, 0.0917404443, 0.0425819717, 0.0003640908, -0.0199050326, -0.0567186587, 0.0248951800, 0.0321082473, -0.0661834851, 0.0898440480, 0.0150752515, 0.0344648436, -0.0432203487, -0.0746171251, -0.0695004612, -0.0635843426, 0.0002378349, -0.1450238526, 0.0653918087, -0.0034808645, 0.0463179871, 0.0255597215, -0.0749194548, -0.0319081843, 0.0231901426, -0.0207342636, 0.0416693911, -0.0738634989, 0.0171172190, 0.0144981453, 0.1049843505, 0.0738316774, 0.0512489453, 0.0747013465, -0.0392535366, -0.0634256750, 0.0339517258, 0.0224066786, -0.0209083278, 0.0978792608, -0.0731488466, 0.0635183305, -0.0038565032, 0.0161661021, -0.0625932664, -0.0404312126, 0.0337680392, -0.0020394328, 0.0460760966, 0.0016193618, -0.0027770989, 0.0699063763, -0.0619904026, -0.0051880623, 0.0078828903, -0.0309719425, -0.0348002873, 0.0007451333, 0.0442747325, -0.0296477862, 0.0029290244, 0.1224380508, 0.1849053651, 0.0097179590, -0.0912414938, 0.0791880414, -0.0110852504, -0.0059525575, -0.0427436829, 0.0231055170, -0.0298101660, 0.0941919610, -0.0502461530, 0.0614850521, -0.0319846757, 0.0098380605, -0.0578724071, -0.0195052903, 0.1169026196, -0.0921324715, 0.1013788432, -0.0091661373, 0.0326035358, 0.0145156980, 0.0319167189, -0.0012192694, -0.0464921631, 0.0402529761, -0.0483495817, 0.0599551909, -0.0605152957, -0.0034913151, -0.0360031947, 0.0962275118, 0.0126483580, 0.0374367386, 0.0967631340, 0.0218393933, 0.0299662687, 0.0174137969, 0.0116645098, -0.0259690173, 0.0117699746, -0.1032724082, -0.0010561426, -0.0986456051, 0.0008664131, 0.1041976884, -0.0323572606, -0.1130196899, 0.1132158563, 0.0426071659, 0.0381345376, -0.0903161168, 0.0518421866, 0.0428051353, 0.0092637539, 0.0368488319, 0.0149280438, -0.0109961666, -0.0895158052, -0.0592835061, -0.0462005287, 0.0570515618, -0.0091890777, 0.0916577131, 0.1468661875, 0.0543071404, -0.0161447451, 0.0039051250, -0.0752800852, -0.0665439591, 0.0187232625, 0.0194194242, 0.0119844871, -0.0844452754, -0.0452089235, -0.1050849035, -0.0074019162, 0.0528402478, -0.0438863076, -0.0654448420, 0.0988418981, -0.0112439049, 0.1309695095, 0.0021261780, -0.0025582702, 0.0727605671, -0.0326873101, 0.0321784578, -0.0332598314, 0.0114669902, -0.0807700679, -0.0300356783, 0.0050370879, -0.0444901697, 0.0322840959, 0.0201182757, 0.1060268804, 0.0139473584, 0.0185699686, 0.0484519713, -0.0267441198, 0.0484141111, 0.0176126249, -0.0147953145, 0.0741349608, 0.0132425195, -0.0137526011, -0.0204806291, -0.0473431051, 0.0916071460, -0.0325992964, -0.0802998394, -0.0300506763, 0.0562046878, 0.0982758775, -0.0305477194, 0.0178394504, 0.0018261733, -0.0257786289, -0.0435492769, -0.0336719900, -0.0930767208, -0.0067593390, -0.0517734811, -0.0169969946, -0.0617148653, 0.0416950881, 0.0055602458, 0.0159917846, -0.0251505096, 0.1899411380, 0.1274549663, 0.0438976102, 0.0181366783, -0.0387450643, 0.0404470153, -0.0397653505, 0.0286391173, 0.0428791158, 0.0310708676, -0.0495455712, 0.1172140315, -0.0087005347, -0.1065663099, -0.0477709658, 0.0133461459, 0.0830264315, 0.0819216073, 0.0007543734, 0.0031269949, -0.0385747999, 0.0257626437, 0.0040172143, -0.1010266617, -0.0358345062, 0.0616759136, 0.0120937219, 0.0880942717, 0.0059671183, 0.0300689153, 0.1582012922, -0.0097667482, -0.0174414515, 0.1431726813, -0.0234185979, 0.0345766693, -0.0329399072, -0.0592190474, -0.0230773743, 0.0395025313, -0.0076219356, -0.0354443192, 0.0526821464, -0.0427413769, -0.0310917683, -0.1014440432, -0.0443346612, 0.0468811803, -0.0216393527, -0.1205892563, 0.0771130323, -0.0079231160, 0.0146930804, -0.0169390086, -0.0568310171, -0.1057256907, 0.0056596552, -0.0397701450, 0.0012911620, -0.0185279660, 0.0507238023, -0.1022886336, 0.0394497365, 0.0403204523, -0.0397527367, 0.0479933321, -0.0028175444, -0.0512420833, -0.0288229734, -0.0599995032, -0.0150784496, 0.0898132771, 0.0009537457, 0.0610124581, -0.0534845814, -0.0108579490, -0.0439275317, -0.0176182408, -0.0760501698, 0.0453190692, 0.0283810757, -0.0060495818, 0.0632126480, -0.0435896516, 0.0451105163, -0.0070517249, -0.0656003207, 0.0124991890, -0.0857723057, 0.0077957152, 0.0159722790, 0.0056996234, -0.0108693326, 0.0323146321, 0.0739994347, 0.0460946411, 0.0649194568, -0.0261054691, -0.0044160774, 0.0257927161, -0.0574164651, -0.0285801813, 0.0173767898, -0.0452751853, -0.0317177698, 0.0001591615, -0.0079803215, 0.0801646635, 0.0014236217, 0.0236678123, 0.0001675641, 0.0595135801, -0.0095440447, -0.0861604139, 0.0033298796, -0.0351841189, -0.0117307408, -0.0021440382, -0.0335184522, 0.0122680590, -0.0451470725, 0.0450749099, -0.0015596895, -0.0249414742, 0.0214072149, 0.0054193381, 0.0932106823, 0.0373055637, 0.0453912988, -0.0242184270, -0.0152606424, -0.0309008174, 0.0331473798, 0.0091595417, -0.0168205593, 0.0366562530, -0.0434133522, 0.0710593984, 0.0532236360, 0.0635539219, 0.0447230004, 0.0286269914, 0.0921741500, 0.0383649245, 0.0091383280, -0.0625953972, 0.0585669428, 0.0545117818, 0.0130095165, -0.0272690915, 0.0205609314, 0.0373894684, 0.0031529327, -0.0307264309, 0.0073875152, -0.1143002138, -0.0085918661, -0.0419629402, 0.0631077886, 0.0102806026, 0.0191691369, -0.0609532595, 0.0226494074, -0.0685637072, -0.0055600144, 0.0476756878, -0.0364822373, -0.0133409826, -0.0318806544, 0.0190744679, -0.0521368869, 0.0376693532, -0.0415241979, 0.0811852887, 0.0185221694, 0.0212930143, 0.0773479342, -0.0584730357, -0.0002067103, -0.0211670510, 0.0040864837, -0.0634756982, 0.0185986571, 0.1218324676, -0.0103766667, 0.0306631736, 0.0271805003, 0.1487998068, -0.0599529631, -0.0728731230, 0.0930708796, 0.0582939014, 0.0260720085, 0.0178026538, 0.0221466944, 0.0552187897, -0.0448419638, -0.0549234450, -0.0879727006, 0.0255027581, 0.0064892117, 0.0073539829, 0.0085789813, 0.0628463775, 0.0309655666, 0.1184173524, 0.0426642634, -0.0813131630, 0.0797282234, -0.0737506673, 0.0461674221, 0.0802033618, -0.0135341221, -0.0333423540, 0.0389676876, -0.0398302935, 0.0455980189, 0.0459533669, -0.0432871468, -0.0691834763, 0.0140926763, -0.0043785828, 0.0652227551, -0.0044988231, -0.0363250412, -0.0698397756, -0.0337839834, 0.0206476692, 0.0234253909, -0.0202974640, -0.0220999289, -0.0063304827, 0.0471504480, 0.0275340658, 0.0299471188, 0.0370126925, 0.0372405127, 0.0574547313, 0.0546222404, 0.0836666375, 0.0674377009, 0.0004946922, -0.0366676599, 0.0816905797, 0.0056256927, -0.0179552119, 0.0420773663, 0.0132856080, 0.1080920696, -0.0080686333, 0.0046738423, -0.0113782464, -0.0096255736, -0.0102782305, -0.0765481368, -0.0375295170, 0.0005541318, -0.0080681723, -0.0729596838, 0.0142988255, -0.0056344350, -0.0624016188, 0.0619915165, 0.0082638822, -0.0299481321, 0.0064873537, 0.0315755643, 0.1005471945, -0.0250585042, 0.0211135224, -0.0132362591, 0.0645906776, 0.0099891070, -0.0444941968, 0.0287466869, 0.0001611921, -0.0094344532, -0.0080876686, 0.0482333563, -0.0089675542, 0.0400741957, -0.0273322575, 0.0065587722, 0.0201999042, 0.0220915694, 0.0812793523, 0.1482642442, -0.0777560622, -0.0498130992, -0.0885684416, -0.0319196396, 0.0056883460, -0.0202929787, -0.0166580528, -0.0399173237, 0.0079403911, -0.0577247404, -0.0323943011, -0.0218584910, 0.0653638095, -0.0230151229, -0.0324092656, 0.2124370635, 0.0120652076, -0.0852630511, 0.0790008232, 0.0220843535, -0.0044053211, -0.0456779711, -0.0259905905, -0.0077548637, 0.0220763572, 0.0593032837, -0.0493496172, 0.0407754667, -0.0349768922, -0.0000299044, 0.0953973457, 0.1211787984, -0.0376590900, 0.1169922128, -0.0021152883, -0.0743113756, 0.0101631749, -0.0202501304, -0.0180451944, 0.0000053643, -0.0388455130, 0.0065448130, -0.0583378710, 0.0066771926, 0.1033609882, 0.0169973020, 0.0642307997, 0.0181001835, 0.1001747549, 0.0230900869, -0.1121761575, -0.0622283518, -0.0187750403, 0.0281363167, -0.0453207083, -0.0448219553, 0.0762282833, -0.0451955497, -0.0242176242, -0.0133458655, -0.0028540364, -0.0134646147, 0.1085542440, 0.0968854651, 0.0588857904, 0.0440347418, -0.0527278222, 0.0054642144, 0.0381583981, 0.0408621877, 0.0102211200, -0.0288494993, 0.0106631173, -0.0207214076, 0.0269289892, 0.0536920056, 0.0312917642, 0.0398490392, 0.0561332293, 0.0298961811, 0.0038819269, 0.0519631766, -0.0275726579, -0.0225345101, 0.0544429086, 0.0100939721, -0.0506109484, 0.0265504476, 0.0811973587, -0.0830240026, 0.0344532244, -0.0103516607, -0.0264988020, -0.0028140638, 0.0605417453, 0.0805458874, 0.0574402027, 0.1429885328, -0.0184674226, 0.0180095453, -0.0456717089, 0.0472610593, -0.0635210499, -0.0371167101, -0.0444637984, -0.0797116533, -0.0247396287, -0.0187437478, 0.0914747119, -0.0771874636, 0.0455868877, 0.0217386950, -0.0523741506, 0.0087613175, -0.1512580514, 0.0174324997, -0.0329284146, -0.0045573818, -0.0018918280, -0.0585850179, 0.0199520420, 0.1214290559, -0.0348547027, -0.0140423840, -0.0390580110, -0.0493798219, 0.0171300527, 0.0060839979, -0.0250453241, 0.0966444016, -0.0950383171, -0.0476846732, 0.0421189852, 0.0340336598, 0.0061539784, -0.0136569291, 0.0057579936, 0.0306928158, -0.0222869329, -0.0561605841, 0.1358125955, -0.0510333888, 0.0069759316, 0.0652819648, 0.0597684085, -0.0175126772, 0.0260714572, 0.0187137183, 0.0102263847, -0.0417844057, -0.0479513295, -0.0463340282, 0.0884785950, 0.0937618986, 0.0261734854, -0.0227727629, 0.0701847002, -0.0149460780, -0.0741825029, -0.0220498331, 0.0625505224, 0.0054386738, 0.0373011939, 0.0263383146, 0.0132094715, 0.0038814573, -0.0016993814, -0.0037469827, 0.1062262580, -0.0536919832, 0.0080380933, 0.0454585776, 0.0194317717, 0.0542046204, 0.0721257180, -0.0233166516, -0.0913899988, -0.0102407569, -0.0752127245, 0.0341017358, -0.1199815273, 0.0189587492, 0.0347980000, -0.0365970209, 0.0899220929, 0.0866592899, -0.0474759601, 0.0357239507, -0.0042737769, -0.0070047532, 0.0530786291, 0.0195039418, 0.0258841347, 0.0771588907, 0.0407886952, -0.0700628683, -0.0045172642, -0.0499659851, 0.0098002292, -0.1059089601, -0.0143776778, 0.0363806970, -0.0192197673, -0.0230055042, -0.0036858108, 0.0069520483, 0.0277328212, 0.0599786490, -0.0920002013, -0.0856244713, 0.0945904031, 0.0200623590, 0.0026538577, -0.0034552349, 0.0060196430, 0.0023395400, 0.0753761157, 0.0248045400, 0.0442106165, 0.0135446377, 0.1332086623, 0.0264498051, 0.0594744682, 0.0460605398, -0.0409711301, 0.0499377213, 0.0259138327, -0.0569350794, -0.0348058939, -0.0015775891, -0.0136182699, -0.1194182560, -0.0965858623, -0.0215313286, 0.0341814049, -0.0586007163, 0.0473376215, -0.0090608103, 0.0258659311, 0.0501851216, 0.0157538857, -0.0199853051, 0.1130883172, 0.0385806262, 0.0346908718, -0.0515158214, 0.0143257752, -0.0000223120, -0.0225931052, -0.0072716633, 0.0195381436, 0.0034717731, 0.0406543016, -0.0238313805, 0.0709300637, 0.0662837029, -0.0362736918, -0.0273737255, -0.0248731170, -0.0720549673, -0.0129669467, -0.0592716597, 0.0371137820, -0.0668343902, -0.0179011915, 0.0499648899, -0.0115589499, -0.0072617368, 0.0677978545, 0.0157202296, 0.0397508182, 0.1538791955, 0.1011966541, 0.0112213334, 0.0875432864, 0.0010726721, 0.0137656657, -0.0098050255, -0.0390378572, 0.0493652485, 0.0574678071, -0.0369910821, -0.0409083441, -0.0040829652, 0.0580810569, -0.0417560749, 0.0214616898, 0.0749170855, -0.0769000947, 0.1312259138, -0.0257756915, -0.0554937460, 0.0585085079, -0.0557492450, 0.0079704262, -0.0216334276, -0.0028314684, -0.0148892039, 0.0348868035, 0.0353757702, 0.0692856386, -0.0589230955, 0.0668969080, -0.0297590457, 0.0038418279, 0.0528498478, -0.0115779685, 0.0612669960, 0.0619519018, -0.0425626896, 0.0388605185, -0.0648557618, 0.0528697409, -0.0446005017, -0.0381802879, 0.0505742766, -0.0453530066, 0.0322712697, 0.1230456755, -0.0342352763, 0.0791850761, 0.0718745664, -0.0272881761, -0.0671109334, 0.0387004763, -0.0619677603, -0.0143624954, 0.0701013803, -0.0060874787, -0.0515035689, 0.0024907205, 0.0510830656, 0.0262764078, -0.0325231254, -0.0279367082, 0.0318537802, 0.0882255659, 0.0564519316, -0.1150410473, -0.0535074212, 0.0686515719, -0.0389518999, -0.0097571006, 0.0074287741, 0.0486540049, -0.0378511027, -0.0612305366, 0.0135573605, 0.0061464938, -0.0338401757, 0.1281706244, 0.0321056768, 0.0540244356, 0.0832667872, -0.0390211828, -0.0191478375, -0.0512603000, 0.0511373542, -0.0340881459, 0.0618063845, -0.0157504585, -0.0014971119, 0.1004884019, -0.0457020216, 0.0174843501, 0.0252579469, 0.0627217069, -0.0005346194, -0.0187712070, -0.0575689711, -0.0835373774, -0.0555890538, 0.0006843989, -0.0008639141, 0.0563551746, 0.0246751923, 0.0546752885, 0.1209247336, -0.0289981849, 0.0558148958, 0.0498735458, -0.0046420679, 0.0489175171, 0.0159848705, -0.0189736206, 0.0386649519, 0.0328291133, -0.0118557122, 0.0498002693, -0.0079480521, -0.0106783006, -0.0598407984, -0.0691882968, 0.0046287021, 0.0555157810, -0.0339383781, -0.0139097264, -0.0573247559, -0.0128129981, 0.0263353940, -0.0085654650, 0.0379790664, 0.0166151170, 0.0074166255, -0.1313953847, 0.0491292477, 0.0196517557, -0.0468409359, 0.0218283534, 0.0339564532, -0.0108386604, 0.0182918385, 0.0250568576, -0.0437880196, 0.0308703575, -0.0476331562, 0.0007228053, -0.0912122875, -0.1019649208, 0.0737259686, -0.0632828623, 0.0422162525, -0.0237124711, -0.0205767453, 0.0478842854, 0.0389895998, 0.0881424770, -0.0436721779, 0.0115679000, 0.0300725643, 0.0431692265, -0.0157836266, -0.0655745715, -0.0076523242, 0.0304528996, 0.0185175221, -0.0898563042, 0.0143036079, -0.0100646056, 0.0077960719, -0.0361610614, 0.0280797295, 0.0301414765, 0.0010312907, -0.1521803290, 0.0367665067, -0.0760188550, -0.0374324843, 0.0157080162, 0.0163310524, 0.0016661099, -0.0130785145, -0.0483091548, 0.0155498916, -0.0583330654, 0.0553533807, -0.0392296985, -0.0196464583, 0.0816120282, 0.0342206024, 0.0409176871, 0.0195236169, -0.0166263338, -0.0423952192, 0.0619882233, 0.0633088499, 0.0625580996, 0.0689443499, -0.0624355748, 0.0239242520, -0.0548614860, -0.0236083083, 0.0834385082, 0.0377976075, 0.0151173929, -0.0067918510, -0.0759030432, 0.0129967080, 0.0266844165, 0.0049539688, 0.0313062295, 0.0405981094, 0.0796909481, -0.0446545370, 0.0309488624, 0.0345898531, -0.0378460735, -0.0439439826, 0.0017101179, 0.0071661100, -0.0976319164, -0.0587795265, -0.0239524264, -0.0333836935, 0.0690251216, 0.0432238616, 0.0514513329, 0.1192266420, -0.0151589504, 0.0335501507, -0.0065301755, 0.0198086482, 0.0001742572, 0.0014161499, -0.0074641514, 0.0593728870, 0.0391840450, -0.0007958673, -0.0122383330, -0.0442285649, 0.0131794289, 0.0170252416, -0.0387043580, -0.0523218885, 0.0032396584, -0.0543095209, -0.0233563520, 0.0526478253, -0.0475568213, 0.0433342047, -0.0561223365, 0.0463968813, -0.0171302818, 0.0090545239, -0.0008447131, -0.0402562544, 0.0265952200, 0.0669716373, 0.0443392396, 0.0217214804, 0.1147399247, -0.0204208940, -0.0096652871, 0.0405280367, -0.0042278776, 0.0136745684, 0.0706998557, -0.0916451588, -0.0343245603, -0.0238123629, -0.1709060073, 0.0558229387, 0.0014568123, -0.0065420992, -0.0745339096, 0.1012373045, 0.0255905706, 0.0280317981, -0.0140229203, 0.0025958978, 0.0154375322, 0.0173776075, 0.0312572382, 0.0435101241, 0.0383370221, -0.0178393666, -0.0024507246, -0.0605643019, -0.0146102104, -0.0428113639, 0.1118498817, 0.0451389290, -0.0187750123, -0.0647344813, 0.0751442835, 0.0420785323, 0.0275050923, 0.0473341122, 0.0013775561, -0.0884321183, 0.0191198494, 0.0204835590, -0.0322863273, 0.0365260839, 0.0327829346, 0.0035553090, 0.0111031225, 0.0245347321, 0.0033057069, -0.0984711275, -0.0003485307, -0.0174010415, -0.0418910831, 0.1033612564, -0.0660755634, -0.0125432611, -0.0446319319, 0.0336160213, -0.0292167626, -0.0236344133, 0.0511109605, 0.0068166694, -0.0079555567, 0.0141894454, -0.0434910320, -0.0032847833, 0.0606925189, -0.0212607849, -0.0453461073, 0.0286701601, 0.0272847190, 0.0189686902, -0.0049761506, 0.0030107175, 0.0132520711, -0.0039190482, 0.0277609490, 0.0300556179, 0.0753894225, 0.0303438529, -0.0288990382, 0.0201710127, 0.0329863727, 0.0494789816, 0.0334210545, 0.0552561656, -0.0130624771, -0.0053800410, -0.0048123631, -0.0580844693, -0.0098235784, -0.0531296059, -0.0211932436, 0.0183190051, 0.0103991870, -0.0719631016, -0.0484649278, 0.0283292104, -0.0088948002, 0.0121634835, -0.0243045911, -0.0471370332, 0.0504226536, 0.0411725789, -0.0223443657, -0.0564538278, 0.0453366935, 0.0398394652, 0.0316516683, 0.0920785069, -0.0241541602, -0.0408404954, -0.0264634732, -0.0611540303, 0.0074189575, -0.0503745973, -0.0614397153, 0.0560592823, -0.0469573066, -0.0329843462, -0.0401763618, -0.0260811895, -0.0091401711, -0.0113662332, -0.0265063047, -0.0093698539, 0.0266702287, -0.0385834165, -0.0053803716, -0.0236089155, -0.0935713574, -0.0308141559, 0.0337287672, 0.0409627222, -0.0067436215, 0.0835844502, -0.0261634532, 0.0286949910, 0.0338399969, -0.0053491942, 0.0647446513, 0.0619796291, 0.0504616722, -0.0768785030, 0.0184489042, -0.0262274593, -0.0158558525, -0.0444074050, 0.0367219411, -0.0675398111, 0.0732384771, -0.0570475869, 0.0291174613, 0.0018308468, -0.0959898457, 0.0098302886, 0.0601371266, 0.0531603470, -0.0887602121, 0.0256995559, -0.1090655699, 0.0213239919, -0.0821415782, -0.0153910853, 0.0364773460, -0.0375044942, 0.0426883474, 0.0127514331, -0.0506105758, 0.0567278452, -0.0666013509, 0.0109568350, 0.0233871918, 0.0884778649, -0.0365219340, 0.0714779049, 0.0236737914, 0.0293068867, 0.0680308193, 0.0148605891, -0.0433482975, 0.0207119789, -0.0155521482, 0.0346962847, -0.0137885325, -0.0149475783, 0.0240852907, -0.0381863490, 0.0241524410, -0.1216671169, 0.0174505841, -0.0553926043, 0.1019366682, 0.0522600599, 0.0117337564, -0.0289582852, -0.0489613600, -0.0568639301, 0.0296729673, -0.0233186092, 0.0107023837, -0.0143655771, 0.0002616332, 0.0491482019, 0.0805335417, -0.0253853463, -0.0934548005, 0.0811387151, -0.0514130518, -0.0618078671, 0.0104556093, 0.0168946069, 0.0358071886, -0.0360317864, 0.0117736058, -0.0450845473, -0.0765087456, 0.0235628318, 0.0347657986, -0.0175821688, -0.0360459797, -0.0298926309, -0.0255502369, 0.0717072189, -0.0033347451, 0.0070223310, 0.0145156467, -0.0112733627, 0.0298034362, -0.0384341516, -0.0060632932, 0.0097878547, -0.0691445991, 0.0220131464, -0.0360612608, 0.0135013154, 0.0672279969, 0.0627694055, -0.0277831405, 0.0196039472, -0.0783021674, -0.0179265235, 0.0132409092, -0.0414830931, 0.0355274342, -0.0640594736, 0.0320622623, 0.0287810974, 0.0257259980, 0.0317631699, 0.0953303725, -0.0530694276, -0.0285439417, 0.0525388867, 0.0741462559, -0.0693393275, 0.0830987915, 0.0374137796, -0.0321395211, -0.0363089815, -0.0296691861, 0.0530852936, 0.0370881855, -0.1042836979, -0.0599065460, 0.0070237457, -0.0140299257, 0.0311918389, 0.0299166217, 0.0935264006, -0.0261839796, 0.1196187809, 0.0161592197, -0.0570328869, -0.0490581952, -0.0328531936, -0.0296339467, 0.1077707484, -0.0365663283, 0.0377206020, 0.0159374140, -0.0222878046, 0.0517738834, -0.0109336283, 0.0227902122, -0.0210885182, 0.1153461486, 0.0671371371, -0.0406913385, -0.0646151900, -0.0426111370, -0.0215893704, -0.0351091698, -0.0598797016, -0.0285428762, -0.0722716600, 0.0191514064, -0.0005378773, 0.0474566221, -0.0240003299, 0.1255285889, -0.0054251207, 0.0626994148, 0.0748858899, 0.0375110693, -0.0389516763, -0.0616002008, -0.0639979392, 0.0028317187, 0.0332818888, -0.0168785900, 0.0148256011, 0.0162083320, 0.0409827307, 0.0307370592, 0.0331208073, -0.0066300905, 0.0105331186, 0.0469246134, 0.0211575124, -0.1161848307, -0.0424102731, 0.0023338278, 0.0491333678, -0.0508376583, -0.0701032951, -0.0369855724, 0.0000475781, 0.0153629165, -0.0550185479, 0.0734252781, 0.0068671391, 0.0673393756, 0.0379715487, 0.0063759238, 0.0110010905, -0.0942702144, -0.0510910191, -0.0331781954, 0.0297113582, -0.0276616272, 0.0630431771, -0.0227729101, -0.0404057987, 0.0801839009, -0.0209599100, -0.0340440944, -0.0310383756, -0.0773543715, 0.0617453828, 0.0288747326, -0.0119233932, -0.0906790867, -0.0022097426, 0.0128766093, 0.0433916040, 0.0414405055, 0.0361854173, 0.0594247729, 0.0269977693, -0.0195622742, 0.0059637465, -0.0418153815, -0.0436564125, 0.0975152552, 0.0989987403, 0.0184131768, -0.0169346035, -0.0347011685, -0.0684205219, 0.0067443163, 0.0354372971, -0.0282722767, -0.0165258050, 0.0483039506, -0.0333648063, 0.0072355643, -0.0249108896, -0.0242543537, -0.0492338017, 0.0139561826, 0.0442672819, -0.0016633800, 0.0013468186, 0.0549150594, 0.0417400673, 0.0122284330, -0.0535412133, -0.0293124653, -0.0321512744, 0.0264953543, 0.0373292193, -0.0518119372, -0.0524699502, -0.0192831103, -0.0560361147, 0.0493737459, 0.0522259846, 0.0297373198, -0.0129953548, -0.0722036436, 0.0314037688, 0.0324694552, -0.0399919190, -0.0049571912, -0.0555232614, -0.0362256095, -0.0635044798, 0.0081871608, -0.0547689423, 0.0098670991, -0.0174684040, 0.0566223823, 0.1287422329, -0.0822568834, -0.0409346856, -0.0651538447, 0.0135017345, 0.0326817669, 0.0322078392, 0.0100798048, -0.0050425231, -0.0017836752, -0.0248204041, -0.0179557391, 0.0274200179, -0.0562772118, -0.0036175959, -0.0045712693, -0.0553301126, 0.0524974950, 0.0850190967, -0.0849018916, -0.0573084056, 0.0324993171, 0.0348931067, -0.0328910239, 0.0642195269, 0.1302848756, -0.0389511138, 0.0180865321, 0.0426229946, 0.0810031891, -0.0362492353, -0.0161791481, 0.0552786887, -0.0326786526, -0.0024040537, -0.0286985897, 0.0423392095, -0.0049676960, -0.0326167867, -0.0002591266, -0.0038826624, -0.0402133614, -0.0434062853, 0.0286977477, -0.0229188278, 0.0135801537, -0.0158002302, 0.0041345777, -0.0209053252, 0.0445534959, 0.0135528082, -0.0924659371, -0.0683770552, -0.0461160429, -0.0287184659, 0.0463037379, -0.0244756602, -0.0029727232, -0.0365629382, 0.0027665384, 0.0505042523, 0.0072038900, -0.0687275082, 0.0409216136, -0.0294475965, 0.0766761079, -0.0026353830, -0.0092606498, 0.0518159717, 0.0263959244, 0.0305708833, -0.0367584601, 0.0476309694, 0.0575473122, 0.0077577457, 0.0170843396, -0.0558159202, -0.0316195935, -0.0042635766, 0.0466613173, 0.0142461890, -0.0930855945, -0.1021483317, -0.0162590519, -0.0293329060, 0.0388636813, -0.0365826562, 0.0373001732, 0.0088575315, -0.0352786556, 0.0458018407, 0.0228497516, -0.0356691740, 0.0403054431, 0.0052670906, 0.0305521823, 0.0382439755, 0.0131286979, 0.0278723501, 0.0428682305, 0.0400497355, 0.0133375684, -0.0396688581, -0.0055216472, 0.0145322159, -0.0138732092, -0.0772404894, -0.0490428433, -0.0082592126, -0.0490711629, -0.0088152764, 0.0577896200, 0.0177244041, 0.0150525784, 0.0684653744, -0.0582884066, 0.0158844627, 0.0372916721, 0.0273024105, 0.0525151305, 0.0317403488, -0.0047536390, -0.0583142936, -0.0436990485, 0.0209912397, 0.0827645212, -0.0632910430, -0.0295183733, -0.0444858298, 0.0984087586, 0.0612949319, -0.0704287663, -0.0433357656, 0.0720055476, 0.0116164461, 0.0000388969, -0.0301875453, -0.0578911453, 0.0736842752, -0.0237372220, -0.0464055315, 0.0192548782, -0.0308113135, 0.0429715477, 0.0929440930, -0.0073422436, -0.0360188894, 0.0534971878, -0.0500904247, -0.0672885627, -0.0353099443, -0.0437828079, 0.0592787974, -0.0059039411, -0.0251308214, 0.0220121164, -0.0505841076, 0.1092249528, 0.0431331098, 0.0289420933, 0.0159440357, 0.0333180390, 0.0625307560, -0.0181091018, -0.0560268648, -0.0355679356, -0.0084139872, -0.0062482078, -0.0574055687, -0.0267010052, -0.0294610895, -0.0458187349, -0.0236853193, 0.0260132737, 0.0263717324, 0.0409201570, 0.0934921056, 0.1022520214, -0.0879683271, -0.1018419787, -0.0130000804, -0.0714945719, -0.0660035163, -0.0423005186, -0.0528745390, 0.0438247956, -0.0561856627, 0.0097417645, 0.0131652635, -0.0592360683, 0.0270454474, -0.1390404701, 0.0808988065, -0.0276217237, 0.0838335529, -0.0662479177, -0.0456303619, 0.0238821115, -0.0097291246, 0.0479226150, -0.0546315312, 0.0760505646, 0.0289869513, 0.0343990959, -0.0028824545, -0.0157393720, 0.0074252984, 0.0535601899, 0.0460452884, 0.0219227392, -0.0069033578, -0.0803437307, 0.0401138179, -0.0689547136, -0.0150918700, -0.0530812070, -0.0338743404, 0.0430508740, -0.0283309855, 0.1087265983, 0.0434207879, 0.0521994904, 0.0502638444, -0.0718973428, 0.1311855763, 0.0793507695, 0.0458318517, -0.0236521251, 0.0171722360, 0.0571474470, 0.0342942178, -0.0006934186, 0.0501859188, 0.0467370711, 0.0438831709, -0.0135298567, 0.0456353799, -0.0439266600, 0.0077857738, -0.0552624427, 0.0057069422, 0.1401188225, 0.0516470447, -0.0618512072, -0.0134262377, -0.0060713585, -0.0668093264, -0.0229858290, 0.0291429758, -0.0121204834, -0.0339888223, 0.0785085633, -0.0115518076, 0.0209225062, -0.0181719903, -0.0274618659, -0.0076893386, -0.0287138876, 0.0502014011, -0.0894388780, 0.0348203368, -0.0537619814, 0.0219151936, -0.0110330023, -0.0138132684, 0.0849473774, -0.0899354294, -0.0159589872, -0.0395248979, -0.0972917676, 0.0496798493, -0.0636035278, 0.1193265915, 0.0038595516, -0.0092508597, -0.0060231145, 0.0020392439, 0.0578439906, 0.0140211023, -0.0513275303, 0.0090889074, 0.0606113113, -0.0512228757, 0.0724897012, 0.0314644612, 0.0384823009, 0.0071608955, -0.0376613550, 0.0406627245, 0.0959583521, 0.0923825428, 0.1065647677, 0.0161412861, 0.0057413802, 0.0529433973, 0.0039948528, 0.0500061363, 0.0589233115, 0.0543268882, 0.0399994515, 0.0464832820, -0.0406232476, -0.0268788356, -0.0312066264, 0.0869849548, -0.0928826630, 0.0116670411, 0.0402725376, 0.0146187525, -0.0464054197, -0.0603914745, -0.0151812388, 0.0157228764, -0.0673790947, 0.0043133195, -0.0496400148, 0.0391544737, 0.1414634883, -0.0051872246, -0.0111442776, 0.0242782366, 0.1390652806, 0.1172944084, 0.1176428348, 0.0458191223, -0.0848279446, -0.0116711799, 0.0692510977, -0.0443619117, 0.0284319054, 0.0553749204, -0.0160603635, -0.0217293240, -0.0951038375, 0.0411643386, -0.1222512797, 0.0895833448, 0.0796676800, -0.0222770926, 0.0310181193, -0.0039673159, 0.0363876037, -0.0587844402, -0.0394065082, 0.0155155510, 0.0410108566, -0.0054376912, -0.0132798413, -0.0465540551, 0.0594840907, -0.0180963632, -0.0417730846, 0.0348943993, 0.1011685431, 0.0655729175, 0.1211565956, 0.0131480219, -0.0153691852, -0.0510257334, 0.0255182721, -0.0398200303, -0.0655601248, 0.0231604092, 0.0070742760, 0.0271626338, -0.0361915901, -0.0177067164, 0.0988027975, 0.0165026914, 0.0018375139, -0.0345274433, -0.0435628928, 0.0089097396, -0.0545164682, -0.0494822226, -0.0223413818, 0.0681920797, -0.0841796771, -0.0496621951, 0.0112816337, -0.0114030391, 0.1553306133, -0.0471746065, -0.0658115447, 0.0444925018, 0.0714851469, 0.0474232361, -0.0544595830, -0.1044519320, -0.0757344887, 0.0572307743, -0.0171486754, 0.0254779309, 0.0641089305, 0.0852305964, 0.0004186074, 0.0452133492, 0.0223533250, -0.0270423423, 0.0399234965, 0.0913570076, 0.0355606750, -0.0259432551, 0.0670995191, 0.0195169393, -0.0142928502, -0.0628524348, -0.0059051826, 0.0539298840, -0.0779746398, 0.0004608568, 0.0138442200, -0.0252386350, -0.0012799142, 0.0284794886, -0.0350147113, 0.0418862961, -0.0118711423, -0.0314210802, -0.0871651471, -0.0341148265, 0.0665052235, 0.0120743169, 0.0200271625, 0.0366178043, -0.0191335622, -0.0542355664, -0.0374685414, 0.0416172631, 0.0192533582, 0.0608258732, -0.0141775999, 0.0863950327, 0.1049812064, -0.0841446221, -0.0133696226, -0.0646679848, -0.0074818567, 0.0002046822, -0.0417553410, 0.0006778261, 0.0023050746, 0.0458002575, 0.0239973143, 0.0025723174, 0.0865825340, 0.0037671928, -0.0203154944, 0.0289856978, 0.0433848500, 0.0776451975, -0.0752359331, 0.0077690105, 0.0358348079, -0.0166509785, -0.0366905406, 0.0461154394, 0.1247499362, -0.0681551248, -0.0177440681, -0.0471360609, -0.0638672337, -0.0348289832, 0.0165387858, 0.0552323461, 0.0368499383, -0.1125111580, 0.0018527564, -0.0438656397, 0.0096448734, -0.0560239553, -0.0260944180, 0.0639818385, -0.0276371576, 0.0431766622, 0.0053120870, -0.0037240312, 0.0741603822, 0.0062430496, 0.0055632093, 0.0220782664, 0.0616429001, 0.0981978178, -0.0438036434, -0.0020598888, 0.0348690785, -0.0082318150, 0.0288510416, -0.0077763819, 0.0401895158, 0.0346423723, -0.0348523408, -0.0021826716, 0.0433594026, 0.0144452136, 0.0200385023, -0.0314477235, 0.1269383430, 0.0188758839, 0.0347586051, 0.0094054984, -0.0314035639, 0.0294886641, -0.0215430614, -0.0027202421, -0.0427150615, -0.0467362963, -0.0284089204, 0.0288741216, 0.0039880662, 0.0212359652, 0.0468359292, 0.0081988852, -0.0749743283, 0.0259293988, -0.1140447408, 0.0264247172, -0.0330320820, 0.0375185683, 0.0122138150, 0.0091649182, 0.0604060888, -0.0480798818, 0.0437945910, -0.0152101889, -0.1350733042, 0.0424718522, -0.0603147484, 0.2002041936, 0.0700369105, -0.0845314115, -0.0347062796, -0.0550161600, -0.0078862831, -0.0231674612, 0.0065502860, 0.0307616983, 0.0978803933, -0.0096848719, 0.0191597026, 0.0133289956, -0.0617773421, 0.0207191166, -0.0473906174, 0.0490256920, 0.0181402769, 0.0199697260, 0.0509298481, 0.0035879307, 0.0963826403, 0.0176889040, 0.0446298942, 0.0491160862, 0.1098237261, 0.0615632012, 0.0297002178, 0.0140335504, -0.0988219678, -0.0257507861, 0.0157293845, 0.1271909177, -0.0717804804, -0.0394101404, -0.0529469550, -0.0045192637, -0.0147838881, 0.0499301590, 0.0076988335, 0.0451730937, 0.0493974946, 0.0000278698, 0.0499892831, 0.0300377533, 0.0981578976, -0.0220737159, -0.0726439953, 0.0189779680, 0.0144870374, -0.0118620396, 0.0555480011, -0.1148720384, 0.0443059318, 0.0273594037, -0.0148858223, -0.0618780926, 0.0612892993, 0.0372195728, -0.0506879091, 0.0419317223, 0.0063765892, -0.0582454056, 0.0057369438, 0.0651257411, 0.0516065247, -0.1437133998, 0.0080904868, -0.0116460230, 0.0488043502, 0.0115514975, -0.0599552095, -0.0108771045, 0.0052575623, 0.0171193499, -0.0358088538, 0.0084094815, 0.0729439184, -0.0225933120, 0.0556700751, 0.0849933028, 0.0898502544, 0.0306050740, 0.0012613144, 0.0080422647, -0.0019063512, 0.0481480695, 0.0032430990, 0.0070152557, 0.0199226849, 0.0401985310, 0.0367848501, -0.0313743427, -0.0330076218, -0.0224890430, 0.0372550339, 0.0296973847, 0.0594672859, -0.0604983121, -0.0530452542, -0.0749444515, 0.0550208092, 0.0134172253, 0.0146965124, 0.0144674676, 0.0167159513, 0.0146898292, 0.0235705413, -0.0300143510, 0.1180384457, -0.0425010808, -0.0835880861, 0.0452219322, 0.0982797518, 0.0143673383, -0.0574229024, -0.0717996582, 0.0263609774, 0.0602213480, 0.0348573700, -0.0655153394, 0.0071247262, -0.0034524221, 0.0358105637, 0.0489084907, -0.0808168128, -0.0056171301, -0.0149688395, -0.0108082416, 0.0298987366, -0.0168656241, 0.0338359997, 0.0114067309, 0.0001813599, -0.0067060343, -0.0587224439, 0.0352507979, -0.0234806370, 0.0481927395, 0.0077494821, -0.0000518505, 0.0995991528, 0.0066951257, -0.0137059782, 0.0307342131, -0.0463761017, 0.0381263271, -0.0689485595, -0.0234246701, 0.0090816608, -0.0456090458, -0.0398813523, -0.0272406638, 0.0478613637, 0.0211474895, -0.0482535474, 0.0137482136, -0.0194144826, 0.0038401166, 0.0470822863, 0.1006061286, 0.1137356386, -0.0251967665, 0.0296178069, 0.0443847328, 0.0300712623, 0.0273995604, 0.0186924543, 0.1583506912, -0.0133068422, 0.0016464372, -0.0224177111, 0.0120536657, 0.0797016770, 0.0070290407, -0.0243433081, 0.0247872695, 0.0083008623, 0.0407806784, -0.1568933576, 0.0420591868, -0.0306502245, -0.0455120169, 0.0254376195, -0.0146190189, 0.0822620615, -0.1007305309, -0.0449758880, -0.0526475981, -0.0205951612, 0.0497611128, 0.0010320777, 0.0720308200, 0.0569693409, -0.0557864644, 0.0058080377, -0.0230486393, 0.0114968112, -0.0418136269, 0.0587511249, 0.0668277889, -0.0762936920, 0.0023714229, 0.0187865961, 0.0063291825, 0.1035760567, -0.0140840020, -0.0339786857, -0.0176529735, 0.0792452469, 0.0724057183, -0.1033866853, 0.0293605737, 0.0809692219, 0.0482820012, -0.0561375283, 0.0088613750, -0.0122042615, 0.0539604202, 0.0472390577, -0.0259198658, -0.0555194616, 0.0001232949, -0.0405128896, 0.0039564990, 0.1003134176, 0.0230144355, 0.0707083941, 0.0468208380, 0.0501703620, 0.0411890857, -0.0154032055, -0.0309842844, -0.0455647297, -0.0348753855, 0.0325827003, -0.0052296738, 0.0608972758, -0.0290083066, 0.0519841313, -0.0061827758, 0.0225807149, 0.0342690125, -0.0534694903, 0.0564306043, -0.0554373190, -0.0307212826, -0.0529944226, -0.0144359618, 0.1060861051, -0.1873707026, 0.0003573373, 0.0310651101, -0.0911561325, -0.0293101296, 0.0276286229, 0.0608969405, 0.0780495778, 0.0394127816, 0.0496472716, -0.0289107058, 0.0563939959, 0.0018644594, 0.0307497866, -0.0320562869, 0.0309133846, 0.0040981993, 0.0294470806, 0.0311272703, 0.1011116505, 0.0441510119, -0.0116868820, 0.1027806327, 0.1135406941, 0.0687255040, 0.0064459862, 0.0342918225, 0.1463647783, 0.0321668200, -0.0321289375, -0.0121584116, 0.0928863287, 0.0195129570, -0.0296609607, -0.0438281968, -0.0312629566, -0.0591897257, 0.0563566796, 0.0612297468, -0.0273856204, 0.0616428964, 0.0587918274, -0.0582196526, 0.0441852324, 0.0483915396, 0.0364862382, 0.0032109916, -0.0097233970, -0.0535701662, 0.0427889340, -0.0601418093, 0.1312430501, 0.0462915078, 0.0637364164, 0.0076048244, 0.0924411044, 0.0375207625, -0.0597362444, -0.0520366691, 0.0443305634, -0.0461165756, -0.0476956964, 0.0261059962, 0.0601600409, -0.0049364250, 0.0184168853, -0.0418132320, 0.0038857141, -0.0307963919, 0.0576225631, 0.0704125911, 0.0646910667, -0.0200654138, -0.0289331712, -0.0302206594, -0.0308519546, 0.0289175753, 0.0130443834, -0.0132620726, 0.0126349321, 0.0240438785, -0.0504774041, 0.0037018694, 0.1019236147, 0.0236483775, 0.0414178558, 0.0270992965, -0.0165769272, 0.0096910074, 0.0850670934, -0.0356158465, -0.0735446140, 0.0100439396, -0.0045591565, -0.0366536528, 0.0249682181, 0.0459398255, -0.0345400162, -0.0357207991, 0.0316094384, -0.0204140171, 0.0256018899, 0.0276276823, 0.1087239459, -0.0393659249, 0.0404017568, -0.0686700419, -0.0198288299, -0.0221414566, -0.0410205461, 0.0256326906, -0.1220505610, 0.0284698494, 0.0276601240, 0.0084710512, 0.1417723149, -0.0189948063, 0.0105778398, -0.0155347958, 0.0713253394, -0.0055247368, -0.0985590816, -0.0754599199, -0.0077407188, -0.0052878335, -0.0521250591, 0.0461200252, 0.0462169349, 0.0811848342, 0.0351497829, -0.0404390022, -0.0749516413, -0.0194770917, -0.0541508272, 0.0152582368, 0.0717030093, -0.0083101857, 0.0151374200, 0.0214006994, -0.0474309996, -0.0224011242, -0.0456788205, 0.1261926889, -0.0177416038, 0.0247222707, -0.0913252905, 0.0007010307, 0.1686642915, 0.0016985364, 0.0193907805, 0.0690056756, 0.0496703312, 0.0139383180, -0.0170726646, -0.1078656837, 0.0636037737, 0.0114231845, -0.0321426243, -0.0303080082, 0.0259296410, -0.0072725234, -0.0729664713, 0.0377471298, 0.0196111742, 0.0481890589, 0.0724070296, 0.0779078975, 0.0106054945, -0.0352647528, 0.0403704643, -0.0425259583, -0.0073713493, 0.0226883497, -0.0088004954, 0.0328338854, -0.0003976706, 0.0092531629, -0.0542305894, -0.0473058932, 0.0540992022, -0.0103982557, -0.0488909930, 0.0215141457, -0.0352480635, 0.1280541569, -0.0440604612, -0.0409369096, -0.0120519511, 0.0017757865, -0.0527394600, 0.0452500023, 0.0103734229, -0.1165071055, 0.0509809516, 0.0171381943, 0.0567987151, -0.0376508012, 0.1225854605, 0.1100175008, 0.1038655043, -0.0670469105, 0.1081370264, -0.0165782645, 0.0601453073, -0.0087993545, 0.0533686839, -0.0200308636, -0.0337037891, -0.0011265440, -0.0268373620, 0.0077949949, 0.0186894126, -0.0125364522, -0.0552817024, 0.0759617239, -0.0388456993, 0.1360737383, -0.1496219039, -0.0361002497, 0.0882477015, -0.0318135358, 0.0500862449, 0.0374192297, 0.0177888721, 0.0692377761, 0.0033737090, -0.0637048781, 0.0083005568, 0.0277584754, -0.0122658834, 0.0440092273, -0.0277060252, 0.0255725309, -0.0182852410, -0.0474654399, -0.0285641532, 0.0158345588, -0.0410243571, -0.0301175769, -0.0617460981, -0.0434818082, -0.0042264117, 0.0220818762, 0.0618484505, -0.0667715296, -0.0061579361, 0.0057694484, -0.0321550034, -0.0408974886, -0.0218318198, 0.0262004957, 0.0302457586, -0.0329094082, -0.0579089746, 0.0479877703, -0.0173874814, -0.0349123552, -0.0276549198, -0.0234127715, -0.0855134651, -0.0223976150, 0.0352912061, 0.0297729634, 0.0393960290, -0.0433634967, 0.0088427905, -0.0299115945, 0.0055809407, 0.0455143712, -0.0219909698, 0.1548268944, 0.0525768884, 0.0295765027, 0.0310278554, 0.0302260108, -0.0214619152, 0.0471624546, -0.0059396499, 0.0896876827, -0.0317285284, 0.1400554180, 0.0557921790, -0.0240540057, 0.0320828408, 0.0370976254, -0.0651341304, -0.0189567916, 0.0265783127, 0.1580583602, -0.0315716900, 0.0065391283, -0.0168570988, 0.0027943612, 0.0210464671, -0.0181165077, 0.0479220971, 0.0347300880, 0.0140710538, -0.0717349797, -0.0545799397, 0.0034181885, 0.0248619914, -0.0123941824, 0.0085152853, -0.0592724010, -0.0098476149, 0.0203242432, 0.1264082193, -0.0660277680, -0.1097215936, -0.0481426269, -0.0919464007, -0.0957809016, 0.0667734519, -0.1366008222, -0.0323487781, -0.0524747334, -0.0190775208, -0.0393291898, 0.0408151150, -0.0308602434, -0.0350191072, -0.0198712423, 0.0719367787, -0.0486569889, 0.1010553017, 0.0261812229, -0.1069908664, -0.0041038659, -0.0004629756, -0.0594917573, 0.0186035130, 0.0016476326, 0.0464637987, -0.0039353720, 0.0414365232, 0.0018786058, 0.0149512114, 0.0438464992, -0.0302154999, 0.0315171294, -0.0408745259, 0.1031001955, -0.0289950594, 0.1285624206, 0.0012323876, 0.0196021814, 0.0386364125, -0.0031751662, 0.0424092449, 0.0016903947, -0.0335768983, -0.0049232938, -0.0142408051, 0.0520834625, -0.0285956450, -0.0347018391, -0.0816798061, -0.0185795370, 0.0375109389, 0.0092455307, -0.0099249072, 0.0115330704, -0.0178529546, -0.0047538355, -0.0088530295, 0.1114342287, 0.0421426408, -0.0563600920, 0.0127456272, 0.0076967361, 0.1127516925, -0.0542725176, -0.0676796511, -0.0246935040, -0.0098054809, 0.0328152254, 0.0124197276, -0.1283994168, -0.0173293836, -0.0129024908, -0.0310031679, -0.0439277031, 0.0428990424, 0.0252793077, -0.0075450744, -0.0408059880, 0.0471877567, -0.0127888424, 0.0042437972, -0.0456865914, -0.0340162441, 0.0941017941, -0.0157712866, 0.0083524417, -0.0510168038, -0.0366535783, -0.0357793570, 0.1013372391, -0.0532858372, -0.0513544567, -0.0915173218, -0.0143209184, 0.0756611675, -0.0383286215, -0.0511275865, 0.0371222422, 0.0425841548, 0.0449707359, -0.0168970358, -0.0857402161, -0.0271269325, -0.0538180023, -0.0229664426, -0.0022060189, -0.0644601360, 0.0087509416, 0.0277744327, -0.0067812316, 0.0249411482, 0.0426943675, -0.0066640954, 0.0347824544, -0.0808787942, 0.0395266525, 0.0474652015, -0.0781204477, -0.0131842317, -0.0487315282, 0.0425253324, 0.1299912483, 0.0222371295, 0.0607459843, -0.1006211564, -0.0632724613, -0.0056632739, 0.0443040952, -0.0163381770, -0.0429343171, 0.0137306536, 0.1049835607, -0.1630214900, -0.0779110119, -0.0038725757, 0.0283314232, -0.0319154188, -0.0084883636, -0.0303261876, -0.0848350525, 0.0605435781, 0.0459948294, -0.0027291181, -0.0225613676, 0.0217156205, 0.0530634634, 0.0556775555, -0.0100770909, 0.0325178020, -0.0773521140, -0.0118578421, -0.0082177371, -0.0372413024, 0.0152170081, -0.0077060428, -0.0011336753, 0.0108102057, -0.0532625243, -0.0485890880, -0.0466866568, -0.0654201731, 0.0428759120, 0.0255841501, 0.0052537406, -0.0804615617, -0.0685704648, 0.0588571690, 0.0061293938, -0.0060655773, 0.0229975022, 0.0312514715, 0.1025336906, -0.0434035137, -0.0111292768, 0.0063623535, 0.0031381513, -0.0009969578, 0.0624122545, -0.0010809831, 0.0337705575, 0.0211567059, -0.0116066076, 0.0134289367, -0.0466365851, -0.0399681926, 0.0535051748, -0.0176111236, -0.0290613435, -0.0061889696, 0.0468802974, 0.0427315980, 0.0270827021, -0.0722455382, 0.0234968327, 0.0046551344, 0.0270917546, -0.0598917305, 0.1066719592, 0.0397707671, 0.0386791974, 0.0055369399, -0.0525884368, -0.0228249561, -0.1500400603, 0.0377733372, 0.0073009245, 0.0542968996, 0.0339717679, 0.1230395287, 0.0611567870, 0.0247251298, -0.0174216945, 0.0378291048, -0.0113138342, 0.0570789389, -0.0287207700, 0.0409716293, -0.0568727367, 0.1622129977, 0.0237975419, 0.0156225143, -0.0355222076, -0.1436422765, -0.0088728294, -0.0402671732, 0.0414408520, -0.0541003384, 0.0991932452, -0.0443759598, -0.0840573385, 0.0290049165, 0.0115013001, -0.0150754731, 0.0137421954, -0.0395714976, -0.0024090749, 0.0265293829, -0.0177545957, 0.0794769153, 0.0019847674, 0.0511240810, 0.0547988787, -0.0059166490, 0.0353756398, -0.1035036147, -0.0895559192, 0.0359079801, -0.0397485159, -0.0159318056, 0.0162709523, -0.0333610885, -0.0156854372, -0.0592261478, -0.0640902743, -0.0127800005, 0.0502914377, 0.0011141866, 0.0427397229, -0.0291236304, 0.0105366968, 0.0731925145, -0.0433673747, -0.0669779554, 0.0066499063, 0.0037773545, 0.0099326093, -0.0237851795, -0.0121684223, -0.0193945542, 0.0224024914, 0.0435981825, 0.0223043039, 0.1213773787, -0.0349459127, 0.0133586237, 0.0318978168, -0.0162109509, 0.0111179324, -0.0199822076, -0.0520243645, -0.0191949233, -0.0303702969, -0.0515623018, 0.0239731390, -0.0249383524, -0.0099696331, -0.0956342742, -0.0531907901, -0.0430061445, 0.0888400450, -0.0361902453, 0.0273934025, -0.0071478765, -0.0111906640, 0.0304400697, -0.0251346119, -0.0301503129, 0.0448105149, -0.0475517921, -0.0431700498, -0.0646818057, 0.0125010703, 0.1007057577, -0.0120895570, 0.1215854511, 0.0488546044, -0.0704106688, 0.0211183242, -0.1347518861, -0.0858151615, -0.0164201651, 0.0428167991, 0.0563002490, 0.1075865105, -0.0103091849, -0.0080900816, -0.0083828233, 0.0029698713, -0.0104974862, 0.0275214892, -0.0199360996, 0.0650623217, 0.0164262783, 0.0549339242, -0.0507855825, -0.0629968196, 0.0016558022, -0.0649808943, -0.0539633632, 0.0454013459, -0.0529438369, -0.1043733582, -0.0499646924, 0.0446358658, 0.0519167073, 0.0458793491, 0.0512573048, -0.0158673134, 0.0769462660, -0.0427515209, -0.1055754051, -0.0812107921, 0.0476563387, 0.0525504164, -0.0159627534, 0.0643517151, 0.0065042367, 0.0400134921, -0.0901802480, 0.0043006786, 0.0139137246, -0.0573515631, 0.0820565969, 0.0642628670, -0.0617900863, 0.0742226541, -0.0462885685, 0.0254473370, 0.0214047600, -0.0720936731, -0.0101022786, -0.0161671974, -0.0081770029, -0.0669400096, -0.0270709526, -0.0565214641, 0.0518113375, -0.0275444966, 0.0601670332, 0.0602338202, 0.0077879196, -0.0099665737, 0.0298682712, 0.0171822011, -0.0142556243, 0.0388022736, -0.0451138578, 0.0392778404, -0.0181711279, 0.0412974246, -0.0823786706, 0.0253938921, -0.0295910724, -0.0558207072, 0.0607121028, 0.0012316571, -0.0039316951, 0.0676237270, -0.1065001488, -0.0211506449, -0.0584556162, -0.0311266314, -0.0099120364, -0.0328290462, 0.0738369226, -0.0161759891, 0.0065512694, 0.0545135774, 0.1187856421, -0.0568660237, 0.0860050395, 0.0078433277, -0.0019258596, 0.0589782521, 0.0187793020, -0.0131635778, -0.0262299385, 0.0597673170, -0.0201667007, 0.0559736826, -0.0561188497, 0.0314955004, -0.0014577005, -0.0405220538, -0.0404506214, -0.0343457051, -0.0490196161, 0.0749535039, -0.0473993793, 0.0005392878, -0.0441382602, -0.0390694737, -0.0451730229, 0.0533936061, -0.0374728404, 0.0302489623, 0.0323534533, 0.0491111390, -0.0488280468, -0.0041741086, -0.1308103800, -0.0655413568, 0.0406779461, -0.0205615629, -0.0112255923, -0.0064108926, -0.0154050812, 0.0500412025, 0.0251839999, -0.0179974604, 0.0475302450, -0.0178841539, 0.0161519907, -0.0473558344, 0.0087844133, 0.0383663252, 0.0181306656, 0.0107155284, 0.0718891919, 0.0267811324, -0.0287947226, -0.0186332557, -0.0310086776, -0.0137365758, -0.0515360907, -0.0315080732, -0.0157945156, -0.0552578159, -0.0664329901, -0.0540051945, -0.0594671704, 0.0269764774, -0.0323115662, -0.0068111890, 0.0594057553, -0.0166992377, -0.0291757472, 0.0581736751, 0.0071732206, 0.0496394373, 0.0013945659, 0.0271965899, 0.0051559247, -0.0078240139, 0.1872836649, 0.0536451638, 0.0558061339, 0.0050023161, -0.0639382377, -0.0529399477, -0.0916627049, 0.0573809072, -0.0271462835, 0.0434248336, -0.1117016301, -0.0125613566, 0.0312804841, -0.0233654529, -0.0298480075, 0.0477802977, -0.0930768028, 0.0105516547, -0.0619670376, -0.0364744924, -0.0370974615, -0.0036691576, -0.0082225399, 0.0098256199, 0.0138654066, -0.0364564322, -0.0735504180, -0.0376010202, 0.0291972794, 0.0026756607, -0.0333367735, 0.0706265867, 0.0668593273, 0.0058015417, 0.0114001324, 0.0336341597, 0.0158359632, -0.0318797529, 0.0280567352, -0.0042613256, -0.0005912780, 0.0492079780, -0.0666888058, -0.0152212940, -0.0001098440, -0.0018835005, 0.0294431597, -0.0455733985, -0.0399786495, 0.0239214357, -0.0119746868, 0.0341271125, -0.0294682048, -0.0550219640, 0.0310287774, 0.0344851911, -0.0075457068, 0.0844108239, -0.0795706511, 0.0548596010, 0.0255449247, -0.0600961559, -0.0069011804, 0.0543318838, 0.0226450115, -0.0075667859, -0.0295424797, -0.0541491136, -0.0633285120, 0.0155694420, 0.0068983110, 0.0251750555, 0.0378476456, 0.0208384003, -0.0076005808, 0.0125799784, 0.0428482331, -0.0127256531, -0.0591240264, -0.0604613014, -0.0936810896, -0.0786277950, -0.0527209640, 0.0052422173, 0.0273604784, 0.0321787372, 0.1047710851, 0.0564650819, -0.0628785565, 0.0282596480, -0.0409810655, -0.0636202097, 0.0592195354, 0.0294630360, 0.0476247855, 0.0260463301, -0.0017801801, 0.0355296656, -0.0020706966, 0.0196416620, 0.0370211080, 0.0433158800, 0.0130028687, -0.0237957630, -0.0756767392, 0.0478309914, -0.0376264006, 0.0034816470, -0.0347980820, -0.0065955902, -0.0565123670, -0.0318244621, -0.0288744420, -0.1081626713, 0.0166417584, 0.0162051395, -0.0124680251, 0.0279840007, -0.0425645448, -0.0019163780, 0.0387164727, 0.0363679565, -0.0631439835, -0.0082372474, -0.0012363539, -0.0419814289, -0.0190975666, 0.0146013862, -0.0900944993, -0.0339290686, -0.0360925645, 0.0277904645, 0.0219392478, -0.0575104542, 0.0517635122, 0.0397680141, 0.0512485839, -0.0204992760, -0.0606281161, -0.0717587844, -0.0135038728, 0.0283986609, 0.0294599067, -0.0264510773, 0.0696817487, 0.0206657238, 0.0560193062, -0.0106397606, 0.0391717739, -0.0388994440, -0.0442429110, 0.0760659277, -0.0198254641, 0.0088021271, -0.0734505132, -0.0653219670, -0.0373686776, 0.0498560555, 0.0469923243, 0.0871373788, -0.0251382068, 0.0102516515, -0.0891682804, -0.0438898206, 0.0272678137, -0.0360021293, 0.0905455276, 0.0481520407, -0.0357335359, 0.0107105738, -0.0700802878, -0.0415452644, -0.0142944809, 0.0406382345, 0.0405641459, -0.0384580120, -0.0093761180, -0.0829660818, -0.0132914148, 0.0231462754, 0.0524556227, 0.0227586720, 0.0380872339, 0.0382177681, -0.0225961171, -0.0397235118, -0.0012587982, -0.0393839553, 0.0201371647, 0.0149879195, -0.0306864716, -0.0371929109, 0.0283720326, 0.0413384922, 0.0359165184, -0.0410762019, 0.0422263294, -0.0585370138, -0.0029649427, 0.0988229290, -0.0400814898, 0.0512507893, -0.0401010364, 0.0905632600, -0.0082071433, 0.0528631061, 0.0119268037, 0.0143763125, 0.0029632589, 0.1485558152, 0.0234468635, -0.0266167354, -0.0305858720, 0.0377240591, -0.0018335480, -0.0148960743, -0.0022926019, 0.0121585019, 0.0263552647, 0.0182938874, 0.0112589495, 0.0400632918, 0.0533033423, -0.0247352254, 0.0820567682, 0.0021796131, -0.0281185545, -0.0547107607, 0.0152805056, -0.0405502394, 0.0367229581, 0.0025786723, -0.0587857366, -0.0833759233, 0.0294112694, -0.0129691698, -0.0033163091, 0.0331504680, 0.0453606136, 0.0107292868, -0.0436092243, -0.0355834812, -0.0317506827, -0.0605164804, -0.0451604500, 0.0502513088, -0.0492767505, 0.0325097442, -0.0395624042, -0.0456250310, 0.0237659942, 0.0105190780, 0.0322643965, 0.0575652607, -0.0009975210, 0.0509018004, 0.0366595648, 0.0077048503, 0.0303884577, -0.0279639587, 0.0920563042, -0.0459279604, -0.1565983146, -0.0177573990, 0.0162976515, 0.0519920401, -0.0496346354, -0.0368054993, -0.0098665496, -0.0265385490, -0.0136015918, 0.0099546546, -0.0601866916, -0.0106007159, -0.0592577606, -0.0225750376, -0.0529670231, 0.0305969194, 0.0511683263, 0.1041682512, -0.0868963003, -0.0523578450, -0.1300726980, -0.1021785736, 0.0221037064, 0.0487821400, 0.0249601789, 0.0645262599, 0.0368059836, -0.0269681159, 0.0284075513, 0.0428880714, 0.1567243338, 0.0113871973, 0.0382901914, 0.0474600233, 0.0821783543, 0.0447343290, 0.0667605624, -0.0596273988, -0.0548623614, -0.0067155147, 0.0342361517, 0.0306175947, 0.0549726896, -0.0595405102, -0.0148333097, -0.0437379181, 0.0399460122, -0.0312657766, -0.0260839276, 0.0826454312, -0.0818400979, 0.1000496373, 0.0047993730, 0.0069384058, -0.0350581333, 0.0037865199, -0.0418696888, 0.0328292400, -0.0238399096, -0.0257776789, -0.0141038261, 0.0206576623, 0.0012824126, 0.0202482399, 0.0141360769, -0.0041504917, 0.0004768332, 0.0434090905, 0.0959461853, -0.0449006036, 0.0620229170, 0.0553233251, -0.0165385008, 0.0307467710, -0.0257750079, -0.0566371754, 0.0348857194, 0.0038303842, -0.0600703396, -0.0340679102, 0.0692509711, 0.1049560905, -0.0754884779, 0.0089683784, -0.0627599880, -0.0087780906, -0.0534274764, -0.0238005631, -0.0067874528, 0.0489334315, -0.0510184653, 0.0346035250, -0.0533550493, -0.0634448752, 0.0739959106, 0.0478174984, -0.0375619009, -0.0226466171, 0.0174327046, -0.0083985068, 0.0194084812, -0.0767681450, 0.0055136392, 0.0499913245, -0.0231094565, 0.0153343715, -0.0554932766, -0.0156485941, 0.0093154898, -0.0168901235, -0.0958377495, -0.0116635915, -0.0101865930, 0.0446863808, 0.0496092215, 0.0778432861, 0.0476376079, 0.0193095673, -0.0290191788, -0.0224302635, -0.0327170640, 0.0601756051, 0.0304753445, -0.0428155176, -0.0557449348, 0.0454875641, 0.0262097772, 0.0407342762, -0.0286713578, -0.0193455331, 0.0541770831, 0.0605845824, -0.0537264235, 0.0206152443, -0.0181706212, 0.0513240620, 0.0133369537, -0.0646649078, -0.0186204780, 0.0842870027, 0.0416957885, -0.0436503291, -0.1027792394, -0.0440250672, 0.0172107294, -0.0127686383, 0.0164264850, -0.0716469958, 0.0077667516, -0.0635266975, -0.0301972590, -0.0162875019, 0.0396373086, 0.0440844186, 0.0059625837, 0.0262058061, -0.0518949479, -0.0006118853, 0.0166350640, 0.0062179430, 0.0797629803, -0.0286304578, -0.0472307876, 0.0457050949, -0.0220808275, 0.0773723647, -0.0622202680, -0.0644585341, 0.0422775857, -0.0384919383, 0.0769028291, 0.0354892761, -0.0280376300, 0.0102580748, -0.0996430963, 0.0042791106, 0.0544920526, 0.0741871223, -0.0292124934, 0.0437264442, -0.0744657889, -0.0816915408, -0.0611391738, 0.0098519959, -0.0568163767, 0.0508499816, 0.0136800082, -0.0208304264, -0.0397717953, 0.0527864732, 0.0947039574, 0.0281914584, 0.0122756716, 0.0763195381, 0.0305627137, -0.0105822524, -0.0815001130, 0.0437539220, 0.0017635046, -0.0315147527, -0.0298003126, -0.0244969372, -0.0008787640, 0.1027917117, 0.0138478009, 0.0227614753, -0.0680152029, 0.0521979816, 0.0344570130, -0.0017984413, 0.0202488638, -0.0055331285, 0.0682611465, -0.0459641516, 0.0244874954, -0.0663392320, -0.0597882755, -0.0280063581, 0.0293900929, -0.0057440875, 0.1237250865, 0.0091236196, 0.0620593019, 0.0008492679, -0.0021155470, -0.0379853398, 0.0212672371, -0.0111471834, -0.0143521912, 0.0252271350, 0.0322269611, 0.0078648180, 0.0512151942, -0.0478765257, 0.0126214772, 0.0440332964, -0.0604676604, 0.0378509574, -0.0314112864, -0.0104454327, 0.0703849047, 0.0131831355, 0.0914265290, -0.0849687159, 0.0665655285, -0.0593740456, -0.0153946113, 0.0397359133, -0.0606598519, 0.1060680375, -0.0104943207, -0.0048751757, 0.0255209412, -0.0063266754, -0.0472610183, 0.0608659945, -0.0884429291, 0.0469410233, -0.0520524271, -0.0449842438, -0.0751375630, -0.0315729007, -0.0156780500, -0.0052890405, -0.0611650310, -0.0354723483, -0.0520908497, -0.0374449790, 0.0478980243, 0.0557687245, 0.0491780788, -0.0387256965, 0.0551001169, 0.0558385924, -0.0535810590, -0.0109317414, 0.0310027674, -0.0562683418, -0.0031746775, 0.0211218614, -0.0089606941, -0.0121388016, -0.0423075147, 0.0181331765, -0.0744311735, -0.0127470093, 0.1318411827, 0.0129040908, -0.0779488236, 0.0952809528, -0.0153569654, -0.0403224230, -0.0597743988, -0.0110325422, 0.0994974375, 0.0224505924, 0.0193682946, 0.0257270448, 0.0532445982, 0.0396955013, 0.0040356563, 0.0003706925, 0.0923136249, -0.0073673879, 0.0272465758, 0.1077016890, -0.1197311357, 0.0225620605, 0.0461059660, 0.0375044271, 0.0097857350, 0.0002146046, 0.0327817015, -0.0202725939, 0.0094041899, -0.0314020105, -0.0174407493, -0.0327968188, 0.0080574416, 0.0219391938, 0.0995605960, -0.0033939045, -0.0041723833, -0.0981387123, 0.0218619425, 0.0046025254, -0.0109827407, 0.0555006899, -0.0305678248, -0.0139358006, 0.0880348533, -0.0986565351, -0.0546282418, 0.0002950218, -0.0973344520, -0.0566553921, 0.0559756570, -0.0068354737, -0.0772315562, 0.0360808447, 0.0173104964, -0.0217668712, 0.0523327664, 0.0465425663, -0.0548531003,