//Numpy array shape [1568, 32]
//Min -0.379262477160
//Max 0.393013030291
//Number of zeros 37632

#ifndef W11_H_
#define W11_H_

#ifndef __SYNTHESIS__
dense1_weight_t w11[50176];
#else
dense1_weight_t w11[50176] = {-0.1531445831, -0.0000000000, -0.0000000000, 0.0000000000, 0.0000000000, 0.0000000000, 0.0000000000, 0.0000000000, -0.0659416690, -0.0000000000, -0.0000000000, 0.0411827266, 0.0000000000, 0.0000000000, 0.1459946930, 0.0725505278, -0.0000000000, -0.0000000000, 0.0000000000, -0.0000000000, 0.0992089733, -0.0000000000, 0.0000000000, -0.1101730764, -0.0000000000, 0.0000000000, -0.0000000000, 0.0000000000, -0.0000000000, 0.0930981934, -0.0000000000, 0.0000000000, -0.0000000000, -0.0705342293, 0.0000000000, 0.0000000000, 0.0000000000, -0.0993366018, 0.0000000000, 0.0000000000, -0.0000000000, -0.0000000000, 0.1008721143, -0.1787779033, 0.0000000000, -0.0000000000, 0.0000000000, 0.0803050101, 0.0000000000, 0.0000000000, 0.0000000000, 0.1272943318, -0.0000000000, 0.0000000000, 0.2551707923, -0.0000000000, -0.0000000000, 0.0000000000, -0.2499343902, 0.0000000000, 0.0000000000, 0.0000000000, 0.1358720958, 0.0715634450, 0.0000000000, 0.0000000000, -0.0000000000, 0.0000000000, 0.0000000000, -0.0000000000, 0.0525471009, 0.0579334721, -0.0000000000, -0.1423086524, -0.0718372464, 0.0766675994, 0.0000000000, 0.0000000000, -0.0000000000, -0.0000000000, 0.0000000000, -0.0000000000, 0.0000000000, 0.0000000000, -0.0000000000, -0.0000000000, 0.0559247509, -0.0955887139, -0.0000000000, 0.0000000000, -0.0000000000, 0.0000000000, 0.1132867485, 0.1356612593, 0.0000000000, 0.0000000000, -0.0000000000, -0.0000000000, 0.0000000000, -0.0000000000, -0.0000000000, 0.0955713689, -0.0000000000, 0.0000000000, 0.0000000000, 0.0000000000, 0.0913396776, 0.0000000000, -0.0000000000, -0.0000000000, 0.0000000000, 0.0000000000, -0.0000000000, -0.0000000000, -0.0000000000, 0.1477158517, 0.0969484523, -0.0000000000, -0.0731174275, -0.0000000000, -0.0643207654, -0.0000000000, -0.1818244010, 0.0000000000, 0.1740209311, -0.1379700899, 0.1403146833, -0.0821411833, -0.0000000000, -0.0000000000, -0.0000000000, -0.0000000000, 0.0000000000, 0.0543149523, 0.0000000000, 0.0000000000, 0.0000000000, -0.0000000000, 0.0807602406, 0.0000000000, 0.0000000000, -0.0000000000, 0.1076318547, 0.1203485578, 0.0000000000, -0.0000000000, 0.0000000000, -0.0000000000, 0.0803872943, -0.0000000000, 0.0000000000, -0.1396332830, 0.0000000000, 0.0000000000, -0.0000000000, -0.0000000000, -0.0590957180, 0.0000000000, -0.0000000000, 0.0000000000, 0.0122210961, -0.0000000000, 0.0000000000, -0.0000000000, -0.0000000000, 0.0000000000, 0.0000000000, 0.0000000000, 0.0000000000, -0.0000000000, 0.0000000000, 0.0261521563, 0.0000000000, 0.0000000000, -0.0000000000, -0.0000000000, -0.0000000000, -0.0000000000, 0.0000000000, -0.0756017715, -0.1131662130, -0.0000000000, 0.0000000000, 0.0962828398, 0.0000000000, -0.0000000000, -0.0000000000, -0.0000000000, 0.0000000000, 0.0891036838, -0.0422250703, 0.0000000000, 0.0763942078, -0.0000000000, -0.0000000000, -0.0000000000, -0.0000000000, 0.0000000000, 0.0000000000, 0.0000000000, 0.0000000000, -0.0960343406, -0.0000000000, 0.0948793292, -0.0000000000, -0.0000000000, -0.0000000000, 0.0000000000, -0.0000000000, 0.0000000000, -0.0000000000, -0.0630541667, -0.0000000000, -0.0000000000, 0.0000000000, -0.0000000000, 0.0000000000, 0.0000000000, 0.0000000000, -0.0000000000, 0.1124187708, 0.0000000000, -0.0000000000, 0.0000000000, 0.0000000000, 0.0000000000, -0.0653046817, -0.0000000000, 0.0000000000, 0.0000000000, 0.0000000000, 0.0000000000, 0.0000000000, -0.0000000000, -0.0805449858, -0.1010130793, 0.0000000000, 0.0000000000, 0.1348841041, 0.0000000000, 0.0000000000, -0.0000000000, -0.0000000000, 0.0974741951, 0.0698020011, -0.0000000000, 0.0000000000, -0.0000000000, 0.0000000000, 0.0000000000, 0.0776431710, 0.0000000000, -0.1313960105, 0.0000000000, 0.0000000000, -0.0573023520, 0.0000000000, -0.0000000000, -0.0000000000, -0.0000000000, -0.0000000000, 0.0000000000, 0.0000000000, 0.0000000000, 0.0000000000, -0.0998561457, -0.0000000000, 0.0000000000, 0.0000000000, 0.0000000000, 0.0000000000, 0.0000000000, -0.0000000000, -0.0651007965, -0.0000000000, -0.0000000000, -0.0000000000, -0.0000000000, 0.1575923413, -0.0000000000, -0.0000000000, 0.0000000000, -0.0000000000, -0.0000000000, -0.0000000000, 0.0942138880, -0.0000000000, 0.0000000000, 0.0000000000, -0.0620987117, 0.0000000000, 0.0000000000, -0.0652818903, 0.0000000000, -0.0960150436, 0.1000136584, 0.0000000000, -0.0000000000, 0.0000000000, 0.0353632569, -0.0000000000, -0.0661026537, -0.0000000000, 0.0811914131, -0.0000000000, -0.0607397929, -0.0000000000, -0.0731250644, -0.0000000000, 0.0692786872, -0.0000000000, 0.0768216327, -0.0000000000, 0.0000000000, 0.0000000000, 0.0000000000, 0.0000000000, 0.0000000000, -0.0000000000, 0.0000000000, 0.0000000000, 0.0000000000, -0.0000000000, -0.0000000000, 0.0000000000, 0.0000000000, 0.0611520149, 0.1300538629, 0.0000000000, -0.0782945156, -0.0000000000, 0.0000000000, 0.0000000000, 0.0000000000, -0.0000000000, -0.0000000000, -0.0000000000, 0.0000000000, 0.0000000000, -0.0000000000, -0.0000000000, -0.0000000000, -0.1450311840, 0.0846361294, 0.0000000000, 0.0000000000, -0.1854750812, 0.0000000000, 0.0000000000, 0.0000000000, -0.1170722395, -0.0000000000, -0.0000000000, -0.0000000000, 0.0000000000, 0.0000000000, -0.0608690195, 0.1000638753, 0.0000000000, 0.0000000000, -0.0000000000, -0.0000000000, -0.0000000000, 0.0716647282, -0.0000000000, 0.0000000000, -0.0000000000, -0.0000000000, -0.0000000000, 0.0000000000, -0.0000000000, 0.0000000000, 0.0336718708, -0.1112039760, -0.1460619569, -0.0000000000, 0.0000000000, 0.0000000000, -0.0000000000, -0.0000000000, 0.0000000000, 0.0000000000, 0.0976282209, 0.0000000000, -0.0000000000, 0.0000000000, -0.0000000000, 0.0000000000, 0.0000000000, 0.0729589537, 0.0000000000, 0.0600616150, -0.0000000000, -0.1295713186, -0.0000000000, 0.0000000000, 0.0000000000, 0.0000000000, 0.0000000000, 0.0000000000, 0.0000000000, 0.0000000000, -0.0000000000, -0.0806648806, -0.0000000000, 0.1137249544, -0.0000000000, -0.0000000000, -0.0000000000, -0.0000000000, -0.0000000000, -0.0000000000, -0.0000000000, 0.0000000000, -0.0644507408, 0.0707836673, -0.0000000000, -0.0000000000, 0.0000000000, -0.0000000000, 0.0000000000, 0.1634203792, -0.0423330143, 0.0500272103, -0.0000000000, -0.1451044530, 0.0661675930, -0.1590749174, -0.0000000000, 0.0000000000, 0.0000000000, -0.0000000000, -0.0000000000, -0.0000000000, 0.0000000000, -0.0000000000, 0.2195909172, -0.0899294466, 0.1126660258, -0.0000000000, 0.0000000000, -0.0000000000, -0.2338380665, 0.0000000000, 0.0300909374, -0.1138184294, -0.0000000000, 0.0963546112, 0.0000000000, 0.0000000000, -0.0000000000, 0.0000000000, -0.0000000000, 0.0000000000, 0.0000000000, 0.0000000000, -0.0000000000, -0.1082930118, -0.0000000000, 0.0000000000, -0.0637637377, -0.0000000000, 0.0000000000, -0.0000000000, -0.0000000000, 0.0000000000, -0.0000000000, -0.0973135680, -0.0000000000, -0.0000000000, 0.0424833447, -0.0000000000, 0.0000000000, 0.0000000000, 0.0760606155, -0.0000000000, 0.0000000000, 0.0000000000, -0.0000000000, 0.0000000000, -0.0000000000, 0.0000000000, -0.0000000000, -0.0000000000, -0.0000000000, 0.0000000000, -0.0669120625, 0.1347556412, 0.0000000000, -0.0000000000, -0.0000000000, 0.0000000000, -0.0000000000, 0.0000000000, 0.0000000000, 0.0000000000, -0.0000000000, 0.0000000000, -0.0000000000, -0.0000000000, 0.0544692613, 0.0870546103, -0.0000000000, 0.0715679899, -0.0000000000, 0.0000000000, -0.0000000000, 0.0000000000, -0.1430817544, 0.0000000000, -0.0000000000, -0.0849690735, 0.0000000000, 0.0000000000, -0.0000000000, -0.0000000000, 0.0000000000, 0.0000000000, 0.0000000000, 0.0000000000, -0.0636990219, -0.0746806115, -0.0000000000, 0.0000000000, -0.0610802807, 0.0000000000, 0.0648777932, -0.0548024848, -0.0000000000, -0.0000000000, 0.0000000000, -0.0000000000, -0.0424605571, 0.0000000000, 0.2115989923, -0.0937595367, 0.0000000000, -0.0000000000, 0.0000000000, 0.0000000000, -0.0000000000, 0.0734774694, -0.1083380133, 0.0784757584, 0.0000000000, -0.0000000000, -0.0000000000, 0.0000000000, -0.0000000000, 0.0000000000, 0.0000000000, 0.0937111750, -0.0000000000, -0.1084086671, 0.0000000000, 0.0000000000, -0.0000000000, 0.0000000000, -0.0000000000, -0.0000000000, -0.0000000000, 0.0000000000, -0.0000000000, 0.1595749557, 0.1281935871, 0.0335659161, 0.1085163355, -0.0928087085, -0.0000000000, 0.0000000000, -0.0536185615, -0.0000000000, -0.1086974517, 0.0000000000, -0.0000000000, 0.0000000000, -0.0802994594, 0.0000000000, -0.0000000000, 0.0000000000, -0.0000000000, -0.0000000000, -0.0748269781, 0.0000000000, -0.0000000000, -0.0000000000, 0.1503297687, 0.0342738852, -0.0000000000, 0.0000000000, 0.0000000000, 0.0000000000, -0.0000000000, 0.0000000000, -0.0000000000, 0.1479047090, 0.1057355404, 0.0000000000, -0.1150180995, 0.1493424475, 0.0000000000, 0.0000000000, 0.0495181568, 0.0000000000, 0.0000000000, -0.0662057549, -0.0000000000, -0.0000000000, -0.0000000000, 0.0000000000, -0.0000000000, 0.0000000000, 0.0000000000, 0.0000000000, 0.0000000000, 0.0000000000, -0.0000000000, 0.0000000000, -0.0000000000, -0.1181680933, 0.0000000000, 0.0000000000, 0.0000000000, 0.0660675541, -0.0000000000, -0.0000000000, 0.0000000000, 0.1455117166, 0.1698826700, -0.0000000000, 0.0000000000, -0.1223121509, -0.0000000000, -0.0000000000, 0.0000000000, 0.0000000000, 0.0000000000, 0.0000000000, -0.0000000000, 0.0000000000, -0.0000000000, -0.0000000000, -0.0000000000, -0.0000000000, -0.0000000000, -0.0732579082, 0.0000000000, 0.0000000000, -0.0000000000, -0.1246937811, -0.0000000000, -0.1356230974, 0.0000000000, 0.0000000000, 0.0000000000, 0.0844009966, -0.0000000000, 0.0000000000, -0.0000000000, -0.1202725470, -0.0000000000, -0.0569936819, -0.0000000000, -0.0000000000, -0.0000000000, -0.0000000000, -0.0958078802, -0.0000000000, -0.0000000000, 0.0000000000, 0.0000000000, 0.0734940320, -0.1468275934, -0.0000000000, -0.0000000000, 0.0000000000, 0.0000000000, -0.0000000000, -0.1781069636, 0.0000000000, -0.0000000000, -0.0871056095, 0.0000000000, -0.0000000000, -0.0000000000, 0.0000000000, 0.1242956296, 0.0000000000, -0.0000000000, -0.0000000000, -0.0000000000, -0.0387615748, -0.0000000000, 0.0000000000, -0.0000000000, -0.0000000000, -0.0000000000, 0.0000000000, 0.0154785477, -0.0000000000, 0.1098755598, -0.0822114795, 0.2105798721, 0.0000000000, 0.0000000000, 0.0000000000, -0.0000000000, 0.0000000000, 0.0000000000, 0.0000000000, -0.0776515678, 0.0000000000, -0.0000000000, -0.0000000000, -0.0000000000, 0.0000000000, 0.0000000000, 0.0000000000, 0.1320334375, 0.0000000000, -0.0000000000, 0.0000000000, -0.0000000000, -0.0000000000, -0.0000000000, 0.0259306561, 0.1596640944, -0.0644436181, 0.0000000000, -0.0000000000, 0.0000000000, -0.0000000000, -0.0000000000, 0.0000000000, -0.0000000000, -0.0000000000, -0.0000000000, -0.0000000000, -0.0000000000, 0.0000000000, 0.0000000000, 0.0000000000, 0.0000000000, 0.1061043665, -0.0000000000, -0.0000000000, -0.0838853121, 0.1020862013, -0.0000000000, 0.0000000000, 0.1748003364, 0.0000000000, -0.0000000000, 0.0000000000, 0.0000000000, -0.0930145085, -0.0000000000, 0.0000000000, -0.0944901034, 0.1138785034, 0.0000000000, 0.0000000000, -0.0000000000, -0.0000000000, -0.0000000000, 0.0000000000, 0.0000000000, 0.0000000000, 0.0000000000, -0.0000000000, -0.0000000000, -0.0000000000, -0.0000000000, 0.1031245738, 0.0000000000, 0.0000000000, -0.0000000000, -0.0000000000, -0.0000000000, 0.0000000000, 0.0000000000, 0.0000000000, 0.0805867389, 0.0000000000, -0.0000000000, -0.0000000000, -0.0000000000, -0.0000000000, -0.0000000000, -0.0580138490, 0.1476237625, -0.0000000000, 0.0000000000, -0.0000000000, -0.0671411902, 0.0000000000, -0.0000000000, 0.0000000000, -0.0879850909, -0.0000000000, 0.0000000000, -0.0000000000, -0.0000000000, 0.0000000000, -0.0000000000, 0.1084640920, -0.0846285596, 0.0000000000, 0.0000000000, -0.0000000000, 0.0000000000, 0.0760542229, -0.0000000000, 0.0000000000, -0.1006264761, -0.0000000000, -0.0000000000, 0.0000000000, 0.0000000000, 0.0000000000, 0.1962975264, 0.1063746437, -0.0000000000, -0.1640868634, -0.0626978874, -0.0000000000, 0.0000000000, 0.0000000000, -0.0000000000, -0.0003601846, -0.0000000000, 0.0000000000, 0.0539510138, -0.0000000000, -0.0000000000, 0.0610361807, 0.0000000000, 0.0000000000, 0.0000000000, 0.0000000000, 0.0000000000, -0.0601052605, 0.1329815537, -0.0000000000, -0.0000000000, 0.0000000000, 0.0000000000, 0.0000000000, -0.0000000000, 0.0000000000, -0.0000000000, -0.0000000000, -0.0000000000, -0.0000000000, 0.0000000000, -0.0000000000, 0.0000000000, -0.0000000000, -0.0000000000, -0.0000000000, 0.0815543830, -0.1082498282, -0.0000000000, -0.0000000000, -0.0000000000, -0.0000000000, 0.0000000000, 0.0000000000, -0.0000000000, 0.0000000000, 0.0000000000, 0.0000000000, -0.0000000000, -0.0602445565, -0.0000000000, 0.0740463287, -0.0000000000, -0.0000000000, -0.1455270648, 0.0958016291, -0.0000000000, -0.0000000000, -0.0000000000, 0.0000000000, 0.1555926353, -0.0000000000, -0.0000000000, -0.0000000000, 0.0000000000, -0.0000000000, 0.0000000000, -0.0000000000, 0.1735891402, 0.0000000000, 0.1049892530, -0.0613370650, -0.0000000000, 0.0000000000, -0.0000000000, -0.0000000000, 0.0000000000, 0.0000000000, 0.0000000000, 0.0000000000, 0.0000000000, -0.0838766992, -0.0000000000, 0.0000000000, 0.0000000000, -0.0000000000, 0.0000000000, -0.0487688929, -0.0000000000, -0.0000000000, 0.0000000000, -0.0000000000, -0.0000000000, -0.0342237502, 0.0000000000, -0.0000000000, -0.0000000000, -0.0000000000, -0.1028766409, -0.0000000000, -0.0000000000, -0.0710549206, -0.0000000000, 0.0000000000, -0.0037505177, -0.0000000000, 0.0000000000, 0.0000000000, -0.0000000000, 0.0000000000, 0.0000000000, 0.0000000000, -0.0624808297, -0.0000000000, -0.1172820702, 0.0000000000, 0.0000000000, 0.0000000000, 0.0000000000, 0.0000000000, 0.0000000000, 0.0000000000, -0.0000000000, -0.0689648315, -0.0000000000, -0.0461125299, 0.0473391637, 0.0678371266, 0.0000000000, 0.0000000000, -0.0000000000, -0.0699734986, 0.0464615934, -0.0750669390, -0.0000000000, 0.0000000000, 0.0000000000, 0.0000000000, -0.0000000000, 0.0000000000, 0.0000000000, 0.0000000000, 0.0000000000, 0.0000000000, -0.0000000000, -0.0000000000, -0.0000000000, 0.0000000000, 0.0000000000, 0.0000000000, 0.0590002686, -0.0000000000, -0.0000000000, 0.0000000000, 0.0000000000, -0.0000000000, 0.0000000000, 0.0448828898, -0.0000000000, -0.0000000000, -0.0000000000, -0.0000000000, 0.0000000000, -0.0000000000, -0.1015771478, 0.0000000000, -0.0000000000, -0.0000000000, 0.0993717238, -0.0000000000, -0.0000000000, -0.0000000000, -0.0000000000, -0.0000000000, -0.1263299435, 0.0000000000, -0.0000000000, -0.0000000000, -0.0000000000, 0.0000000000, -0.0000000000, 0.0000000000, 0.0000000000, 0.0000000000, -0.0000000000, 0.0000000000, 0.0000000000, -0.0000000000, 0.0657124445, 0.0000000000, 0.0000000000, -0.1434343606, -0.0000000000, -0.0000000000, 0.1183174476, -0.0000000000, 0.0000000000, 0.0732822344, 0.0000000000, -0.0748592690, 0.0000000000, 0.0000000000, -0.0000000000, 0.0000000000, 0.0000000000, 0.1116640195, 0.0000000000, 0.0892168954, -0.0000000000, -0.0000000000, -0.0000000000, 0.0000000000, 0.0000000000, 0.0000000000, -0.0389323607, 0.0000000000, -0.0000000000, -0.0000000000, -0.0000000000, -0.0000000000, -0.0000000000, -0.0581180081, -0.0000000000, -0.0000000000, -0.0000000000, 0.0000000000, 0.1137924865, 0.0000000000, -0.0000000000, 0.0000000000, -0.1046707630, -0.0000000000, -0.0000000000, 0.0000000000, -0.0000000000, 0.0000000000, 0.0000000000, 0.0000000000, -0.1188932955, 0.0000000000, 0.0000000000, -0.0000000000, 0.0650537610, 0.0000000000, -0.0000000000, -0.0000000000, 0.0000000000, -0.0000000000, -0.0000000000, 0.0000000000, 0.0000000000, 0.0000000000, 0.0000000000, -0.0000000000, -0.0000000000, -0.1650323719, 0.0000000000, -0.0000000000, 0.0000000000, -0.0000000000, -0.0525142960, 0.0000000000, -0.0000000000, -0.0659776032, 0.0218652766, 0.0000000000, -0.0000000000, -0.0000000000, 0.0000000000, 0.0638540760, 0.0000000000, 0.0000000000, -0.0000000000, -0.0000000000, 0.0745008513, -0.0000000000, 0.0000000000, -0.0000000000, 0.0785880536, 0.0000000000, 0.0000000000, 0.0000000000, 0.0000000000, 0.1347210556, -0.0000000000, 0.0811780691, 0.0000000000, -0.0000000000, -0.0000000000, 0.0000000000, -0.0916692242, -0.0000000000, 0.0000000000, -0.1470760107, -0.1575101763, -0.0000000000, -0.0000000000, 0.0000000000, -0.0000000000, 0.0000000000, 0.0000000000, 0.0000000000, 0.0000000000, 0.0285588223, -0.0000000000, -0.0000000000, 0.0000000000, 0.1061012968, 0.0000000000, -0.0000000000, 0.0000000000, -0.0000000000, 0.0000000000, -0.0000000000, 0.0000000000, 0.1955831945, 0.3363998830, -0.1621323824, -0.0497997329, -0.1196399406, -0.0000000000, 0.0000000000, 0.0000000000, 0.0000000000, -0.0957947224, 0.0000000000, -0.0000000000, -0.0000000000, -0.1100803539, 0.0000000000, -0.0000000000, -0.0000000000, 0.0000000000, 0.0000000000, 0.0000000000, 0.0665893629, 0.0000000000, -0.0000000000, -0.0939785168, -0.0000000000, -0.0000000000, 0.0000000000, -0.0158200040, 0.0000000000, -0.0000000000, -0.0000000000, -0.0000000000, -0.1047264189, -0.1296700239, 0.0000000000, 0.0000000000, -0.0000000000, 0.0000000000, -0.0000000000, -0.0000000000, -0.0000000000, -0.0000000000, -0.0285013653, -0.0000000000, -0.0671724677, -0.0000000000, 0.0000000000, 0.0000000000, 0.0000000000, 0.0000000000, 0.0000000000, 0.0000000000, 0.0000000000, -0.0000000000, -0.0000000000, -0.0000000000, 0.0000000000, -0.0000000000, -0.0000000000, 0.0000000000, 0.0000000000, 0.0000000000, 0.0000000000, 0.0000000000, 0.0000000000, -0.0000000000, 0.0000000000, -0.0000000000, -0.0000000000, -0.0000000000, -0.0000000000, -0.0229142420, 0.0000000000, 0.0796492249, -0.0395710841, -0.0559280664, 0.0000000000, -0.1482285559, 0.0000000000, -0.0000000000, 0.0000000000, 0.0000000000, 0.0000000000, -0.1413472593, 0.0490382165, 0.0000000000, -0.0000000000, -0.0000000000, 0.0000000000, -0.0000000000, 0.0000000000, 0.1250530630, -0.0000000000, -0.0000000000, -0.0000000000, 0.0000000000, 0.0972444564, -0.0000000000, -0.0000000000, -0.0000000000, -0.0000000000, -0.0000000000, 0.0000000000, 0.0000000000, -0.0000000000, -0.0000000000, 0.0000000000, -0.0000000000, 0.0000000000, 0.0815072730, 0.0000000000, -0.0000000000, 0.0000000000, 0.0000000000, 0.0000000000, 0.0000000000, 0.0000000000, 0.0000000000, -0.0000000000, 0.0464630276, 0.0582830533, -0.0000000000, 0.0000000000, 0.1873044521, 0.0000000000, 0.0000000000, -0.0000000000, -0.0000000000, -0.0000000000, -0.0000000000, 0.0000000000, 0.0000000000, -0.0000000000, 0.0000000000, 0.0000000000, 0.0862786546, 0.0000000000, 0.0000000000, 0.1182016358, -0.0000000000, 0.0000000000, 0.0000000000, -0.0000000000, -0.0000000000, -0.0000000000, -0.0688537806, 0.0777772814, 0.0000000000, 0.0000000000, -0.0654909387, -0.0000000000, 0.0946040377, 0.1033945382, 0.0000000000, 0.0000000000, -0.0975973457, 0.0000000000, -0.0000000000, 0.0000000000, -0.0000000000, -0.0000000000, -0.0000000000, 0.0691480637, -0.0000000000, -0.0000000000, 0.0000000000, -0.0000000000, 0.1209953874, 0.0000000000, -0.0000000000, -0.0708696768, -0.0000000000, 0.0000000000, -0.0000000000, 0.0000000000, -0.0678333864, 0.0000000000, -0.0000000000, 0.1279080361, 0.0000000000, 0.0000000000, -0.0000000000, -0.0000000000, 0.0983176231, 0.0000000000, -0.0000000000, -0.0000000000, 0.0000000000, -0.0000000000, -0.0000000000, 0.0000000000, -0.0000000000, 0.0000000000, 0.0000000000, -0.0000000000, -0.0000000000, -0.0972551629, -0.0000000000, 0.0000000000, 0.0000000000, 0.0000000000, -0.0205646697, 0.0438565277, -0.0000000000, 0.0685115084, 0.0332232006, 0.0000000000, -0.0000000000, 0.0000000000, 0.0000000000, 0.1313848197, 0.0000000000, 0.0000000000, 0.0000000000, 0.0707215890, 0.0717890486, 0.0000000000, -0.0000000000, -0.0000000000, 0.0000000000, 0.0000000000, -0.0000000000, 0.0000000000, 0.0000000000, 0.1573127061, -0.0000000000, 0.0000000000, 0.0823207945, -0.0000000000, 0.0000000000, -0.0000000000, 0.0000000000, -0.0000000000, 0.1790243089, 0.0000000000, -0.0000000000, 0.0000000000, -0.0616761781, -0.0000000000, 0.0000000000, 0.0000000000, -0.0000000000, -0.0000000000, -0.1110144407, 0.0000000000, -0.0000000000, 0.1289396286, 0.0000000000, 0.0981864408, -0.0000000000, -0.0000000000, 0.0000000000, -0.0690224394, 0.0000000000, 0.0000000000, -0.0000000000, 0.0000000000, 0.3085452616, 0.0668088496, -0.0509280749, -0.0000000000, 0.0000000000, 0.0000000000, 0.0000000000, 0.0000000000, -0.0970302299, 0.0000000000, -0.0000000000, -0.0807911083, -0.1212187111, 0.0000000000, -0.0000000000, 0.0000000000, 0.0000000000, 0.0000000000, -0.1398056895, 0.0000000000, -0.0000000000, -0.0000000000, -0.1006777436, 0.0000000000, -0.0000000000, -0.0000000000, 0.0000000000, 0.0000000000, -0.0000000000, 0.0000000000, -0.0000000000, -0.0000000000, -0.0000000000, 0.0000000000, -0.0000000000, -0.0000000000, 0.0000000000, 0.0000000000, -0.0000000000, -0.0000000000, 0.0000000000, 0.0000000000, -0.0000000000, 0.0000000000, -0.0000000000, 0.0000000000, 0.0000000000, -0.0000000000, 0.0000000000, 0.0000000000, -0.1765505672, 0.0000000000, -0.0000000000, -0.0000000000, -0.0000000000, -0.0728717893, -0.0000000000, -0.0664460510, 0.2032484412, 0.0000000000, 0.0000000000, 0.0000000000, -0.0000000000, 0.0489817299, -0.1679721177, 0.0000000000, 0.0848189518, 0.0514895879, -0.0638204813, 0.0000000000, 0.0000000000, -0.0658691153, 0.0000000000, -0.0211811811, 0.0775860474, 0.0000000000, -0.0000000000, -0.0000000000, -0.0000000000, -0.0000000000, -0.0000000000, 0.0000000000, -0.1120914742, 0.0000000000, 0.0000000000, -0.0000000000, -0.0000000000, 0.0000000000, 0.0000000000, -0.0000000000, 0.0000000000, -0.0000000000, 0.0000000000, -0.0000000000, 0.0000000000, -0.0000000000, -0.0821551383, 0.0887653977, -0.0000000000, -0.0000000000, 0.0000000000, 0.0000000000, -0.1574664414, 0.0000000000, -0.0000000000, 0.0000000000, 0.0476575866, 0.0000000000, -0.0000000000, 0.0000000000, -0.0000000000, -0.0000000000, 0.0000000000, 0.0000000000, 0.0847269595, 0.0000000000, 0.0000000000, -0.0000000000, -0.0000000000, 0.0000000000, 0.0000000000, 0.0000000000, 0.0000000000, 0.0000000000, -0.0000000000, -0.0000000000, 0.0000000000, -0.0000000000, -0.0000000000, -0.0503773689, -0.0000000000, 0.1178744584, 0.0000000000, 0.0000000000, 0.0663300678, 0.0000000000, 0.0000000000, 0.0000000000, -0.0000000000, 0.0837479383, 0.0000000000, -0.0000000000, -0.0000000000, -0.0000000000, -0.0000000000, -0.0762299895, 0.0000000000, 0.0000000000, 0.0000000000, -0.0509740226, -0.0000000000, 0.1233873367, -0.0000000000, 0.0000000000, 0.0000000000, 0.0000000000, -0.0000000000, 0.0000000000, 0.0000000000, -0.0000000000, -0.0000000000, 0.0719299167, -0.0000000000, -0.0000000000, -0.0000000000, 0.0000000000, 0.1002091393, 0.0000000000, -0.0000000000, -0.1514659673, -0.0000000000, 0.0000000000, -0.0000000000, -0.0000000000, 0.0000000000, 0.0000000000, -0.0000000000, 0.0000000000, -0.1499720812, 0.0000000000, -0.0000000000, 0.1072540581, -0.0000000000, 0.0465271473, -0.0000000000, -0.0000000000, 0.1680827588, -0.0000000000, -0.0000000000, -0.0000000000, 0.0000000000, -0.0000000000, 0.0000000000, -0.0000000000, -0.0000000000, -0.0000000000, -0.0000000000, -0.0000000000, 0.0000000000, 0.0000000000, -0.0360322371, 0.0000000000, -0.0408786274, 0.0000000000, -0.0000000000, -0.0000000000, -0.0701021329, 0.0000000000, -0.0000000000, 0.0000000000, -0.1189527065, -0.0912163109, 0.0000000000, 0.1629596502, -0.0000000000, 0.0429119989, -0.0000000000, -0.0604649559, -0.1011337265, 0.0000000000, 0.0000000000, 0.0000000000, -0.0000000000, -0.0000000000, -0.0000000000, 0.0796484277, 0.0776559711, -0.0000000000, 0.0000000000, 0.0000000000, 0.1612135470, -0.0000000000, 0.0000000000, 0.0000000000, -0.0000000000, 0.0000000000, -0.0446988232, 0.0000000000, -0.0000000000, 0.0000000000, -0.0000000000, -0.0000000000, 0.0000000000, 0.0000000000, -0.0000000000, -0.0000000000, -0.0000000000, 0.0000000000, -0.0000000000, -0.0000000000, 0.0585171878, -0.0000000000, -0.0000000000, -0.0000000000, -0.0000000000, -0.0000000000, 0.2151804566, -0.0000000000, 0.1619660705, -0.1740096509, -0.0000000000, 0.0000000000, 0.0000000000, 0.0000000000, -0.0419801734, 0.0000000000, -0.0657118708, -0.0000000000, -0.0000000000, 0.0000000000, -0.0000000000, -0.0000000000, -0.0000000000, -0.1312007457, 0.0000000000, 0.0000000000, -0.0000000000, -0.0000000000, -0.0000000000, 0.0000000000, 0.0000000000, 0.0000000000, -0.0000000000, 0.0847880468, 0.0000000000, -0.0000000000, 0.0000000000, -0.0000000000, -0.0000000000, 0.0000000000, -0.0000000000, -0.0000000000, 0.0000000000, -0.0000000000, -0.0585105494, 0.0000000000, 0.0000000000, 0.0000000000, -0.0000000000, 0.0000000000, -0.0000000000, 0.0000000000, -0.0000000000, 0.0000000000, 0.0000000000, -0.0974277109, 0.0000000000, 0.0000000000, 0.0000000000, -0.0000000000, -0.0000000000, 0.0000000000, 0.0000000000, 0.0000000000, 0.1496810168, 0.0720384866, 0.0000000000, -0.0000000000, -0.0000000000, -0.0000000000, -0.0000000000, 0.1194870621, 0.0979396105, 0.0000000000, 0.0000000000, -0.0000000000, 0.0000000000, 0.0000000000, 0.0986521840, 0.0000000000, -0.0000000000, 0.0834580660, -0.0000000000, -0.0000000000, -0.0000000000, -0.0000000000, -0.0000000000, 0.0000000000, -0.1232066974, 0.0000000000, 0.0000000000, 0.1481005996, -0.0000000000, 0.0405579656, -0.0000000000, 0.0000000000, 0.0000000000, 0.0000000000, -0.0000000000, 0.0000000000, -0.0000000000, -0.0000000000, -0.0000000000, -0.0000000000, -0.0000000000, -0.0985153839, 0.0000000000, 0.0000000000, 0.0000000000, 0.0000000000, -0.0000000000, 0.0000000000, -0.0000000000, 0.0000000000, -0.0000000000, 0.0000000000, -0.0000000000, -0.0000000000, 0.0000000000, 0.0000000000, -0.0965473279, 0.0000000000, -0.0000000000, -0.0000000000, -0.0000000000, 0.0814813152, -0.0000000000, 0.0000000000, -0.0000000000, 0.1549435556, 0.0000000000, 0.0000000000, -0.0000000000, 0.0909761414, -0.0917369872, 0.0852432996, -0.0000000000, 0.1470325142, 0.0000000000, 0.0000000000, -0.0000000000, -0.0000000000, 0.0000000000, 0.0000000000, 0.1327886581, 0.1134652421, -0.1104728952, 0.0000000000, -0.0000000000, -0.0000000000, 0.0000000000, -0.1446734816, 0.0000000000, 0.0000000000, -0.0000000000, -0.0590357855, 0.0707941130, 0.0000000000, -0.0000000000, -0.0000000000, 0.0000000000, 0.0000000000, -0.0000000000, -0.0000000000, -0.0000000000, -0.1345626414, -0.0000000000, 0.0936496034, -0.0000000000, 0.1104060858, -0.0000000000, -0.0000000000, 0.0000000000, 0.0000000000, 0.0976644158, 0.0000000000, -0.0000000000, 0.0000000000, -0.0000000000, -0.0000000000, 0.0000000000, -0.0000000000, -0.0000000000, 0.0000000000, 0.0000000000, 0.0000000000, -0.0000000000, -0.0000000000, -0.0350688100, 0.0000000000, 0.0000000000, -0.0000000000, 0.1058610603, 0.0000000000, 0.0000000000, 0.0000000000, -0.0000000000, -0.0000000000, 0.0000000000, 0.1916091144, 0.1174053103, -0.0000000000, 0.0000000000, -0.0000000000, 0.0000000000, -0.0000000000, -0.1190815493, 0.0000000000, -0.0465260968, 0.0912383124, -0.0995572060, 0.0000000000, -0.0000000000, -0.0000000000, -0.0000000000, 0.0000000000, 0.0000000000, -0.0929630995, -0.0000000000, 0.0746496543, 0.1223529726, 0.0000000000, 0.0000000000, 0.0000000000, -0.2597055733, 0.0000000000, -0.0000000000, 0.0000000000, 0.0000000000, -0.0000000000, 0.0540943481, 0.1316505522, -0.0000000000, -0.0462814495, -0.0000000000, -0.0605837852, 0.0000000000, 0.0000000000, 0.0822535902, 0.0000000000, -0.0000000000, 0.0000000000, -0.0000000000, 0.0000000000, 0.0000000000, 0.0000000000, -0.0000000000, -0.1834228337, 0.0586154386, 0.0000000000, -0.0000000000, -0.0000000000, -0.0000000000, 0.0000000000, 0.0000000000, 0.0000000000, 0.1104002371, 0.0000000000, 0.0000000000, -0.0000000000, -0.0000000000, -0.0000000000, 0.1913915575, 0.1183466837, 0.1735768318, 0.0000000000, -0.0673979521, -0.0000000000, 0.0000000000, 0.0000000000, -0.1541267931, 0.0000000000, -0.0000000000, -0.0000000000, 0.0804080963, -0.0000000000, -0.0000000000, -0.0000000000, -0.0000000000, -0.1321149170, 0.0000000000, 0.0000000000, 0.0000000000, -0.1413152665, -0.0000000000, 0.0793142915, -0.0000000000, -0.0000000000, 0.1125877127, 0.1042138562, -0.0000000000, 0.0000000000, 0.0000000000, -0.0000000000, -0.1070628464, 0.0428183638, -0.1678850800, -0.0000000000, -0.0614706799, 0.0000000000, -0.1350524873, 0.0000000000, 0.0000000000, 0.0000000000, -0.0000000000, 0.0000000000, 0.0000000000, -0.0000000000, 0.0000000000, 0.0000000000, -0.0000000000, 0.0000000000, 0.0000000000, 0.0000000000, -0.0625397414, 0.0368988104, -0.0000000000, -0.0263877045, -0.0000000000, 0.0000000000, 0.0828124285, 0.0000000000, 0.0000000000, 0.0000000000, 0.0000000000, -0.0000000000, 0.0871974826, 0.0000000000, -0.0886968821, 0.0000000000, 0.0000000000, -0.0000000000, 0.1321893334, -0.0000000000, -0.0000000000, -0.0280821752, -0.0000000000, 0.0000000000, -0.0000000000, -0.0000000000, -0.0000000000, 0.0000000000, 0.0000000000, -0.0945473388, 0.0000000000, 0.0000000000, -0.0000000000, -0.0000000000, -0.0000000000, 0.0000000000, -0.0000000000, 0.0000000000, 0.0000000000, 0.0000000000, 0.0000000000, 0.0000000000, -0.0638537556, -0.0000000000, -0.0000000000, 0.1607130617, 0.1225515231, -0.0000000000, 0.0000000000, 0.0000000000, 0.0000000000, -0.0000000000, -0.0000000000, 0.0000000000, -0.0000000000, 0.0000000000, -0.0000000000, 0.0000000000, -0.0000000000, -0.0000000000, 0.0000000000, 0.0000000000, -0.1054776385, 0.0000000000, 0.0000000000, -0.0000000000, -0.0000000000, 0.0000000000, -0.0000000000, -0.0000000000, -0.0000000000, 0.0933478847, -0.0000000000, -0.0646609813, -0.0000000000, -0.0000000000, -0.0000000000, 0.1101752296, -0.1202824563, -0.0000000000, 0.0000000000, -0.0000000000, -0.0000000000, 0.0000000000, 0.0000000000, 0.0000000000, -0.1018738896, 0.0000000000, 0.0000000000, 0.0000000000, -0.0000000000, 0.0000000000, 0.0000000000, 0.0000000000, 0.0000000000, 0.0000000000, 0.0000000000, 0.0905892700, -0.0000000000, 0.0000000000, 0.0000000000, -0.0696915761, -0.1215665266, 0.0835849047, 0.0000000000, -0.0000000000, -0.0000000000, -0.0000000000, -0.0000000000, 0.0000000000, -0.0000000000, -0.0000000000, -0.0000000000, 0.0000000000, 0.0000000000, -0.0000000000, 0.0990127847, 0.0000000000, -0.0000000000, 0.0000000000, 0.0000000000, 0.0000000000, -0.0000000000, -0.0000000000, 0.0000000000, 0.0000000000, -0.1732244790, -0.1859269887, 0.0000000000, 0.0759306923, -0.0000000000, 0.0624408834, -0.0657341555, -0.0000000000, 0.0000000000, 0.0000000000, 0.0000000000, 0.0000000000, 0.0000000000, -0.0000000000, 0.0000000000, 0.0943433270, 0.1221029535, 0.0000000000, -0.0000000000, 0.0000000000, 0.0758209676, -0.0631757900, -0.0000000000, 0.0000000000, -0.0000000000, 0.0000000000, 0.0766607523, -0.0000000000, -0.0000000000, 0.0000000000, 0.0000000000, 0.0469407886, 0.0000000000, 0.0000000000, 0.0000000000, 0.1342030615, 0.2075730264, 0.0077753146, 0.0000000000, -0.0000000000, -0.2205347419, 0.0000000000, -0.0000000000, 0.0000000000, -0.0000000000, 0.0847617462, -0.0000000000, 0.0000000000, -0.0000000000, -0.1183980107, 0.0000000000, -0.0000000000, 0.0000000000, -0.0000000000, 0.1190025359, 0.0000000000, -0.1658186913, -0.0639960468, 0.0988641232, -0.0000000000, -0.0000000000, 0.0000000000, -0.0000000000, -0.1364008039, 0.0000000000, 0.0000000000, -0.0000000000, -0.0000000000, -0.0000000000, 0.0000000000, -0.0000000000, -0.0000000000, 0.0574364625, 0.0000000000, 0.0000000000, -0.0000000000, -0.0635534823, -0.0000000000, 0.1786117256, -0.0000000000, -0.0000000000, 0.0000000000, 0.0000000000, 0.0000000000, 0.1436271816, 0.0000000000, -0.0240893904, 0.0000000000, -0.0765034482, 0.0000000000, 0.0000000000, -0.0000000000, -0.0000000000, 0.0000000000, -0.0000000000, 0.1727222502, 0.0000000000, 0.0000000000, -0.0000000000, -0.1140954047, -0.0000000000, 0.0000000000, 0.0000000000, -0.0000000000, 0.1031682119, 0.0000000000, -0.0000000000, -0.0622391589, -0.0000000000, -0.0000000000, -0.0000000000, 0.0000000000, -0.1327928305, -0.0000000000, 0.0000000000, 0.0000000000, 0.0000000000, 0.0000000000, 0.1480577886, 0.0000000000, -0.0000000000, 0.0000000000, 0.0000000000, 0.0000000000, 0.0000000000, -0.0000000000, -0.0000000000, 0.0406205133, 0.0000000000, -0.1291998923, -0.0000000000, -0.0000000000, -0.0000000000, 0.0000000000, 0.0000000000, 0.0000000000, -0.2115573287, -0.0737420246, 0.0000000000, 0.0000000000, 0.0000000000, -0.0000000000, -0.0000000000, -0.0000000000, 0.0000000000, 0.0000000000, 0.0000000000, 0.0000000000, 0.0000000000, 0.0000000000, 0.0856076702, -0.1902807951, -0.0000000000, 0.1248761788, 0.0000000000, 0.0000000000, -0.0000000000, 0.0000000000, -0.0000000000, 0.0000000000, 0.0000000000, 0.0000000000, 0.0000000000, 0.0856432021, -0.0000000000, 0.0000000000, -0.0000000000, 0.0000000000, 0.0000000000, 0.0000000000, -0.0000000000, 0.0000000000, 0.0000000000, -0.0000000000, -0.0000000000, -0.0000000000, 0.0839125291, 0.0000000000, -0.0000000000, -0.0000000000, 0.0763980821, -0.0000000000, -0.0000000000, -0.1667952240, -0.0000000000, 0.0000000000, -0.0627685189, 0.0000000000, -0.0662847683, -0.0000000000, -0.0000000000, 0.0650245696, 0.0000000000, 0.1090295911, 0.0000000000, 0.0242428835, -0.0000000000, 0.0000000000, -0.0000000000, 0.0000000000, 0.1240867525, 0.1304673254, -0.0000000000, -0.0000000000, -0.0000000000, -0.1263644546, -0.0866321176, 0.0704915375, -0.0000000000, 0.0000000000, -0.0000000000, -0.0000000000, 0.0000000000, -0.0000000000, 0.0000000000, 0.0000000000, -0.0000000000, 0.0000000000, 0.0000000000, -0.0655201748, -0.0000000000, -0.0000000000, -0.0681827813, 0.0000000000, 0.0000000000, -0.0905412957, -0.0000000000, -0.0000000000, 0.0796684921, -0.1051653326, -0.0000000000, -0.0692394823, -0.0668605715, 0.0000000000, -0.0000000000, -0.0000000000, 0.0000000000, -0.0000000000, -0.1615189612, 0.0000000000, -0.0000000000, -0.0000000000, -0.0000000000, -0.0000000000, 0.0000000000, -0.0623995624, 0.1409981847, 0.0000000000, -0.0000000000, -0.0752353445, 0.0000000000, 0.0000000000, 0.0000000000, -0.0000000000, 0.0000000000, -0.0000000000, -0.1412854046, 0.0000000000, 0.0000000000, 0.1105420887, -0.0000000000, 0.1041715965, 0.0000000000, -0.0000000000, 0.0000000000, -0.0000000000, 0.0000000000, 0.0000000000, -0.0000000000, -0.0000000000, 0.0000000000, -0.0874266326, -0.0000000000, -0.1240946651, 0.0000000000, -0.0611954331, 0.0000000000, -0.0000000000, -0.0000000000, 0.0000000000, -0.0000000000, 0.0828588530, 0.0773811862, -0.0000000000, -0.0000000000, 0.0000000000, 0.0000000000, 0.0000000000, 0.0000000000, 0.0000000000, -0.0000000000, -0.0000000000, 0.0494288877, -0.1028801352, 0.0000000000, 0.0000000000, -0.1087537855, 0.0000000000, -0.0000000000, 0.0000000000, 0.0000000000, -0.0000000000, -0.0000000000, 0.0832146928, -0.0000000000, -0.0512159280, 0.0000000000, -0.0000000000, -0.1998814642, 0.0000000000, 0.1640302241, -0.1284267604, -0.1124675944, -0.0000000000, 0.0000000000, 0.0000000000, 0.0000000000, -0.0000000000, -0.0000000000, -0.1683642417, 0.0000000000, 0.0000000000, -0.0000000000, -0.0000000000, -0.0116678951, 0.1011391655, -0.0000000000, -0.0000000000, 0.0000000000, 0.0000000000, 0.0000000000, -0.0000000000, 0.0000000000, -0.0000000000, 0.0000000000, -0.0000000000, -0.0000000000, -0.0907573774, -0.0000000000, 0.0000000000, 0.1508521736, 0.0000000000, 0.0861924589, 0.0000000000, -0.0000000000, 0.0000000000, -0.0000000000, -0.0000000000, -0.0000000000, 0.0000000000, 0.0000000000, 0.0000000000, -0.1059855670, 0.0000000000, 0.0000000000, -0.0672533736, -0.0000000000, 0.0000000000, 0.0000000000, -0.0000000000, 0.0000000000, 0.0000000000, -0.0000000000, -0.0000000000, -0.0000000000, 0.0811239779, 0.0327037908, 0.0000000000, -0.0518217608, -0.0000000000, -0.0000000000, 0.0000000000, 0.0000000000, 0.0000000000, 0.0000000000, -0.0711091310, -0.0000000000, -0.0647830144, -0.0000000000, -0.0000000000, -0.0000000000, 0.0000000000, 0.0000000000, 0.0681028217, 0.0000000000, 0.0000000000, 0.0000000000, -0.0338827446, -0.0000000000, 0.0000000000, 0.0000000000, -0.0000000000, 0.0000000000, 0.0000000000, -0.0664162710, 0.0000000000, -0.0000000000, -0.0000000000, 0.0928274989, 0.0675661862, -0.0000000000, -0.0000000000, 0.0000000000, 0.0000000000, 0.0000000000, 0.0000000000, 0.0000000000, -0.0284542609, -0.1292847693, 0.0000000000, 0.0000000000, 0.0000000000, -0.0000000000, 0.0000000000, -0.0000000000, 0.0000000000, -0.0729947090, 0.0000000000, -0.0000000000, -0.0000000000, -0.0000000000, 0.0710253567, 0.0000000000, 0.0000000000, 0.0000000000, 0.0000000000, -0.0668779835, 0.0000000000, 0.0000000000, -0.0000000000, -0.0000000000, -0.0000000000, -0.0000000000, 0.0623799711, -0.0000000000, 0.0000000000, 0.0000000000, -0.0000000000, -0.0000000000, -0.0760981515, -0.0000000000, -0.0686947480, -0.0000000000, -0.0000000000, -0.0000000000, 0.0000000000, 0.0000000000, 0.1659853458, 0.0000000000, -0.0518383719, -0.0000000000, 0.0931143090, 0.0000000000, 0.0000000000, 0.0000000000, 0.0000000000, -0.0750951469, 0.1182215735, -0.0000000000, 0.0000000000, 0.0000000000, -0.0000000000, -0.0000000000, 0.1030209139, -0.0648596436, -0.1545495987, -0.0000000000, -0.0000000000, 0.0000000000, -0.0000000000, 0.0000000000, -0.0691235289, 0.0854062438, 0.0821448490, -0.0633586422, 0.0000000000, -0.0000000000, -0.0000000000, 0.0000000000, 0.0000000000, -0.0973259807, 0.0000000000, -0.0000000000, -0.0000000000, -0.0000000000, -0.0817449912, -0.0642601922, 0.0000000000, -0.0488232970, 0.0000000000, -0.0000000000, 0.0000000000, -0.0000000000, -0.0000000000, -0.1446218491, 0.0000000000, 0.0972969532, 0.0885421336, 0.0000000000, -0.0644820854, 0.0000000000, -0.0000000000, 0.0903329849, -0.0924116373, -0.0000000000, -0.0000000000, 0.0000000000, 0.0000000000, -0.0000000000, -0.0000000000, 0.0000000000, 0.0000000000, -0.1484641135, 0.0000000000, -0.0000000000, -0.0000000000, -0.0186887942, 0.0539697707, 0.0000000000, -0.0000000000, 0.1350631118, 0.0000000000, 0.0000000000, 0.0000000000, 0.0000000000, -0.0000000000, -0.0000000000, -0.0000000000, -0.0000000000, 0.0000000000, 0.0000000000, 0.0000000000, 0.0949128494, -0.0000000000, -0.0000000000, 0.0590907931, -0.0000000000, 0.0000000000, 0.0971828923, -0.0666165054, -0.0000000000, 0.0000000000, 0.0000000000, 0.2431949228, 0.0000000000, 0.0000000000, 0.0000000000, -0.0000000000, 0.1475819647, -0.1340377331, -0.0000000000, -0.0000000000, -0.1004318297, 0.0000000000, 0.0000000000, -0.0000000000, 0.0000000000, -0.0000000000, -0.0000000000, -0.0000000000, 0.1823393404, -0.0886471644, 0.0000000000, 0.0000000000, 0.0000000000, 0.0000000000, 0.0000000000, 0.0000000000, 0.0621078312, -0.0000000000, 0.0000000000, -0.0000000000, -0.0000000000, 0.0000000000, 0.0000000000, -0.1009397209, -0.1018619239, 0.0000000000, 0.0000000000, -0.0000000000, -0.0000000000, 0.0000000000, 0.0000000000, 0.0000000000, 0.1074150577, 0.0000000000, 0.0000000000, -0.0000000000, 0.0000000000, 0.0375760496, 0.0000000000, -0.0000000000, -0.0000000000, 0.0000000000, 0.0000000000, 0.0000000000, 0.0000000000, -0.0000000000, -0.0000000000, 0.0000000000, -0.0000000000, -0.0000000000, -0.0662937611, 0.0627589002, -0.0623686388, -0.0625477210, -0.0000000000, 0.0719754025, -0.0000000000, 0.0000000000, -0.0000000000, -0.0577372238, 0.0000000000, 0.0000000000, 0.0000000000, 0.0000000000, 0.0000000000, 0.0000000000, 0.0000000000, 0.0000000000, -0.0750850961, -0.0538217314, -0.0000000000, 0.0000000000, 0.0000000000, -0.0000000000, 0.0000000000, -0.0000000000, -0.0000000000, -0.0000000000, 0.0000000000, 0.0000000000, 0.0000000000, -0.0000000000, -0.0000000000, -0.0000000000, 0.0000000000, -0.0000000000, -0.0000000000, 0.0000000000, 0.1369445324, -0.1382967830, -0.0000000000, -0.2138349563, -0.0000000000, 0.0000000000, 0.0000000000, -0.0000000000, 0.0000000000, -0.0000000000, 0.0000000000, -0.0000000000, 0.0000000000, -0.0000000000, -0.0000000000, 0.0000000000, -0.0000000000, -0.0000000000, -0.0000000000, -0.0000000000, 0.0000000000, 0.0000000000, 0.0000000000, 0.0000000000, -0.1220798343, 0.0000000000, 0.0000000000, 0.0000000000, -0.0000000000, -0.0000000000, -0.0000000000, 0.0000000000, 0.0000000000, -0.1423346996, -0.0000000000, 0.0556301959, -0.0000000000, 0.0000000000, 0.0000000000, 0.0000000000, 0.0000000000, 0.0000000000, -0.0000000000, 0.0000000000, 0.0000000000, 0.0719362795, -0.0000000000, -0.0000000000, 0.0850246027, -0.0624332950, 0.0000000000, 0.0000000000, 0.0000000000, 0.0000000000, -0.0000000000, 0.0000000000, -0.0000000000, -0.0000000000, -0.0931195617, 0.0611316040, -0.0000000000, -0.0000000000, 0.0000000000, 0.0000000000, -0.0000000000, 0.0000000000, 0.0000000000, 0.1305306703, -0.0000000000, -0.1209085658, 0.0000000000, 0.0000000000, 0.0000000000, 0.0000000000, -0.0000000000, 0.0000000000, -0.0000000000, -0.0772274435, 0.1170184836, 0.0000000000, -0.0000000000, 0.1511825323, -0.0000000000, 0.0000000000, -0.0692872703, -0.0000000000, 0.0000000000, -0.1484764963, 0.1052504927, 0.0000000000, 0.0000000000, -0.0604627579, -0.0631713197, -0.0000000000, 0.0000000000, 0.1044945940, 0.0000000000, 0.0000000000, 0.0000000000, -0.0000000000, -0.0000000000, 0.0000000000, 0.0000000000, 0.0000000000, 0.0000000000, 0.0000000000, -0.0000000000, -0.0000000000, -0.0000000000, -0.0657270923, -0.0000000000, 0.0000000000, 0.0000000000, -0.0000000000, -0.0000000000, -0.0000000000, 0.0000000000, -0.0611161701, 0.0659115538, 0.0000000000, 0.0765046701, -0.0633208379, 0.0000000000, 0.0000000000, -0.0000000000, 0.0000000000, 0.0000000000, 0.0000000000, 0.0000000000, 0.0000000000, 0.0000000000, -0.0000000000, -0.0000000000, 0.0000000000, -0.0000000000, 0.0000000000, 0.0000000000, 0.0000000000, -0.0000000000, 0.0000000000, -0.0000000000, -0.0000000000, -0.0000000000, 0.0000000000, -0.0000000000, -0.0000000000, -0.0618276484, -0.0000000000, 0.1666084081, 0.0000000000, -0.0000000000, 0.0000000000, -0.0695332661, -0.0658492893, -0.0000000000, 0.0000000000, -0.0000000000, -0.0000000000, -0.0000000000, 0.0000000000, 0.0000000000, 0.0000000000, 0.0000000000, -0.0000000000, -0.0000000000, 0.0846164078, -0.0000000000, -0.0000000000, -0.1448852271, 0.0000000000, 0.0000000000, 0.0000000000, 0.0000000000, -0.0000000000, 0.0826706812, 0.0932721421, 0.0655430034, -0.0944483429, 0.0000000000, 0.0000000000, -0.0857235044, 0.0000000000, 0.0000000000, 0.0000000000, 0.0000000000, -0.0000000000, 0.0000000000, 0.0000000000, 0.0000000000, -0.0000000000, -0.0000000000, 0.0000000000, 0.0981584787, 0.0000000000, -0.0000000000, -0.0897645429, -0.0000000000, 0.0000000000, -0.0000000000, 0.0000000000, 0.0000000000, 0.0000000000, -0.0661945790, 0.0000000000, 0.0000000000, 0.0414446145, -0.0000000000, -0.0000000000, -0.0000000000, 0.0000000000, -0.0000000000, -0.0000000000, 0.1147819012, 0.0000000000, -0.0000000000, 0.0000000000, -0.1094237193, -0.0000000000, -0.0000000000, -0.0000000000, -0.0000000000, -0.0000000000, -0.0000000000, 0.1004442200, 0.0000000000, 0.0000000000, 0.0000000000, 0.0119466484, -0.1351175457, 0.1508613229, -0.0000000000, -0.0000000000, 0.0000000000, -0.0566829890, -0.0000000000, -0.0000000000, -0.0000000000, -0.0000000000, 0.0356901288, 0.0000000000, -0.0000000000, -0.0000000000, 0.0000000000, -0.0000000000, 0.0940963700, 0.0000000000, 0.0000000000, 0.0000000000, 0.0000000000, -0.0000000000, -0.1300434172, 0.0000000000, 0.0000000000, 0.0000000000, -0.0000000000, 0.0000000000, -0.0000000000, 0.0000000000, -0.0000000000, -0.1704999954, 0.0000000000, 0.1458203346, -0.0000000000, 0.0000000000, 0.0000000000, 0.0000000000, 0.0000000000, 0.0000000000, 0.0000000000, 0.0959336832, -0.0000000000, 0.0679022595, 0.0000000000, -0.0000000000, -0.0000000000, -0.0000000000, 0.1598417610, 0.0000000000, 0.0000000000, -0.1513587683, -0.1298081279, -0.0801911578, 0.0000000000, 0.0000000000, -0.0000000000, -0.0000000000, -0.0000000000, -0.0946851000, -0.0751836523, 0.0000000000, 0.0000000000, -0.0000000000, 0.1261416227, 0.0492748097, -0.0000000000, -0.0000000000, 0.0000000000, 0.0000000000, 0.0000000000, -0.0000000000, -0.0000000000, -0.0000000000, -0.0000000000, 0.1291604787, 0.0000000000, -0.0000000000, -0.0684209391, -0.0000000000, 0.0000000000, 0.0000000000, -0.0000000000, 0.0000000000, -0.1352028102, -0.0000000000, -0.0000000000, 0.0000000000, -0.0000000000, -0.0000000000, 0.0000000000, 0.1153293699, 0.0000000000, 0.0000000000, -0.0000000000, -0.0000000000, 0.0690320134, 0.0000000000, 0.0000000000, 0.0000000000, 0.0000000000, 0.0000000000, -0.0000000000, 0.0000000000, -0.0000000000, -0.0000000000, 0.0234857090, 0.0000000000, -0.0000000000, 0.1331603080, 0.0000000000, -0.0000000000, -0.0000000000, 0.0000000000, 0.0000000000, 0.1980146617, 0.0701438114, 0.0000000000, 0.0000000000, 0.0000000000, -0.0000000000, 0.0000000000, 0.0000000000, 0.0924686939, 0.0000000000, 0.0000000000, 0.0000000000, -0.0000000000, -0.0535803773, -0.0000000000, -0.0000000000, -0.0000000000, -0.0353491604, 0.0000000000, -0.0000000000, 0.0000000000, 0.0000000000, -0.0943914205, -0.1303727180, 0.0000000000, 0.0000000000, 0.1463685036, 0.0000000000, -0.0000000000, -0.1553328335, -0.0000000000, 0.0639009997, 0.0000000000, -0.0000000000, -0.0000000000, 0.0000000000, -0.0000000000, 0.0000000000, -0.0617603585, -0.0000000000, 0.0000000000, 0.0000000000, 0.0000000000, 0.0000000000, -0.0000000000, -0.0000000000, 0.0520938970, -0.0000000000, -0.0691360533, 0.0000000000, 0.0000000000, 0.0000000000, 0.0000000000, -0.0000000000, 0.0847163498, -0.0614448935, 0.0000000000, -0.0000000000, -0.1097911000, 0.0000000000, 0.0000000000, 0.0000000000, 0.0000000000, -0.0000000000, 0.0000000000, -0.1334160566, 0.0000000000, -0.0000000000, -0.0000000000, -0.0000000000, -0.0000000000, -0.0000000000, 0.2129381895, 0.0000000000, 0.0000000000, -0.0000000000, 0.1002089232, 0.0936507434, -0.1263332069, 0.0000000000, 0.0000000000, 0.1178538650, 0.0000000000, -0.0000000000, -0.0000000000, -0.0000000000, -0.0000000000, -0.0000000000, 0.0000000000, 0.0615039729, 0.1174802259, 0.0000000000, -0.0000000000, -0.1464218944, -0.0000000000, -0.0925989076, -0.0747310147, -0.1109856367, -0.0000000000, 0.0000000000, 0.0000000000, -0.0000000000, -0.0000000000, -0.0000000000, 0.0000000000, 0.0790613517, 0.0000000000, 0.0000000000, -0.1042843908, -0.0000000000, 0.0000000000, -0.0000000000, -0.0000000000, 0.0844793394, 0.0000000000, -0.0000000000, 0.0000000000, -0.0638985112, -0.0000000000, -0.0000000000, 0.0000000000, -0.0000000000, 0.0000000000, 0.0000000000, 0.0000000000, 0.1079186797, 0.0000000000, -0.0743826926, 0.0000000000, -0.1658214778, -0.0999291763, -0.0000000000, 0.0000000000, -0.0000000000, 0.0000000000, 0.0000000000, 0.0000000000, -0.0623185001, 0.0000000000, -0.0000000000, -0.0000000000, -0.0000000000, 0.1003593951, -0.0000000000, -0.0000000000, -0.0000000000, 0.0000000000, 0.0000000000, -0.0000000000, 0.0000000000, 0.0785621405, -0.1224015355, 0.0787035525, 0.0580003932, -0.0000000000, 0.0000000000, -0.0000000000, -0.1125265136, 0.0000000000, -0.0776277557, 0.0000000000, 0.0000000000, -0.0897723660, -0.0000000000, -0.0000000000, 0.0000000000, -0.0000000000, 0.0000000000, -0.0425326154, 0.1574296206, -0.1125095114, -0.0000000000, -0.0000000000, -0.1723528057, 0.0000000000, -0.0000000000, 0.0000000000, 0.0000000000, 0.0000000000, 0.0000000000, -0.0000000000, -0.0000000000, -0.0687638819, -0.0000000000, 0.0000000000, -0.0000000000, -0.0000000000, 0.0000000000, 0.0000000000, 0.0000000000, 0.0000000000, -0.0000000000, -0.1807571650, -0.0571822822, 0.0000000000, 0.0000000000, 0.0000000000, -0.0625404269, -0.0000000000, -0.0000000000, -0.0000000000, 0.0000000000, 0.0000000000, -0.0000000000, -0.0000000000, -0.0000000000, 0.0600514561, 0.0000000000, 0.0000000000, 0.2338600308, 0.0000000000, -0.0645674691, -0.0608521141, 0.0000000000, -0.0000000000, -0.0000000000, 0.0000000000, 0.0000000000, -0.0000000000, -0.0000000000, -0.0000000000, 0.0000000000, -0.0000000000, -0.0000000000, 0.0000000000, -0.1406306475, -0.0000000000, -0.0000000000, 0.0000000000, -0.0000000000, -0.0000000000, -0.0000000000, 0.0000000000, 0.0000000000, 0.1392968297, -0.0000000000, -0.0886596739, -0.0000000000, 0.0000000000, -0.0639699101, -0.0000000000, -0.1016817242, 0.0000000000, -0.0000000000, -0.0000000000, 0.0000000000, -0.1253344715, -0.0000000000, -0.1261127144, 0.0000000000, -0.1555410624, -0.0000000000, 0.0000000000, 0.0000000000, 0.0000000000, -0.0000000000, 0.1526077241, 0.0113700377, 0.0000000000, 0.1408925951, -0.0000000000, -0.0000000000, -0.0000000000, -0.0000000000, 0.0000000000, 0.0000000000, 0.0000000000, -0.0000000000, -0.0000000000, -0.0000000000, 0.0631527230, -0.0000000000, 0.0000000000, 0.0000000000, 0.0000000000, 0.0000000000, 0.0000000000, 0.0000000000, 0.0988720208, -0.1065339819, -0.0000000000, 0.0000000000, 0.2313215286, -0.0000000000, -0.0000000000, 0.0000000000, 0.0000000000, -0.0000000000, 0.0000000000, -0.0757301226, 0.0000000000, 0.0000000000, 0.0000000000, 0.0000000000, -0.0000000000, 0.0000000000, -0.1040358692, 0.0000000000, 0.0000000000, 0.0000000000, 0.0897298902, -0.0652367175, 0.0000000000, -0.0000000000, -0.0000000000, 0.0000000000, 0.0728218406, 0.0000000000, -0.0000000000, 0.0000000000, 0.0000000000, -0.0000000000, -0.0000000000, -0.0769629851, -0.0000000000, -0.0626956969, -0.0000000000, 0.0000000000, -0.0688106194, -0.0000000000, 0.0749900863, -0.1032475010, 0.0000000000, -0.0000000000, 0.0000000000, -0.0000000000, -0.0000000000, -0.0000000000, 0.1306461543, 0.1496453136, 0.0742480978, -0.0000000000, 0.0000000000, -0.0000000000, 0.0548891649, -0.0000000000, -0.0000000000, -0.0948635191, -0.0000000000, 0.0000000000, -0.0637585297, 0.0000000000, -0.1084263176, -0.0000000000, -0.0000000000, 0.0839562491, 0.1262919903, 0.0000000000, 0.0000000000, 0.0000000000, 0.0000000000, -0.0000000000, -0.1063256413, -0.1841870546, -0.0000000000, 0.0000000000, -0.0000000000, -0.0000000000, 0.0000000000, -0.0000000000, 0.0000000000, 0.0000000000, 0.0000000000, -0.0000000000, -0.0000000000, -0.0000000000, 0.0000000000, 0.0000000000, -0.0000000000, 0.0840751156, 0.0000000000, -0.0000000000, 0.0000000000, -0.0000000000, 0.0612641834, -0.0000000000, 0.0434622206, -0.0000000000, 0.0000000000, -0.0000000000, 0.0000000000, 0.0000000000, 0.0000000000, -0.0000000000, 0.0846328661, -0.0395131335, -0.0799932405, -0.0000000000, -0.0000000000, -0.0000000000, -0.0000000000, 0.0000000000, 0.0000000000, 0.0706344321, 0.0000000000, -0.0000000000, -0.1490950882, -0.0000000000, 0.1351937354, -0.0000000000, -0.0000000000, 0.0000000000, 0.0000000000, -0.0000000000, -0.0000000000, -0.0000000000, -0.0000000000, 0.0887852386, 0.1195863262, -0.0776586011, 0.0959264860, -0.0000000000, -0.0000000000, 0.0000000000, -0.0000000000, -0.0990933031, 0.0000000000, -0.0000000000, -0.0671745315, -0.0000000000, 0.0000000000, -0.0000000000, -0.0000000000, 0.0000000000, 0.2061818242, 0.0000000000, -0.0753522962, 0.0000000000, 0.0000000000, -0.0000000000, -0.0789920688, -0.0000000000, 0.0000000000, 0.0000000000, -0.0670190603, 0.0000000000, -0.0000000000, -0.0000000000, -0.0000000000, -0.1628452837, 0.1106602550, -0.1940903664, 0.0832424834, -0.0000000000, 0.0000000000, -0.0000000000, 0.0000000000, -0.0000000000, -0.1030577794, 0.2579746842, 0.0000000000, 0.0000000000, -0.0722871125, -0.0000000000, 0.0000000000, -0.0000000000, 0.0000000000, 0.1642638594, 0.0000000000, 0.0000000000, 0.0551067181, -0.0471669436, 0.0000000000, -0.0000000000, 0.0000000000, 0.0000000000, 0.0000000000, 0.0000000000, -0.0000000000, 0.0000000000, -0.0000000000, -0.0000000000, -0.0000000000, 0.0000000000, 0.0501779541, 0.0000000000, 0.0000000000, 0.0000000000, 0.0000000000, -0.0000000000, 0.0000000000, 0.0928373337, -0.0000000000, 0.0983819142, 0.0000000000, -0.0000000000, -0.0000000000, 0.0000000000, 0.0000000000, -0.1168759838, -0.1487871110, 0.0000000000, -0.0000000000, -0.0000000000, 0.0000000000, -0.0612087958, 0.0000000000, 0.1043248549, 0.0808101520, 0.0000000000, 0.0000000000, 0.0000000000, -0.0861770362, -0.0000000000, 0.2237345129, -0.0000000000, 0.0000000000, -0.0000000000, -0.0000000000, -0.3084778190, -0.0000000000, 0.0474671125, 0.0932232365, 0.0900869742, 0.0000000000, 0.0000000000, -0.0000000000, -0.0000000000, -0.0000000000, 0.0000000000, 0.1207405105, -0.1110151112, 0.0000000000, -0.0000000000, -0.0000000000, -0.0000000000, 0.0000000000, -0.0624764897, -0.0648321882, 0.0000000000, 0.1057672724, 0.0000000000, -0.0000000000, -0.0000000000, 0.0000000000, -0.0000000000, 0.0997986123, -0.0778390765, 0.0951176360, -0.0000000000, -0.0000000000, 0.0566065647, -0.0000000000, 0.0000000000, -0.0691868290, -0.0000000000, 0.0000000000, 0.0000000000, -0.0000000000, 0.0000000000, -0.0000000000, 0.0000000000, 0.0000000000, 0.0000000000, 0.0000000000, -0.0000000000, 0.0998596922, -0.0000000000, 0.0000000000, -0.0000000000, 0.0000000000, 0.0000000000, 0.0701833293, -0.0641079918, -0.0000000000, 0.0000000000, 0.0751009583, 0.0884820074, -0.0000000000, -0.0000000000, -0.0000000000, -0.0000000000, -0.0000000000, 0.0000000000, 0.0000000000, -0.0000000000, 0.0000000000, 0.2433217019, 0.0000000000, 0.0000000000, -0.0000000000, -0.0000000000, 0.0000000000, 0.0000000000, 0.0915618166, -0.0842086971, 0.0000000000, 0.0000000000, 0.0000000000, -0.0000000000, 0.0605917461, 0.0000000000, 0.0000000000, -0.0000000000, 0.1408946067, 0.0000000000, 0.0000000000, -0.0000000000, 0.0911642611, -0.0000000000, -0.0000000000, 0.0000000000, -0.0443303548, 0.0000000000, 0.0000000000, 0.0000000000, 0.0613847412, -0.0000000000, 0.0000000000, -0.0000000000, 0.0000000000, 0.0714225695, 0.0000000000, -0.0000000000, -0.0000000000, 0.0000000000, -0.0000000000, -0.1214724258, 0.0000000000, 0.0000000000, -0.0000000000, -0.0000000000, -0.0000000000, -0.0000000000, -0.0000000000, 0.0000000000, 0.0000000000, 0.0000000000, -0.0000000000, -0.0000000000, 0.0000000000, 0.0581201129, -0.0000000000, -0.0000000000, -0.0649656504, 0.0000000000, -0.0000000000, -0.1132696643, -0.0000000000, 0.0000000000, -0.0011732792, -0.0000000000, 0.0000000000, 0.0671505406, 0.0000000000, -0.0000000000, -0.0000000000, 0.0000000000, 0.0000000000, 0.0000000000, 0.0368406884, -0.0000000000, -0.0843792334, -0.0000000000, 0.0000000000, 0.0000000000, -0.0000000000, -0.0000000000, 0.0000000000, -0.0000000000, 0.0000000000, -0.0000000000, 0.2058868706, -0.0000000000, 0.0841888860, 0.0000000000, 0.0809787214, 0.0000000000, -0.0000000000, 0.0000000000, -0.0000000000, -0.0257544443, -0.1338077486, -0.0000000000, 0.0000000000, -0.0000000000, -0.0722574294, -0.0000000000, -0.0000000000, -0.0000000000, 0.0000000000, 0.0000000000, 0.0000000000, -0.0000000000, -0.0000000000, -0.0000000000, 0.0000000000, 0.0000000000, 0.0000000000, 0.0000000000, 0.0000000000, -0.0000000000, 0.0000000000, 0.0000000000, 0.0824331269, -0.0000000000, -0.0000000000, -0.0000000000, -0.0000000000, -0.0000000000, 0.0000000000, -0.0000000000, -0.0000000000, -0.0000000000, -0.0657678246, -0.0000000000, 0.0000000000, 0.0000000000, -0.0000000000, -0.0000000000, -0.0000000000, 0.0000000000, 0.0000000000, -0.1245728731, 0.0000000000, -0.0000000000, -0.0801804066, -0.0000000000, 0.0000000000, 0.0000000000, -0.0000000000, 0.0000000000, 0.0000000000, -0.0000000000, 0.0000000000, -0.0000000000, 0.0000000000, -0.0000000000, -0.0000000000, -0.0000000000, -0.0000000000, 0.0000000000, -0.0000000000, 0.0000000000, 0.0000000000, -0.0000000000, 0.0000000000, 0.0000000000, -0.1281602085, 0.0000000000, 0.0000000000, -0.0674707219, -0.0000000000, -0.0000000000, 0.1312114447, -0.1750148535, 0.1030882001, 0.0000000000, -0.1756082475, -0.0619510636, -0.1087027118, -0.0000000000, 0.0000000000, -0.1290800869, -0.0000000000, -0.0000000000, 0.0000000000, -0.0000000000, 0.1552436948, 0.0000000000, 0.0265663844, 0.0000000000, -0.1433966309, -0.0000000000, -0.0000000000, 0.1445723176, 0.0000000000, -0.1131041348, 0.0000000000, -0.0000000000, 0.0000000000, 0.0000000000, -0.0000000000, -0.0000000000, 0.0000000000, -0.0000000000, 0.0000000000, 0.0000000000, 0.1560639143, 0.0000000000, -0.0000000000, -0.0000000000, 0.0000000000, 0.0000000000, 0.0000000000, -0.0618377514, 0.0000000000, 0.0000000000, -0.0000000000, -0.0000000000, -0.0000000000, -0.0000000000, 0.0000000000, -0.0000000000, -0.0000000000, 0.0000000000, -0.0000000000, 0.0000000000, -0.0000000000, 0.0000000000, 0.0000000000, -0.0000000000, 0.0000000000, 0.0000000000, 0.0000000000, 0.0000000000, 0.0000000000, 0.0000000000, 0.0000000000, 0.0000000000, 0.0512523502, 0.0000000000, -0.1169577390, -0.1335671991, 0.1299533099, 0.0000000000, -0.0000000000, 0.0000000000, 0.0000000000, -0.0000000000, -0.0000000000, -0.0000000000, 0.0000000000, 0.1115113050, -0.0000000000, -0.0614197813, -0.0000000000, 0.0000000000, -0.0000000000, 0.1516916305, -0.0000000000, -0.0564556979, 0.0000000000, -0.0609806068, 0.0000000000, 0.0000000000, 0.0000000000, -0.0000000000, -0.0000000000, -0.0000000000, 0.0000000000, 0.1022897735, 0.0000000000, 0.0000000000, 0.0000000000, -0.0000000000, 0.0000000000, -0.0000000000, 0.0000000000, -0.0623080619, 0.0000000000, -0.0000000000, 0.0000000000, -0.0000000000, -0.0469511449, 0.0916094854, -0.1411304921, 0.0000000000, -0.0000000000, -0.0000000000, -0.0000000000, -0.0000000000, 0.0000000000, -0.1746631265, 0.2050271928, -0.1584890038, -0.0744401067, 0.0000000000, 0.0000000000, 0.0000000000, -0.0000000000, 0.0000000000, 0.1040060222, 0.0000000000, 0.0000000000, -0.0000000000, -0.0000000000, -0.0000000000, 0.0000000000, 0.0000000000, -0.0000000000, 0.0000000000, 0.1327200979, 0.0000000000, 0.0000000000, 0.0000000000, 0.0000000000, 0.1052396223, -0.0000000000, -0.0000000000, -0.0000000000, -0.0000000000, -0.0000000000, -0.0000000000, -0.0000000000, -0.0000000000, 0.0000000000, -0.0000000000, 0.0000000000, -0.1739653349, -0.0000000000, -0.0000000000, -0.0000000000, -0.0000000000, 0.0000000000, 0.0000000000, 0.1007099152, 0.0000000000, -0.0000000000, 0.0000000000, 0.1209623590, -0.0000000000, -0.0000000000, -0.0821292326, 0.0000000000, 0.0000000000, -0.0000000000, -0.0000000000, -0.0786172375, -0.0000000000, 0.0940019190, 0.0000000000, -0.0000000000, -0.0000000000, 0.0000000000, 0.0359255783, -0.0000000000, -0.0880277380, 0.0000000000, -0.1155960411, 0.0000000000, 0.0000000000, 0.0000000000, -0.0000000000, -0.0000000000, -0.0000000000, 0.0000000000, 0.1670687497, 0.0000000000, 0.0000000000, -0.0000000000, -0.0000000000, 0.0676710531, -0.0000000000, -0.0000000000, 0.0000000000, 0.0000000000, 0.0000000000, -0.0000000000, -0.0000000000, -0.0000000000, 0.1095752642, 0.0000000000, 0.1161314100, -0.0000000000, -0.0000000000, 0.0000000000, -0.0685482472, 0.0000000000, -0.1006565914, 0.0000000000, -0.0000000000, 0.0000000000, 0.0506982543, -0.0000000000, -0.0000000000, -0.0000000000, 0.0000000000, 0.0879180655, 0.0000000000, 0.0881662294, -0.0614419468, -0.0000000000, -0.0000000000, 0.0000000000, 0.0000000000, 0.0000000000, 0.0000000000, 0.0000000000, -0.0000000000, 0.0000000000, -0.0000000000, -0.0000000000, 0.0881128088, -0.0000000000, -0.0000000000, -0.0000000000, 0.0000000000, 0.0000000000, -0.0939836651, -0.0000000000, -0.1156345233, 0.0000000000, -0.0000000000, -0.0697665215, 0.0000000000, -0.0000000000, -0.0632225499, -0.0000000000, -0.0000000000, 0.0000000000, 0.0000000000, 0.1346665770, -0.0000000000, 0.0437475890, 0.1156425923, 0.0000000000, -0.0000000000, 0.0000000000, -0.0000000000, 0.0000000000, 0.0000000000, 0.0000000000, -0.0000000000, 0.0000000000, 0.0759912282, 0.0900209099, 0.1457472444, -0.0000000000, 0.0000000000, 0.0000000000, -0.0000000000, -0.0000000000, -0.1917438060, -0.1157208234, -0.0000000000, 0.0000000000, -0.0000000000, 0.0000000000, -0.0000000000, -0.0000000000, 0.0000000000, -0.0000000000, -0.0921681523, 0.1425664574, -0.0000000000, -0.0000000000, -0.0000000000, 0.0000000000, 0.0000000000, -0.0000000000, 0.0000000000, 0.0913385078, -0.0000000000, -0.0000000000, -0.0000000000, -0.0000000000, -0.0000000000, 0.0000000000, -0.1681354493, 0.0721412376, 0.0000000000, 0.0000000000, 0.0000000000, -0.0000000000, 0.1682882458, 0.0000000000, -0.1039793789, 0.0000000000, 0.0000000000, 0.0000000000, -0.0000000000, -0.0000000000, -0.0000000000, 0.0000000000, 0.0368243866, 0.1314098835, 0.0000000000, -0.0000000000, -0.0000000000, 0.0000000000, 0.0000000000, -0.0000000000, 0.0000000000, 0.0000000000, -0.0000000000, 0.0000000000, 0.0000000000, 0.0597854406, 0.1039453596, -0.0000000000, -0.0000000000, -0.0956603512, 0.0000000000, -0.0608227998, -0.1289052963, 0.0000000000, -0.1506633610, -0.0133142900, -0.1459420621, 0.0761097297, -0.1422495842, 0.0000000000, -0.0000000000, 0.0000000000, -0.0000000000, -0.0000000000, 0.0000000000, 0.0000000000, 0.0000000000, 0.0000000000, -0.0000000000, 0.0560867600, -0.0000000000, -0.0000000000, 0.0000000000, 0.0000000000, -0.0000000000, 0.0000000000, 0.0000000000, -0.0000000000, -0.1442670673, 0.0000000000, -0.0000000000, -0.0000000000, 0.0000000000, 0.0000000000, 0.1093939692, 0.0000000000, -0.0000000000, 0.0000000000, -0.1988144219, -0.0000000000, 0.0000000000, -0.0000000000, -0.0000000000, 0.0000000000, -0.0000000000, 0.0000000000, -0.0991232395, 0.0000000000, -0.0000000000, -0.0000000000, -0.1343321800, 0.0000000000, -0.0000000000, -0.0000000000, 0.0000000000, 0.0000000000, -0.0000000000, -0.0000000000, -0.0682254136, -0.0000000000, -0.0000000000, 0.0000000000, -0.0000000000, -0.1587857753, -0.0000000000, -0.0000000000, -0.1021965593, 0.0000000000, -0.1326508820, -0.0602289066, -0.0663396195, 0.0644769073, -0.0877383128, 0.0000000000, 0.0000000000, -0.0628046989, 0.0000000000, -0.0000000000, 0.0000000000, -0.0815029740, -0.0000000000, 0.0000000000, 0.0000000000, 0.0000000000, 0.0000000000, -0.0000000000, 0.0000000000, 0.0000000000, 0.0000000000, 0.0000000000, -0.0830190778, -0.0000000000, -0.0000000000, -0.0726508945, 0.0000000000, 0.0514070317, -0.0000000000, 0.0000000000, 0.0000000000, 0.0000000000, 0.0000000000, 0.0000000000, -0.0000000000, 0.0000000000, -0.0765467286, -0.0657929480, -0.0000000000, 0.0000000000, -0.0624687299, 0.0528937094, 0.0735108629, 0.0000000000, 0.0000000000, -0.0000000000, -0.0000000000, -0.1058960930, 0.0000000000, -0.0000000000, 0.0000000000, 0.0000000000, -0.0000000000, -0.0000000000, -0.0000000000, -0.0000000000, -0.0000000000, 0.0000000000, 0.1021936908, 0.0469364412, -0.0000000000, 0.0000000000, 0.0000000000, 0.0000000000, -0.1617132276, 0.0586477891, -0.0832838863, 0.0000000000, 0.0000000000, 0.0000000000, -0.0000000000, -0.0000000000, -0.0000000000, 0.0000000000, -0.0922727808, 0.1153366491, -0.0000000000, -0.0000000000, -0.0000000000, 0.0000000000, -0.0000000000, 0.0000000000, 0.0000000000, 0.0000000000, 0.0000000000, -0.0000000000, -0.0000000000, -0.0000000000, -0.0000000000, 0.0000000000, -0.0789739788, -0.0000000000, -0.0000000000, 0.0000000000, -0.1081786305, 0.0000000000, -0.0000000000, 0.0000000000, -0.0000000000, -0.0000000000, 0.0712458864, -0.0000000000, -0.0749969780, 0.0000000000, -0.0000000000, 0.0000000000, -0.0800802559, 0.0000000000, -0.0000000000, -0.0000000000, 0.1546786875, 0.0000000000, -0.0000000000, 0.0000000000, 0.1240418404, 0.0000000000, 0.0000000000, 0.0000000000, 0.0000000000, -0.0000000000, -0.1643283516, -0.0737404376, 0.0000000000, -0.0000000000, 0.0000000000, 0.0000000000, 0.1483230144, 0.0000000000, 0.0000000000, 0.0000000000, 0.0647326708, -0.0716265440, 0.0000000000, -0.0000000000, -0.0000000000, 0.0000000000, -0.0000000000, 0.0000000000, 0.0000000000, 0.1420420408, 0.0000000000, -0.0000000000, -0.0000000000, 0.0000000000, -0.0000000000, 0.0000000000, 0.0000000000, 0.0969144553, 0.0000000000, 0.0000000000, -0.0000000000, -0.0000000000, -0.0000000000, -0.0000000000, -0.1427787393, -0.0000000000, -0.0000000000, -0.0000000000, -0.1358847469, -0.0673180223, 0.0000000000, 0.1900121421, -0.0000000000, -0.0000000000, 0.0347215310, 0.0000000000, -0.0000000000, 0.0000000000, -0.0000000000, 0.0000000000, 0.0000000000, 0.0000000000, 0.0000000000, -0.0000000000, -0.0000000000, 0.0000000000, -0.0000000000, -0.0000000000, 0.0000000000, 0.0000000000, -0.0000000000, 0.0000000000, 0.0000000000, -0.0000000000, -0.0000000000, -0.1552910209, -0.0000000000, -0.0000000000, 0.0000000000, -0.0000000000, 0.0000000000, 0.0000000000, -0.0000000000, -0.1053059325, -0.0398351848, 0.0000000000, 0.0000000000, -0.0000000000, -0.0000000000, -0.0000000000, -0.0000000000, 0.0000000000, 0.0000000000, 0.0885368958, 0.0000000000, -0.0000000000, -0.0000000000, -0.1546341330, 0.0000000000, 0.0000000000, 0.0000000000, -0.0396860950, -0.0000000000, 0.0000000000, 0.0000000000, -0.0000000000, -0.0000000000, -0.0000000000, 0.0000000000, -0.0000000000, -0.0000000000, 0.0000000000, -0.0000000000, -0.0000000000, 0.0000000000, 0.0000000000, -0.0000000000, 0.0000000000, 0.0000000000, -0.0000000000, -0.0000000000, 0.0000000000, 0.0000000000, 0.1777214706, 0.0000000000, 0.0000000000, -0.0000000000, -0.0000000000, -0.0000000000, 0.0000000000, -0.0000000000, -0.0000000000, 0.0000000000, 0.0000000000, -0.0000000000, -0.0000000000, -0.0000000000, -0.0000000000, 0.1396292299, -0.0774219036, -0.0000000000, -0.0000000000, 0.0000000000, -0.0000000000, 0.0000000000, -0.0000000000, -0.0000000000, -0.1135093868, 0.0969588086, -0.0000000000, -0.0768167824, 0.0000000000, -0.0000000000, 0.0000000000, -0.0000000000, 0.1059624329, 0.0000000000, 0.0783324987, -0.0000000000, -0.0000000000, 0.0000000000, 0.0000000000, 0.0000000000, 0.0000000000, -0.0276231840, 0.0000000000, -0.0000000000, 0.0000000000, 0.0000000000, -0.0000000000, -0.0000000000, -0.0000000000, -0.1407798380, -0.0000000000, -0.0704962537, 0.0000000000, -0.0000000000, 0.0000000000, 0.0000000000, 0.0000000000, -0.0000000000, -0.0000000000, -0.0000000000, 0.0000000000, -0.0000000000, 0.0000000000, 0.0000000000, 0.0000000000, 0.0000000000, 0.0000000000, 0.0000000000, -0.0000000000, -0.0000000000, 0.0000000000, -0.0000000000, -0.0000000000, -0.0514087640, 0.0000000000, -0.0000000000, -0.0000000000, 0.0000000000, -0.0000000000, 0.0815450549, 0.0000000000, 0.0000000000, -0.0000000000, -0.0659053624, -0.0000000000, -0.0000000000, -0.0000000000, 0.0000000000, 0.0000000000, -0.0000000000, 0.0000000000, 0.0000000000, 0.0000000000, -0.0000000000, -0.0000000000, -0.0000000000, 0.1947252750, 0.0000000000, 0.0000000000, -0.0000000000, -0.0000000000, -0.0000000000, 0.0000000000, 0.0000000000, 0.0000000000, 0.0000000000, 0.0000000000, 0.0000000000, -0.0000000000, -0.0658575296, -0.0000000000, -0.0000000000, 0.0000000000, -0.0000000000, -0.0000000000, -0.0000000000, -0.0000000000, 0.0000000000, -0.0000000000, -0.0000000000, 0.0000000000, -0.0000000000, -0.0000000000, -0.1294955015, 0.0000000000, -0.0000000000, 0.0000000000, 0.0000000000, 0.0766246319, -0.0000000000, 0.1585315466, 0.0000000000, -0.0000000000, -0.1017545238, 0.0000000000, 0.0000000000, 0.0000000000, 0.0000000000, 0.0000000000, -0.0000000000, 0.0000000000, -0.0000000000, 0.0000000000, -0.0000000000, -0.0000000000, 0.0000000000, 0.0338560119, 0.0000000000, 0.0000000000, -0.0000000000, 0.0000000000, 0.0000000000, -0.0784668922, -0.0000000000, -0.0712142438, 0.0000000000, 0.0000000000, -0.0000000000, 0.0000000000, 0.0000000000, 0.0000000000, 0.0000000000, 0.0757500529, -0.0000000000, -0.0480042920, -0.0000000000, 0.0000000000, -0.0000000000, 0.0000000000, 0.0000000000, 0.0000000000, 0.0000000000, -0.0000000000, -0.0000000000, -0.0000000000, -0.0000000000, 0.0000000000, -0.0936037675, -0.0000000000, 0.0000000000, -0.0000000000, -0.0000000000, -0.0000000000, 0.0000000000, 0.0000000000, -0.0000000000, 0.0000000000, 0.0574941523, -0.0000000000, -0.0000000000, 0.0000000000, 0.0000000000, 0.1140202507, 0.0000000000, 0.0000000000, 0.0000000000, -0.0000000000, -0.0000000000, 0.1265464276, 0.0000000000, 0.0000000000, 0.0000000000, 0.0000000000, -0.0000000000, -0.0000000000, -0.0000000000, -0.0000000000, -0.0000000000, -0.1083520427, -0.0000000000, -0.0000000000, -0.0000000000, -0.0618408211, 0.0000000000, 0.0000000000, -0.0000000000, 0.0000000000, -0.0000000000, 0.0000000000, -0.0000000000, 0.0000000000, -0.0000000000, -0.0000000000, 0.0000000000, 0.0000000000, -0.0000000000, 0.0000000000, -0.0000000000, -0.0000000000, -0.0000000000, -0.1630358994, 0.0000000000, 0.0000000000, 0.0000000000, 0.0000000000, -0.0000000000, -0.0000000000, -0.0000000000, -0.1391657740, -0.0000000000, -0.0000000000, 0.0000000000, 0.0637048557, 0.0000000000, -0.0000000000, -0.0000000000, -0.0000000000, 0.0000000000, 0.0000000000, -0.1030280888, 0.0000000000, 0.0000000000, 0.0000000000, -0.0000000000, -0.0000000000, 0.0000000000, 0.0000000000, 0.0000000000, 0.0000000000, -0.0000000000, -0.0000000000, -0.0000000000, 0.1193770841, -0.0000000000, -0.0000000000, 0.0000000000, -0.0542844310, 0.0000000000, 0.0000000000, -0.0000000000, -0.0832152441, -0.0711593628, -0.0000000000, -0.0000000000, -0.0000000000, -0.0000000000, -0.0000000000, 0.0000000000, -0.0000000000, -0.0000000000, -0.0891306698, -0.0466106422, -0.0000000000, -0.1248216406, -0.0000000000, -0.0000000000, 0.0000000000, -0.0000000000, 0.1099633127, 0.0000000000, 0.0000000000, -0.0620158538, -0.0000000000, 0.0000000000, 0.0805335790, 0.0000000000, -0.0000000000, -0.0000000000, 0.0000000000, 0.0000000000, -0.0000000000, -0.0000000000, 0.1295507252, -0.0000000000, -0.0000000000, 0.0000000000, -0.0000000000, 0.0000000000, -0.0000000000, -0.0000000000, -0.0000000000, 0.0000000000, 0.0000000000, -0.0000000000, 0.0000000000, -0.1190408766, -0.0000000000, -0.0000000000, -0.0000000000, -0.0000000000, 0.0000000000, -0.0000000000, 0.0960460976, 0.0000000000, -0.0858540460, 0.0000000000, 0.0000000000, 0.0000000000, -0.0644171312, 0.0000000000, 0.0000000000, -0.0000000000, -0.0000000000, -0.0611937419, -0.0000000000, -0.0000000000, 0.0000000000, 0.0000000000, 0.1165513322, 0.0000000000, -0.0000000000, -0.0000000000, 0.0000000000, 0.0000000000, 0.0000000000, -0.0535867438, 0.0000000000, 0.0000000000, -0.0000000000, -0.0000000000, -0.0000000000, 0.0000000000, 0.0000000000, 0.0000000000, 0.0000000000, -0.0000000000, -0.0000000000, -0.0000000000, -0.0000000000, 0.0000000000, -0.0000000000, 0.0000000000, 0.0000000000, -0.0000000000, -0.0000000000, 0.0000000000, -0.1134688333, 0.0868276954, 0.0000000000, 0.0972024500, 0.1746113151, 0.0000000000, -0.0000000000, -0.0000000000, 0.0000000000, -0.0000000000, -0.1104776189, -0.0183267668, 0.0000000000, -0.1342744231, -0.0000000000, -0.0000000000, -0.0000000000, 0.0000000000, 0.0000000000, 0.0000000000, 0.0000000000, -0.0000000000, 0.0793370008, -0.0000000000, 0.0903386623, 0.0000000000, 0.0000000000, -0.1502363235, 0.0000000000, -0.0000000000, 0.0000000000, -0.0000000000, -0.0000000000, 0.1558976620, 0.0476458110, -0.1285707504, -0.0000000000, -0.0000000000, 0.0000000000, -0.0000000000, -0.0000000000, 0.0000000000, 0.0000000000, 0.0537976436, 0.0000000000, 0.0000000000, 0.0000000000, -0.0000000000, 0.0000000000, 0.0000000000, 0.0000000000, 0.0000000000, 0.0000000000, 0.0000000000, -0.0000000000, -0.0000000000, 0.0000000000, 0.0000000000, -0.0000000000, 0.0000000000, 0.1138147637, -0.0000000000, 0.0000000000, -0.0000000000, -0.0447784662, -0.0000000000, 0.0000000000, 0.0000000000, -0.0000000000, -0.0000000000, -0.0000000000, 0.0000000000, -0.0000000000, 0.0000000000, 0.0000000000, -0.0000000000, 0.0000000000, 0.0708339363, 0.0000000000, -0.0000000000, -0.0000000000, 0.0000000000, 0.1569204628, 0.0000000000, 0.0000000000, 0.0000000000, -0.0000000000, -0.0000000000, -0.0000000000, 0.0000000000, -0.0000000000, 0.0000000000, 0.0796108171, 0.0000000000, 0.0000000000, -0.0000000000, -0.1717983633, -0.0000000000, 0.0000000000, 0.0000000000, 0.0958941728, -0.0000000000, -0.0000000000, -0.1012582332, 0.0000000000, -0.1230047718, 0.0000000000, 0.0084866695, 0.0000000000, -0.0000000000, -0.0000000000, -0.0000000000, 0.0000000000, -0.0000000000, 0.0000000000, -0.0959174559, 0.1395595223, 0.0000000000, -0.0000000000, 0.0870784223, 0.0586233325, -0.0000000000, 0.0000000000, -0.0685396343, 0.0000000000, -0.0000000000, -0.0000000000, 0.0000000000, -0.1146776378, -0.0000000000, 0.0000000000, -0.1459665895, -0.0000000000, -0.0000000000, -0.0000000000, 0.1092340425, 0.0000000000, 0.0000000000, 0.0000000000, -0.0000000000, 0.0000000000, 0.0000000000, 0.0000000000, -0.0000000000, 0.0000000000, -0.0000000000, 0.1340847313, 0.0000000000, 0.0000000000, 0.0000000000, -0.0000000000, -0.1131000444, 0.0930230394, -0.0000000000, -0.0000000000, 0.0000000000, 0.0000000000, 0.0000000000, -0.0000000000, -0.0000000000, -0.0000000000, -0.0000000000, 0.0000000000, -0.0000000000, 0.1247282997, 0.0000000000, 0.0000000000, -0.0000000000, 0.0000000000, -0.0000000000, -0.1849467754, -0.0550323166, -0.0000000000, -0.1352064013, 0.0000000000, -0.0000000000, -0.0000000000, -0.0000000000, 0.0000000000, 0.0000000000, 0.0000000000, 0.0000000000, 0.0000000000, 0.0000000000, 0.1002543196, -0.0000000000, 0.0000000000, -0.1315020621, 0.0934222117, -0.0000000000, -0.0000000000, -0.0000000000, -0.0000000000, -0.0000000000, -0.0000000000, 0.0000000000, -0.0000000000, -0.0630492344, -0.0000000000, -0.0000000000, -0.0000000000, 0.0000000000, -0.1220255420, 0.1457379460, 0.0000000000, -0.0417702608, -0.0000000000, -0.0000000000, 0.0000000000, 0.0000000000, 0.0000000000, -0.1970636994, 0.0000000000, 0.0000000000, -0.0892108008, 0.0606025234, 0.0000000000, -0.0000000000, -0.0669479072, 0.0000000000, 0.0000000000, 0.0000000000, -0.0000000000, -0.0000000000, 0.1918120682, -0.0000000000, 0.0000000000, 0.0000000000, -0.1622552276, 0.0000000000, 0.0000000000, -0.0000000000, 0.0000000000, 0.0000000000, -0.1591309458, 0.1996340603, 0.1022703499, 0.0000000000, 0.0000000000, -0.0000000000, -0.0000000000, -0.0000000000, 0.1109680161, -0.1237039119, 0.0000000000, -0.0000000000, -0.0000000000, -0.0000000000, -0.0715999678, -0.0639568567, -0.0663399994, 0.0000000000, 0.0000000000, -0.0000000000, -0.0000000000, 0.0000000000, -0.0996760353, 0.0716153383, 0.0000000000, 0.0000000000, -0.0000000000, 0.0000000000, -0.0000000000, -0.1059204414, 0.0000000000, -0.0000000000, -0.1829187572, -0.0000000000, 0.0000000000, -0.1489508003, 0.0000000000, -0.0000000000, 0.0000000000, -0.0000000000, -0.0380754545, 0.1534792781, -0.0746177062, -0.0000000000, -0.0000000000, 0.0000000000, 0.0000000000, -0.0000000000, -0.0000000000, -0.0000000000, 0.1152819395, 0.0000000000, -0.0000000000, 0.0000000000, -0.0000000000, -0.1590083092, 0.0814533010, -0.0000000000, 0.1334288269, 0.0632509738, 0.0000000000, 0.1207768843, 0.0000000000, 0.1142610013, 0.1265001893, 0.0000000000, 0.0684287623, 0.1273145527, -0.0000000000, -0.0000000000, 0.0000000000, 0.0000000000, 0.0000000000, 0.0000000000, 0.0000000000, 0.0000000000, -0.0429733731, -0.0000000000, 0.0000000000, -0.0000000000, -0.0000000000, 0.0000000000, 0.0000000000, -0.0000000000, 0.0000000000, 0.0000000000, -0.0000000000, -0.0000000000, 0.0000000000, -0.1561544389, -0.0872867256, -0.0000000000, -0.0000000000, 0.0872459114, 0.0000000000, 0.0760664716, 0.0000000000, -0.0000000000, -0.0893150270, 0.0000000000, 0.0000000000, -0.0000000000, 0.0000000000, -0.0000000000, 0.2241323590, -0.1758976877, 0.0000000000, 0.0000000000, -0.0000000000, -0.0000000000, 0.0000000000, -0.0642289519, -0.0000000000, -0.1086081490, 0.0000000000, 0.0000000000, -0.0000000000, -0.0000000000, -0.0000000000, 0.1084681153, 0.0000000000, -0.0526811965, -0.0968192592, -0.0000000000, 0.0000000000, 0.0980105698, 0.0000000000, 0.0623989441, -0.0809886083, 0.1093001589, -0.0637826771, -0.0000000000, -0.0000000000, -0.0000000000, 0.0000000000, -0.0000000000, -0.0797609687, 0.0663465783, 0.0000000000, 0.0000000000, -0.0000000000, -0.0000000000, -0.1009379029, 0.0000000000, -0.0000000000, -0.0511973388, 0.0000000000, -0.0000000000, 0.0000000000, -0.0000000000, 0.1208197027, -0.0000000000, -0.0648403540, -0.0000000000, 0.1149480566, 0.0000000000, -0.0000000000, -0.0000000000, 0.0000000000, 0.0000000000, 0.0000000000, -0.0000000000, 0.0000000000, 0.0000000000, 0.0000000000, -0.0000000000, 0.0000000000, -0.0000000000, 0.0000000000, -0.2276524007, 0.0000000000, -0.0000000000, -0.0000000000, -0.0000000000, 0.0000000000, -0.0000000000, -0.0000000000, 0.0000000000, 0.0000000000, 0.0000000000, 0.0000000000, -0.0000000000, -0.0000000000, -0.0000000000, 0.0612942018, -0.0000000000, -0.0000000000, 0.0000000000, 0.0000000000, 0.0000000000, 0.0000000000, -0.0000000000, -0.2285335362, -0.0000000000, 0.0000000000, -0.0788652226, -0.0000000000, -0.0000000000, 0.0000000000, 0.0000000000, 0.0000000000, 0.0000000000, 0.0000000000, 0.0000000000, -0.0000000000, -0.0000000000, 0.0000000000, -0.0000000000, -0.0000000000, -0.0000000000, 0.0000000000, 0.0000000000, -0.0000000000, -0.0000000000, -0.0000000000, -0.0000000000, 0.0000000000, -0.0000000000, 0.0773942322, -0.0000000000, -0.0000000000, 0.0932339430, -0.0000000000, 0.0000000000, 0.0000000000, 0.0000000000, 0.0939564034, -0.0000000000, 0.0000000000, -0.0000000000, -0.0000000000, 0.0000000000, -0.1167139560, 0.0000000000, 0.0980828777, 0.0000000000, -0.0000000000, -0.1163158342, -0.0751224756, 0.0000000000, 0.0000000000, 0.1777353883, 0.0000000000, -0.0000000000, -0.0000000000, 0.0000000000, 0.1974518299, -0.1128428504, 0.0000000000, -0.0000000000, -0.0000000000, 0.0000000000, 0.0000000000, -0.0000000000, 0.0000000000, 0.0000000000, -0.1302009225, -0.0000000000, 0.0871867910, 0.0000000000, 0.0000000000, -0.0000000000, -0.0000000000, 0.0000000000, 0.0000000000, -0.1362703145, 0.0000000000, 0.0000000000, -0.0000000000, -0.0000000000, -0.0746451318, -0.0000000000, 0.0000000000, 0.0000000000, 0.0000000000, 0.0000000000, -0.0000000000, -0.0000000000, -0.0000000000, 0.0747007206, 0.0000000000, -0.0223175045, -0.0000000000, 0.0000000000, -0.0000000000, 0.0000000000, -0.0000000000, 0.0639560446, -0.1507133543, 0.1218105629, -0.0000000000, -0.2087560147, 0.0000000000, -0.0000000000, -0.0000000000, 0.0000000000, 0.0000000000, 0.0000000000, 0.0000000000, 0.0000000000, -0.0000000000, -0.0000000000, 0.0000000000, -0.0000000000, 0.0000000000, -0.0000000000, -0.0000000000, 0.0000000000, 0.0000000000, -0.0000000000, -0.0981893912, -0.0000000000, -0.0000000000, -0.1277985871, 0.0000000000, 0.0000000000, 0.0000000000, 0.0776431113, 0.0000000000, -0.1895711124, 0.0000000000, -0.0000000000, 0.0000000000, 0.0999317765, -0.0000000000, -0.0806520283, -0.0000000000, 0.0000000000, 0.0000000000, -0.1145946905, 0.0000000000, -0.0000000000, -0.0000000000, -0.0000000000, 0.0000000000, 0.0000000000, 0.0000000000, -0.0791211501, 0.0000000000, -0.0000000000, -0.0000000000, 0.0000000000, -0.0000000000, -0.1224003583, 0.0000000000, 0.0000000000, -0.0000000000, 0.0000000000, 0.0000000000, 0.0000000000, 0.0000000000, 0.0000000000, 0.0000000000, -0.0000000000, -0.0610272475, 0.0000000000, -0.0000000000, -0.0000000000, 0.0000000000, -0.0000000000, 0.0000000000, 0.0000000000, 0.0000000000, -0.0000000000, -0.0000000000, -0.0000000000, 0.0000000000, 0.0000000000, -0.0000000000, 0.0000000000, 0.0000000000, -0.0000000000, 0.0000000000, 0.0000000000, 0.1170509756, -0.0436271206, 0.0000000000, -0.0000000000, 0.1355516762, 0.0000000000, 0.0000000000, 0.0000000000, -0.0000000000, -0.0452595986, -0.0961825699, 0.1322574168, 0.0000000000, -0.0000000000, 0.0000000000, -0.0000000000, -0.0000000000, 0.0000000000, 0.0000000000, 0.0000000000, 0.1121471524, -0.0000000000, -0.0000000000, 0.0505569912, -0.0849812776, 0.0000000000, -0.0000000000, -0.0609262697, 0.1299313456, -0.0000000000, 0.0000000000, -0.0000000000, -0.0000000000, -0.0000000000, -0.0741455629, -0.1298872530, -0.0000000000, 0.0000000000, 0.0000000000, -0.0000000000, -0.0000000000, -0.0680384934, 0.1361121535, -0.1012095734, 0.0000000000, 0.0000000000, -0.0000000000, -0.0000000000, -0.0000000000, -0.0000000000, 0.0000000000, 0.0000000000, 0.0000000000, 0.0000000000, -0.0000000000, -0.0000000000, -0.0247147400, 0.0000000000, 0.0000000000, -0.1268070340, 0.0000000000, -0.0000000000, 0.0000000000, -0.0000000000, -0.0000000000, -0.0000000000, 0.0000000000, -0.0000000000, -0.0000000000, -0.0000000000, 0.0000000000, 0.0000000000, 0.0000000000, 0.0000000000, -0.2655319571, -0.0328193866, -0.0662067458, -0.0890125856, 0.0000000000, -0.0000000000, 0.0000000000, 0.0000000000, 0.0000000000, 0.0000000000, 0.0000000000, -0.0000000000, -0.0000000000, -0.1278742701, -0.1734168977, 0.0000000000, -0.0000000000, 0.0976627544, 0.0000000000, -0.0000000000, -0.0000000000, 0.0000000000, 0.1071956530, 0.0911132544, 0.0000000000, -0.0000000000, 0.0000000000, -0.0000000000, 0.0000000000, 0.0598667227, -0.0000000000, -0.1482587755, 0.0000000000, -0.0829691812, 0.0000000000, -0.0000000000, -0.0000000000, 0.0000000000, -0.0000000000, 0.0000000000, -0.1485126764, 0.0000000000, 0.0000000000, -0.0000000000, -0.0000000000, -0.0000000000, 0.0588261522, -0.0000000000, 0.0000000000, 0.1515256912, 0.1268374175, -0.0000000000, 0.0000000000, 0.0000000000, 0.1224935800, 0.0943464488, 0.0000000000, -0.0000000000, -0.0000000000, 0.0000000000, 0.0000000000, -0.0946865380, 0.0000000000, 0.0000000000, 0.0803662539, -0.1081978381, 0.0927226692, 0.0000000000, -0.0000000000, -0.0000000000, -0.0000000000, 0.0000000000, 0.0000000000, 0.0000000000, -0.1175527871, -0.0000000000, -0.0000000000, -0.0000000000, 0.0000000000, 0.0000000000, -0.0000000000, -0.0000000000, 0.0000000000, 0.0000000000, -0.0662783012, -0.0000000000, 0.0897986144, 0.1128299087, -0.1125824675, 0.0000000000, -0.0000000000, -0.0000000000, -0.0634563193, 0.0000000000, -0.0000000000, -0.0000000000, -0.0838995278, 0.0754042566, -0.0000000000, -0.0000000000, -0.0650177151, -0.0000000000, 0.0000000000, 0.0000000000, 0.0976079479, -0.1998502314, -0.1427508742, -0.0000000000, 0.1063845381, -0.1581190228, 0.0000000000, -0.0000000000, 0.0000000000, 0.1275194883, 0.0000000000, -0.0000000000, 0.0000000000, 0.0000000000, 0.0000000000, 0.1238866672, 0.0000000000, -0.1502159983, 0.0000000000, 0.0000000000, 0.0000000000, 0.0890459493, -0.0000000000, 0.0000000000, 0.0000000000, 0.0000000000, 0.0000000000, 0.0000000000, -0.0000000000, -0.0000000000, -0.0000000000, 0.0000000000, -0.0627689883, 0.0000000000, 0.0000000000, -0.0000000000, -0.0000000000, -0.0000000000, 0.0000000000, 0.0000000000, -0.0000000000, 0.0000000000, 0.1220845655, -0.0000000000, -0.0000000000, -0.0000000000, 0.1107631773, -0.0000000000, -0.1064843535, 0.0000000000, -0.1114853397, 0.0000000000, -0.0000000000, 0.0000000000, 0.0000000000, -0.0000000000, 0.0000000000, 0.0000000000, 0.0000000000, 0.0000000000, 0.0000000000, -0.0000000000, 0.0000000000, 0.0000000000, -0.1024687514, 0.0000000000, 0.0000000000, -0.0000000000, -0.0000000000, -0.0291733686, 0.0000000000, 0.0000000000, 0.0000000000, 0.0000000000, -0.0000000000, -0.0000000000, -0.0000000000, -0.0000000000, -0.0000000000, -0.0000000000, -0.0000000000, 0.0000000000, 0.0858106911, -0.0000000000, 0.0000000000, 0.0000000000, -0.0000000000, -0.1344521493, 0.0000000000, -0.0000000000, -0.0000000000, 0.0000000000, 0.0000000000, -0.0000000000, 0.0000000000, -0.0000000000, 0.1336414367, 0.0000000000, 0.0000000000, -0.0000000000, 0.0000000000, 0.0890364647, -0.0991213322, 0.0000000000, 0.0000000000, -0.0548530631, 0.0000000000, -0.0000000000, 0.0000000000, 0.0000000000, 0.1368018240, -0.0000000000, -0.0854247138, -0.0000000000, -0.0000000000, 0.0000000000, 0.0000000000, -0.1631308794, 0.0000000000, 0.0842498764, -0.0834906846, 0.0000000000, 0.0985543504, 0.0000000000, -0.0000000000, -0.0000000000, -0.0000000000, 0.0000000000, -0.1314376891, 0.0000000000, 0.0000000000, -0.0000000000, -0.0000000000, -0.0000000000, 0.0000000000, 0.0000000000, 0.0000000000, -0.1296650618, 0.0000000000, 0.0000000000, 0.0000000000, 0.0000000000, -0.0000000000, -0.0000000000, 0.0000000000, -0.0000000000, -0.0000000000, -0.0000000000, 0.0000000000, 0.0000000000, -0.0000000000, -0.0000000000, -0.1055521518, -0.0406881124, 0.0000000000, -0.0000000000, -0.0000000000, -0.0000000000, 0.0000000000, -0.0000000000, -0.0000000000, -0.1082336083, 0.0000000000, 0.0000000000, -0.0000000000, -0.0000000000, -0.1907849312, 0.0000000000, 0.0000000000, 0.1916077882, 0.0000000000, 0.0000000000, 0.0000000000, -0.0000000000, -0.0000000000, -0.0465996787, 0.0000000000, 0.0000000000, -0.1730927080, -0.0000000000, 0.0000000000, -0.0968921483, 0.0000000000, -0.0775842890, 0.0000000000, 0.0000000000, 0.0000000000, 0.0913836434, -0.0000000000, 0.0000000000, 0.0000000000, -0.0000000000, 0.1909077466, 0.0000000000, -0.0853480771, -0.0000000000, 0.0000000000, -0.0000000000, 0.0000000000, -0.0000000000, -0.0000000000, -0.0279141571, 0.0000000000, -0.0000000000, 0.0000000000, -0.0619854294, 0.2009028494, -0.1866380572, -0.1089882255, -0.0729406103, -0.1745432466, 0.0000000000, 0.0000000000, 0.0000000000, -0.0000000000, 0.2374467254, 0.0000000000, 0.1574794650, 0.0714197308, 0.0000000000, -0.0000000000, -0.0000000000, -0.0000000000, -0.0000000000, 0.0000000000, 0.0000000000, 0.0000000000, 0.0000000000, -0.0000000000, -0.0000000000, 0.0000000000, 0.0000000000, -0.0000000000, -0.1369153410, 0.0000000000, -0.0000000000, 0.0000000000, 0.0000000000, 0.1160844862, -0.0000000000, -0.1690257937, 0.0000000000, -0.0000000000, 0.0000000000, 0.0000000000, 0.0000000000, -0.0000000000, 0.1548074931, 0.0000000000, 0.1757997125, 0.1291240454, -0.1332367808, 0.0000000000, -0.0000000000, 0.0000000000, -0.0000000000, -0.0000000000, -0.2472929955, 0.0000000000, 0.0000000000, 0.0444956534, -0.0000000000, -0.0797611028, 0.0000000000, 0.0000000000, 0.0000000000, 0.0000000000, -0.0000000000, -0.0000000000, -0.0000000000, 0.1570656747, 0.1134431958, -0.1974842399, 0.0000000000, -0.0000000000, -0.0000000000, -0.0000000000, 0.0813204497, 0.0000000000, -0.1753378063, -0.1127407849, -0.0000000000, -0.0948462784, 0.0000000000, 0.0000000000, -0.0000000000, 0.0000000000, -0.0000000000, 0.0000000000, 0.0000000000, 0.0000000000, 0.0000000000, 0.0935152918, -0.0000000000, 0.0000000000, 0.0000000000, -0.0000000000, 0.0000000000, 0.0000000000, -0.0000000000, 0.0000000000, -0.0000000000, -0.0000000000, -0.0000000000, -0.0000000000, -0.1183271855, -0.0000000000, 0.0627146065, 0.0000000000, 0.0000000000, -0.0676536709, 0.0000000000, 0.0000000000, 0.0692814887, -0.0000000000, 0.0000000000, -0.0000000000, 0.0000000000, -0.0000000000, -0.0000000000, 0.0000000000, 0.0000000000, -0.1485632360, -0.0637151599, -0.0000000000, -0.0537948459, 0.0000000000, -0.0000000000, -0.0000000000, -0.0000000000, -0.0000000000, -0.0000000000, 0.0000000000, 0.0000000000, 0.1141285151, -0.1299747229, -0.1394044608, 0.0000000000, 0.0507150814, 0.0000000000, -0.0000000000, 0.1421728432, 0.0000000000, 0.1222383156, -0.1269277483, -0.0000000000, 0.1060971916, -0.0000000000, -0.0000000000, -0.0000000000, -0.0000000000, -0.0000000000, 0.0000000000, -0.1257769018, 0.0000000000, 0.0000000000, 0.0877098814, 0.0861995965, 0.0000000000, 0.0000000000, 0.0000000000, 0.0000000000, 0.0000000000, 0.0000000000, 0.0000000000, -0.0000000000, -0.0000000000, -0.0000000000, -0.0000000000, -0.0000000000, -0.0000000000, 0.0000000000, 0.0000000000, 0.0000000000, 0.0000000000, 0.0000000000, -0.0763840154, -0.0000000000, -0.0000000000, 0.0000000000, -0.0000000000, -0.0000000000, -0.0000000000, -0.0000000000, 0.0000000000, 0.0000000000, 0.0000000000, 0.0000000000, 0.1432444006, -0.0000000000, 0.0000000000, -0.0000000000, 0.0000000000, -0.0979203284, 0.1541858613, 0.0000000000, 0.0000000000, 0.0000000000, -0.0000000000, -0.1323091537, -0.0751107335, 0.0000000000, 0.0660503283, 0.0000000000, -0.0708072707, 0.0000000000, -0.0000000000, 0.1690213978, -0.1176145002, -0.0000000000, 0.1078738943, 0.0000000000, -0.0000000000, -0.0689053610, -0.0000000000, -0.0000000000, 0.0209593643, 0.0000000000, 0.0000000000, -0.0650748685, -0.0000000000, -0.0000000000, -0.1824271083, -0.0000000000, -0.0000000000, 0.0000000000, -0.0000000000, -0.0000000000, -0.0000000000, -0.0000000000, 0.0000000000, -0.0000000000, -0.0000000000, -0.0816331953, -0.1213575602, -0.0000000000, 0.0000000000, -0.0651095510, -0.0000000000, 0.0000000000, 0.0000000000, -0.0000000000, 0.0785112903, -0.0000000000, 0.0000000000, -0.0000000000, 0.0000000000, -0.0000000000, 0.0000000000, -0.0000000000, 0.0000000000, 0.0000000000, -0.0657404885, -0.0000000000, 0.0000000000, -0.0000000000, 0.0000000000, 0.0000000000, 0.0000000000, -0.0000000000, -0.0000000000, -0.0000000000, -0.0000000000, -0.0000000000, 0.0000000000, -0.0000000000, -0.0000000000, 0.0000000000, 0.0000000000, -0.0000000000, -0.0000000000, -0.0950874314, -0.0458172970, -0.0000000000, 0.0000000000, 0.0000000000, -0.0000000000, -0.0000000000, 0.0000000000, 0.0000000000, 0.0000000000, 0.0000000000, 0.0000000000, -0.0000000000, -0.0000000000, -0.0000000000, 0.0000000000, 0.0000000000, -0.0000000000, -0.0000000000, -0.0000000000, 0.0000000000, 0.0000000000, -0.0000000000, -0.0000000000, -0.1013564691, 0.0000000000, 0.0000000000, -0.0000000000, -0.0000000000, -0.0000000000, 0.0000000000, -0.0000000000, 0.0604312904, 0.0000000000, -0.0000000000, 0.0815119296, -0.0000000000, -0.0000000000, -0.0000000000, 0.0000000000, 0.0000000000, -0.0000000000, 0.0000000000, 0.0000000000, 0.0000000000, 0.0591246970, -0.0000000000, -0.0568161607, 0.0000000000, -0.0000000000, -0.1253264546, 0.1024453193, 0.0000000000, 0.0000000000, -0.0000000000, 0.0000000000, 0.0000000000, -0.1441179812, 0.0560937896, -0.0000000000, -0.0000000000, -0.0000000000, -0.0000000000, 0.0000000000, 0.0000000000, 0.0000000000, -0.0000000000, 0.0000000000, 0.0000000000, -0.0000000000, -0.0000000000, -0.0000000000, -0.0000000000, 0.0000000000, 0.0000000000, -0.0592221804, 0.0000000000, -0.0000000000, -0.0779275075, 0.0000000000, 0.0000000000, 0.0000000000, -0.0000000000, 0.0000000000, 0.0000000000, 0.0000000000, -0.0000000000, -0.0000000000, -0.0000000000, -0.0000000000, -0.0783930048, -0.0000000000, 0.0000000000, 0.0000000000, -0.0000000000, 0.0000000000, 0.0000000000, 0.0000000000, 0.0645706207, -0.0000000000, 0.0000000000, 0.0000000000, 0.0000000000, -0.0000000000, -0.0000000000, 0.0000000000, 0.0916432589, 0.0435448103, 0.0000000000, -0.0000000000, -0.1263807267, -0.0000000000, 0.0000000000, 0.0000000000, -0.0708570555, 0.0000000000, -0.0632504672, 0.0000000000, 0.0000000000, -0.1007835269, -0.0000000000, -0.0829868168, 0.0000000000, -0.0000000000, -0.0000000000, -0.0000000000, 0.0000000000, -0.0000000000, 0.0581759475, 0.0000000000, -0.1258246303, 0.0000000000, 0.0000000000, 0.0000000000, -0.0000000000, -0.0000000000, 0.0000000000, -0.0000000000, -0.0000000000, 0.0000000000, -0.0000000000, -0.0000000000, 0.0542895235, 0.1194274127, 0.0000000000, 0.0000000000, -0.0000000000, 0.0906084627, 0.0000000000, -0.0000000000, 0.0000000000, -0.1321856976, -0.1025230587, 0.0627770126, 0.0000000000, -0.0000000000, -0.0000000000, -0.0000000000, -0.0000000000, 0.0000000000, 0.0000000000, 0.0000000000, -0.0000000000, -0.0000000000, 0.0000000000, -0.0000000000, -0.0000000000, 0.0000000000, 0.0000000000, 0.0000000000, 0.0000000000, 0.0000000000, 0.0000000000, -0.0000000000, -0.0000000000, 0.0000000000, 0.0000000000, -0.0000000000, 0.0000000000, 0.0000000000, -0.0000000000, 0.0000000000, -0.0000000000, -0.0000000000, -0.1122182384, 0.0000000000, 0.0000000000, -0.0000000000, 0.0000000000, -0.0000000000, -0.1314853579, 0.0000000000, -0.0000000000, 0.0000000000, -0.0000000000, -0.0633385926, 0.0000000000, 0.0000000000, -0.0000000000, 0.0000000000, -0.0000000000, -0.0000000000, 0.0000000000, 0.0000000000, 0.0000000000, -0.0000000000, -0.0000000000, 0.0000000000, 0.0000000000, -0.0000000000, -0.1260106266, -0.0000000000, 0.0000000000, -0.0000000000, 0.0000000000, 0.0000000000, 0.0000000000, -0.0000000000, 0.0000000000, -0.0000000000, -0.0000000000, 0.0000000000, -0.0000000000, -0.0000000000, 0.0000000000, 0.0000000000, -0.0000000000, -0.0000000000, 0.0000000000, 0.0000000000, -0.0000000000, -0.0000000000, -0.0000000000, -0.0000000000, 0.0000000000, -0.1162655205, 0.0000000000, -0.0549325198, 0.0000000000, 0.1691593379, 0.0000000000, -0.0000000000, 0.0988008380, -0.0000000000, -0.0000000000, -0.0000000000, -0.0000000000, 0.0000000000, -0.0800252706, -0.0000000000, 0.0384822711, -0.0000000000, -0.0000000000, -0.0000000000, -0.0000000000, 0.0000000000, 0.0000000000, 0.0000000000, -0.0000000000, 0.0000000000, 0.0000000000, 0.0000000000, -0.0000000000, 0.0000000000, -0.0000000000, 0.0000000000, 0.0000000000, 0.0000000000, -0.0617623292, -0.0000000000, -0.0000000000, 0.0000000000, 0.0000000000, -0.0000000000, 0.0000000000, -0.0000000000, -0.0000000000, -0.0000000000, -0.0000000000, -0.1414948702, -0.1175165102, -0.0643121451, 0.0653796941, -0.0000000000, 0.0000000000, -0.0000000000, -0.0000000000, -0.0000000000, -0.0000000000, -0.1187421903, -0.0803579614, -0.0631111488, 0.0000000000, 0.0000000000, -0.0000000000, -0.0000000000, -0.0637312829, 0.2469131351, -0.0883377418, -0.0448885486, -0.0000000000, -0.0000000000, -0.0000000000, 0.0000000000, -0.0608793348, 0.0000000000, -0.2221918702, 0.0000000000, 0.0000000000, -0.0000000000, -0.0000000000, 0.0000000000, 0.0000000000, -0.0000000000, -0.1956199259, 0.0475514531, 0.0000000000, -0.0000000000, -0.0000000000, -0.0000000000, 0.0000000000, -0.1293779761, 0.1828567833, -0.0669549704, 0.0000000000, -0.0000000000, -0.0000000000, 0.0000000000, -0.0000000000, 0.0000000000, 0.0000000000, 0.0000000000, 0.0000000000, -0.0000000000, -0.0000000000, 0.0000000000, 0.0000000000, 0.0000000000, -0.0000000000, 0.0000000000, 0.0000000000, 0.0000000000, 0.0000000000, -0.0000000000, 0.1251008064, 0.1580638736, 0.0571189374, -0.0000000000, 0.0000000000, -0.0000000000, -0.0000000000, 0.0000000000, 0.0000000000, 0.0000000000, -0.0000000000, -0.0000000000, 0.0000000000, -0.0000000000, 0.0000000000, 0.0000000000, -0.0000000000, 0.0000000000, -0.0495847985, 0.0000000000, -0.0000000000, -0.0926964507, -0.0000000000, 0.0000000000, 0.0000000000, -0.0000000000, 0.0000000000, -0.0000000000, 0.0000000000, 0.0000000000, 0.0000000000, -0.0000000000, -0.1097229272, -0.1012693420, 0.0000000000, 0.1023906767, -0.0628395751, 0.0000000000, 0.1298272461, -0.0000000000, -0.1074982956, 0.0000000000, -0.0880263448, 0.0000000000, -0.0000000000, 0.0000000000, -0.0000000000, -0.0000000000, -0.0000000000, 0.1095138863, -0.0000000000, -0.1229645312, -0.0000000000, 0.0000000000, 0.1114359647, -0.0000000000, -0.0000000000, 0.0000000000, 0.0000000000, 0.0000000000, -0.0000000000, -0.0000000000, -0.0000000000, -0.0690295473, 0.0207323600, 0.0651067421, -0.1261658370, -0.0000000000, -0.0000000000, -0.0000000000, -0.0000000000, -0.0000000000, -0.1334916353, 0.0000000000, -0.0000000000, -0.0000000000, 0.0000000000, 0.0000000000, 0.0000000000, -0.0000000000, 0.0000000000, 0.0000000000, 0.0000000000, 0.0000000000, -0.0000000000, -0.1934043318, -0.0000000000, 0.0000000000, 0.0000000000, -0.0000000000, -0.0000000000, -0.0000000000, -0.0000000000, -0.0000000000, -0.0000000000, -0.0000000000, -0.1121310592, -0.0000000000, 0.0000000000, 0.1449080855, -0.0000000000, -0.0000000000, -0.0000000000, -0.0000000000, -0.0000000000, 0.0887966976, -0.0771832541, -0.0000000000, -0.0777062029, -0.0000000000, -0.0674077347, 0.0000000000, -0.0000000000, 0.0000000000, 0.0000000000, 0.0000000000, 0.0000000000, -0.0000000000, -0.0000000000, 0.0000000000, 0.0000000000, -0.0000000000, -0.0000000000, -0.0000000000, -0.0000000000, -0.0661738142, -0.0000000000, 0.0000000000, 0.0000000000, -0.0000000000, 0.0000000000, -0.0000000000, 0.0000000000, 0.0000000000, 0.0675420687, -0.0646591261, 0.0000000000, -0.0612514839, -0.0000000000, -0.0000000000, -0.0000000000, 0.0000000000, -0.0646721646, -0.0000000000, 0.0000000000, 0.1585861593, -0.0000000000, 0.0000000000, 0.0000000000, -0.0000000000, 0.0000000000, 0.1000122577, 0.0000000000, -0.0000000000, 0.1220538542, -0.1025688946, -0.0000000000, -0.0641677678, -0.0000000000, -0.1081811041, 0.1083237082, 0.1608378440, 0.0000000000, -0.1491829008, 0.0000000000, 0.0000000000, -0.0000000000, 0.0000000000, 0.0000000000, -0.0322981253, -0.1094712242, 0.0000000000, 0.0000000000, -0.0000000000, -0.0000000000, 0.0000000000, -0.0000000000, 0.1058334112, 0.0000000000, -0.1464593261, -0.0605264120, -0.0459566712, 0.0987275317, 0.0000000000, -0.0000000000, 0.0000000000, 0.0000000000, -0.0000000000, -0.0000000000, 0.0000000000, -0.0000000000, -0.0000000000, -0.0000000000, 0.1137438789, 0.0000000000, -0.0000000000, 0.0000000000, -0.0000000000, 0.0440750830, -0.0000000000, 0.0000000000, -0.0319271795, -0.0000000000, -0.0000000000, 0.0000000000, 0.0000000000, -0.0000000000, -0.0000000000, 0.0000000000, 0.0000000000, 0.0000000000, -0.0908121690, -0.0000000000, 0.0998722389, -0.0000000000, -0.0968650356, -0.0000000000, 0.0000000000, -0.1286182851, 0.0000000000, 0.0000000000, 0.0000000000, -0.0000000000, -0.0511067919, -0.0000000000, -0.0000000000, -0.0000000000, 0.0606465600, 0.0608764887, 0.0000000000, -0.0746100172, 0.0000000000, 0.0000000000, 0.0000000000, 0.1204756945, 0.0000000000, 0.0000000000, -0.0000000000, -0.0000000000, -0.0000000000, 0.0000000000, 0.0000000000, 0.0000000000, 0.1440488696, -0.0000000000, -0.0000000000, -0.0000000000, 0.0000000000, -0.0000000000, 0.0000000000, -0.0000000000, 0.0000000000, 0.0000000000, -0.0000000000, -0.0633642450, -0.0000000000, 0.1344801486, -0.0000000000, 0.1070475131, -0.0000000000, -0.0000000000, 0.0000000000, 0.0000000000, -0.0000000000, 0.0000000000, 0.0000000000, -0.0000000000, -0.0000000000, 0.0000000000, 0.0000000000, -0.0000000000, 0.0000000000, 0.0000000000, 0.1675468832, 0.0000000000, 0.0000000000, -0.0000000000, -0.0656056330, 0.0891351104, 0.0000000000, -0.0000000000, 0.0000000000, 0.0000000000, -0.0000000000, 0.0000000000, 0.0000000000, 0.0000000000, -0.0000000000, -0.0000000000, 0.0000000000, -0.1105151996, -0.0000000000, -0.0000000000, 0.0000000000, -0.0000000000, 0.0000000000, 0.0000000000, 0.0000000000, 0.1038110256, 0.0000000000, -0.0185494274, 0.0000000000, -0.0794432312, 0.0000000000, -0.0000000000, 0.0000000000, 0.0000000000, 0.0000000000, -0.0000000000, 0.1960010529, -0.0000000000, 0.1099303514, 0.0000000000, 0.0000000000, -0.0000000000, 0.0000000000, -0.0000000000, 0.0000000000, -0.0000000000, -0.0000000000, 0.1864053160, 0.0482573584, -0.0000000000, -0.0000000000, -0.0000000000, -0.0000000000, -0.1419870704, -0.0000000000, 0.0000000000, -0.0203273725, -0.0601571053, -0.0000000000, 0.0000000000, 0.0000000000, 0.0000000000, -0.0000000000, -0.0000000000, 0.1547624171, -0.1410658658, 0.0000000000, 0.0000000000, -0.1165895462, -0.0000000000, 0.0390496254, 0.0000000000, -0.0631065667, 0.0000000000, -0.0740544721, -0.0000000000, -0.0000000000, -0.0649384335, -0.0000000000, -0.0000000000, 0.1064574122, 0.0000000000, -0.0891332179, -0.0000000000, 0.0000000000, 0.0000000000, 0.0000000000, 0.0000000000, -0.0905558169, 0.0710439086, -0.0812319368, -0.0546037182, -0.0000000000, -0.0000000000, -0.0000000000, -0.0000000000, 0.0000000000, -0.0000000000, 0.0000000000, -0.0000000000, -0.1733242273, -0.0000000000, 0.0000000000, 0.0000000000, 0.0000000000, 0.0000000000, -0.0000000000, 0.0000000000, -0.0000000000, -0.0000000000, -0.0000000000, 0.0479076020, 0.0222800728, -0.0000000000, -0.0802718922, -0.0000000000, 0.0000000000, 0.1627744287, 0.0000000000, 0.0000000000, 0.0000000000, -0.2718098760, -0.0000000000, -0.1109529808, 0.0000000000, 0.0000000000, 0.0000000000, -0.0000000000, 0.0000000000, -0.0795411170, 0.0000000000, -0.0000000000, 0.2580873966, -0.0000000000, 0.1623087674, -0.0000000000, 0.0000000000, -0.0000000000, 0.0000000000, 0.0000000000, 0.0000000000, 0.0000000000, 0.0000000000, 0.0880222172, 0.0779563934, -0.0000000000, -0.0000000000, -0.0000000000, 0.0000000000, -0.0000000000, 0.0000000000, -0.0000000000, -0.0448708236, -0.1200006753, 0.0000000000, -0.2364522368, 0.0000000000, -0.0000000000, 0.0000000000, -0.0000000000, 0.0000000000, 0.0000000000, 0.0000000000, -0.0000000000, 0.1577350795, -0.0000000000, 0.0889473706, -0.0000000000, 0.0000000000, -0.0000000000, 0.0000000000, -0.0646382719, 0.0000000000, 0.0000000000, -0.0000000000, 0.0913010985, 0.0000000000, -0.0000000000, 0.0748803169, 0.0000000000, 0.0000000000, -0.0000000000, -0.0000000000, 0.0667413548, 0.0000000000, 0.1720504612, -0.0000000000, -0.1985893250, 0.0000000000, -0.0612366311, -0.0000000000, -0.0000000000, 