//Numpy array shape [32, 52]
//Min -2.254361391068
//Max 0.842235565186
//Number of zeros 1248

#ifndef W14_H_
#define W14_H_

#ifndef __SYNTHESIS__
output_weight_t w14[1664];
#else
output_weight_t w14[1664] = {-0.0000000000, 0.0000000000, -0.0000000000, 0.0000000000, -1.1134774685, -1.3360385895, -0.9928390384, -1.1890809536, 0.0000000000, -1.2057849169, -1.1463897228, 0.5725007653, -1.0001465082, -1.1162257195, -1.0194209814, -1.0962923765, 0.0000000000, -1.0805654526, -1.1686657667, -1.0120222569, -0.0000000000, -1.6204664707, -0.9807370901, -1.0836274624, 0.0000000000, 0.0000000000, -1.5709720850, 0.0000000000, 0.0000000000, -0.8610004783, -1.1104856730, -0.0000000000, -0.0000000000, 0.0000000000, -0.0000000000, 0.0000000000, 0.0000000000, -0.9195427895, 0.0000000000, -0.0000000000, 0.0000000000, 0.4728868604, -0.7436021566, -1.5573343039, 0.0000000000, 0.0000000000, 0.0000000000, -0.0000000000, 0.0000000000, 0.0000000000, -0.0000000000, 0.0000000000, 0.0000000000, -0.0000000000, 0.0000000000, 0.0000000000, -0.0000000000, -0.0000000000, 0.0000000000, -0.0000000000, 0.0000000000, 0.0000000000, -0.0000000000, -0.0000000000, -0.0000000000, -0.0000000000, -0.0000000000, -0.0000000000, -0.0000000000, -0.0000000000, 0.0000000000, -0.0000000000, 0.0000000000, 0.0000000000, 0.0000000000, 0.0000000000, 0.0000000000, 0.0000000000, -0.0000000000, 0.0000000000, -0.0000000000, 0.0000000000, 0.0000000000, 0.0000000000, -0.0000000000, 0.0000000000, 0.0000000000, 0.0000000000, 0.0000000000, 0.0000000000, 0.0000000000, 0.0000000000, 0.0000000000, 0.0000000000, 0.0000000000, 0.0000000000, 0.0000000000, 0.0000000000, 0.0000000000, 0.0000000000, 0.0000000000, -0.0000000000, 0.0000000000, 0.0000000000, 0.0000000000, -0.0000000000, 0.0000000000, 0.0000000000, 0.0000000000, 0.0000000000, 0.0000000000, -0.0000000000, -0.0000000000, 0.0000000000, 0.0000000000, 0.0000000000, -0.0000000000, 0.0000000000, 0.0000000000, 0.0000000000, 0.0000000000, 0.0000000000, 0.0000000000, -0.0000000000, -0.0000000000, -0.0000000000, -0.0000000000, 0.0000000000, 0.0000000000, 0.0000000000, -0.0000000000, 0.0000000000, 0.0000000000, -0.0000000000, 0.0000000000, 0.0000000000, -0.0000000000, 0.0000000000, 0.0000000000, 0.0000000000, 0.0000000000, 0.0000000000, 0.0000000000, 0.0000000000, 0.0000000000, 0.0000000000, 0.0000000000, 0.0000000000, 0.0000000000, 0.0000000000, -0.0000000000, 0.0000000000, 0.0000000000, 0.0000000000, -0.0000000000, 0.0000000000, -0.0000000000, -0.0000000000, 0.0000000000, 0.0000000000, -0.0000000000, -0.0000000000, 0.0000000000, 0.0000000000, 0.0000000000, -0.0000000000, -0.0000000000, -0.0000000000, -0.0000000000, -0.0000000000, -0.0000000000, -0.0000000000, 0.0000000000, 0.0000000000, 0.0000000000, -0.0000000000, 0.0000000000, 0.0000000000, 0.0000000000, 0.0000000000, 0.0000000000, -0.0000000000, 0.0000000000, -0.0000000000, 0.0000000000, 0.0000000000, -0.0000000000, -0.0000000000, 0.0000000000, -0.0000000000, 0.0000000000, 0.0000000000, -0.0000000000, -0.0000000000, -0.0000000000, 0.0000000000, 0.0000000000, 0.0000000000, -0.0000000000, -0.0000000000, 0.0000000000, 0.0000000000, -0.0000000000, -0.0000000000, -0.0000000000, -0.0000000000, 0.0000000000, -0.0000000000, 0.0000000000, -0.0000000000, 0.0000000000, -0.0000000000, 0.0000000000, -0.0000000000, -0.0000000000, -0.0000000000, 0.0000000000, 0.0000000000, 0.0000000000, 0.0000000000, 0.0000000000, 0.0000000000, 0.0000000000, -0.0000000000, 0.0000000000, -0.0000000000, -0.0000000000, -0.0000000000, 0.0000000000, -0.0000000000, 0.0000000000, 0.0000000000, 0.0000000000, -0.0000000000, 0.0000000000, 0.0000000000, -0.0000000000, -0.0000000000, -0.0000000000, 0.0000000000, 0.0000000000, 0.0000000000, -0.0000000000, 0.0000000000, 0.0000000000, 0.0000000000, 0.0000000000, 0.0000000000, 0.0000000000, 0.0000000000, -0.0000000000, 0.0000000000, 0.0000000000, 0.0000000000, 0.0000000000, -0.0000000000, 0.0000000000, 0.0000000000, 0.0000000000, -0.0000000000, -1.9091969728, -0.0000000000, 0.0000000000, -1.8089798689, -1.0218956470, 0.0000000000, 0.0000000000, 0.0000000000, -1.4318336248, -0.0000000000, 0.0000000000, 0.0000000000, 0.0000000000, -0.0000000000, 0.0000000000, 0.0000000000, 0.0000000000, -0.0000000000, 0.0000000000, 0.0000000000, -0.0000000000, -0.0000000000, 0.0000000000, 0.0000000000, 0.0000000000, 0.0000000000, -0.0000000000, -1.3882658482, -0.0000000000, -0.0000000000, -0.0000000000, -0.6260805130, -2.0869917870, 0.0000000000, -0.0000000000, -1.4453240633, 0.0000000000, 0.0000000000, 0.0000000000, -1.8022153378, -0.0000000000, -0.0000000000, -1.0771194696, -0.0000000000, -1.8453484774, 0.0000000000, -1.8269270658, -0.0000000000, -0.8764724731, -1.2440123558, -1.5545376539, -1.6196699142, -0.0000000000, 0.0000000000, 0.5103611946, 0.0000000000, -1.0984517336, -1.2068188190, -1.1513086557, -0.7555068135, -1.0481827259, -1.3077731133, -0.9890982509, -1.3197836876, -1.1908276081, -1.0861281157, 0.0000000000, -1.4231984615, -1.6041090488, -1.1605247259, -1.0941172838, -1.0077908039, -0.0000000000, 0.7558757663, -1.0375093222, 0.0000000000, 0.0000000000, -0.0000000000, -0.7848851681, 0.0000000000, 0.0000000000, -0.8510161638, -0.0000000000, 0.0000000000, -0.0000000000, 0.0000000000, 0.5973504186, 0.0000000000, -1.1843621731, -1.3940907717, -1.5059951544, -0.0000000000, 0.0000000000, -0.7934240103, -1.1601101160, -1.2580593824, -1.2676451206, -1.0095455647, 0.0000000000, -0.7775827646, -0.7006653547, 0.0000000000, -0.0000000000, 0.0000000000, -2.2543613911, -0.0000000000, -0.0000000000, 0.0000000000, -0.0000000000, 0.0000000000, 0.0000000000, 0.0000000000, 0.0000000000, -0.0000000000, 0.0000000000, 0.0000000000, 0.0000000000, -0.0000000000, 0.0000000000, -0.0000000000, 0.0000000000, -0.0000000000, 0.0000000000, 0.0000000000, -1.7732650042, -0.0000000000, 0.0000000000, 0.0000000000, -0.8547341824, 0.0000000000, -0.0000000000, 0.0000000000, -0.0000000000, -0.0000000000, -0.0000000000, 0.0000000000, -0.0000000000, 0.0000000000, -0.0000000000, -1.8980137110, 0.0000000000, 0.0000000000, 0.0000000000, -0.0000000000, -1.6938439608, -0.7814385891, -1.6993526220, -0.0000000000, -0.6251779199, -1.7881164551, -1.0357118845, -1.8310548067, -1.7481229305, -0.7651680112, -1.6804053783, -1.7965919971, -0.0000000000, 0.0000000000, 0.0000000000, -0.0000000000, -0.0000000000, -0.0000000000, 0.0000000000, -0.0000000000, 0.0000000000, 0.0000000000, 0.0000000000, -0.0000000000, -0.0000000000, 0.0000000000, 0.0000000000, 0.0000000000, -0.0000000000, 0.0000000000, -0.0000000000, -0.0000000000, -0.0000000000, -0.0000000000, -0.0000000000, -0.0000000000, 0.0000000000, -0.0000000000, 0.0000000000, -0.0000000000, -0.0000000000, 0.0000000000, 0.0000000000, 0.0000000000, -0.0000000000, 0.0000000000, 0.0000000000, 0.0000000000, 0.0000000000, -0.0000000000, -0.0000000000, 0.0000000000, 0.0000000000, 0.0000000000, 0.0000000000, -0.0000000000, 0.0000000000, -0.0000000000, 0.0000000000, -0.0000000000, -0.0000000000, 0.0000000000, -0.0000000000, -0.0000000000, -0.0000000000, -1.2687602043, -1.0519059896, 0.0000000000, -1.4260243177, -1.3094556332, -1.1219780445, -1.2597318888, -1.2067000866, -1.5142284632, -1.4829045534, -1.5671184063, -0.8130803704, 0.0000000000, -1.3112546206, 0.0000000000, 0.0000000000, -1.4276169538, -0.0000000000, -0.9145985246, -0.0000000000, 0.0000000000, -1.1871067286, 0.0000000000, 0.0000000000, 0.0000000000, 0.0000000000, 0.0000000000, 0.0000000000, -1.2951642275, -1.4989318848, 0.0000000000, -0.0000000000, -1.2774071693, -1.4541552067, 0.0000000000, -1.6606156826, -1.2862758636, -1.2511177063, -0.0000000000, -0.0000000000, -0.0000000000, 0.0000000000, 0.0000000000, 0.0000000000, 0.0000000000, 0.0000000000, -0.0000000000, 0.0000000000, 0.0000000000, -0.0000000000, 0.0000000000, -0.0000000000, 0.0000000000, 0.0000000000, 0.0000000000, -1.5287719965, -1.5596431494, -0.7746820450, -1.4706218243, -1.4353361130, -1.3990908861, -1.2908217907, -1.0104241371, 0.0000000000, -1.5865567923, -1.5445804596, -0.0000000000, -1.6175123453, -0.0000000000, -0.0000000000, -1.1099613905, -0.0000000000, -1.1935847998, 0.0000000000, -0.0000000000, 0.5509003401, 0.0000000000, 0.8422355652, -1.2553524971, -1.4165117741, 0.0000000000, 0.6209090352, -0.5844008327, -0.0000000000, 0.0000000000, -0.0000000000, 0.0000000000, -1.2221283913, -1.5386399031, -1.5120754242, -0.0000000000, -1.2195658684, -0.0000000000, -0.0000000000, 0.0000000000, -1.2010906935, 0.0000000000, 0.0000000000, -0.0000000000, 0.0000000000, 0.0000000000, -0.0000000000, 0.0000000000, -0.0000000000, 0.0000000000, -0.8606109619, -1.0423216820, -1.2517609596, -0.7711463571, -1.5074055195, -1.6070607901, -0.9950643778, -0.0000000000, -0.8854416609, -1.2166877985, 0.0000000000, 0.5844231844, 0.0000000000, -1.4137951136, 0.5432783365, -0.0000000000, 0.0000000000, 0.0000000000, -0.0000000000, 0.0000000000, -0.8071068525, -0.0000000000, -0.8052513599, 0.0000000000, -1.1915845871, 0.0000000000, -0.7425568700, 0.0000000000, -0.0000000000, 0.0000000000, -0.0000000000, 0.0000000000, -0.0000000000, -0.6597459912, 0.0000000000, 0.6505752206, 0.0000000000, -0.0000000000, -0.8836275935, -0.0000000000, 0.0000000000, 0.0000000000, 0.0000000000, 0.0000000000, -0.7884022593, -0.0000000000, 0.0000000000, -0.8950747252, -1.1705541611, 0.0000000000, -0.0000000000, 0.0000000000, 0.0000000000, 0.0000000000, -0.0000000000, -0.0000000000, -0.0000000000, 0.0000000000, -0.0000000000, 0.0000000000, 0.0000000000, -0.0000000000, 0.0000000000, 0.0000000000, 0.0000000000, 0.0000000000, -0.0000000000, 0.0000000000, -0.0000000000, -0.0000000000, 0.0000000000, -0.0000000000, -0.0000000000, -0.0000000000, 0.0000000000, 0.0000000000, -0.0000000000, 0.0000000000, -0.0000000000, -0.0000000000, 0.0000000000, 0.0000000000, 0.0000000000, -0.0000000000, -0.0000000000, 0.0000000000, 0.0000000000, -0.0000000000, 0.0000000000, -0.0000000000, 0.0000000000, 0.0000000000, -0.0000000000, -0.0000000000, 0.0000000000, -0.0000000000, -0.0000000000, -0.0000000000, -0.0000000000, -0.0000000000, 0.0000000000, 0.0000000000, 0.0000000000, 0.0000000000, -0.0000000000, -0.0000000000, -0.0000000000, 0.0000000000, 0.0000000000, -0.0000000000, -0.0000000000, 0.0000000000, -0.0000000000, 0.0000000000, 0.0000000000, 0.0000000000, -0.0000000000, -0.0000000000, 0.0000000000, -0.0000000000, -0.0000000000, 0.0000000000, 0.0000000000, -0.0000000000, -0.0000000000, 0.0000000000, 0.0000000000, -0.0000000000, 0.0000000000, -0.0000000000, -0.0000000000, 0.0000000000, 0.0000000000, -0.0000000000, 0.0000000000, -0.0000000000, 0.0000000000, -0.0000000000, 0.0000000000, 0.0000000000, -0.0000000000, -0.0000000000, -0.0000000000, -0.0000000000, 0.0000000000, -0.0000000000, 0.0000000000, 0.0000000000, 0.0000000000, -0.0000000000, 0.0000000000, 0.0000000000, 0.0000000000, -0.0000000000, -0.0000000000, -0.0000000000, -1.7898128033, 0.0000000000, -0.0000000000, -1.7954100370, -1.2718721628, -1.7228804827, -1.1149181128, -0.0000000000, 0.7353628874, -0.0000000000, 0.0000000000, -1.6759268045, -0.0000000000, 0.0000000000, 0.5973977447, -0.0000000000, 0.0000000000, 0.6636642218, -0.0000000000, -1.0876383781, 0.0000000000, -1.1587218046, 0.5910186172, -1.4733200073, -0.0000000000, 0.0000000000, 0.0000000000, -1.4576939344, -0.8330850601, -0.6771155596, -0.0000000000, 0.0000000000, -1.5187814236, 0.0000000000, -1.2914804220, 0.5622122288, 0.0000000000, -0.0000000000, 0.5387418866, -1.6782740355, 0.0000000000, 0.0000000000, 0.0000000000, -0.0000000000, 0.0000000000, -0.0000000000, -0.9235050082, -0.8266631961, -1.4537758827, -1.2473021746, -0.0000000000, -0.0000000000, 0.0000000000, 0.0000000000, -0.0000000000, 0.0000000000, 0.0000000000, 0.0000000000, 0.0000000000, -0.0000000000, 0.0000000000, 0.0000000000, 0.0000000000, -0.0000000000, 0.0000000000, -0.0000000000, 0.0000000000, -0.0000000000, 0.0000000000, 0.0000000000, -0.0000000000, -0.0000000000, 0.0000000000, -0.0000000000, 0.0000000000, 0.0000000000, -0.0000000000, 0.0000000000, -0.0000000000, -0.0000000000, -0.0000000000, -0.0000000000, -0.0000000000, -0.0000000000, -0.0000000000, -0.0000000000, -0.0000000000, 0.0000000000, 0.0000000000, -0.0000000000, -0.0000000000, -0.0000000000, 0.0000000000, -0.0000000000, 0.0000000000, -0.0000000000, 0.0000000000, -0.0000000000, 0.0000000000, 0.0000000000, -0.0000000000, 0.0000000000, -0.0000000000, -0.0000000000, -0.0000000000, 0.0000000000, -0.0000000000, -0.0000000000, 0.0000000000, 0.0000000000, 0.0000000000, 0.0000000000, -0.0000000000, -0.0000000000, -0.0000000000, -0.0000000000, 0.0000000000, 0.0000000000, 0.0000000000, -0.0000000000, -0.0000000000, 0.0000000000, 0.0000000000, -0.0000000000, -0.0000000000, 0.0000000000, 0.0000000000, -0.0000000000, -0.0000000000, -0.0000000000, -0.0000000000, 0.0000000000, -0.0000000000, 0.0000000000, -0.0000000000, 0.0000000000, -0.0000000000, 0.0000000000, 0.0000000000, -0.0000000000, 0.0000000000, -0.0000000000, 0.0000000000, 0.0000000000, -0.0000000000, 0.0000000000, 0.0000000000, -0.0000000000, -0.0000000000, -0.0000000000, 0.0000000000, -0.0000000000, 0.0000000000, 0.0000000000, -0.0000000000, -0.0000000000, 0.0000000000, -0.0000000000, 0.0000000000, -0.0000000000, 0.0000000000, -0.0000000000, -0.0000000000, -0.0000000000, 0.0000000000, 0.0000000000, 0.0000000000, 0.0000000000, -0.0000000000, 0.0000000000, 0.0000000000, -0.0000000000, 0.0000000000, -0.0000000000, 0.0000000000, 0.0000000000, -0.0000000000, 0.0000000000, 0.0000000000, 0.0000000000, 0.0000000000, 0.0000000000, 0.0000000000, -0.0000000000, 0.0000000000, 0.0000000000, 0.0000000000, 0.0000000000, 0.0000000000, 0.0000000000, 0.0000000000, 0.0000000000, 0.0000000000, -0.0000000000, 0.0000000000, 0.0000000000, 0.0000000000, 0.0000000000, -0.0000000000, 0.0000000000, -0.0000000000, -0.0000000000, 0.0000000000, 0.0000000000, 0.0000000000, 0.0000000000, -0.0000000000, -0.0000000000, -0.0000000000, -0.0000000000, -0.0000000000, -0.0000000000, -0.0000000000, -0.0000000000, 0.0000000000, 0.0000000000, 0.0000000000, -0.0000000000, 0.0000000000, 0.0000000000, -0.0000000000, -0.0000000000, -0.0000000000, 0.0000000000, 0.0000000000, 0.0000000000, -0.0000000000, 0.0000000000, -0.0000000000, 0.0000000000, 0.0000000000, -0.0000000000, 0.0000000000, -0.0000000000, 0.0000000000, -0.0000000000, -0.0000000000, 0.0000000000, 0.0000000000, 0.0000000000, -0.0000000000, 0.0000000000, 0.0000000000, -0.0000000000, 0.0000000000, 0.0000000000, 0.0000000000, -0.0000000000, 0.0000000000, -0.0000000000, 0.0000000000, 0.0000000000, -0.0000000000, 0.0000000000, -0.0000000000, -0.0000000000, 0.0000000000, -0.0000000000, -0.0000000000, -0.0000000000, 0.0000000000, 0.0000000000, 0.5188201666, 0.0000000000, 0.5773223639, 0.0000000000, -1.1558439732, -2.1118149757, 0.5832472444, -1.7864192724, 0.6443061829, 0.5770981908, 0.0000000000, 0.0000000000, -1.7520000935, -0.0000000000, 0.5954543948, -1.2419757843, -0.0000000000, -0.0000000000, 0.0000000000, -1.1773900986, -1.3658488989, 0.0000000000, -0.0000000000, -1.4015753269, -1.6319732666, -0.8068308830, -0.9895762205, -1.7977133989, -0.0000000000, 0.0000000000, -0.0000000000, 0.0000000000, -1.4578558207, -1.7085598707, -1.2548474073, -2.1075742245, 0.0000000000, -1.4916948080, 0.0000000000, -0.0000000000, 0.0000000000, -0.0000000000, -1.0229182243, -0.0000000000, 0.0000000000, 0.0000000000, -0.0000000000, 0.0000000000, -0.0000000000, 0.0000000000, 0.0000000000, 0.0000000000, -0.0000000000, 0.0000000000, -1.0101904869, 0.0000000000, -1.4366662502, -0.0000000000, -1.7827475071, -1.1463888884, -1.7580527067, -0.0000000000, 0.0000000000, 0.0000000000, -1.9877454042, -1.5950820446, -1.8027087450, -1.3687113523, -0.9298952818, 0.0000000000, 0.0000000000, -0.9729748964, -0.6992648244, 0.0000000000, -0.0000000000, -1.1951606274, 0.0000000000, -0.0000000000, -0.0000000000, -1.4858620167, -0.0000000000, 0.0000000000, -0.0000000000, 0.0000000000, -1.4262572527, 0.0000000000, 0.0000000000, -0.0000000000, -1.4856207371, -0.9318710566, 0.0000000000, -0.7306776047, 0.0000000000, 0.0000000000, -1.1204396486, -0.0000000000, 0.0000000000, -1.1077336073, 0.5319203138, -1.7575372458, -1.1894040108, 0.0000000000, 0.0000000000, -1.0413864851, -1.2036515474, 0.0000000000, 0.0000000000, -1.5419318676, 0.0000000000, 0.5882811546, -1.3837339878, -1.1373937130, -1.2490131855, -1.5270873308, -1.3564043045, 0.0000000000, -0.7164571285, -1.8319951296, -1.1371424198, 0.0000000000, 0.5468739271, -1.5226265192, 0.8301642537, 0.0000000000, -1.1863182783, -1.3524955511, -0.0000000000, -1.3365468979, 0.5203733444, -0.6100240946, -1.5427190065, -0.9715945125, -0.0000000000, 0.0000000000, -0.0000000000, 0.0000000000, 0.0000000000, 0.0000000000, 0.7011509538, -0.0000000000, -1.6063795090, -0.8758656383, 0.0000000000, -0.7965149283, 0.0000000000, -1.2685234547, -0.9443759918, -0.9560395479, -1.5465161800, -1.2489076853, -1.5099916458, 0.0000000000, -0.0000000000, -1.2689691782, 0.0000000000, -0.6522324085, 0.5958765745, 0.7062970996, 0.0000000000, 0.0000000000, 0.0000000000, 0.6453953385, 0.0000000000, 0.0000000000, -0.6098336577, 0.0000000000, -0.0000000000, 0.6359543800, -1.1696928740, -0.0000000000, 0.0000000000, 0.0000000000, -0.0000000000, -1.3050475121, -1.1149549484, 0.0000000000, 0.5319497585, -1.2346786261, -0.0000000000, 0.0000000000, -1.3288708925, 0.5719066262, -0.0000000000, 0.0000000000, -0.0000000000, 0.0000000000, -1.3631988764, 0.0000000000, -1.4983937740, 0.5773181319, -1.5932049751, -1.2557613850, 0.0000000000, -1.2169694901, -1.1687564850, -0.8391911387, 0.0000000000, -1.1317143440, -1.1493494511, -0.0000000000, 0.0000000000, 0.0000000000, -0.0000000000, 0.0000000000, -0.0000000000, -1.5074183941, -1.4263436794, 0.0000000000, -1.4489810467, -1.1390980482, -1.0108108521, -1.1690680981, 0.6001783013, -1.7474920750, -1.3483453989, -1.0740128756, -1.3069587946, -1.0315490961, -1.3666727543, -1.5562703609, 0.0000000000, -0.9861298800, -1.4200477600, 0.0000000000, -0.0000000000, -1.1908535957, -0.9676480889, 0.0000000000, 0.0000000000, 0.0000000000, -1.4319598675, 0.0000000000, 0.0000000000, -1.2018052340, 0.6563990712, 0.0000000000, -0.0000000000, -1.2679456472, -1.0832178593, 0.0000000000, 0.6503743529, -1.7065209150, -1.7798281908, -0.0000000000, 0.0000000000, 0.6574190259, 0.0000000000, 0.0000000000, -1.1246931553, -1.0826560259, 0.0000000000, -1.2630736828, -0.6518923044, -1.0475863218, -0.0000000000, 0.0000000000, 0.0000000000, -0.0000000000, 0.0000000000, 0.0000000000, -0.0000000000, -0.0000000000, 0.0000000000, 0.0000000000, -0.0000000000, 0.0000000000, 0.0000000000, 0.0000000000, 0.0000000000, 0.0000000000, 0.0000000000, 0.0000000000, -0.0000000000, 0.0000000000, 0.0000000000, 0.0000000000, 0.0000000000, 0.0000000000, -0.0000000000, 0.0000000000, 0.0000000000, 0.0000000000, 0.0000000000, -0.0000000000, 0.0000000000, 0.0000000000, 0.0000000000, 0.0000000000, 0.0000000000, -0.0000000000, -0.0000000000, 0.0000000000, -0.0000000000, 0.0000000000, 0.0000000000, -0.0000000000, 0.0000000000, 0.0000000000, 0.0000000000, -0.0000000000, -0.0000000000, 0.0000000000, 0.0000000000, 0.0000000000, 0.0000000000, 0.0000000000, 0.0000000000, -0.0000000000, 0.0000000000, -0.0000000000, -0.0000000000, -0.0000000000, -0.0000000000, 0.0000000000, 0.0000000000, -0.0000000000, 0.0000000000, 0.0000000000, -0.0000000000, 0.0000000000, 0.0000000000, 0.0000000000, 0.0000000000, 0.0000000000, -0.0000000000, 0.0000000000, -0.0000000000, -0.0000000000, 0.0000000000, -0.0000000000, -0.0000000000, 0.0000000000, 0.0000000000, 0.0000000000, 0.0000000000, 0.0000000000, 0.0000000000, 0.0000000000, 0.0000000000, -0.0000000000, 0.0000000000, -0.0000000000, -0.0000000000, 0.0000000000, 0.0000000000, 0.0000000000, -0.0000000000, -0.0000000000, -0.0000000000, 0.0000000000, -0.0000000000, 0.0000000000, 0.0000000000, -0.0000000000, -0.0000000000, -0.0000000000, 0.0000000000, 0.0000000000, -0.0000000000, -0.0000000000, -0.0000000000, -1.3501964808, -1.1137677431, -1.6493746042, -0.0000000000, -1.3509892225, 0.0000000000, 0.0000000000, 0.0000000000, -1.2722213268, -1.2468485832, -1.4191516638, -0.9791707397, -0.0000000000, 0.0000000000, -1.1696058512, 0.0000000000, -0.0000000000, 0.6873493195, -1.1461957693, -0.0000000000, 0.0000000000, 0.0000000000, 0.0000000000, -0.6886019111, -1.1938071251, -1.3670547009, -1.3132629395, -0.0000000000, -0.0000000000, -0.0000000000, -0.0000000000, -1.2966293097, -1.5548639297, -0.0000000000, -0.9654365182, -0.8527609110, 0.0000000000, 0.0000000000, -1.5914026499, -0.0000000000, -0.9453653097, 0.0000000000, 0.0000000000, 0.0000000000, 0.0000000000, 0.6969785094, -0.0000000000, 0.0000000000, 0.0000000000, -0.0000000000, 0.0000000000, 0.0000000000, 0.0000000000, 0.0000000000, 0.0000000000, 0.0000000000, 0.0000000000, 0.0000000000, -0.0000000000, 0.0000000000, 0.0000000000, 0.0000000000, 0.0000000000, 0.0000000000, 0.0000000000, 0.0000000000, -0.0000000000, 0.0000000000, -0.0000000000, -0.0000000000, -0.0000000000, 0.0000000000, -0.0000000000, -0.0000000000, 0.0000000000, 0.0000000000, 0.0000000000, -0.0000000000, 0.0000000000, -0.0000000000, 0.0000000000, 0.0000000000, 0.0000000000, -0.0000000000, 0.0000000000, -0.0000000000, 0.0000000000, 0.0000000000, 0.0000000000, -0.0000000000, -0.0000000000, 0.0000000000, 0.0000000000, 0.0000000000, -0.0000000000, -0.0000000000, 0.0000000000, -0.0000000000, -0.0000000000, 0.0000000000, 0.0000000000, -0.0000000000, 0.0000000000, -0.0000000000, 0.0000000000, 0.0000000000, 0.0000000000, -0.7031027675, 0.0000000000, 0.0000000000, 0.0000000000, 0.5984507799, -0.0000000000, 0.0000000000, 0.0000000000, -1.8170511723, -1.7548812628, -1.4611312151, -2.0598988533, -0.0000000000, -0.0000000000, -1.5425083637, -0.9064589739, -1.3838759661, -1.7333514690, -1.4307321310, -1.6280204058, -1.5301595926, -0.8269538879, -0.9631291628, -0.6056446433, -1.2533655167, -1.4331637621, -1.2749390602, 0.6438423991, -1.3370218277, 0.0000000000, -0.0000000000, -0.6221377850, 0.0000000000, -1.3141715527, 0.0000000000, -0.0000000000, 0.0000000000, 0.5225172043, 0.0000000000, 0.0000000000, 0.0000000000, 0.0000000000, 0.0000000000, -1.4195550680, 0.0000000000, 0.0000000000, -0.0000000000, 0.0000000000, -0.0000000000, 0.0000000000, 0.5080727339, 0.0000000000, -1.6012963057, -1.0674569607, -1.1542029381, 0.0000000000, -0.8145924211, -0.7176558375, -1.1017329693, 0.7572650313, 0.0000000000, -1.2717977762, -1.2889847755, -1.3828486204, 0.0000000000, -1.3534069061, -1.4722329378, -0.8895802498, -1.5623816252, 0.5481319427, -1.3015010357, -1.2196991444, 0.0000000000, 0.0000000000, -0.9060670733, 0.0000000000, 0.0000000000, 0.8171123862, -0.0000000000, 0.0000000000, -0.0000000000, -1.4150140285, -1.5632789135, 0.0000000000, 0.0000000000, -0.9376765490, -0.7020276189, -0.0000000000, -1.0788179636, -0.9267637730, -1.2863796949, 0.0000000000, 0.0000000000, 0.0000000000, 0.0000000000, -0.0000000000, -0.7565976977, 0.0000000000, -0.0000000000, 0.0000000000, -1.4692966938, -1.2667865753, -1.4347589016, -0.7316390872, 0.6373039484, -0.6068969965, -0.9184556603, 0.0000000000, 0.0000000000, -0.0000000000, 0.0000000000, 0.7634021044, -0.9119559526, -1.3245824575, -1.0283610821, 0.0000000000, -1.1992951632, -0.0000000000, -1.1615508795, -0.7712643743, -1.2726233006, -0.8113918304, -1.1685267687, 0.0000000000, -1.2435365915, -1.4608807564, -0.0000000000, -0.8260807395, -0.0000000000, -0.0000000000, -1.1238415241, -1.3250088692, -0.8512783051, -1.3057764769, -0.0000000000, 0.0000000000, 0.0000000000, -1.2061197758, 0.0000000000, -0.0000000000, 0.0000000000, 0.5652257204, 0.0000000000, 0.0000000000, 0.0000000000, 0.0000000000, 0.0000000000, -0.0000000000, 0.0000000000, 0.0000000000, -0.0000000000, 0.0000000000, -0.0000000000, -0.0000000000, -0.0000000000, -0.0000000000, -0.0000000000, -0.0000000000, 0.0000000000, -0.5736680627, -0.0000000000, -0.0000000000, 0.0000000000, -0.0000000000, -0.0000000000, -0.0000000000, -0.0000000000, -0.0000000000, -0.0000000000, -0.0000000000, -0.0000000000, -0.0000000000, -0.0000000000, -0.0000000000, -0.0000000000, -0.0000000000, -0.0000000000, -0.0000000000, -0.0000000000, -0.0000000000, -0.0000000000, -0.0000000000, -0.0000000000, -0.0000000000, -0.0000000000, -0.0000000000, -0.0000000000, -0.0000000000, -0.0000000000, -0.0000000000, -0.0000000000, -0.0000000000, -0.0000000000, -0.0000000000, -0.0000000000, -0.0000000000, -0.0000000000, -0.0000000000, -0.0000000000, -0.0000000000, -0.0000000000, -0.0000000000, -0.0000000000, -0.0000000000};
#endif

#endif
