//Numpy array shape [32, 52]
//Min -1.884896636009
//Max 0.000000000000
//Number of zeros 1248

#ifndef W14_H_
#define W14_H_

#ifndef __SYNTHESIS__
output_weight_t w14[1664];
#else
output_weight_t w14[1664] = {-0.0000000000, 0.0000000000, -0.7278324962, -0.0000000000, -1.1636836529, -1.0492211580, -1.0951023102, -1.2003751993, -0.0000000000, -1.3755024672, -0.0000000000, -1.3319842815, -0.0000000000, -1.2229430676, -1.1462252140, -0.0000000000, 0.0000000000, -1.4771831036, -0.0000000000, -0.0000000000, 0.0000000000, 0.0000000000, 0.0000000000, 0.0000000000, 0.0000000000, 0.0000000000, -0.0000000000, 0.0000000000, 0.0000000000, 0.0000000000, 0.0000000000, -0.0000000000, 0.0000000000, -0.0000000000, -0.0000000000, 0.0000000000, 0.0000000000, -0.9768964052, -0.7960966825, -0.0000000000, 0.0000000000, -0.0000000000, -0.9512943029, -0.0000000000, 0.0000000000, 0.0000000000, 0.0000000000, -0.0000000000, 0.0000000000, 0.0000000000, -0.0000000000, 0.0000000000, -1.1676796675, 0.0000000000, 0.0000000000, -0.0000000000, -0.7453543544, -0.0000000000, -1.3334988356, -1.3026973009, 0.0000000000, -0.0000000000, -0.0000000000, 0.0000000000, -1.5929404497, 0.0000000000, 0.0000000000, -1.2411351204, -0.0000000000, -0.0000000000, 0.0000000000, -0.0000000000, -1.1440618038, 0.0000000000, -0.0000000000, -1.3886125088, -0.0000000000, 0.0000000000, -0.0000000000, -1.2262150049, 0.0000000000, -1.0126475096, -1.1479527950, -0.0000000000, 0.0000000000, -0.0000000000, -0.0000000000, 0.0000000000, 0.0000000000, 0.0000000000, 0.0000000000, -0.0000000000, 0.0000000000, -0.0000000000, -1.3877111673, 0.0000000000, 0.0000000000, -1.0341919661, -0.0000000000, -0.0000000000, -0.7239452004, 0.0000000000, -0.8275057673, 0.0000000000, -1.7632093430, -0.5444931388, 0.0000000000, -1.3770074844, 0.0000000000, -0.0000000000, 0.0000000000, -0.9818688631, 0.0000000000, -0.0000000000, -0.0000000000, 0.0000000000, -1.8848966360, -0.9161112309, -1.5838052034, -1.1509000063, -1.6928839684, -0.0000000000, -1.4449254274, -0.9869067073, -0.0000000000, -0.8516091108, -0.0000000000, -0.9154093266, -0.0000000000, 0.0000000000, -0.0000000000, -1.1151438951, -1.5345504284, -0.0000000000, -0.7082400918, -0.0000000000, -1.3712468147, 0.0000000000, -0.0000000000, 0.0000000000, 0.0000000000, 0.0000000000, 0.0000000000, -0.0000000000, -0.9170967937, -0.0000000000, -1.2106634378, -0.8236563802, 0.0000000000, 0.0000000000, -0.0000000000, -0.0000000000, 0.0000000000, -0.8792514205, -0.0000000000, 0.0000000000, -0.0000000000, 0.0000000000, 0.0000000000, -0.0000000000, -1.1986763477, 0.0000000000, 0.0000000000, -0.0000000000, -0.9543138742, -0.8398158550, -0.0000000000, -1.4033862352, -0.0000000000, -0.0000000000, 0.0000000000, -0.7865335941, -1.2764948606, -0.0000000000, 0.0000000000, -0.0000000000, 0.0000000000, -0.0000000000, 0.0000000000, -1.0458604097, 0.0000000000, -0.9645739794, -0.0000000000, 0.0000000000, 0.0000000000, 0.0000000000, 0.0000000000, -0.0000000000, 0.0000000000, -0.0000000000, -0.0000000000, 0.0000000000, -1.2652591467, -1.6674129963, -0.8614821434, -0.0000000000, 0.0000000000, -1.4420288801, -0.0000000000, 0.0000000000, 0.0000000000, 0.0000000000, 0.0000000000, -0.0000000000, -1.5815913677, -0.6310631037, -0.0000000000, 0.0000000000, -0.0000000000, -1.3270469904, 0.0000000000, -1.5910857916, 0.0000000000, -0.0000000000, -0.0000000000, 0.0000000000, -1.2118257284, -1.5828331709, -1.4461798668, -1.0257673264, -0.0000000000, 0.0000000000, 0.0000000000, 0.0000000000, 0.0000000000, -0.0000000000, -0.9105296135, -0.0000000000, 0.0000000000, 0.0000000000, -0.0000000000, 0.0000000000, 0.0000000000, 0.0000000000, -0.0000000000, 0.0000000000, 0.0000000000, 0.0000000000, -1.7087854147, 0.0000000000, -1.2207578421, -0.0000000000, -1.4742814302, 0.0000000000, -1.2549940348, -1.3012449741, 0.0000000000, -0.0000000000, -0.8768092394, -0.0000000000, -0.0000000000, 0.0000000000, 0.0000000000, 0.0000000000, -1.1780127287, -0.0000000000, -0.0000000000, 0.0000000000, -0.0000000000, -0.8038260341, -0.0000000000, -0.0000000000, 0.0000000000, 0.0000000000, -0.0000000000, 0.0000000000, -0.0000000000, -0.0000000000, -1.6000988483, -0.0000000000, -1.4877096415, -1.4167057276, -0.0000000000, 0.0000000000, -0.6856157780, 0.0000000000, -1.1065624952, -0.0000000000, 0.0000000000, -0.0000000000, 0.0000000000, -1.1463097334, 0.0000000000, -0.0000000000, 0.0000000000, -0.0000000000, -0.0000000000, -1.3209685087, -1.1133006811, 0.0000000000, -1.0323398113, -0.0000000000, -0.0000000000, -0.0000000000, -1.5782105923, -1.1421802044, -0.0000000000, 0.0000000000, -0.0000000000, -0.8233320117, 0.0000000000, -0.0000000000, -0.0000000000, 0.0000000000, -1.6463985443, 0.0000000000, -0.0000000000, -0.0000000000, 0.0000000000, 0.0000000000, -0.0000000000, -0.9304867387, -0.0000000000, -1.1094411612, -1.1889219284, 0.0000000000, -0.0000000000, -1.7225077152, -1.4529910088, -1.7712028027, -1.5221086740, -0.0000000000, -0.0000000000, -1.3935533762, -0.0000000000, -1.3704937696, -1.1189935207, -1.4384936094, 0.0000000000, -0.0000000000, 0.0000000000, -0.0000000000, 0.0000000000, -1.2359313965, 0.0000000000, 0.0000000000, 0.0000000000, -1.2805558443, 0.0000000000, 0.0000000000, 0.0000000000, -1.3664343357, 0.0000000000, 0.0000000000, 0.0000000000, -1.4362518787, 0.0000000000, 0.0000000000, 0.0000000000, 0.0000000000, 0.0000000000, -0.0000000000, 0.0000000000, -1.1043205261, -0.0000000000, 0.0000000000, 0.0000000000, 0.0000000000, -1.5788549185, -0.0000000000, 0.0000000000, -1.3727288246, -0.0000000000, -1.4296314716, -0.0000000000, 0.0000000000, 0.0000000000, -0.0000000000, -1.0886477232, -1.5181479454, 0.0000000000, -1.2743563652, -1.3945906162, -1.2668040991, -1.6806083918, -1.3513814211, -0.0000000000, 0.0000000000, -0.0000000000, 0.0000000000, -0.8744858503, -0.0000000000, -1.1662793159, -0.0000000000, 0.0000000000, 0.0000000000, -1.3995414972, -0.0000000000, 0.0000000000, 0.0000000000, -0.0000000000, 0.0000000000, 0.0000000000, 0.0000000000, 0.0000000000, 0.0000000000, 0.0000000000, -0.0000000000, -0.0000000000, 0.0000000000, -1.2432476282, -1.4743154049, 0.0000000000, -0.0000000000, 0.0000000000, -0.0000000000, -0.0000000000, -0.0000000000, 0.0000000000, -0.8872764111, -1.2081543207, -0.0000000000, -0.0000000000, 0.0000000000, -0.7511466742, -1.0812704563, 0.0000000000, -0.0000000000, 0.0000000000, 0.0000000000, -0.0000000000, -0.0000000000, 0.0000000000, 0.0000000000, 0.0000000000, 0.0000000000, -0.0000000000, -0.0000000000, 0.0000000000, -0.0000000000, -0.0000000000, -0.0000000000, 0.0000000000, 0.0000000000, 0.0000000000, 0.0000000000, 0.0000000000, -0.0000000000, -0.0000000000, 0.0000000000, 0.0000000000, 0.0000000000, 0.0000000000, 0.0000000000, -0.0000000000, -0.0000000000, -0.0000000000, 0.0000000000, 0.0000000000, 0.0000000000, 0.0000000000, -0.0000000000, -0.0000000000, -0.0000000000, -0.0000000000, 0.0000000000, -0.0000000000, 0.0000000000, 0.0000000000, -0.0000000000, -0.0000000000, 0.0000000000, -0.0000000000, 0.0000000000, -0.0000000000, 0.0000000000, 0.0000000000, 0.0000000000, 0.0000000000, 0.0000000000, 0.0000000000, 0.0000000000, 0.0000000000, -0.0000000000, 0.0000000000, -0.0000000000, 0.0000000000, -0.0000000000, 0.0000000000, 0.0000000000, 0.0000000000, -0.0000000000, 0.0000000000, 0.0000000000, -0.0000000000, -0.0000000000, 0.0000000000, 0.0000000000, 0.0000000000, -0.0000000000, 0.0000000000, 0.0000000000, -0.0000000000, 0.0000000000, -0.0000000000, -0.0000000000, -0.0000000000, -0.0000000000, 0.0000000000, 0.0000000000, 0.0000000000, -0.0000000000, 0.0000000000, 0.0000000000, -0.0000000000, -0.0000000000, -0.0000000000, -0.0000000000, 0.0000000000, -0.0000000000, -0.0000000000, -0.0000000000, 0.0000000000, 0.0000000000, 0.0000000000, 0.0000000000, 0.0000000000, 0.0000000000, 0.0000000000, -0.0000000000, -0.0000000000, 0.0000000000, 0.0000000000, -0.0000000000, 0.0000000000, -1.0528645515, 0.0000000000, -0.0000000000, 0.0000000000, -0.0000000000, -0.0000000000, -0.0000000000, -1.2808402777, 0.0000000000, 0.0000000000, -1.1476995945, 0.0000000000, -0.0000000000, 0.0000000000, -0.0000000000, 0.0000000000, 0.0000000000, -0.0000000000, 0.0000000000, -0.8270007968, 0.0000000000, -1.1255030632, 0.0000000000, 0.0000000000, -1.0313721895, -0.9021904469, 0.0000000000, -1.0007036924, -0.0000000000, -0.0000000000, 0.0000000000, 0.0000000000, -1.3932292461, -1.2783936262, -0.0000000000, -0.9463692904, -1.2175368071, -1.2011756897, -1.4176489115, -0.0000000000, -1.3281861544, -1.1327748299, -0.0000000000, -1.3168810606, 0.0000000000, -0.0000000000, 0.0000000000, -0.0000000000, 0.0000000000, 0.0000000000, -0.8380914927, 0.0000000000, -0.0000000000, 0.0000000000, 0.0000000000, -1.0963329077, -0.0000000000, -0.0000000000, 0.0000000000, -0.0000000000, 0.0000000000, 0.0000000000, 0.0000000000, 0.0000000000, -0.0000000000, 0.0000000000, -0.0000000000, -1.0572652817, -0.0000000000, -0.0000000000, 0.0000000000, -1.5045711994, -1.2152856588, 0.0000000000, -0.7590463161, 0.0000000000, -1.0503507853, -0.7349227071, 0.0000000000, 0.0000000000, -0.0000000000, -0.0000000000, -1.2381117344, -0.0000000000, -1.2212877274, -0.9608741999, -1.2574466467, 0.0000000000, 0.0000000000, -0.0000000000, 0.0000000000, 0.0000000000, 0.0000000000, -0.9026551843, -0.0000000000, -0.0000000000, -1.0010097027, -1.2820321321, 0.0000000000, -0.0000000000, 0.0000000000, 0.0000000000, -0.8179023266, 0.0000000000, -0.0000000000, 0.0000000000, 0.0000000000, -0.0000000000, -0.0000000000, -0.0000000000, -1.2071112394, -0.0000000000, 0.0000000000, 0.0000000000, 0.0000000000, 0.0000000000, -0.0000000000, -0.0000000000, -0.0000000000, 0.0000000000, 0.0000000000, 0.0000000000, 0.0000000000, 0.0000000000, -0.0000000000, -0.0000000000, 0.0000000000, 0.0000000000, 0.0000000000, 0.0000000000, 0.0000000000, -0.8962038755, -0.0000000000, -1.0268946886, -1.3051621914, -1.2471758127, -0.9723791480, -1.7210208178, -0.8547081351, 0.0000000000, -1.1098921299, -0.0000000000, -1.5443807840, -1.4243646860, -1.3208043575, -1.0916082859, -1.6094527245, 0.0000000000, -1.0623127222, -1.4873111248, 0.0000000000, -1.2112245560, -0.7659089565, -0.0000000000, -0.0000000000, 0.0000000000, -0.0000000000, 0.0000000000, 0.0000000000, 0.0000000000, -0.0000000000, -0.0000000000, 0.0000000000, -0.0000000000, 0.0000000000, 0.0000000000, 0.0000000000, 0.0000000000, -0.0000000000, 0.0000000000, -1.0310113430, -0.9851442575, 0.0000000000, 0.0000000000, 0.0000000000, -0.8808639646, -0.8544375896, -0.0000000000, 0.0000000000, 0.0000000000, 0.0000000000, 0.0000000000, -1.0627944469, -0.0000000000, -0.0000000000, 0.0000000000, 0.0000000000, -0.7814248204, 0.0000000000, 0.0000000000, -0.0000000000, -1.2362349033, -1.2377444506, -1.2166107893, 0.0000000000, -1.2523628473, 0.0000000000, -0.0000000000, -0.0000000000, -1.1662354469, -0.9424476027, -0.0000000000, 0.0000000000, -0.0000000000, 0.0000000000, 0.0000000000, -0.0000000000, -0.9216594696, -0.0000000000, -1.0754599571, 0.0000000000, 0.0000000000, -0.0000000000, -0.0000000000, 0.0000000000, -1.3349328041, -0.9422740936, -0.8206397891, -0.9297348261, 0.0000000000, -0.0000000000, 0.0000000000, -0.9572132230, -1.1141308546, -0.9899010658, 0.0000000000, 0.0000000000, 0.0000000000, -0.0000000000, -0.0000000000, -1.1451784372, -1.0929406881, 0.0000000000, 0.0000000000, -0.0000000000, 0.0000000000, -0.0000000000, -0.0000000000, -0.7797331810, 0.0000000000, -0.0000000000, 0.0000000000, -0.0000000000, 0.0000000000, -0.0000000000, -0.0000000000, -0.0000000000, 0.0000000000, 0.0000000000, 0.0000000000, -0.0000000000, 0.0000000000, 0.0000000000, -0.0000000000, -1.1764569283, -0.9900276065, -0.5711161494, -0.7531306148, 0.0000000000, -0.7126999497, -0.0000000000, 0.0000000000, -1.4795656204, -1.4343496561, -1.4254410267, -0.0000000000, 0.0000000000, -0.0000000000, 0.0000000000, -1.2462108135, 0.0000000000, 0.0000000000, -1.5197366476, -1.3684070110, -0.0000000000, -0.8564245701, -0.9644513726, 0.0000000000, 0.0000000000, -0.0000000000, -0.0000000000, -1.3789600134, 0.0000000000, 0.0000000000, -0.0000000000, 0.0000000000, -0.0000000000, -0.0000000000, -1.8113288879, -0.8010923862, 0.0000000000, 0.0000000000, 0.0000000000, 0.0000000000, -1.0887120962, 0.0000000000, -0.0000000000, -0.0000000000, 0.0000000000, 0.0000000000, 0.0000000000, 0.0000000000, -0.0000000000, 0.0000000000, 0.0000000000, -0.0000000000, 0.0000000000, -0.0000000000, 0.0000000000, 0.0000000000, -0.0000000000, -0.8731110096, -0.0000000000, -1.3161839247, -0.0000000000, 0.0000000000, -1.3319300413, -0.0000000000, -0.0000000000, -0.0000000000, 0.0000000000, 0.0000000000, 0.0000000000, 0.0000000000, -0.0000000000, 0.0000000000, -0.0000000000, 0.0000000000, 0.0000000000, -1.3433227539, 0.0000000000, -0.8354258537, 0.0000000000, -1.3119226694, -0.0000000000, -0.0000000000, -0.7905220985, 0.0000000000, -1.2952556610, 0.0000000000, -0.0000000000, -0.0000000000, 0.0000000000, 0.0000000000, 0.0000000000, -0.7470073700, -1.1017328501, -1.3811801672, -1.2097928524, -1.1685361862, 0.0000000000, -0.0000000000, 0.0000000000, -1.0248103142, -0.8142833710, 0.0000000000, -1.0269477367, -0.0000000000, 0.0000000000, -1.4127155542, -0.8974208832, -1.0639588833, -1.1252527237, -1.3025398254, -0.0000000000, 0.0000000000, 0.0000000000, 0.0000000000, -0.0000000000, -0.0000000000, 0.0000000000, -0.0000000000, 0.0000000000, 0.0000000000, -1.2515763044, 0.0000000000, -0.0000000000, 0.0000000000, -0.0000000000, 0.0000000000, 0.0000000000, 0.0000000000, -1.3986462355, 0.0000000000, 0.0000000000, -0.9082985520, -1.0051249266, -1.4222868681, -1.3087517023, -1.0647972822, -1.0599727631, 0.0000000000, 0.0000000000, -0.0000000000, 0.0000000000, 0.0000000000, 0.0000000000, 0.0000000000, -0.0000000000, -1.3612492085, 0.0000000000, -0.0000000000, -1.3663078547, -1.6648221016, -1.4174360037, 0.0000000000, -1.4418780804, -1.3506817818, 0.0000000000, -0.0000000000, -1.3606886864, -0.0000000000, -1.0641179085, 0.0000000000, -0.0000000000, -1.0374649763, -1.3727006912, -1.1636035442, 0.0000000000, 0.0000000000, -0.0000000000, -0.0000000000, 0.0000000000, -1.5941665173, -1.5340362787, -1.3903632164, 0.0000000000, 0.0000000000, -1.1221103668, -0.0000000000, -1.2072794437, -1.5287799835, -1.0761750937, -1.1465350389, 0.0000000000, -1.5743273497, -1.2113498449, -1.3719871044, 0.0000000000, -1.3485633135, -0.8898431063, -1.0984454155, -1.3266974688, 0.0000000000, -0.0000000000, -0.0000000000, 0.0000000000, 0.0000000000, -0.0000000000, 0.0000000000, -0.0000000000, 0.0000000000, -0.0000000000, -0.0000000000, 0.0000000000, 0.0000000000, 0.0000000000, 0.0000000000, -0.0000000000, 0.0000000000, 0.0000000000, -0.0000000000, 0.0000000000, -0.0000000000, 0.0000000000, -0.7256109118, -0.0000000000, 0.0000000000, -0.0000000000, 0.0000000000, 0.0000000000, 0.0000000000, -0.0000000000, -0.0000000000, 0.0000000000, -1.7620416880, -0.0000000000, -0.8377152681, -0.8874821067, -1.0954866409, -1.2733808756, -0.0000000000, -1.6100240946, -1.1286016703, -0.0000000000, -1.4844479561, -1.1825596094, 0.0000000000, -0.0000000000, -0.0000000000, -0.8597945571, 0.0000000000, 0.0000000000, 0.0000000000, -0.0000000000, -1.0328959227, -0.0000000000, -1.2639822960, 0.0000000000, -1.6314368248, 0.0000000000, -1.6319810152, -0.0000000000, 0.0000000000, -0.0000000000, -0.0000000000, -0.0000000000, 0.0000000000, 0.0000000000, 0.0000000000, -0.0000000000, 0.0000000000, 0.0000000000, -0.0000000000, 0.0000000000, -0.0000000000, -0.0000000000, 0.0000000000, 0.0000000000, 0.0000000000, -0.0000000000, 0.0000000000, 0.0000000000, 0.0000000000, -0.0000000000, -1.4597442150, 0.0000000000, -0.0000000000, 0.0000000000, 0.0000000000, 0.0000000000, 0.0000000000, -0.0000000000, -1.0269300938, -0.0000000000, -0.0000000000, -0.0000000000, -1.2380701303, -0.8524625897, 0.0000000000, -1.2279489040, -0.0000000000, 0.0000000000, -1.1398706436, 0.0000000000, -0.7644128799, 0.0000000000, 0.0000000000, -0.0000000000, -1.0859830379, -1.1006085873, 0.0000000000, 0.0000000000, -0.8078901768, -0.0000000000, -0.0000000000, -0.0000000000, -1.1697092056, -1.2974395752, 0.0000000000, -1.0791425705, -0.0000000000, -0.8165052533, -0.0000000000, 0.0000000000, -0.0000000000, 0.0000000000, -0.0000000000, -1.0903835297, -1.5512177944, -1.1939450502, 0.0000000000, -0.0000000000, 0.0000000000, 0.0000000000, 0.0000000000, -0.0000000000, -0.0000000000, 0.0000000000, -0.0000000000, -1.3043624163, -1.1115292311, -0.0000000000, 0.0000000000, -1.3669984341, -1.2343109846, -0.0000000000, 0.0000000000, -0.9640161395, -1.3173750639, 0.0000000000, 0.0000000000, -1.1277899742, -1.3608502150, 0.0000000000, 0.0000000000, -1.0285166502, -0.0000000000, 0.0000000000, 0.0000000000, -1.3277311325, -0.0000000000, -1.2582514286, 0.0000000000, 0.0000000000, 0.0000000000, -0.0000000000, -1.1446851492, 0.0000000000, -0.0000000000, 0.0000000000, -1.1514135599, -0.0000000000, -0.0000000000, -0.0000000000, -1.0414177179, 0.0000000000, -1.4407371283, 0.0000000000, -0.0000000000, 0.0000000000, -1.1062722206, 0.0000000000, 0.0000000000, -0.0000000000, 0.0000000000, 0.0000000000, 0.0000000000, -0.0000000000, -0.0000000000, 0.0000000000, -0.0000000000, -0.9044226408, 0.0000000000, 0.0000000000, -0.0000000000, -1.2172152996, -0.9045655727, -0.0000000000, 0.0000000000, 0.0000000000, 0.0000000000, -0.0000000000, 0.0000000000, -1.0827531815, -0.0000000000, -0.0000000000, 0.0000000000, -0.0000000000, 0.0000000000, -0.0000000000, -0.0000000000, -0.0000000000, -0.9036606550, -0.8544720411, -1.3174271584, -0.0000000000, -1.0312899351, -1.2428407669, -1.0943329334, -1.1602134705, -0.0000000000, -0.9388490915, 0.0000000000, 0.0000000000, 0.0000000000, -1.0075285435, 0.0000000000, 0.0000000000, -0.0000000000, 0.0000000000, -0.0000000000, 0.0000000000, 0.0000000000, -0.0000000000, -0.0000000000, -0.0000000000, 0.0000000000, 0.0000000000, -0.0000000000, 0.0000000000, 0.0000000000, -0.0000000000, 0.0000000000, 0.0000000000, -0.0000000000, 0.0000000000, 0.0000000000, 0.0000000000, 0.0000000000, 0.0000000000, 0.0000000000, 0.0000000000, -0.0000000000, 0.0000000000, 0.0000000000, 0.0000000000, -0.0000000000, 0.0000000000, -0.0000000000, 0.0000000000, 0.0000000000, 0.0000000000, 0.0000000000, 0.0000000000, -0.0000000000, 0.0000000000, 0.0000000000, -0.0000000000, 0.0000000000, 0.0000000000, 0.0000000000, 0.0000000000, -0.0000000000, 0.0000000000, -0.0000000000, -0.0000000000, -0.0000000000, -0.0000000000, 0.0000000000, 0.0000000000, 0.0000000000, 0.0000000000, -1.7545056343, -0.8237307668, -1.2399249077, 0.0000000000, 0.0000000000, -0.0000000000, 0.0000000000, 0.0000000000, 0.0000000000, -0.0000000000, -0.0000000000, 0.0000000000, -0.0000000000, -0.5581717491, 0.0000000000, 0.0000000000, 0.0000000000, -0.0000000000, 0.0000000000, -0.0000000000, -1.4162353277, -1.6965817213, 0.0000000000, -1.2976709604, -1.6045075655, -0.0000000000, -1.4722402096, -1.4175276756, -1.2923052311, -1.5270848274, -1.3596658707, 0.0000000000, -1.8493210077, -1.5545021296, -0.0000000000, -0.8692644835, -0.0000000000, 0.0000000000, 0.0000000000, -1.0260769129, 0.0000000000, 0.0000000000, -0.0000000000, -1.2107582092, 0.0000000000, 0.0000000000, 0.0000000000, -1.2886650562, -1.4310272932, -1.0091183186, -0.0000000000, -0.8368788958, -1.7199828625, -1.5057989359, -1.4473235607, -1.6847765446, -0.0000000000, -0.0000000000, 0.0000000000, 0.0000000000, 0.0000000000, -0.0000000000, -0.0000000000, -0.0000000000, -0.0000000000, -0.5484042168, 0.0000000000, 0.0000000000, 0.0000000000, -0.0000000000, 0.0000000000, -0.0000000000, 0.0000000000, 0.0000000000, 0.0000000000, 0.0000000000, -0.8898714781, 0.0000000000, 0.0000000000, -0.7403753996, -1.0710836649, 0.0000000000, 0.0000000000, -1.3823075294, -1.2767153978, -1.4453363419, -1.3839373589, -1.3666019440, 0.0000000000, 0.0000000000, 0.0000000000, -0.0000000000, 0.0000000000, -1.0332041979, -0.0000000000, 0.0000000000, -0.9588594437, -0.0000000000, 0.0000000000, -1.0403770208, 0.0000000000, -1.1610344648, -0.0000000000, 0.0000000000, -0.0000000000, 0.0000000000, 0.0000000000, -0.0000000000, 0.0000000000, -0.0000000000, 0.0000000000, 0.0000000000, 0.0000000000, -0.0000000000, -1.1796569824, 0.0000000000, -0.0000000000, 0.0000000000, 0.0000000000, -1.3373559713, -1.5436558723, -0.0000000000, 0.0000000000, -1.4518040419, 0.0000000000, 0.0000000000, 0.0000000000, 0.0000000000, 0.0000000000, 0.0000000000, -0.0000000000, 0.0000000000, 0.0000000000, 0.0000000000, 0.0000000000, -1.5879743099, -1.4887866974, -0.0000000000, -0.0000000000, -1.0100553036, -1.0685346127, -0.8900997043, -0.0000000000, -1.1550108194, -1.2635265589, 0.0000000000, -0.0000000000, -0.0000000000, 0.0000000000, -1.0273271799, -0.0000000000, -0.0000000000, -0.9925186634, -1.0463582277, -0.0000000000, -0.0000000000, -0.0000000000, -0.7883538604, -0.0000000000, -0.0000000000, -0.8989993930, -0.0000000000, 0.0000000000, -0.0000000000, 0.0000000000, -0.8005278707, -0.0000000000, -0.0000000000, -0.0000000000, 0.0000000000, 0.0000000000, 0.0000000000, -1.1425734758, -0.0000000000, 0.0000000000, -1.0434876680, 0.0000000000, -0.9062280059, -0.0000000000, 0.0000000000, 0.0000000000, 0.0000000000, -0.0000000000, -0.9305887222, 0.0000000000, -0.0000000000, -0.0000000000, 0.0000000000, 0.0000000000, -1.1878311634, -0.8334192634, 0.0000000000, -0.0000000000, 0.0000000000, 0.0000000000, -0.0000000000, 0.0000000000, 0.0000000000, -0.0000000000, 0.0000000000, 0.0000000000, 0.0000000000, 0.0000000000, -0.0000000000, 0.0000000000, -0.0000000000, -1.0452080965, 0.0000000000, -0.0000000000, 0.0000000000, 0.0000000000, -0.0000000000, -0.0000000000, -1.3289078474, -1.1930526495, -0.0000000000, -0.0000000000, -0.0000000000, -1.0092856884, -0.7630628943, -0.0000000000, -0.6708915234, 0.0000000000, 0.0000000000, 0.0000000000, -0.0000000000, 0.0000000000, -0.0000000000, 0.0000000000, 0.0000000000, 0.0000000000, 0.0000000000, 0.0000000000, 0.0000000000, -0.0000000000, 0.0000000000, 0.0000000000, 0.0000000000, 0.0000000000, -0.0000000000, 0.0000000000, -0.0000000000, -0.0000000000, 0.0000000000, -0.8100062609, 0.0000000000, 0.0000000000, -1.1500545740, -0.0000000000, -0.0000000000, -0.0000000000, -0.0000000000, 0.0000000000, 0.0000000000, 0.0000000000, -0.0000000000, -0.0000000000, 0.0000000000, -0.0000000000, 0.0000000000, -0.0000000000, 0.0000000000, -0.0000000000, -0.0000000000, -0.0000000000, -0.0000000000, 0.0000000000, -0.0000000000, -0.0000000000, -0.0000000000, 0.0000000000, 0.0000000000, -0.0000000000, 0.0000000000, -0.0000000000, -0.0000000000, 0.0000000000, -0.0000000000, 0.0000000000, 0.0000000000, 0.0000000000, 0.0000000000, -0.0000000000, -0.0000000000, 0.0000000000, 0.0000000000, -0.0000000000, -0.0000000000, -0.0000000000, 0.0000000000, -0.0000000000, 0.0000000000, -0.0000000000, -0.0000000000, -0.0000000000, -0.0000000000, -0.0000000000, 0.0000000000, -0.0000000000, 0.0000000000, -0.0000000000, -0.0000000000, 0.0000000000, -0.0000000000, 0.0000000000, 0.0000000000, -0.0000000000, -0.0000000000, -0.0000000000, 0.0000000000, 0.0000000000, 0.0000000000, -0.0000000000, -0.0000000000, 0.0000000000, 0.0000000000, -0.0000000000, 0.0000000000, -0.0000000000, 0.0000000000, -0.0000000000, 0.0000000000, 0.0000000000, 0.0000000000, -0.0000000000, 0.0000000000, -0.0000000000, 0.0000000000, -0.0000000000, -0.0000000000, -0.0000000000, -0.0000000000, 0.0000000000, -0.0000000000, 0.0000000000, -0.0000000000, 0.0000000000, -0.0000000000, -0.0000000000, 0.0000000000, 0.0000000000, 0.0000000000, -0.0000000000, -0.0000000000, -0.0000000000, -0.0000000000, 0.0000000000, 0.0000000000, 0.0000000000, -0.0000000000, -0.0000000000, 0.0000000000, 0.0000000000, -0.0000000000, -0.0000000000, -0.0000000000, -0.0000000000, -0.0000000000, -0.0000000000, 0.0000000000, -0.0000000000, -0.0000000000, 0.0000000000, -0.0000000000, -0.0000000000, 0.0000000000, 0.0000000000, -0.0000000000, 0.0000000000, -0.0000000000, -0.0000000000, -0.0000000000, -0.9652853608, -0.0000000000, -0.0000000000, 0.0000000000, -0.0000000000, 0.0000000000, -0.8869013786, 0.0000000000, 0.0000000000, -0.0000000000, 0.0000000000, -0.0000000000, -0.0000000000, -1.1242048740, 0.0000000000, -1.4053789377, -0.7819951177, -0.0000000000, -0.0000000000, 0.0000000000, -1.1560477018, 0.0000000000, 0.0000000000, -1.2977387905, 0.0000000000, -0.0000000000, -0.0000000000, 0.0000000000, -0.0000000000, 0.0000000000, 0.0000000000, -0.0000000000, 0.0000000000, -0.0000000000, -0.0000000000, 0.0000000000, -1.2421693802, -1.0854291916, -0.0000000000, -1.2134001255, 0.0000000000, 0.0000000000, -1.2393366098, -0.9095891118};
#endif

#endif
