//Numpy array shape [3, 3, 3, 4]
//Min -0.422783464193
//Max 0.567384004593
//Number of zeros 81

#ifndef W2_H_
#define W2_H_

#ifndef __SYNTHESIS__
conv1_weight_t w2[108];
#else
conv1_weight_t w2[108] = {-0.0000000000, 0.0000000000, -0.3829061389, 0.0000000000, 0.2368289381, -0.1856564283, -0.0000000000, 0.0000000000, 0.3402616680, -0.0000000000, -0.0000000000, 0.0000000000, -0.0000000000, 0.0000000000, 0.0000000000, -0.3708714247, 0.0000000000, -0.0000000000, -0.0000000000, 0.0000000000, 0.0000000000, -0.0000000000, -0.0000000000, 0.0000000000, -0.0000000000, 0.5064132810, 0.2963711917, 0.0000000000, 0.0000000000, -0.0000000000, -0.0000000000, 0.0000000000, 0.0000000000, -0.0000000000, -0.0000000000, 0.0000000000, -0.0000000000, 0.0000000000, 0.2922179699, 0.0000000000, -0.0000000000, -0.0000000000, -0.0000000000, 0.0000000000, 0.0000000000, -0.2230861038, -0.0000000000, 0.0000000000, 0.2535539269, 0.0000000000, 0.0000000000, 0.0000000000, 0.0000000000, -0.0000000000, 0.0000000000, 0.0000000000, 0.4807356894, -0.0000000000, -0.0000000000, 0.0000000000, 0.0000000000, 0.5673840046, 0.4940402806, -0.2853333950, 0.0000000000, -0.0000000000, 0.2783652842, 0.4935178161, 0.0000000000, -0.0000000000, -0.0000000000, 0.5128152966, -0.3625403345, 0.0000000000, 0.0000000000, 0.0000000000, 0.3353129625, -0.0000000000, 0.2328274697, 0.0000000000, 0.0000000000, -0.0000000000, -0.0000000000, 0.0000000000, -0.0000000000, 0.0000000000, 0.3244273067, 0.0000000000, 0.0000000000, -0.0000000000, -0.0000000000, 0.3128853440, 0.4069789052, -0.0000000000, 0.2189189345, 0.0000000000, -0.4227834642, 0.0000000000, 0.0000000000, 0.0000000000, -0.2412127554, -0.0000000000, -0.0000000000, 0.4820272923, 0.0000000000, -0.0000000000, -0.0000000000, 0.0000000000};
#endif

#endif
