//Numpy array shape [3, 3, 4, 8]
//Min -0.659060537815
//Max 0.475575774908
//Number of zeros 216

#ifndef W6_H_
#define W6_H_

#ifndef __SYNTHESIS__
conv2_weight_t w6[288];
#else
conv2_weight_t w6[288] = {0.0000000000, -0.0000000000, -0.3790152073, 0.0000000000, 0.3083576858, -0.0000000000, -0.2893068790, 0.0000000000, 0.2399747670, -0.0000000000, 0.3452395201, -0.0000000000, 0.3049504757, -0.0000000000, 0.0000000000, -0.0000000000, 0.0000000000, -0.0000000000, -0.0000000000, -0.0000000000, 0.0000000000, -0.0000000000, -0.1672374457, -0.4560015202, 0.0000000000, -0.0000000000, -0.0000000000, -0.0000000000, -0.0000000000, -0.0000000000, -0.4825839102, 0.0000000000, 0.0000000000, -0.0000000000, -0.3673214316, -0.0000000000, 0.2876147330, -0.0000000000, -0.4398258924, 0.0000000000, 0.0000000000, -0.0000000000, 0.0000000000, -0.0000000000, 0.0000000000, -0.0000000000, 0.3736701012, -0.4052072763, 0.0000000000, -0.3982481062, -0.0000000000, -0.0000000000, 0.0000000000, -0.0000000000, 0.0000000000, 0.0000000000, 0.0000000000, -0.5290232897, -0.0000000000, 0.4372994006, 0.2654312253, -0.0000000000, -0.0000000000, 0.0000000000, 0.0000000000, -0.0000000000, -0.0000000000, -0.0000000000, 0.0000000000, -0.0000000000, 0.0000000000, 0.0000000000, 0.0000000000, -0.0000000000, 0.0000000000, 0.2815817595, 0.0000000000, -0.0000000000, 0.3727543056, -0.0000000000, 0.0000000000, -0.4770938754, -0.0000000000, -0.0000000000, 0.3002766073, -0.0000000000, 0.0000000000, 0.1882115901, 0.0000000000, -0.0000000000, -0.2108467221, -0.0000000000, 0.0000000000, -0.0000000000, 0.4413135350, 0.0000000000, 0.0000000000, -0.0000000000, -0.4113923311, -0.0000000000, -0.0000000000, 0.0975135267, 0.0000000000, -0.0000000000, 0.0000000000, -0.0000000000, 0.0000000000, 0.3356502652, -0.0000000000, -0.0000000000, 0.0000000000, 0.0000000000, 0.3051221967, -0.0000000000, 0.3338139057, 0.4755757749, 0.0000000000, -0.0000000000, 0.0000000000, 0.0000000000, 0.2905616164, -0.0000000000, -0.2746909261, -0.0000000000, -0.0000000000, 0.0000000000, -0.3719488084, 0.0000000000, 0.3050191402, -0.0000000000, -0.0000000000, 0.0000000000, -0.0000000000, -0.0000000000, -0.0000000000, 0.0000000000, 0.3253055811, -0.0000000000, 0.0000000000, -0.0000000000, 0.0000000000, -0.0000000000, 0.4025138319, 0.0000000000, 0.0000000000, -0.0000000000, -0.0000000000, -0.0000000000, 0.0000000000, -0.0000000000, 0.0000000000, 0.0000000000, 0.0000000000, -0.0000000000, -0.0000000000, -0.0000000000, -0.4960052073, 0.1931033134, 0.0000000000, 0.2650053799, 0.0000000000, -0.0000000000, -0.2370123714, -0.0000000000, -0.2690095603, -0.4072829187, 0.0000000000, 0.0000000000, 0.0000000000, -0.0000000000, 0.0000000000, -0.3040870130, 0.2899626493, -0.0000000000, 0.0000000000, -0.0000000000, 0.0000000000, -0.0000000000, 0.3452208042, -0.3050527573, 0.0000000000, -0.0000000000, 0.0000000000, 0.0000000000, 0.0000000000, 0.3701247871, 0.0000000000, -0.0000000000, -0.0000000000, 0.1386187822, 0.3161408007, 0.0000000000, 0.0000000000, -0.0000000000, -0.0000000000, -0.0000000000, 0.2566417754, -0.0000000000, 0.0000000000, 0.0000000000, 0.0000000000, 0.3238958716, 0.0000000000, -0.0000000000, -0.0000000000, -0.0000000000, 0.0000000000, 0.0000000000, 0.2341213226, -0.0000000000, 0.4023181200, -0.0000000000, 0.0000000000, -0.0000000000, -0.1722857207, 0.0000000000, 0.0000000000, -0.0000000000, 0.0000000000, -0.0000000000, -0.0000000000, -0.0000000000, 0.0000000000, 0.2222616225, 0.0000000000, 0.3844271600, -0.0000000000, 0.0000000000, -0.0000000000, -0.0000000000, 0.0000000000, 0.0000000000, 0.0000000000, -0.0000000000, 0.0000000000, -0.3987339437, -0.0000000000, 0.2259725928, 0.0000000000, 0.0000000000, 0.0000000000, 0.3555902839, -0.0000000000, -0.2762759328, -0.0000000000, -0.0000000000, 0.0000000000, 0.1939711571, 0.0000000000, -0.0000000000, 0.0000000000, -0.2221737057, -0.5153658986, -0.0000000000, 0.0000000000, 0.0000000000, -0.3330507874, -0.0000000000, 0.0000000000, -0.0000000000, -0.6590605378, 0.2071365118, 0.0000000000, 0.0000000000, -0.3313063681, -0.0000000000, 0.0000000000, -0.0000000000, -0.0000000000, -0.0000000000, 0.0000000000, 0.0000000000, -0.4410171509, -0.0000000000, 0.0000000000, -0.2507946193, -0.0000000000, -0.0000000000, 0.0000000000, 0.0000000000, -0.4721246064, -0.0000000000, 0.0000000000, 0.0000000000, -0.0000000000, 0.1709675640, 0.0000000000, 0.0000000000};
#endif

#endif
