//Numpy array shape [32, 52]
//Min -1.725064396858
//Max 0.541634440422
//Number of zeros 0

#ifndef W11_H_
#define W11_H_

#ifndef __SYNTHESIS__
output_weight_t w11[1664];
#else
output_weight_t w11[1664] = {-0.3766429722, -0.5410710573, -0.5097371340, -0.1774122864, -0.0348566845, -0.1093886718, -0.0418501794, 0.0223273728, 0.3055064082, 0.2522915304, 0.2469500452, 0.2700897157, -0.2843257189, -0.0436569378, -0.2126225978, 0.1394381970, -0.1100824699, 0.1278200746, 0.1988196522, 0.1829414517, 0.1666424870, 0.1088479236, 0.2983475924, 0.2952074707, -0.0877818316, 0.0719616860, 0.2866333723, 0.1067169085, -0.2380653769, -0.1045179963, -0.2069885880, -0.1652437449, -0.1520442218, -0.0871323496, -0.4164353907, 0.0176572725, 0.0809787288, -0.0230215248, -0.0640490204, -0.1105067879, 0.0345478207, -0.0575510934, -0.6341076493, -0.0365648381, -0.8203111291, -0.3357465565, -0.2653442621, -0.5210687518, -0.0774421170, -0.2968806624, -0.8697592020, -0.2714157999, -0.4006089568, 0.2669600546, -0.3546315730, -0.4682250023, -0.5880206227, -0.1296205372, -0.3480510712, -0.1864819080, -0.5834170580, 0.3117826283, -0.6077127457, -0.4190412760, -0.3060119748, -0.5160360932, 0.2666883767, -0.1299698949, 0.1811078638, -0.1757522672, 0.0972841233, -0.3640402257, -0.1485879421, 0.0166015178, -0.1298488081, -0.2115039229, -0.2497644722, -0.1898581833, -0.4576004446, -0.4060458839, -0.1117741391, 0.1142692044, -0.6038963199, -0.4798303246, -0.2604638040, -0.3051165938, -0.0179541558, -0.3894344568, -0.1864742339, -0.0123514431, 0.2286136150, -0.1830539852, -0.3581793010, -0.3305052817, -0.5856342912, -0.2915399373, -0.1472040266, -0.2198219597, -0.0872664601, -0.0745996833, -0.2394414991, -0.7494952083, -0.3163957894, -0.4497953653, 0.1882924885, 0.1604957879, 0.2022762895, -0.2535123229, 0.1993348002, 0.0932121426, 0.0035875416, 0.1513890028, -0.1600736380, -0.2382046878, 0.1603242457, -0.1405563951, -0.2318228036, -0.1442203522, 0.1468957663, -0.0713595897, -0.2282965481, -0.2069035918, -0.2282499969, 0.0337374769, 0.1672500819, -0.2579286098, -0.1128737777, 0.1143882126, -0.2422761172, -0.0815318972, -0.0525551923, -0.0165933724, -0.1283819079, -0.1810095608, 0.2052420080, 0.2086293250, -0.0352640040, 0.1622033864, -0.0154601522, -0.0601767041, -0.1803525537, 0.0587925129, 0.1424696892, -0.1149521247, -0.2705557644, -0.0991902649, -0.0764584690, -0.1249092743, -0.2143881917, 0.0564060025, 0.1526338607, -0.2605198622, -0.0815667585, 0.1931688786, -0.1116809472, 0.0850524828, 0.1309263706, -0.1911102235, -1.0038267374, 0.0812233314, 0.1292849034, 0.1264226437, -0.0405525006, 0.1327901930, 0.0938642770, 0.1029551327, 0.2139474601, 0.4042904973, -0.4309272468, -0.6591894627, -0.8592610955, -0.1089516282, 0.0263580233, -0.4154649079, -0.3236030340, 0.0214714482, -0.2953090668, -0.6403733492, -0.3193663061, -0.4932326078, -0.1665775031, -0.3684856594, -0.0788446665, -0.1980788112, -0.4619639516, 0.0014042044, -0.7294871807, -0.2997126281, -0.2075155228, -0.2786846757, -0.7069263458, -0.1120166257, 0.4590888619, 0.3990696967, 0.4333202243, 0.3148067296, -0.1443679929, 0.0952693895, -0.3947027326, 0.1586065441, 0.0975834802, 0.0720856413, -0.1317180991, 0.3021497726, 0.1406778544, 0.2990815639, 0.1051669866, -0.3308463693, -0.2953875661, 0.0454228744, 0.1494274288, -0.5093935132, 0.2592676878, 0.4125372469, 0.3696430326, -0.1209107637, -0.2677478194, -0.0357056446, 0.0527235121, -0.1130395457, 0.3898594975, 0.2479670197, 0.0122225126, 0.0294660237, 0.0313948020, -0.1222280040, 0.0138483047, -0.2192253768, -0.0369335599, 0.1006140262, -0.2123078406, -0.4159715772, -0.0867151842, 0.0031728514, -0.0873723179, -0.5892283916, -0.0225052088, -0.0749130100, -0.1651514620, -0.6049552560, -0.1982501894, -0.1329539269, -0.5341287851, -0.4847160876, 0.3151733875, 0.4262207448, 0.2616461813, -0.2291043699, -0.2399765998, -0.0675579458, 0.1721546501, -0.3959382176, -0.2142175734, -0.1668330878, 0.0561126359, -0.1092729867, 0.1432729661, 0.0412584320, -0.1972121745, -0.1156173050, -0.5832548738, -0.2346418649, -0.1057239771, -0.3028657138, -0.5035640001, 0.1939377785, 0.0352846570, -0.4031513333, -0.3809044957, 0.2225081474, 0.1893046051, -0.2313093096, -0.3015788794, 0.2912262380, 0.2231003493, -0.2361643910, 0.0089659458, 0.2681147754, 0.3189408481, -0.0564649217, -0.0914944708, 0.3009709120, 0.1742154211, -0.0948889479, -0.1135233790, -0.0263758544, 0.0943449512, -0.0606357642, -0.5556589365, 0.0842633471, 0.2772337198, 0.0322046354, -0.4477430880, -0.0516477004, 0.2462334931, -0.0334694274, -0.0600766577, 0.2613958418, 0.2815904319, -0.5147170424, -0.3414400518, -0.1634953022, -0.4291519225, -0.2738474905, -0.4815623164, -0.1160815731, -0.2020594031, -0.5775490999, -0.4397204816, -0.4562818706, -0.0946103036, -0.3596254885, -0.1425859034, 0.3239522278, -0.0310402941, -0.5241381526, -0.5974610448, -0.1090336815, -0.2802870572, -0.3924630582, -0.1760254949, 0.1201793551, 0.1172082871, -0.1144717708, -1.7250643969, -0.2387167662, -0.4498094022, -1.1254218817, -0.8426989317, -0.1952555627, -0.3563500941, -0.8544270992, -0.6054014564, -0.1611795872, -0.1315767914, -0.4328315556, -0.3339043558, 0.1836785227, 0.0538807884, -0.1354612112, -0.1091421396, 0.2903962433, -0.0750215948, -0.0007593008, -0.3332452178, 0.2021168917, 0.0567928404, -0.3913549781, 0.0099332882, 0.0761994123, 0.2814035416, 0.0994790792, -0.3487394452, -0.6561514735, -0.4268205762, -0.3206164837, -0.1472639740, -0.2095261812, -0.3553521037, -0.0938429534, -0.6144084930, -0.2371076941, -0.2052593231, -0.4929336905, -0.3254570365, -0.5213230848, -0.8962864280, -0.2255330235, -0.3494440913, -0.3338566720, -0.5426657796, -0.2659424245, -0.0309270546, 0.0702826455, 0.0490087382, 0.0725850910, -0.4727799594, -0.7981488109, -0.5769124627, -0.4747332931, 0.0010173924, -0.2280527353, -0.3908821940, -0.1717881113, 0.1841457039, -0.2044199407, -0.2932619452, 0.0823218152, 0.1925258487, -0.2433219105, -0.4337734580, 0.0404591225, 0.2882376611, -0.3904024959, -0.1331052333, 0.2759766281, 0.1616151929, -0.0571032986, -0.0944228768, 0.1754723489, 0.3655849695, 0.0701706633, -0.0718515590, 0.5200274587, -0.2753412724, 0.2816808522, 0.0527195558, -0.2389981896, -0.1930324584, 0.1796996146, 0.1340184808, -0.2752003372, -0.1154278889, -0.0923820361, -0.1447593570, -0.0155298728, -0.1637908220, -0.5154579878, -0.3276023567, -0.4457588494, 0.3227927983, 0.2368488610, 0.0271265544, 0.1531526595, -0.1656827182, -0.3837969303, 0.0453143232, -0.1321814507, 0.3653989136, 0.2366474122, 0.3555922508, 0.2870084047, -0.0469935648, -0.2458097488, -0.1439927518, 0.1403494477, 0.0718299672, -0.2109515667, 0.0409771092, 0.0321301855, 0.0586862303, -0.4682557881, -0.1937022507, -0.0671171546, -0.7555884123, -0.5839521289, -0.3428477943, -0.2974151671, -0.4017807841, -0.7841052413, -0.4361482859, -0.5772759318, -0.2753452361, -0.2123178095, -0.0973593369, -0.4648281932, -0.1758910120, -0.1226757616, 0.0468224175, 0.0384978838, 0.1419697106, -0.1619227976, -0.8363029957, -0.1157032326, -0.2329176068, -0.2289742380, -0.1665787548, -0.1888805330, -0.1671213657, -0.2364257723, -0.2163987607, -0.2127655894, -0.0329585075, -0.1883442402, -0.0462672561, -0.1233804747, 0.1299172789, -0.2623741925, 0.1344291121, -0.2535224855, -0.1587923914, -0.2052578777, -0.0632259399, -0.0440271534, -0.2766705155, 0.1998038441, -0.1909633279, -0.0629789457, 0.2154428959, 0.0833240226, -0.0865507573, 0.2317393422, 0.1115864590, -0.1571439654, 0.0729760528, -0.2734460235, 0.1528836936, 0.0512085110, -0.1280348152, -0.1774736494, 0.0083765471, -0.0301770680, 0.0864418671, -0.2333842665, -0.0253929738, 0.0058351425, -0.1908069104, 0.1824075878, 0.1422361284, -0.1066310406, 0.1874232739, 0.2277806699, -0.1606929749, 0.1449606568, 0.2193108052, -0.0452764370, 0.2270139456, 0.1046254709, 0.0626973137, -0.0610962883, -0.2855064571, -0.9072617292, -0.4005613327, -0.3251382709, -0.4022861421, -0.7617262006, -0.3766160309, -0.2045290172, 0.1771187782, -0.1006184444, -0.0889980197, 0.2017049938, -0.1485278755, -0.4203307033, -0.2544576526, -0.3522801101, 0.1779947728, 0.2432934344, 0.1680307686, 0.1416617930, -0.0332347453, -0.3057377338, -0.3364338279, 0.0039901095, 0.1102118492, -0.0278733745, -0.1551710963, -0.0971464440, 0.0974850729, -0.6199185252, -1.2272783518, -0.1664140970, -0.0828907713, -0.4313693941, -0.6831041574, 0.0644745007, -0.0562946275, 0.0343690366, -0.3358666599, 0.4947433472, -0.0599487945, 0.0677371621, 0.1300225258, -0.3637253046, 0.2767726183, 0.3741585612, 0.0191807151, 0.2385977507, -0.2482146770, 0.1183781847, 0.0195107926, 0.1604646444, -0.3154226243, -0.2494333088, -0.4077410400, -0.6279253364, 0.2786670029, 0.3900871575, 0.3855952322, 0.4374799430, 0.0860342607, 0.1770064831, -0.1370290667, 0.1630779803, -0.4689190984, -0.1682924032, -0.1323767751, -0.2715906501, -0.4598823488, -0.2832573652, -0.2802414000, -0.2018585801, -0.2671879530, 0.0243919063, 0.0159218684, 0.1600576788, -0.3510921299, -0.3651858270, -0.4206839800, -0.0085242148, -0.1982704252, -0.0238929279, 0.1012436375, -0.1454828382, -0.6313926578, -0.0928598344, -0.0985184833, -0.3013352156, -0.2889818549, 0.2397933751, 0.0571596399, -0.4744344652, -0.5532960892, -0.5786042213, 0.0976780131, -0.5037471056, -0.0381701700, -0.3448333442, -0.2887452245, 0.2602062523, -0.3865514696, -0.2772869468, -0.3172608316, -0.6016836166, -0.2464293540, -0.0885911360, 0.1130003184, 0.2552456558, 0.1924855113, -0.0639804155, 0.1911088675, -0.0321926512, 0.2173845470, -0.1131856069, 0.0829517841, 0.0972684696, -0.1895901710, 0.2117139548, 0.0725963861, 0.1537392288, 0.1840949059, -0.1893531084, 0.1491211057, 0.2103350461, -0.0915813223, 0.1605445892, -0.2190406621, 0.1813055426, -0.2716461420, -0.0311000738, -0.0868153349, 0.1222792417, 0.2402945161, -0.2174414694, -0.1543902457, 0.1187143773, 0.2038920522, -0.1554657072, -0.0597722195, 0.1704185009, -0.1882302612, 0.0519584455, -0.0615108609, -0.2445559800, 0.1571408957, -0.1404940635, 0.1369983405, -0.2521137297, 0.1186270937, 0.2277727872, -0.1373416632, 0.1645222455, -0.0685105398, 0.1415797323, -0.1524251699, 0.2494038939, -0.3693946004, -0.4168606102, -0.4364920557, -0.4480354488, -0.2068971246, -0.6792255640, -0.9432825446, -0.4021688402, -0.5314242840, -0.6822642684, -0.5706810951, -0.5416297317, 0.0880553871, 0.1801637411, -0.0376124941, 0.1767742187, 0.0709926486, 0.1137760356, 0.0213528182, -0.1195235774, 0.2330999374, 0.3681298196, 0.0937266424, 0.3447392285, 0.0935074836, 0.2414266318, -0.0194282625, 0.2775315940, 0.0404462069, 0.1823994815, 0.0158390980, 0.1843021959, -0.0250680763, -0.0790365264, -0.5801371932, -0.2990654409, -0.4562791586, -0.1640685350, -0.3923529685, -0.8191809058, -0.5355685353, -0.6323614120, -0.6101138592, -0.5178559422, -0.8621758819, -0.2145269960, -0.7416254878, -0.2344911098, -0.0816090107, -0.4932498038, -0.8378998637, -0.6495053172, 0.1239300445, 0.2245710343, 0.2498401701, 0.1165501922, 0.0714311078, 0.4005992711, -0.4348276556, 0.5416344404, 0.1222082078, 0.2974404991, -0.1234869137, 0.1094794050, -0.0112692425, 0.0806326792, -0.1276601702, 0.3717924654, 0.2979622781, 0.1266056895, -0.6082505584, 0.0230800193, 0.2406863719, -0.2552311420, 0.0134615544, 0.1588257700, 0.0484737195, 0.1564393491, -0.5522432923, -0.2890358269, -0.0693112612, 0.0360992365, -0.1716435999, -0.1617104858, 0.1765747070, -0.2505473197, -0.2772906721, -0.0354749560, -0.0905494094, 0.1062300429, -0.4125581682, -0.0805893615, -0.2974610329, -0.3932486176, -0.3460628390, 0.1597183645, -0.0082952986, -0.4892745614, -0.3119355738, -0.1495637000, 0.2220319808, -0.4102511406, 0.2989225090, -0.1218956411, -0.0292164981, 0.0808575377, 0.1715427339, 0.0645919219, -0.1408279091, 0.0983107537, -0.0782541484, 0.1760465950, 0.0501487851, -0.2279561758, 0.1573690772, 0.2464292496, -0.1031828746, 0.1762773246, -0.1584179103, -0.0131227663, 0.2087284923, 0.0783493668, -0.2196695060, 0.2006480247, -0.1357240379, 0.0247444008, -0.0057854382, -0.1846460253, 0.1421464384, -0.1207341179, 0.0898226202, 0.1776744723, 0.0809548944, 0.0699141547, -0.2370406538, 0.1061873809, -0.1160342544, -0.1820930988, -0.1584949493, -0.1094170511, -0.0367035940, 0.1457328945, -0.0512926951, -0.0963085964, -0.2021804303, 0.1454256177, 0.1017564833, -0.2208504379, -0.0459765643, -0.0441673212, -0.1960322112, -0.2386209965, -0.2509217560, 0.1624591202, -0.2117003053, 0.2025448233, 0.2165069282, 0.0932832509, -0.0068499260, -0.2205041349, -0.2828303277, 0.0687599257, 0.2063376009, -0.1484755129, 0.0297473017, -0.1473654360, 0.1575578749, -0.0065180403, -0.0566789582, 0.1706098616, -0.1186039969, -0.2368646711, -0.2083187103, -0.1986351013, 0.2114317119, -0.1716452241, -0.1241153777, -0.1544504464, 0.0224066954, -0.2096588910, 0.1162276193, -0.0879569873, 0.0040193060, -0.0681532472, 0.0184283294, -0.1290604472, -0.0760744065, -0.1927634478, -0.2048063129, 0.2243596613, -0.1894372553, 0.0971959382, 0.0154903792, -0.1982538104, -0.0752127767, 0.0749680176, 0.1568604708, 0.0071472125, 0.0296772830, 0.1578819305, -0.1825968325, -0.0454663560, 0.0970116481, -0.0711679608, 0.0729285255, 0.0014559877, 0.2339007705, 0.1850266904, -0.2505742610, 0.1409353912, 0.0589392446, -0.0175111759, -0.1886668950, -0.2587784827, -0.2501378953, 0.1000823677, 0.0835322067, -0.0492098704, -0.1013765708, 0.1873314381, 0.1719830483, 0.2371995300, -0.1013146788, -0.2211208642, -0.1612863690, -0.2678309381, -0.2402567416, 0.2119672447, -0.2029234320, -0.0553559214, -0.0610293336, -0.2574670017, -0.2276455760, 0.2500301301, -0.0835101232, 0.2292625755, 0.1739475429, -0.2377367169, 0.0478350781, 0.0381724276, 0.0314450562, 0.1019428521, 0.1010469198, 0.1015184894, -0.0798383281, -0.2728223801, -0.0678445920, 0.1014186740, 0.2188045830, 0.1592203975, -0.0878880098, -0.0341633596, -0.1032650843, -0.0394706205, -0.0072725057, 0.0934641957, 0.0238744840, -0.2146739811, 0.1429555565, 0.2466151565, 0.1264977157, 0.2207474560, 0.1918158233, -0.2282116413, 0.1090609729, -0.1739546359, 0.0862702727, -0.2221122533, -0.0443583056, -0.2515888214, 0.1639674157, 0.1082280055, 0.1531415284, 0.2436628938, -0.1037834138, -0.0095530450, -0.0342455469, -0.1589733809, 0.0286398809, -0.1464345306, 0.1765881926, -0.2229004949, 0.2446599007, 0.2470777780, 0.2325365245, 0.1260447204, -0.1439378262, 0.2160976082, 0.1960530579, 0.2569324374, 0.0203580391, -0.0890149921, -0.2169485241, 0.1999339908, 0.0290367845, 0.1490437537, 0.0601408146, 0.0490265898, -0.1312774271, 0.1997803897, -0.1069519967, -0.0363956951, 0.0279614255, 0.2196451277, 0.1003410146, -0.0706823021, -0.1141765192, -0.0710176751, -0.0632823408, 0.1072327197, 0.0156405158, 0.1834705025, 0.1885185242, 0.3996510506, -0.0339182168, -0.0408692248, 0.0109103536, 0.5182164907, 0.0818250477, 0.0729994327, -0.3569301963, 0.2449553758, -0.1316822618, -0.0342112407, -0.3328617215, -0.0787504613, -0.5288526416, -0.5241402388, -0.6176554561, -0.2078779638, -0.5282608271, -0.4115804732, -0.1824340522, 0.0747595802, -0.4945531487, -0.3549782038, -0.0951250196, 0.1913192123, 0.0035213844, -0.1401376873, -0.4405415654, 0.1423246264, -0.1148428395, -0.4140400887, -0.2023295462, 0.1961475313, -0.1406839937, -0.2042903751, -0.4211498797, -0.0456318334, -0.1806585342, 0.2260062546, -0.5232189894, -0.1092333123, -0.4055014551, -0.4642465413, -0.3023873568, -0.3511750102, -0.0691930503, -0.0090011898, -0.3084346354, -0.1469427645, -0.4561870992, -0.1546405703, -0.3764111102, -0.2340018600, -0.1066504493, -0.4143376052, 0.1296297014, -0.0152900433, 0.1857063770, -0.1027954295, -0.2256172150, 0.0575665124, 0.2240848839, -0.1652915627, -0.1454670429, -0.0951891616, 0.1900705546, 0.0405876264, -0.2009583116, 0.1135865450, 0.1753384769, -0.0284279343, -0.1513190269, -0.0264435280, 0.2888032496, -0.1022214964, -0.2497588098, -0.0520496331, 0.1955544949, -0.4288590550, -0.0760277137, -0.3392406702, 0.0630002990, -0.4247991741, 0.0944789350, 0.2851140201, 0.1561921686, 0.0789308622, -0.5676152706, -0.1048569307, -0.3192912042, -0.1655689180, 0.1154270843, 0.0654023066, 0.3203473985, 0.4099452496, 0.1428061277, 0.3565634191, 0.2057199925, -0.0675262809, 0.4120904803, 0.0825697258, 0.3436201811, -0.0302123819, 0.3290596306, -0.0004956168, 0.3299205899, 0.2412946075, -0.2578458190, -0.8029507399, -1.1232616901, -0.5306382179, -0.5193259120, -0.5016317964, -0.5675373673, -0.0215701684, -0.2245924324, -0.3848194480, -0.6737027168, -0.2127419114, -0.1168505177, -0.3396219015, -0.4422985315, -0.3779294491, -0.0141983032, -0.2149707973, -0.3222824633, -0.0337272994, 0.2280166149, -0.0249130875, -0.0753581077, -0.1632132232, -0.0266494211, -0.1358426660, 0.0191969965, 0.0950069055, -0.0213328041, -0.0038788489, -0.0612647161, 0.1455032676, -0.7866768241, -1.0948054790, -0.6950936317, -0.0223373268, -0.1335400492, -0.1036639288, -0.2045115232, 0.0999705493, -0.0310102683, -0.1372652650, -0.0399803668, 0.0683263764, -0.1161712632, 0.1207652092, -0.0050385054, 0.1044228300, 0.0719512776, 0.1603774279, 0.1982506365, -0.0889969617, 0.0840111226, 0.0759729370, -0.0586027689, -0.1532421559, 0.1584559977, 0.2287262827, -0.1969581097, 0.2407052964, 0.2111023068, -0.2247959673, -0.2358250469, -0.0442454219, 0.0013875471, -0.1706602275, 0.0911296681, -0.0648643151, -0.0141251776, 0.1285538524, -0.0889318585, 0.0250894036, -0.2148078680, -0.1496589780, 0.2557978332, 0.2370041013, 0.2530637681, -0.0899485350, 0.0756663904, -0.0272991452, -0.1881959289, -0.0716417730, -0.0068834941, 0.1847396344, -0.2869687378, 0.0466267839, -0.1366159916, 0.1659503430, 0.2158073932, -0.1754755527, 0.0971840695, 0.1931731254, 0.1263990998, -0.1984500289, -0.1553126723, 0.0613463894, -0.2179907113, -0.0703480169, -0.1475420147, -0.2075757533, 0.3666397929, -0.1683824658, -0.0203396287, 0.1990040690, -0.2709683776, -0.4273462892, -0.2356560975, -0.1300778091, 0.1893681735, -0.0738663375, -0.1695328653, -0.0810950175, -0.3126291335, -0.6614863873, -0.5030519366, -0.2406784296, -0.0845466182, -0.2465169430, -0.1194146872, 0.2997293770, 0.1463925093, -0.0391894169, -0.2984607816, 0.0525217801, 0.1067457572, -0.0146315461, -0.4198669493, 0.2554751635, 0.2155545354, -0.1376222521, -0.2788383365, -0.1175255552, 0.1915180385, 0.1694560498, 0.1830313951, 0.2310937643, -0.0963209420, -0.0524869263, -0.3102650344, -0.4204164743, -0.2462242842, -0.8157644272, -0.4236779511, -0.4531148076, -0.0589812063, -0.3204555809, -0.3525169194, -0.3124029338, 0.0578234792, -0.5210730433, -0.1149733812, 0.0689040497, 0.2802121341, 0.1262636632, 0.0407876410, 0.2172504067, -0.1632558256, 0.1290080547, 0.2078948170, 0.0103542069, 0.0355239958, 0.0852299705, 0.0534518324, -0.2822345197, 0.1313941777, -0.0222062208, 0.1952694058, -0.5111619234, -0.4799093902, -0.5701874495, 0.0084561259, -0.2892373502, 0.0433662757, -0.1104778498, -0.2079397738, -0.4260230362, 0.0784269050, -0.0439200401, -0.0067182346, -0.0735781267, 0.0721593276, -0.0960312784, -0.2143906951, -0.0226770602, -0.3538886011, -0.2413419485, -0.0576349050, -0.2504390776, 0.0419300385, -0.4318647385, -0.2099107206, 0.3213891089, 0.3831942379, 0.0076032393, 0.4404772818, 0.2902743220, 0.0536427535, 0.2599849999, 0.3021113575, 0.1437873542, 0.0364254490, -0.1600394845, 0.1615282595, 0.3060260415, -0.7772325873, -0.7240064144, -0.5070943832, -0.0050709113, 0.1334377825, -0.4501544237, 0.1534586102, -0.3117795289, 0.0056515578, -0.8920308948, -0.0471301340, -0.0073788059, 0.3975016475, 0.1756174713, 0.2161976695, 0.2931721210, 0.1901205778, 0.0450047068, 0.2125732750, 0.3786668777, -0.1544530839, -0.7620711923, -0.1161885262, -0.0626386032, -0.3118671775, -0.2561056316, -0.4298293293, -0.5205383301, -0.5505752563, -0.1982264966, -0.2897159159, 0.1389978677, -0.5573587418, -0.7046250701, -0.4416042566, 0.0406710580, 0.0792746842, 0.0932668224, 0.1855690777, -0.4570870399, -0.4723932147, -0.7481657267, 0.1604128480, 0.0153747965, -0.9074270725, -0.6475194693, -0.1795903146, -0.4860974848, -0.3555981219, -0.7357581258, -0.2706567645, -0.1477232724, -0.2431414872, 0.3536390364, 0.3204186261, 0.3931592107, 0.0382878073, 0.3319024444, 0.2928188443, 0.2941600382, -0.2404012084, 0.0060169641, -0.3238354623, -0.1305819005, 0.0114223808, 0.2266468853, 0.2729228139, 0.3138077557, -0.2312855870, 0.1793878824, 0.1174938679, -0.1288269013, -0.0580187961, 0.1859807819, -0.0626638308, -0.3613313437, -0.2532087862, 0.0222937912, 0.0611313507, -0.5223497748, -0.4485868514, -0.0360098071, 0.0664618537, -0.4537402093, 0.0612986535, -0.0214517992, 0.0535528772, -0.2220054567, -1.2485094070, -0.6503620148, -0.6996648908, -0.7267657518, -0.4452729225, 0.0370649844, -0.5417158604, -0.4926483631, -0.6453036070, -0.2300059944, -0.3211636245, -0.4795671701, -0.4227284789, -0.1008384600, -0.4706327021, 0.0649638250, 0.0344979391, 0.0544872209, -0.0970812812, 0.2697866261, -0.2550542653, 0.0599569790, -0.1373217702, 0.0011234044, -0.0725706592, -0.2304166108, -0.1497263312, -0.0672969446, 0.2371480614, -0.0185118485, 0.1804021597, 0.0261275098, 0.1560301483, -0.1646953076, 0.1890648603, 0.1520883590, -0.1016284451, -0.2534576654, 0.0472522639, 0.1918508559, -0.0270075276, 0.0569152795, -0.1396345347, 0.0994467065, -0.0209701918, -0.1170441732, 0.0895424262, -0.1132709458, -0.0866760239, -0.1443034112, 0.1924258173, -0.1429138333, -0.1090840921, -0.0914799646, 0.1478587240, -0.0968400091, 0.1796132028, 0.0545233488, 0.1818939000, -0.1182383597, -0.0918755159, 0.2050304860, -0.1627493799, 0.0746542215, 0.1141899601, -0.2697099745, -0.1044199243, -0.1131880954, -0.0361043997, -0.1113746762, -0.0624515601, 0.0228577890, -0.1702591181, -0.7140792012, -0.4482578933, -0.2358298749, -0.9789342880, -1.0148276091, -0.6290874481, -0.6360269785, -0.0476151183, -0.3649719059, -0.4138372838, 0.0421449207, -0.2746511400, -0.7391182780, -0.5202018619, -0.3586265743, -0.0784266666, -0.1028594747, -0.1108061001, 0.0976165682, -0.1396949738, -0.0383874327, -0.1385965347, 0.1499291211, 0.1114336848, 0.1270871013, 0.0120405545, -0.0183302518, -0.0259566177, -0.3979887962, -0.3311229646, -0.0501005314, -1.3909956217, -0.8820590377, -0.6142128110, -0.3337823749, 0.1729727983, -0.2379689813, -0.0849674717, -0.1693926603, 0.3360313773, 0.1218374893, -0.2413492799, 0.2904930115, 0.1223265305, -0.0972322077, 0.0375390388, -0.0239160247, -0.2246249169, -1.0709726810, -0.1358805299, 0.2319094837, 0.0227679256, -0.0317302383, 0.1624268591, 0.2579614520, 0.1380385309, -0.0195994079, -0.0384410620, -0.1072816923, 0.1884450018, 0.1598404199, 0.0123343710, 0.1983548254, 0.2816634476, 0.1562368572, 0.0557135865, 0.0191870462, -0.0213430934, -0.2441047430, 0.1014713868, -0.0621498860, -0.1186157539, -0.2149197161, -0.2918670177, -0.5616968274, 0.1100833863, -1.0576901436, -0.9014347792, -0.5227622390, 0.1063925400, -0.3861731887, -0.2465242594, -0.4028551877, -0.4155361652, -0.2306004167, -0.3713017404, -0.7691063881, -0.6464618444, -0.3132408857, -0.1471198201, -0.0987820625, -0.8498614430, 0.0032857640, -0.0649698302, -0.0129749300, -0.0578581914, 0.3290017247, -0.0269686431, 0.1925393045, -0.0026004913, 0.1498582214, -0.1126476005, 0.0874888897, -0.9532557130, -0.8718681335, -0.5166124105, -1.0325444937, 0.0733602270, -0.2285480350, -0.2539211810, -0.1184558570, -0.4221695662, -0.7372829318, -1.0271105766, -0.4680339992, 0.1276755035, -0.1303637475, -0.1769864410, 0.1457775384, -0.2657458782, -0.4871344268, -0.0724777728, -0.2482455969, -0.1050187647, -0.2688312531, -0.0575833507, -0.0072699110, 0.0723387524, 0.0249646399, 0.1163609102, 0.1397656351, 0.1668956727, -0.0110273799, 0.1548452526, -0.0761247873, 0.2714157701, -0.1150282249, -0.0884870738, -0.1209330335, 0.2780286968, 0.1779544353, 0.0120508038, 0.0372915901, -0.0300876126, -0.1718110889, 0.2322600335, -0.2594654858, 0.0374075659, 0.2385877222, 0.0980486199, -0.2244143784, -0.2865722477, -0.8930994272, -0.2438705713, -0.4382554591, 0.1951314509, -0.3054103851, 0.1189139411, 0.2166438252, 0.2777330279, 0.0240598135, -0.2282558233, -0.0396829955, 0.1423366070, 0.0611508265, 0.2839436233, -0.0351494104, 0.2247393131, 0.2046091110, 0.0327619091, 0.0421451367, -0.1187593862, 0.0301174130, -0.2367062271, -0.1752365679, -0.5319150090, -0.1126527488, -0.4102198184, -0.1454966217, -0.7925780416, -0.4213803709, -0.3951261044, -0.3118950725, -0.1112626046, -0.2330178767, 0.0672933161, -0.1002973467, 0.1082769260, -0.1183259934, 0.0482318439, -0.0620805398, -0.0223001763, 0.4271149933, 0.1112953201, 0.1052213088, -0.0962952375, -0.1074826270, 0.3014486134, 0.2228310406, -0.0848886222, 0.0804654881, 0.0316836350, 0.1922634691};
#endif

#endif
