//Numpy array shape [1568, 32]
//Min -1.108603119850
//Max 1.459623098373
//Number of zeros 0

#ifndef W9_H_
#define W9_H_

#ifndef __SYNTHESIS__
dense1_weight_t w9[50176];
#else
dense1_weight_t w9[50176] = {0.0290560126, 0.0123617509, -0.0361127891, 0.2011291385, -0.1252303720, -0.0467991643, -0.1929298788, -0.0169542246, 0.1979808062, -0.0328100659, -0.0171588492, -0.1971020699, -0.0714071319, -0.1810525209, -0.1271943301, -0.0846846476, -0.0595630333, -0.0287871249, -0.0455755778, 0.0506469682, -0.3271826804, 0.1298695952, -0.0430203229, -0.0380868576, -0.0597234368, 0.0863504708, -0.0970824137, 0.0055076517, 0.1877332032, 0.0412087552, 0.1221236512, 0.1715609580, 0.0220456291, -0.1404804289, 0.0202938765, 0.0624049678, 0.2169402391, -0.0036049036, 0.1362875700, 0.0016882834, 0.0845345110, -0.0543232858, 0.0667859241, 0.3572762012, -0.0938959941, 0.1343871355, -0.1581627429, -0.0523960888, 0.0258143488, -0.0769490600, -0.0058427281, 0.2075267434, 0.0326077156, -0.0706981122, 0.0371993743, -0.2179260105, 0.0215443335, 0.0046425429, 0.1348655969, -0.0370286182, -0.1103502661, -0.0692309812, 0.1585811377, -0.0387521498, -0.0505784638, -0.0011596077, -0.0628490970, -0.0524267331, 0.1444987804, -0.0142114069, 0.0361059457, 0.0528663024, 0.1239264682, -0.0195141751, 0.0317053981, 0.0848691761, -0.0431625731, -0.0476816297, 0.0381541476, 0.0280074421, 0.0330246426, 0.0428077579, 0.0160009768, 0.0332590714, -0.0280596428, -0.0242535025, 0.0093394741, -0.0723400787, 0.0157707427, -0.1179052591, -0.0167692769, 0.0119929621, -0.0742256045, 0.2454002202, 0.2174659222, -0.0347032063, 0.0049581677, 0.0556602590, -0.0432264879, -0.0998237804, 0.0887470916, -0.0195561443, 0.0419389978, 0.0741140321, -0.0946340859, -0.0166516379, 0.1251477301, 0.0898810774, -0.0223828293, 0.0180939622, -0.0830745175, -0.0199239291, -0.0111009628, -0.0483732447, 0.0271862950, 0.0396824256, -0.0168211050, -0.1761967093, -0.0246064104, 0.1001810059, -0.1498771012, 0.0409773663, 0.0148176942, 0.0259798709, 0.0137473997, 0.0019664853, 0.0748769492, -0.0428031906, 0.0451784097, -0.2206715345, -0.0154482806, 0.3806700706, 0.1479344070, 0.0288660061, 0.3530136347, 0.1457208395, 0.0442381464, -0.0189798530, -0.0971542224, 0.3159617782, -0.0259580463, 0.2017402202, 0.0453871712, 0.0349535272, 0.0152995391, -0.0238873120, 0.0050116912, 0.1504236907, -0.2284912169, -0.1145044938, 0.0113169774, -0.1440281570, -0.0247269664, 0.0086881546, 0.0973797217, -0.0667028651, -0.0093140919, 0.1225638017, -0.0781630948, -0.0628659949, 0.2073686272, 0.0558213815, 0.0007644543, 0.0246083606, -0.1141838133, 0.0665279776, 0.0564980730, -0.0374282934, 0.0033074252, -0.0788950324, 0.0601828992, 0.0849077851, -0.0785495862, 0.1820656806, 0.0123488475, 0.0139936460, -0.0478468239, -0.0024311410, -0.0163866878, 0.1022887081, -0.0308017489, 0.0237314869, -0.0447258800, -0.0877399966, 0.0026367467, -0.0042547463, 0.0180003289, -0.0238905624, 0.1198973879, -0.0470247790, 0.0703192055, -0.0170691777, 0.2107970715, -0.1347258836, -0.0323636532, 0.1661888212, 0.0385184772, 0.2602536678, 0.3357334435, -0.1876343340, -0.0814840347, -0.0648988634, -0.0346885137, -0.0418334752, -0.0738254264, 0.1371882260, -0.0255393405, -0.0179830026, -0.1043452844, -0.0345937610, 0.0086148726, 0.4380706549, -0.1095133647, -0.2543185353, -0.0816764459, -0.1205461994, 0.1342025697, -0.1429371238, -0.0055623278, 0.0294572338, 0.1771124750, 0.0293676294, -0.1308064908, 0.0814858451, -0.0079928953, 0.0299760699, -0.0704339221, -0.0856930912, -0.0963349342, 0.1088940427, 0.2028502822, 0.0754148141, -0.1836686134, -0.0214537345, 0.1733859479, 0.0243541542, -0.0253133439, 0.1211564541, -0.0837870166, -0.0165705476, 0.0036556663, -0.0018121926, -0.0164780151, 0.1923272461, -0.0530350581, 0.0433727279, -0.0013702278, -0.0092116809, -0.1162574068, -0.0171307251, -0.0192326326, -0.0641162246, -0.0238751266, -0.0123715745, -0.0542410128, 0.0412122086, 0.0967420936, 0.0582652874, -0.0352883451, 0.0373948254, -0.1312021464, 0.0193936303, -0.1837105155, -0.0124594858, 0.2070319057, -0.0336702876, -0.1335823536, -0.0231811889, 0.0041912235, -0.0950876698, 0.1140917465, 0.0285231266, -0.1129447892, 0.0366623588, -0.0715335384, 0.2096824050, 0.0590447634, 0.0009240246, -0.0166605916, 0.0021813267, 0.0063743815, -0.0538354404, 0.0597771332, 0.0263696313, 0.0068457257, 0.0541203655, 0.1072617769, 0.0701860189, -0.0862308815, 0.0083197858, 0.0156967528, -0.0615239777, -0.1025694013, -0.1481165290, 0.0433134101, 0.0929773897, 0.0655105487, -0.0249080136, 0.0615427606, 0.2230288386, -0.0554073900, 0.0463397428, -0.1347751319, 0.0263931584, -0.0159314312, 0.0439748578, 0.0422746353, 0.1450823247, 0.1904029846, 0.0568379685, 0.0382053815, -0.0204613861, 0.1371457577, -0.0188748613, -0.0652434304, 0.0434869491, 0.0897793099, 0.0494163372, 0.0373752117, 0.0636932701, 0.0184770674, -0.0310999788, 0.0183181297, 0.1136004701, -0.0997262150, 0.0226383973, 0.0091613978, -0.0894501284, -0.0374489464, -0.0958303660, -0.1768942773, 0.0050568026, -0.0111808265, -0.2337247133, 0.2097981870, 0.0273929834, 0.0092910025, -0.0491766557, 0.0172412749, 0.2160025388, -0.0235483684, 0.0570564866, -0.0003916916, -0.0958091617, 0.0611084625, 0.0224276222, -0.0727341846, -0.0024284145, -0.0086881621, -0.1157092154, 0.2060280591, 0.0107386336, -0.0476529114, 0.0621743090, 0.0030478963, -0.0360462666, -0.0372063406, -0.0074617141, 0.0115830097, 0.0016198412, -0.0845204443, 0.0418261103, -0.0727045313, -0.0764305517, -0.0079285316, -0.1831676066, -0.0136324149, -0.0248555206, 0.0207766201, -0.0634688661, 0.0040015844, 0.1872593462, -0.0181831177, 0.1228602454, 0.0188172050, -0.0792055130, -0.1172225699, 0.0438333638, -0.1614707112, 0.0069897287, 0.1295316219, 0.0884848535, 0.0479025729, -0.1048675478, -0.0275506843, -0.1769315004, -0.0418214537, 0.1175443530, -0.1729639173, -0.0801435336, 0.1103439629, 0.1796424687, 0.0024611780, -0.0254759565, 0.0461611599, 0.3731787801, -0.0106493775, 0.1758525223, 0.0638312846, -0.0132605983, -0.0197371189, -0.0537820049, -0.0312763564, 0.1588151604, 0.0479234345, 0.0703985393, 0.0447086245, -0.0113821151, 0.1254326999, -0.1595298648, 0.3294253945, 0.0391788520, -0.0299945325, -0.0734983757, 0.0844817832, -0.1345555633, -0.0056902347, 0.0802000687, -0.0600398108, 0.0310139619, -0.0460705720, 0.0385776013, -0.0547663271, -0.0259116795, -0.0287347119, -0.0007940867, -0.0557658002, 0.0451005585, 0.0006881067, -0.0391494930, 0.1327505708, -0.0345151164, -0.0968674198, -0.0098265046, -0.0111415824, 0.1401653588, 0.1231302321, 0.0017273177, 0.0285281017, -0.0022834954, 0.0137857934, 0.0093368348, 0.0280389450, 0.0339478888, -0.0001780741, 0.0212972909, 0.1612034887, 0.0857261866, 0.0137369027, -0.0419089124, -0.0520003289, 0.0863067731, 0.0082732718, -0.0684021786, 0.1626695395, -0.1732329875, 0.1322163045, -0.0219192114, -0.0525404885, 0.0373802967, 0.0012830714, -0.1039917544, 0.1119867489, -0.0063833664, -0.0462256745, -0.0438476801, -0.0818545669, 0.2087745816, -0.1762999594, 0.0096421372, 0.0381785817, -0.0465417691, 0.0963128805, 0.0442991890, -0.0517048351, -0.0328095257, 0.0470362268, -0.0876239240, -0.0274799168, 0.0491591059, 0.0555930100, 0.0432542153, -0.0319411196, -0.0573626310, -0.0137516046, -0.0382515304, 0.1078246161, 0.0931293815, -0.1659093201, 0.0306440536, 0.0152414702, 0.0509481169, -0.0035156878, 0.0598864853, 0.0084768962, -0.0511218905, -0.0162032843, -0.0254989564, 0.0030645195, 0.2422259301, -0.1733108312, -0.0408103988, -0.0793179646, 0.0097241085, 0.0007171786, -0.0260956101, -0.0768737793, -0.0025341092, 0.1596297622, 0.1364219040, -0.0209968388, 0.0503776670, -0.0562327132, -0.0003322494, -0.0079340152, 0.0096352119, 0.1216484681, 0.1252182871, -0.0807832479, -0.0399607196, 0.1577586830, -0.0070517906, -0.0402383693, 0.0761392340, -0.0599761605, 0.0821666718, -0.0982228741, 0.0075609144, 0.0079836529, 0.0595826991, -0.0355710499, 0.1105813682, 0.1066339612, -0.1447516084, -0.0056534433, -0.2136136591, -0.0093298014, -0.0728761926, 0.1616001576, -0.0611508898, -0.0752642900, 0.0529665537, 0.0638817027, -0.0586678572, -0.0271353330, 0.1179014221, 0.0238607656, -0.1072572470, -0.0639422759, 0.0283678900, -0.0605594330, -0.0433846153, -0.0893605053, -0.0635018423, -0.0399637111, -0.0064379307, -0.0215705708, -0.1318219602, -0.0279108454, -0.0344022922, 0.0019758197, -0.0226638708, 0.0403761379, 0.0963164121, 0.0451229662, -0.0026843317, 0.0033755288, 0.0663118809, -0.0596563704, -0.1068457216, -0.0387437232, 0.0307958908, 0.0380366221, 0.0705202147, -0.0869840309, 0.1263130754, 0.0136638405, 0.0736476257, -0.0147187822, 0.0030083056, -0.1186487824, 0.0698176548, -0.0375116728, -0.1029715687, 0.1598044187, -0.1032110825, 0.0400990099, 0.0348465778, -0.0297600478, 0.0993137360, 0.0912421420, 0.0018773959, -0.0018412402, 0.0052033300, -0.0290991329, -0.1134344116, -0.0199593529, 0.0146590024, -0.0511957705, -0.1172105297, -0.0670804903, 0.1142812595, 0.0571132340, 0.0139326416, 0.1790695190, -0.0298399832, 0.0836765394, 0.1152285188, -0.1481117308, -0.0182581190, -0.0424928293, 0.0014899123, -0.0386065878, 0.0682843328, -0.1514250636, -0.2301881313, 0.0668084100, -0.0558769777, 0.0188719537, -0.2100495845, -0.0594884753, -0.1392964721, -0.0078001870, -0.0424074978, 0.0192607343, -0.0223735347, -0.0278697349, 0.1824424416, 0.0892294124, 0.3156789541, 0.0156007120, 0.0563334301, 0.0402664170, -0.0400517136, 0.0994953811, -0.0196410865, -0.1233179569, -0.0001806239, -0.1554951966, -0.0337858684, -0.0335317999, -0.1771670282, -0.0565888137, 0.0140503217, -0.0724826604, -0.1106168702, 0.0548864007, 0.1521354467, 0.1861565709, 0.0110875657, 0.0043391176, 0.3592702448, -0.0976490155, 0.3201731741, 0.0642414987, 0.0234789662, -0.0044735186, 0.0107681956, -0.0028858266, -0.0474847369, 0.1987702996, -0.2038694918, 0.0408090390, -0.0638009533, -0.0962799117, -0.0439966954, 0.1182247922, -0.0358693488, 0.0169965196, -0.0047931415, 0.1852226108, -0.0045093033, 0.0247076340, -0.0115749668, -0.0360549316, 0.0372099131, -0.0307691656, 0.1298154593, -0.0376312174, -0.0224811044, 0.1016112491, -0.0041533033, 0.0907384381, 0.1004722416, 0.0023000746, -0.0547949336, 0.1125102267, 0.0215159822, -0.0750864446, -0.0176053215, 0.0043412293, 0.0340095386, 0.0973884389, -0.0728829354, -0.0699087828, 0.1403508484, 0.0749329031, -0.0191340614, -0.0330581404, -0.0534914508, 0.1159849912, -0.0280104168, -0.0756507814, 0.1008348912, -0.0079706833, 0.0740140527, 0.0572519712, -0.0424870700, 0.0189995561, 0.2250404656, -0.0499353819, -0.0042509381, 0.1302721798, -0.0379945152, 0.0024571479, -0.1517626196, 0.0173740499, -0.0881337002, 0.1593882591, 0.0522940308, 0.0012343253, 0.0441077091, 0.0103089605, -0.0441021845, -0.2384512722, -0.1250227541, 0.0279546548, -0.0474038012, -0.0551933646, -0.0898957551, 0.1085954979, -0.0208893344, 0.3199475706, -0.0144621721, -0.2000969499, 0.0723839626, -0.0300222356, -0.0495300777, 0.0162743013, -0.0569023490, 0.0759190619, 0.0155866714, 0.0382896587, -0.0283086263, -0.1450746804, -0.0164384432, 0.0381766297, -0.1035755277, -0.0442540236, -0.1619871408, 0.1749519259, 0.0211480372, -0.0038943009, -0.0696467012, 0.0258380398, 0.1475683004, 0.0526746176, 0.0060877907, -0.0060106530, 0.0625107586, -0.0356320217, -0.2057117373, 0.0663702935, -0.0244942661, -0.0414664112, -0.0410457887, -0.0527628027, 0.0881239921, 0.0137161966, -0.0928144231, -0.0357236899, -0.1107094809, 0.0054529863, -0.1407502890, -0.2150112391, -0.1014301106, 0.0748408362, -0.0227913093, -0.0403113365, 0.0781538785, 0.0414740853, 0.2046168298, -0.1278125197, -0.0170971937, 0.0053983307, 0.0573709644, -0.0319944769, 0.1688857824, 0.3568913043, -0.0140603138, -0.0599562153, -0.1867680550, 0.0452709049, 0.1522584707, 0.2167651057, 0.0583675317, -0.0758981928, 0.1479099095, -0.0259470083, 0.3270072639, -0.0815381706, 0.1475290805, -0.0100126769, 0.0630141944, 0.1001612246, 0.0380217992, 0.0130115924, 0.0597527698, 0.0809580088, -0.0560574271, 0.0647639185, -0.0166880619, 0.0211770106, -0.0399217829, 0.0324869975, -0.0692133680, -0.0363079347, -0.0050471509, -0.0204322971, 0.1671459377, 0.0122439545, 0.0117807128, -0.0538066924, 0.1111755744, -0.1029389203, -0.0315126926, -0.0494235717, -0.0091771735, 0.0020364714, 0.0007942013, -0.0939911753, 0.0405741856, 0.0212812684, -0.0488195308, -0.0089160483, 0.0619772747, -0.0546981357, -0.0416314900, -0.0191117581, 0.1861230135, 0.0573767014, -0.0603850223, 0.0321116783, 0.0877400935, -0.0713330135, -0.1858860254, 0.0419965424, -0.0502234325, 0.0025032104, -0.0416432880, 0.0281761531, -0.2853004932, -0.0716480911, -0.1494297087, 0.0032911766, -0.0167696755, 0.0237989984, 0.0319271535, -0.0748514161, -0.0314704068, 0.0152125685, 0.0127750598, 0.0304441229, 0.1591628194, -0.0318025835, -0.1799418479, 0.0360949114, 0.1123760194, -0.0287074260, 0.0227053314, -0.1037258282, 0.1356272548, 0.0466379896, 0.0063883108, -0.0132981082, -0.0637000948, 0.0456511565, -0.0033274221, 0.0515395626, -0.0168913398, -0.0182205979, 0.0229309108, 0.0128144836, -0.0614486337, 0.0158763435, 0.1389642805, -0.0643615350, -0.0154351015, -0.0062048296, 0.0625236854, -0.0282057375, -0.0554685146, -0.0863864943, 0.0465749614, -0.0127700455, -0.0557069890, -0.1011349335, -0.0139278993, 0.0193383992, -0.0510523207, 0.0586453788, -0.1440620869, -0.1500364393, -0.0446332470, -0.1534597725, -0.0534908511, 0.0915927216, 0.0573057681, -0.0682039782, -0.1902030557, 0.3725462556, -0.0465549976, -0.0582807213, -0.0239445660, 0.0307186041, 0.1288254410, 0.0650659949, 0.0879589543, -0.0329088792, 0.0055236598, 0.2821367383, -0.0776789337, 0.2390567809, -0.0027400907, -0.0590061061, 0.1297188997, -0.1154521927, -0.0256796889, 0.1400067955, -0.0041717310, -0.0287485737, 0.1501204073, 0.0152336769, 0.0314554237, 0.0344406106, 0.1237117425, -0.0232164264, 0.0131371068, -0.0849459767, -0.0026242114, -0.0796005502, -0.0719779059, -0.0404728614, -0.0660822392, -0.0682292059, -0.0373620056, 0.0027287463, -0.0950416550, -0.0045829178, 0.0227792412, -0.0273901615, -0.0265249852, 0.0610582568, 0.0628838986, -0.0073734880, 0.0354664735, 0.1016756147, 0.0470084362, -0.0398778021, 0.0322775468, 0.1693528593, -0.0222970229, -0.0029557310, 0.1343419999, 0.0687536001, 0.1395285875, -0.1642537415, -0.0480837487, -0.1495507210, 0.0163332112, -0.1610357463, -0.1448895931, -0.0735919699, -0.1361474991, -0.2677790225, 0.0289095044, -0.0189100020, -0.0157425255, -0.0087329308, -0.0667780414, -0.0045127966, -0.1129004434, 0.0127349366, 0.0685896203, 0.2183169723, 0.1053571030, 0.0942736417, -0.0038573891, 0.2227943093, 0.0159427598, -0.0826373175, 0.0295346975, -0.0585079268, 0.1419217885, 0.0156073831, -0.0212630723, 0.0394816510, 0.1120602041, -0.0317581594, -0.0216395427, -0.1116204187, -0.0165449064, 0.0303296652, 0.0913210958, -0.0890758485, 0.0816795304, -0.0222842600, 0.0032505116, -0.0031735648, -0.0744809136, 0.0280549470, 0.0069175730, -0.0465170033, -0.0415464006, -0.0961126387, 0.1521495730, -0.0774423555, -0.0164750647, -0.0157800261, -0.0294911265, 0.1124802679, 0.0615876801, -0.0631741360, 0.0378622599, 0.0987270623, -0.0553972013, -0.0369232930, 0.0037190835, -0.0537992828, -0.1350473166, -0.0232618265, -0.0517818630, 0.1038075015, -0.0899259970, 0.1415827721, 0.0227733850, -0.0137263387, 0.1471045911, -0.3008931577, -0.0517831594, -0.0105454652, -0.0464634188, -0.0552547053, 0.0506922714, 0.1430925429, -0.0086799311, -0.0104272515, -0.1140461266, -0.0452058092, 0.1936627328, 0.2142370194, -0.0525838956, 0.0148729766, 0.0454421639, -0.1099080294, 0.3130647838, -0.0854918733, -0.0304170698, 0.0447924212, 0.0099421022, 0.0919608176, -0.0907663330, -0.0095028421, 0.1903232634, 0.0036720324, -0.0398219489, 0.0557592064, -0.0563908778, -0.0307403207, 0.0252135471, 0.0292036626, 0.0242176596, -0.0186830647, -0.0671986565, 0.0432554595, 0.0335125066, 0.0584732406, -0.0960473120, 0.0166605618, -0.0405082218, -0.0549606383, -0.0713600963, 0.1237006411, 0.0390771702, 0.0403787419, -0.0213971529, -0.1392852217, 0.0225465838, -0.0187336318, 0.0128874909, -0.0063243420, 0.0271930620, 0.0505628325, 0.0053924546, -0.0529430956, 0.1031902954, 0.1204574183, -0.0492743924, 0.0422195271, 0.1140788496, -0.1023906320, -0.0967564210, 0.0331016295, 0.0358709767, -0.0137247099, -0.0369202048, -0.0319832973, -0.2352210879, -0.0729008019, 0.0639763698, -0.0529457740, -0.0781975538, 0.0019035459, -0.0655331910, -0.2158661485, -0.0622163191, 0.0624259859, 0.0002244225, -0.1048461571, 0.0352382921, -0.0690162778, 0.0208950024, 0.0089020655, -0.0499501452, 0.0630237088, 0.0366137139, 0.1226133555, -0.0611509867, 0.1464013904, -0.0619077235, 0.0026375572, 0.0670907199, -0.0918870345, -0.0169332922, 0.1737544239, 0.0064779576, -0.0258362666, -0.0355737172, 0.0404144712, -0.1019587219, -0.0734560713, 0.0932848155, -0.0362930596, -0.0839429870, 0.0336012989, 0.1324784458, -0.0359934755, -0.0186103042, -0.0155295562, -0.0444165990, -0.1701385230, 0.0318089649, -0.0419632345, 0.1472109258, 0.0410345979, 0.0820812806, 0.1068877801, 0.0231817495, 0.0457365066, 0.0780581459, 0.0029747605, 0.0169139635, 0.0966777653, -0.0028197593, -0.0113786561, 0.0417508408, -0.0957273692, 0.0054165698, -0.0073599555, -0.0541570671, -0.0486838594, 0.2571816444, 0.0778580755, -0.0198393054, -0.0157518331, -0.0347155258, 0.1661405861, 0.0582846403, 0.0599308573, -0.0649834275, 0.0079426942, 0.0663713440, 0.1263122112, -0.2166490853, 0.0637278035, 0.0376989096, -0.0363581777, 0.0991476998, 0.0623114780, 0.1286897361, 0.0350854173, 0.0222288258, -0.0216623135, 0.0128896534, -0.0157172512, 0.0257540159, -0.0241369158, -0.0897821337, 0.0072510466, -0.0286618136, -0.0086399335, -0.0753467828, -0.0186852925, -0.1022752374, -0.2295838743, 0.0508392192, 0.0251850449, 0.1185323372, -0.0192404017, 0.1375498921, -0.0578004569, 0.0164664835, 0.1344016939, -0.0495676808, -0.0956369713, 0.0501263179, 0.2515214682, 0.1010295451, -0.0633615702, -0.0026492369, -0.0194801297, 0.1888652891, 0.2136497349, 0.0235574022, -0.0000728667, -0.0513764173, -0.2653132379, -0.0588965528, -0.0577398427, -0.2859501243, -0.3230461180, 0.0259686336, -0.0721103400, 0.0090590231, 0.0114233717, 0.0550788715, -0.2063648999, -0.0168425273, -0.0695591718, -0.0885333270, 0.4377852976, -0.0294895805, 0.1359482110, -0.0098000243, -0.0881694332, -0.0771577805, -0.1403116882, 0.0944746956, 0.1363274008, -0.0672231689, 0.0408551097, 0.1647205502, 0.0617144108, -0.0329768211, -0.0412854403, 0.0430786982, -0.1170808375, -0.0642885491, -0.0703593493, -0.0403023474, -0.0678368360, -0.1380974650, 0.0298707802, -0.0624218620, -0.0805605054, -0.0513400361, -0.0519856885, 0.1195014790, -0.1509953439, 0.0661494434, -0.0071878983, -0.0984175578, 0.0049518012, 0.0525212362, 0.0066871014, 0.0248292983, 0.0443381183, -0.1417882442, 0.0125856996, -0.1624645293, -0.0075300443, 0.0113306679, -0.0321140364, 0.0295355618, -0.0105204452, -0.0326317437, 0.0139843710, 0.0208889805, 0.0809809789, -0.0082405284, 0.2870004475, 0.0495327748, 0.0598964579, 0.1710941792, -0.2605234087, 0.0513343364, -0.0865061507, -0.0311444141, -0.0760661066, 0.2794693112, 0.3426391482, -0.0196996965, 0.0259283595, -0.0985545889, 0.0937209204, 0.0935997516, 0.1639747769, -0.0358954445, -0.0352389477, -0.1354977340, -0.0214709397, 0.2529379725, -0.0313355401, -0.0413269065, -0.0523606539, 0.1605660170, 0.0107844360, -0.0241363738, 0.0865873918, 0.1326773018, 0.0583099052, 0.0042262846, -0.0279934723, -0.0792838261, -0.0621189214, 0.0510647185, 0.0069341962, -0.0065235505, 0.0185864419, 0.0105631761, -0.0038683848, -0.2068775147, 0.0262618288, 0.0481686294, -0.0666706115, -0.0780527964, 0.0601744242, 0.1411780119, 0.0515281074, 0.0479067862, -0.0448845327, -0.1009606495, -0.0476791374, -0.0143206809, -0.0729108155, 0.0393814817, -0.0289243124, 0.1115023866, 0.0230816007, 0.0552919880, -0.1296430826, -0.0392433517, -0.0083407043, -0.0239504185, -0.0221914016, 0.0118731949, -0.0177552439, -0.0823139325, 0.0213507898, 0.0068467520, -0.0939788595, 0.0384825394, -0.0008853066, -0.1919469386, -0.0923912078, 0.1265506297, -0.0118598323, -0.0531742424, -0.0744905993, 0.0370752215, 0.0577759519, -0.0228211973, 0.0757018328, 0.0049114139, 0.0456257202, 0.1621720046, -0.0603728890, 0.3502959609, -0.0102644879, 0.0315349996, 0.0081192665, 0.0894070864, -0.2014273554, -0.1180634275, 0.0079109436, -0.0569512919, -0.1733864248, -0.0202538855, -0.0550716855, 0.0013005350, -0.0680762529, -0.0132334242, 0.0156706031, -0.0063639591, -0.0252230894, -0.3036702871, 0.0613666028, -0.0440939479, -0.0010088078, 0.0086126663, -0.1250050515, 0.0103256805, -0.0031682793, 0.0435665324, 0.0129452553, -0.1576388627, 0.0239083469, -0.1196450889, 0.1199878603, -0.1539161056, -0.0260344874, -0.1849588156, -0.0713991821, -0.0859652832, 0.0103197228, 0.1747120917, -0.1454207301, -0.0690416247, 0.0421581604, 0.1150120944, -0.0064529600, -0.1542778462, -0.1637834758, 0.0383165367, -0.0657686293, -0.0265858732, 0.0131680379, 0.2333614081, 0.0099257389, -0.1087866873, 0.0556155890, -0.1532189399, 0.0376698896, -0.1748297065, 0.0500223264, -0.0625792742, -0.0024903114, -0.0721791834, 0.1588142961, 0.0145793697, 0.2128681839, 0.2112411857, -0.0102612237, 0.0914228410, 0.0340399146, -0.0369482860, 0.0497221015, 0.0366551541, 0.0437553972, -0.0495411120, -0.1266836226, 0.0304725841, -0.0052534891, 0.0628914312, -0.0256204810, 0.0336222537, -0.0419874564, -0.0672613531, -0.0367752425, -0.1374193430, -0.0034687216, -0.0235919524, 0.0593748018, 0.0587596036, -0.0901132450, 0.0686900616, 0.1111102402, 0.0472527631, 0.1604641825, -0.0740829855, 0.0075838207, 0.0505798832, -0.0137334876, 0.1224421188, -0.0634292513, -0.0038134218, 0.1481136233, 0.1708265692, 0.0781738535, 0.0741879717, -0.0096414778, -0.0296025909, -0.1715269238, -0.0324568637, -0.0804815963, -0.2882114649, -0.1126939505, -0.0506483354, 0.0208071303, 0.0440838672, -0.0023921884, -0.1592795700, -0.0524687953, -0.1051491052, -0.0204066262, 0.0649777576, 0.2699139714, 0.0692185387, 0.0480231307, -0.0565103292, -0.0033787480, -0.0644709542, 0.0027691713, -0.0337640196, 0.0853005052, 0.1526744813, 0.0131397434, 0.0859196484, -0.0028468024, 0.1226427257, 0.1883922219, 0.0191829726, -0.0649976432, -0.0269616153, -0.0617030747, -0.0712659433, -0.0868022516, -0.0310017448, 0.0542272143, 0.0254354123, -0.0801829696, -0.0266914982, -0.0045790416, -0.0192376934, -0.2122310847, 0.0618530214, -0.0139471861, 0.0678905994, -0.0119746346, 0.0065847533, -0.0139064826, 0.0038093443, 0.1033617929, -0.0141780609, 0.0008584143, -0.1629932821, 0.0992992446, 0.0734737888, -0.0521595143, -0.0337016620, 0.0806466118, -0.0219974630, -0.0842643827, -0.1280965209, 0.0612226240, -0.0821969360, -0.0261136908, 0.2266605198, 0.0223799907, 0.1799184084, -0.1269705892, 0.0077164066, 0.0101758419, -0.0202852264, -0.0156416222, 0.0386420116, 0.4258598387, -0.0344874710, -0.0125005310, 0.0724197477, 0.3059242666, 0.0448050164, 0.2895618081, 0.0511474945, 0.0248686634, -0.0517177097, -0.1117560491, 0.1516844630, 0.0309186168, -0.1567146629, -0.0472074449, 0.0250829849, 0.0445148684, -0.0150098465, 0.0816484913, -0.0174735263, 0.0092168571, -0.0733620450, -0.0257554818, -0.0586736947, 0.0441517085, 0.0622812510, 0.0639657378, -0.0719716996, -0.0427654572, 0.0208562594, 0.0225098711, -0.2630200982, 0.0895657986, -0.0331803486, -0.0616261549, -0.0765243992, 0.0293962508, 0.1087436005, -0.0128402943, 0.0320696011, 0.1194504350, -0.0398315229, 0.0011835521, 0.0081805307, -0.1117886305, -0.0308532026, -0.0667945445, -0.0196953993, 0.0575940944, -0.0687656477, -0.1134565100, -0.0157158691, 0.2315006703, -0.0238898825, 0.0767508373, 0.0043370882, -0.0423424356, 0.0726532787, 0.1588784307, -0.0574292019, -0.0066138422, -0.0441339053, -0.0115016801, -0.2240224928, 0.1455834359, -0.1147586927, -0.0137912072, -0.0527478047, 0.0267987791, 0.0626145750, 0.0127756083, -0.0434446931, -0.0064681028, 0.0693115443, 0.0838960707, -0.1038211137, -0.1102717370, -0.1112831682, -0.0570727028, -0.0935854912, -0.0912337527, -0.0252626594, 0.1592794657, -0.0292333364, -0.0414856821, -0.0449554548, -0.1007936001, -0.0330197662, -0.0659085661, -0.2428427637, 0.0952798054, -0.0686026961, -0.0281738862, -0.0296637602, 0.0158008132, -0.0895782262, 0.0996154845, -0.0665738136, -0.0011646440, 0.1242536902, -0.1145913675, -0.0495068654, -0.1304753423, -0.0553110205, -0.0941348225, -0.0765192881, 0.0476074927, -0.0641646162, -0.0908799917, 0.0552289560, -0.0214589778, -0.1698088646, 0.3267228901, 0.0946067050, 0.0497681163, 0.0796925500, 0.1754860282, -0.0434663706, 0.0101431347, 0.2321820706, 0.0177526269, -0.1682910323, -0.0537114553, -0.0386847183, -0.0115464665, 0.0451367833, -0.0375702530, 0.0381376743, 0.1462550759, -0.1858339906, -0.0445323847, -0.0010077222, 0.0806228071, 0.1352359504, -0.0760766193, -0.0684626028, -0.2142618001, 0.1399036497, 0.1344886869, -0.1855889857, 0.0626248494, -0.0519856140, -0.0759492069, 0.0551842637, 0.0441765450, -0.0170913525, 0.0220312886, 0.0800541490, -0.0099036265, -0.0154762017, -0.0934675038, -0.0104380464, 0.0163486619, 0.0158961695, 0.0840836391, -0.0128600337, -0.0796730220, 0.0220157765, -0.0367875285, -0.1018512473, -0.0858542174, -0.0559443794, -0.0195187461, 0.0769039765, -0.0013019163, -0.0172807518, 0.0587773472, 0.0452501774, -0.0157354660, 0.1330911368, 0.1727426946, -0.0520976260, 0.0325548500, 0.0550673828, -0.0383012258, -0.0998889506, -0.0350861177, 0.2301740348, -0.1972473860, -0.1612791121, 0.0531717055, 0.0344949029, -0.1344211996, 0.2047687173, -0.0407873914, -0.2447722703, 0.0137278521, 0.0360972844, 0.0186944045, -0.0177073926, 0.0542454310, 0.0870706588, -0.0518945754, 0.0472026989, -0.0346788056, 0.0187008362, -0.1404348910, 0.0531003289, 0.3358257711, -0.0544191711, -0.1006695181, 0.0400597900, 0.0296005271, -0.0563429110, 0.1228827685, -0.1522114575, 0.0490987562, 0.0193418656, 0.0665760860, 0.0485443510, 0.0847401470, 0.0202737004, -0.0336441547, -0.0217878129, -0.1640814692, 0.0501684509, 0.0427829325, 0.1062221155, 0.0549988858, -0.0050639124, 0.0143786762, -0.0710657388, -0.0018182223, -0.2360446751, 0.0796117708, -0.2090801299, 0.0208556168, 0.0007789925, -0.1553168893, 0.0947360620, 0.0231396966, -0.0452236086, 0.1182117686, -0.0616111308, 0.0286255535, -0.0670713782, 0.0193555225, 0.0524498671, 0.0257403515, 0.1648074687, 0.0588217042, -0.0121320440, -0.0637978017, -0.0401633829, 0.1732467711, 0.0225803796, -0.0619773157, 0.1821833849, 0.0227142908, 0.1700089425, -0.1452894509, -0.0437270813, -0.0315520428, 0.0589916445, 0.0185559858, -0.1020073071, 0.3235402703, 0.0861175135, 0.0566521995, 0.0446236953, 0.2658495903, 0.2215579301, 0.1273078024, -0.0522361659, 0.0023844573, 0.0069268951, -0.0905007049, 0.0798959136, -0.0099261701, -0.1532979608, -0.0202015638, 0.0170938708, -0.0866056830, -0.0636563897, -0.0063421694, 0.0724197403, -0.0684936494, -0.0020327549, 0.0635482967, -0.2173946202, -0.0346159637, 0.0121281669, 0.0359908864, -0.0561669394, -0.0813715011, 0.0444576479, -0.0083440309, -0.2872132659, 0.1673779637, -0.0236504804, -0.0589661859, -0.1926650703, 0.0557331480, 0.0014709408, -0.0563719459, 0.0324329361, -0.0597190000, -0.0259003323, 0.0833980814, 0.2380429506, -0.0761531666, -0.0975705162, 0.0373907425, 0.1161371693, 0.0591100082, 0.0858403593, -0.0742408410, -0.0118078040, 0.0104307476, -0.0414526574, 0.0635619685, 0.0973428264, -0.0591489114, 0.1623135805, -0.0134688774, -0.0108013777, -0.0415847749, 0.0316299647, 0.0117155612, -0.0989443585, -0.1811355054, -0.1836779416, -0.0384216197, 0.0984109938, -0.0541345216, -0.0570107624, -0.0869952366, -0.0150006851, -0.0682485774, 0.0638894439, 0.1645594090, 0.0348139443, -0.0273115952, -0.1475010365, -0.0078096655, -0.0598408282, -0.2162598222, 0.1665293127, 0.1081923991, -0.1003897190, -0.0919133946, -0.0591241643, -0.2819318175, 0.0430447608, -0.0075173834, -0.1596609205, -0.0512363352, 0.0299691539, -0.0398833901, -0.0129399281, -0.0116078807, -0.0562078580, 0.1373880506, -0.0412255935, 0.0548984781, -0.0461871922, 0.2323843986, 0.0363797471, 0.0340764336, -0.0064710835, -0.3882738948, 0.0680558830, 0.2737284303, 0.0127653135, -0.1855947822, 0.1864585429, 0.0365529954, 0.0173951201, 0.1944708675, 0.0626437664, -0.2096171528, 0.1185975149, 0.1265872568, 0.0216153972, 0.1503788233, 0.1996978819, -0.0257780310, -0.0847663209, -0.0138850408, 0.0037736003, -0.0239850674, -0.0274827853, -0.0062007792, -0.0791758075, 0.0186755843, 0.1647189856, -0.0430827960, -0.1043728217, 0.0477505587, 0.1266456842, -0.0886109173, -0.0344279446, -0.3273066878, 0.1867595166, 0.0767453685, -0.0321507901, -0.0189831033, -0.1111470163, 0.0335043147, 0.0564289652, -0.0093781082, 0.0631763488, -0.0443730243, 0.0051528085, 0.0089020375, -0.0320451669, -0.0779491588, -0.0637620017, -0.0260948967, -0.0101455972, 0.0393783711, -0.0618367419, -0.0262786597, -0.0305884946, -0.0660260990, -0.0705110505, -0.0246475302, 0.0166098662, 0.0220943484, 0.1737855375, 0.0894263834, -0.0312367193, -0.0573125221, 0.0122546069, -0.0560044013, -0.1218438745, 0.0572390892, 0.0018830487, -0.1243967563, -0.2436870486, -0.0045359731, -0.0599386543, 0.1030289680, -0.0099530304, 0.1462676227, -0.1481895298, 0.0457215793, -0.0178595111, -0.1844996661, 0.0367190577, -0.0381128527, 0.0460449345, 0.1553173512, 0.0308057684, 0.0529328547, 0.0168301873, -0.0373242870, 0.2363729626, -0.1180660129, 0.1525773108, -0.0105682798, 0.2852675319, 0.2183013707, -0.1825609952, -0.1681274623, -0.0464917421, -0.0528782941, 0.0081738019, -0.1649172455, -0.0989078879, 0.1450688988, -0.1162251085, 0.0145904189, 0.0260359831, 0.0429929197, 0.0211486369, 0.0048907679, -0.1178436577, 0.0340549499, -0.0215651765, -0.0558622666, 0.0118640801, -0.0038125217, 0.0998127460, 0.0732881501, -0.0905378014, -0.0763970092, 0.0241126530, -0.0180319306, -0.1169070005, 0.1368312687, -0.0276100002, -0.0561896339, 0.0794335753, -0.0293635968, -0.0893911421, 0.0817828104, 0.0034452525, -0.0307062492, -0.1016621441, 0.0838699043, -0.1977392137, -0.0010060256, 0.1403697431, 0.0514732935, 0.1419640779, -0.0620160699, 0.1318619847, 0.1296128035, -0.1579231918, 0.1904639155, -0.0677466318, -0.0776588991, -0.1221176758, -0.0448522270, 0.2209221274, -0.1335936189, -0.0447319821, -0.0655347556, 0.0142487474, -0.0468365327, 0.1452366710, -0.0027433969, 0.1334362030, -0.0315449685, -0.0634626523, 0.2056592405, 0.0641944632, 0.0662249997, -0.0005291663, 0.0477549434, 0.0860612988, -0.0922312364, 0.0989469290, -0.0906405896, -0.1614744812, -0.0088453731, 0.0503013954, 0.2002598196, -0.0940722972, 0.0263384711, 0.0831335708, -0.0082712993, -0.0107767219, 0.0459705032, -0.1136055291, -0.0478603914, 0.1020223126, 0.0288328677, 0.0269427933, -0.0410212465, -0.0006409853, -0.0227277726, -0.1594927758, 0.1182842031, -0.0059766578, -0.0635542348, -0.1685545295, -0.1841620654, 0.0592569634, -0.1397250742, -0.0338716060, -0.0644065887, -0.1322601438, 0.0262566414, 0.0979299694, 0.0567023158, -0.1590607166, -0.0341778137, 0.1531725526, -0.0371997915, -0.0671261773, -0.0569840185, 0.1881203800, 0.1594024897, -0.0551164486, -0.0950234905, -0.1001138538, 0.0099503463, 0.0396135859, -0.0657143742, -0.0398416929, -0.0616138093, -0.0079420218, -0.0277280211, 0.1035420150, -0.0268952139, -0.1202223003, -0.0459610261, 0.1350203007, 0.1539306790, 0.0041719084, -0.1092772111, -0.0083492827, 0.0338499025, -0.0545456074, -0.0121142045, 0.0626927018, 0.0171287600, -0.0454072654, -0.0640513897, 0.2975803614, 0.0081224218, 0.0799926668, 0.0090006236, 0.0166277867, 0.0510364920, -0.0622225590, -0.0523596294, 0.0119414646, 0.0336513519, 0.0391697884, 0.0101726241, 0.0412297025, -0.0366029404, -0.0060127974, 0.0295099970, -0.1933694482, -0.0496913902, 0.2645417750, -0.0584093817, -0.1294276118, -0.0527841821, -0.0193035528, -0.0980147421, -0.0245785099, 0.0032768075, -0.0141545534, 0.0745901763, -0.0668466538, 0.1121700332, 0.0813955963, 0.0266474728, 0.1309498101, -0.0581320077, -0.0118137859, 0.0807784870, 0.0341614522, -0.0053255982, -0.0700486973, -0.2003437132, -0.2300745994, -0.0123105701, 0.1027219594, -0.1729545146, -0.0465445705, -0.0464610569, -0.0194658730, 0.0418010354, -0.0736109912, 0.1594080329, -0.0819950849, -0.0502189621, -0.0961914957, 0.0349244066, 0.0072479136, -0.2049878538, 0.0401943736, -0.2083304375, 0.2378937900, -0.1843162477, 0.2385757565, 0.0378865488, -0.0467502773, -0.0611970872, 0.1081885546, -0.0199155193, 0.1938385665, 0.0015096987, 0.0361666456, 0.0009937428, -0.0494132750, -0.0407659858, -0.1233384535, 0.0235678907, -0.0731234774, -0.0428394526, -0.0930164307, -0.0639280304, -0.0343645252, -0.0203184672, 0.0614901483, 0.0379371569, 0.0597854517, -0.0105502754, -0.0027769851, 0.0789387524, 0.0392515957, 0.0191231444, -0.0151607310, 0.0023859029, -0.1006663218, 0.1384137571, 0.0434984341, -0.0354334489, -0.1713932008, -0.0561426990, 0.1549925059, -0.2953659594, 0.1465218067, -0.0083725378, -0.1928394884, 0.0803703740, -0.0264498908, -0.3710702360, 0.1453547925, -0.0092319623, -0.0308267307, 0.0396414064, 0.0304274559, 0.0056087677, -0.0277264453, 0.0031448069, -0.0182034168, -0.1934172809, 0.1652919799, -0.0219208188, 0.0539856255, 0.0641499981, -0.1747744828, -0.0826462656, -0.0021655895, -0.2174000293, 0.0067500388, 0.0692463368, -0.0013562230, 0.0626047999, -0.0355822779, 0.0058948915, -0.0287708733, 0.0565525144, 0.1597172767, -0.1396135688, -0.0379111841, 0.1168073490, 0.0247781463, -0.1218662485, 0.0493752100, -0.0226169601, 0.0986909792, 0.1001887619, 0.0105608888, -0.0395611376, -0.0543245077, -0.0122735007, 0.0103040840, -0.0651207343, 0.1144333854, -0.0979334787, 0.0330584086, 0.0388349108, -0.1293805987, 0.0189508274, 0.0187135004, -0.1647516787, -0.2105391175, 0.0228308123, -0.0218688101, 0.0369863287, 0.0746374130, 0.0603185631, 0.2085420489, 0.0339471437, 0.0158178583, 0.0139227845, 0.1401182264, 0.1251280904, -0.0389550328, 0.0498809591, 0.0524541102, 0.0381046720, -0.0127712879, -0.0857497826, -0.0046134321, -0.0669830963, -0.0152889565, -0.0797741190, 0.1134888306, 0.0919287428, -0.1039132178, 0.0502073132, 0.1054139063, 0.1945741773, 0.0511052012, -0.0322210714, 0.0178142078, -0.0479998291, 0.1319595873, 0.0119002322, 0.1674031019, 0.0074771009, -0.0268869251, -0.0212454554, 0.1001158059, 0.1445389837, -0.1010513231, 0.0606213175, -0.0067706462, 0.0457138047, -0.0197835490, -0.0368052572, 0.0247316789, -0.0947691351, 0.0830254629, -0.0395910293, 0.0356857814, -0.0161847305, 0.0033848949, -0.0013354229, -0.0639669374, 0.0898326486, 0.0443091393, -0.0855493173, -0.0742623284, -0.0245018620, -0.0008614145, -0.0555769019, -0.0263504405, -0.0128219686, -0.0070503661, -0.0663330406, 0.0065945513, -0.1017635912, 0.0287371539, -0.0504798368, 0.0815014616, -0.0597562715, 0.0655459613, -0.1082484201, 0.1987692714, -0.0488757081, -0.0326627195, -0.0838968307, -0.0944661722, -0.0163155757, -0.2074784338, 0.1332217753, -0.0042508058, -0.0407495461, 0.0007277348, -0.0501409993, 0.1113997027, 0.0779730156, -0.0583592504, -0.0555832237, -0.0665632710, -0.0179595668, -0.0213446151, 0.2076449543, 0.0025187952, -0.1416199505, -0.0505749732, 0.1343124062, -0.0627605170, 0.0254041199, -0.0609980635, -0.0587702245, 0.0313525982, -0.0701927096, -0.1433906108, -0.0274101645, 0.0276027266, -0.0385396741, -0.0571922138, -0.0008069117, -0.1279577762, 0.0282694362, -0.0222305954, -0.0493476614, -0.0008386466, 0.0098280190, 0.0123870671, 0.0490908995, -0.1372235417, 0.2640869319, 0.1587173790, -0.0695327744, -0.1656866074, -0.0227711257, -0.0202168152, -0.1768094003, -0.0510235429, -0.0814754143, 0.1058679074, -0.0333156362, -0.0349233821, -0.1004547253, -0.0564178303, -0.0307561085, 0.0861786157, -0.0757138506, -0.1033191308, 0.1463978142, 0.0514135398, 0.1343998760, -0.0252789278, 0.0338042453, 0.0868753940, -0.0532700270, -0.0103219599, 0.0547366738, -0.0809109360, -0.0088287015, -0.0010114170, -0.0120167956, -0.1634906530, 0.0462261327, -0.0212837011, 0.0448852107, -0.0470798351, -0.1219248921, 0.1321547627, -0.0103050470, -0.0156392176, -0.0502261519, 0.0427725874, -0.1731103212, 0.0252482258, 0.0396805704, -0.0569420122, 0.0041563814, 0.1799248308, -0.0171083640, 0.0456483327, 0.1020408124, 0.0334720686, 0.0887600183, 0.0046204193, -0.0874504298, 0.1601698995, 0.0063889809, -0.0298338626, 0.0559996553, -0.0928628147, -0.0612575263, -0.0085879881, -0.0424814299, 0.0625440627, -0.0767277479, 0.0513272434, 0.0101942858, -0.0116794510, -0.0067465575, -0.0518700071, 0.0850424618, -0.0602827333, 0.0383219756, -0.0479388759, 0.0248878300, -0.0422442257, 0.0140816737, -0.2532948554, -0.0017541274, 0.0182015076, -0.0596075542, 0.0051932428, 0.0756381825, 0.0669491887, 0.0197157133, -0.0154111879, 0.0208344255, 0.1201818362, -0.0115863942, 0.0253853295, -0.0315262079, 0.0175840035, -0.0447963439, -0.0389897451, -0.0601409934, -0.1085731313, 0.0525862500, 0.0782088116, -0.0250659231, 0.2079753876, 0.0312497485, -0.0495514572, 0.0370615758, -0.0512462333, -0.0834436864, 0.0721085668, -0.0878099576, -0.1063003764, -0.0094927810, -0.1477541476, -0.0082312012, 0.1867814660, -0.0659458339, 0.1755865067, -0.0525219627, -0.1824619621, 0.1352798343, -0.0820141286, -0.0505203940, 0.0233593360, -0.0482986309, 0.0357090719, -0.0407926962, 0.0002926119, -0.0331052355, 0.0318641216, -0.0502014384, -0.1119014397, 0.0997220352, 0.0220758859, -0.0237495191, -0.0092466008, -0.0326011181, -0.0296298377, 0.2742852867, 0.0036810767, -0.1985613704, 0.0840132907, -0.1001147255, 0.1399153173, -0.0460235551, 0.0612832569, -0.0472305082, -0.0671229810, 0.0751926154, 0.0131945312, 0.1011528298, -0.0026713870, 0.1437025219, -0.0551437251, 0.0633727834, -0.0237702392, -0.0345504284, -0.1076270863, -0.0329137892, -0.0670467019, -0.0504211746, 0.0171738006, -0.0228198338, 0.0637725070, -0.0100289891, -0.0068178666, 0.0275747534, -0.0740976930, -0.0849937722, 0.2344431579, -0.0713638365, -0.0674612820, -0.0364302136, 0.1376649439, 0.0354051664, 0.4457357526, 0.0419308506, -0.0790984705, 0.0163086616, -0.1459350884, 0.0853366330, -0.0481550023, -0.0091707483, -0.0621559508, 0.0083896462, -0.0633896515, -0.0245535001, 0.0236845501, 0.0051875464, 0.0038759066, -0.1689415574, 0.0068664439, -0.0086158821, -0.0587443672, -0.0096624391, 0.0501760691, 0.1246815100, -0.1355911791, 0.0169499945, 0.1116276607, -0.0006045042, -0.0539615080, -0.0185815413, 0.0354201049, -0.0124571128, 0.0144232074, -0.0048407102, 0.0082556857, 0.0940949470, -0.0152801806, -0.0519425012, 0.1497789770, -0.0144488988, 0.0744239837, 0.1255129725, 0.0696267262, 0.0657202154, -0.0307285618, 0.0485434420, 0.1588002890, -0.0064435415, -0.0459908694, 0.0437405556, 0.0151441786, -0.0127079599, -0.0647785217, -0.0149737783, 0.0806843489, 0.0212955829, 0.0704861358, -0.0222661104, -0.0356574282, -0.0310929324, 0.0149382120, -0.0363812149, -0.0296984725, 0.0766641125, -0.0071138670, -0.0505818464, 0.0011584593, -0.1330814064, 0.0565885343, 0.0295996852, -0.3172951043, 0.0432712696, 0.0300412234, -0.0135235162, 0.1498336047, -0.2265973389, 0.0018417203, -0.0768985897, 0.0090035358, -0.0349870250, 0.2376429290, -0.1557446271, -0.0248959586, -0.0072732572, 0.0100249257, -0.0345509835, 0.2883819342, 0.1101292968, 0.2430536002, 0.0348309800, -0.1068834290, 0.0908794552, -0.0832432061, 0.0001417894, -0.0560019873, 0.0426222831, 0.0696959272, -0.0333286896, -0.1412788779, -0.0767311156, -0.0305426866, -0.0445787199, -0.0034054688, 0.1089671403, -0.0708873421, 0.2338798791, 0.0739195347, 0.0097561590, -0.0687541738, 0.2216472179, 0.2249660045, -0.0355709866, 0.0257418845, -0.1092778370, 0.0003742298, -0.0652022362, -0.0314319842, -0.0622477606, 0.1048286632, -0.0861796588, -0.0765109584, -0.0224413313, 0.2081417441, -0.0451294705, 0.1840603799, -0.0709952787, -0.0414619185, 0.0130475853, -0.0315182619, -0.1460608840, -0.0182763264, 0.0312094595, -0.0678188950, 0.0228845049, 0.1259521246, -0.0412164927, -0.0688761696, 0.1283115000, -0.0576560013, 0.1403490901, -0.0398274139, 0.0019311591, 0.1928895712, -0.0243696533, -0.1429780573, 0.0224310532, 0.0221060719, -0.0747214109, 0.0298785828, -0.0213417597, 0.0421496481, -0.0033197463, -0.0379229151, 0.0477651134, 0.0282142740, -0.0017579102, -0.0897183269, 0.1658032835, -0.0123698292, -0.0221830029, 0.0269558374, -0.0154390726, 0.0081619360, 0.0079177469, -0.1017691344, -0.0092355683, -0.1365283281, -0.2000616193, 0.1728102267, 0.0902758166, -0.1257993281, 0.2057892680, 0.0159172658, -0.0487898737, 0.0245972909, -0.0118936636, 0.0817868933, -0.0874502286, 0.0134190805, 0.0175307710, -0.0126835853, 0.0426319130, 0.1539633572, 0.0211157706, -0.0057453476, 0.0268209092, 0.2372559309, -0.0475628935, 0.0242047478, 0.1052252650, -0.0598301888, -0.2108215839, -0.0254681483, -0.0644972771, 0.0570350923, 0.1150595322, -0.1342691779, 0.0016540485, -0.0038283002, -0.0510391444, 0.0682158545, 0.0818999112, 0.0468363911, 0.1193965003, -0.0031170161, 0.0761268958, 0.1849981546, -0.0496862531, 0.0285667758, -0.0855353326, -0.0625389367, -0.0158655327, 0.0196860339, 0.0202716365, -0.0245207753, 0.0316685922, -0.2279855311, 0.0347060449, -0.0576891154, 0.1091857329, -0.2279939353, 0.1080136374, -0.0101100001, -0.0205264557, 0.1147808433, -0.1966645271, -0.0782251433, 0.1148682237, 0.1016018093, 0.0177754723, 0.0481391251, 0.1717420369, -0.0706687272, 0.0042728991, -0.0209500846, 0.2093233019, -0.0353518315, -0.0488844141, 0.0163479745, -0.0530694723, -0.2404091209, -0.0055784308, -0.0407380946, 0.0237331539, -0.0025749765, -0.0799147636, 0.0616993122, 0.0785811022, -0.1117125452, 0.0535560325, -0.1312558949, -0.1568311155, 0.1835073680, -0.0212304723, -0.0291404258, 0.1413280368, 0.2098736614, -0.0699436888, 0.0749370679, 0.1140903383, -0.0099736024, -0.0635315552, -0.2289369255, -0.0276384037, -0.0976153761, 0.0013014522, 0.0773276687, 0.1069538072, 0.0242924932, 0.0579052530, -0.0051123467, -0.0172770862, -0.0946088433, -0.1223731264, -0.0323339738, -0.0589211211, -0.0272601414, -0.0389936455, -0.0142050581, 0.0242423937, 0.0190533977, 0.0584527701, -0.1087799445, 0.0652153790, 0.0063757920, -0.0082864501, -0.0275076181, 0.0328766294, -0.0172914919, 0.0598186255, 0.0235281978, -0.0372258686, 0.0060914326, -0.0276999567, -0.0771723911, 0.1758659631, -0.0354631469, 0.0508521236, -0.0303560067, -0.0024697208, -0.0714980513, 0.0620372146, -0.0213050619, -0.0141363721, -0.2672591507, 0.1106227562, 0.0092158597, 0.0480677709, 0.0012872979, -0.0273446850, 0.0664125606, 0.0072943363, -0.0792637095, -0.0103118643, -0.0182914194, -0.0705605075, -0.1247833967, 0.0194384288, -0.0231025685, -0.0158205498, 0.1434810758, 0.0808176026, -0.0522891171, -0.0003641493, 0.0801146179, 0.0392618924, -0.1441186666, -0.1023248732, -0.0446248688, -0.2642953098, 0.0930685997, -0.0936140865, 0.0160432309, 0.0039755618, -0.1417507827, -0.0163215287, 0.0263645127, -0.0541467741, -0.0632889792, 0.0541149378, -0.0316643044, -0.0011329445, 0.0194561966, 0.3093695641, 0.1850296110, -0.0383772813, -0.0567120723, 0.0025318912, 0.0698188394, 0.0378704518, -0.0593256243, -0.1641800255, -0.1747935712, 0.0706747770, 0.0230453573, -0.0022668168, -0.0353277586, -0.0272434093, 0.0856009796, -0.0287407320, 0.0075190556, 0.0762538984, -0.0658671707, -0.2046130449, -0.0794577375, -0.0030618364, 0.1139857993, -0.0029089744, 0.0862656906, -0.0200087503, -0.0401701666, -0.0510301329, -0.0014064907, -0.0103011662, 0.1638112962, -0.1184993833, 0.0053438838, 0.0298561398, 0.1813825369, -0.0492801592, 0.0146883558, 0.0676593259, -0.0624439567, -0.1245687529, 0.0747074857, -0.2079057097, 0.0569224507, 0.0607733727, -0.0752856582, -0.0093244156, -0.0355871469, 0.0547331236, 0.0159034934, 0.1125252172, 0.0336265936, -0.0774835348, -0.0374935567, 0.0127444202, 0.1134202406, -0.0445148833, -0.1139587685, 0.1069683805, -0.0232250486, -0.0889663100, 0.0228130072, -0.0054498357, -0.0255722497, -0.0152117964, 0.0172348544, -0.0061934115, 0.0782626197, -0.1514937133, -0.0567776747, -0.0333696343, 0.0208727159, -0.0350638293, 0.1519290656, -0.0805366933, 0.1016013473, 0.1423585862, 0.0146801537, 0.0133830272, -0.0604140796, -0.0220146831, 0.0032452841, -0.0726797804, -0.1269730479, 0.0792868957, 0.0294955000, 0.0635304078, 0.0610721409, -0.0510245115, 0.0279598702, 0.0242905822, -0.0487318076, -0.0552339628, -0.0543355569, -0.0046894755, -0.0339807719, 0.2635438442, -0.2952950001, -0.0540124513, 0.1862564236, 0.0198821966, 0.1451609135, 0.1433186829, -0.0446728319, -0.1719041616, 0.1402574182, -0.0276948921, 0.0958302170, 0.0824182928, -0.1775173992, -0.0197778959, -0.0929513797, 0.0043404754, 0.0376857296, -0.0496353246, 0.1403339654, -0.0498707816, -0.0460714735, 0.0375987291, 0.0953894034, -0.0924764127, 0.0928447247, 0.0086106397, 0.0203505661, 0.0175880864, 0.0346863531, -0.0678877160, -0.0317546725, 0.0551594719, -0.0058221831, -0.0017617655, 0.1672962755, -0.1496837437, -0.0463279895, 0.0823085085, 0.0283399783, -0.0912569910, 0.0204684865, -0.0806464180, -0.0445703678, 0.1202551872, 0.1102065444, -0.0284022689, -0.1076894701, 0.0358562544, -0.0621405467, -0.1137468517, -0.0993600711, 0.1718652546, -0.0059110252, -0.0739416704, -0.0709636882, 0.0288773850, -0.2116811723, -0.1205730364, -0.0905453861, -0.0952911079, -0.0111888573, -0.0090113273, 0.0710450113, -0.0668704957, -0.1413039118, -0.0502443090, 0.0737429485, 0.0249748658, 0.2061930597, 0.0645669848, -0.0540303960, 0.2172681093, 0.0082329307, 0.0617070273, 0.1221668571, -0.0178796276, -0.0454027355, -0.0061434209, -0.1792283356, 0.1420711130, -0.0965253264, -0.0253671054, -0.0559816211, 0.0933766738, 0.0396631509, 0.0133503191, -0.0821889937, -0.0704159811, 0.1480931342, -0.0733037218, 0.0321481787, 0.0361505710, -0.0074555324, 0.0449869446, 0.0278226193, 0.0314338617, -0.0483669937, -0.0089749685, -0.1275027543, 0.0814776793, 0.1301074028, -0.1298588067, 0.0445286222, 0.0486251004, 0.0492068566, 0.0247977562, 0.0054440140, -0.1118353605, -0.0667322576, 0.0299615022, 0.0081912046, 0.0170875955, 0.0207440034, -0.0113929529, 0.0870195031, -0.1606347412, 0.0132760387, 0.0864693075, 0.0990156531, -0.0375002027, -0.1058277488, 0.0760821551, -0.0286534280, 0.0094345268, -0.0227608196, 0.0341499038, 0.0622161366, 0.0056516216, 0.0309310891, 0.0282323658, 0.0452558734, -0.0842670873, -0.0829546526, -0.0601371638, -0.0336572342, -0.0228164438, 0.0782346949, -0.1015109196, 0.0436653160, -0.0108935172, -0.0159830563, -0.0177065190, -0.1865074933, -0.0286526736, -0.0679027066, -0.0620774738, 0.0032373525, -0.0524950512, -0.0610187910, 0.0057722861, -0.2956629395, -0.0599353388, 0.0759360418, -0.0608546175, 0.0288101584, 0.0001593357, -0.0351837873, 0.0197024941, -0.1060163081, -0.0865504146, 0.0418973267, -0.0496480353, 0.0786979869, 0.0878056288, -0.0295723192, -0.1465464085, 0.0183839984, 0.0419938602, -0.0726569965, 0.0666284338, -0.0408074707, 0.2599642575, 0.0146722076, 0.0218150094, -0.0810651481, -0.1763741374, -0.0411869437, -0.0300687775, -0.0663093776, 0.0349950753, -0.0195301902, 0.0455590226, 0.0523893386, -0.0742363557, 0.1463061124, -0.1223879829, -0.0115722865, 0.0189534985, -0.0413795486, 0.0479025431, 0.1236885563, -0.0629725531, 0.0368353277, -0.0108844684, 0.1776269674, -0.0697550774, 0.1426691860, -0.1790252775, 0.0305640195, 0.0773500279, -0.0368029997, -0.1209322810, 0.0138277328, 0.0442732871, -0.0670937598, 0.0446423627, -0.0535066016, -0.0781195834, 0.0346124992, -0.0580691025, 0.0313097760, -0.0483754762, -0.0294971112, 0.0596765392, 0.0771949664, -0.0478253923, -0.1041118577, -0.0721455291, 0.0520593338, 0.0019135583, 0.0039132726, -0.0678809360, 0.1392060816, -0.0106561119, 0.0012904573, 0.0238796137, 0.1177526563, 0.0937983096, -0.0295468196, 0.0297718309, 0.0405258536, -0.0206537489, -0.0054395273, -0.0768965185, 0.0920101404, 0.1220556200, -0.0326063782, -0.0185888261, 0.0924379900, -0.1220405474, 0.1123971716, -0.0145083582, -0.0485956818, 0.1671412438, -0.0633649006, -0.0473649725, 0.0296308175, 0.0193804540, 0.1339392662, 0.1136424765, 0.0466976613, 0.0494223125, 0.0582251959, 0.0294875670, -0.0802519098, 0.1096621007, 0.0587655492, -0.0633509085, -0.0209266860, -0.1034599170, 0.2725063264, 0.0951572955, 0.0593048744, -0.2112859637, -0.0723103583, 0.0131556699, 0.0122046880, 0.0445147566, -0.0215592254, -0.0506853685, -0.1116047725, -0.0930871889, -0.1190844849, 0.1721227169, -0.0685742497, -0.0629747659, -0.0571941212, -0.0683578402, 0.0824731365, -0.0280050486, 0.0948856995, -0.0472640991, 0.0360310413, -0.0948475301, -0.0571678951, 0.0183892790, 0.0129033234, -0.0588148795, -0.1514719725, -0.0801704377, -0.0689731911, 0.1148423254, 0.1062261537, -0.0129051581, -0.0234208908, -0.1132961363, 0.0396267213, 0.0286588036, -0.0139563326, 0.1374612898, 0.0470570326, -0.0237908997, -0.0840869769, -0.0183380730, -0.0678066015, 0.0110080699, -0.1016995236, 0.2600949109, -0.0950071514, 0.1801198274, -0.0926612690, 0.0131948795, -0.0256599132, -0.0407220200, -0.0470732786, -0.0524907745, 0.0391564034, -0.0979139134, 0.0387873612, 0.0419707708, -0.0519231036, -0.0676865503, -0.0118441824, -0.0458582826, 0.1433649510, 0.1187129691, -0.0032503027, -0.0027701550, 0.0215710755, -0.0417957492, 0.2628132701, -0.1662269235, 0.0969466791, -0.0578976758, 0.1549015045, 0.0609886125, -0.0095524471, 0.2534346879, -0.1336232871, -0.0822567567, -0.0373942107, 0.1310619861, 0.1462672502, -0.0548716560, 0.0341121778, 0.0254180748, 0.0158499796, -0.0414009355, 0.0453328565, 0.0454822108, 0.1005621776, 0.0229829475, -0.0708906427, -0.0338620618, -0.1646248996, 0.0914522409, 0.2475082874, -0.1687329113, -0.0535237342, -0.0827731863, 0.1447014213, -0.0297720656, 0.2079343349, 0.0779998973, -0.0800020322, 0.0361799598, -0.0116872815, -0.1002361551, 0.1357218772, -0.0244789813, 0.1476708055, 0.1084277704, -0.0110775912, 0.1054853722, 0.0174407437, -0.0318623893, -0.0189873315, -0.1035342440, -0.0222772472, 0.0224449243, -0.0191929042, -0.0589913093, 0.1560129523, -0.1093368754, -0.0625485703, -0.0568303131, -0.0275154095, 0.0420005620, 0.0255420227, 0.0166742560, -0.0025681388, -0.1216371730, -0.0496294238, -0.0603877008, 0.0841790065, 0.0982738063, -0.0052884859, -0.0165646374, -0.3171234131, -0.0304302666, 0.1531822234, 0.0380943604, -0.0524416640, -0.1149344146, -0.0287606809, 0.0325991809, 0.1619162560, -0.0154735409, -0.0229590572, -0.1541762501, 0.0233971495, 0.0442777760, -0.0646861568, 0.0508745387, 0.0463855490, -0.1206641495, -0.0103773167, 0.0051857014, 0.2148443758, 0.1882122308, -0.1008399874, -0.1239968389, 0.0095808255, 0.1004951745, -0.0971431509, 0.0306805652, -0.0843517631, 0.2454572320, 0.1606695205, -0.0749355629, -0.0421914048, 0.0157701112, 0.1833390296, 0.2091451883, 0.0696479082, 0.0615728796, 0.0029675507, -0.0894470587, 0.1038627774, -0.0408472568, 0.1815556735, 0.0755853355, -0.0337835178, 0.0295297988, 0.0430140533, -0.0068528270, 0.1454910934, -0.1375340372, -0.3895763159, -0.0371932350, -0.0435981750, 0.1344320476, 0.0523609556, -0.0420581065, 0.0101844585, -0.0814603120, -0.0568467528, 0.0182787422, 0.2354388982, 0.0084137870, 0.0239358041, 0.0110745654, 0.0342358910, 0.0519912802, 0.1245815754, 0.1441913098, 0.0480483584, 0.1708513945, 0.0287174042, 0.2402095050, 0.0262812059, 0.0015786627, 0.2621674240, -0.0460417643, -0.0392394364, -0.0602094792, -0.0139256911, -0.0444027930, 0.0912047178, -0.1228422225, -0.1631235331, 0.0237692334, -0.1061567739, 0.0440325178, 0.1421954781, 0.0457865559, -0.0096667763, 0.0185840111, 0.1958497167, -0.1412322223, 0.2837901413, -0.1026515961, 0.0801758617, 0.0445090681, 0.2824731171, 0.0460118875, 0.3034889400, 0.4811077416, -0.0517162494, -0.0129933525, 0.0159089081, 0.1257776171, 0.0406386741, 0.0146089364, 0.3339194357, -0.0839763433, -0.0621759631, -0.0261082575, -0.0176411048, -0.0719296560, 0.3481781781, -0.2409544736, -0.2374733090, -0.0038785031, -0.0342798494, -0.0297970325, 0.0755672082, 0.2526012659, 0.0268806536, 0.0316327475, -0.0180513095, 0.0066761272, -0.0273844227, 0.0199944191, 0.1483898163, 0.0521941520, -0.1583821326, -0.0928485841, 0.0260139387, 0.2346468419, -0.1039372981, -0.1821794659, -0.0147505645, 0.0001620070, 0.1871268749, -0.0466355495, 0.0800086781, 0.0390507095, -0.0214972887, -0.0679624677, -0.0391087346, 0.0141278310, 0.1415451169, -0.0985872373, 0.0467507541, -0.0494563319, -0.0083197393, 0.1333636791, 0.0261327941, -0.0472773202, 0.0473223478, -0.0844445303, -0.0788171738, 0.1223280355, 0.0239113253, 0.0021331615, 0.0392515212, -0.0240460783, 0.0941579491, 0.0760109350, -0.0901526734, -0.1877495646, 0.0070816479, 0.0240674224, -0.0168583989, -0.0642635524, -0.1497958899, 0.0289922766, -0.2494215518, -0.0572605729, -0.0915426314, -0.0722608045, 0.0068494715, 0.0170645043, 0.0333304219, 0.0447788797, 0.0290749781, -0.0486177132, -0.0527798273, -0.0345962532, 0.0423312970, 0.0703231096, -0.0116022043, 0.0756632090, 0.1834068447, 0.0291119944, -0.0217732172, -0.0617047101, 0.0008282773, 0.0027689754, -0.0254377592, -0.0608832985, 0.0412986353, 0.0625301525, 0.1770808846, -0.1024095044, 0.0118732192, 0.1018953770, 0.2897584736, -0.0111646410, 0.2754838765, -0.1555667371, 0.0122951055, -0.0842112452, 0.0327060036, -0.0090115760, 0.0782604218, -0.1210458577, -0.0386392474, -0.0033735561, -0.2675742507, -0.2682464123, -0.0367636383, 0.1043119878, -0.0032080794, 0.0038807350, 0.0689672902, 0.0804357007, 0.1819047481, 0.1452667266, -0.1169573888, 0.0064189364, 0.0454399958, 0.2161260247, 0.1263315529, 0.2615039945, 0.1182081029, 0.0009716618, -0.0056220125, -0.1574554294, 0.3443063200, -0.0454287902, 0.1167614907, 0.0526075773, -0.0184883103, -0.1072398797, -0.0176153742, -0.0127470810, 0.3179039657, 0.0002237186, -0.3831155896, 0.0196243599, -0.2110784948, -0.0848839507, 0.0053773662, 0.4002001584, -0.0348593406, -0.0491853990, 0.0401237980, 0.0053004581, 0.1317286491, -0.0064148931, 0.0030362799, -0.0730380639, -0.1498911828, -0.0978116244, -0.1206573248, 0.1678937525, 0.1109310538, -0.1448061764, -0.0658968315, 0.0682510510, -0.1720249951, -0.0843314826, -0.0146686686, -0.0864084587, -0.0514080785, -0.0383595154, -0.0477276556, -0.0642647445, 0.0753285438, -0.0902012363, -0.1531656682, -0.0310935881, -0.0040402198, -0.0490828343, 0.0082743801, 0.0274402834, -0.0004197186, 0.1407912672, -0.0600729845, -0.1092734560, 0.0586647838, 0.0357550681, -0.0955595896, 0.0217360202, 0.2773475051, 0.0975764170, 0.0046839039, 0.4747913480, -0.0675356910, -0.0864096656, 0.0013820148, 0.0201518368, 0.2888462842, -0.0289840829, -0.1717332602, -0.0700041428, -0.0195557233, -0.0636557639, -0.0295287371, -0.0843472034, 0.2828209698, -0.0375605524, 0.0343364701, 0.0396238342, -0.0854227170, 0.1180843785, 0.0098688193, 0.3668622375, 0.0511696115, -0.0374673642, 0.0651824847, -0.0003767849, -0.2988720238, 0.0396132544, -0.0561923981, 0.0259669814, 0.2627445757, 0.1453504264, -0.0864752084, 0.1982430369, 0.0492822900, -0.0066423584, -0.0593134686, -0.0414628386, 0.1015208066, -0.0841485932, 0.0838941485, -0.1534958184, 0.0226141494, 0.0023781243, -0.0287347808, -0.0392685123, 0.1901910156, 0.0722254142, -0.1980883181, 0.0306663662, -0.0440306962, -0.0372197665, 0.1383789182, 0.1285511851, 0.0136655681, 0.0443871543, -0.0841188729, -0.0277479906, -0.0858299360, 0.1316318065, 0.0919687748, 0.0264338963, -0.0437154509, -0.0055468972, 0.0974245295, 0.1311341673, -0.1387080997, 0.0492730625, -0.0069731534, -0.2162904292, 0.0537624471, -0.0810484365, -0.0489424020, 0.1061015502, -0.0533500090, -0.0042692665, 0.0500375815, 0.0225045923, -0.0331358425, -0.0112771867, -0.1745684892, 0.0405137539, -0.0082318401, 0.1420296133, 0.0579582453, 0.1172839850, -0.0668952689, -0.0040354165, -0.1542605460, 0.0423134491, -0.0299820136, 0.0516385920, -0.0034452439, 0.0032051220, -0.0015766844, -0.1133492664, 0.0456952639, 0.1437842995, -0.0611690842, -0.0844849646, -0.0567908324, -0.0338434838, 0.0811162740, -0.0113846455, 0.1202060282, -0.0450884625, -0.0167848188, -0.0114354007, 0.0435869806, -0.0574066937, 0.2455662042, 0.0636732727, -0.0633920729, -0.0385079011, 0.0624156259, 0.0021773763, 0.0477250703, 0.0181864835, -0.0200686995, 0.1422743201, -0.0188410208, -0.0741142705, -0.1134794429, -0.0525871292, 0.0548547991, -0.0370130092, -0.1077527627, 0.2421572953, 0.0482162572, 0.0163695291, -0.0981952548, 0.2749561965, -0.0871618018, -0.0495910756, -0.2041365206, -0.0270450562, -0.2844372392, -0.0602764748, -0.1139631867, 0.0214025173, 0.0118852966, -0.0312475339, 0.1536567956, 0.1528460383, -0.0069861906, -0.0095770191, -0.2382045984, -0.1667868346, -0.0127870291, 0.1366785914, -0.0225114021, -0.1254756153, 0.0383130498, 0.0479356200, -0.1095251739, -0.0723217428, -0.0477436297, -0.0317972824, 0.1352209002, -0.1042701006, 0.0595676117, 0.0759347752, -0.0116941473, -0.1300209612, -0.0440555662, -0.1110668853, 0.1322945058, -0.0394340754, -0.0004427284, 0.0987971947, -0.0579909720, -0.0493002720, -0.0626753569, -0.0186746214, 0.1325133890, -0.0286434852, -0.1929176599, 0.0110043893, -0.0280715618, -0.0585614592, 0.0747279301, 0.0448048413, -0.0234592836, -0.0118099032, 0.1381365061, -0.0060938527, 0.0541738868, -0.0504395552, -0.1056507304, 0.0346804000, 0.0646216273, 0.3044591844, -0.0751519129, 0.0713626370, 0.1387384832, 0.1047032028, -0.0835634544, 0.2050111145, 0.1500283480, 0.0033107428, 0.2267781794, -0.1566863954, -0.1012926027, -0.0345311165, 0.0248401240, -0.0144405821, 0.2133813947, -0.0754565448, -0.0795908570, -0.0391002335, -0.0479661338, -0.0530872755, -0.0387321562, 0.0389202461, -0.0809192806, -0.0716542304, 0.1983611733, -0.0498827808, 0.1926620305, -0.0773664787, -0.0560326986, -0.0469784886, 0.0374153405, 0.1155992597, -0.0356889293, 0.1023927033, -0.0256762654, -0.2105471045, 0.0173081104, 0.0743434131, -0.2024784982, 0.0303454436, -0.0134803765, -0.0466310345, -0.0401067100, -0.0103205685, -0.0509108752, -0.0654918849, 0.1442441791, -0.1106534824, -0.0320677981, 0.0113424715, 0.1154979765, -0.0786991641, 0.1518169492, 0.1100857556, 0.0154469721, -0.0446160063, -0.0007349866, -0.0288493000, 0.0457249917, -0.0895495713, -0.0560744852, -0.0511573628, 0.0967754722, -0.1159672439, -0.1336116195, -0.0518682748, -0.3392620683, 0.3253412843, -0.0312681384, 0.0615091100, 0.0018462414, 0.0015372369, 0.1675100625, 0.2578151822, 0.0263555590, -0.0230923742, -0.0415654667, 0.0335193351, -0.0172680728, 0.2252173573, 0.0461025909, -0.0278855674, 0.0192831364, 0.1140052602, -0.2159315944, 0.2877302468, -0.0067761312, -0.0864208490, -0.1005517617, 0.2104194313, -0.1448465735, -0.0718849972, -0.2214432657, 0.0310187358, 0.0386789702, 0.0684340000, 0.0100804679, 0.0133671481, -0.0706716999, 0.1209271550, 0.0010604752, 0.0162391029, -0.0202366188, -0.0362358615, 0.0680181012, 0.0110183349, -0.0237907059, -0.0865484998, -0.0572741777, -0.0876209065, 0.1092529446, 0.1096808836, -0.0330229960, -0.0813550577, -0.1067252383, 0.0365042016, -0.0647636726, 0.1390429437, 0.0511862449, -0.0679630488, 0.0024808450, 0.1796765625, 0.0578231029, -0.0008302457, -0.0848213211, 0.0222163387, -0.2147519737, 0.1121755093, -0.0372906439, -0.0097313961, -0.0679278523, -0.0117413215, -0.0922899023, 0.0688213408, -0.0911277533, 0.0100374259, 0.0621519946, 0.0746335387, -0.0672061890, -0.0200499408, 0.0354382284, -0.0223055407, -0.0542851537, 0.0192273445, 0.0972229019, 0.0256609898, 0.1668735147, 0.0805828869, 0.0134110143, -0.0246650781, -0.0358692855, -0.0180729087, -0.0934292302, 0.1771360934, -0.0529101603, -0.0019197552, -0.0305005684, -0.0418901592, -0.0167313647, 0.0897869095, -0.1297516674, 0.0709472001, -0.1848114431, -0.0825331956, -0.0102482988, -0.0694712177, 0.0588257797, -0.0453156941, 0.0247964803, 0.0129588544, -0.0130601665, 0.0162019972, 0.0512447655, -0.0001835630, 0.2558171749, -0.0281982571, 0.1206938326, -0.0860056356, -0.0132063059, -0.0266126692, 0.0918000191, -0.1224370971, -0.0419814847, 0.0078409966, -0.0182604492, 0.0007270326, -0.0336448550, 0.0939808935, 0.0114297075, 0.0604051836, -0.0322638564, 0.2647884190, 0.1596688479, 0.0250980612, -0.3173011839, 0.2626475096, -0.0852164552, -0.1506487876, -0.0710770786, -0.0698645860, 0.0583095327, -0.0831065401, 0.0286137629, -0.0216417219, -0.0588101521, -0.0214683674, 0.2728788853, 0.2137767226, -0.1050978526, -0.0382859260, -0.0032921915, -0.0427050702, 0.1478313655, 0.1476758569, 0.0020074137, -0.1147902161, -0.1080640703, -0.0359214731, -0.1238662526, 0.0054668803, -0.1049329937, -0.0272013731, -0.0402269997, -0.0500710011, 0.0135646490, 0.0281909592, -0.0206931736, -0.0341375098, -0.0232563876, 0.0547732078, -0.1464841217, 0.0189255569, 0.0090011982, -0.0363073125, 0.0323937796, 0.0213617049, 0.0414841771, -0.0565118864, 0.1570207924, 0.2057466656, -0.0297368653, -0.0780249611, 0.0941781327, 0.0848483145, 0.0996228606, 0.0638165325, 0.0245226491, -0.0993222818, 0.0046262518, 0.0213055275, -0.0139972577, -0.0791790783, -0.1919735074, -0.0059036934, -0.0351268351, -0.0284769498, -0.0152261676, -0.0182545595, 0.0029561110, 0.3891461790, -0.0003712250, 0.0981035903, 0.1571986526, 0.0051283473, 0.1156548336, -0.1123347431, -0.0392143056, -0.0649119541, -0.0156198852, -0.0157760587, 0.0245866273, 0.1528349072, 0.1578780264, -0.0192226674, 0.1552951485, 0.0550699160, 0.0238419529, -0.0463234894, -0.0668570250, -0.1660380214, -0.0643676072, 0.1627491415, 0.0249445178, -0.0276745930, 0.0330797769, -0.0532835610, 0.0478567332, -0.1994784474, -0.0161537584, -0.0531282723, 0.1360338777, -0.0881576538, -0.0801152438, -0.0833439603, -0.2153561115, -0.0405711792, 0.1649351567, -0.1444246024, -0.0904276893, -0.0017221395, -0.0061273351, 0.0246977899, 0.0220073797, 0.0592311732, 0.0566473901, -0.0676225573, 0.2392806858, -0.0633231476, -0.0470749699, 0.0797619298, -0.0066419658, -0.0477671437, -0.0567507558, 0.0792046040, 0.0549752079, -0.0223009922, -0.0326943658, -0.0214829054, -0.2939142287, 0.0168289766, -0.0947958156, 0.0303904843, -0.0155053269, 0.2423564494, 0.0027606003, -0.1456386596, -0.0138686812, -0.0812663212, 0.1207322478, 0.2671332359, -0.0630029514, -0.0205373373, -0.0549241379, 0.0299735405, 0.2412889451, 0.2711788416, -0.0049658366, -0.0514792427, 0.0694142133, 0.1366203278, 0.1632328779, -0.2084259391, 0.0318790898, -0.2168159485, -0.0344006903, 0.0608685836, -0.0826163813, 0.0961693078, -0.0238989517, 0.0162377562, 0.0166370235, -0.0990285724, 0.1000293195, 0.1186144054, -0.0154985143, 0.0188653152, -0.0830141604, -0.0211177003, 0.1026778296, -0.0227667838, 0.1598949283, 0.0792107880, -0.0657037497, -0.0185129270, 0.0317215957, -0.0108442483, 0.0613079257, 0.0901981294, 0.0725711435, -0.0399375707, 0.0492833778, 0.0049038171, 0.0206484348, 0.0384389386, -0.0581210367, 0.0107597858, -0.0745707601, 0.1017600819, 0.0673112497, 0.0805240348, -0.0534500927, 0.0353913344, -0.0662739947, -0.0483475924, 0.1588349491, -0.0178478789, -0.1159139499, 0.0698242337, -0.0790017992, 0.0752488151, 0.1302054226, 0.0237922892, 0.0560667031, -0.0592148192, 0.0091214553, -0.0374726392, -0.0489297137, -0.0465301462, 0.1081115901, -0.0515947714, 0.0530168526, -0.0094022546, 0.2521974444, 0.0847976804, -0.1843348891, -0.1105943471, 0.0185627639, -0.0548998639, 0.0657683313, -0.0489878133, -0.1699018925, -0.0019249611, -0.1392336637, -0.0648202226, 0.0569439232, 0.0830789506, 0.0683136433, 0.0295095537, -0.1336145848, -0.0043093120, 0.0211166274, -0.1696498841, 0.0339871533, -0.0594466217, 0.1440268904, 0.0177366845, -0.0532932654, -0.1014514863, -0.0448658653, 0.0004095878, 0.0254617762, -0.1284210384, 0.1109978631, -0.0328859389, 0.0649489239, -0.0165518355, -0.0506454036, 0.0834700093, -0.0666853189, -0.0505023897, -0.0626701191, 0.0779796094, 0.0274606273, 0.0228298940, 0.0546398237, -0.0223453902, -0.0196359213, 0.2726530135, 0.1137097105, -0.1876691133, -0.2172273099, 0.2437603474, -0.0244055949, 0.0800440907, 0.0622759052, -0.0591954626, -0.1524854600, -0.0960809737, 0.0526368730, -0.0039632153, 0.0047248863, 0.0020090211, -0.0069147544, 0.1806252450, 0.1193720698, -0.0247487538, -0.2212928683, -0.2034544051, 0.2954101264, 0.1451861858, 0.0124588199, -0.0977231115, -0.2263590544, 0.1564332396, 0.1517401934, -0.1193417385, -0.2358579934, -0.0335737541, 0.1000914723, -0.0557508692, -0.1375628710, 0.0431519449, 0.1068459600, -0.1229941472, -0.0975544453, -0.0565563552, -0.0015927277, 0.0328005031, -0.0689006448, 0.0272045135, -0.0113298418, -0.0757240653, 0.0429537520, -0.0156505667, -0.0488995053, 0.1244623438, 0.0194656253, -0.0115593644, -0.0129430946, 0.1319075376, 0.0386551954, -0.0308432188, -0.0404641107, -0.1235900447, -0.1639639884, 0.1033266410, -0.1322969943, -0.0797802135, -0.1371598840, -0.0725091621, 0.0253674127, 0.0458538681, -0.1330204308, 0.0229007378, -0.0234867819, 0.5035628080, -0.0253991894, -0.0125341443, 0.1440482289, -0.0663267374, 0.0015077962, 0.1768225133, -0.0816639438, -0.0574953146, -0.0435728170, -0.0087969778, -0.0474305414, -0.0190055426, 0.0255847536, 0.0352942236, -0.0100725247, -0.0067442246, -0.0432876609, 0.0669605210, -0.0099565350, -0.1126929224, 0.0359086767, 0.0742349923, 0.1195770949, 0.1252751350, -0.2207392603, 0.0389832333, -0.0710308328, -0.1025845036, 0.0343505554, 0.0928283483, -0.0535708740, -0.0744541809, -0.0197588988, -0.1660716087, 0.0992709920, -0.0409448743, 0.0035867714, 0.0348128043, -0.0766783208, -0.0397975072, 0.0001759998, 0.0163675807, -0.1957862675, -0.0843556300, -0.1563025564, 0.0060520470, 0.0481838956, -0.0597175397, -0.0867266580, -0.0400979891, 0.0317690708, -0.0442947000, -0.0662643164, 0.0728548020, 0.0807508901, 0.0186533537, 0.0205403324, 0.0505417921, -0.2122440040, 0.0086480081, -0.0992535502, -0.0061820536, 0.0700850412, 0.0606894940, -0.0327616632, 0.1012371331, 0.1395793855, -0.0615146831, 0.0631139427, 0.1114793420, -0.0240660738, 0.0303349700, -0.0547152720, -0.0241034031, 0.2112657875, 0.1941980273, -0.0754699856, 0.0205453001, 0.1354224980, 0.1005598232, -0.0356668793, -0.3171871603, 0.0243624393, -0.1283687055, -0.0085753305, 0.1904868633, 0.1229478717, 0.0541414171, -0.0966256037, 0.0055533298, 0.0566930436, 0.0050553004, 0.0030459480, 0.0842924863, -0.0711389855, 0.1386898905, 0.0040694145, -0.0508042984, 0.1764337420, 0.0126477489, -0.0045127124, 0.1542607248, -0.0119450800, -0.1030549929, -0.0222216044, -0.0758087412, -0.1845067143, 0.0678858832, 0.0697166249, 0.0197707359, 0.0861364007, 0.0218060128, 0.1855041534, -0.0696530789, -0.0470753983, 0.0383696333, 0.1466416121, 0.0993937850, -0.0196749251, 0.1581451446, 0.0017658215, -0.0366014615, -0.1132708266, -0.0250026472, 0.1003390625, -0.0272332542, 0.0869373009, -0.0754474923, -0.0530196987, -0.0889028013, 0.0236254893, 0.0285136495, 0.0220604893, -0.2740783989, -0.0247579422, 0.0057446146, -0.0576214828, -0.0227564797, 0.0428366847, -0.0781837776, -0.2143414617, -0.0277166776, -0.0365039185, 0.1037399471, -0.1099032536, -0.0453348272, -0.0330910869, -0.0398427211, 0.1688576937, 0.1515160650, -0.1504396796, -0.1017008498, -0.0303725637, -0.0218162816, 0.1690857559, 0.0411655828, 0.0358882174, -0.0016930518, -0.0582088530, -0.0193975009, -0.0131905517, -0.1422171742, 0.1751665324, -0.0659428611, 0.0266669542, 0.2413541079, -0.0242975540, -0.0774370581, 0.0109788524, -0.0383975208, -0.0070119621, 0.0347190499, 0.0643726289, -0.0620209500, 0.1167423725, 0.0312241502, 0.1348098069, 0.0402646065, -0.0014346874, 0.0295192674, 0.0232219733, -0.0307057258, -0.1364498585, 0.0514436178, 0.0901383013, -0.0083079785, 0.2005998343, 0.3147530258, 0.2359726578, 0.0033802933, -0.0102160936, -0.0143450843, -0.0649246201, 0.1665519029, -0.0846934542, -0.0120017137, -0.0120845996, 0.1179187149, -0.0486231633, 0.0507888980, -0.0537130088, -0.0781547651, 0.1642598212, 0.0441491343, 0.1597230136, 0.0119628496, -0.1650115103, -0.0877416432, 0.1266922206, 0.3110105991, 0.0118274055, -0.1409918666, -0.0117808245, 0.0511068255, -0.1133468002, -0.0880255103, -0.0573934019, 0.0390163846, 0.0904051363, 0.1102692485, 0.0214930680, 0.1514571011, -0.0309063680, 0.0253738146, 0.0002651325, -0.0216340851, 0.0306875147, -0.0315996818, 0.0029704538, 0.0898793265, 0.0013995292, -0.0948921144, -0.0079322830, -0.0583075397, -0.0904441923, -0.0582550690, -0.0379073136, 0.0262065139, -0.0568183847, -0.0232425071, 0.2148375809, 0.0564035103, 0.0378483459, 0.0218173452, 0.0100923069, -0.0126339300, -0.0688861310, -0.2202353030, 0.0361182801, -0.0226825643, 0.2436332256, 0.0415535159, 0.0452402569, 0.0711925253, 0.0571427792, 0.1675525904, 0.0235223770, 0.0797490254, 0.0317557342, -0.0016412152, 0.1372641921, 0.2965371013, -0.0723731667, -0.0413272232, 0.0489331484, 0.0427023582, -0.3538990319, -0.0595399328, 0.2270196378, -0.0003173050, 0.1025261804, 0.0656086877, -0.0158629231, -0.1096866503, 0.0612191670, -0.1431462616, 0.2523270249, 0.0618504584, -0.0536983237, -0.0815600753, -0.0851902887, -0.0172297657, 0.0597213022, -0.0411820896, 0.0843277276, -0.0711847469, -0.0949857906, 0.0608881041, -0.0902310312, 0.0047739786, 0.0303164460, 0.0089892568, -0.1809287369, 0.0675437078, -0.0571344197, 0.0238757171, 0.0305525530, 0.0321664549, 0.0099635357, 0.0521006323, 0.1028496325, -0.0175594110, -0.0717892423, 0.1329303384, -0.0707725585, -0.0662448183, -0.0093700364, -0.2290513366, 0.2181191444, -0.0315725803, -0.0442972966, -0.1216841042, -0.1515958607, -0.0610365868, -0.0976751521, -0.0151934419, 0.0786828026, -0.1583463699, 0.0862879381, -0.1013588831, 0.0232208967, 0.0904624090, 0.0560972318, 0.0203288533, 0.0961735621, -0.1840269715, -0.0745947137, -0.0840829313, -0.0437619835, -0.0654349551, -0.2335518152, 0.1506324410, -0.0642291307, 0.0025483570, -0.1867969483, 0.0973482653, 0.0954145044, 0.0061397310, -0.0108052436, 0.0659445971, 0.1120024100, 0.1958730072, 0.0224548094, 0.1562534422, -0.0979992226, 0.0165404007, 0.0910048634, 0.1274852604, 0.0162879229, 0.0333886705, -0.0156644993, 0.1507856250, -0.0736869499, 0.0895712227, 0.1154475287, -0.0493300110, 0.0283019803, 0.0832251161, -0.0950704366, -0.1042373180, 0.0217620693, 0.0404708795, -0.1464562565, -0.1939080209, 0.0533186719, -0.0600587428, 0.0275024548, 0.0718850642, 0.0653919429, -0.0381807871, -0.0492047928, -0.0317697637, 0.0776975602, -0.0621647350, 0.0048146793, -0.0088801542, -0.1025656611, -0.0252579488, -0.2379418910, -0.0406747721, 0.0376842171, 0.0727345198, -0.0774597600, 0.2056676745, -0.0568844713, -0.0374428444, -0.0845354050, -0.0083239758, 0.0834480450, -0.1789204478, -0.0615148991, 0.0312401336, 0.0064321719, 0.0234348401, -0.1167570278, 0.0120076546, 0.0847519487, -0.0160973519, -0.1423296481, 0.1400401443, -0.0080309892, -0.1643828601, -0.0303571485, 0.0428844765, -0.0329019986, -0.0463115387, -0.0356539935, 0.0300110467, -0.1170342192, -0.0191057436, -0.0362687483, -0.0150378691, -0.0827426761, 0.0496600568, -0.1745799631, 0.0116428072, -0.0844358504, -0.0916151330, 0.1766416878, 0.0031493143, -0.0799225122, 0.0318975076, -0.0400843099, -0.0315956362, 0.0019243801, 0.0439843386, -0.0022883061, 0.0453780815, -0.0720348284, -0.0183407571, 0.0156687442, -0.0071984697, -0.0010506599, -0.2016218603, -0.0115046091, -0.0245990995, -0.0515064523, 0.0645193234, -0.1073038131, 0.2366430312, -0.0986388475, 0.0414965414, 0.1278323531, 0.1483312398, 0.1515684426, -0.0316033177, -0.0622249730, 0.0756793320, -0.0143598206, -0.0835600644, 0.0190338250, -0.0505935550, 0.1169052497, -0.0517047383, 0.0468664020, -0.0332315713, -0.0267495513, 0.0014939989, -0.0255571678, 0.1894998997, -0.1185967699, 0.0267430805, -0.3035618663, -0.2188051045, 0.1973280460, 0.1645480543, 0.0304977484, 0.0950071216, 0.0881379247, 0.3110765815, -0.0606496297, -0.0336277597, -0.0494994596, 0.0489016846, 0.1325173080, -0.0861560628, -0.1403184831, 0.0044764159, 0.0888977498, -0.0169359539, -0.0091863051, 0.0765394494, 0.0811790377, -0.0019984986, 0.0160032492, -0.0556624942, 0.0221236609, -0.0833365917, 0.0335264616, -0.0418942086, -0.1857046485, -0.1691376865, -0.0521228872, -0.0011836754, 0.0043855165, -0.1240184829, 0.0188143179, 0.1071141809, -0.0011075883, 0.0873826668, -0.1215078831, 0.1097108126, -0.0559083708, 0.1562336534, -0.0767079741, 0.0011434895, 0.0200795159, 0.0199589692, -0.0166363083, -0.1125151590, 0.1308280677, 0.1710824668, -0.0795789286, 0.1675979048, 0.2192246914, -0.0496114083, 0.0299525298, 0.1298376769, -0.0064147660, -0.0451246276, -0.0351883769, -0.0615633689, -0.3300650418, 0.1604726613, -0.0344069451, 0.0044548535, -0.0418559760, 0.3921872377, 0.1054815501, -0.1770843714, -0.0227236748, -0.0767733306, -0.0383584499, -0.0573313273, 0.0990098417, 0.0449896790, -0.0516888946, -0.0122435549, 0.1507144123, 0.0381989777, 0.1065813154, -0.0706440955, 0.0340476818, -0.0746337920, -0.0671574324, 0.0523989387, 0.0630627722, 0.0158916339, 0.0643630102, 0.0256071668, 0.0286238827, -0.0112085184, 0.0476125777, 0.0470839441, -0.2729280293, -0.1591193974, -0.0182658508, -0.0541947819, -0.0983005241, -0.0578730889, -0.0134986201, 0.0140716247, 0.0368003882, -0.1821711361, -0.0917046443, 0.1331525743, -0.1070746481, 0.0245654117, -0.0634423271, -0.0422773026, -0.2170373648, 0.0825388506, 0.0279738959, -0.1410435140, -0.1990765780, 0.0409223288, -0.0428020321, -0.0107003031, 0.0776467919, -0.0547341034, -0.1452051848, -0.0497846976, 0.0234493650, 0.0472052507, 0.0359729305, 0.0459751673, -0.1506692767, 0.0535227358, 0.0237990599, -0.0524468794, -0.1223154664, 0.1625819951, 0.0895877481, 0.0328901485, 0.0436100774, 0.0399661399, 0.1692796052, 0.0561412498, 0.1646510363, 0.1273706555, -0.0935302451, -0.0063268794, 0.0297664590, 0.0889216363, 0.0327134542, 0.0195674226, -0.0849076137, -0.0475315824, 0.0049778782, -0.1246013939, 0.1731109768, -0.0415990464, -0.1181044430, 0.2160381675, -0.0905668065, -0.0213434547, 0.0171939731, -0.0323808044, -0.1547754109, -0.0970675796, -0.0470595434, 0.0275550373, 0.1729753315, 0.0570719577, 0.1731180549, 0.0490127988, 0.0287260376, -0.0662925094, 0.0054690973, 0.0483445860, 0.0933838338, 0.1211480573, -0.0356785320, -0.0060582086, -0.2532676160, 0.1482685655, 0.0110492222, -0.3039069772, -0.0330810100, 0.1212605834, -0.0806519762, -0.1021423414, -0.0886592865, 0.0116328681, 0.1137047857, -0.1316336989, 0.0300236456, -0.0266203620, -0.0043189414, -0.0013151523, 0.0853469148, 0.1317280233, -0.2874941826, -0.0337841138, -0.0285442956, 0.0324570537, 0.1722996235, -0.0506861955, -0.0037506782, 0.0774159431, 0.0381944217, 0.1982198209, 0.1933798790, -0.0138898417, -0.0012747884, 0.0259817056, 0.0838551000, -0.0029088201, 0.0350496173, 0.0067338301, -0.0295841489, -0.0359134041, -0.0098692402, 0.1108607575, 0.0450080186, 0.0216228534, 0.0189678706, -0.0287170857, -0.0438701287, 0.0052034538, 0.0058045206, 0.0087778447, -0.2344315648, -0.2105160505, -0.1580831558, -0.0180850476, 0.0227630008, -0.1307740510, 0.0877424181, 0.0527147315, -0.0587333255, 0.1349166632, -0.0381801687, 0.0119477753, 0.0791864395, 0.2470003963, 0.0306637976, 0.0342561789, 0.1430077255, 0.1882674098, 0.2909522951, -0.1326781064, 0.0093193669, 0.0653324723, -0.0577592067, -0.2650195956, 0.0741885453, -0.0097197518, 0.3296338320, 0.2035000473, -0.0080856383, -0.0651644170, 0.0311524756, 0.0200003367, 0.2669998705, 0.1977742761, -0.0711003318, 0.0197818168, -0.2844534814, -0.3030808270, 0.0366475061, 0.1032516286, -0.0016993359, -0.1594001949, 0.0437139608, 0.1422717124, 0.1601514518, 0.0053642783, -0.2551738024, -0.0154064773, -0.0859348625, 0.1069422737, -0.1784491837, 0.1439296305, 0.1474189460, -0.1671754122, -0.0293649863, 0.0814372823, 0.1746629477, 0.0254536290, 0.0000172618, 0.0878057703, 0.0089856554, 0.0410365276, -0.0191302802, -0.0612697825, -0.1360314637, -0.0714747533, -0.1265065074, -0.0277135428, 0.0395768620, -0.0483741127, -0.0433917195, -0.0389819220, 0.0176852923, -0.1628352255, -0.0752361789, 0.0237065461, -0.0121487910, -0.0391483195, 0.0521056131, -0.0032806210, 0.0070977742, 0.2495215386, 0.0358033441, -0.0507312864, 0.0795855969, -0.0049796659, -0.0763864592, -0.0055514872, 0.1884866953, -0.0267043393, 0.0607544295, 0.1842276603, -0.0664012879, 0.0103584956, -0.0212356094, -0.0343348756, -0.1332789660, 0.0622781701, 0.1755539179, 0.0301431604, -0.0876846761, 0.0355355479, 0.1250680834, -0.0213456862, 0.0472159646, 0.1118978709, 0.0203283355, -0.0243526921, 0.1731972396, -0.0948878378, -0.1730074883, -0.0331468731, -0.0933964029, 0.2508385181, -0.0507084392, -0.0245858599, -0.0792401880, 0.0809934065, -0.0682091787, 0.1438652873, 0.0852975994, 0.0236792043, -0.2324248701, 0.0132371262, 0.0457176343, 0.0416736379, 0.0445646495, -0.0431028344, -0.1805347949, -0.1780510694, 0.0783973187, -0.0025508194, -0.2282314003, 0.2141651809, 0.2400528044, -0.0341835469, -0.0494224243, 0.0786791295, -0.0964616239, 0.0935989544, -0.0781644508, 0.0006621742, 0.0764594376, 0.0386474617, -0.2740604579, 0.2055706382, 0.1584949344, -0.2712822556, -0.0387787670, -0.0043326984, 0.0004784651, -0.0252420381, 0.0958468914, -0.0140786460, -0.1465356201, -0.0559808575, -0.0244031437, -0.0930373818, -0.0633120611, -0.0482763611, -0.1881659627, 0.1005998030, 0.1425525546, -0.0657995492, -0.1140565649, -0.0531072654, 0.1025712118, -0.0725796446, -0.0342309251, 0.0979120284, 0.0881007463, -0.1184762269, 0.3905051649, 0.2097526342, 0.1658493429, 0.0140163545, 0.1932889074, 0.0167047046, 0.0754667595, 0.0045158598, 0.0337366909, 0.1010559946, -0.0718932077, 0.0213538557, 0.1290397793, -0.0489221774, -0.0644206181, 0.1771830469, 0.0420462303, -0.0586798638, 0.0595994778, -0.0313957036, -0.0372999460, -0.2201065123, 0.0932121351, -0.0377864875, -0.0279233903, -0.0248897951, 0.1677063107, 0.0989898592, -0.0403337739, 0.0825000554, 0.0152857425, -0.1519856602, 0.0781493783, -0.0431330763, -0.0677891001, 0.0403999574, -0.1504120082, -0.0182403959, -0.0257643163, -0.1223373190, -0.0189752784, 0.0974801630, 0.0074880496, -0.0691831708, 0.0335966274, 0.0076897456, -0.1269659400, -0.0942859203, 0.0385026187, -0.0357452445, 0.0077787330, -0.0623872206, -0.0471214317, 0.1535607725, 0.1086750478, -0.0013246797, 0.0145992693, 0.0251252130, -0.0301097073, 0.0480894260, -0.0030130371, 0.1354085803, 0.2313519567, 0.1087042913, -0.0430216603, 0.0558781810, -0.0551346540, -0.0239038784, 0.0322717093, 0.0879328325, -0.0301126167, 0.0259279385, -0.1007838994, 0.0889888555, 0.0195897929, 0.0050473111, 0.0106952945, -0.0286042374, 0.0138760451, 0.1509929448, -0.0036586551, -0.0481541269, -0.0087721283, -0.0592660606, -0.0978093520, 0.0088998703, -0.0791834965, -0.0297545809, -0.0876289904, -0.0521772392, 0.2073458731, 0.0280428231, 0.0242271386, 0.1694886237, -0.0568498187, -0.0079432838, 0.0547245741, -0.0045125079, 0.1321770996, 0.0457784720, 0.0983625799, 0.3430814445, 0.1972866207, -0.1130403802, -0.0514181927, 0.1017637998, -0.0256873481, -0.0245582405, 0.1708859801, 0.0336520560, 0.1853504181, 0.2009551078, -0.0561512262, -0.0325369947, -0.0507897511, -0.0647812486, -0.0087962914, 0.0003997106, 0.2057316899, 0.0014277138, -0.0149768880, -0.0639565289, 0.3778751493, 0.0382690281, -0.0608299859, 0.0103209447, -0.1520117372, -0.3155325651, -0.0423933603, -0.0017605013, -0.1601963043, 0.0201319233, 0.0773947835, 0.0442521721, 0.1902210265, -0.0795257092, 0.0891417935, 0.0069380389, -0.0177108757, 0.0991915166, 0.2674163878, -0.0093598608, -0.0019850119, -0.0623214245, -0.0066728820, 0.0347802676, -0.0156538785, -0.0352090001, -0.3317394853, 0.0943696573, -0.0506461635, 0.0113143064, -0.0397766866, -0.0222577117, 0.0468404554, -0.0565528497, -0.0223191530, -0.1454650313, 0.0283949245, 0.1743334234, 0.0068893898, 0.0848581865, 0.1207266971, -0.0725158155, -0.0070726648, 0.0426418670, 0.1136816293, 0.0357307792, 0.0821937248, 0.0451746807, -0.0633142665, 0.2953907847, 0.1120632961, -0.0310658161, 0.0660623312, 0.0044529545, -0.0372195467, -0.0683211088, 0.0192633383, -0.0361887068, -0.2074766606, 0.0206987169, -0.0500645079, -0.0200739913, -0.1270519197, -0.0938841626, 0.2483940870, 0.0834376141, 0.0577946417, -0.0141302487, -0.0192150977, -0.0180379041, 0.0329653062, -0.0152028119, 0.0537114516, 0.0341330320, -0.2192128301, 0.2219695002, 0.0031986320, -0.3737054169, 0.1224528477, 0.0407214016, 0.0175811984, 0.0734163821, -0.0929079205, -0.0057084123, -0.2122908235, -0.0423163883, -0.0213752128, 0.0406069010, -0.0568427667, -0.0141004026, -0.2940728962, 0.0943289921, -0.1665868014, -0.0175035261, -0.0671994463, 0.1070564538, 0.2033228278, -0.0638546050, 0.0267242286, 0.0912899524, -0.2320450693, 0.2180878073, 0.1634375304, -0.0410685092, -0.0185030513, -0.0022522151, -0.1001204252, -0.0758294091, 0.0540657341, -0.1891139895, -0.1294768751, 0.1521499902, 0.0013975813, 0.0901696384, -0.1158578321, 0.0014719402, -0.0245966408, 0.0122912228, -0.0222097654, -0.0187793989, -0.0256065540, -0.0174184684, -0.0420424975, 0.1888255477, -0.0690842047, -0.0685068816, -0.2263171971, -0.0011460617, 0.1222136244, -0.0664100721, -0.0332784243, -0.1568446010, 0.2178526670, -0.0125631727, 0.0700699762, 0.0615011379, 0.0487709902, -0.0491054803, 0.0645480379, 0.0894322097, 0.0705280080, 0.0736964121, -0.0924336091, 0.1622067243, 0.0153933698, -0.0376713537, 0.0967445150, -0.0655396283, 0.0881691426, 0.2206617147, 0.0139770173, -0.0044669094, 0.0610994734, 0.0481479689, -0.0775689855, -0.0511237606, -0.0234125983, 0.0211016238, 0.0443234816, -0.1113222539, 0.0660773441, 0.0290285740, -0.0237964764, 0.0229959581, -0.0977828950, -0.0560388640, -0.1026571989, 0.0922084749, -0.1038553044, 0.0217035823, -0.0475530587, -0.1605076939, 0.1621325016, -0.0053059878, -0.1145172268, -0.0762441382, 0.0455258749, 0.0446083061, -0.1313663721, 0.0020436929, 0.0020766992, -0.0664420575, 0.0143421767, 0.0232974011, 0.0102479123, -0.0140948743, 0.0337101482, 0.1864606142, -0.1162118539, 0.0252007693, 0.0064240722, 0.0759325400, 0.1644789279, 0.0068302755, -0.0494781919, -0.0447790436, 0.0430935696, -0.0098797437, -0.1044351682, 0.0203623921, 0.1073981076, -0.0706475973, 0.0852651000, 0.0864956453, 0.0956424102, -0.0980919078, 0.0977458581, 0.1354888380, -0.0033217950, -0.0490241610, -0.0233968198, -0.0205377862, -0.1415809542, 0.0684588775, -0.0476213209, 0.0026561059, -0.0400042385, -0.0004012299, -0.1236701757, -0.0617565699, 0.1259416193, 0.0158007052, -0.0405248106, -0.1154831126, 0.1481842399, -0.1243732199, 0.0034880675, 0.2121243626, -0.1056656688, -0.0549863204, 0.0065291231, 0.0944107920, -0.0040142080, -0.0300652776, 0.0162367932, 0.0123133063, 0.0046558594, 0.0710778087, 0.0653304234, -0.1542878598, -0.0090343580, 0.0403131619, 0.0298274420, -0.0042639151, 0.1257230937, 0.0941004753, -0.0080322260, 0.0026233820, 0.0176651366, -0.0039030372, 0.0056453762, -0.0107187629, 0.0243635196, -0.0025057867, -0.0981827006, -0.0410620831, -0.0834466815, -0.0216589142, -0.0257740319, -0.0351938345, 0.1778507829, -0.0637644306, -0.0027437021, -0.0304520577, -0.1205722168, -0.0520872250, 0.3066403866, -0.1028442904, 0.0759251639, 0.0255226828, -0.0428631566, 0.0139299789, -0.0623522848, 0.0030613826, 0.0377774201, -0.0161445793, 0.1601082236, 0.0244085621, 0.0125614665, -0.0529433303, 0.0132048903, -0.0391377881, -0.2244437188, -0.0668392405, 0.2124448866, -0.0349675007, -0.0729390010, -0.1362280846, 0.1788398474, -0.1617158353, 0.0062969155, 0.1538573056, -0.1037448943, 0.1737503260, 0.1190123558, 0.0837916359, 0.0197477192, -0.0590021685, 0.1284418553, 0.0324692279, -0.0265221540, -0.0216024667, 0.0157608055, 0.0125903413, -0.0015841419, 0.0896671191, -0.1344298422, 0.0155643933, 0.1663838178, -0.0557907410, 0.0173536055, 0.0029312102, 0.0562325604, 0.0419168919, -0.0897490010, 0.0342489444, 0.0121791782, -0.0451773815, -0.0157110356, 0.1625496745, -0.0130057717, -0.0351636782, -0.0167016760, -0.0181698389, 0.1232787594, 0.0621415079, 0.0878323019, -0.0908241868, -0.1603494436, -0.0290244184, 0.0153485322, -0.1788540184, -0.0066865226, -0.1654323488, -0.0306922980, -0.1157354414, 0.0029879285, 0.0634450614, -0.0462716706, -0.0206378121, 0.0252603348, -0.1293104589, 0.0014228571, 0.0017833706, 0.0075734812, -0.0059472681, -0.0688757598, 0.1085929349, 0.1719494015, 0.0129540637, -0.2374076843, -0.0774619654, 0.1793826520, -0.0675899014, 0.0106864246, -0.0405497588, -0.0724580213, 0.1398341954, -0.1219816878, 0.0277216248, -0.0431489199, 0.0274568349, 0.0809132829, -0.2251352519, 0.0981084481, -0.0710847080, -0.0092420466, -0.0283717066, 0.0021950854, -0.0992064923, -0.1227799654, 0.0078288233, 0.0315780416, -0.1220011711, -0.0171450321, 0.0330881365, -0.0388108827, -0.0398751013, -0.2237870991, 0.1246585995, -0.1102825701, 0.0148734692, -0.0942284390, 0.2010212541, -0.0627404451, -0.1958065629, -0.0689734295, -0.0467994511, -0.1803476363, -0.0867102370, 0.1648705900, 0.1750373393, 0.0088331085, -0.0179277863, 0.2091392577, 0.0252001509, 0.0723213777, -0.0345184952, 0.1076408476, -0.0287185069, 0.0185520910, 0.0032145376, -0.0678672865, 0.0145632569, 0.0036683818, 0.0719748437, -0.0755156428, -0.0412621498, 0.0317456760, 0.0293744970, 0.0050308504, 0.0058577829, -0.0334883854, -0.0366008170, -0.0903364718, -0.0487135425, 0.0311480202, 0.0567840226, 0.0046706595, 0.0423028320, 0.0502264835, 0.0845591202, -0.1891362816, -0.1650677025, -0.1846363842, 0.0144521706, -0.0667942166, 0.0225942302, 0.1375933141, -0.1575491875, 0.0284531675, -0.1050329134, -0.0486852750, 0.1732669175, 0.1063262224, 0.0032623571, -0.0541936345, 0.0434790477, 0.0561840534, -0.0276954174, 0.0234106667, -0.0268298537, -0.0983540416, 0.2409780622, -0.0389987975, -0.0341679566, -0.0300114620, 0.0019578929, -0.0277425628, -0.2406077236, -0.0323722698, 0.0116161332, 0.1958675981, -0.1133184880, -0.1932368279, -0.0130358217, -0.0949388221, -0.0062249135, 0.0144179650, -0.1437096000, 0.0531352125, -0.1615488529, -0.1363179833, 0.2174182385, -0.0031952024, -0.0629755259, -0.0758107603, 0.0432317443, -0.0300065540, 0.1263519377, -0.0130507872, -0.0407671109, -0.0040338808, 0.0350298211, -0.0180863943, 0.0277466513, 0.0804963484, -0.0405535251, -0.1200965792, -0.0447233692, 0.0411478393, 0.2065064311, 0.0142184757, 0.0269184783, -0.1415991634, 0.0283781812, -0.1514815539, 0.2704700828, 0.0449868627, 0.0438144542, 0.1242282763, -0.0518207997, -0.0709389970, 0.0723800659, -0.1191644445, 0.1210559830, -0.0287813116, 0.1686287671, -0.2484991252, 0.0367379300, 0.0217971765, 0.0870934576, -0.0439704917, -0.0558734275, -0.0164248012, 0.0005394772, -0.1229094267, 0.0815176219, -0.2079489976, 0.0354526676, 0.0526785478, -0.2448807359, 0.0877532884, 0.0284312982, -0.0277686678, 0.0170074180, 0.0609836467, -0.2816809416, 0.1343797445, -0.0169856828, 0.0072333785, -0.0075489292, 0.0477794036, 0.1463325769, 0.0212415978, -0.2223925442, -0.0192386955, -0.0996492878, 0.0197442845, 0.0445151106, 0.0148149924, 0.0219460633, 0.1742102057, 0.0730579868, 0.0095970733, -0.0090355789, 0.0534362793, -0.0419494435, -0.0343708508, -0.0013895606, -0.0100346785, -0.0062797321, -0.0080832466, 0.1860808283, 0.0471080169, 0.0796970427, -0.0198682863, 0.0364324600, -0.0691943541, 0.1314463168, 0.0758177862, 0.0065934234, -0.1171719655, 0.0199418049, 0.0113784587, 0.0800518021, -0.0461064279, 0.0667142496, 0.0953731164, 0.0382179543, -0.0348579101, -0.0802773535, 0.0671453103, -0.0464288108, -0.0077142566, 0.0230244845, -0.0058687567, 0.0042642620, 0.0208628364, -0.0350224301, -0.1131001040, 0.0675320178, -0.1140071303, -0.0136387032, -0.0231597405, -0.0448755287, 0.0394030437, -0.2032196224, -0.0239927173, -0.0277038869, -0.0137300389, -0.0200614445, 0.1261063665, 0.1049635783, -0.1141662076, -0.0202667043, 0.1008219123, -0.0843674913, 0.0487658828, -0.1412626207, -0.0625375062, 0.1281553060, -0.0660268664, -0.2642145455, 0.0675705075, 0.0335096754, -0.0303234272, 0.1095948145, -0.0607051551, 0.0226136353, -0.0051422729, 0.0233034734, -0.0337386355, 0.0759083331, -0.2928574085, -0.0223007705, -0.0998418257, 0.1199972779, 0.0952430144, 0.0244444963, -0.0679003298, 0.0266196504, 0.1312696189, 0.0807269365, -0.1600617021, -0.1363400370, -0.0210683513, 0.0109608108, 0.1902521253, 0.0469176434, -0.1281151026, -0.0151749961, 0.0440044999, 0.0570419244, -0.0598902479, 0.0805915222, 0.0136891957, -0.0412362516, -0.0706739351, -0.0521471016, -0.0759641379, 0.0091730403, -0.0344260596, 0.0514472686, -0.0226981696, -0.0678740293, 0.1173843369, -0.0261915158, -0.0152395582, 0.1307605058, 0.0749100298, -0.0136883911, -0.0236099456, 0.0699043944, -0.1059729084, -0.1446232796, 0.0873459876, 0.1457780600, -0.1252299398, 0.0459829159, 0.0907790139, 0.0111604491, 0.0661980882, 0.0724151284, -0.0424323194, 0.0863201693, -0.0082732225, -0.1166335642, -0.0335642509, 0.0492994748, -0.0777732804, 0.0082137184, -0.0551082268, 0.0035496638, -0.0148504749, 0.0350857750, -0.0402142927, 0.0224758890, -0.0934353620, -0.0084359376, -0.0979782790, -0.0101909060, 0.0260991007, 0.0887646526, 0.0155363325, 0.0668009520, -0.1030631438, 0.0233870260, -0.0544269606, -0.2900094390, -0.0938329920, 0.0243856199, -0.2135088444, -0.0563221015, -0.0438652113, 0.0967301354, -0.1482313871, -0.0969566107, -0.0418457426, -0.0037102445, 0.0637345314, -0.0270313863, -0.0844065547, -0.0997571945, -0.0085382219, -0.0347139761, 0.0309794880, 0.0220791437, 0.0072718533, 0.1901831627, 0.0494826250, -0.0601521321, 0.1763087064, 0.1711095721, 0.0810233131, -0.2148748636, -0.0636572614, -0.0507444255, 0.0598994903, -0.1587337404, -0.0928833485, 0.2069224268, -0.1721780002, 0.0056761969, 0.1284509301, -0.1186982393, 0.1009619087, -0.0543731600, 0.0152369458, 0.1626760960, -0.0427797846, -0.0813595653, -0.0056512579, 0.0312413611, 0.0101853153, 0.0579621568, -0.0391342267, 0.0188722014, 0.0192175955, 0.0575701222, -0.0155970007, 0.0786691159, -0.0349905156, -0.0425517596, 0.0164885316, 0.1031303108, -0.1075321138, 0.0556968078, -0.0548412316, -0.1225056648, 0.0591440350, -0.1734176129, -0.1187042668, -0.1263502985, 0.0957570672, -0.0359623879, 0.0023922748, 0.1937281191, -0.0012991751, 0.0467594154, -0.1113375798, 0.1159544215, -0.0105393855, 0.2342862785, -0.2016670853, -0.0408977903, -0.3133539855, 0.0178872608, 0.0260134023, -0.0315977335, -0.0235348307, -0.0155600253, 0.0088539515, -0.0202251077, 0.2028413266, -0.0391474143, -0.0693955123, -0.1747302562, -0.0221457556, -0.0812640041, 0.0317719094, 0.0468785875, 0.1311101466, -0.2581371367, 0.2699455917, -0.0122916577, 0.0059483964, -0.0032960000, -0.2267634273, 0.0687442347, 0.1021982357, -0.1057147458, 0.0662643760, -0.1620885283, 0.0494983047, -0.0114063071, -0.0359771177, -0.0331886150, 0.1533472389, -0.0178507939, -0.0247455332, -0.0378947034, -0.0156270992, -0.0556974076, 0.0861320496, 0.1457595080, -0.1648056954, 0.0085017309, 0.1270400733, 0.5674556494, -0.0013271867, 0.1431743652, -0.0160892382, -0.0488945432, -0.1693052649, 0.0074823187, -0.0724690184, -0.0328170247, 0.0979480371, -0.0080268262, 0.0648304895, 0.2438141257, -0.0497233979, 0.1373194307, 0.0974481925, -0.0249754675, 0.0125474278, 0.0712719187, 0.0025533256, -0.0854025483, -0.1086271256, 0.1352396905, 0.0153758442, -0.0657453537, 0.0367080607, 0.0505746715, -0.1802701503, -0.0758368075, -0.1106516272, -0.0008894716, -0.0146923382, 0.0459038801, 0.1604038626, 0.0765299201, 0.0013648833, 0.1895775795, -0.0239553284, 0.1584685147, 0.0033614077, -0.1223026812, -0.2243806571, -0.0741601139, -0.0468817689, 0.1904024780, -0.0238824133, 0.1175541654, 0.0981585011, -0.0844052657, -0.0404134654, -0.1133944318, -0.1535815746, 0.0144010205, 0.1365125328, 0.1420298368, -0.0056868889, 0.0176052246, 0.0336387008, -0.0690804720, 0.0122288056, -0.0408234745, -0.2566282451, 0.0501555614, 0.2515609860, 0.1636322290, 0.0649019554, -0.2139175832, 0.0096834740, -0.0546860471, -0.0166801717, -0.0604789667, -0.1067148000, -0.0045387587, -0.0031975224, -0.0060061170, 0.0257779062, 0.2342355847, -0.1653176099, -0.0426422805, 0.1497212201, 0.1779126227, -0.0530809946, 0.1437484473, 0.1087533981, 0.0029801361, -0.0599302538, -0.1769663095, 0.0143170012, -0.0452819206, 0.0071140495, -0.0183649287, -0.1944227815, -0.1092994735, -0.0785585120, 0.0000020627, 0.0385362916, -0.1886406839, -0.0849407688, -0.0359149761, -0.0534971058, -0.1858564466, 0.0224287771, 0.0601403192, 0.1278818250, 0.0609503761, 0.0926159695, -0.0053906413, 0.0293653272, -0.0222557262, 0.0996112600, 0.0915009752, -0.0625022054, 0.1170798540, -0.0889992192, 0.0583469793, 0.1033398136, 0.0365328044, -0.0939837843, 0.0390657187, -0.0725157186, -0.0573297590, 0.0175493024, -0.0270094778, 0.0152886137, -0.0494275764, -0.0434993543, -0.0619133189, -0.0886090621, -0.0205157511, -0.0009795611, 0.1441215873, -0.0117861619, 0.0341088697, -0.1014501899, 0.0938415006, 0.0224524383, 0.0848161057, 0.0382243693, 0.0080313794, -0.3004585207, -0.0690143481, -0.1345973164, -0.2327365875, -0.2172658741, 0.0532677881, -0.0776591226, -0.0145781040, -0.0598469302, -0.0289837364, 0.0003143188, -0.0476015657, -0.0081674606, -0.0474385582, -0.0612137355, 0.0409205332, 0.0323608890, 0.2065910697, 0.0789197385, 0.0207785796, 0.0431021154, 0.0150796678, -0.1670692861, -0.0414187759, 0.0200161915, 0.1602029353, 0.0243695825, -0.1390455216, -0.0405172110, 0.0144447656, -0.1524923444, -0.0163660329, 0.2228306234, -0.1003592536, 0.0674031004, 0.0909543037, -0.0603256337, -0.0630491972, -0.0727344081, -0.0247937180, 0.0478699096, 0.0094677377, 0.0708272234, 0.0471495129, -0.0517387427, -0.0786772594, 0.0348274559, 0.0352099612, 0.1298600882, -0.0557963960, 0.0589239821, -0.0220607035, -0.0318213664, 0.0331690684, 0.0185071062, 0.1902510673, -0.0670168772, -0.0453529879, -0.2300038636, -0.2172215730, -0.0096798390, 0.0783676878, 0.1228557453, 0.0415321477, -0.0407228284, 0.0293877739, 0.1089155227, 0.0397868603, -0.0208922233, 0.1328121871, -0.0358982459, 0.1135071889, -0.0227411743, -0.0241197981, -0.1550627500, -0.1944386810, -0.0625778884, -0.0123081189, 0.0030248351, -0.0010820938, 0.1625324786, 0.1967811435, 0.0040679611, -0.0148218274, -0.1299424022, 0.0073342230, -0.1356109977, -0.1627889872, -0.0159114227, 0.0483338423, 0.1899948716, -0.0384202637, 0.0842515826, -0.1378969848, -0.1770420223, -0.0678275302, 0.0503051765, 0.1110458523, 0.0669487491, 0.0767601132, 0.0636650324, -0.0545765869, -0.0444810800, 0.1273247004, 0.0888933018, -0.0930579901, 0.0487434976, -0.1093524173, 0.0068064062, 0.0410706289, 0.0486791916, 0.0382958278, -0.0077738096, 0.0183101092, 0.1232264563, -0.0351243541, -0.1752570868, 0.2084909976, 0.1779352129, -0.0926382244, -0.0386429802, -0.2185738534, -0.0576105751, -0.1124523282, 0.0327501409, 0.0766937584, 0.1520112157, -0.0187395401, 0.0747100413, -0.0561574847, -0.0377761461, 0.0200959276, 0.0640112534, 0.0134534901, -0.0214601271, 0.0795390978, 0.0131474724, -0.0228022914, 0.0469748266, -0.0060249236, -0.0126592424, -0.0233011767, -0.0065309592, -0.0531996340, 0.0278714728, 0.0476958416, -0.0755202770, -0.0053816955, -0.0214021225, -0.0802869052, 0.0385120884, 0.0788898319, 0.0308545846, 0.1594915390, -0.0638580918, 0.0671315864, 0.1015662104, -0.1061043814, 0.0940339640, -0.0267231166, -0.1534126550, 0.1162250116, 0.0657804087, -0.0963869691, -0.1157798469, 0.1726486534, 0.0053018718, -0.0722568184, -0.0345527008, 0.0040127118, -0.1940567046, 0.0164747741, 0.0114277750, 0.0452683344, 0.0279997457, 0.0060012657, 0.0208722949, 0.1616686881, 0.1618107557, 0.0293377601, -0.1127116010, 0.1131088510, 0.0248864032, -0.0178411063, -0.0129590193, -0.1152445376, -0.0906942114, -0.1103921607, 0.0011733053, -0.0114572197, 0.0584583804, 0.0039644111, 0.1585078686, -0.1197736859, -0.0686191246, -0.0075332448, -0.0288025066, -0.0391217880, -0.0044643730, -0.0590952337, 0.0293704104, 0.0117741348, 0.0910061523, 0.1194765419, -0.0261652023, -0.0436897874, 0.0093969321, -0.0701014474, 0.0238328241, -0.1739594340, 0.0163608640, 0.0227994788, 0.1047750860, -0.0687887371, 0.0591794699, 0.2423459888, -0.0109333014, -0.0238283258, -0.0207994245, -0.0263567027, 0.0443570390, 0.0699095801, 0.0782754049, -0.0425405353, -0.0085391700, -0.0526383147, 0.1590842009, 0.1214354858, 0.0002225765, -0.0145952860, -0.0340321101, -0.0077914298, 0.0986414179, 0.0118616791, -0.0766139254, -0.0692882836, 0.0024327338, -0.0667737350, -0.0000529401, 0.0414994806, 0.0039509442, -0.0932608992, -0.0610816739, -0.0372954272, -0.1365923285, 0.0368413553, 0.0907714888, 0.1051577181, -0.0358603634, 0.0792075172, -0.0164280329, -0.0399834514, -0.0250569973, -0.0422757342, -0.1030922234, 0.0071418397, -0.0490343422, -0.1761669070, 0.0995574147, 0.0607964806, -0.1137329787, -0.0754765198, -0.0851909518, -0.0142156100, 0.0454441011, -0.0348685049, 0.1351014972, -0.0812675133, -0.0084856758, -0.0225641355, 0.0065643750, -0.0195518937, -0.1258799136, 0.1372772902, -0.0495867096, -0.0216402449, 0.0790125057, -0.0918226913, 0.2461755425, -0.0263087954, -0.0444092005, 0.0509787984, -0.0790707096, 0.0392606556, 0.0757487193, 0.0797129422, -0.0584718622, -0.0235839933, -0.0665448681, -0.0221591163, 0.1340255290, 0.0078308973, -0.0844401568, -0.0852232948, -0.0080514709, -0.0635858402, 0.0412473641, -0.0985719636, 0.1268261224, 0.0711635277, 0.0141701875, -0.0358130150, 0.0333537869, -0.0227317736, -0.0500419103, -0.0378623903, 0.0907433778, 0.0418856516, 0.0086789178, -0.1028398648, -0.0443372726, -0.0067961775, -0.0385293812, 0.0378867015, -0.0720918030, 0.0040810853, 0.1059207022, 0.0333092958, 0.0760001466, -0.0420481898, 0.0113887582, 0.0107429605, -0.0612699352, -0.0339668728, 0.1019219682, 0.0033213226, -0.0530974828, 0.1646508276, -0.1963501871, 0.0383903868, -0.0809427351, -0.1314080358, -0.0675171316, -0.0163786709, 0.0547695197, -0.0926428661, -0.1593225002, 0.1008397415, 0.0477839448, -0.0386063829, 0.0022724813, -0.0998608023, 0.1416185647, -0.0628904477, 0.0504746102, 0.0568688959, 0.0765814409, -0.0191210639, 0.1499183774, -0.0102019878, -0.0578671843, 0.0031537202, -0.0275536887, 0.1997982562, 0.0170775726, 0.1355963647, -0.0691522509, -0.0660876259, -0.0038750721, 0.0196942613, 0.0333765820, -0.0017801606, 0.1243432462, -0.1678949296, 0.0406549312, -0.0523791835, -0.0274360720, -0.0675474107, -0.0313618369, -0.0545688197, -0.1022169366, -0.0554236323, 0.0490789413, 0.0226485096, 0.0558445491, -0.1259878278, 0.0414112248, 0.0858381689, -0.0397430174, 0.1234356090, -0.0015533583, 0.0983607247, 0.0988869295, -0.0068901232, 0.0926971212, -0.0503873341, -0.1028809398, 0.1563668251, 0.0164946392, -0.1057574749, -0.0411351584, 0.2139602900, 0.0665577948, 0.0060366285, -0.1727530211, 0.0711372197, -0.0063027870, -0.0157793593, 0.0029242374, -0.0806710273, 0.0839322731, 0.0013047054, -0.1248291954, 0.0175755955, -0.0882117376, -0.0971132144, 0.0915418044, 0.0262429379, -0.0787679404, 0.0571386069, 0.1293135136, 0.0189929400, 0.0738663897, -0.2146257460, 0.0845975354, 0.0363762788, 0.0780371502, -0.1162704676, -0.1688565016, 0.2340196818, 0.0615416095, 0.0638828278, -0.0453965850, -0.0339101627, -0.1727187037, -0.0370524302, -0.1086101383, -0.1283339858, 0.0400825404, 0.0471210033, 0.0096108699, 0.0457904600, -0.1315436959, 0.0087322732, 0.0633683279, 0.0054120743, -0.1815997064, 0.0621708781, 0.2476285547, -0.0286161471, 0.0383354835, 0.0619408414, -0.1120238155, -0.0509344712, -0.0165483467, 0.0026095049, -0.1148406342, -0.0726579204, 0.0008255387, -0.0357969478, 0.0757164061, 0.0829100162, 0.1098670885, -0.1508686543, 0.0372559726, -0.0442696773, -0.0294411443, -0.0499022380, 0.0569261760, 0.1998775154, -0.0708145946, -0.0493158251, -0.0579522066, 0.0051733283, -0.0479549803, -0.1787688583, -0.0276522115, -0.0302292220, 0.0014379036, -0.0435475782, 0.1644787043, -0.0361109264, 0.0126908906, -0.0535223782, -0.0198707916, -0.0786690414, 0.0772917196, 0.1027285457, 0.0263998229, 0.0162815806, -0.0523778200, 0.0608310439, -0.0173319969, 0.0679682121, 0.1217056736, -0.0530905128, -0.0709795356, -0.0088446839, 0.1559135616, 0.0021738384, -0.0624170229, 0.0221660901, 0.0380682051, -0.0011104554, -0.0101025067, -0.0568322130, -0.0725902915, 0.0806054249, 0.0158855692, 0.0349054225, -0.1204876676, -0.0093195923, -0.0106028104, 0.1253352761, -0.0307951253, -0.0390471518, -0.0318781957, -0.0429205894, -0.0289735459, -0.0060465550, -0.0144120231, 0.0370951332, -0.1047163680, -0.0072181579, 0.1211920828, 0.0811498985, -0.0660583153, 0.0029229138, -0.0643926859, 0.1268874556, 0.1486064792, -0.0677815378, 0.0251634829, -0.0514601693, -0.0606148131, 0.0208082423, -0.0174635127, 0.0325197615, 0.0320223123, -0.0236226842, 0.0112579251, -0.0135761686, 0.0221980624, 